~o
<STREAMINFO> 1 3
<VECSIZE> 3<NULLD><USER><DIAGC>
~h "a"
<BEGINHMM>
<NUMSTATES> 8
<STATE> 2
<NUMMIXES> 2
<MIXTURE> 1 9.774374e-01
<MEAN> 3
 5.645807e+00 4.502279e+00 4.687205e+00
<VARIANCE> 3
 9.194878e+00 7.746030e+00 6.870969e+00
<GCONST> 1.170676e+01
<MIXTURE> 2 2.256192e-02
<MEAN> 3
 3.711861e+00 -2.779756e+01 -1.000000e+02
<VARIANCE> 3
 1.119027e+01 2.004562e+03 1.000000e-02
<GCONST> 1.092669e+01
<STATE> 3
<NUMMIXES> 2
<MIXTURE> 1 9.859381e-01
<MEAN> 3
 3.414085e+00 4.511663e+00 3.034193e-03
<VARIANCE> 3
 8.617591e+00 8.893453e+00 1.000000e-02
<GCONST> 5.247581e+00
<MIXTURE> 2 1.405923e-02
<MEAN> 3
 7.357707e-01 -4.919272e+01 -1.000000e+02
<VARIANCE> 3
 2.997664e-02 2.477511e+03 1.000000e-02
<GCONST> 5.216134e+00
<STATE> 4
<NUMMIXES> 2
<MIXTURE> 1 9.896567e-01
<MEAN> 3
 4.505126e+00 2.642487e-03 2.876445e-04
<VARIANCE> 3
 8.488495e+00 1.000000e-02 1.000000e-02
<GCONST> -1.557998e+00
<MIXTURE> 2 1.034196e-02
<MEAN> 3
 4.513086e-01 -4.957471e+01 -1.000000e+02
<VARIANCE> 3
 1.089894e-02 2.477869e+03 1.000000e-02
<GCONST> 4.204526e+00
<STATE> 5
<NUMMIXES> 2
<MIXTURE> 1 9.615036e-01
<MEAN> 3
 1.197115e+00 -4.034067e+00 1.670483e-01
<VARIANCE> 3
 5.172721e+00 3.118842e+01 3.015129e+00
<GCONST> 1.170072e+01
<MIXTURE> 2 3.849607e-02
<MEAN> 3
 3.060963e-01 -4.324300e+01 -1.000000e+02
<VARIANCE> 3
 4.805825e-02 2.440924e+03 1.000000e-02
<GCONST> 5.673251e+00
<STATE> 6
<NUMMIXES> 2
<MIXTURE> 1 3.344224e-01
<MEAN> 3
 1.749891e-03 -4.186156e-04 -2.300049e-03
<VARIANCE> 3
 1.000000e-02 1.000000e-02 1.000000e-02
<GCONST> -8.301880e+00
<MIXTURE> 2 6.655304e-01
<MEAN> 3
 2.481152e-04 -5.083035e+01 -1.000000e+02
<VARIANCE> 3
 1.000000e-02 2.409605e+03 1.000000e-02
<GCONST> 4.090508e+00
<STATE> 7
<NUMMIXES> 2
<MIXTURE> 1 9.461683e-01
<MEAN> 3
 1.096744e-03 -2.125255e-01 -6.455565e-01
<VARIANCE> 3
 1.000000e-02 1.709958e-01 2.610153e-01
<GCONST> -2.200832e+00
<MIXTURE> 2 5.383170e-02
<MEAN> 3
 -1.522784e-01 -5.235079e+01 -1.000000e+02
<VARIANCE> 3
 1.000000e-02 2.239680e+03 1.000000e-02
<GCONST> 4.017379e+00
<TRANSP> 8
 0.000000e+00 1.000000e+00 0.000000e+00 0.000000e+00 0.000000e+00 0.000000e+00 0.000000e+00 0.000000e+00
 0.000000e+00 9.688973e-01 3.110268e-02 0.000000e+00 0.000000e+00 0.000000e+00 0.000000e+00 0.000000e+00
 0.000000e+00 0.000000e+00 9.663366e-01 3.366340e-02 0.000000e+00 0.000000e+00 0.000000e+00 0.000000e+00
 0.000000e+00 0.000000e+00 0.000000e+00 9.750252e-01 2.497472e-02 0.000000e+00 0.000000e+00 0.000000e+00
 0.000000e+00 0.000000e+00 0.000000e+00 0.000000e+00 9.211044e-01 7.889556e-02 0.000000e+00 0.000000e+00
 0.000000e+00 0.000000e+00 0.000000e+00 0.000000e+00 0.000000e+00 9.940912e-01 5.908784e-03 0.000000e+00
 0.000000e+00 0.000000e+00 0.000000e+00 0.000000e+00 0.000000e+00 0.000000e+00 8.867477e-01 1.132522e-01
 0.000000e+00 0.000000e+00 0.000000e+00 0.000000e+00 0.000000e+00 0.000000e+00 0.000000e+00 0.000000e+00
<ENDHMM>
~h "e"
<BEGINHMM>
<NUMSTATES> 8
<STATE> 2
<NUMMIXES> 2
<MIXTURE> 1 9.844306e-01
<MEAN> 3
 3.136360e-05 -4.874019e-03 -6.155287e+00
<VARIANCE> 3
 1.000000e-02 1.000000e-02 1.646453e+01
<GCONST> -8.955007e-01
<MIXTURE> 2 1.557144e-02
<MEAN> 3
 -3.321264e-01 -5.229967e+01 -1.000000e+02
<VARIANCE> 3
 1.000000e-02 2.239620e+03 1.000000e-02
<GCONST> 4.017352e+00
<STATE> 3
<NUMMIXES> 2
<MIXTURE> 1 1.072008e-01
<MEAN> 3
 -5.343328e-01 -1.660473e-01 -5.098393e+00
<VARIANCE> 3
 2.133189e-01 6.668468e-02 1.794817e+01
<GCONST> 4.148372e+00
<MIXTURE> 2 8.927928e-01
<MEAN> 3
 -1.089872e+00 -4.973470e+01 -1.000000e+02
<VARIANCE> 3
 3.940812e-01 2.355990e+03 1.000000e-02
<GCONST> 7.741979e+00
<STATE> 4
<NUMMIXES> 2
<MIXTURE> 1 9.859831e-01
<MEAN> 3
 -4.350740e-03 -6.137276e+00 -6.776858e+00
<VARIANCE> 3
 1.000000e-02 1.255462e+01 1.377862e+01
<GCONST> 6.061668e+00
<MIXTURE> 2 1.401659e-02
<MEAN> 3
 -2.478176e+00 -5.088494e+01 -1.000000e+02
<VARIANCE> 3
 4.868162e-02 2.255579e+03 1.000000e-02
<GCONST> 5.607169e+00
<STATE> 5
<NUMMIXES> 2
<MIXTURE> 1 1.218982e-01
<MEAN> 3
 -2.799211e+00 -2.157624e+00 -1.004367e+00
<VARIANCE> 3
 3.075655e+00 5.949142e+00 4.052637e+00
<GCONST> 9.819764e+00
<MIXTURE> 2 8.780879e-01
<MEAN> 3
 -8.448473e+00 -4.819842e+00 -1.000000e+02
<VARIANCE> 3
 4.778580e+00 6.539373e+01 1.000000e-02
<GCONST> 6.653031e+00
<STATE> 6
<NUMMIXES> 2
<MIXTURE> 1 1.006468e-01
<MEAN> 3
 -1.807361e+00 -8.153463e+00 -8.208350e+00
<VARIANCE> 3
 1.252184e+00 6.564843e+00 8.852763e+00
<GCONST> 9.800979e+00
<MIXTURE> 2 8.993525e-01
<MEAN> 3
 -8.115479e+00 -9.943910e+01 -1.000000e+02
<VARIANCE> 3
 4.754769e+00 5.502928e+01 1.000000e-02
<GCONST> 6.475474e+00
<STATE> 7
<NUMMIXES> 2
<MIXTURE> 1 9.879601e-01
<MEAN> 3
 -8.786625e+00 -8.268866e+00 -7.945031e+00
<VARIANCE> 3
 5.042286e+00 7.803344e+00 8.231410e+00
<GCONST> 1.129400e+01
<MIXTURE> 2 1.204161e-02
<MEAN> 3
 -4.005375e+00 -4.935107e+01 -1.000000e+02
<VARIANCE> 3
 5.203071e-01 2.432972e+03 1.000000e-02
<GCONST> 8.051993e+00
<TRANSP> 8
 0.000000e+00 1.000000e+00 0.000000e+00 0.000000e+00 0.000000e+00 0.000000e+00 0.000000e+00 0.000000e+00
 0.000000e+00 9.659286e-01 3.407144e-02 0.000000e+00 0.000000e+00 0.000000e+00 0.000000e+00 0.000000e+00
 0.000000e+00 0.000000e+00 9.256843e-01 7.431573e-02 0.000000e+00 0.000000e+00 0.000000e+00 0.000000e+00
 0.000000e+00 0.000000e+00 0.000000e+00 9.714172e-01 2.858279e-02 0.000000e+00 0.000000e+00 0.000000e+00
 0.000000e+00 0.000000e+00 0.000000e+00 0.000000e+00 9.796865e-01 2.031355e-02 0.000000e+00 0.000000e+00
 0.000000e+00 0.000000e+00 0.000000e+00 0.000000e+00 0.000000e+00 9.775680e-01 2.243196e-02 0.000000e+00
 0.000000e+00 0.000000e+00 0.000000e+00 0.000000e+00 0.000000e+00 0.000000e+00 9.733364e-01 2.666356e-02
 0.000000e+00 0.000000e+00 0.000000e+00 0.000000e+00 0.000000e+00 0.000000e+00 0.000000e+00 0.000000e+00
<ENDHMM>
~h "i"
<BEGINHMM>
<NUMSTATES> 8
<STATE> 2
<NUMMIXES> 2
<MIXTURE> 1 9.469647e-01
<MEAN> 3
 -8.037679e-01 -5.024569e+00 -6.972805e+00
<VARIANCE> 3
 5.223947e+00 1.891326e+01 1.478444e+01
<GCONST> 1.280032e+01
<MIXTURE> 2 5.303516e-02
<MEAN> 3
 -3.117519e+00 -4.469560e+01 -1.000000e+02
<VARIANCE> 3
 2.001617e-01 2.391340e+03 1.000000e-02
<GCONST> 7.079440e+00
<STATE> 3
<NUMMIXES> 2
<MIXTURE> 1 9.850435e-01
<MEAN> 3
 -7.055739e+00 -8.351681e+00 -3.208076e-03
<VARIANCE> 3
 1.322210e+01 6.756744e+00 1.000000e-02
<GCONST> 5.400891e+00
<MIXTURE> 2 1.495741e-02
<MEAN> 3
 -2.315444e+00 -5.073066e+01 -1.000000e+02
<VARIANCE> 3
 8.461872e-02 2.439719e+03 1.000000e-02
<GCONST> 6.238500e+00
<STATE> 4
<NUMMIXES> 2
<MIXTURE> 1 8.645568e-01
<MEAN> 3
 -5.480935e+00 -7.771188e-03 2.657387e+00
<VARIANCE> 3
 2.003360e+01 2.271576e-02 7.741984e+00
<GCONST> 6.773004e+00
<MIXTURE> 2 1.354424e-01
<MEAN> 3
 -4.231906e+00 -2.232287e+01 -1.000000e+02
<VARIANCE> 3
 1.128370e+01 1.748914e+03 1.000000e-02
<GCONST> 1.079857e+01
<STATE> 5
<NUMMIXES> 2
<MIXTURE> 1 9.861089e-01
<MEAN> 3
 -8.135203e+00 -1.528823e-03 7.701656e-04
<VARIANCE> 3
 7.041113e+00 1.000000e-02 1.000000e-02
<GCONST> -1.744943e+00
<MIXTURE> 2 1.389159e-02
<MEAN> 3
 -1.027552e+00 -4.944920e+01 -1.000000e+02
<VARIANCE> 3
 5.444849e-02 2.451306e+03 1.000000e-02
<GCONST> 5.802338e+00
<STATE> 6
<NUMMIXES> 2
<MIXTURE> 1 8.855730e-01
<MEAN> 3
 -3.630881e+00 1.641933e+00 5.446494e-01
<VARIANCE> 3
 1.691171e+01 4.407091e+00 1.157436e+01
<GCONST> 1.227364e+01
<MIXTURE> 2 1.144279e-01
<MEAN> 3
 -6.504402e-01 -4.563835e+01 -1.000000e+02
<VARIANCE> 3
 6.649538e-02 2.448624e+03 1.000000e-02
<GCONST> 6.001120e+00
<STATE> 7
<NUMMIXES> 2
<MIXTURE> 1 5.222636e-01
<MEAN> 3
 -1.982256e-03 1.128856e-03 1.977260e-03
<VARIANCE> 3
 1.000000e-02 1.000000e-02 1.000000e-02
<GCONST> -8.301880e+00
<MIXTURE> 2 4.776880e-01
<MEAN> 3
 -1.569588e-03 -1.527103e-01 -1.000000e+02
<VARIANCE> 3
 1.000000e-02 4.169791e+01 1.000000e-02
<GCONST> 3.374195e-02
<TRANSP> 8
 0.000000e+00 1.000000e+00 0.000000e+00 0.000000e+00 0.000000e+00 0.000000e+00 0.000000e+00 0.000000e+00
 0.000000e+00 9.027619e-01 9.723811e-02 0.000000e+00 0.000000e+00 0.000000e+00 0.000000e+00 0.000000e+00
 0.000000e+00 0.000000e+00 9.699965e-01 3.000350e-02 0.000000e+00 0.000000e+00 0.000000e+00 0.000000e+00
 0.000000e+00 0.000000e+00 0.000000e+00 8.718882e-01 1.281118e-01 0.000000e+00 0.000000e+00 0.000000e+00
 0.000000e+00 0.000000e+00 0.000000e+00 0.000000e+00 9.723684e-01 2.763168e-02 0.000000e+00 0.000000e+00
 0.000000e+00 0.000000e+00 0.000000e+00 0.000000e+00 0.000000e+00 8.816701e-01 1.183299e-01 0.000000e+00
 0.000000e+00 0.000000e+00 0.000000e+00 0.000000e+00 0.000000e+00 0.000000e+00 9.914719e-01 8.528110e-03
 0.000000e+00 0.000000e+00 0.000000e+00 0.000000e+00 0.000000e+00 0.000000e+00 0.000000e+00 0.000000e+00
<ENDHMM>
~h "m"
<BEGINHMM>
<NUMSTATES> 8
<STATE> 2
<NUMMIXES> 2
<MIXTURE> 1 1.839284e-01
<MEAN> 3
 7.149765e-04 6.070690e-03 2.863446e+00
<VARIANCE> 3
 1.000000e-02 1.000000e-02 9.275936e+00
<GCONST> -1.469286e+00
<MIXTURE> 2 8.160180e-01
<MEAN> 3
 7.270921e-04 -9.974107e+01 -1.000000e+02
<VARIANCE> 3
 1.000000e-02 2.594795e+01 1.000000e-02
<GCONST> -4.406166e-01
<STATE> 3
<NUMMIXES> 2
<MIXTURE> 1 9.828259e-01
<MEAN> 3
 2.992023e-03 2.519441e+00 2.105992e+00
<VARIANCE> 3
 1.000000e-02 3.913613e+00 9.412353e+00
<GCONST> 4.514945e+00
<MIXTURE> 2 1.717103e-02
<MEAN> 3
 2.840820e-01 -5.318627e+01 -1.000000e+02
<VARIANCE> 3
 1.000000e-02 2.514977e+03 1.000000e-02
<GCONST> 4.133309e+00
<STATE> 4
<NUMMIXES> 2
<MIXTURE> 1 9.511916e-01
<MEAN> 3
 2.234921e+00 2.330412e-01 -2.863152e+00
<VARIANCE> 3
 3.505298e+00 3.834165e-01 2.804219e+01
<GCONST> 9.142984e+00
<MIXTURE> 2 4.880936e-02
<MEAN> 3
 4.615866e-01 -5.120979e+01 -1.000000e+02
<VARIANCE> 3
 1.564789e-02 2.544100e+03 1.000000e-02
<GCONST> 4.592574e+00
<STATE> 5
<NUMMIXES> 2
<MIXTURE> 1 9.576973e-01
<MEAN> 3
 2.000253e+00 4.352353e+00 2.831178e+00
<VARIANCE> 3
 1.915628e+00 4.954295e+00 7.224166e+00
<GCONST> 9.741364e+00
<MIXTURE> 2 4.229883e-02
<MEAN> 3
 6.725594e-01 -5.061544e+01 -1.000000e+02
<VARIANCE> 3
 4.470953e-02 2.548723e+03 1.000000e-02
<GCONST> 5.644240e+00
<STATE> 6
<NUMMIXES> 2
<MIXTURE> 1 7.656600e-03
<MEAN> 3
 1.791324e+00 2.769186e+00 7.469423e-01
<VARIANCE> 3
 4.232885e+00 6.112680e+00 1.996931e+00
<GCONST> 9.458492e+00
<MIXTURE> 2 9.923439e-01
<MEAN> 3
 3.472324e+00 1.263837e+00 -1.000000e+02
<VARIANCE> 3
 7.568317e+00 6.008261e+01 1.000000e-02
<GCONST> 7.028153e+00
<STATE> 7
<NUMMIXES> 2
<MIXTURE> 1 1.510485e-02
<MEAN> 3
 1.888517e+00 2.884208e+00 7.386175e-01
<VARIANCE> 3
 4.540854e+00 6.534817e+00 1.859642e+00
<GCONST> 9.524275e+00
<MIXTURE> 2 9.848943e-01
<MEAN> 3
 4.272914e+00 -9.923694e+01 -1.000000e+02
<VARIANCE> 3
 9.122008e+00 7.537944e+01 1.000000e-02
<GCONST> 7.441686e+00
<TRANSP> 8
 0.000000e+00 1.000000e+00 0.000000e+00 0.000000e+00 0.000000e+00 0.000000e+00 0.000000e+00 0.000000e+00
 0.000000e+00 9.903265e-01 9.673477e-03 0.000000e+00 0.000000e+00 0.000000e+00 0.000000e+00 0.000000e+00
 0.000000e+00 0.000000e+00 9.636686e-01 3.633146e-02 0.000000e+00 0.000000e+00 0.000000e+00 0.000000e+00
 0.000000e+00 0.000000e+00 0.000000e+00 9.042178e-01 9.578224e-02 0.000000e+00 0.000000e+00 0.000000e+00
 0.000000e+00 0.000000e+00 0.000000e+00 0.000000e+00 9.183035e-01 8.169645e-02 0.000000e+00 0.000000e+00
 0.000000e+00 0.000000e+00 0.000000e+00 0.000000e+00 0.000000e+00 9.803237e-01 1.967631e-02 0.000000e+00
 0.000000e+00 0.000000e+00 0.000000e+00 0.000000e+00 0.000000e+00 0.000000e+00 9.613938e-01 3.860622e-02
 0.000000e+00 0.000000e+00 0.000000e+00 0.000000e+00 0.000000e+00 0.000000e+00 0.000000e+00 0.000000e+00
<ENDHMM>
~h "sil"
<BEGINHMM>
<NUMSTATES> 8
<STATE> 2
<NUMMIXES> 2
<MIXTURE> 1 9.366171e-01
<MEAN> 3
 9.361403e+00 3.101805e+00 1.075500e+00
<VARIANCE> 3
 6.904421e+00 7.134103e+00 3.358135e+00
<GCONST> 1.062207e+01
<MIXTURE> 2 6.338269e-02
<MEAN> 3
 4.876454e+00 -6.464751e+01 -6.287386e+01
<VARIANCE> 3
 5.534350e+00 1.982135e+03 2.192024e+03
<GCONST> 2.250912e+01
<STATE> 3
<NUMMIXES> 2
<MIXTURE> 1 3.661183e-02
<MEAN> 3
 5.119922e+00 -7.066645e+01 -7.080197e+01
<VARIANCE> 3
 8.814359e+00 2.129883e+03 2.117469e+03
<GCONST> 2.301181e+01
<MIXTURE> 2 9.633883e-01
<MEAN> 3
 9.251071e+00 -3.897854e-04 3.908804e-03
<VARIANCE> 3
 3.164941e+00 1.000000e-02 1.000000e-02
<GCONST> -2.544575e+00
<STATE> 4
<NUMMIXES> 2
<MIXTURE> 1 2.210506e-02
<MEAN> 3
 4.751827e+00 -8.625798e+01 -8.686729e+01
<VARIANCE> 3
 8.122616e+00 1.248865e+03 1.142372e+03
<GCONST> 2.177913e+01
<MIXTURE> 2 9.778951e-01
<MEAN> 3
 8.256220e+00 2.303374e-03 3.169896e+00
<VARIANCE> 3
 8.619479e+00 1.000000e-02 8.115705e+00
<GCONST> 5.156287e+00
<STATE> 5
<NUMMIXES> 2
<MIXTURE> 1 8.268324e-02
<MEAN> 3
 5.188293e+00 -7.359586e+01 -7.347081e+01
<VARIANCE> 3
 8.490981e+00 2.003126e+03 2.026961e+03
<GCONST> 2.286939e+01
<MIXTURE> 2 9.173161e-01
<MEAN> 3
 6.516442e+00 6.476435e-03 -7.937159e+00
<VARIANCE> 3
 6.279947e+00 1.000000e-02 9.929006e+00
<GCONST> 5.041283e+00
<STATE> 6
<NUMMIXES> 2
<MIXTURE> 1 6.817950e-02
<MEAN> 3
 4.108509e+00 -9.878674e+01 -9.882629e+01
<VARIANCE> 3
 4.476411e+00 1.295543e+02 1.212453e+02
<GCONST> 1.667437e+01
<MIXTURE> 2 9.318202e-01
<MEAN> 3
 7.727566e+00 1.257053e+00 2.704397e+00
<VARIANCE> 3
 8.547835e+00 7.086682e-01 1.906953e+00
<GCONST> 7.960448e+00
<STATE> 7
<NUMMIXES> 2
<MIXTURE> 1 9.578796e-01
<MEAN> 3
 8.114349e+00 4.295102e+00 2.749584e-03
<VARIANCE> 3
 1.335107e+01 8.725914e+00 1.000000e-02
<GCONST> 5.666354e+00
<MIXTURE> 2 4.212032e-02
<MEAN> 3
 4.753495e+00 -6.496526e+01 -6.436588e+01
<VARIANCE> 3
 6.679418e+00 2.362731e+03 2.444989e+03
<GCONST> 2.298203e+01
<TRANSP> 8
 0.000000e+00 1.000000e+00 0.000000e+00 0.000000e+00 0.000000e+00 0.000000e+00 0.000000e+00 0.000000e+00
 0.000000e+00 9.223130e-01 7.768700e-02 0.000000e+00 0.000000e+00 0.000000e+00 0.000000e+00 0.000000e+00
 0.000000e+00 0.000000e+00 9.478520e-01 5.214801e-02 0.000000e+00 0.000000e+00 0.000000e+00 0.000000e+00
 0.000000e+00 0.000000e+00 0.000000e+00 9.615945e-01 3.840552e-02 0.000000e+00 0.000000e+00 0.000000e+00
 0.000000e+00 0.000000e+00 0.000000e+00 0.000000e+00 8.773405e-01 1.226595e-01 0.000000e+00 0.000000e+00
 0.000000e+00 0.000000e+00 0.000000e+00 0.000000e+00 0.000000e+00 8.651733e-01 1.348267e-01 0.000000e+00
 0.000000e+00 0.000000e+00 0.000000e+00 0.000000e+00 0.000000e+00 0.000000e+00 9.445637e-01 5.543623e-02
 0.000000e+00 0.000000e+00 0.000000e+00 0.000000e+00 0.000000e+00 0.000000e+00 0.000000e+00 0.000000e+00
<ENDHMM>
