~o
<STREAMINFO> 1 3
<VECSIZE> 3<NULLD><USER><DIAGC>
~h "a"
<BEGINHMM>
<NUMSTATES> 8
<STATE> 2
<NUMMIXES> 2
<MIXTURE> 1 6.032950e-01
<MEAN> 3
 3.917852e+00 3.691027e+00 2.004199e+00
<VARIANCE> 3
 8.854637e+00 5.320388e+00 9.126223e+00
<GCONST> 1.157727e+01
<MIXTURE> 2 3.967054e-01
<MEAN> 3
 2.705646e-01 -5.462338e+01 -1.000000e+02
<VARIANCE> 3
 6.179690e-01 2.499753e+03 1.000000e-02
<GCONST> 8.251091e+00
<STATE> 3
<NUMMIXES> 2
<MIXTURE> 1 9.945160e-03
<MEAN> 3
 3.231665e+00 2.925234e+00 -2.130169e+01
<VARIANCE> 3
 8.742498e+00 8.511535e+00 1.841437e+03
<GCONST> 1.734155e+01
<MIXTURE> 2 9.900539e-01
<MEAN> 3
 -5.945490e-04 -1.000000e+02 -1.000000e+02
<VARIANCE> 3
 1.000000e-02 1.000000e-02 1.000000e-02
<GCONST> -8.301880e+00
<STATE> 4
<NUMMIXES> 2
<MIXTURE> 1 9.913819e-01
<MEAN> 3
 5.305247e+00 5.760928e+00 4.477792e+00
<VARIANCE> 3
 9.842813e+00 6.542489e+00 8.208830e+00
<GCONST> 1.178390e+01
<MIXTURE> 2 8.618267e-03
<MEAN> 3
 2.151969e-01 -5.450018e+01 -1.000000e+02
<VARIANCE> 3
 6.775633e-02 2.499317e+03 1.000000e-02
<GCONST> 6.040397e+00
<STATE> 5
<NUMMIXES> 2
<MIXTURE> 1 9.744380e-01
<MEAN> 3
 1.671057e+00 1.163486e-01 -6.172867e-01
<VARIANCE> 3
 5.539670e+00 3.436362e-01 3.933280e+01
<GCONST> 9.829453e+00
<MIXTURE> 2 2.556186e-02
<MEAN> 3
 1.148109e-01 -5.231675e+01 -1.000000e+02
<VARIANCE> 3
 2.229043e-02 2.522007e+03 1.000000e-02
<GCONST> 4.937674e+00
<STATE> 6
<NUMMIXES> 2
<MIXTURE> 1 9.901788e-01
<MEAN> 3
 4.692104e+00 9.173723e-01 1.293444e-03
<VARIANCE> 3
 9.267573e+00 3.076470e+00 1.000000e-02
<GCONST> 4.258765e+00
<MIXTURE> 2 9.821652e-03
<MEAN> 3
 4.971252e-02 -4.979003e+01 -1.000000e+02
<VARIANCE> 3
 1.000000e-02 2.522807e+03 1.000000e-02
<GCONST> 4.136418e+00
<STATE> 7
<NUMMIXES> 2
<MIXTURE> 1 9.545554e-02
<MEAN> 3
 2.067331e-02 -6.905001e+00 7.975961e-02
<VARIANCE> 3
 1.000000e-02 1.340579e+01 1.327461e-01
<GCONST> 1.484831e+00
<MIXTURE> 2 9.045337e-01
<MEAN> 3
 -7.352179e-04 -1.807461e+00 -1.000000e+02
<VARIANCE> 3
 1.000000e-02 4.819934e+01 1.000000e-02
<GCONST> 1.786361e-01
<TRANSP> 8
 0.000000e+00 1.000000e+00 0.000000e+00 0.000000e+00 0.000000e+00 0.000000e+00 0.000000e+00 0.000000e+00
 0.000000e+00 1.192703e-04 9.998807e-01 0.000000e+00 0.000000e+00 0.000000e+00 0.000000e+00 0.000000e+00
 0.000000e+00 0.000000e+00 9.873297e-01 1.267034e-02 0.000000e+00 0.000000e+00 0.000000e+00 0.000000e+00
 0.000000e+00 0.000000e+00 0.000000e+00 9.783346e-01 2.166542e-02 0.000000e+00 0.000000e+00 0.000000e+00
 0.000000e+00 0.000000e+00 0.000000e+00 0.000000e+00 9.382188e-01 6.178118e-02 0.000000e+00 0.000000e+00
 0.000000e+00 0.000000e+00 0.000000e+00 0.000000e+00 0.000000e+00 9.774225e-01 2.257742e-02 0.000000e+00
 0.000000e+00 0.000000e+00 0.000000e+00 0.000000e+00 0.000000e+00 0.000000e+00 9.834467e-01 1.655326e-02
 0.000000e+00 0.000000e+00 0.000000e+00 0.000000e+00 0.000000e+00 0.000000e+00 0.000000e+00 0.000000e+00
<ENDHMM>
~h "e"
<BEGINHMM>
<NUMSTATES> 8
<STATE> 2
<NUMMIXES> 2
<MIXTURE> 1 9.935826e-01
<MEAN> 3
 5.324698e-04 -9.490600e-04 -2.330285e-03
<VARIANCE> 3
 1.000000e-02 1.000000e-02 1.000000e-02
<GCONST> -8.301880e+00
<MIXTURE> 2 6.418058e-03
<MEAN> 3
 -1.429657e-01 -5.172378e+01 -1.000000e+02
<VARIANCE> 3
 2.690804e-02 2.272480e+03 1.000000e-02
<GCONST> 5.021758e+00
<STATE> 3
<NUMMIXES> 2
<MIXTURE> 1 9.918420e-01
<MEAN> 3
 -1.903813e-03 -3.016843e+00 -5.670893e+00
<VARIANCE> 3
 1.000000e-02 1.485395e+01 1.579384e+01
<GCONST> 6.366347e+00
<MIXTURE> 2 8.153410e-03
<MEAN> 3
 -2.488938e-01 -5.150404e+01 -1.000000e+02
<VARIANCE> 3
 6.554619e-02 2.272713e+03 1.000000e-02
<GCONST> 5.912190e+00
<STATE> 4
<NUMMIXES> 2
<MIXTURE> 1 9.785183e-01
<MEAN> 3
 -5.560964e+00 -2.741635e+00 -4.177989e-01
<VARIANCE> 3
 1.349734e+01 1.092521e+01 1.985601e+00
<GCONST> 1.119312e+01
<MIXTURE> 2 2.148266e-02
<MEAN> 3
 -3.886745e-01 -5.042502e+01 -1.000000e+02
<VARIANCE> 3
 1.528843e-01 2.272221e+03 1.000000e-02
<GCONST> 6.758901e+00
<STATE> 5
<NUMMIXES> 2
<MIXTURE> 1 9.671626e-01
<MEAN> 3
 -2.804021e+00 -7.941701e+00 -8.451290e+00
<VARIANCE> 3
 4.488264e+00 8.505894e+00 5.026115e+00
<GCONST> 1.077050e+01
<MIXTURE> 2 3.283652e-02
<MEAN> 3
 -5.657685e-01 -4.844323e+01 -1.000000e+02
<VARIANCE> 3
 3.635693e-01 2.271532e+03 1.000000e-02
<GCONST> 7.624886e+00
<STATE> 6
<NUMMIXES> 2
<MIXTURE> 1 3.142982e-02
<MEAN> 3
 -7.243835e+00 -2.748714e+00 -8.364885e-03
<VARIANCE> 3
 9.536601e+00 1.638893e+01 4.127700e+01
<GCONST> 1.428568e+01
<MIXTURE> 2 9.685680e-01
<MEAN> 3
 -7.535534e+00 -4.884961e+00 -1.000000e+02
<VARIANCE> 3
 9.991714e+00 5.919251e+01 1.000000e-02
<GCONST> 7.291013e+00
<STATE> 7
<NUMMIXES> 2
<MIXTURE> 1 9.861289e-01
<MEAN> 3
 -9.390347e+00 -9.249193e+00 -7.819793e+00
<VARIANCE> 3
 2.733047e+00 2.620028e+00 7.995121e+00
<GCONST> 9.561065e+00
<MIXTURE> 2 1.387155e-02
<MEAN> 3
 -1.946963e+00 -4.871135e+01 -1.000000e+02
<VARIANCE> 3
 4.417658e+00 2.393205e+03 1.000000e-02
<GCONST> 1.017446e+01
<TRANSP> 8
 0.000000e+00 1.000000e+00 0.000000e+00 0.000000e+00 0.000000e+00 0.000000e+00 0.000000e+00 0.000000e+00
 0.000000e+00 9.854565e-01 1.454341e-02 0.000000e+00 0.000000e+00 0.000000e+00 0.000000e+00 0.000000e+00
 0.000000e+00 0.000000e+00 9.816081e-01 1.839193e-02 0.000000e+00 0.000000e+00 0.000000e+00 0.000000e+00
 0.000000e+00 0.000000e+00 0.000000e+00 9.526347e-01 4.736530e-02 0.000000e+00 0.000000e+00 0.000000e+00
 0.000000e+00 0.000000e+00 0.000000e+00 0.000000e+00 9.305683e-01 6.943168e-02 0.000000e+00 0.000000e+00
 0.000000e+00 0.000000e+00 0.000000e+00 0.000000e+00 0.000000e+00 9.804964e-01 1.950364e-02 0.000000e+00
 0.000000e+00 0.000000e+00 0.000000e+00 0.000000e+00 0.000000e+00 0.000000e+00 9.696643e-01 3.033573e-02
 0.000000e+00 0.000000e+00 0.000000e+00 0.000000e+00 0.000000e+00 0.000000e+00 0.000000e+00 0.000000e+00
<ENDHMM>
~h "i"
<BEGINHMM>
<NUMSTATES> 8
<STATE> 2
<NUMMIXES> 2
<MIXTURE> 1 9.739801e-01
<MEAN> 3
 -1.906002e+00 -3.825814e+00 -8.334810e+00
<VARIANCE> 3
 1.247018e+01 1.848646e+01 8.320148e+00
<GCONST> 1.307269e+01
<MIXTURE> 2 2.601967e-02
<MEAN> 3
 -1.531107e+00 -4.861406e+01 -1.000000e+02
<VARIANCE> 3
 2.783418e+00 2.395169e+03 1.000000e-02
<GCONST> 9.713349e+00
<STATE> 3
<NUMMIXES> 2
<MIXTURE> 1 9.824566e-01
<MEAN> 3
 -8.043397e+00 -8.163380e+00 -5.071592e-03
<VARIANCE> 3
 8.993994e+00 7.488458e+00 1.000000e-02
<GCONST> 5.118381e+00
<MIXTURE> 2 1.754387e-02
<MEAN> 3
 -1.137417e+00 -4.862620e+01 -1.000000e+02
<VARIANCE> 3
 1.641481e+00 2.397893e+03 1.000000e-02
<GCONST> 9.186406e+00
<STATE> 4
<NUMMIXES> 2
<MIXTURE> 1 9.811500e-01
<MEAN> 3
 -7.801770e+00 -3.249516e-03 8.109847e-03
<VARIANCE> 3
 8.825965e+00 1.000000e-02 1.000000e-02
<GCONST> -1.519011e+00
<MIXTURE> 2 1.884768e-02
<MEAN> 3
 -8.539447e-01 -4.578015e+01 -1.000000e+02
<VARIANCE> 3
 9.392348e-01 2.389924e+03 1.000000e-02
<GCONST> 8.624788e+00
<STATE> 5
<NUMMIXES> 2
<MIXTURE> 1 9.930601e-01
<MEAN> 3
 -1.964185e-03 7.003985e-04 1.455238e-03
<VARIANCE> 3
 1.000000e-02 1.000000e-02 1.000000e-02
<GCONST> -8.301880e+00
<MIXTURE> 2 6.940402e-03
<MEAN> 3
 -5.165638e-01 -4.792454e+01 -1.000000e+02
<VARIANCE> 3
 5.064765e-01 2.401487e+03 1.000000e-02
<GCONST> 8.012027e+00
<STATE> 6
<NUMMIXES> 2
<MIXTURE> 1 9.319446e-01
<MEAN> 3
 -3.359493e+00 1.586816e+00 1.308433e+00
<VARIANCE> 3
 1.947128e+01 4.771955e+00 4.333767e+00
<GCONST> 1.151177e+01
<MIXTURE> 2 6.805053e-02
<MEAN> 3
 -3.009786e-01 -4.700359e+01 -1.000000e+02
<VARIANCE> 3
 2.738751e-01 2.399538e+03 1.000000e-02
<GCONST> 7.396409e+00
<STATE> 7
<NUMMIXES> 2
<MIXTURE> 1 8.903925e-01
<MEAN> 3
 -2.991004e-04 1.148512e+00 1.212616e+00
<VARIANCE> 3
 1.942720e-02 4.868431e-01 1.632788e+01
<GCONST> 3.645611e+00
<MIXTURE> 2 1.096082e-01
<MEAN> 3
 -8.155846e-02 -4.786434e+01 -1.000000e+02
<VARIANCE> 3
 2.389028e-02 2.395909e+03 1.000000e-02
<GCONST> 4.955695e+00
<TRANSP> 8
 0.000000e+00 1.000000e+00 0.000000e+00 0.000000e+00 0.000000e+00 0.000000e+00 0.000000e+00 0.000000e+00
 0.000000e+00 9.431860e-01 5.681393e-02 0.000000e+00 0.000000e+00 0.000000e+00 0.000000e+00 0.000000e+00
 0.000000e+00 0.000000e+00 9.616605e-01 3.833953e-02 0.000000e+00 0.000000e+00 0.000000e+00 0.000000e+00
 0.000000e+00 0.000000e+00 0.000000e+00 9.612033e-01 3.879663e-02 0.000000e+00 0.000000e+00 0.000000e+00
 0.000000e+00 0.000000e+00 0.000000e+00 0.000000e+00 9.850369e-01 1.496310e-02 0.000000e+00 0.000000e+00
 0.000000e+00 0.000000e+00 0.000000e+00 0.000000e+00 0.000000e+00 8.560809e-01 1.439191e-01 0.000000e+00
 0.000000e+00 0.000000e+00 0.000000e+00 0.000000e+00 0.000000e+00 0.000000e+00 7.642619e-01 2.357381e-01
 0.000000e+00 0.000000e+00 0.000000e+00 0.000000e+00 0.000000e+00 0.000000e+00 0.000000e+00 0.000000e+00
<ENDHMM>
~h "m"
<BEGINHMM>
<NUMSTATES> 8
<STATE> 2
<NUMMIXES> 2
<MIXTURE> 1 2.334936e-02
<MEAN> 3
 2.089946e-03 4.705089e+00 1.653796e+02
<VARIANCE> 3
 4.828445e-02 1.516259e+01 4.951954e+04
<GCONST> 1.601194e+01
<MIXTURE> 2 9.766515e-01
<MEAN> 3
 1.133751e-03 -3.240941e-01 -1.000000e+02
<VARIANCE> 3
 1.000000e-02 4.447449e+01 1.000000e-02
<GCONST> 9.820652e-02
<STATE> 3
<NUMMIXES> 2
<MIXTURE> 1 9.758896e-01
<MEAN> 3
 3.264100e-03 9.246501e-03 3.461168e+00
<VARIANCE> 3
 1.000000e-02 1.000000e-02 9.403485e+00
<GCONST> -1.455629e+00
<MIXTURE> 2 2.411165e-02
<MEAN> 3
 2.663200e-01 -4.283537e+01 -1.000000e+02
<VARIANCE> 3
 1.147399e-02 2.524971e+03 1.000000e-02
<GCONST> 4.274774e+00
<STATE> 4
<NUMMIXES> 2
<MIXTURE> 1 9.865834e-01
<MEAN> 3
 2.592860e+00 3.074031e+00 6.583674e-02
<VARIANCE> 3
 1.744709e+01 9.376520e+00 1.702516e-01
<GCONST> 8.840536e+00
<MIXTURE> 2 1.341748e-02
<MEAN> 3
 4.404231e-01 -4.280808e+01 -1.000000e+02
<VARIANCE> 3
 2.500350e-02 2.524272e+03 1.000000e-02
<GCONST> 5.053430e+00
<STATE> 5
<NUMMIXES> 2
<MIXTURE> 1 9.799932e-01
<MEAN> 3
 6.112528e-01 4.344221e+00 3.952180e+00
<VARIANCE> 3
 1.287257e+00 8.086294e+00 1.003975e+01
<GCONST> 1.016287e+01
<MIXTURE> 2 2.000625e-02
<MEAN> 3
 6.462709e-01 -4.250320e+01 -1.000000e+02
<VARIANCE> 3
 5.944241e-02 2.520925e+03 1.000000e-02
<GCONST> 5.918095e+00
<STATE> 6
<NUMMIXES> 2
<MIXTURE> 1 5.533011e-02
<MEAN> 3
 4.774476e+00 6.833980e+00 2.801754e+02
<VARIANCE> 3
 9.058384e+00 6.328211e+00 7.812766e+04
<GCONST> 2.082844e+01
<MIXTURE> 2 9.446741e-01
<MEAN> 3
 4.211006e+00 1.038840e+00 -1.000000e+02
<VARIANCE> 3
 8.372964e+00 5.214201e+01 1.000000e-02
<GCONST> 6.987440e+00
<STATE> 7
<NUMMIXES> 2
<MIXTURE> 1 2.509356e-02
<MEAN> 3
 6.411173e+00 3.106459e+02 2.194300e+02
<VARIANCE> 3
 8.628675e+00 7.139659e+04 2.099126e+04
<GCONST> 2.879659e+01
<MIXTURE> 2 9.749045e-01
<MEAN> 3
 -1.808272e+00 -1.000000e+02 -1.000000e+02
<VARIANCE> 3
 2.349478e+01 1.000000e-02 1.000000e-02
<GCONST> -5.399313e-01
<TRANSP> 8
 0.000000e+00 1.000000e+00 0.000000e+00 0.000000e+00 0.000000e+00 0.000000e+00 0.000000e+00 0.000000e+00
 0.000000e+00 9.828977e-01 1.710229e-02 0.000000e+00 0.000000e+00 0.000000e+00 0.000000e+00 0.000000e+00
 0.000000e+00 0.000000e+00 9.517055e-01 4.829455e-02 0.000000e+00 0.000000e+00 0.000000e+00 0.000000e+00
 0.000000e+00 0.000000e+00 0.000000e+00 9.731438e-01 2.685625e-02 0.000000e+00 0.000000e+00 0.000000e+00
 0.000000e+00 0.000000e+00 0.000000e+00 0.000000e+00 9.602294e-01 3.977065e-02 0.000000e+00 0.000000e+00
 0.000000e+00 0.000000e+00 0.000000e+00 0.000000e+00 0.000000e+00 9.808851e-01 1.911485e-02 0.000000e+00
 0.000000e+00 0.000000e+00 0.000000e+00 0.000000e+00 0.000000e+00 0.000000e+00 9.925044e-01 7.495593e-03
 0.000000e+00 0.000000e+00 0.000000e+00 0.000000e+00 0.000000e+00 0.000000e+00 0.000000e+00 0.000000e+00
<ENDHMM>
~h "sil"
<BEGINHMM>
<NUMSTATES> 8
<STATE> 2
<NUMMIXES> 2
<MIXTURE> 1 9.158260e-01
<MEAN> 3
 9.386477e+00 -9.864265e-05 1.836265e-03
<VARIANCE> 3
 5.017107e+00 1.000000e-02 1.000000e-02
<GCONST> -2.083856e+00
<MIXTURE> 2 8.417417e-02
<MEAN> 3
 7.481503e+00 -1.745767e+01 -1.668639e+01
<VARIANCE> 3
 7.133927e+00 9.845165e+02 1.001001e+03
<GCONST> 2.127940e+01
<STATE> 3
<NUMMIXES> 2
<MIXTURE> 1 8.700052e-01
<MEAN> 3
 9.958936e+00 1.972089e+00 6.529390e-01
<VARIANCE> 3
 3.928720e+00 2.394700e+00 6.761745e-01
<GCONST> 7.363899e+00
<MIXTURE> 2 1.299946e-01
<MEAN> 3
 4.014791e+00 -1.000000e+02 -1.000000e+02
<VARIANCE> 3
 3.728132e+00 1.000000e-02 1.000000e-02
<GCONST> -2.380802e+00
<STATE> 4
<NUMMIXES> 2
<MIXTURE> 1 8.934318e-02
<MEAN> 3
 7.499204e+00 -2.096480e+01 -1.870134e+01
<VARIANCE> 3
 1.195782e+01 1.842300e+03 1.959696e+03
<GCONST> 2.309433e+01
<MIXTURE> 2 9.106582e-01
<MEAN> 3
 7.825751e+00 5.436325e-03 3.744325e+00
<VARIANCE> 3
 1.419773e+01 1.000000e-02 9.890171e+00
<GCONST> 5.853085e+00
<STATE> 5
<NUMMIXES> 2
<MIXTURE> 1 3.261686e-02
<MEAN> 3
 5.331863e+00 -6.495111e+01 -6.407795e+01
<VARIANCE> 3
 9.667986e+00 2.310039e+03 2.428942e+03
<GCONST> 2.332268e+01
<MIXTURE> 2 9.673830e-01
<MEAN> 3
 6.578152e+00 4.877847e+00 2.648608e-03
<VARIANCE> 3
 6.275343e+00 7.301153e+00 1.000000e-02
<GCONST> 4.733121e+00
<STATE> 6
<NUMMIXES> 2
<MIXTURE> 1 3.671859e-02
<MEAN> 3
 4.075841e+00 -1.000000e+02 -1.000000e+02
<VARIANCE> 3
 3.858336e+00 1.000000e-02 1.000000e-02
<GCONST> -2.346473e+00
<MIXTURE> 2 9.632811e-01
<MEAN> 3
 6.398269e+00 1.504240e+00 3.826091e+00
<VARIANCE> 3
 6.809958e+00 1.345797e+00 6.397543e+00
<GCONST> 9.584918e+00
<STATE> 7
<NUMMIXES> 2
<MIXTURE> 1 9.520265e-02
<MEAN> 3
 4.960222e+00 -5.345807e+01 -5.364833e+01
<VARIANCE> 3
 7.076939e+00 2.658376e+03 2.639244e+03
<GCONST> 2.323419e+01
<MIXTURE> 2 9.047967e-01
<MEAN> 3
 5.615304e+00 2.126122e-03 -7.688896e+00
<VARIANCE> 3
 5.410699e+00 1.000000e-02 1.032244e+01
<GCONST> 4.931160e+00
<TRANSP> 8
 0.000000e+00 1.000000e+00 0.000000e+00 0.000000e+00 0.000000e+00 0.000000e+00 0.000000e+00 0.000000e+00
 0.000000e+00 9.791021e-01 2.089790e-02 0.000000e+00 0.000000e+00 0.000000e+00 0.000000e+00 0.000000e+00
 0.000000e+00 0.000000e+00 8.155085e-01 1.844915e-01 0.000000e+00 0.000000e+00 0.000000e+00 0.000000e+00
 0.000000e+00 0.000000e+00 0.000000e+00 9.593256e-01 4.067437e-02 0.000000e+00 0.000000e+00 0.000000e+00
 0.000000e+00 0.000000e+00 0.000000e+00 0.000000e+00 9.574122e-01 4.258776e-02 0.000000e+00 0.000000e+00
 0.000000e+00 0.000000e+00 0.000000e+00 0.000000e+00 0.000000e+00 9.343811e-01 6.561889e-02 0.000000e+00
 0.000000e+00 0.000000e+00 0.000000e+00 0.000000e+00 0.000000e+00 0.000000e+00 8.950861e-01 1.049139e-01
 0.000000e+00 0.000000e+00 0.000000e+00 0.000000e+00 0.000000e+00 0.000000e+00 0.000000e+00 0.000000e+00
<ENDHMM>
