~o
<STREAMINFO> 1 1
<VECSIZE> 1<NULLD><USER><DIAGC>
~h "a"
<BEGINHMM>
<NUMSTATES> 8
<STATE> 2
<MEAN> 1
 3.121544e+00
<VARIANCE> 1
 2.907902e+00
<GCONST> 2.905309e+00
<STATE> 3
<MEAN> 1
 9.769545e+00
<VARIANCE> 1
 2.979139e+00
<GCONST> 2.929511e+00
<STATE> 4
<MEAN> 1
 5.274794e+00
<VARIANCE> 1
 3.413588e+00
<GCONST> 3.065641e+00
<STATE> 5
<MEAN> 1
 5.206741e+00
<VARIANCE> 1
 1.160315e+00
<GCONST> 1.986568e+00
<STATE> 6
<MEAN> 1
 1.775031e+00
<VARIANCE> 1
 9.667790e-01
<GCONST> 1.804092e+00
<STATE> 7
<MEAN> 1
 1.926178e-03
<VARIANCE> 1
 1.000000e-02
<GCONST> -2.767293e+00
<TRANSP> 8
 0.000000e+00 1.000000e+00 0.000000e+00 0.000000e+00 0.000000e+00 0.000000e+00 0.000000e+00 0.000000e+00
 0.000000e+00 9.484057e-01 5.159426e-02 0.000000e+00 0.000000e+00 0.000000e+00 0.000000e+00 0.000000e+00
 0.000000e+00 0.000000e+00 9.813727e-01 1.862732e-02 0.000000e+00 0.000000e+00 0.000000e+00 0.000000e+00
 0.000000e+00 0.000000e+00 0.000000e+00 8.320670e-01 1.679330e-01 0.000000e+00 0.000000e+00 0.000000e+00
 0.000000e+00 0.000000e+00 0.000000e+00 0.000000e+00 9.660232e-01 3.397678e-02 0.000000e+00 0.000000e+00
 0.000000e+00 0.000000e+00 0.000000e+00 0.000000e+00 0.000000e+00 9.530283e-01 4.697174e-02 0.000000e+00
 0.000000e+00 0.000000e+00 0.000000e+00 0.000000e+00 0.000000e+00 0.000000e+00 9.919528e-01 8.047263e-03
 0.000000e+00 0.000000e+00 0.000000e+00 0.000000e+00 0.000000e+00 0.000000e+00 0.000000e+00 0.000000e+00
<ENDHMM>
~h "e"
<BEGINHMM>
<NUMSTATES> 8
<STATE> 2
<MEAN> 1
 -1.422642e-03
<VARIANCE> 1
 1.000000e-02
<GCONST> -2.767293e+00
<STATE> 3
<MEAN> 1
 -7.810273e-01
<VARIANCE> 1
 1.374172e-01
<GCONST> -1.468564e-01
<STATE> 4
<MEAN> 1
 -2.212652e+00
<VARIANCE> 1
 5.661031e-01
<GCONST> 1.268898e+00
<STATE> 5
<MEAN> 1
 -4.632207e+00
<VARIANCE> 1
 1.646046e+00
<GCONST> 2.336253e+00
<STATE> 6
<MEAN> 1
 -6.154137e+00
<VARIANCE> 1
 3.296188e-01
<GCONST> 7.280585e-01
<STATE> 7
<MEAN> 1
 -8.736165e+00
<VARIANCE> 1
 7.439703e-01
<GCONST> 1.542123e+00
<TRANSP> 8
 0.000000e+00 1.000000e+00 0.000000e+00 0.000000e+00 0.000000e+00 0.000000e+00 0.000000e+00 0.000000e+00
 0.000000e+00 9.921581e-01 7.841945e-03 0.000000e+00 0.000000e+00 0.000000e+00 0.000000e+00 0.000000e+00
 0.000000e+00 0.000000e+00 9.411363e-01 5.886367e-02 0.000000e+00 0.000000e+00 0.000000e+00 0.000000e+00
 0.000000e+00 0.000000e+00 0.000000e+00 9.378521e-01 6.214788e-02 0.000000e+00 0.000000e+00 0.000000e+00
 0.000000e+00 0.000000e+00 0.000000e+00 0.000000e+00 9.277226e-01 7.227742e-02 0.000000e+00 0.000000e+00
 0.000000e+00 0.000000e+00 0.000000e+00 0.000000e+00 0.000000e+00 9.358448e-01 6.415513e-02 0.000000e+00
 0.000000e+00 0.000000e+00 0.000000e+00 0.000000e+00 0.000000e+00 0.000000e+00 9.644475e-01 3.555246e-02
 0.000000e+00 0.000000e+00 0.000000e+00 0.000000e+00 0.000000e+00 0.000000e+00 0.000000e+00 0.000000e+00
<ENDHMM>
~h "i"
<BEGINHMM>
<NUMSTATES> 8
<STATE> 2
<MEAN> 1
 -1.039867e+01
<VARIANCE> 1
 3.157801e-01
<GCONST> 6.851678e-01
<STATE> 3
<MEAN> 1
 -8.104533e+00
<VARIANCE> 1
 2.832898e+00
<GCONST> 2.879177e+00
<STATE> 4
<MEAN> 1
 -3.796045e+00
<VARIANCE> 1
 1.069614e+00
<GCONST> 1.905175e+00
<STATE> 5
<MEAN> 1
 -2.029494e+00
<VARIANCE> 1
 5.475292e-02
<GCONST> -1.067048e+00
<STATE> 6
<MEAN> 1
 -9.667511e-01
<VARIANCE> 1
 1.592444e-01
<GCONST> 5.620718e-04
<STATE> 7
<MEAN> 1
 -1.841819e-01
<VARIANCE> 1
 1.220052e-02
<GCONST> -2.568400e+00
<TRANSP> 8
 0.000000e+00 1.000000e+00 0.000000e+00 0.000000e+00 0.000000e+00 0.000000e+00 0.000000e+00 0.000000e+00
 0.000000e+00 9.863331e-01 1.366693e-02 0.000000e+00 0.000000e+00 0.000000e+00 0.000000e+00 0.000000e+00
 0.000000e+00 0.000000e+00 9.828054e-01 1.719462e-02 0.000000e+00 0.000000e+00 0.000000e+00 0.000000e+00
 0.000000e+00 0.000000e+00 0.000000e+00 8.197384e-01 1.802616e-01 0.000000e+00 0.000000e+00 0.000000e+00
 0.000000e+00 0.000000e+00 0.000000e+00 0.000000e+00 0.000000e+00 1.000000e+00 0.000000e+00 0.000000e+00
 0.000000e+00 0.000000e+00 0.000000e+00 0.000000e+00 0.000000e+00 7.356991e-01 2.643009e-01 0.000000e+00
 0.000000e+00 0.000000e+00 0.000000e+00 0.000000e+00 0.000000e+00 0.000000e+00 3.484115e-01 6.515885e-01
 0.000000e+00 0.000000e+00 0.000000e+00 0.000000e+00 0.000000e+00 0.000000e+00 0.000000e+00 0.000000e+00
<ENDHMM>
~h "m"
<BEGINHMM>
<NUMSTATES> 8
<STATE> 2
<MEAN> 1
 1.053607e-03
<VARIANCE> 1
 1.000000e-02
<GCONST> -2.767293e+00
<STATE> 3
<MEAN> 1
 8.892239e-01
<VARIANCE> 1
 5.219553e-02
<GCONST> -1.114881e+00
<STATE> 4
<MEAN> 1
 1.392987e+00
<VARIANCE> 1
 8.987836e-01
<GCONST> 1.731164e+00
<STATE> 5
<MEAN> 1
 3.010431e+00
<VARIANCE> 1
 4.446847e-01
<GCONST> 1.027487e+00
<STATE> 6
<MEAN> 1
 5.081785e+00
<VARIANCE> 1
 5.950364e-01
<GCONST> 1.318744e+00
<STATE> 7
<MEAN> 1
 7.786780e+00
<VARIANCE> 1
 1.234753e+00
<GCONST> 2.048748e+00
<TRANSP> 8
 0.000000e+00 1.000000e+00 0.000000e+00 0.000000e+00 0.000000e+00 0.000000e+00 0.000000e+00 0.000000e+00
 0.000000e+00 9.962166e-01 3.783425e-03 0.000000e+00 0.000000e+00 0.000000e+00 0.000000e+00 0.000000e+00
 0.000000e+00 0.000000e+00 9.229853e-01 7.701463e-02 0.000000e+00 0.000000e+00 0.000000e+00 0.000000e+00
 0.000000e+00 0.000000e+00 0.000000e+00 9.483614e-01 5.163856e-02 0.000000e+00 0.000000e+00 0.000000e+00
 0.000000e+00 0.000000e+00 0.000000e+00 0.000000e+00 9.231718e-01 7.682823e-02 0.000000e+00 0.000000e+00
 0.000000e+00 0.000000e+00 0.000000e+00 0.000000e+00 0.000000e+00 9.427762e-01 5.722379e-02 0.000000e+00
 0.000000e+00 0.000000e+00 0.000000e+00 0.000000e+00 0.000000e+00 0.000000e+00 9.530531e-01 4.694685e-02
 0.000000e+00 0.000000e+00 0.000000e+00 0.000000e+00 0.000000e+00 0.000000e+00 0.000000e+00 0.000000e+00
<ENDHMM>
~h "sil"
<BEGINHMM>
<NUMSTATES> 8
<STATE> 2
<MEAN> 1
 1.212425e+01
<VARIANCE> 1
 1.269013e+01
<GCONST> 4.378702e+00
<STATE> 3
<MEAN> 1
 1.081010e+01
<VARIANCE> 1
 6.114112e-01
<GCONST> 1.345891e+00
<STATE> 4
<MEAN> 1
 9.204797e+00
<VARIANCE> 1
 7.944614e-01
<GCONST> 1.607786e+00
<STATE> 5
<MEAN> 1
 7.346781e+00
<VARIANCE> 1
 1.086815e+00
<GCONST> 1.921128e+00
<STATE> 6
<MEAN> 1
 6.870697e+00
<VARIANCE> 1
 1.163964e+01
<GCONST> 4.292294e+00
<STATE> 7
<MEAN> 1
 5.547036e+00
<VARIANCE> 1
 1.614200e+00
<GCONST> 2.316716e+00
<TRANSP> 8
 0.000000e+00 1.000000e+00 0.000000e+00 0.000000e+00 0.000000e+00 0.000000e+00 0.000000e+00 0.000000e+00
 0.000000e+00 9.492477e-01 5.075235e-02 0.000000e+00 0.000000e+00 0.000000e+00 0.000000e+00 0.000000e+00
 0.000000e+00 0.000000e+00 9.806259e-01 1.937418e-02 0.000000e+00 0.000000e+00 0.000000e+00 0.000000e+00
 0.000000e+00 0.000000e+00 0.000000e+00 9.623079e-01 3.769207e-02 0.000000e+00 0.000000e+00 0.000000e+00
 0.000000e+00 0.000000e+00 0.000000e+00 0.000000e+00 9.210664e-01 7.893360e-02 0.000000e+00 0.000000e+00
 0.000000e+00 0.000000e+00 0.000000e+00 0.000000e+00 0.000000e+00 7.736933e-01 2.263067e-01 0.000000e+00
 0.000000e+00 0.000000e+00 0.000000e+00 0.000000e+00 0.000000e+00 0.000000e+00 9.235936e-01 7.640637e-02
 0.000000e+00 0.000000e+00 0.000000e+00 0.000000e+00 0.000000e+00 0.000000e+00 0.000000e+00 0.000000e+00
<ENDHMM>
