~o
<STREAMINFO> 1 3
<VECSIZE> 3<NULLD><USER><DIAGC>
~h "a"
<BEGINHMM>
<NUMSTATES> 8
<STATE> 2
<NUMMIXES> 2
<MIXTURE> 1 9.773151e-01
<MEAN> 3
 5.635919e+00 4.514049e+00 4.692788e+00
<VARIANCE> 3
 9.227218e+00 7.770199e+00 6.890815e+00
<GCONST> 1.171627e+01
<MIXTURE> 2 2.268385e-02
<MEAN> 3
 3.698287e+00 -2.775740e+01 -1.000000e+02
<VARIANCE> 3
 1.123496e+01 2.002764e+03 1.000000e-02
<GCONST> 1.092978e+01
<STATE> 3
<NUMMIXES> 2
<MIXTURE> 1 9.859676e-01
<MEAN> 3
 3.414522e+00 4.510948e+00 3.057650e-03
<VARIANCE> 3
 8.617616e+00 8.893139e+00 1.000000e-02
<GCONST> 5.247549e+00
<MIXTURE> 2 1.403151e-02
<MEAN> 3
 7.188425e-01 -4.929779e+01 -1.000000e+02
<VARIANCE> 3
 2.863060e-02 2.477532e+03 1.000000e-02
<GCONST> 5.170199e+00
<STATE> 4
<NUMMIXES> 2
<MIXTURE> 1 9.896727e-01
<MEAN> 3
 4.505281e+00 2.643740e-03 2.901784e-04
<VARIANCE> 3
 8.489546e+00 1.000000e-02 1.000000e-02
<GCONST> -1.557874e+00
<MIXTURE> 2 1.032761e-02
<MEAN> 3
 4.387126e-01 -4.956872e+01 -1.000000e+02
<VARIANCE> 3
 1.050535e-02 2.477938e+03 1.000000e-02
<GCONST> 4.167772e+00
<STATE> 5
<NUMMIXES> 2
<MIXTURE> 1 9.616931e-01
<MEAN> 3
 1.197164e+00 -4.034165e+00 1.670541e-01
<VARIANCE> 3
 5.172918e+00 3.118972e+01 3.015265e+00
<GCONST> 1.170084e+01
<MIXTURE> 2 3.830707e-02
<MEAN> 3
 2.984845e-01 -4.324088e+01 -1.000000e+02
<VARIANCE> 3
 4.914575e-02 2.441234e+03 1.000000e-02
<GCONST> 5.695755e+00
<STATE> 6
<NUMMIXES> 2
<MIXTURE> 1 3.343248e-01
<MEAN> 3
 1.750449e-03 -4.173914e-04 -2.296824e-03
<VARIANCE> 3
 1.000000e-02 1.000000e-02 1.000000e-02
<GCONST> -8.301880e+00
<MIXTURE> 2 6.656424e-01
<MEAN> 3
 1.587822e-04 -5.083240e+01 -1.000000e+02
<VARIANCE> 3
 1.000000e-02 2.409566e+03 1.000000e-02
<GCONST> 4.090493e+00
<STATE> 7
<NUMMIXES> 2
<MIXTURE> 1 9.455491e-01
<MEAN> 3
 1.108665e-03 -2.127872e-01 -6.442270e-01
<VARIANCE> 3
 1.000000e-02 1.711739e-01 2.604129e-01
<GCONST> -2.202101e+00
<MIXTURE> 2 5.445106e-02
<MEAN> 3
 -1.737772e-01 -5.234809e+01 -1.000000e+02
<VARIANCE> 3
 1.000000e-02 2.240902e+03 1.000000e-02
<GCONST> 4.017924e+00
<TRANSP> 8
 0.000000e+00 1.000000e+00 0.000000e+00 0.000000e+00 0.000000e+00 0.000000e+00 0.000000e+00 0.000000e+00
 0.000000e+00 9.687744e-01 3.122561e-02 0.000000e+00 0.000000e+00 0.000000e+00 0.000000e+00 0.000000e+00
 0.000000e+00 0.000000e+00 9.663439e-01 3.365605e-02 0.000000e+00 0.000000e+00 0.000000e+00 0.000000e+00
 0.000000e+00 0.000000e+00 0.000000e+00 9.750209e-01 2.497913e-02 0.000000e+00 0.000000e+00 0.000000e+00
 0.000000e+00 0.000000e+00 0.000000e+00 0.000000e+00 9.210862e-01 7.891382e-02 0.000000e+00 0.000000e+00
 0.000000e+00 0.000000e+00 0.000000e+00 0.000000e+00 0.000000e+00 9.940928e-01 5.907197e-03 0.000000e+00
 0.000000e+00 0.000000e+00 0.000000e+00 0.000000e+00 0.000000e+00 0.000000e+00 8.866047e-01 1.133953e-01
 0.000000e+00 0.000000e+00 0.000000e+00 0.000000e+00 0.000000e+00 0.000000e+00 0.000000e+00 0.000000e+00
<ENDHMM>
~h "e"
<BEGINHMM>
<NUMSTATES> 8
<STATE> 2
<NUMMIXES> 2
<MIXTURE> 1 9.843985e-01
<MEAN> 3
 3.676497e-05 -4.652545e-03 -6.151175e+00
<VARIANCE> 3
 1.000000e-02 1.000000e-02 1.647265e+01
<GCONST> -8.950076e-01
<MIXTURE> 2 1.560133e-02
<MEAN> 3
 -3.599181e-01 -5.227448e+01 -1.000000e+02
<VARIANCE> 3
 1.000000e-02 2.239704e+03 1.000000e-02
<GCONST> 4.017390e+00
<STATE> 3
<NUMMIXES> 2
<MIXTURE> 1 1.082330e-01
<MEAN> 3
 -5.274310e-01 -1.525713e-01 -4.963393e+00
<VARIANCE> 3
 2.139229e-01 6.033821e-02 1.810753e+01
<GCONST> 4.060030e+00
<MIXTURE> 2 8.917627e-01
<MEAN> 3
 -1.099072e+00 -4.970154e+01 -1.000000e+02
<VARIANCE> 3
 3.983524e-01 2.355858e+03 1.000000e-02
<GCONST> 7.752704e+00
<STATE> 4
<NUMMIXES> 2
<MIXTURE> 1 9.846587e-01
<MEAN> 3
 -4.675911e-03 -5.862109e+00 -7.373501e+00
<VARIANCE> 3
 1.000000e-02 1.251757e+01 1.061576e+01
<GCONST> 5.797934e+00
<MIXTURE> 2 1.534362e-02
<MEAN> 3
 -2.530775e+00 -5.071408e+01 -1.000000e+02
<VARIANCE> 3
 4.748329e-02 2.255417e+03 1.000000e-02
<GCONST> 5.582173e+00
<STATE> 5
<NUMMIXES> 2
<MIXTURE> 1 1.220585e-01
<MEAN> 3
 -2.800548e+00 -2.148889e+00 -1.012114e+00
<VARIANCE> 3
 3.085585e+00 5.855461e+00 4.049102e+00
<GCONST> 9.806242e+00
<MIXTURE> 2 8.779301e-01
<MEAN> 3
 -8.453179e+00 -4.818721e+00 -1.000000e+02
<VARIANCE> 3
 4.752571e+00 6.542693e+01 1.000000e-02
<GCONST> 6.648081e+00
<STATE> 6
<NUMMIXES> 2
<MIXTURE> 1 1.008221e-01
<MEAN> 3
 -1.806078e+00 -8.141814e+00 -8.214464e+00
<VARIANCE> 3
 1.260148e+00 6.575633e+00 8.757923e+00
<GCONST> 9.798190e+00
<MIXTURE> 2 8.991708e-01
<MEAN> 3
 -8.119453e+00 -9.943868e+01 -1.000000e+02
<VARIANCE> 3
 4.736181e+00 5.507114e+01 1.000000e-02
<GCONST> 6.472318e+00
<STATE> 7
<NUMMIXES> 2
<MIXTURE> 1 9.879515e-01
<MEAN> 3
 -8.786547e+00 -8.268865e+00 -7.945885e+00
<VARIANCE> 3
 5.047849e+00 7.797327e+00 8.223306e+00
<GCONST> 1.129335e+01
<MIXTURE> 2 1.205054e-02
<MEAN> 3
 -3.973045e+00 -4.934331e+01 -1.000000e+02
<VARIANCE> 3
 4.541239e-01 2.432828e+03 1.000000e-02
<GCONST> 7.915885e+00
<TRANSP> 8
 0.000000e+00 1.000000e+00 0.000000e+00 0.000000e+00 0.000000e+00 0.000000e+00 0.000000e+00 0.000000e+00
 0.000000e+00 9.659206e-01 3.407935e-02 0.000000e+00 0.000000e+00 0.000000e+00 0.000000e+00 0.000000e+00
 0.000000e+00 0.000000e+00 9.256620e-01 7.433804e-02 0.000000e+00 0.000000e+00 0.000000e+00 0.000000e+00
 0.000000e+00 0.000000e+00 0.000000e+00 9.689708e-01 3.102916e-02 0.000000e+00 0.000000e+00 0.000000e+00
 0.000000e+00 0.000000e+00 0.000000e+00 0.000000e+00 9.796761e-01 2.032393e-02 0.000000e+00 0.000000e+00
 0.000000e+00 0.000000e+00 0.000000e+00 0.000000e+00 0.000000e+00 9.775551e-01 2.244494e-02 0.000000e+00
 0.000000e+00 0.000000e+00 0.000000e+00 0.000000e+00 0.000000e+00 0.000000e+00 9.733352e-01 2.666480e-02
 0.000000e+00 0.000000e+00 0.000000e+00 0.000000e+00 0.000000e+00 0.000000e+00 0.000000e+00 0.000000e+00
<ENDHMM>
~h "i"
<BEGINHMM>
<NUMSTATES> 8
<STATE> 2
<NUMMIXES> 2
<MIXTURE> 1 9.457582e-01
<MEAN> 3
 -8.014697e-01 -5.023356e+00 -6.976013e+00
<VARIANCE> 3
 5.227538e+00 1.889281e+01 1.476658e+01
<GCONST> 1.279872e+01
<MIXTURE> 2 5.424073e-02
<MEAN> 3
 -3.080535e+00 -4.448399e+01 -1.000000e+02
<VARIANCE> 3
 1.667895e-01 2.383167e+03 1.000000e-02
<GCONST> 6.893624e+00
<STATE> 3
<NUMMIXES> 2
<MIXTURE> 1 9.859063e-01
<MEAN> 3
 -6.507003e+00 -8.428634e+00 -3.031243e-03
<VARIANCE> 3
 1.575242e+01 6.460532e+00 1.000000e-02
<GCONST> 5.531167e+00
<MIXTURE> 2 1.409463e-02
<MEAN> 3
 -2.274128e+00 -5.141132e+01 -1.000000e+02
<VARIANCE> 3
 7.147752e-02 2.439763e+03 1.000000e-02
<GCONST> 6.069745e+00
<STATE> 4
<NUMMIXES> 2
<MIXTURE> 1 8.647646e-01
<MEAN> 3
 -5.481222e+00 -8.100296e-03 2.656180e+00
<VARIANCE> 3
 2.003453e+01 2.309025e-02 7.741202e+00
<GCONST> 6.789300e+00
<MIXTURE> 2 1.352373e-01
<MEAN> 3
 -4.218037e+00 -2.248801e+01 -1.000000e+02
<VARIANCE> 3
 1.137733e+01 1.758918e+03 1.000000e-02
<GCONST> 1.081254e+01
<STATE> 5
<NUMMIXES> 2
<MIXTURE> 1 9.861183e-01
<MEAN> 3
 -8.134983e+00 -1.565175e-03 7.683337e-04
<VARIANCE> 3
 7.043570e+00 1.000000e-02 1.000000e-02
<GCONST> -1.744594e+00
<MIXTURE> 2 1.388224e-02
<MEAN> 3
 -1.002937e+00 -4.949495e+01 -1.000000e+02
<VARIANCE> 3
 5.672874e-02 2.451585e+03 1.000000e-02
<GCONST> 5.843477e+00
<STATE> 6
<NUMMIXES> 2
<MIXTURE> 1 8.897869e-01
<MEAN> 3
 -3.510054e+00 1.737737e+00 5.041444e-01
<VARIANCE> 3
 1.676996e+01 4.744853e+00 1.126729e+01
<GCONST> 1.231218e+01
<MIXTURE> 2 1.102138e-01
<MEAN> 3
 -6.428217e-01 -4.554904e+01 -1.000000e+02
<VARIANCE> 3
 6.881911e-02 2.448372e+03 1.000000e-02
<GCONST> 6.035365e+00
<STATE> 7
<NUMMIXES> 2
<MIXTURE> 1 5.228343e-01
<MEAN> 3
 -1.981354e-03 1.086079e-03 1.924462e-03
<VARIANCE> 3
 1.000000e-02 1.000000e-02 1.000000e-02
<GCONST> -8.301880e+00
<MIXTURE> 2 4.770812e-01
<MEAN> 3
 -1.524769e-03 -1.527168e-01 -1.000000e+02
<VARIANCE> 3
 1.000000e-02 4.170309e+01 1.000000e-02
<GCONST> 3.386593e-02
<TRANSP> 8
 0.000000e+00 1.000000e+00 0.000000e+00 0.000000e+00 0.000000e+00 0.000000e+00 0.000000e+00 0.000000e+00
 0.000000e+00 9.028076e-01 9.719242e-02 0.000000e+00 0.000000e+00 0.000000e+00 0.000000e+00 0.000000e+00
 0.000000e+00 0.000000e+00 9.723036e-01 2.769634e-02 0.000000e+00 0.000000e+00 0.000000e+00 0.000000e+00
 0.000000e+00 0.000000e+00 0.000000e+00 8.719209e-01 1.280791e-01 0.000000e+00 0.000000e+00 0.000000e+00
 0.000000e+00 0.000000e+00 0.000000e+00 0.000000e+00 9.723742e-01 2.762584e-02 0.000000e+00 0.000000e+00
 0.000000e+00 0.000000e+00 0.000000e+00 0.000000e+00 0.000000e+00 8.850029e-01 1.149972e-01 0.000000e+00
 0.000000e+00 0.000000e+00 0.000000e+00 0.000000e+00 0.000000e+00 0.000000e+00 9.914815e-01 8.518527e-03
 0.000000e+00 0.000000e+00 0.000000e+00 0.000000e+00 0.000000e+00 0.000000e+00 0.000000e+00 0.000000e+00
<ENDHMM>
~h "m"
<BEGINHMM>
<NUMSTATES> 8
<STATE> 2
<NUMMIXES> 2
<MIXTURE> 1 1.844558e-01
<MEAN> 3
 7.142624e-04 5.920069e-03 2.841391e+00
<VARIANCE> 3
 1.000000e-02 1.000000e-02 9.384983e+00
<GCONST> -1.457598e+00
<MIXTURE> 2 8.154724e-01
<MEAN> 3
 7.361756e-04 -9.974104e+01 -1.000000e+02
<VARIANCE> 3
 1.000000e-02 2.594957e+01 1.000000e-02
<GCONST> -4.405537e-01
<STATE> 3
<NUMMIXES> 2
<MIXTURE> 1 9.825377e-01
<MEAN> 3
 3.045131e-03 2.517888e+00 2.153449e+00
<VARIANCE> 3
 1.000000e-02 3.831755e+00 9.413809e+00
<GCONST> 4.493961e+00
<MIXTURE> 2 1.745865e-02
<MEAN> 3
 2.849086e-01 -5.318350e+01 -1.000000e+02
<VARIANCE> 3
 1.000000e-02 2.515004e+03 1.000000e-02
<GCONST> 4.133321e+00
<STATE> 4
<NUMMIXES> 2
<MIXTURE> 1 9.511184e-01
<MEAN> 3
 2.239626e+00 2.333810e-01 -2.857046e+00
<VARIANCE> 3
 3.507525e+00 3.839186e-01 2.806928e+01
<GCONST> 9.145893e+00
<MIXTURE> 2 4.888141e-02
<MEAN> 3
 4.626698e-01 -5.121038e+01 -1.000000e+02
<VARIANCE> 3
 1.567476e-02 2.544094e+03 1.000000e-02
<GCONST> 4.594287e+00
<STATE> 5
<NUMMIXES> 2
<MIXTURE> 1 9.577256e-01
<MEAN> 3
 2.000847e+00 4.350219e+00 2.830739e+00
<VARIANCE> 3
 1.915048e+00 4.953813e+00 7.226238e+00
<GCONST> 9.741250e+00
<MIXTURE> 2 4.226996e-02
<MEAN> 3
 6.750008e-01 -5.072621e+01 -1.000000e+02
<VARIANCE> 3
 4.391220e-02 2.548582e+03 1.000000e-02
<GCONST> 5.626190e+00
<STATE> 6
<NUMMIXES> 2
<MIXTURE> 1 7.655593e-03
<MEAN> 3
 1.790650e+00 2.767296e+00 7.415929e-01
<VARIANCE> 3
 4.237031e+00 6.094172e+00 1.961485e+00
<GCONST> 9.438530e+00
<MIXTURE> 2 9.923451e-01
<MEAN> 3
 3.471904e+00 1.263310e+00 -1.000000e+02
<VARIANCE> 3
 7.567899e+00 6.007293e+01 1.000000e-02
<GCONST> 7.027936e+00
<STATE> 7
<NUMMIXES> 2
<MIXTURE> 1 1.510342e-02
<MEAN> 3
 1.887385e+00 2.882498e+00 7.337094e-01
<VARIANCE> 3
 4.545629e+00 6.512733e+00 1.826466e+00
<GCONST> 9.503939e+00
<MIXTURE> 2 9.848939e-01
<MEAN> 3
 4.271831e+00 -9.923717e+01 -1.000000e+02
<VARIANCE> 3
 9.123215e+00 7.535876e+01 1.000000e-02
<GCONST> 7.441545e+00
<TRANSP> 8
 0.000000e+00 1.000000e+00 0.000000e+00 0.000000e+00 0.000000e+00 0.000000e+00 0.000000e+00 0.000000e+00
 0.000000e+00 9.903324e-01 9.667599e-03 0.000000e+00 0.000000e+00 0.000000e+00 0.000000e+00 0.000000e+00
 0.000000e+00 0.000000e+00 9.630759e-01 3.692404e-02 0.000000e+00 0.000000e+00 0.000000e+00 0.000000e+00
 0.000000e+00 0.000000e+00 0.000000e+00 9.041402e-01 9.585981e-02 0.000000e+00 0.000000e+00 0.000000e+00
 0.000000e+00 0.000000e+00 0.000000e+00 0.000000e+00 9.182511e-01 8.174895e-02 0.000000e+00 0.000000e+00
 0.000000e+00 0.000000e+00 0.000000e+00 0.000000e+00 0.000000e+00 9.803276e-01 1.967243e-02 0.000000e+00
 0.000000e+00 0.000000e+00 0.000000e+00 0.000000e+00 0.000000e+00 0.000000e+00 9.614038e-01 3.859612e-02
 0.000000e+00 0.000000e+00 0.000000e+00 0.000000e+00 0.000000e+00 0.000000e+00 0.000000e+00 0.000000e+00
<ENDHMM>
~h "sil"
<BEGINHMM>
<NUMSTATES> 8
<STATE> 2
<NUMMIXES> 2
<MIXTURE> 1 9.357078e-01
<MEAN> 3
 9.354240e+00 3.089638e+00 1.068381e+00
<VARIANCE> 3
 6.893325e+00 6.974544e+00 3.376677e+00
<GCONST> 1.060334e+01
<MIXTURE> 2 6.429220e-02
<MEAN> 3
 4.916265e+00 -6.366453e+01 -6.191702e+01
<VARIANCE> 3
 5.600431e+00 2.008991e+03 2.212024e+03
<GCONST> 2.254353e+01
<STATE> 3
<NUMMIXES> 2
<MIXTURE> 1 3.672601e-02
<MEAN> 3
 5.130068e+00 -7.046168e+01 -7.061786e+01
<VARIANCE> 3
 8.815959e+00 2.135455e+03 2.120763e+03
<GCONST> 2.301616e+01
<MIXTURE> 2 9.632742e-01
<MEAN> 3
 9.251022e+00 -3.950638e-04 3.912529e-03
<VARIANCE> 3
 3.164967e+00 1.000000e-02 1.000000e-02
<GCONST> -2.544567e+00
<STATE> 4
<NUMMIXES> 2
<MIXTURE> 1 2.214940e-02
<MEAN> 3
 4.749433e+00 -8.637670e+01 -8.697317e+01
<VARIANCE> 3
 8.123697e+00 1.236225e+03 1.132192e+03
<GCONST> 2.176015e+01
<MIXTURE> 2 9.778509e-01
<MEAN> 3
 8.262506e+00 1.954845e-03 3.171754e+00
<VARIANCE> 3
 8.587033e+00 1.000000e-02 8.101467e+00
<GCONST> 5.150760e+00
<STATE> 5
<NUMMIXES> 2
<MIXTURE> 1 7.387137e-02
<MEAN> 3
 4.940054e+00 -8.208118e+01 -8.218220e+01
<VARIANCE> 3
 8.178412e+00 1.529148e+03 1.514338e+03
<GCONST> 2.227033e+01
<MIXTURE> 2 9.261286e-01
<MEAN> 3
 6.506880e+00 7.661809e-03 -7.801116e+00
<VARIANCE> 3
 6.366622e+00 1.000000e-02 1.126057e+01
<GCONST> 5.180837e+00
<STATE> 6
<NUMMIXES> 2
<MIXTURE> 1 6.421690e-02
<MEAN> 3
 4.030119e+00 -1.000000e+02 -1.000000e+02
<VARIANCE> 3
 3.980613e+00 1.000000e-02 1.000000e-02
<GCONST> -2.315273e+00
<MIXTURE> 2 9.357837e-01
<MEAN> 3
 7.743641e+00 1.335375e+00 2.752256e+00
<VARIANCE> 3
 8.126762e+00 8.295420e-01 1.849878e+00
<GCONST> 8.037032e+00
<STATE> 7
<NUMMIXES> 2
<MIXTURE> 1 9.583861e-01
<MEAN> 3
 8.112375e+00 4.299921e+00 2.693671e-03
<VARIANCE> 3
 1.339605e+01 8.741143e+00 1.000000e-02
<GCONST> 5.671462e+00
<MIXTURE> 2 4.161372e-02
<MEAN> 3
 4.750760e+00 -6.603067e+01 -6.527209e+01
<VARIANCE> 3
 6.672430e+00 2.323041e+03 2.428734e+03
<GCONST> 2.295737e+01
<TRANSP> 8
 0.000000e+00 1.000000e+00 0.000000e+00 0.000000e+00 0.000000e+00 0.000000e+00 0.000000e+00 0.000000e+00
 0.000000e+00 9.224771e-01 7.752285e-02 0.000000e+00 0.000000e+00 0.000000e+00 0.000000e+00 0.000000e+00
 0.000000e+00 0.000000e+00 9.478574e-01 5.214261e-02 0.000000e+00 0.000000e+00 0.000000e+00 0.000000e+00
 0.000000e+00 0.000000e+00 0.000000e+00 9.614803e-01 3.851969e-02 0.000000e+00 0.000000e+00 0.000000e+00
 0.000000e+00 0.000000e+00 0.000000e+00 0.000000e+00 8.778961e-01 1.221040e-01 0.000000e+00 0.000000e+00
 0.000000e+00 0.000000e+00 0.000000e+00 0.000000e+00 0.000000e+00 8.716118e-01 1.283881e-01 0.000000e+00
 0.000000e+00 0.000000e+00 0.000000e+00 0.000000e+00 0.000000e+00 0.000000e+00 9.443954e-01 5.560466e-02
 0.000000e+00 0.000000e+00 0.000000e+00 0.000000e+00 0.000000e+00 0.000000e+00 0.000000e+00 0.000000e+00
<ENDHMM>
