~o
<STREAMINFO> 1 3
<VECSIZE> 3<NULLD><USER><DIAGC>
~h "a"
<BEGINHMM>
<NUMSTATES> 8
<STATE> 2
<NUMMIXES> 2
<MIXTURE> 1 6.032887e-01
<MEAN> 3
 3.906643e+00 3.756604e+00 1.979804e+00
<VARIANCE> 3
 8.703141e+00 5.507784e+00 9.171783e+00
<GCONST> 1.159961e+01
<MIXTURE> 2 3.967106e-01
<MEAN> 3
 2.547001e-01 -5.463035e+01 -1.000000e+02
<VARIANCE> 3
 5.868976e-01 2.499351e+03 1.000000e-02
<GCONST> 8.199342e+00
<STATE> 3
<NUMMIXES> 2
<MIXTURE> 1 9.940424e-03
<MEAN> 3
 3.223475e+00 2.977466e+00 -2.132585e+01
<VARIANCE> 3
 8.649686e+00 8.765566e+00 1.841340e+03
<GCONST> 1.736023e+01
<MIXTURE> 2 9.900595e-01
<MEAN> 3
 -5.930857e-04 -1.000000e+02 -1.000000e+02
<VARIANCE> 3
 1.000000e-02 1.000000e-02 1.000000e-02
<GCONST> -8.301880e+00
<STATE> 4
<NUMMIXES> 2
<MIXTURE> 1 9.914621e-01
<MEAN> 3
 5.286560e+00 5.751646e+00 4.454802e+00
<VARIANCE> 3
 9.831724e+00 6.536490e+00 8.214436e+00
<GCONST> 1.178254e+01
<MIXTURE> 2 8.538385e-03
<MEAN> 3
 2.028790e-01 -5.457801e+01 -1.000000e+02
<VARIANCE> 3
 6.030939e-02 2.497340e+03 1.000000e-02
<GCONST> 5.923175e+00
<STATE> 5
<NUMMIXES> 2
<MIXTURE> 1 9.745010e-01
<MEAN> 3
 1.671114e+00 1.160288e-01 -6.178746e-01
<VARIANCE> 3
 5.535847e+00 3.440311e-01 3.932016e+01
<GCONST> 9.829590e+00
<MIXTURE> 2 2.549894e-02
<MEAN> 3
 1.064590e-01 -5.244686e+01 -1.000000e+02
<VARIANCE> 3
 1.934030e-02 2.520560e+03 1.000000e-02
<GCONST> 4.795133e+00
<STATE> 6
<NUMMIXES> 2
<MIXTURE> 1 9.901795e-01
<MEAN> 3
 4.692410e+00 9.175751e-01 1.291297e-03
<VARIANCE> 3
 9.266025e+00 3.077989e+00 1.000000e-02
<GCONST> 4.259091e+00
<MIXTURE> 2 9.820782e-03
<MEAN> 3
 4.494451e-02 -4.979263e+01 -1.000000e+02
<VARIANCE> 3
 1.000000e-02 2.522655e+03 1.000000e-02
<GCONST> 4.136357e+00
<STATE> 7
<NUMMIXES> 2
<MIXTURE> 1 9.550587e-02
<MEAN> 3
 2.063754e-02 -6.904166e+00 7.975188e-02
<VARIANCE> 3
 1.000000e-02 1.340831e+01 1.327337e-01
<GCONST> 1.484926e+00
<MIXTURE> 2 9.044827e-01
<MEAN> 3
 -7.404174e-04 -1.807566e+00 -1.000000e+02
<VARIANCE> 3
 1.000000e-02 4.822070e+01 1.000000e-02
<GCONST> 1.790791e-01
<TRANSP> 8
 0.000000e+00 1.000000e+00 0.000000e+00 0.000000e+00 0.000000e+00 0.000000e+00 0.000000e+00 0.000000e+00
 0.000000e+00 4.044222e-05 9.999595e-01 0.000000e+00 0.000000e+00 0.000000e+00 0.000000e+00 0.000000e+00
 0.000000e+00 0.000000e+00 9.873300e-01 1.267000e-02 0.000000e+00 0.000000e+00 0.000000e+00 0.000000e+00
 0.000000e+00 0.000000e+00 0.000000e+00 9.785097e-01 2.149037e-02 0.000000e+00 0.000000e+00 0.000000e+00
 0.000000e+00 0.000000e+00 0.000000e+00 0.000000e+00 9.382282e-01 6.177182e-02 0.000000e+00 0.000000e+00
 0.000000e+00 0.000000e+00 0.000000e+00 0.000000e+00 0.000000e+00 9.774243e-01 2.257579e-02 0.000000e+00
 0.000000e+00 0.000000e+00 0.000000e+00 0.000000e+00 0.000000e+00 0.000000e+00 9.834400e-01 1.656001e-02
 0.000000e+00 0.000000e+00 0.000000e+00 0.000000e+00 0.000000e+00 0.000000e+00 0.000000e+00 0.000000e+00
<ENDHMM>
~h "e"
<BEGINHMM>
<NUMSTATES> 8
<STATE> 2
<NUMMIXES> 2
<MIXTURE> 1 9.935837e-01
<MEAN> 3
 5.308717e-04 -9.489709e-04 -2.330323e-03
<VARIANCE> 3
 1.000000e-02 1.000000e-02 1.000000e-02
<GCONST> -8.301880e+00
<MIXTURE> 2 6.416935e-03
<MEAN> 3
 -1.400956e-01 -5.173285e+01 -1.000000e+02
<VARIANCE> 3
 2.622038e-02 2.272479e+03 1.000000e-02
<GCONST> 4.995870e+00
<STATE> 3
<NUMMIXES> 2
<MIXTURE> 1 9.918447e-01
<MEAN> 3
 -1.897821e-03 -3.016435e+00 -5.670765e+00
<VARIANCE> 3
 1.000000e-02 1.485159e+01 1.579397e+01
<GCONST> 6.366196e+00
<MIXTURE> 2 8.151219e-03
<MEAN> 3
 -2.451068e-01 -5.151981e+01 -1.000000e+02
<VARIANCE> 3
 6.375623e-02 2.272705e+03 1.000000e-02
<GCONST> 5.884499e+00
<STATE> 4
<NUMMIXES> 2
<MIXTURE> 1 9.785706e-01
<MEAN> 3
 -5.571843e+00 -2.759261e+00 -4.170244e-01
<VARIANCE> 3
 1.351213e+01 1.102385e+01 1.976715e+00
<GCONST> 1.119872e+01
<MIXTURE> 2 2.142852e-02
<MEAN> 3
 -3.839424e-01 -5.045346e+01 -1.000000e+02
<VARIANCE> 3
 1.490377e-01 2.272266e+03 1.000000e-02
<GCONST> 6.733438e+00
<STATE> 5
<NUMMIXES> 2
<MIXTURE> 1 9.669803e-01
<MEAN> 3
 -2.783847e+00 -7.932378e+00 -8.448771e+00
<VARIANCE> 3
 4.447476e+00 8.531600e+00 5.032208e+00
<GCONST> 1.076560e+01
<MIXTURE> 2 3.301829e-02
<MEAN> 3
 -5.603184e-01 -4.842899e+01 -1.000000e+02
<VARIANCE> 3
 3.549160e-01 2.271308e+03 1.000000e-02
<GCONST> 7.600698e+00
<STATE> 6
<NUMMIXES> 2
<MIXTURE> 1 3.134574e-02
<MEAN> 3
 -7.275127e+00 -2.754968e+00 -2.250368e-02
<VARIANCE> 3
 9.352873e+00 1.641914e+01 4.143328e+01
<GCONST> 1.427185e+01
<MIXTURE> 2 9.686532e-01
<MEAN> 3
 -7.533920e+00 -4.885651e+00 -1.000000e+02
<VARIANCE> 3
 9.997298e+00 5.917599e+01 1.000000e-02
<GCONST> 7.291292e+00
<STATE> 7
<NUMMIXES> 2
<MIXTURE> 1 9.861464e-01
<MEAN> 3
 -9.380795e+00 -9.247842e+00 -7.834116e+00
<VARIANCE> 3
 2.755270e+00 2.625729e+00 7.913647e+00
<GCONST> 9.561094e+00
<MIXTURE> 2 1.385309e-02
<MEAN> 3
 -1.935580e+00 -4.871344e+01 -1.000000e+02
<VARIANCE> 3
 4.407747e+00 2.392918e+03 1.000000e-02
<GCONST> 1.017209e+01
<TRANSP> 8
 0.000000e+00 1.000000e+00 0.000000e+00 0.000000e+00 0.000000e+00 0.000000e+00 0.000000e+00 0.000000e+00
 0.000000e+00 9.854564e-01 1.454362e-02 0.000000e+00 0.000000e+00 0.000000e+00 0.000000e+00 0.000000e+00
 0.000000e+00 0.000000e+00 9.816070e-01 1.839304e-02 0.000000e+00 0.000000e+00 0.000000e+00 0.000000e+00
 0.000000e+00 0.000000e+00 0.000000e+00 9.527252e-01 4.727480e-02 0.000000e+00 0.000000e+00 0.000000e+00
 0.000000e+00 0.000000e+00 0.000000e+00 0.000000e+00 9.302087e-01 6.979131e-02 0.000000e+00 0.000000e+00
 0.000000e+00 0.000000e+00 0.000000e+00 0.000000e+00 0.000000e+00 9.804983e-01 1.950175e-02 0.000000e+00
 0.000000e+00 0.000000e+00 0.000000e+00 0.000000e+00 0.000000e+00 0.000000e+00 9.697049e-01 3.029511e-02
 0.000000e+00 0.000000e+00 0.000000e+00 0.000000e+00 0.000000e+00 0.000000e+00 0.000000e+00 0.000000e+00
<ENDHMM>
~h "i"
<BEGINHMM>
<NUMSTATES> 8
<STATE> 2
<NUMMIXES> 2
<MIXTURE> 1 9.739719e-01
<MEAN> 3
 -1.900696e+00 -3.820651e+00 -8.328313e+00
<VARIANCE> 3
 1.245021e+01 1.848159e+01 8.374701e+00
<GCONST> 1.307736e+01
<MIXTURE> 2 2.602731e-02
<MEAN> 3
 -1.522173e+00 -4.861597e+01 -1.000000e+02
<VARIANCE> 3
 2.817782e+00 2.394772e+03 1.000000e-02
<GCONST> 9.725455e+00
<STATE> 3
<NUMMIXES> 2
<MIXTURE> 1 9.824595e-01
<MEAN> 3
 -8.043229e+00 -8.163413e+00 -5.072370e-03
<VARIANCE> 3
 8.994899e+00 7.488664e+00 1.000000e-02
<GCONST> 5.118509e+00
<MIXTURE> 2 1.754265e-02
<MEAN> 3
 -1.131154e+00 -4.863095e+01 -1.000000e+02
<VARIANCE> 3
 1.707865e+00 2.397323e+03 1.000000e-02
<GCONST> 9.225814e+00
<STATE> 4
<NUMMIXES> 2
<MIXTURE> 1 9.811640e-01
<MEAN> 3
 -7.801530e+00 -3.235466e-03 8.126621e-03
<VARIANCE> 3
 8.827271e+00 1.000000e-02 1.000000e-02
<GCONST> -1.518863e+00
<MIXTURE> 2 1.883387e-02
<MEAN> 3
 -8.510001e-01 -4.581850e+01 -1.000000e+02
<VARIANCE> 3
 1.026953e+00 2.389538e+03 1.000000e-02
<GCONST> 8.713912e+00
<STATE> 5
<NUMMIXES> 2
<MIXTURE> 1 9.930660e-01
<MEAN> 3
 -1.979918e-03 8.366770e-04 1.435575e-03
<VARIANCE> 3
 1.000000e-02 1.000000e-02 1.000000e-02
<GCONST> -8.301880e+00
<MIXTURE> 2 6.933996e-03
<MEAN> 3
 -5.192468e-01 -4.794115e+01 -1.000000e+02
<VARIANCE> 3
 6.232662e-01 2.400820e+03 1.000000e-02
<GCONST> 8.219245e+00
<STATE> 6
<NUMMIXES> 2
<MIXTURE> 1 9.226338e-01
<MEAN> 3
 -3.849389e+00 1.469496e+00 1.468771e+00
<VARIANCE> 3
 2.036565e+01 5.227196e+00 4.688429e+00
<GCONST> 1.172645e+01
<MIXTURE> 2 7.737107e-02
<MEAN> 3
 -3.080754e-01 -4.683702e+01 -1.000000e+02
<VARIANCE> 3
 3.798238e-01 2.398025e+03 1.000000e-02
<GCONST> 7.722814e+00
<STATE> 7
<NUMMIXES> 2
<MIXTURE> 1 9.276357e-01
<MEAN> 3
 2.930194e-03 1.416920e+00 7.628385e-01
<VARIANCE> 3
 1.000000e-02 6.640508e-01 2.066540e+00
<GCONST> 1.224940e+00
<MIXTURE> 2 7.236437e-02
<MEAN> 3
 -1.275828e-01 -4.780074e+01 -1.000000e+02
<VARIANCE> 3
 2.344928e-01 2.402443e+03 1.000000e-02
<GCONST> 7.242372e+00
<TRANSP> 8
 0.000000e+00 1.000000e+00 0.000000e+00 0.000000e+00 0.000000e+00 0.000000e+00 0.000000e+00 0.000000e+00
 0.000000e+00 9.431713e-01 5.682874e-02 0.000000e+00 0.000000e+00 0.000000e+00 0.000000e+00 0.000000e+00
 0.000000e+00 0.000000e+00 9.616637e-01 3.833639e-02 0.000000e+00 0.000000e+00 0.000000e+00 0.000000e+00
 0.000000e+00 0.000000e+00 0.000000e+00 9.612042e-01 3.879580e-02 0.000000e+00 0.000000e+00 0.000000e+00
 0.000000e+00 0.000000e+00 0.000000e+00 0.000000e+00 9.850475e-01 1.495251e-02 0.000000e+00 0.000000e+00
 0.000000e+00 0.000000e+00 0.000000e+00 0.000000e+00 0.000000e+00 8.369786e-01 1.630213e-01 0.000000e+00
 0.000000e+00 0.000000e+00 0.000000e+00 0.000000e+00 0.000000e+00 0.000000e+00 8.443618e-01 1.556383e-01
 0.000000e+00 0.000000e+00 0.000000e+00 0.000000e+00 0.000000e+00 0.000000e+00 0.000000e+00 0.000000e+00
<ENDHMM>
~h "m"
<BEGINHMM>
<NUMSTATES> 8
<STATE> 2
<NUMMIXES> 2
<MIXTURE> 1 2.648787e-02
<MEAN> 3
 -9.064900e-03 5.036617e+00 1.536193e+02
<VARIANCE> 3
 8.040630e-02 1.405389e+01 4.965391e+04
<GCONST> 1.644870e+01
<MIXTURE> 2 9.735109e-01
<MEAN> 3
 1.173380e-03 -3.009387e-01 -1.000000e+02
<VARIANCE> 3
 1.000000e-02 4.454263e+01 1.000000e-02
<GCONST> 9.973717e-02
<STATE> 3
<NUMMIXES> 2
<MIXTURE> 1 9.753110e-01
<MEAN> 3
 3.440882e-03 9.267980e-03 3.466029e+00
<VARIANCE> 3
 1.000000e-02 1.000000e-02 9.398228e+00
<GCONST> -1.456188e+00
<MIXTURE> 2 2.468814e-02
<MEAN> 3
 2.652732e-01 -4.174332e+01 -1.000000e+02
<VARIANCE> 3
 1.219619e-02 2.523906e+03 1.000000e-02
<GCONST> 4.335392e+00
<STATE> 4
<NUMMIXES> 2
<MIXTURE> 1 9.857210e-01
<MEAN> 3
 2.676199e+00 3.104475e+00 6.230916e-02
<VARIANCE> 3
 1.790191e+01 9.589391e+00 1.721769e-01
<GCONST> 8.899963e+00
<MIXTURE> 2 1.427882e-02
<MEAN> 3
 4.391751e-01 -4.173017e+01 -1.000000e+02
<VARIANCE> 3
 2.636465e-02 2.522703e+03 1.000000e-02
<GCONST> 5.105817e+00
<STATE> 5
<NUMMIXES> 2
<MIXTURE> 1 9.789487e-01
<MEAN> 3
 5.586597e-01 4.329294e+00 3.947414e+00
<VARIANCE> 3
 9.990726e-01 8.126704e+00 1.023516e+01
<GCONST> 9.933687e+00
<MIXTURE> 2 2.105141e-02
<MEAN> 3
 6.456231e-01 -4.142844e+01 -1.000000e+02
<VARIANCE> 3
 6.076663e-02 2.517947e+03 1.000000e-02
<GCONST> 5.938946e+00
<STATE> 6
<NUMMIXES> 2
<MIXTURE> 1 5.997482e-02
<MEAN> 3
 4.820487e+00 6.770645e+00 2.546962e+02
<VARIANCE> 3
 8.724560e+00 6.212054e+00 7.652932e+04
<GCONST> 2.075169e+01
<MIXTURE> 2 9.400232e-01
<MEAN> 3
 4.226196e+00 1.012539e+00 -1.000000e+02
<VARIANCE> 3
 8.337846e+00 5.214984e+01 1.000000e-02
<GCONST> 6.983387e+00
<STATE> 7
<NUMMIXES> 2
<MIXTURE> 1 2.510690e-02
<MEAN> 3
 6.404979e+00 3.106582e+02 2.194075e+02
<VARIANCE> 3
 8.640635e+00 7.139131e+04 2.100033e+04
<GCONST> 2.879833e+01
<MIXTURE> 2 9.748915e-01
<MEAN> 3
 -1.811548e+00 -1.000000e+02 -1.000000e+02
<VARIANCE> 3
 2.348739e+01 1.000000e-02 1.000000e-02
<GCONST> -5.402451e-01
<TRANSP> 8
 0.000000e+00 1.000000e+00 0.000000e+00 0.000000e+00 0.000000e+00 0.000000e+00 0.000000e+00 0.000000e+00
 0.000000e+00 9.829987e-01 1.700135e-02 0.000000e+00 0.000000e+00 0.000000e+00 0.000000e+00 0.000000e+00
 0.000000e+00 0.000000e+00 9.516247e-01 4.837530e-02 0.000000e+00 0.000000e+00 0.000000e+00 0.000000e+00
 0.000000e+00 0.000000e+00 0.000000e+00 9.720354e-01 2.796459e-02 0.000000e+00 0.000000e+00 0.000000e+00
 0.000000e+00 0.000000e+00 0.000000e+00 0.000000e+00 9.590634e-01 4.093661e-02 0.000000e+00 0.000000e+00
 0.000000e+00 0.000000e+00 0.000000e+00 0.000000e+00 0.000000e+00 9.809116e-01 1.908845e-02 0.000000e+00
 0.000000e+00 0.000000e+00 0.000000e+00 0.000000e+00 0.000000e+00 0.000000e+00 9.925004e-01 7.499540e-03
 0.000000e+00 0.000000e+00 0.000000e+00 0.000000e+00 0.000000e+00 0.000000e+00 0.000000e+00 0.000000e+00
<ENDHMM>
~h "sil"
<BEGINHMM>
<NUMSTATES> 8
<STATE> 2
<NUMMIXES> 2
<MIXTURE> 1 9.158154e-01
<MEAN> 3
 9.386706e+00 -9.670726e-05 1.850135e-03
<VARIANCE> 3
 5.015841e+00 1.000000e-02 1.000000e-02
<GCONST> -2.084108e+00
<MIXTURE> 2 8.418472e-02
<MEAN> 3
 7.480306e+00 -1.745439e+01 -1.668321e+01
<VARIANCE> 3
 7.141544e+00 9.844183e+02 1.000897e+03
<GCONST> 2.128026e+01
<STATE> 3
<NUMMIXES> 2
<MIXTURE> 1 8.701214e-01
<MEAN> 3
 9.767730e+00 2.035032e+00 9.191804e-01
<VARIANCE> 3
 3.604861e+00 2.164798e+00 1.050872e+00
<GCONST> 7.617863e+00
<MIXTURE> 2 1.298800e-01
<MEAN> 3
 4.088418e+00 -1.000000e+02 -1.000000e+02
<VARIANCE> 3
 3.386441e+00 1.000000e-02 1.000000e-02
<GCONST> -2.476930e+00
<STATE> 4
<NUMMIXES> 2
<MIXTURE> 1 8.806859e-02
<MEAN> 3
 7.486667e+00 -2.108032e+01 -1.880325e+01
<VARIANCE> 3
 1.198321e+01 1.848403e+03 1.966976e+03
<GCONST> 2.310347e+01
<MIXTURE> 2 9.119322e-01
<MEAN> 3
 7.741670e+00 5.610723e-03 3.753341e+00
<VARIANCE> 3
 1.453827e+01 1.000000e-02 9.761362e+00
<GCONST> 5.863677e+00
<STATE> 5
<NUMMIXES> 2
<MIXTURE> 1 3.260751e-02
<MEAN> 3
 5.231933e+00 -6.500622e+01 -6.406857e+01
<VARIANCE> 3
 9.357098e+00 2.304480e+03 2.432017e+03
<GCONST> 2.328885e+01
<MIXTURE> 2 9.673926e-01
<MEAN> 3
 6.578333e+00 4.877703e+00 2.669997e-03
<VARIANCE> 3
 6.274652e+00 7.301558e+00 1.000000e-02
<GCONST> 4.733067e+00
<STATE> 6
<NUMMIXES> 2
<MIXTURE> 1 4.040970e-02
<MEAN> 3
 4.084289e+00 -1.000000e+02 -1.000000e+02
<VARIANCE> 3
 3.838998e+00 1.000000e-02 1.000000e-02
<GCONST> -2.351498e+00
<MIXTURE> 2 9.595906e-01
<MEAN> 3
 6.347390e+00 1.480991e+00 3.940821e+00
<VARIANCE> 3
 6.438714e+00 1.320572e+00 6.784998e+00
<GCONST> 9.568740e+00
<STATE> 7
<NUMMIXES> 2
<MIXTURE> 1 9.517970e-02
<MEAN> 3
 4.966665e+00 -5.345863e+01 -5.365450e+01
<VARIANCE> 3
 7.094420e+00 2.659096e+03 2.639319e+03
<GCONST> 2.323696e+01
<MIXTURE> 2 9.048187e-01
<MEAN> 3
 5.614708e+00 2.127327e-03 -7.688312e+00
<VARIANCE> 3
 5.412959e+00 1.000000e-02 1.032455e+01
<GCONST> 4.931782e+00
<TRANSP> 8
 0.000000e+00 1.000000e+00 0.000000e+00 0.000000e+00 0.000000e+00 0.000000e+00 0.000000e+00 0.000000e+00
 0.000000e+00 9.791029e-01 2.089708e-02 0.000000e+00 0.000000e+00 0.000000e+00 0.000000e+00 0.000000e+00
 0.000000e+00 0.000000e+00 8.474924e-01 1.525076e-01 0.000000e+00 0.000000e+00 0.000000e+00 0.000000e+00
 0.000000e+00 0.000000e+00 0.000000e+00 9.597124e-01 4.028754e-02 0.000000e+00 0.000000e+00 0.000000e+00
 0.000000e+00 0.000000e+00 0.000000e+00 0.000000e+00 9.574131e-01 4.258689e-02 0.000000e+00 0.000000e+00
 0.000000e+00 0.000000e+00 0.000000e+00 0.000000e+00 0.000000e+00 9.289032e-01 7.109684e-02 0.000000e+00
 0.000000e+00 0.000000e+00 0.000000e+00 0.000000e+00 0.000000e+00 0.000000e+00 8.950973e-01 1.049027e-01
 0.000000e+00 0.000000e+00 0.000000e+00 0.000000e+00 0.000000e+00 0.000000e+00 0.000000e+00 0.000000e+00
<ENDHMM>
