~o
<STREAMINFO> 1 1
<VECSIZE> 1<NULLD><USER><DIAGC>
~h "a"
<BEGINHMM>
<NUMSTATES> 8
<STATE> 2
<MEAN> 1
 3.112880e+00
<VARIANCE> 1
 2.915189e+00
<GCONST> 2.907812e+00
<STATE> 3
<MEAN> 1
 9.823617e+00
<VARIANCE> 1
 2.883106e+00
<GCONST> 2.896745e+00
<STATE> 4
<MEAN> 1
 6.026399e+00
<VARIANCE> 1
 3.081481e+00
<GCONST> 2.963287e+00
<STATE> 5
<MEAN> 1
 5.058540e+00
<VARIANCE> 1
 9.896823e-01
<GCONST> 1.827506e+00
<STATE> 6
<MEAN> 1
 1.779822e+00
<VARIANCE> 1
 9.698038e-01
<GCONST> 1.807215e+00
<STATE> 7
<MEAN> 1
 1.926212e-03
<VARIANCE> 1
 1.000000e-02
<GCONST> -2.767293e+00
<TRANSP> 8
 0.000000e+00 1.000000e+00 0.000000e+00 0.000000e+00 0.000000e+00 0.000000e+00 0.000000e+00 0.000000e+00
 0.000000e+00 9.485689e-01 5.143114e-02 0.000000e+00 0.000000e+00 0.000000e+00 0.000000e+00 0.000000e+00
 0.000000e+00 0.000000e+00 9.809872e-01 1.901282e-02 0.000000e+00 0.000000e+00 0.000000e+00 0.000000e+00
 0.000000e+00 0.000000e+00 0.000000e+00 8.951091e-01 1.048909e-01 0.000000e+00 0.000000e+00 0.000000e+00
 0.000000e+00 0.000000e+00 0.000000e+00 0.000000e+00 9.634037e-01 3.659630e-02 0.000000e+00 0.000000e+00
 0.000000e+00 0.000000e+00 0.000000e+00 0.000000e+00 0.000000e+00 9.531949e-01 4.680514e-02 0.000000e+00
 0.000000e+00 0.000000e+00 0.000000e+00 0.000000e+00 0.000000e+00 0.000000e+00 9.919579e-01 8.042135e-03
 0.000000e+00 0.000000e+00 0.000000e+00 0.000000e+00 0.000000e+00 0.000000e+00 0.000000e+00 0.000000e+00
<ENDHMM>
~h "e"
<BEGINHMM>
<NUMSTATES> 8
<STATE> 2
<MEAN> 1
 -1.421158e-03
<VARIANCE> 1
 1.000000e-02
<GCONST> -2.767293e+00
<STATE> 3
<MEAN> 1
 -7.792326e-01
<VARIANCE> 1
 1.366766e-01
<GCONST> -1.522605e-01
<STATE> 4
<MEAN> 1
 -2.200078e+00
<VARIANCE> 1
 5.588397e-01
<GCONST> 1.255984e+00
<STATE> 5
<MEAN> 1
 -4.568746e+00
<VARIANCE> 1
 1.309500e+00
<GCONST> 2.107522e+00
<STATE> 6
<MEAN> 1
 -6.215434e+00
<VARIANCE> 1
 3.347390e-01
<GCONST> 7.434729e-01
<STATE> 7
<MEAN> 1
 -8.743909e+00
<VARIANCE> 1
 7.172382e-01
<GCONST> 1.505530e+00
<TRANSP> 8
 0.000000e+00 1.000000e+00 0.000000e+00 0.000000e+00 0.000000e+00 0.000000e+00 0.000000e+00 0.000000e+00
 0.000000e+00 9.921532e-01 7.846846e-03 0.000000e+00 0.000000e+00 0.000000e+00 0.000000e+00 0.000000e+00
 0.000000e+00 0.000000e+00 9.409598e-01 5.904016e-02 0.000000e+00 0.000000e+00 0.000000e+00 0.000000e+00
 0.000000e+00 0.000000e+00 0.000000e+00 9.375488e-01 6.245118e-02 0.000000e+00 0.000000e+00 0.000000e+00
 0.000000e+00 0.000000e+00 0.000000e+00 0.000000e+00 9.279829e-01 7.201709e-02 0.000000e+00 0.000000e+00
 0.000000e+00 0.000000e+00 0.000000e+00 0.000000e+00 0.000000e+00 9.345255e-01 6.547455e-02 0.000000e+00
 0.000000e+00 0.000000e+00 0.000000e+00 0.000000e+00 0.000000e+00 0.000000e+00 9.631742e-01 3.682585e-02
 0.000000e+00 0.000000e+00 0.000000e+00 0.000000e+00 0.000000e+00 0.000000e+00 0.000000e+00 0.000000e+00
<ENDHMM>
~h "i"
<BEGINHMM>
<NUMSTATES> 8
<STATE> 2
<MEAN> 1
 -1.041294e+01
<VARIANCE> 1
 3.010131e-01
<GCONST> 6.372756e-01
<STATE> 3
<MEAN> 1
 -8.145531e+00
<VARIANCE> 1
 2.832777e+00
<GCONST> 2.879135e+00
<STATE> 4
<MEAN> 1
 -3.962516e+00
<VARIANCE> 1
 1.248160e+00
<GCONST> 2.059547e+00
<STATE> 5
<MEAN> 1
 -2.023674e+00
<VARIANCE> 1
 5.447110e-02
<GCONST> -1.072208e+00
<STATE> 6
<MEAN> 1
 -9.883881e-01
<VARIANCE> 1
 1.485600e-01
<GCONST> -6.888938e-02
<STATE> 7
<MEAN> 1
 -2.301532e-01
<VARIANCE> 1
 1.207424e-02
<GCONST> -2.578804e+00
<TRANSP> 8
 0.000000e+00 1.000000e+00 0.000000e+00 0.000000e+00 0.000000e+00 0.000000e+00 0.000000e+00 0.000000e+00
 0.000000e+00 9.861183e-01 1.388169e-02 0.000000e+00 0.000000e+00 0.000000e+00 0.000000e+00 0.000000e+00
 0.000000e+00 0.000000e+00 9.833441e-01 1.665594e-02 0.000000e+00 0.000000e+00 0.000000e+00 0.000000e+00
 0.000000e+00 0.000000e+00 0.000000e+00 8.380441e-01 1.619559e-01 0.000000e+00 0.000000e+00 0.000000e+00
 0.000000e+00 0.000000e+00 0.000000e+00 0.000000e+00 0.000000e+00 1.000000e+00 0.000000e+00 0.000000e+00
 0.000000e+00 0.000000e+00 0.000000e+00 0.000000e+00 0.000000e+00 7.237630e-01 2.762370e-01 0.000000e+00
 0.000000e+00 0.000000e+00 0.000000e+00 0.000000e+00 0.000000e+00 0.000000e+00 2.800885e-01 7.199115e-01
 0.000000e+00 0.000000e+00 0.000000e+00 0.000000e+00 0.000000e+00 0.000000e+00 0.000000e+00 0.000000e+00
<ENDHMM>
~h "m"
<BEGINHMM>
<NUMSTATES> 8
<STATE> 2
<MEAN> 1
 1.005357e-03
<VARIANCE> 1
 1.000000e-02
<GCONST> -2.767293e+00
<STATE> 3
<MEAN> 1
 8.901859e-01
<VARIANCE> 1
 5.144874e-02
<GCONST> -1.129292e+00
<STATE> 4
<MEAN> 1
 1.380953e+00
<VARIANCE> 1
 8.132694e-01
<GCONST> 1.631184e+00
<STATE> 5
<MEAN> 1
 3.065376e+00
<VARIANCE> 1
 4.716952e-01
<GCONST> 1.086455e+00
<STATE> 6
<MEAN> 1
 5.126558e+00
<VARIANCE> 1
 5.708896e-01
<GCONST> 1.277318e+00
<STATE> 7
<MEAN> 1
 7.805091e+00
<VARIANCE> 1
 1.231582e+00
<GCONST> 2.046177e+00
<TRANSP> 8
 0.000000e+00 1.000000e+00 0.000000e+00 0.000000e+00 0.000000e+00 0.000000e+00 0.000000e+00 0.000000e+00
 0.000000e+00 9.962212e-01 3.778828e-03 0.000000e+00 0.000000e+00 0.000000e+00 0.000000e+00 0.000000e+00
 0.000000e+00 0.000000e+00 9.228184e-01 7.718155e-02 0.000000e+00 0.000000e+00 0.000000e+00 0.000000e+00
 0.000000e+00 0.000000e+00 0.000000e+00 9.479835e-01 5.201647e-02 0.000000e+00 0.000000e+00 0.000000e+00
 0.000000e+00 0.000000e+00 0.000000e+00 0.000000e+00 9.256437e-01 7.435630e-02 0.000000e+00 0.000000e+00
 0.000000e+00 0.000000e+00 0.000000e+00 0.000000e+00 0.000000e+00 9.411542e-01 5.884583e-02 0.000000e+00
 0.000000e+00 0.000000e+00 0.000000e+00 0.000000e+00 0.000000e+00 0.000000e+00 9.521715e-01 4.782849e-02
 0.000000e+00 0.000000e+00 0.000000e+00 0.000000e+00 0.000000e+00 0.000000e+00 0.000000e+00 0.000000e+00
<ENDHMM>
~h "sil"
<BEGINHMM>
<NUMSTATES> 8
<STATE> 2
<MEAN> 1
 1.212560e+01
<VARIANCE> 1
 1.267738e+01
<GCONST> 4.377696e+00
<STATE> 3
<MEAN> 1
 1.080125e+01
<VARIANCE> 1
 6.128785e-01
<GCONST> 1.348289e+00
<STATE> 4
<MEAN> 1
 9.177246e+00
<VARIANCE> 1
 8.488256e-01
<GCONST> 1.673976e+00
<STATE> 5
<MEAN> 1
 7.356906e+00
<VARIANCE> 1
 1.093774e+00
<GCONST> 1.927511e+00
<STATE> 6
<MEAN> 1
 5.225537e+00
<VARIANCE> 1
 1.209886e+01
<GCONST> 4.330988e+00
<STATE> 7
<MEAN> 1
 5.698437e+00
<VARIANCE> 1
 1.308345e+00
<GCONST> 2.106640e+00
<TRANSP> 8
 0.000000e+00 1.000000e+00 0.000000e+00 0.000000e+00 0.000000e+00 0.000000e+00 0.000000e+00 0.000000e+00
 0.000000e+00 9.492527e-01 5.074728e-02 0.000000e+00 0.000000e+00 0.000000e+00 0.000000e+00 0.000000e+00
 0.000000e+00 0.000000e+00 9.808347e-01 1.916532e-02 0.000000e+00 0.000000e+00 0.000000e+00 0.000000e+00
 0.000000e+00 0.000000e+00 0.000000e+00 9.628137e-01 3.718624e-02 0.000000e+00 0.000000e+00 0.000000e+00
 0.000000e+00 0.000000e+00 0.000000e+00 0.000000e+00 9.190671e-01 8.093292e-02 0.000000e+00 0.000000e+00
 0.000000e+00 0.000000e+00 0.000000e+00 0.000000e+00 0.000000e+00 7.595596e-01 2.404403e-01 0.000000e+00
 0.000000e+00 0.000000e+00 0.000000e+00 0.000000e+00 0.000000e+00 0.000000e+00 9.223489e-01 7.765105e-02
 0.000000e+00 0.000000e+00 0.000000e+00 0.000000e+00 0.000000e+00 0.000000e+00 0.000000e+00 0.000000e+00
<ENDHMM>
