~o
<STREAMINFO> 1 3
<VECSIZE> 3<NULLD><USER><DIAGC>
~h "a"
<BEGINHMM>
<NUMSTATES> 8
<STATE> 2
<NUMMIXES> 2
<MIXTURE> 1 9.778634e-01
<MEAN> 3
 5.784639e+00 4.260932e+00 4.545415e+00
<VARIANCE> 3
 9.388410e+00 7.894554e+00 6.743001e+00
<GCONST> 1.172779e+01
<MIXTURE> 2 2.213850e-02
<MEAN> 3
 3.554789e+00 -1.261943e+00 -1.000000e+02
<VARIANCE> 3
 1.286784e+01 1.050639e+01 1.000000e-02
<GCONST> 5.815175e+00
<STATE> 3
<NUMMIXES> 2
<MIXTURE> 1 9.862748e-01
<MEAN> 3
 3.633144e+00 4.526564e+00 3.103981e-03
<VARIANCE> 3
 9.459009e+00 8.614736e+00 1.000000e-02
<GCONST> 5.308903e+00
<MIXTURE> 2 1.372594e-02
<MEAN> 3
 3.948581e-01 -1.663069e+00 -1.000000e+02
<VARIANCE> 3
 1.918110e-01 1.148435e+01 1.000000e-02
<GCONST> 1.698202e+00
<STATE> 4
<NUMMIXES> 2
<MIXTURE> 1 9.897529e-01
<MEAN> 3
 4.543818e+00 2.738011e-03 3.013455e-04
<VARIANCE> 3
 8.515561e+00 1.000000e-02 1.000000e-02
<GCONST> -1.554814e+00
<MIXTURE> 2 1.024767e-02
<MEAN> 3
 2.259994e-01 -1.540300e+00 -1.000000e+02
<VARIANCE> 3
 6.930554e-02 1.061645e+01 1.000000e-02
<GCONST> 6.016355e-01
<STATE> 5
<NUMMIXES> 2
<MIXTURE> 1 9.581023e-01
<MEAN> 3
 1.320676e+00 -3.906423e+00 1.373043e-01
<VARIANCE> 3
 5.536981e+00 3.221567e+01 3.228202e+00
<GCONST> 1.186946e+01
<MIXTURE> 2 4.189740e-02
<MEAN> 3
 2.031718e-01 -1.424972e+00 -1.000000e+02
<VARIANCE> 3
 8.014015e-02 1.075693e+01 1.000000e-02
<GCONST> 7.600331e-01
<STATE> 6
<NUMMIXES> 2
<MIXTURE> 1 7.746001e-01
<MEAN> 3
 2.074044e-03 -4.551292e-04 -2.593223e-03
<VARIANCE> 3
 1.000000e-02 1.000000e-02 1.000000e-02
<GCONST> -8.301880e+00
<MIXTURE> 2 2.253743e-01
<MEAN> 3
 6.525426e-04 -6.220956e+00 -1.000000e+02
<VARIANCE> 3
 1.000000e-02 1.477670e+01 1.000000e-02
<GCONST> -1.003657e+00
<STATE> 7
<NUMMIXES> 2
<MIXTURE> 1 9.481632e-01
<MEAN> 3
 1.064003e-03 -2.331680e-01 -6.358036e-01
<VARIANCE> 3
 1.000000e-02 1.842082e-01 2.659639e-01
<GCONST> -2.107622e+00
<MIXTURE> 2 5.183773e-02
<MEAN> 3
 -6.481856e-02 -2.685811e+00 -1.000000e+02
<VARIANCE> 3
 1.306380e-02 2.186502e+01 1.000000e-02
<GCONST> -3.445611e-01
<TRANSP> 8
 0.000000e+00 1.000000e+00 0.000000e+00 0.000000e+00 0.000000e+00 0.000000e+00 0.000000e+00 0.000000e+00
 0.000000e+00 9.712514e-01 2.874865e-02 0.000000e+00 0.000000e+00 0.000000e+00 0.000000e+00 0.000000e+00
 0.000000e+00 0.000000e+00 9.677401e-01 3.225989e-02 0.000000e+00 0.000000e+00 0.000000e+00 0.000000e+00
 0.000000e+00 0.000000e+00 0.000000e+00 9.748797e-01 2.512026e-02 0.000000e+00 0.000000e+00 0.000000e+00
 0.000000e+00 0.000000e+00 0.000000e+00 0.000000e+00 9.134052e-01 8.659476e-02 0.000000e+00 0.000000e+00
 0.000000e+00 0.000000e+00 0.000000e+00 0.000000e+00 0.000000e+00 9.863576e-01 1.364238e-02 0.000000e+00
 0.000000e+00 0.000000e+00 0.000000e+00 0.000000e+00 0.000000e+00 0.000000e+00 8.877130e-01 1.122870e-01
 0.000000e+00 0.000000e+00 0.000000e+00 0.000000e+00 0.000000e+00 0.000000e+00 0.000000e+00 0.000000e+00
<ENDHMM>
~h "e"
<BEGINHMM>
<NUMSTATES> 8
<STATE> 2
<NUMMIXES> 2
<MIXTURE> 1 9.851191e-01
<MEAN> 3
 2.004746e-05 -4.631993e-03 -6.077250e+00
<VARIANCE> 3
 1.000000e-02 1.000000e-02 1.689779e+01
<GCONST> -8.695264e-01
<MIXTURE> 2 1.487889e-02
<MEAN> 3
 -1.693074e-01 -2.652672e+00 -1.000000e+02
<VARIANCE> 3
 3.353950e-02 2.154604e+01 1.000000e-02
<GCONST> 5.836220e-01
<STATE> 3
<NUMMIXES> 2
<MIXTURE> 1 1.714774e-01
<MEAN> 3
 -5.105753e-01 -1.573583e-01 -4.841997e+00
<VARIANCE> 3
 2.148964e-01 6.356646e-02 1.824709e+01
<GCONST> 4.124368e+00
<MIXTURE> 2 8.285225e-01
<MEAN> 3
 -1.336555e+00 -3.365600e+00 -1.000000e+02
<VARIANCE> 3
 8.146449e-01 1.627118e+01 1.000000e-02
<GCONST> 3.492854e+00
<STATE> 4
<NUMMIXES> 2
<MIXTURE> 1 9.850811e-01
<MEAN> 3
 -4.044079e-03 -5.886967e+00 -7.721556e+00
<VARIANCE> 3
 1.000000e-02 1.287937e+01 8.489437e+00
<GCONST> 5.602911e+00
<MIXTURE> 2 1.491891e-02
<MEAN> 3
 -1.873183e+00 -2.541528e+00 -1.000000e+02
<VARIANCE> 3
 2.967935e+00 1.834721e+01 1.000000e-02
<GCONST> 4.905805e+00
<STATE> 5
<NUMMIXES> 2
<MIXTURE> 1 1.238270e-01
<MEAN> 3
 -2.903722e+00 -2.036782e+00 -1.073047e+00
<VARIANCE> 3
 3.362751e+00 5.379191e+00 4.413085e+00
<GCONST> 9.893503e+00
<MIXTURE> 2 8.761401e-01
<MEAN> 3
 -8.536261e+00 -4.316954e+00 -1.000000e+02
<VARIANCE> 3
 4.538105e+00 1.995338e+01 1.000000e-02
<GCONST> 5.414370e+00
<STATE> 6
<NUMMIXES> 2
<MIXTURE> 1 9.384964e-01
<MEAN> 3
 -2.065537e+00 -8.077111e+00 -8.002837e+00
<VARIANCE> 3
 1.961815e+00 5.965843e+00 7.634129e+00
<GCONST> 1.000618e+01
<MIXTURE> 2 6.150381e-02
<MEAN> 3
 -2.353641e+00 -8.410943e-01 -1.000000e+02
<VARIANCE> 3
 5.489659e+00 1.238407e+01 1.000000e-02
<GCONST> 5.127738e+00
<STATE> 7
<NUMMIXES> 2
<MIXTURE> 1 9.875023e-01
<MEAN> 3
 -8.921815e+00 -8.291804e+00 -7.944460e+00
<VARIANCE> 3
 4.522718e+00 7.747232e+00 8.325663e+00
<GCONST> 1.118942e+01
<MIXTURE> 2 1.249585e-02
<MEAN> 3
 -1.722064e+00 -5.616816e-01 -1.000000e+02
<VARIANCE> 3
 3.704147e+00 1.000258e+01 1.000000e-02
<GCONST> 4.520757e+00
<TRANSP> 8
 0.000000e+00 1.000000e+00 0.000000e+00 0.000000e+00 0.000000e+00 0.000000e+00 0.000000e+00 0.000000e+00
 0.000000e+00 9.661723e-01 3.382771e-02 0.000000e+00 0.000000e+00 0.000000e+00 0.000000e+00 0.000000e+00
 0.000000e+00 0.000000e+00 8.861300e-01 1.138700e-01 0.000000e+00 0.000000e+00 0.000000e+00 0.000000e+00
 0.000000e+00 0.000000e+00 0.000000e+00 9.673732e-01 3.262681e-02 0.000000e+00 0.000000e+00 0.000000e+00
 0.000000e+00 0.000000e+00 0.000000e+00 0.000000e+00 9.793411e-01 2.065894e-02 0.000000e+00 0.000000e+00
 0.000000e+00 0.000000e+00 0.000000e+00 0.000000e+00 0.000000e+00 8.872028e-01 1.127972e-01 0.000000e+00
 0.000000e+00 0.000000e+00 0.000000e+00 0.000000e+00 0.000000e+00 0.000000e+00 9.725809e-01 2.741916e-02
 0.000000e+00 0.000000e+00 0.000000e+00 0.000000e+00 0.000000e+00 0.000000e+00 0.000000e+00 0.000000e+00
<ENDHMM>
~h "i"
<BEGINHMM>
<NUMSTATES> 8
<STATE> 2
<NUMMIXES> 2
<MIXTURE> 1 8.926991e-01
<MEAN> 3
 -3.454137e-01 -3.844124e+00 -6.625067e+00
<VARIANCE> 3
 5.404284e+00 1.931220e+01 1.787716e+01
<GCONST> 1.304508e+01
<MIXTURE> 2 1.073018e-01
<MEAN> 3
 -8.559403e-01 -4.099981e+00 -1.000000e+02
<VARIANCE> 3
 1.742725e+00 2.721661e+01 1.000000e-02
<GCONST> 4.767738e+00
<STATE> 3
<NUMMIXES> 2
<MIXTURE> 1 9.880447e-01
<MEAN> 3
 -6.134871e+00 -8.310841e+00 -3.014947e-03
<VARIANCE> 3
 1.712187e+01 6.704019e+00 1.000000e-02
<GCONST> 5.651525e+00
<MIXTURE> 2 1.195728e-02
<MEAN> 3
 -8.991251e-01 -4.299822e-01 -1.000000e+02
<VARIANCE> 3
 1.125351e+00 7.067817e+00 1.000000e-02
<GCONST> 2.982108e+00
<STATE> 4
<NUMMIXES> 2
<MIXTURE> 1 8.874668e-01
<MEAN> 3
 -5.673998e+00 -2.189649e-03 2.620639e+00
<VARIANCE> 3
 1.702365e+01 2.368871e-02 8.450245e+00
<GCONST> 6.739673e+00
<MIXTURE> 2 1.125345e-01
<MEAN> 3
 -3.884318e+00 3.519336e-01 -1.000000e+02
<VARIANCE> 3
 1.425018e+01 3.223038e+00 1.000000e-02
<GCONST> 4.735555e+00
<STATE> 5
<NUMMIXES> 2
<MIXTURE> 1 9.864545e-01
<MEAN> 3
 -8.202162e+00 -1.456841e-03 9.770489e-04
<VARIANCE> 3
 6.801029e+00 1.000000e-02 1.000000e-02
<GCONST> -1.779635e+00
<MIXTURE> 2 1.354413e-02
<MEAN> 3
 -3.680107e-01 -3.307217e-01 -1.000000e+02
<VARIANCE> 3
 2.038796e-01 5.453793e+00 1.000000e-02
<GCONST> 1.014546e+00
<STATE> 6
<NUMMIXES> 2
<MIXTURE> 1 9.057156e-01
<MEAN> 3
 -2.873939e+00 2.354391e+00 -1.352881e+00
<VARIANCE> 3
 1.652351e+01 7.465836e+00 1.441225e+01
<GCONST> 1.299683e+01
<MIXTURE> 2 9.428447e-02
<MEAN> 3
 -3.845308e-01 -2.054201e-01 -1.000000e+02
<VARIANCE> 3
 1.495275e-01 3.399785e+00 1.000000e-02
<GCONST> 2.318978e-01
<STATE> 7
<NUMMIXES> 2
<MIXTURE> 1 4.081646e-01
<MEAN> 3
 -2.104255e-03 7.698404e-04 1.651910e-03
<VARIANCE> 3
 1.000000e-02 1.000000e-02 1.000000e-02
<GCONST> -8.301880e+00
<MIXTURE> 2 5.917535e-01
<MEAN> 3
 -2.591329e-04 3.411492e-02 -1.000000e+02
<VARIANCE> 3
 1.000000e-02 2.986147e-01 1.000000e-02
<GCONST> -4.905310e+00
<TRANSP> 8
 0.000000e+00 1.000000e+00 0.000000e+00 0.000000e+00 0.000000e+00 0.000000e+00 0.000000e+00 0.000000e+00
 0.000000e+00 8.743283e-01 1.256717e-01 0.000000e+00 0.000000e+00 0.000000e+00 0.000000e+00 0.000000e+00
 0.000000e+00 0.000000e+00 9.738155e-01 2.618452e-02 0.000000e+00 0.000000e+00 0.000000e+00 0.000000e+00
 0.000000e+00 0.000000e+00 0.000000e+00 8.900748e-01 1.099252e-01 0.000000e+00 0.000000e+00 0.000000e+00
 0.000000e+00 0.000000e+00 0.000000e+00 0.000000e+00 9.718913e-01 2.810874e-02 0.000000e+00 0.000000e+00
 0.000000e+00 0.000000e+00 0.000000e+00 0.000000e+00 0.000000e+00 8.757084e-01 1.242916e-01 0.000000e+00
 0.000000e+00 0.000000e+00 0.000000e+00 0.000000e+00 0.000000e+00 0.000000e+00 9.932948e-01 6.705200e-03
 0.000000e+00 0.000000e+00 0.000000e+00 0.000000e+00 0.000000e+00 0.000000e+00 0.000000e+00 0.000000e+00
<ENDHMM>
~h "m"
<BEGINHMM>
<NUMSTATES> 8
<STATE> 2
<NUMMIXES> 2
<MIXTURE> 1 9.621476e-01
<MEAN> 3
 4.633135e-04 5.913279e-03 2.731998e+00
<VARIANCE> 3
 1.000000e-02 1.000000e-02 9.829154e+00
<GCONST> -1.411356e+00
<MIXTURE> 2 3.785199e-02
<MEAN> 3
 2.739980e-02 4.084064e-02 -1.000000e+02
<VARIANCE> 3
 1.000000e-02 2.485139e+00 1.000000e-02
<GCONST> -2.786381e+00
<STATE> 3
<NUMMIXES> 2
<MIXTURE> 1 9.807307e-01
<MEAN> 3
 3.227356e-03 2.420213e+00 2.229658e+00
<VARIANCE> 3
 1.000000e-02 3.157636e+00 8.973181e+00
<GCONST> 4.252525e+00
<MIXTURE> 2 1.927301e-02
<MEAN> 3
 9.350459e-02 -8.952768e-02 -1.000000e+02
<VARIANCE> 3
 1.561765e-02 4.307630e+00 1.000000e-02
<GCONST> -1.790505e+00
<STATE> 4
<NUMMIXES> 2
<MIXTURE> 1 6.166846e-01
<MEAN> 3
 2.428961e+00 2.527119e-01 -2.332494e+00
<VARIANCE> 3
 3.329811e+00 4.158194e-01 2.609553e+01
<GCONST> 9.100807e+00
<MIXTURE> 2 3.833167e-01
<MEAN> 3
 1.829267e-02 5.552043e+00 -1.000000e+02
<VARIANCE> 3
 1.000000e-02 1.271848e+01 1.000000e-02
<GCONST> -1.153653e+00
<STATE> 5
<NUMMIXES> 2
<MIXTURE> 1 9.518579e-01
<MEAN> 3
 2.003828e+00 4.371644e+00 2.824686e+00
<VARIANCE> 3
 1.905838e+00 4.929654e+00 7.239759e+00
<GCONST> 9.733410e+00
<MIXTURE> 2 4.813783e-02
<MEAN> 3
 2.986713e-01 3.735542e-01 -1.000000e+02
<VARIANCE> 3
 1.023145e-01 8.902729e+00 1.000000e-02
<GCONST> 8.151155e-01
<STATE> 6
<NUMMIXES> 2
<MIXTURE> 1 8.539868e-03
<MEAN> 3
 1.767569e+00 2.761593e+00 7.338114e-01
<VARIANCE> 3
 4.147435e+00 6.161298e+00 1.886621e+00
<GCONST> 9.389196e+00
<MIXTURE> 2 9.914561e-01
<MEAN> 3
 3.727168e+00 1.391406e+00 -1.000000e+02
<VARIANCE> 3
 7.141633e+00 7.172737e+00 1.000000e-02
<GCONST> 4.844689e+00
<STATE> 7
<NUMMIXES> 2
<MIXTURE> 1 3.887849e-01
<MEAN> 3
 1.857366e+00 2.874237e+00 7.212465e-01
<VARIANCE> 3
 4.435156e+00 6.597706e+00 1.774218e+00
<GCONST> 9.463276e+00
<MIXTURE> 2 6.112158e-01
<MEAN> 3
 1.716830e+00 4.879051e-01 -1.000000e+02
<VARIANCE> 3
 6.282405e+00 1.428611e+01 1.000000e-02
<GCONST> 5.405502e+00
<TRANSP> 8
 0.000000e+00 1.000000e+00 0.000000e+00 0.000000e+00 0.000000e+00 0.000000e+00 0.000000e+00 0.000000e+00
 0.000000e+00 9.536925e-01 4.630749e-02 0.000000e+00 0.000000e+00 0.000000e+00 0.000000e+00 0.000000e+00
 0.000000e+00 0.000000e+00 9.626571e-01 3.734290e-02 0.000000e+00 0.000000e+00 0.000000e+00 0.000000e+00
 0.000000e+00 0.000000e+00 0.000000e+00 9.327411e-01 6.725888e-02 0.000000e+00 0.000000e+00 0.000000e+00
 0.000000e+00 0.000000e+00 0.000000e+00 0.000000e+00 9.182205e-01 8.177949e-02 0.000000e+00 0.000000e+00
 0.000000e+00 0.000000e+00 0.000000e+00 0.000000e+00 0.000000e+00 9.783741e-01 2.162594e-02 0.000000e+00
 0.000000e+00 0.000000e+00 0.000000e+00 0.000000e+00 0.000000e+00 0.000000e+00 9.619017e-03 9.903810e-01
 0.000000e+00 0.000000e+00 0.000000e+00 0.000000e+00 0.000000e+00 0.000000e+00 0.000000e+00 0.000000e+00
<ENDHMM>
~h "sil"
<BEGINHMM>
<NUMSTATES> 8
<STATE> 2
<NUMMIXES> 2
<MIXTURE> 1 9.311305e-01
<MEAN> 3
 9.377348e+00 3.154066e+00 1.092365e+00
<VARIANCE> 3
 6.850543e+00 6.593614e+00 3.302522e+00
<GCONST> 1.051875e+01
<MIXTURE> 2 6.886836e-02
<MEAN> 3
 4.870275e+00 -1.180916e+00 -5.747149e+01
<VARIANCE> 3
 1.015337e+01 4.460382e+01 2.293180e+03
<GCONST> 1.936695e+01
<STATE> 3
<NUMMIXES> 2
<MIXTURE> 1 3.671932e-02
<MEAN> 3
 4.764370e+00 3.357315e+00 -7.061220e+01
<VARIANCE> 3
 1.431572e+01 9.790747e+00 2.123215e+03
<GCONST> 1.811712e+01
<MIXTURE> 2 9.632803e-01
<MEAN> 3
 9.250747e+00 -3.975900e-04 3.910901e-03
<VARIANCE> 3
 3.165494e+00 1.000000e-02 1.000000e-02
<GCONST> -2.544400e+00
<STATE> 4
<NUMMIXES> 2
<MIXTURE> 1 2.262062e-02
<MEAN> 3
 4.240576e+00 1.659411e+00 -8.686477e+01
<VARIANCE> 3
 1.467198e+01 2.571089e+02 1.142376e+03
<GCONST> 2.078994e+01
<MIXTURE> 2 9.773794e-01
<MEAN> 3
 8.427341e+00 2.369144e-03 3.263848e+00
<VARIANCE> 3
 7.554253e+00 1.000000e-02 7.819643e+00
<GCONST> 4.987210e+00
<STATE> 5
<NUMMIXES> 2
<MIXTURE> 1 6.403039e-02
<MEAN> 3
 4.110338e+00 -1.127326e+01 -8.858719e+01
<VARIANCE> 3
 1.457619e+01 1.391222e+03 1.032022e+03
<GCONST> 2.237023e+01
<MIXTURE> 2 9.359697e-01
<MEAN> 3
 6.136583e+00 9.856354e-03 -7.229652e+00
<VARIANCE> 3
 7.815733e+00 1.000000e-02 1.446403e+01
<GCONST> 5.636264e+00
<STATE> 6
<NUMMIXES> 2
<MIXTURE> 1 9.980744e-01
<MEAN> 3
 -1.018085e+00 -1.000000e+02 -1.000000e+02
<VARIANCE> 3
 1.540057e+01 1.000000e-02 1.000000e-02
<GCONST> -9.623041e-01
<MIXTURE> 2 1.925731e-03
<MEAN> 3
 8.617579e+00 1.177005e+00 2.207379e+00
<VARIANCE> 3
 6.094829e+00 2.269259e+00 3.346061e+00
<GCONST> 9.348310e+00
<STATE> 7
<NUMMIXES> 2
<MIXTURE> 1 9.449322e-01
<MEAN> 3
 8.312001e+00 4.400057e+00 2.652935e-03
<VARIANCE> 3
 1.332103e+01 9.546706e+00 1.000000e-02
<GCONST> 5.754002e+00
<MIXTURE> 2 5.506801e-02
<MEAN> 3
 5.293336e+00 -6.316703e+01 -6.224147e+01
<VARIANCE> 3
 9.089979e+00 2.373635e+03 2.494813e+03
<GCONST> 2.331495e+01
<TRANSP> 8
 0.000000e+00 1.000000e+00 0.000000e+00 0.000000e+00 0.000000e+00 0.000000e+00 0.000000e+00 0.000000e+00
 0.000000e+00 9.231582e-01 7.684173e-02 0.000000e+00 0.000000e+00 0.000000e+00 0.000000e+00 0.000000e+00
 0.000000e+00 0.000000e+00 9.478564e-01 5.214361e-02 0.000000e+00 0.000000e+00 0.000000e+00 0.000000e+00
 0.000000e+00 0.000000e+00 0.000000e+00 9.607012e-01 3.929887e-02 0.000000e+00 0.000000e+00 0.000000e+00
 0.000000e+00 0.000000e+00 0.000000e+00 0.000000e+00 8.862802e-01 1.137197e-01 0.000000e+00 0.000000e+00
 0.000000e+00 0.000000e+00 0.000000e+00 0.000000e+00 0.000000e+00 9.979997e-01 2.000358e-03 0.000000e+00
 0.000000e+00 0.000000e+00 0.000000e+00 0.000000e+00 0.000000e+00 0.000000e+00 9.299234e-01 7.007661e-02
 0.000000e+00 0.000000e+00 0.000000e+00 0.000000e+00 0.000000e+00 0.000000e+00 0.000000e+00 0.000000e+00
<ENDHMM>
