~o
<STREAMINFO> 1 1
<VECSIZE> 1<NULLD><USER><DIAGC>
~h "a"
<BEGINHMM>
<NUMSTATES> 8
<STATE> 2
<MEAN> 1
 3.272097e+00
<VARIANCE> 1
 3.584668e+00
<GCONST> 3.114543e+00
<STATE> 3
<MEAN> 1
 1.030484e+01
<VARIANCE> 1
 2.429921e+00
<GCONST> 2.725736e+00
<STATE> 4
<MEAN> 1
 7.032485e+00
<VARIANCE> 1
 1.130573e+00
<GCONST> 1.960601e+00
<STATE> 5
<MEAN> 1
 4.418453e+00
<VARIANCE> 1
 8.588757e-01
<GCONST> 1.685746e+00
<STATE> 6
<MEAN> 1
 1.700008e+00
<VARIANCE> 1
 8.904485e-01
<GCONST> 1.721847e+00
<STATE> 7
<MEAN> 1
 1.904206e-03
<VARIANCE> 1
 1.000000e-02
<GCONST> -2.767293e+00
<TRANSP> 8
 0.000000e+00 1.000000e+00 0.000000e+00 0.000000e+00 0.000000e+00 0.000000e+00 0.000000e+00 0.000000e+00
 0.000000e+00 9.402208e-01 5.977926e-02 0.000000e+00 0.000000e+00 0.000000e+00 0.000000e+00 0.000000e+00
 0.000000e+00 0.000000e+00 9.762909e-01 2.370907e-02 0.000000e+00 0.000000e+00 0.000000e+00 0.000000e+00
 0.000000e+00 0.000000e+00 0.000000e+00 9.621429e-01 3.785707e-02 0.000000e+00 0.000000e+00 0.000000e+00
 0.000000e+00 0.000000e+00 0.000000e+00 0.000000e+00 9.593574e-01 4.064255e-02 0.000000e+00 0.000000e+00
 0.000000e+00 0.000000e+00 0.000000e+00 0.000000e+00 0.000000e+00 9.507661e-01 4.923395e-02 0.000000e+00
 0.000000e+00 0.000000e+00 0.000000e+00 0.000000e+00 0.000000e+00 0.000000e+00 9.919662e-01 8.033782e-03
 0.000000e+00 0.000000e+00 0.000000e+00 0.000000e+00 0.000000e+00 0.000000e+00 0.000000e+00 0.000000e+00
<ENDHMM>
~h "e"
<BEGINHMM>
<NUMSTATES> 8
<STATE> 2
<MEAN> 1
 -1.419773e-03
<VARIANCE> 1
 1.000000e-02
<GCONST> -2.767293e+00
<STATE> 3
<MEAN> 1
 -7.780676e-01
<VARIANCE> 1
 1.363286e-01
<GCONST> -1.548103e-01
<STATE> 4
<MEAN> 1
 -2.219497e+00
<VARIANCE> 1
 6.495267e-01
<GCONST> 1.406366e+00
<STATE> 5
<MEAN> 1
 -4.393266e+00
<VARIANCE> 1
 4.773296e-01
<GCONST> 1.098329e+00
<STATE> 6
<MEAN> 1
 -6.226954e+00
<VARIANCE> 1
 5.017887e-01
<GCONST> 1.148301e+00
<STATE> 7
<MEAN> 1
 -8.715491e+00
<VARIANCE> 1
 6.447588e-01
<GCONST> 1.398998e+00
<TRANSP> 8
 0.000000e+00 1.000000e+00 0.000000e+00 0.000000e+00 0.000000e+00 0.000000e+00 0.000000e+00 0.000000e+00
 0.000000e+00 9.921445e-01 7.855568e-03 0.000000e+00 0.000000e+00 0.000000e+00 0.000000e+00 0.000000e+00
 0.000000e+00 0.000000e+00 9.408286e-01 5.917140e-02 0.000000e+00 0.000000e+00 0.000000e+00 0.000000e+00
 0.000000e+00 0.000000e+00 0.000000e+00 9.398055e-01 6.019445e-02 0.000000e+00 0.000000e+00 0.000000e+00
 0.000000e+00 0.000000e+00 0.000000e+00 0.000000e+00 9.095041e-01 9.049592e-02 0.000000e+00 0.000000e+00
 0.000000e+00 0.000000e+00 0.000000e+00 0.000000e+00 0.000000e+00 9.452104e-01 5.478961e-02 0.000000e+00
 0.000000e+00 0.000000e+00 0.000000e+00 0.000000e+00 0.000000e+00 0.000000e+00 9.574969e-01 4.250308e-02
 0.000000e+00 0.000000e+00 0.000000e+00 0.000000e+00 0.000000e+00 0.000000e+00 0.000000e+00 0.000000e+00
<ENDHMM>
~h "i"
<BEGINHMM>
<NUMSTATES> 8
<STATE> 2
<MEAN> 1
 -1.042361e+01
<VARIANCE> 1
 2.871924e-01
<GCONST> 5.902742e-01
<STATE> 3
<MEAN> 1
 -8.521942e+00
<VARIANCE> 1
 1.990480e+00
<GCONST> 2.526253e+00
<STATE> 4
<MEAN> 1
 -5.154196e+00
<VARIANCE> 1
 3.587262e+00
<GCONST> 3.115266e+00
<STATE> 5
<MEAN> 1
 -2.076964e+00
<VARIANCE> 1
 5.459039e-02
<GCONST> -1.070020e+00
<STATE> 6
<MEAN> 1
 -1.085513e+00
<VARIANCE> 1
 1.394301e-01
<GCONST> -1.323150e-01
<STATE> 7
<MEAN> 1
 -3.463905e-01
<VARIANCE> 1
 1.513307e-02
<GCONST> -2.352996e+00
<TRANSP> 8
 0.000000e+00 1.000000e+00 0.000000e+00 0.000000e+00 0.000000e+00 0.000000e+00 0.000000e+00 0.000000e+00
 0.000000e+00 9.859334e-01 1.406660e-02 0.000000e+00 0.000000e+00 0.000000e+00 0.000000e+00 0.000000e+00
 0.000000e+00 0.000000e+00 9.821523e-01 1.784774e-02 0.000000e+00 0.000000e+00 0.000000e+00 0.000000e+00
 0.000000e+00 0.000000e+00 0.000000e+00 9.282716e-01 7.172840e-02 0.000000e+00 0.000000e+00 0.000000e+00
 0.000000e+00 0.000000e+00 0.000000e+00 0.000000e+00 0.000000e+00 1.000000e+00 0.000000e+00 0.000000e+00
 0.000000e+00 0.000000e+00 0.000000e+00 0.000000e+00 0.000000e+00 6.965624e-01 3.034376e-01 0.000000e+00
 0.000000e+00 0.000000e+00 0.000000e+00 0.000000e+00 0.000000e+00 0.000000e+00 2.478028e-01 7.521973e-01
 0.000000e+00 0.000000e+00 0.000000e+00 0.000000e+00 0.000000e+00 0.000000e+00 0.000000e+00 0.000000e+00
<ENDHMM>
~h "m"
<BEGINHMM>
<NUMSTATES> 8
<STATE> 2
<MEAN> 1
 7.816429e-04
<VARIANCE> 1
 1.000000e-02
<GCONST> -2.767293e+00
<STATE> 3
<MEAN> 1
 8.904251e-01
<VARIANCE> 1
 5.062394e-02
<GCONST> -1.145454e+00
<STATE> 4
<MEAN> 1
 1.396163e+00
<VARIANCE> 1
 8.118703e-01
<GCONST> 1.629462e+00
<STATE> 5
<MEAN> 1
 3.241029e+00
<VARIANCE> 1
 5.827575e-01
<GCONST> 1.297893e+00
<STATE> 6
<MEAN> 1
 5.328016e+00
<VARIANCE> 1
 4.450718e-01
<GCONST> 1.028357e+00
<STATE> 7
<MEAN> 1
 8.080777e+00
<VARIANCE> 1
 1.180418e+00
<GCONST> 2.003746e+00
<TRANSP> 8
 0.000000e+00 1.000000e+00 0.000000e+00 0.000000e+00 0.000000e+00 0.000000e+00 0.000000e+00 0.000000e+00
 0.000000e+00 9.962285e-01 3.771485e-03 0.000000e+00 0.000000e+00 0.000000e+00 0.000000e+00 0.000000e+00
 0.000000e+00 0.000000e+00 9.224066e-01 7.759341e-02 0.000000e+00 0.000000e+00 0.000000e+00 0.000000e+00
 0.000000e+00 0.000000e+00 0.000000e+00 9.490687e-01 5.093131e-02 0.000000e+00 0.000000e+00 0.000000e+00
 0.000000e+00 0.000000e+00 0.000000e+00 0.000000e+00 9.371626e-01 6.283734e-02 0.000000e+00 0.000000e+00
 0.000000e+00 0.000000e+00 0.000000e+00 0.000000e+00 0.000000e+00 9.306667e-01 6.933324e-02 0.000000e+00
 0.000000e+00 0.000000e+00 0.000000e+00 0.000000e+00 0.000000e+00 0.000000e+00 9.454898e-01 5.451021e-02
 0.000000e+00 0.000000e+00 0.000000e+00 0.000000e+00 0.000000e+00 0.000000e+00 0.000000e+00 0.000000e+00
<ENDHMM>
~h "sil"
<BEGINHMM>
<NUMSTATES> 8
<STATE> 2
<MEAN> 1
 1.264546e+01
<VARIANCE> 1
 8.739754e+00
<GCONST> 4.005759e+00
<STATE> 3
<MEAN> 1
 1.069895e+01
<VARIANCE> 1
 6.597588e-01
<GCONST> 1.421996e+00
<STATE> 4
<MEAN> 1
 8.829555e+00
<VARIANCE> 1
 9.146290e-01
<GCONST> 1.748640e+00
<STATE> 5
<MEAN> 1
 7.362071e+00
<VARIANCE> 1
 1.394971e+00
<GCONST> 2.170751e+00
<STATE> 6
<MEAN> 1
 2.985440e+00
<VARIANCE> 1
 3.302340e+00
<GCONST> 3.032508e+00
<STATE> 7
<MEAN> 1
 6.172370e+00
<VARIANCE> 1
 1.046179e+00
<GCONST> 1.883021e+00
<TRANSP> 8
 0.000000e+00 1.000000e+00 0.000000e+00 0.000000e+00 0.000000e+00 0.000000e+00 0.000000e+00 0.000000e+00
 0.000000e+00 9.450394e-01 5.496061e-02 0.000000e+00 0.000000e+00 0.000000e+00 0.000000e+00 0.000000e+00
 0.000000e+00 0.000000e+00 9.828473e-01 1.715262e-02 0.000000e+00 0.000000e+00 0.000000e+00 0.000000e+00
 0.000000e+00 0.000000e+00 0.000000e+00 9.555928e-01 4.440728e-02 0.000000e+00 0.000000e+00 0.000000e+00
 0.000000e+00 0.000000e+00 0.000000e+00 0.000000e+00 8.973977e-01 1.026023e-01 0.000000e+00 0.000000e+00
 0.000000e+00 0.000000e+00 0.000000e+00 0.000000e+00 0.000000e+00 8.819816e-01 1.180184e-01 0.000000e+00
 0.000000e+00 0.000000e+00 0.000000e+00 0.000000e+00 0.000000e+00 0.000000e+00 9.387284e-01 6.127159e-02
 0.000000e+00 0.000000e+00 0.000000e+00 0.000000e+00 0.000000e+00 0.000000e+00 0.000000e+00 0.000000e+00
<ENDHMM>
