~o
<STREAMINFO> 1 3
<VECSIZE> 3<NULLD><USER><DIAGC>
~h "a"
<BEGINHMM>
<NUMSTATES> 8
<STATE> 2
<NUMMIXES> 2
<MIXTURE> 1 6.032788e-01
<MEAN> 3
 3.831246e+00 3.736180e+00 1.929701e+00
<VARIANCE> 3
 8.784588e+00 5.708043e+00 1.003639e+01
<GCONST> 1.173472e+01
<MIXTURE> 2 3.967197e-01
<MEAN> 3
 2.221588e-01 -5.463529e+01 -1.000000e+02
<VARIANCE> 3
 5.271477e-01 2.498894e+03 1.000000e-02
<GCONST> 8.091790e+00
<STATE> 3
<NUMMIXES> 2
<MIXTURE> 1 9.928403e-03
<MEAN> 3
 3.155360e+00 2.974663e+00 -2.138179e+01
<VARIANCE> 3
 8.664331e+00 8.948543e+00 1.841026e+03
<GCONST> 1.738241e+01
<MIXTURE> 2 9.900703e-01
<MEAN> 3
 -5.899803e-04 -1.000000e+02 -1.000000e+02
<VARIANCE> 3
 1.000000e-02 1.000000e-02 1.000000e-02
<GCONST> -8.301880e+00
<STATE> 4
<NUMMIXES> 2
<MIXTURE> 1 9.914305e-01
<MEAN> 3
 5.244698e+00 5.763823e+00 4.444985e+00
<VARIANCE> 3
 9.705546e+00 6.531860e+00 8.262808e+00
<GCONST> 1.177479e+01
<MIXTURE> 2 8.570217e-03
<MEAN> 3
 1.797133e-01 -5.459741e+01 -1.000000e+02
<VARIANCE> 3
 4.823792e-02 2.496623e+03 1.000000e-02
<GCONST> 5.699546e+00
<STATE> 5
<NUMMIXES> 2
<MIXTURE> 1 9.737309e-01
<MEAN> 3
 1.710659e+00 1.173592e-01 -5.761588e-01
<VARIANCE> 3
 5.645936e+00 3.542726e-01 4.039767e+01
<GCONST> 9.905651e+00
<MIXTURE> 2 2.626922e-02
<MEAN> 3
 8.998924e-02 -5.245914e+01 -1.000000e+02
<VARIANCE> 3
 1.448041e-02 2.520179e+03 1.000000e-02
<GCONST> 4.505588e+00
<STATE> 6
<NUMMIXES> 2
<MIXTURE> 1 9.901804e-01
<MEAN> 3
 4.692371e+00 9.178613e-01 1.283938e-03
<VARIANCE> 3
 9.267352e+00 3.076747e+00 1.000000e-02
<GCONST> 4.258832e+00
<MIXTURE> 2 9.819815e-03
<MEAN> 3
 3.601035e-02 -4.979695e+01 -1.000000e+02
<VARIANCE> 3
 1.000000e-02 2.522355e+03 1.000000e-02
<GCONST> 4.136239e+00
<STATE> 7
<NUMMIXES> 2
<MIXTURE> 1 9.557973e-02
<MEAN> 3
 2.064158e-02 -6.904544e+00 7.976488e-02
<VARIANCE> 3
 1.000000e-02 1.340693e+01 1.327449e-01
<GCONST> 1.484907e+00
<MIXTURE> 2 9.044068e-01
<MEAN> 3
 -7.418040e-04 -1.807779e+00 -1.000000e+02
<VARIANCE> 3
 1.000000e-02 4.824916e+01 1.000000e-02
<GCONST> 1.796694e-01
<TRANSP> 8
 0.000000e+00 1.000000e+00 0.000000e+00 0.000000e+00 0.000000e+00 0.000000e+00 0.000000e+00 0.000000e+00
 0.000000e+00 1.175216e-07 9.999999e-01 0.000000e+00 0.000000e+00 0.000000e+00 0.000000e+00 0.000000e+00
 0.000000e+00 0.000000e+00 9.873365e-01 1.266351e-02 0.000000e+00 0.000000e+00 0.000000e+00 0.000000e+00
 0.000000e+00 0.000000e+00 0.000000e+00 9.784240e-01 2.157598e-02 0.000000e+00 0.000000e+00 0.000000e+00
 0.000000e+00 0.000000e+00 0.000000e+00 0.000000e+00 9.363517e-01 6.364828e-02 0.000000e+00 0.000000e+00
 0.000000e+00 0.000000e+00 0.000000e+00 0.000000e+00 0.000000e+00 9.774259e-01 2.257412e-02 0.000000e+00
 0.000000e+00 0.000000e+00 0.000000e+00 0.000000e+00 0.000000e+00 0.000000e+00 9.834261e-01 1.657391e-02
 0.000000e+00 0.000000e+00 0.000000e+00 0.000000e+00 0.000000e+00 0.000000e+00 0.000000e+00 0.000000e+00
<ENDHMM>
~h "e"
<BEGINHMM>
<NUMSTATES> 8
<STATE> 2
<NUMMIXES> 2
<MIXTURE> 1 9.935738e-01
<MEAN> 3
 5.393021e-04 -9.412064e-04 -2.308779e-03
<VARIANCE> 3
 1.000000e-02 1.000000e-02 1.000000e-02
<GCONST> -8.301880e+00
<MIXTURE> 2 6.426509e-03
<MEAN> 3
 -1.349696e-01 -5.174747e+01 -1.000000e+02
<VARIANCE> 3
 2.495484e-02 2.272466e+03 1.000000e-02
<GCONST> 4.946395e+00
<STATE> 3
<NUMMIXES> 2
<MIXTURE> 1 9.919485e-01
<MEAN> 3
 -1.795453e-03 -2.978266e+00 -5.514442e+00
<VARIANCE> 3
 1.000000e-02 1.475266e+01 1.772127e+01
<GCONST> 6.474650e+00
<MIXTURE> 2 8.050691e-03
<MEAN> 3
 -2.383533e-01 -5.154813e+01 -1.000000e+02
<VARIANCE> 3
 6.061912e-02 2.272687e+03 1.000000e-02
<GCONST> 5.834034e+00
<STATE> 4
<NUMMIXES> 2
<MIXTURE> 1 9.770220e-01
<MEAN> 3
 -5.603147e+00 -3.103762e+00 -5.293905e-01
<VARIANCE> 3
 1.384340e+01 1.211279e+01 2.052325e+00
<GCONST> 1.135468e+01
<MIXTURE> 2 2.297952e-02
<MEAN> 3
 -3.766540e-01 -5.037184e+01 -1.000000e+02
<VARIANCE> 3
 1.424959e-01 2.272124e+03 1.000000e-02
<GCONST> 6.688489e+00
<STATE> 5
<NUMMIXES> 2
<MIXTURE> 1 9.660482e-01
<MEAN> 3
 -2.673936e+00 -7.853364e+00 -8.470842e+00
<VARIANCE> 3
 4.251992e+00 8.639277e+00 4.851489e+00
<GCONST> 1.069662e+01
<MIXTURE> 2 3.395388e-02
<MEAN> 3
 -5.547612e-01 -4.892034e+01 -1.000000e+02
<VARIANCE> 3
 3.371278e-01 2.269883e+03 1.000000e-02
<GCONST> 7.548652e+00
<STATE> 6
<NUMMIXES> 2
<MIXTURE> 1 3.143333e-02
<MEAN> 3
 -7.266641e+00 -2.760121e+00 -1.314704e-02
<VARIANCE> 3
 9.378794e+00 1.673332e+01 4.143316e+01
<GCONST> 1.429357e+01
<MIXTURE> 2 9.685661e-01
<MEAN> 3
 -7.538597e+00 -4.889934e+00 -1.000000e+02
<VARIANCE> 3
 9.994261e+00 5.922483e+01 1.000000e-02
<GCONST> 7.291813e+00
<STATE> 7
<NUMMIXES> 2
<MIXTURE> 1 9.862017e-01
<MEAN> 3
 -9.330876e+00 -9.245539e+00 -8.012255e+00
<VARIANCE> 3
 2.927101e+00 2.644107e+00 6.904350e+00
<GCONST> 9.492129e+00
<MIXTURE> 2 1.379825e-02
<MEAN> 3
 -2.094638e+00 -4.931568e+01 -1.000000e+02
<VARIANCE> 3
 5.006311e+00 2.392214e+03 1.000000e-02
<GCONST> 1.029913e+01
<TRANSP> 8
 0.000000e+00 1.000000e+00 0.000000e+00 0.000000e+00 0.000000e+00 0.000000e+00 0.000000e+00 0.000000e+00
 0.000000e+00 9.854301e-01 1.456987e-02 0.000000e+00 0.000000e+00 0.000000e+00 0.000000e+00 0.000000e+00
 0.000000e+00 0.000000e+00 9.818231e-01 1.817691e-02 0.000000e+00 0.000000e+00 0.000000e+00 0.000000e+00
 0.000000e+00 0.000000e+00 0.000000e+00 9.493921e-01 5.060787e-02 0.000000e+00 0.000000e+00 0.000000e+00
 0.000000e+00 0.000000e+00 0.000000e+00 0.000000e+00 9.275101e-01 7.248982e-02 0.000000e+00 0.000000e+00
 0.000000e+00 0.000000e+00 0.000000e+00 0.000000e+00 0.000000e+00 9.804724e-01 1.952762e-02 0.000000e+00
 0.000000e+00 0.000000e+00 0.000000e+00 0.000000e+00 0.000000e+00 0.000000e+00 9.694560e-01 3.054406e-02
 0.000000e+00 0.000000e+00 0.000000e+00 0.000000e+00 0.000000e+00 0.000000e+00 0.000000e+00 0.000000e+00
<ENDHMM>
~h "i"
<BEGINHMM>
<NUMSTATES> 8
<STATE> 2
<NUMMIXES> 2
<MIXTURE> 1 9.742641e-01
<MEAN> 3
 -1.893746e+00 -3.814636e+00 -8.315710e+00
<VARIANCE> 3
 1.241918e+01 1.848059e+01 8.463471e+00
<GCONST> 1.308535e+01
<MIXTURE> 2 2.573620e-02
<MEAN> 3
 -1.675043e+00 -4.922540e+01 -1.000000e+02
<VARIANCE> 3
 3.266579e+00 2.394228e+03 1.000000e-02
<GCONST> 9.873020e+00
<STATE> 3
<NUMMIXES> 2
<MIXTURE> 1 9.830837e-01
<MEAN> 3
 -7.966408e+00 -8.163637e+00 -5.139322e-03
<VARIANCE> 3
 9.157109e+00 7.422537e+00 1.000000e-02
<GCONST> 5.127513e+00
<MIXTURE> 2 1.691530e-02
<MEAN> 3
 -1.270001e+00 -4.923758e+01 -1.000000e+02
<VARIANCE> 3
 2.004384e+00 2.396835e+03 1.000000e-02
<GCONST> 9.385702e+00
<STATE> 4
<NUMMIXES> 2
<MIXTURE> 1 9.818327e-01
<MEAN> 3
 -7.791957e+00 -2.893750e-03 7.893811e-03
<VARIANCE> 3
 8.791407e+00 1.000000e-02 1.000000e-02
<GCONST> -1.522934e+00
<MIXTURE> 2 1.816500e-02
<MEAN> 3
 -9.476159e-01 -4.725579e+01 -1.000000e+02
<VARIANCE> 3
 1.183230e+00 2.396198e+03 1.000000e-02
<GCONST> 8.858348e+00
<STATE> 5
<NUMMIXES> 2
<MIXTURE> 1 9.931440e-01
<MEAN> 3
 -2.603190e-03 9.315098e-04 1.269540e-03
<VARIANCE> 3
 1.000000e-02 1.000000e-02 1.000000e-02
<GCONST> -8.301880e+00
<MIXTURE> 2 6.855812e-03
<MEAN> 3
 -6.172432e-01 -4.849562e+01 -1.000000e+02
<VARIANCE> 3
 7.140234e-01 2.401332e+03 1.000000e-02
<GCONST> 8.355400e+00
<STATE> 6
<NUMMIXES> 2
<MIXTURE> 1 9.391656e-01
<MEAN> 3
 -6.479816e+00 3.490614e-01 1.431780e+00
<VARIANCE> 3
 1.627957e+01 7.343897e-01 4.369063e+00
<GCONST> 9.469376e+00
<MIXTURE> 2 6.083450e-02
<MEAN> 3
 -3.862345e-01 -4.716872e+01 -1.000000e+02
<VARIANCE> 3
 4.362603e-01 2.399301e+03 1.000000e-02
<GCONST> 7.861877e+00
<STATE> 7
<NUMMIXES> 2
<MIXTURE> 1 9.573997e-01
<MEAN> 3
 4.840978e-04 2.322341e+00 5.156521e-01
<VARIANCE> 3
 1.000000e-02 3.671455e+00 1.455587e+00
<GCONST> 2.584459e+00
<MIXTURE> 2 4.260053e-02
<MEAN> 3
 -1.689539e-01 -4.813697e+01 -1.000000e+02
<VARIANCE> 3
 2.540993e-01 2.404035e+03 1.000000e-02
<GCONST> 7.323335e+00
<TRANSP> 8
 0.000000e+00 1.000000e+00 0.000000e+00 0.000000e+00 0.000000e+00 0.000000e+00 0.000000e+00 0.000000e+00
 0.000000e+00 9.431099e-01 5.689014e-02 0.000000e+00 0.000000e+00 0.000000e+00 0.000000e+00 0.000000e+00
 0.000000e+00 0.000000e+00 9.625777e-01 3.742229e-02 0.000000e+00 0.000000e+00 0.000000e+00 0.000000e+00
 0.000000e+00 0.000000e+00 0.000000e+00 9.614114e-01 3.858858e-02 0.000000e+00 0.000000e+00 0.000000e+00
 0.000000e+00 0.000000e+00 0.000000e+00 0.000000e+00 9.850463e-01 1.495377e-02 0.000000e+00 0.000000e+00
 0.000000e+00 0.000000e+00 0.000000e+00 0.000000e+00 0.000000e+00 8.709135e-01 1.290864e-01 0.000000e+00
 0.000000e+00 0.000000e+00 0.000000e+00 0.000000e+00 0.000000e+00 0.000000e+00 9.077080e-01 9.229206e-02
 0.000000e+00 0.000000e+00 0.000000e+00 0.000000e+00 0.000000e+00 0.000000e+00 0.000000e+00 0.000000e+00
<ENDHMM>
~h "m"
<BEGINHMM>
<NUMSTATES> 8
<STATE> 2
<NUMMIXES> 2
<MIXTURE> 1 2.566987e-02
<MEAN> 3
 -8.594553e-03 4.917784e+00 1.581895e+02
<VARIANCE> 3
 8.240809e-02 1.463107e+01 5.041959e+04
<GCONST> 1.652884e+01
<MIXTURE> 2 9.743301e-01
<MEAN> 3
 1.155954e-03 -3.030115e-01 -1.000000e+02
<VARIANCE> 3
 1.000000e-02 4.445815e+01 1.000000e-02
<GCONST> 9.783936e-02
<STATE> 3
<NUMMIXES> 2
<MIXTURE> 1 9.739991e-01
<MEAN> 3
 4.274544e-03 1.024119e-02 3.270018e+00
<VARIANCE> 3
 1.000000e-02 1.000000e-02 9.229479e+00
<GCONST> -1.474307e+00
<MIXTURE> 2 2.599937e-02
<MEAN> 3
 2.853847e-01 -4.156305e+01 -1.000000e+02
<VARIANCE> 3
 1.488123e-02 2.521557e+03 1.000000e-02
<GCONST> 4.533439e+00
<STATE> 4
<NUMMIXES> 2
<MIXTURE> 1 9.838883e-01
<MEAN> 3
 3.475179e+00 3.130102e+00 5.228368e-02
<VARIANCE> 3
 1.159942e+01 1.019369e+01 1.686244e-01
<GCONST> 8.506274e+00
<MIXTURE> 2 1.610907e-02
<MEAN> 3
 4.627260e-01 -4.161686e+01 -1.000000e+02
<VARIANCE> 3
 2.969471e-02 2.521181e+03 1.000000e-02
<GCONST> 5.224157e+00
<STATE> 5
<NUMMIXES> 2
<MIXTURE> 1 9.787777e-01
<MEAN> 3
 5.128154e-01 4.329893e+00 3.922080e+00
<VARIANCE> 3
 8.674008e-01 7.908771e+00 1.042815e+01
<GCONST> 9.783859e+00
<MIXTURE> 2 2.121727e-02
<MEAN> 3
 6.699503e-01 -4.136801e+01 -1.000000e+02
<VARIANCE> 3
 6.445837e-02 2.517120e+03 1.000000e-02
<GCONST> 5.997596e+00
<STATE> 6
<NUMMIXES> 2
<MIXTURE> 1 6.529106e-02
<MEAN> 3
 4.884250e+00 6.761933e+00 2.327720e+02
<VARIANCE> 3
 8.565447e+00 6.755394e+00 7.493334e+04
<GCONST> 2.079606e+01
<MIXTURE> 2 9.346973e-01
<MEAN> 3
 4.226104e+00 1.011438e+00 -1.000000e+02
<VARIANCE> 3
 8.333895e+00 5.213573e+01 1.000000e-02
<GCONST> 6.982642e+00
<STATE> 7
<NUMMIXES> 2
<MIXTURE> 1 2.510211e-02
<MEAN> 3
 6.385093e+00 3.106533e+02 2.193915e+02
<VARIANCE> 3
 8.773448e+00 7.139362e+04 2.100725e+04
<GCONST> 2.881395e+01
<MIXTURE> 2 9.748955e-01
<MEAN> 3
 -1.809265e+00 -1.000000e+02 -1.000000e+02
<VARIANCE> 3
 2.350073e+01 1.000000e-02 1.000000e-02
<GCONST> -5.396776e-01
<TRANSP> 8
 0.000000e+00 1.000000e+00 0.000000e+00 0.000000e+00 0.000000e+00 0.000000e+00 0.000000e+00 0.000000e+00
 0.000000e+00 9.830311e-01 1.696892e-02 0.000000e+00 0.000000e+00 0.000000e+00 0.000000e+00 0.000000e+00
 0.000000e+00 0.000000e+00 9.492636e-01 5.073643e-02 0.000000e+00 0.000000e+00 0.000000e+00 0.000000e+00
 0.000000e+00 0.000000e+00 0.000000e+00 9.685320e-01 3.146807e-02 0.000000e+00 0.000000e+00 0.000000e+00
 0.000000e+00 0.000000e+00 0.000000e+00 0.000000e+00 9.587969e-01 4.120309e-02 0.000000e+00 0.000000e+00
 0.000000e+00 0.000000e+00 0.000000e+00 0.000000e+00 0.000000e+00 9.810252e-01 1.897488e-02 0.000000e+00
 0.000000e+00 0.000000e+00 0.000000e+00 0.000000e+00 0.000000e+00 0.000000e+00 9.925020e-01 7.498069e-03
 0.000000e+00 0.000000e+00 0.000000e+00 0.000000e+00 0.000000e+00 0.000000e+00 0.000000e+00 0.000000e+00
<ENDHMM>
~h "sil"
<BEGINHMM>
<NUMSTATES> 8
<STATE> 2
<NUMMIXES> 2
<MIXTURE> 1 9.158465e-01
<MEAN> 3
 9.388779e+00 -7.790415e-05 1.907843e-03
<VARIANCE> 3
 5.004496e+00 1.000000e-02 1.000000e-02
<GCONST> -2.086372e+00
<MIXTURE> 2 8.415378e-02
<MEAN> 3
 7.481450e+00 -1.746431e+01 -1.668999e+01
<VARIANCE> 3
 7.135755e+00 9.845875e+02 1.001197e+03
<GCONST> 2.127992e+01
<STATE> 3
<NUMMIXES> 2
<MIXTURE> 1 9.200534e-01
<MEAN> 3
 9.739273e+00 2.119449e+00 1.263856e+00
<VARIANCE> 3
 2.960036e+00 2.635971e+00 1.586976e+00
<GCONST> 8.029914e+00
<MIXTURE> 2 7.994649e-02
<MEAN> 3
 4.003795e+00 -1.000000e+02 -1.000000e+02
<VARIANCE> 3
 3.703846e+00 1.000000e-02 1.000000e-02
<GCONST> -2.387337e+00
<STATE> 4
<NUMMIXES> 2
<MIXTURE> 1 8.174166e-02
<MEAN> 3
 7.308520e+00 -2.350793e+01 -2.100008e+01
<VARIANCE> 3
 1.286813e+01 1.982221e+03 2.124503e+03
<GCONST> 2.332165e+01
<MIXTURE> 2 9.182585e-01
<MEAN> 3
 7.735181e+00 5.328227e-03 3.785381e+00
<VARIANCE> 3
 1.483867e+01 1.000000e-02 9.870191e+00
<GCONST> 5.895217e+00
<STATE> 5
<NUMMIXES> 2
<MIXTURE> 1 3.332192e-02
<MEAN> 3
 5.304313e+00 -6.384735e+01 -6.285222e+01
<VARIANCE> 3
 9.553105e+00 2.341162e+03 2.474257e+03
<GCONST> 2.334260e+01
<MIXTURE> 2 9.666783e-01
<MEAN> 3
 6.560318e+00 4.879624e+00 2.058612e-03
<VARIANCE> 3
 6.250122e+00 7.328600e+00 1.000000e-02
<GCONST> 4.732846e+00
<STATE> 6
<NUMMIXES> 2
<MIXTURE> 1 4.323509e-02
<MEAN> 3
 4.096241e+00 -1.000000e+02 -1.000000e+02
<VARIANCE> 3
 3.808938e+00 1.000000e-02 1.000000e-02
<GCONST> -2.359359e+00
<MIXTURE> 2 9.567649e-01
<MEAN> 3
 6.145483e+00 1.464075e+00 4.147525e+00
<VARIANCE> 3
 5.855295e+00 1.318507e+00 6.954077e+00
<GCONST> 9.496806e+00
<STATE> 7
<NUMMIXES> 2
<MIXTURE> 1 9.530251e-02
<MEAN> 3
 4.980246e+00 -5.344808e+01 -5.354597e+01
<VARIANCE> 3
 7.136676e+00 2.656001e+03 2.647327e+03
<GCONST> 2.324476e+01
<MIXTURE> 2 9.046965e-01
<MEAN> 3
 5.611924e+00 1.898031e-03 -7.690657e+00
<VARIANCE> 3
 5.401461e+00 1.000000e-02 1.030640e+01
<GCONST> 4.927896e+00
<TRANSP> 8
 0.000000e+00 1.000000e+00 0.000000e+00 0.000000e+00 0.000000e+00 0.000000e+00 0.000000e+00 0.000000e+00
 0.000000e+00 9.791018e-01 2.089811e-02 0.000000e+00 0.000000e+00 0.000000e+00 0.000000e+00 0.000000e+00
 0.000000e+00 0.000000e+00 8.833138e-01 1.166862e-01 0.000000e+00 0.000000e+00 0.000000e+00 0.000000e+00
 0.000000e+00 0.000000e+00 0.000000e+00 9.586518e-01 4.134811e-02 0.000000e+00 0.000000e+00 0.000000e+00
 0.000000e+00 0.000000e+00 0.000000e+00 0.000000e+00 9.572315e-01 4.276852e-02 0.000000e+00 0.000000e+00
 0.000000e+00 0.000000e+00 0.000000e+00 0.000000e+00 0.000000e+00 9.258025e-01 7.419748e-02 0.000000e+00
 0.000000e+00 0.000000e+00 0.000000e+00 0.000000e+00 0.000000e+00 0.000000e+00 8.950375e-01 1.049625e-01
 0.000000e+00 0.000000e+00 0.000000e+00 0.000000e+00 0.000000e+00 0.000000e+00 0.000000e+00 0.000000e+00
<ENDHMM>
