~o
<STREAMINFO> 1 3
<VECSIZE> 3<NULLD><USER><DIAGC>
~h "a"
<BEGINHMM>
<NUMSTATES> 8
<STATE> 2
<NUMMIXES> 2
<MIXTURE> 1 9.777228e-01
<MEAN> 3
 5.674633e+00 4.464573e+00 4.672406e+00
<VARIANCE> 3
 9.179263e+00 7.765648e+00 6.844227e+00
<GCONST> 1.170369e+01
<MIXTURE> 2 2.227747e-02
<MEAN> 3
 3.730187e+00 -2.786249e+01 -1.000000e+02
<VARIANCE> 3
 1.113984e+01 2.007451e+03 1.000000e-02
<GCONST> 1.092361e+01
<STATE> 3
<NUMMIXES> 2
<MIXTURE> 1 9.859005e-01
<MEAN> 3
 3.413941e+00 4.512431e+00 2.969024e-03
<VARIANCE> 3
 8.617684e+00 8.889800e+00 1.000000e-02
<GCONST> 5.247182e+00
<MIXTURE> 2 1.409640e-02
<MEAN> 3
 7.569730e-01 -4.905048e+01 -1.000000e+02
<VARIANCE> 3
 3.248318e-02 2.477456e+03 1.000000e-02
<GCONST> 5.296416e+00
<STATE> 4
<NUMMIXES> 2
<MIXTURE> 1 9.896445e-01
<MEAN> 3
 4.506100e+00 2.643148e-03 2.686198e-04
<VARIANCE> 3
 8.492766e+00 1.000000e-02 1.000000e-02
<GCONST> -1.557494e+00
<MIXTURE> 2 1.035403e-02
<MEAN> 3
 4.670784e-01 -4.958123e+01 -1.000000e+02
<VARIANCE> 3
 1.171308e-02 2.477860e+03 1.000000e-02
<GCONST> 4.276563e+00
<STATE> 5
<NUMMIXES> 2
<MIXTURE> 1 9.610491e-01
<MEAN> 3
 1.197379e+00 -4.032943e+00 1.670428e-01
<VARIANCE> 3
 5.173149e+00 3.117819e+01 3.013446e+00
<GCONST> 1.169992e+01
<MIXTURE> 2 3.895052e-02
<MEAN> 3
 3.148173e-01 -4.323568e+01 -1.000000e+02
<VARIANCE> 3
 4.668863e-02 2.440222e+03 1.000000e-02
<GCONST> 5.644051e+00
<STATE> 6
<NUMMIXES> 2
<MIXTURE> 1 3.345741e-01
<MEAN> 3
 1.748146e-03 -4.232364e-04 -2.315599e-03
<VARIANCE> 3
 1.000000e-02 1.000000e-02 1.000000e-02
<GCONST> -8.301880e+00
<MIXTURE> 2 6.653813e-01
<MEAN> 3
 3.348363e-04 -5.082533e+01 -1.000000e+02
<VARIANCE> 3
 1.000000e-02 2.409788e+03 1.000000e-02
<GCONST> 4.090585e+00
<STATE> 7
<NUMMIXES> 2
<MIXTURE> 1 9.469514e-01
<MEAN> 3
 1.065622e-03 -2.111893e-01 -6.521384e-01
<VARIANCE> 3
 1.000000e-02 1.701362e-01 2.643985e-01
<GCONST> -2.192993e+00
<MIXTURE> 2 5.304828e-02
<MEAN> 3
 -1.260515e-01 -5.232521e+01 -1.000000e+02
<VARIANCE> 3
 1.000000e-02 2.238521e+03 1.000000e-02
<GCONST> 4.016862e+00
<TRANSP> 8
 0.000000e+00 1.000000e+00 0.000000e+00 0.000000e+00 0.000000e+00 0.000000e+00 0.000000e+00 0.000000e+00
 0.000000e+00 9.692167e-01 3.078332e-02 0.000000e+00 0.000000e+00 0.000000e+00 0.000000e+00 0.000000e+00
 0.000000e+00 0.000000e+00 9.663315e-01 3.366848e-02 0.000000e+00 0.000000e+00 0.000000e+00 0.000000e+00
 0.000000e+00 0.000000e+00 0.000000e+00 9.750344e-01 2.496563e-02 0.000000e+00 0.000000e+00 0.000000e+00
 0.000000e+00 0.000000e+00 0.000000e+00 0.000000e+00 9.211772e-01 7.882278e-02 0.000000e+00 0.000000e+00
 0.000000e+00 0.000000e+00 0.000000e+00 0.000000e+00 0.000000e+00 9.940891e-01 5.910876e-03 0.000000e+00
 0.000000e+00 0.000000e+00 0.000000e+00 0.000000e+00 0.000000e+00 0.000000e+00 8.876048e-01 1.123952e-01
 0.000000e+00 0.000000e+00 0.000000e+00 0.000000e+00 0.000000e+00 0.000000e+00 0.000000e+00 0.000000e+00
<ENDHMM>
~h "e"
<BEGINHMM>
<NUMSTATES> 8
<STATE> 2
<NUMMIXES> 2
<MIXTURE> 1 9.845217e-01
<MEAN> 3
 2.426292e-05 -5.436604e-03 -6.170612e+00
<VARIANCE> 3
 1.000000e-02 1.000000e-02 1.643597e+01
<GCONST> -8.972366e-01
<MIXTURE> 2 1.547932e-02
<MEAN> 3
 -2.956399e-01 -5.227105e+01 -1.000000e+02
<VARIANCE> 3
 1.000000e-02 2.239101e+03 1.000000e-02
<GCONST> 4.017121e+00
<STATE> 3
<NUMMIXES> 2
<MIXTURE> 1 1.067214e-01
<MEAN> 3
 -5.320849e-01 -1.990180e-01 -5.295775e+00
<VARIANCE> 3
 2.144563e-01 8.346175e-02 1.774972e+01
<GCONST> 4.366985e+00
<MIXTURE> 2 8.932744e-01
<MEAN> 3
 -1.079715e+00 -4.980579e+01 -1.000000e+02
<VARIANCE> 3
 3.902189e-01 2.356228e+03 1.000000e-02
<GCONST> 7.732231e+00
<STATE> 4
<NUMMIXES> 2
<MIXTURE> 1 9.864759e-01
<MEAN> 3
 -4.268998e-03 -6.262321e+00 -6.565166e+00
<VARIANCE> 3
 1.000000e-02 1.261133e+01 1.473514e+01
<GCONST> 6.133291e+00
<MIXTURE> 2 1.352506e-02
<MEAN> 3
 -2.425091e+00 -5.104344e+01 -1.000000e+02
<VARIANCE> 3
 4.698263e-02 2.255933e+03 1.000000e-02
<GCONST> 5.571802e+00
<STATE> 5
<NUMMIXES> 2
<MIXTURE> 1 1.217463e-01
<MEAN> 3
 -2.790472e+00 -2.155689e+00 -1.004786e+00
<VARIANCE> 3
 3.054490e+00 6.023298e+00 4.057576e+00
<GCONST> 9.826464e+00
<MIXTURE> 2 8.782200e-01
<MEAN> 3
 -8.443994e+00 -4.820726e+00 -1.000000e+02
<VARIANCE> 3
 4.803556e+00 6.536276e+01 1.000000e-02
<GCONST> 6.657770e+00
<STATE> 6
<NUMMIXES> 2
<MIXTURE> 1 1.004349e-01
<MEAN> 3
 -1.808354e+00 -8.163651e+00 -8.206609e+00
<VARIANCE> 3
 1.237927e+00 6.555010e+00 8.877899e+00
<GCONST> 9.790865e+00
<MIXTURE> 2 8.995678e-01
<MEAN> 3
 -8.112597e+00 -9.943933e+01 -1.000000e+02
<VARIANCE> 3
 4.769824e+00 5.500922e+01 1.000000e-02
<GCONST> 6.478271e+00
<STATE> 7
<NUMMIXES> 2
<MIXTURE> 1 9.879754e-01
<MEAN> 3
 -8.785870e+00 -8.268286e+00 -7.942580e+00
<VARIANCE> 3
 5.034734e+00 7.807285e+00 8.245899e+00
<GCONST> 1.129477e+01
<MIXTURE> 2 1.202666e-02
<MEAN> 3
 -4.053428e+00 -4.935586e+01 -1.000000e+02
<VARIANCE> 3
 5.986089e-01 2.433312e+03 1.000000e-02
<GCONST> 8.192323e+00
<TRANSP> 8
 0.000000e+00 1.000000e+00 0.000000e+00 0.000000e+00 0.000000e+00 0.000000e+00 0.000000e+00 0.000000e+00
 0.000000e+00 9.659068e-01 3.409324e-02 0.000000e+00 0.000000e+00 0.000000e+00 0.000000e+00 0.000000e+00
 0.000000e+00 0.000000e+00 9.258608e-01 7.413926e-02 0.000000e+00 0.000000e+00 0.000000e+00 0.000000e+00
 0.000000e+00 0.000000e+00 0.000000e+00 9.722109e-01 2.778906e-02 0.000000e+00 0.000000e+00 0.000000e+00
 0.000000e+00 0.000000e+00 0.000000e+00 0.000000e+00 9.796960e-01 2.030403e-02 0.000000e+00 0.000000e+00
 0.000000e+00 0.000000e+00 0.000000e+00 0.000000e+00 0.000000e+00 9.775725e-01 2.242749e-02 0.000000e+00
 0.000000e+00 0.000000e+00 0.000000e+00 0.000000e+00 0.000000e+00 0.000000e+00 9.733486e-01 2.665143e-02
 0.000000e+00 0.000000e+00 0.000000e+00 0.000000e+00 0.000000e+00 0.000000e+00 0.000000e+00 0.000000e+00
<ENDHMM>
~h "i"
<BEGINHMM>
<NUMSTATES> 8
<STATE> 2
<NUMMIXES> 2
<MIXTURE> 1 9.483635e-01
<MEAN> 3
 -8.081063e-01 -5.028423e+00 -6.974436e+00
<VARIANCE> 3
 5.221020e+00 1.892671e+01 1.477270e+01
<GCONST> 1.279968e+01
<MIXTURE> 2 5.163648e-02
<MEAN> 3
 -3.170237e+00 -4.528598e+01 -1.000000e+02
<VARIANCE> 3
 2.410434e-01 2.401445e+03 1.000000e-02
<GCONST> 7.269509e+00
<STATE> 3
<NUMMIXES> 2
<MIXTURE> 1 9.848112e-01
<MEAN> 3
 -7.290453e+00 -8.290364e+00 -3.302969e-03
<VARIANCE> 3
 1.197264e+01 6.874314e+00 1.000000e-02
<GCONST> 5.318877e+00
<MIXTURE> 2 1.518810e-02
<MEAN> 3
 -2.370254e+00 -5.030873e+01 -1.000000e+02
<VARIANCE> 3
 1.013921e-01 2.438890e+03 1.000000e-02
<GCONST> 6.418999e+00
<STATE> 4
<NUMMIXES> 2
<MIXTURE> 1 8.632731e-01
<MEAN> 3
 -5.481769e+00 -7.452469e-03 2.659606e+00
<VARIANCE> 3
 2.003308e+01 2.216569e-02 7.743442e+00
<GCONST> 6.748653e+00
<MIXTURE> 2 1.367298e-01
<MEAN> 3
 -4.230200e+00 -2.221918e+01 -1.000000e+02
<VARIANCE> 3
 1.111960e+01 1.741470e+03 1.000000e-02
<GCONST> 1.077965e+01
<STATE> 5
<NUMMIXES> 2
<MIXTURE> 1 9.860707e-01
<MEAN> 3
 -8.130581e+00 -1.485316e-03 7.820777e-04
<VARIANCE> 3
 7.070314e+00 1.000000e-02 1.000000e-02
<GCONST> -1.740804e+00
<MIXTURE> 2 1.393050e-02
<MEAN> 3
 -1.055586e+00 -4.952006e+01 -1.000000e+02
<VARIANCE> 3
 5.190583e-02 2.451216e+03 1.000000e-02
<GCONST> 5.754477e+00
<STATE> 6
<NUMMIXES> 2
<MIXTURE> 1 8.816208e-01
<MEAN> 3
 -3.741067e+00 1.555909e+00 5.813243e-01
<VARIANCE> 3
 1.702342e+01 4.086087e+00 1.185215e+01
<GCONST> 1.222832e+01
<MIXTURE> 2 1.183849e-01
<MEAN> 3
 -6.586167e-01 -4.576364e+01 -1.000000e+02
<VARIANCE> 3
 6.394800e-02 2.449090e+03 1.000000e-02
<GCONST> 5.962248e+00
<STATE> 7
<NUMMIXES> 2
<MIXTURE> 1 5.217336e-01
<MEAN> 3
 -1.910400e-03 1.168043e-03 2.021517e-03
<VARIANCE> 3
 1.000000e-02 1.000000e-02 1.000000e-02
<GCONST> -8.301880e+00
<MIXTURE> 2 4.782403e-01
<MEAN> 3
 -1.618980e-03 -1.527227e-01 -1.000000e+02
<VARIANCE> 3
 1.000000e-02 4.169413e+01 1.000000e-02
<GCONST> 3.365135e-02
<TRANSP> 8
 0.000000e+00 1.000000e+00 0.000000e+00 0.000000e+00 0.000000e+00 0.000000e+00 0.000000e+00 0.000000e+00
 0.000000e+00 9.026639e-01 9.733617e-02 0.000000e+00 0.000000e+00 0.000000e+00 0.000000e+00 0.000000e+00
 0.000000e+00 0.000000e+00 9.690051e-01 3.099488e-02 0.000000e+00 0.000000e+00 0.000000e+00 0.000000e+00
 0.000000e+00 0.000000e+00 0.000000e+00 8.719617e-01 1.280383e-01 0.000000e+00 0.000000e+00 0.000000e+00
 0.000000e+00 0.000000e+00 0.000000e+00 0.000000e+00 9.723797e-01 2.762025e-02 0.000000e+00 0.000000e+00
 0.000000e+00 0.000000e+00 0.000000e+00 0.000000e+00 0.000000e+00 8.786728e-01 1.213272e-01 0.000000e+00
 0.000000e+00 0.000000e+00 0.000000e+00 0.000000e+00 0.000000e+00 0.000000e+00 9.914627e-01 8.537316e-03
 0.000000e+00 0.000000e+00 0.000000e+00 0.000000e+00 0.000000e+00 0.000000e+00 0.000000e+00 0.000000e+00
<ENDHMM>
~h "m"
<BEGINHMM>
<NUMSTATES> 8
<STATE> 2
<NUMMIXES> 2
<MIXTURE> 1 1.834912e-01
<MEAN> 3
 7.157087e-04 6.197743e-03 2.881162e+00
<VARIANCE> 3
 1.000000e-02 1.000000e-02 9.189220e+00
<GCONST> -1.478678e+00
<MIXTURE> 2 8.164786e-01
<MEAN> 3
 7.105523e-04 -9.974109e+01 -1.000000e+02
<VARIANCE> 3
 1.000000e-02 2.594406e+01 1.000000e-02
<GCONST> -4.407663e-01
<STATE> 3
<NUMMIXES> 2
<MIXTURE> 1 9.830645e-01
<MEAN> 3
 2.950813e-03 2.520705e+00 2.067391e+00
<VARIANCE> 3
 1.000000e-02 3.981111e+00 9.408139e+00
<GCONST> 4.531597e+00
<MIXTURE> 2 1.693282e-02
<MEAN> 3
 2.827845e-01 -5.318783e+01 -1.000000e+02
<VARIANCE> 3
 1.000000e-02 2.514949e+03 1.000000e-02
<GCONST> 4.133299e+00
<STATE> 4
<NUMMIXES> 2
<MIXTURE> 1 9.512816e-01
<MEAN> 3
 2.233319e+00 2.327051e-01 -2.865250e+00
<VARIANCE> 3
 3.508223e+00 3.826513e-01 2.802132e+01
<GCONST> 9.141075e+00
<MIXTURE> 2 4.871679e-02
<MEAN> 3
 4.597553e-01 -5.118971e+01 -1.000000e+02
<VARIANCE> 3
 1.567619e-02 2.544176e+03 1.000000e-02
<GCONST> 4.594411e+00
<STATE> 5
<NUMMIXES> 2
<MIXTURE> 1 9.576460e-01
<MEAN> 3
 1.999900e+00 4.354520e+00 2.831911e+00
<VARIANCE> 3
 1.916599e+00 4.954801e+00 7.220297e+00
<GCONST> 9.741437e+00
<MIXTURE> 2 4.235500e-02
<MEAN> 3
 6.683825e-01 -5.041356e+01 -1.000000e+02
<VARIANCE> 3
 4.615141e-02 2.548965e+03 1.000000e-02
<GCONST> 5.676076e+00
<STATE> 6
<NUMMIXES> 2
<MIXTURE> 1 7.658231e-03
<MEAN> 3
 1.794467e+00 2.772331e+00 7.574101e-01
<VARIANCE> 3
 4.237077e+00 6.136227e+00 2.060904e+00
<GCONST> 9.494860e+00
<MIXTURE> 2 9.923421e-01
<MEAN> 3
 3.472847e+00 1.264371e+00 -1.000000e+02
<VARIANCE> 3
 7.569239e+00 6.009248e+01 1.000000e-02
<GCONST> 7.028438e+00
<STATE> 7
<NUMMIXES> 2
<MIXTURE> 1 1.510771e-02
<MEAN> 3
 1.892392e+00 2.887391e+00 7.481968e-01
<VARIANCE> 3
 4.545178e+00 6.563872e+00 1.919519e+00
<GCONST> 9.561354e+00
<MIXTURE> 2 9.848892e-01
<MEAN> 3
 4.274272e+00 -9.923660e+01 -1.000000e+02
<VARIANCE> 3
 9.121699e+00 7.541365e+01 1.000000e-02
<GCONST> 7.442105e+00
<TRANSP> 8
 0.000000e+00 1.000000e+00 0.000000e+00 0.000000e+00 0.000000e+00 0.000000e+00 0.000000e+00 0.000000e+00
 0.000000e+00 9.903224e-01 9.677549e-03 0.000000e+00 0.000000e+00 0.000000e+00 0.000000e+00 0.000000e+00
 0.000000e+00 0.000000e+00 9.641560e-01 3.584403e-02 0.000000e+00 0.000000e+00 0.000000e+00 0.000000e+00
 0.000000e+00 0.000000e+00 0.000000e+00 9.043145e-01 9.568553e-02 0.000000e+00 0.000000e+00 0.000000e+00
 0.000000e+00 0.000000e+00 0.000000e+00 0.000000e+00 9.183919e-01 8.160806e-02 0.000000e+00 0.000000e+00
 0.000000e+00 0.000000e+00 0.000000e+00 0.000000e+00 0.000000e+00 9.803188e-01 1.968115e-02 0.000000e+00
 0.000000e+00 0.000000e+00 0.000000e+00 0.000000e+00 0.000000e+00 0.000000e+00 9.613765e-01 3.862347e-02
 0.000000e+00 0.000000e+00 0.000000e+00 0.000000e+00 0.000000e+00 0.000000e+00 0.000000e+00 0.000000e+00
<ENDHMM>
~h "sil"
<BEGINHMM>
<NUMSTATES> 8
<STATE> 2
<NUMMIXES> 2
<MIXTURE> 1 9.300410e-01
<MEAN> 3
 9.412623e+00 3.232349e+00 1.072797e+00
<VARIANCE> 3
 7.340782e+00 7.713533e+00 3.418166e+00
<GCONST> 1.077916e+01
<MIXTURE> 2 6.995844e-02
<MEAN> 3
 4.891537e+00 -6.422796e+01 -6.237819e+01
<VARIANCE> 3
 5.572310e+00 1.988766e+03 2.205999e+03
<GCONST> 2.252565e+01
<STATE> 3
<NUMMIXES> 2
<MIXTURE> 1 3.655634e-02
<MEAN> 3
 5.099476e+00 -7.069538e+01 -7.090546e+01
<VARIANCE> 3
 8.711135e+00 2.132718e+03 2.109015e+03
<GCONST> 2.299736e+01
<MIXTURE> 2 9.634435e-01
<MEAN> 3
 9.252556e+00 -3.026171e-04 3.878709e-03
<VARIANCE> 3
 3.167959e+00 1.000000e-02 1.000000e-02
<GCONST> -2.543622e+00
<STATE> 4
<NUMMIXES> 2
<MIXTURE> 1 2.253552e-02
<MEAN> 3
 4.787339e+00 -8.487833e+01 -8.550918e+01
<VARIANCE> 3
 8.055317e+00 1.352003e+03 1.243116e+03
<GCONST> 2.193468e+01
<MIXTURE> 2 9.774638e-01
<MEAN> 3
 8.258428e+00 2.780739e-03 3.143595e+00
<VARIANCE> 3
 8.724133e+00 1.000000e-02 8.191072e+00
<GCONST> 5.177599e+00
<STATE> 5
<NUMMIXES> 2
<MIXTURE> 1 1.015199e-01
<MEAN> 3
 5.696311e+00 -6.041952e+01 -6.006031e+01
<VARIANCE> 3
 9.921615e+00 2.450032e+03 2.498943e+03
<GCONST> 2.343583e+01
<MIXTURE> 2 8.984801e-01
<MEAN> 3
 6.491208e+00 3.667447e-03 -8.205618e+00
<VARIANCE> 3
 6.115317e+00 1.000000e-02 7.619782e+00
<GCONST> 4.750006e+00
<STATE> 6
<NUMMIXES> 2
<MIXTURE> 1 7.227439e-02
<MEAN> 3
 4.385694e+00 -9.481903e+01 -9.506108e+01
<VARIANCE> 3
 6.292506e+00 5.296110e+02 4.814858e+02
<GCONST> 1.980201e+01
<MIXTURE> 2 9.277259e-01
<MEAN> 3
 7.722905e+00 1.239609e+00 2.699009e+00
<VARIANCE> 3
 8.579060e+00 6.079996e-01 1.961930e+00
<GCONST> 7.839303e+00
<STATE> 7
<NUMMIXES> 2
<MIXTURE> 1 9.585469e-01
<MEAN> 3
 8.145463e+00 4.227166e+00 2.889278e-03
<VARIANCE> 3
 1.298061e+01 8.564040e+00 1.000000e-02
<GCONST> 5.619491e+00
<MIXTURE> 2 4.145283e-02
<MEAN> 3
 4.795791e+00 -6.385519e+01 -6.335255e+01
<VARIANCE> 3
 6.834163e+00 2.395295e+03 2.463386e+03
<GCONST> 2.302612e+01
<TRANSP> 8
 0.000000e+00 1.000000e+00 0.000000e+00 0.000000e+00 0.000000e+00 0.000000e+00 0.000000e+00 0.000000e+00
 0.000000e+00 9.149218e-01 8.507818e-02 0.000000e+00 0.000000e+00 0.000000e+00 0.000000e+00 0.000000e+00
 0.000000e+00 0.000000e+00 9.478822e-01 5.211777e-02 0.000000e+00 0.000000e+00 0.000000e+00 0.000000e+00
 0.000000e+00 0.000000e+00 0.000000e+00 9.614471e-01 3.855288e-02 0.000000e+00 0.000000e+00 0.000000e+00
 0.000000e+00 0.000000e+00 0.000000e+00 0.000000e+00 8.761739e-01 1.238261e-01 0.000000e+00 0.000000e+00
 0.000000e+00 0.000000e+00 0.000000e+00 0.000000e+00 0.000000e+00 8.624139e-01 1.375861e-01 0.000000e+00
 0.000000e+00 0.000000e+00 0.000000e+00 0.000000e+00 0.000000e+00 0.000000e+00 9.463580e-01 5.364196e-02
 0.000000e+00 0.000000e+00 0.000000e+00 0.000000e+00 0.000000e+00 0.000000e+00 0.000000e+00 0.000000e+00
<ENDHMM>
