~o
<STREAMINFO> 1 1
<VECSIZE> 1<NULLD><USER><DIAGC>
~h "a"
<BEGINHMM>
<NUMSTATES> 8
<STATE> 2
<MEAN> 1
 3.121077e+00
<VARIANCE> 1
 2.971283e+00
<GCONST> 2.926871e+00
<STATE> 3
<MEAN> 1
 9.710976e+00
<VARIANCE> 1
 3.072396e+00
<GCONST> 2.960335e+00
<STATE> 4
<MEAN> 1
 4.771430e+00
<VARIANCE> 1
 2.954718e+00
<GCONST> 2.921280e+00
<STATE> 5
<MEAN> 1
 5.242365e+00
<VARIANCE> 1
 1.238830e+00
<GCONST> 2.052045e+00
<STATE> 6
<MEAN> 1
 1.771755e+00
<VARIANCE> 1
 9.638206e-01
<GCONST> 1.801027e+00
<STATE> 7
<MEAN> 1
 1.926603e-03
<VARIANCE> 1
 1.000000e-02
<GCONST> -2.767293e+00
<TRANSP> 8
 0.000000e+00 1.000000e+00 0.000000e+00 0.000000e+00 0.000000e+00 0.000000e+00 0.000000e+00 0.000000e+00
 0.000000e+00 9.493514e-01 5.064862e-02 0.000000e+00 0.000000e+00 0.000000e+00 0.000000e+00 0.000000e+00
 0.000000e+00 0.000000e+00 9.818865e-01 1.811347e-02 0.000000e+00 0.000000e+00 0.000000e+00 0.000000e+00
 0.000000e+00 0.000000e+00 0.000000e+00 7.734344e-01 2.265656e-01 0.000000e+00 0.000000e+00 0.000000e+00
 0.000000e+00 0.000000e+00 0.000000e+00 0.000000e+00 9.670297e-01 3.297025e-02 0.000000e+00 0.000000e+00
 0.000000e+00 0.000000e+00 0.000000e+00 0.000000e+00 0.000000e+00 9.529281e-01 4.707191e-02 0.000000e+00
 0.000000e+00 0.000000e+00 0.000000e+00 0.000000e+00 0.000000e+00 0.000000e+00 9.919451e-01 8.054907e-03
 0.000000e+00 0.000000e+00 0.000000e+00 0.000000e+00 0.000000e+00 0.000000e+00 0.000000e+00 0.000000e+00
<ENDHMM>
~h "e"
<BEGINHMM>
<NUMSTATES> 8
<STATE> 2
<MEAN> 1
 -1.423772e-03
<VARIANCE> 1
 1.000000e-02
<GCONST> -2.767293e+00
<STATE> 3
<MEAN> 1
 -7.840737e-01
<VARIANCE> 1
 1.387210e-01
<GCONST> -1.374133e-01
<STATE> 4
<MEAN> 1
 -2.248576e+00
<VARIANCE> 1
 5.927907e-01
<GCONST> 1.314963e+00
<STATE> 5
<MEAN> 1
 -4.684503e+00
<VARIANCE> 1
 2.024677e+00
<GCONST> 2.543287e+00
<STATE> 6
<MEAN> 1
 -6.074398e+00
<VARIANCE> 1
 3.422789e-01
<GCONST> 7.657475e-01
<STATE> 7
<MEAN> 1
 -8.717780e+00
<VARIANCE> 1
 7.857015e-01
<GCONST> 1.596699e+00
<TRANSP> 8
 0.000000e+00 1.000000e+00 0.000000e+00 0.000000e+00 0.000000e+00 0.000000e+00 0.000000e+00 0.000000e+00
 0.000000e+00 9.921653e-01 7.834721e-03 0.000000e+00 0.000000e+00 0.000000e+00 0.000000e+00 0.000000e+00
 0.000000e+00 0.000000e+00 9.414293e-01 5.857074e-02 0.000000e+00 0.000000e+00 0.000000e+00 0.000000e+00
 0.000000e+00 0.000000e+00 0.000000e+00 9.390702e-01 6.092979e-02 0.000000e+00 0.000000e+00 0.000000e+00
 0.000000e+00 0.000000e+00 0.000000e+00 0.000000e+00 9.224244e-01 7.757559e-02 0.000000e+00 0.000000e+00
 0.000000e+00 0.000000e+00 0.000000e+00 0.000000e+00 0.000000e+00 9.383022e-01 6.169780e-02 0.000000e+00
 0.000000e+00 0.000000e+00 0.000000e+00 0.000000e+00 0.000000e+00 0.000000e+00 9.658855e-01 3.411456e-02
 0.000000e+00 0.000000e+00 0.000000e+00 0.000000e+00 0.000000e+00 0.000000e+00 0.000000e+00 0.000000e+00
<ENDHMM>
~h "i"
<BEGINHMM>
<NUMSTATES> 8
<STATE> 2
<MEAN> 1
 -1.036143e+01
<VARIANCE> 1
 3.753891e-01
<GCONST> 8.580849e-01
<STATE> 3
<MEAN> 1
 -7.977337e+00
<VARIANCE> 1
 2.787854e+00
<GCONST> 2.863149e+00
<STATE> 4
<MEAN> 1
 -3.671521e+00
<VARIANCE> 1
 9.332154e-01
<GCONST> 1.768758e+00
<STATE> 5
<MEAN> 1
 -2.042827e+00
<VARIANCE> 1
 5.529919e-02
<GCONST> -1.057120e+00
<STATE> 6
<MEAN> 1
 -9.486662e-01
<VARIANCE> 1
 1.732215e-01
<GCONST> 8.469296e-02
<STATE> 7
<MEAN> 1
 -1.337289e-01
<VARIANCE> 1
 1.168454e-02
<GCONST> -2.611611e+00
<TRANSP> 8
 0.000000e+00 1.000000e+00 0.000000e+00 0.000000e+00 0.000000e+00 0.000000e+00 0.000000e+00 0.000000e+00
 0.000000e+00 9.869977e-01 1.300235e-02 0.000000e+00 0.000000e+00 0.000000e+00 0.000000e+00 0.000000e+00
 0.000000e+00 0.000000e+00 9.813485e-01 1.865154e-02 0.000000e+00 0.000000e+00 0.000000e+00 0.000000e+00
 0.000000e+00 0.000000e+00 0.000000e+00 8.019459e-01 1.980542e-01 0.000000e+00 0.000000e+00 0.000000e+00
 0.000000e+00 0.000000e+00 0.000000e+00 0.000000e+00 0.000000e+00 1.000000e+00 0.000000e+00 0.000000e+00
 0.000000e+00 0.000000e+00 0.000000e+00 0.000000e+00 0.000000e+00 7.481682e-01 2.518317e-01 0.000000e+00
 0.000000e+00 0.000000e+00 0.000000e+00 0.000000e+00 0.000000e+00 0.000000e+00 4.569826e-01 5.430174e-01
 0.000000e+00 0.000000e+00 0.000000e+00 0.000000e+00 0.000000e+00 0.000000e+00 0.000000e+00 0.000000e+00
<ENDHMM>
~h "m"
<BEGINHMM>
<NUMSTATES> 8
<STATE> 2
<MEAN> 1
 1.056689e-03
<VARIANCE> 1
 1.000000e-02
<GCONST> -2.767293e+00
<STATE> 3
<MEAN> 1
 8.881400e-01
<VARIANCE> 1
 5.420914e-02
<GCONST> -1.077029e+00
<STATE> 4
<MEAN> 1
 1.368324e+00
<VARIANCE> 1
 8.946334e-01
<GCONST> 1.726536e+00
<STATE> 5
<MEAN> 1
 2.941851e+00
<VARIANCE> 1
 4.434780e-01
<GCONST> 1.024770e+00
<STATE> 6
<MEAN> 1
 5.040062e+00
<VARIANCE> 1
 6.157992e-01
<GCONST> 1.353043e+00
<STATE> 7
<MEAN> 1
 7.748361e+00
<VARIANCE> 1
 1.225120e+00
<GCONST> 2.040916e+00
<TRANSP> 8
 0.000000e+00 1.000000e+00 0.000000e+00 0.000000e+00 0.000000e+00 0.000000e+00 0.000000e+00 0.000000e+00
 0.000000e+00 9.962092e-01 3.790811e-03 0.000000e+00 0.000000e+00 0.000000e+00 0.000000e+00 0.000000e+00
 0.000000e+00 0.000000e+00 9.236010e-01 7.639903e-02 0.000000e+00 0.000000e+00 0.000000e+00 0.000000e+00
 0.000000e+00 0.000000e+00 0.000000e+00 9.466168e-01 5.338329e-02 0.000000e+00 0.000000e+00 0.000000e+00
 0.000000e+00 0.000000e+00 0.000000e+00 0.000000e+00 9.234243e-01 7.657573e-02 0.000000e+00 0.000000e+00
 0.000000e+00 0.000000e+00 0.000000e+00 0.000000e+00 0.000000e+00 9.442770e-01 5.572297e-02 0.000000e+00
 0.000000e+00 0.000000e+00 0.000000e+00 0.000000e+00 0.000000e+00 0.000000e+00 9.518492e-01 4.815078e-02
 0.000000e+00 0.000000e+00 0.000000e+00 0.000000e+00 0.000000e+00 0.000000e+00 0.000000e+00 0.000000e+00
<ENDHMM>
~h "sil"
<BEGINHMM>
<NUMSTATES> 8
<STATE> 2
<MEAN> 1
 1.212257e+01
<VARIANCE> 1
 1.270272e+01
<GCONST> 4.379693e+00
<STATE> 3
<MEAN> 1
 1.081803e+01
<VARIANCE> 1
 6.105236e-01
<GCONST> 1.344439e+00
<STATE> 4
<MEAN> 1
 9.224866e+00
<VARIANCE> 1
 7.884058e-01
<GCONST> 1.600135e+00
<STATE> 5
<MEAN> 1
 7.362896e+00
<VARIANCE> 1
 1.090294e+00
<GCONST> 1.924324e+00
<STATE> 6
<MEAN> 1
 7.706493e+00
<VARIANCE> 1
 7.888133e+00
<GCONST> 3.903236e+00
<STATE> 7
<MEAN> 1
 5.473445e+00
<VARIANCE> 1
 1.789057e+00
<GCONST> 2.419566e+00
<TRANSP> 8
 0.000000e+00 1.000000e+00 0.000000e+00 0.000000e+00 0.000000e+00 0.000000e+00 0.000000e+00 0.000000e+00
 0.000000e+00 9.492471e-01 5.075295e-02 0.000000e+00 0.000000e+00 0.000000e+00 0.000000e+00 0.000000e+00
 0.000000e+00 0.000000e+00 9.804394e-01 1.956052e-02 0.000000e+00 0.000000e+00 0.000000e+00 0.000000e+00
 0.000000e+00 0.000000e+00 0.000000e+00 9.627901e-01 3.720990e-02 0.000000e+00 0.000000e+00 0.000000e+00
 0.000000e+00 0.000000e+00 0.000000e+00 0.000000e+00 9.211940e-01 7.880604e-02 0.000000e+00 0.000000e+00
 0.000000e+00 0.000000e+00 0.000000e+00 0.000000e+00 0.000000e+00 7.424948e-01 2.575052e-01 0.000000e+00
 0.000000e+00 0.000000e+00 0.000000e+00 0.000000e+00 0.000000e+00 0.000000e+00 9.192539e-01 8.074614e-02
 0.000000e+00 0.000000e+00 0.000000e+00 0.000000e+00 0.000000e+00 0.000000e+00 0.000000e+00 0.000000e+00
<ENDHMM>
