~o
<STREAMINFO> 1 3
<VECSIZE> 3<NULLD><USER><DIAGC>
~h "a"
<BEGINHMM>
<NUMSTATES> 8
<STATE> 2
<NUMMIXES> 2
<MIXTURE> 1 6.032597e-01
<MEAN> 3
 3.910131e+00 3.580455e+00 2.024572e+00
<VARIANCE> 3
 9.105185e+00 5.017979e+00 9.161421e+00
<GCONST> 1.155050e+01
<MIXTURE> 2 3.967415e-01
<MEAN> 3
 2.946458e-01 -5.460203e+01 -1.000000e+02
<VARIANCE> 3
 6.676354e-01 2.500658e+03 1.000000e-02
<GCONST> 8.328757e+00
<STATE> 3
<NUMMIXES> 2
<MIXTURE> 1 9.954314e-03
<MEAN> 3
 3.228820e+00 2.839821e+00 -2.127690e+01
<VARIANCE> 3
 8.854136e+00 8.098751e+00 1.840545e+03
<GCONST> 1.730404e+01
<MIXTURE> 2 9.900440e-01
<MEAN> 3
 -5.962736e-04 -1.000000e+02 -1.000000e+02
<VARIANCE> 3
 1.000000e-02 1.000000e-02 1.000000e-02
<GCONST> -8.301880e+00
<STATE> 4
<NUMMIXES> 2
<MIXTURE> 1 9.911919e-01
<MEAN> 3
 5.350203e+00 5.792403e+00 4.487169e+00
<VARIANCE> 3
 9.897095e+00 6.481226e+00 8.224894e+00
<GCONST> 1.178195e+01
<MIXTURE> 2 8.808406e-03
<MEAN> 3
 2.362211e-01 -5.414592e+01 -1.000000e+02
<VARIANCE> 3
 8.166406e-02 2.507959e+03 1.000000e-02
<GCONST> 6.230544e+00
<STATE> 5
<NUMMIXES> 2
<MIXTURE> 1 9.743599e-01
<MEAN> 3
 1.676800e+00 1.128774e-01 -6.358111e-01
<VARIANCE> 3
 5.538032e+00 3.399674e-01 3.926482e+01
<GCONST> 9.816693e+00
<MIXTURE> 2 2.563984e-02
<MEAN> 3
 1.280986e-01 -5.219168e+01 -1.000000e+02
<VARIANCE> 3
 2.736988e-02 2.524360e+03 1.000000e-02
<GCONST> 5.143891e+00
<STATE> 6
<NUMMIXES> 2
<MIXTURE> 1 9.901735e-01
<MEAN> 3
 4.692994e+00 9.169609e-01 1.291167e-03
<VARIANCE> 3
 9.268079e+00 3.068689e+00 1.000000e-02
<GCONST> 4.256288e+00
<MIXTURE> 2 9.826677e-03
<MEAN> 3
 5.701101e-02 -4.978534e+01 -1.000000e+02
<VARIANCE> 3
 1.000000e-02 2.523054e+03 1.000000e-02
<GCONST> 4.136517e+00
<STATE> 7
<NUMMIXES> 2
<MIXTURE> 1 9.531841e-02
<MEAN> 3
 2.139460e-02 -6.913226e+00 7.983125e-02
<VARIANCE> 3
 1.000000e-02 1.338328e+01 1.328575e-01
<GCONST> 1.483989e+00
<MIXTURE> 2 9.046742e-01
<MEAN> 3
 -7.243811e-04 -1.807008e+00 -1.000000e+02
<VARIANCE> 3
 1.000000e-02 4.818048e+01 1.000000e-02
<GCONST> 1.782446e-01
<TRANSP> 8
 0.000000e+00 1.000000e+00 0.000000e+00 0.000000e+00 0.000000e+00 0.000000e+00 0.000000e+00 0.000000e+00
 0.000000e+00 2.940830e-04 9.997059e-01 0.000000e+00 0.000000e+00 0.000000e+00 0.000000e+00 0.000000e+00
 0.000000e+00 0.000000e+00 9.873298e-01 1.267019e-02 0.000000e+00 0.000000e+00 0.000000e+00 0.000000e+00
 0.000000e+00 0.000000e+00 0.000000e+00 9.779792e-01 2.202084e-02 0.000000e+00 0.000000e+00 0.000000e+00
 0.000000e+00 0.000000e+00 0.000000e+00 0.000000e+00 9.381580e-01 6.184202e-02 0.000000e+00 0.000000e+00
 0.000000e+00 0.000000e+00 0.000000e+00 0.000000e+00 0.000000e+00 9.774120e-01 2.258799e-02 0.000000e+00
 0.000000e+00 0.000000e+00 0.000000e+00 0.000000e+00 0.000000e+00 0.000000e+00 9.834557e-01 1.654430e-02
 0.000000e+00 0.000000e+00 0.000000e+00 0.000000e+00 0.000000e+00 0.000000e+00 0.000000e+00 0.000000e+00
<ENDHMM>
~h "e"
<BEGINHMM>
<NUMSTATES> 8
<STATE> 2
<NUMMIXES> 2
<MIXTURE> 1 9.935809e-01
<MEAN> 3
 5.771600e-04 -9.494370e-04 -2.329843e-03
<VARIANCE> 3
 1.000000e-02 1.000000e-02 1.000000e-02
<GCONST> -8.301880e+00
<MIXTURE> 2 6.418713e-03
<MEAN> 3
 -1.473702e-01 -5.170906e+01 -1.000000e+02
<VARIANCE> 3
 2.792038e-02 2.272479e+03 1.000000e-02
<GCONST> 5.058689e+00
<STATE> 3
<NUMMIXES> 2
<MIXTURE> 1 9.918399e-01
<MEAN> 3
 -1.916020e-03 -3.017850e+00 -5.670735e+00
<VARIANCE> 3
 1.000000e-02 1.485873e+01 1.579461e+01
<GCONST> 6.366717e+00
<MIXTURE> 2 8.156504e-03
<MEAN> 3
 -2.547517e-01 -5.147780e+01 -1.000000e+02
<VARIANCE> 3
 6.836572e-02 2.272714e+03 1.000000e-02
<GCONST> 5.954308e+00
<STATE> 4
<NUMMIXES> 2
<MIXTURE> 1 9.784651e-01
<MEAN> 3
 -5.549345e+00 -2.724974e+00 -4.193214e-01
<VARIANCE> 3
 1.348627e+01 1.083442e+01 1.999381e+00
<GCONST> 1.119087e+01
<MIXTURE> 2 2.153379e-02
<MEAN> 3
 -3.960288e-01 -5.037567e+01 -1.000000e+02
<VARIANCE> 3
 1.590712e-01 2.272122e+03 1.000000e-02
<GCONST> 6.798528e+00
<STATE> 5
<NUMMIXES> 2
<MIXTURE> 1 9.675159e-01
<MEAN> 3
 -2.845178e+00 -7.955750e+00 -8.454617e+00
<VARIANCE> 3
 4.580698e+00 8.453666e+00 5.014962e+00
<GCONST> 1.078251e+01
<MIXTURE> 2 3.248373e-02
<MEAN> 3
 -5.736728e-01 -4.846627e+01 -1.000000e+02
<VARIANCE> 3
 3.765281e-01 2.271854e+03 1.000000e-02
<GCONST> 7.660050e+00
<STATE> 6
<NUMMIXES> 2
<MIXTURE> 1 3.153162e-02
<MEAN> 3
 -7.200573e+00 -2.746072e+00 1.399312e-02
<VARIANCE> 3
 9.804626e+00 1.640318e+01 4.104872e+01
<GCONST> 1.430872e+01
<MIXTURE> 2 9.684669e-01
<MEAN> 3
 -7.537788e+00 -4.885639e+00 -1.000000e+02
<VARIANCE> 3
 9.984555e+00 5.920773e+01 1.000000e-02
<GCONST> 7.290553e+00
<STATE> 7
<NUMMIXES> 2
<MIXTURE> 1 9.860573e-01
<MEAN> 3
 -9.410203e+00 -9.253091e+00 -7.803513e+00
<VARIANCE> 3
 2.686106e+00 2.605647e+00 8.081326e+00
<GCONST> 9.548961e+00
<MIXTURE> 2 1.394279e-02
<MEAN> 3
 -1.972189e+00 -4.871196e+01 -1.000000e+02
<VARIANCE> 3
 4.528769e+00 2.393151e+03 1.000000e-02
<GCONST> 1.019928e+01
<TRANSP> 8
 0.000000e+00 1.000000e+00 0.000000e+00 0.000000e+00 0.000000e+00 0.000000e+00 0.000000e+00 0.000000e+00
 0.000000e+00 9.854596e-01 1.454040e-02 0.000000e+00 0.000000e+00 0.000000e+00 0.000000e+00 0.000000e+00
 0.000000e+00 0.000000e+00 9.816113e-01 1.838873e-02 0.000000e+00 0.000000e+00 0.000000e+00 0.000000e+00
 0.000000e+00 0.000000e+00 0.000000e+00 9.525722e-01 4.742783e-02 0.000000e+00 0.000000e+00 0.000000e+00
 0.000000e+00 0.000000e+00 0.000000e+00 0.000000e+00 9.312758e-01 6.872422e-02 0.000000e+00 0.000000e+00
 0.000000e+00 0.000000e+00 0.000000e+00 0.000000e+00 0.000000e+00 9.804893e-01 1.951068e-02 0.000000e+00
 0.000000e+00 0.000000e+00 0.000000e+00 0.000000e+00 0.000000e+00 0.000000e+00 9.695085e-01 3.049148e-02
 0.000000e+00 0.000000e+00 0.000000e+00 0.000000e+00 0.000000e+00 0.000000e+00 0.000000e+00 0.000000e+00
<ENDHMM>
~h "i"
<BEGINHMM>
<NUMSTATES> 8
<STATE> 2
<NUMMIXES> 2
<MIXTURE> 1 9.740419e-01
<MEAN> 3
 -1.924827e+00 -3.842539e+00 -8.345433e+00
<VARIANCE> 3
 1.253281e+01 1.850345e+01 8.232511e+00
<GCONST> 1.306803e+01
<MIXTURE> 2 2.595769e-02
<MEAN> 3
 -1.555689e+00 -4.861951e+01 -1.000000e+02
<VARIANCE> 3
 2.864410e+00 2.395134e+03 1.000000e-02
<GCONST> 9.742019e+00
<STATE> 3
<NUMMIXES> 2
<MIXTURE> 1 9.824534e-01
<MEAN> 3
 -8.044267e+00 -8.163167e+00 -5.068336e-03
<VARIANCE> 3
 8.989548e+00 7.488090e+00 1.000000e-02
<GCONST> 5.117837e+00
<MIXTURE> 2 1.754778e-02
<MEAN> 3
 -1.159878e+00 -4.862757e+01 -1.000000e+02
<VARIANCE> 3
 1.692161e+00 2.397846e+03 1.000000e-02
<GCONST> 9.216794e+00
<STATE> 4
<NUMMIXES> 2
<MIXTURE> 1 9.811775e-01
<MEAN> 3
 -7.801797e+00 -3.261272e-03 8.101755e-03
<VARIANCE> 3
 8.825501e+00 1.000000e-02 1.000000e-02
<GCONST> -1.519064e+00
<MIXTURE> 2 1.881891e-02
<MEAN> 3
 -8.706887e-01 -4.585104e+01 -1.000000e+02
<VARIANCE> 3
 9.629112e-01 2.390340e+03 1.000000e-02
<GCONST> 8.649858e+00
<STATE> 5
<NUMMIXES> 2
<MIXTURE> 1 9.930565e-01
<MEAN> 3
 -1.910300e-03 5.724516e-04 1.485444e-03
<VARIANCE> 3
 1.000000e-02 1.000000e-02 1.000000e-02
<GCONST> -8.301880e+00
<MIXTURE> 2 6.943920e-03
<MEAN> 3
 -5.316979e-01 -4.791613e+01 -1.000000e+02
<VARIANCE> 3
 5.187457e-01 2.401432e+03 1.000000e-02
<GCONST> 8.035939e+00
<STATE> 6
<NUMMIXES> 2
<MIXTURE> 1 9.454790e-01
<MEAN> 3
 -2.622519e+00 1.566805e+00 1.184064e+00
<VARIANCE> 3
 1.746524e+01 3.857926e+00 3.721046e+00
<GCONST> 1.103798e+01
<MIXTURE> 2 5.452117e-02
<MEAN> 3
 -3.122090e-01 -4.699794e+01 -1.000000e+02
<VARIANCE> 3
 2.786821e-01 2.399521e+03 1.000000e-02
<GCONST> 7.413802e+00
<STATE> 7
<NUMMIXES> 2
<MIXTURE> 1 7.394094e-01
<MEAN> 3
 -1.058583e-03 6.902825e-01 2.194959e+00
<VARIANCE> 3
 5.952638e-02 5.918990e-01 4.307592e+01
<GCONST> 5.930840e+00
<MIXTURE> 2 2.605900e-01
<MEAN> 3
 -8.834061e-02 -4.799012e+01 -1.000000e+02
<VARIANCE> 3
 2.565163e-02 2.397118e+03 1.000000e-02
<GCONST> 5.027335e+00
<TRANSP> 8
 0.000000e+00 1.000000e+00 0.000000e+00 0.000000e+00 0.000000e+00 0.000000e+00 0.000000e+00 0.000000e+00
 0.000000e+00 9.433157e-01 5.668434e-02 0.000000e+00 0.000000e+00 0.000000e+00 0.000000e+00 0.000000e+00
 0.000000e+00 0.000000e+00 9.616514e-01 3.834865e-02 0.000000e+00 0.000000e+00 0.000000e+00 0.000000e+00
 0.000000e+00 0.000000e+00 0.000000e+00 9.612029e-01 3.879714e-02 0.000000e+00 0.000000e+00 0.000000e+00
 0.000000e+00 0.000000e+00 0.000000e+00 0.000000e+00 9.850321e-01 1.496792e-02 0.000000e+00 0.000000e+00
 0.000000e+00 0.000000e+00 0.000000e+00 0.000000e+00 0.000000e+00 8.847088e-01 1.152912e-01 0.000000e+00
 0.000000e+00 0.000000e+00 0.000000e+00 0.000000e+00 0.000000e+00 0.000000e+00 4.379272e-01 5.620728e-01
 0.000000e+00 0.000000e+00 0.000000e+00 0.000000e+00 0.000000e+00 0.000000e+00 0.000000e+00 0.000000e+00
<ENDHMM>
~h "m"
<BEGINHMM>
<NUMSTATES> 8
<STATE> 2
<NUMMIXES> 2
<MIXTURE> 1 2.338204e-02
<MEAN> 3
 2.771860e-03 4.696867e+00 1.651020e+02
<VARIANCE> 3
 4.885969e-02 1.518921e+01 4.948281e+04
<GCONST> 1.602480e+01
<MIXTURE> 2 9.766178e-01
<MEAN> 3
 1.082195e-03 -3.247479e-01 -1.000000e+02
<VARIANCE> 3
 1.000000e-02 4.447108e+01 1.000000e-02
<GCONST> 9.813023e-02
<STATE> 3
<NUMMIXES> 2
<MIXTURE> 1 9.759574e-01
<MEAN> 3
 3.332811e-03 9.086234e-03 3.453584e+00
<VARIANCE> 3
 1.000000e-02 1.000000e-02 9.414093e+00
<GCONST> -1.454501e+00
<MIXTURE> 2 2.404222e-02
<MEAN> 3
 2.642962e-01 -4.286039e+01 -1.000000e+02
<VARIANCE> 3
 1.121004e-02 2.525236e+03 1.000000e-02
<GCONST> 4.251605e+00
<STATE> 4
<NUMMIXES> 2
<MIXTURE> 1 9.868233e-01
<MEAN> 3
 2.550261e+00 3.051968e+00 6.803644e-02
<VARIANCE> 3
 1.728591e+01 9.260447e+00 1.689097e-01
<GCONST> 8.810884e+00
<MIXTURE> 2 1.317700e-02
<MEAN> 3
 4.380565e-01 -4.282303e+01 -1.000000e+02
<VARIANCE> 3
 2.468457e-02 2.524434e+03 1.000000e-02
<GCONST> 5.040656e+00
<STATE> 5
<NUMMIXES> 2
<MIXTURE> 1 9.807709e-01
<MEAN> 3
 7.012659e-01 4.323827e+00 3.958388e+00
<VARIANCE> 3
 1.568799e+00 8.054340e+00 9.846134e+00
<GCONST> 1.033723e+01
<MIXTURE> 2 1.922872e-02
<MEAN> 3
 6.437871e-01 -4.251161e+01 -1.000000e+02
<VARIANCE> 3
 5.908797e-02 2.521020e+03 1.000000e-02
<GCONST> 5.912152e+00
<STATE> 6
<NUMMIXES> 2
<MIXTURE> 1 5.297673e-02
<MEAN> 3
 4.709674e+00 6.869785e+00 2.932651e+02
<VARIANCE> 3
 9.412623e+00 6.585144e+00 7.805370e+04
<GCONST> 2.090565e+01
<MIXTURE> 2 9.470251e-01
<MEAN> 3
 4.212146e+00 1.038809e+00 -1.000000e+02
<VARIANCE> 3
 8.373964e+00 5.216021e+01 1.000000e-02
<GCONST> 6.987908e+00
<STATE> 7
<NUMMIXES> 2
<MIXTURE> 1 2.507154e-02
<MEAN> 3
 6.414095e+00 3.106300e+02 2.195443e+02
<VARIANCE> 3
 8.640197e+00 7.140571e+04 2.094528e+04
<GCONST> 2.879586e+01
<MIXTURE> 2 9.749271e-01
<MEAN> 3
 -1.802866e+00 -1.000000e+02 -1.000000e+02
<VARIANCE> 3
 2.350844e+01 1.000000e-02 1.000000e-02
<GCONST> -5.393496e-01
<TRANSP> 8
 0.000000e+00 1.000000e+00 0.000000e+00 0.000000e+00 0.000000e+00 0.000000e+00 0.000000e+00 0.000000e+00
 0.000000e+00 9.829022e-01 1.709787e-02 0.000000e+00 0.000000e+00 0.000000e+00 0.000000e+00 0.000000e+00
 0.000000e+00 0.000000e+00 9.518175e-01 4.818255e-02 0.000000e+00 0.000000e+00 0.000000e+00 0.000000e+00
 0.000000e+00 0.000000e+00 0.000000e+00 9.736162e-01 2.638383e-02 0.000000e+00 0.000000e+00 0.000000e+00
 0.000000e+00 0.000000e+00 0.000000e+00 0.000000e+00 9.617680e-01 3.823199e-02 0.000000e+00 0.000000e+00
 0.000000e+00 0.000000e+00 0.000000e+00 0.000000e+00 0.000000e+00 9.808286e-01 1.917139e-02 0.000000e+00
 0.000000e+00 0.000000e+00 0.000000e+00 0.000000e+00 0.000000e+00 0.000000e+00 9.925111e-01 7.488936e-03
 0.000000e+00 0.000000e+00 0.000000e+00 0.000000e+00 0.000000e+00 0.000000e+00 0.000000e+00 0.000000e+00
<ENDHMM>
~h "sil"
<BEGINHMM>
<NUMSTATES> 8
<STATE> 2
<NUMMIXES> 2
<MIXTURE> 1 9.158504e-01
<MEAN> 3
 9.386917e+00 -8.822918e-05 1.796795e-03
<VARIANCE> 3
 5.016227e+00 1.000000e-02 1.000000e-02
<GCONST> -2.084031e+00
<MIXTURE> 2 8.414952e-02
<MEAN> 3
 7.484513e+00 -1.746959e+01 -1.669422e+01
<VARIANCE> 3
 7.113436e+00 9.847237e+02 1.001383e+03
<GCONST> 2.127711e+01
<STATE> 3
<NUMMIXES> 2
<MIXTURE> 1 8.986387e-01
<MEAN> 3
 9.963054e+00 1.971040e+00 5.984265e-01
<VARIANCE> 3
 4.143678e+00 2.374963e+00 6.593390e-01
<GCONST> 7.383679e+00
<MIXTURE> 2 1.013612e-01
<MEAN> 3
 3.910517e+00 -1.000000e+02 -1.000000e+02
<VARIANCE> 3
 4.159176e+00 1.000000e-02 1.000000e-02
<GCONST> -2.271392e+00
<STATE> 4
<NUMMIXES> 2
<MIXTURE> 1 8.875167e-02
<MEAN> 3
 7.492050e+00 -2.104274e+01 -1.876562e+01
<VARIANCE> 3
 1.197612e+01 1.845995e+03 1.964407e+03
<GCONST> 2.310027e+01
<MIXTURE> 2 9.112497e-01
<MEAN> 3
 7.833801e+00 5.444034e-03 3.732852e+00
<VARIANCE> 3
 1.415464e+01 1.000000e-02 9.878914e+00
<GCONST> 5.848906e+00
<STATE> 5
<NUMMIXES> 2
<MIXTURE> 1 3.279388e-02
<MEAN> 3
 5.349558e+00 -6.461829e+01 -6.375864e+01
<VARIANCE> 3
 9.669541e+00 2.318994e+03 2.435577e+03
<GCONST> 2.332944e+01
<MIXTURE> 2 9.672061e-01
<MEAN> 3
 6.575852e+00 4.877490e+00 2.528509e-03
<VARIANCE> 3
 6.281993e+00 7.303689e+00 1.000000e-02
<GCONST> 4.734528e+00
<STATE> 6
<NUMMIXES> 2
<MIXTURE> 1 3.282402e-02
<MEAN> 3
 4.030183e+00 -1.000000e+02 -1.000000e+02
<VARIANCE> 3
 3.981356e+00 1.000000e-02 1.000000e-02
<GCONST> -2.315087e+00
<MIXTURE> 2 9.671758e-01
<MEAN> 3
 6.424109e+00 1.501971e+00 3.795233e+00
<VARIANCE> 3
 6.860536e+00 1.327917e+00 6.326314e+00
<GCONST> 9.567746e+00
<STATE> 7
<NUMMIXES> 2
<MIXTURE> 1 9.519966e-02
<MEAN> 3
 4.960855e+00 -5.351159e+01 -5.367668e+01
<VARIANCE> 3
 7.128467e+00 2.654677e+03 2.638428e+03
<GCONST> 2.323974e+01
<MIXTURE> 2 9.048001e-01
<MEAN> 3
 5.616432e+00 2.108384e-03 -7.689615e+00
<VARIANCE> 3
 5.403180e+00 1.000000e-02 1.032666e+01
<GCONST> 4.930177e+00
<TRANSP> 8
 0.000000e+00 1.000000e+00 0.000000e+00 0.000000e+00 0.000000e+00 0.000000e+00 0.000000e+00 0.000000e+00
 0.000000e+00 9.790981e-01 2.090193e-02 0.000000e+00 0.000000e+00 0.000000e+00 0.000000e+00 0.000000e+00
 0.000000e+00 0.000000e+00 7.973918e-01 2.026083e-01 0.000000e+00 0.000000e+00 0.000000e+00 0.000000e+00
 0.000000e+00 0.000000e+00 0.000000e+00 9.594717e-01 4.052832e-02 0.000000e+00 0.000000e+00 0.000000e+00
 0.000000e+00 0.000000e+00 0.000000e+00 0.000000e+00 9.574063e-01 4.259366e-02 0.000000e+00 0.000000e+00
 0.000000e+00 0.000000e+00 0.000000e+00 0.000000e+00 0.000000e+00 9.343460e-01 6.565405e-02 0.000000e+00
 0.000000e+00 0.000000e+00 0.000000e+00 0.000000e+00 0.000000e+00 0.000000e+00 8.950481e-01 1.049519e-01
 0.000000e+00 0.000000e+00 0.000000e+00 0.000000e+00 0.000000e+00 0.000000e+00 0.000000e+00 0.000000e+00
<ENDHMM>
