~o
<STREAMINFO> 1 3
<VECSIZE> 3<NULLD><USER><DIAGC>
~h "a"
<BEGINHMM>
<NUMSTATES> 8
<STATE> 2
<NUMMIXES> 2
<MIXTURE> 1 9.775854e-01
<MEAN> 3
 5.749161e+00 4.348845e+00 4.523987e+00
<VARIANCE> 3
 9.458853e+00 7.777136e+00 6.722317e+00
<GCONST> 1.171720e+01
<MIXTURE> 2 2.241525e-02
<MEAN> 3
 3.817885e+00 -2.817469e+01 -1.000000e+02
<VARIANCE> 3
 1.088922e+01 2.021018e+03 1.000000e-02
<GCONST> 1.090759e+01
<STATE> 3
<NUMMIXES> 2
<MIXTURE> 1 9.857447e-01
<MEAN> 3
 3.394652e+00 4.532114e+00 2.817639e-03
<VARIANCE> 3
 8.607884e+00 8.822227e+00 1.000000e-02
<GCONST> 5.238414e+00
<MIXTURE> 2 1.425720e-02
<MEAN> 3
 8.651448e-01 -4.930022e+01 -1.000000e+02
<VARIANCE> 3
 6.266735e-02 2.477911e+03 1.000000e-02
<GCONST> 5.953717e+00
<STATE> 4
<NUMMIXES> 2
<MIXTURE> 1 9.896474e-01
<MEAN> 3
 4.509529e+00 2.614929e-03 1.946187e-04
<VARIANCE> 3
 8.566138e+00 1.000000e-02 1.000000e-02
<GCONST> -1.548892e+00
<MIXTURE> 2 1.035264e-02
<MEAN> 3
 5.525941e-01 -4.961792e+01 -1.000000e+02
<VARIANCE> 3
 2.151350e-02 2.478125e+03 1.000000e-02
<GCONST> 4.884644e+00
<STATE> 5
<NUMMIXES> 2
<MIXTURE> 1 9.461342e-01
<MEAN> 3
 1.587059e+00 -3.406227e+00 -1.471251e-01
<VARIANCE> 3
 6.238437e+00 3.396189e+01 2.845572e+00
<GCONST> 1.191536e+01
<MIXTURE> 2 5.386718e-02
<MEAN> 3
 3.620404e-01 -4.371737e+01 -1.000000e+02
<VARIANCE> 3
 4.075867e-02 2.444742e+03 1.000000e-02
<GCONST> 5.510069e+00
<STATE> 6
<NUMMIXES> 2
<MIXTURE> 1 3.365453e-01
<MEAN> 3
 1.565534e-03 -8.283861e-04 -5.015647e-03
<VARIANCE> 3
 1.000000e-02 1.000000e-02 1.003809e-02
<GCONST> -8.298078e+00
<MIXTURE> 2 6.634209e-01
<MEAN> 3
 5.572621e-04 -5.134690e+01 -1.000000e+02
<VARIANCE> 3
 1.000000e-02 2.408375e+03 1.000000e-02
<GCONST> 4.089998e+00
<STATE> 7
<NUMMIXES> 2
<MIXTURE> 1 8.696578e-01
<MEAN> 3
 1.558122e-03 -6.358988e-01 -5.637518e-01
<VARIANCE> 3
 1.000000e-02 3.578050e-01 7.209930e-01
<GCONST> -4.464318e-01
<MIXTURE> 2 1.303422e-01
<MEAN> 3
 -3.121363e-01 -3.659238e+01 -1.000000e+02
<VARIANCE> 3
 1.571244e-01 2.134363e+03 1.000000e-02
<GCONST> 6.723666e+00
<TRANSP> 8
 0.000000e+00 1.000000e+00 0.000000e+00 0.000000e+00 0.000000e+00 0.000000e+00 0.000000e+00 0.000000e+00
 0.000000e+00 9.687148e-01 3.128523e-02 0.000000e+00 0.000000e+00 0.000000e+00 0.000000e+00 0.000000e+00
 0.000000e+00 0.000000e+00 9.658613e-01 3.413871e-02 0.000000e+00 0.000000e+00 0.000000e+00 0.000000e+00
 0.000000e+00 0.000000e+00 0.000000e+00 9.750899e-01 2.491007e-02 0.000000e+00 0.000000e+00 0.000000e+00
 0.000000e+00 0.000000e+00 0.000000e+00 0.000000e+00 8.971658e-01 1.028342e-01 0.000000e+00 0.000000e+00
 0.000000e+00 0.000000e+00 0.000000e+00 0.000000e+00 0.000000e+00 9.940377e-01 5.962322e-03 0.000000e+00
 0.000000e+00 0.000000e+00 0.000000e+00 0.000000e+00 0.000000e+00 0.000000e+00 7.971210e-01 2.028790e-01
 0.000000e+00 0.000000e+00 0.000000e+00 0.000000e+00 0.000000e+00 0.000000e+00 0.000000e+00 0.000000e+00
<ENDHMM>
~h "e"
<BEGINHMM>
<NUMSTATES> 8
<STATE> 2
<NUMMIXES> 2
<MIXTURE> 1 9.505696e-01
<MEAN> 3
 -1.055345e-04 -8.609886e-02 -5.686795e+00
<VARIANCE> 3
 1.000000e-02 7.105721e-02 1.711964e+01
<GCONST> 1.104418e+00
<MIXTURE> 2 4.943135e-02
<MEAN> 3
 -4.400462e-02 -1.206977e+01 -1.000000e+02
<VARIANCE> 3
 1.000000e-02 9.901349e+02 1.000000e-02
<GCONST> 3.201132e+00
<STATE> 3
<NUMMIXES> 2
<MIXTURE> 1 7.710369e-02
<MEAN> 3
 -3.801474e-01 -6.259571e-01 -7.054073e+00
<VARIANCE> 3
 2.024067e-01 4.316863e-01 1.469122e+01
<GCONST> 5.763350e+00
<MIXTURE> 2 9.228920e-01
<MEAN> 3
 -1.078464e+00 -5.225367e+01 -1.000000e+02
<VARIANCE> 3
 3.643597e-01 2.343072e+03 1.000000e-02
<GCONST> 7.658066e+00
<STATE> 4
<NUMMIXES> 2
<MIXTURE> 1 9.857215e-01
<MEAN> 3
 -4.507356e-03 -7.030470e+00 -5.924174e+00
<VARIANCE> 3
 1.000000e-02 1.007713e+01 1.832195e+01
<GCONST> 6.126829e+00
<MIXTURE> 2 1.427824e-02
<MEAN> 3
 -2.262197e+00 -5.122540e+01 -1.000000e+02
<VARIANCE> 3
 3.948586e-02 2.257449e+03 1.000000e-02
<GCONST> 5.398639e+00
<STATE> 5
<NUMMIXES> 2
<MIXTURE> 1 1.251070e-01
<MEAN> 3
 -2.473814e+00 -1.885929e+00 -1.006702e+00
<VARIANCE> 3
 2.734345e+00 5.824192e+00 4.000037e+00
<GCONST> 9.667848e+00
<MIXTURE> 2 8.748782e-01
<MEAN> 3
 -8.435692e+00 -4.827892e+00 -1.000000e+02
<VARIANCE> 3
 4.873462e+00 6.533447e+01 1.000000e-02
<GCONST> 6.671785e+00
<STATE> 6
<NUMMIXES> 2
<MIXTURE> 1 1.011417e-01
<MEAN> 3
 -1.804528e+00 -8.164257e+00 -7.997096e+00
<VARIANCE> 3
 1.139208e+00 6.592758e+00 1.045373e+01
<GCONST> 9.876895e+00
<MIXTURE> 2 8.988547e-01
<MEAN> 3
 -8.116617e+00 -9.943900e+01 -1.000000e+02
<VARIANCE> 3
 4.761874e+00 5.502228e+01 1.000000e-02
<GCONST> 6.476840e+00
<STATE> 7
<NUMMIXES> 2
<MIXTURE> 1 9.880964e-01
<MEAN> 3
 -8.774263e+00 -8.230496e+00 -7.884721e+00
<VARIANCE> 3
 5.017549e+00 7.934072e+00 8.584558e+00
<GCONST> 1.134770e+01
<MIXTURE> 2 1.190172e-02
<MEAN> 3
 -4.409984e+00 -4.946161e+01 -1.000000e+02
<VARIANCE> 3
 7.302162e-01 2.432426e+03 1.000000e-02
<GCONST> 8.390691e+00
<TRANSP> 8
 0.000000e+00 1.000000e+00 0.000000e+00 0.000000e+00 0.000000e+00 0.000000e+00 0.000000e+00 0.000000e+00
 0.000000e+00 9.743709e-01 2.562916e-02 0.000000e+00 0.000000e+00 0.000000e+00 0.000000e+00 0.000000e+00
 0.000000e+00 0.000000e+00 9.204677e-01 7.953233e-02 0.000000e+00 0.000000e+00 0.000000e+00 0.000000e+00
 0.000000e+00 0.000000e+00 0.000000e+00 9.708617e-01 2.913833e-02 0.000000e+00 0.000000e+00 0.000000e+00
 0.000000e+00 0.000000e+00 0.000000e+00 0.000000e+00 9.797752e-01 2.022476e-02 0.000000e+00 0.000000e+00
 0.000000e+00 0.000000e+00 0.000000e+00 0.000000e+00 0.000000e+00 9.775681e-01 2.243186e-02 0.000000e+00
 0.000000e+00 0.000000e+00 0.000000e+00 0.000000e+00 0.000000e+00 0.000000e+00 9.735020e-01 2.649795e-02
 0.000000e+00 0.000000e+00 0.000000e+00 0.000000e+00 0.000000e+00 0.000000e+00 0.000000e+00 0.000000e+00
<ENDHMM>
~h "i"
<BEGINHMM>
<NUMSTATES> 8
<STATE> 2
<NUMMIXES> 2
<MIXTURE> 1 9.538208e-01
<MEAN> 3
 -8.494210e-01 -5.050919e+00 -7.065032e+00
<VARIANCE> 3
 5.330061e+00 1.889749e+01 1.424114e+01
<GCONST> 1.278216e+01
<MIXTURE> 2 4.617973e-02
<MEAN> 3
 -3.546728e+00 -4.902077e+01 -1.000000e+02
<VARIANCE> 3
 3.372830e-01 2.428817e+03 1.000000e-02
<GCONST> 7.616788e+00
<STATE> 3
<NUMMIXES> 2
<MIXTURE> 1 9.854404e-01
<MEAN> 3
 -7.326477e+00 -8.271551e+00 -3.307851e-03
<VARIANCE> 3
 1.179970e+01 6.953983e+00 1.000000e-02
<GCONST> 5.315849e+00
<MIXTURE> 2 1.455977e-02
<MEAN> 3
 -2.713992e+00 -4.954779e+01 -1.000000e+02
<VARIANCE> 3
 1.549215e-01 2.435417e+03 1.000000e-02
<GCONST> 6.841497e+00
<STATE> 4
<NUMMIXES> 2
<MIXTURE> 1 8.257338e-01
<MEAN> 3
 -5.165575e+00 -1.438774e-02 2.416129e+00
<VARIANCE> 3
 2.047670e+01 1.564074e-02 7.503765e+00
<GCONST> 6.390448e+00
<MIXTURE> 2 1.742683e-01
<MEAN> 3
 -3.856015e+00 -2.860852e+01 -1.000000e+02
<VARIANCE> 3
 9.404825e+00 2.038769e+03 1.000000e-02
<GCONST> 1.076979e+01
<STATE> 5
<NUMMIXES> 2
<MIXTURE> 1 9.858726e-01
<MEAN> 3
 -7.966008e+00 -1.474236e-03 6.655415e-04
<VARIANCE> 3
 8.217764e+00 1.000000e-02 1.000000e-02
<GCONST> -1.590411e+00
<MIXTURE> 2 1.412540e-02
<MEAN> 3
 -1.108468e+00 -5.082565e+01 -1.000000e+02
<VARIANCE> 3
 4.418575e-02 2.451451e+03 1.000000e-02
<GCONST> 5.593543e+00
<STATE> 6
<NUMMIXES> 2
<MIXTURE> 1 8.913445e-01
<MEAN> 3
 -3.964965e+00 1.423694e+00 8.956108e-01
<VARIANCE> 3
 1.765057e+01 3.880309e+00 1.233609e+01
<GCONST> 1.225284e+01
<MIXTURE> 2 1.086513e-01
<MEAN> 3
 -6.578351e-01 -4.258871e+01 -1.000000e+02
<VARIANCE> 3
 5.543354e-02 2.409753e+03 1.000000e-02
<GCONST> 5.803170e+00
<STATE> 7
<NUMMIXES> 2
<MIXTURE> 1 5.220619e-01
<MEAN> 3
 -1.794898e-03 1.153992e-03 2.668880e-03
<VARIANCE> 3
 1.000000e-02 1.000000e-02 1.000000e-02
<GCONST> -8.301880e+00
<MIXTURE> 2 4.778749e-01
<MEAN> 3
 -1.714781e-03 -1.529116e-01 -1.000000e+02
<VARIANCE> 3
 1.000000e-02 4.171232e+01 1.000000e-02
<GCONST> 3.408718e-02
<TRANSP> 8
 0.000000e+00 1.000000e+00 0.000000e+00 0.000000e+00 0.000000e+00 0.000000e+00 0.000000e+00 0.000000e+00
 0.000000e+00 9.028698e-01 9.713027e-02 0.000000e+00 0.000000e+00 0.000000e+00 0.000000e+00 0.000000e+00
 0.000000e+00 0.000000e+00 9.688371e-01 3.116285e-02 0.000000e+00 0.000000e+00 0.000000e+00 0.000000e+00
 0.000000e+00 0.000000e+00 0.000000e+00 8.701381e-01 1.298620e-01 0.000000e+00 0.000000e+00 0.000000e+00
 0.000000e+00 0.000000e+00 0.000000e+00 0.000000e+00 9.729209e-01 2.707909e-02 0.000000e+00 0.000000e+00
 0.000000e+00 0.000000e+00 0.000000e+00 0.000000e+00 0.000000e+00 8.872701e-01 1.127299e-01 0.000000e+00
 0.000000e+00 0.000000e+00 0.000000e+00 0.000000e+00 0.000000e+00 0.000000e+00 9.914663e-01 8.533754e-03
 0.000000e+00 0.000000e+00 0.000000e+00 0.000000e+00 0.000000e+00 0.000000e+00 0.000000e+00 0.000000e+00
<ENDHMM>
~h "m"
<BEGINHMM>
<NUMSTATES> 8
<STATE> 2
<NUMMIXES> 2
<MIXTURE> 1 1.805341e-01
<MEAN> 3
 7.070447e-04 6.282547e-03 3.017347e+00
<VARIANCE> 3
 1.000000e-02 1.000000e-02 8.313613e+00
<GCONST> -1.578815e+00
<MIXTURE> 2 8.194085e-01
<MEAN> 3
 6.120785e-04 -9.974111e+01 -1.000000e+02
<VARIANCE> 3
 1.000000e-02 2.594382e+01 1.000000e-02
<GCONST> -4.407759e-01
<STATE> 3
<NUMMIXES> 2
<MIXTURE> 1 9.830925e-01
<MEAN> 3
 2.927432e-03 2.518308e+00 2.070807e+00
<VARIANCE> 3
 1.000000e-02 3.995267e+00 9.420468e+00
<GCONST> 4.536456e+00
<MIXTURE> 2 1.690510e-02
<MEAN> 3
 2.694730e-01 -5.316508e+01 -1.000000e+02
<VARIANCE> 3
 1.000000e-02 2.514867e+03 1.000000e-02
<GCONST> 4.133265e+00
<STATE> 4
<NUMMIXES> 2
<MIXTURE> 1 9.510050e-01
<MEAN> 3
 2.149202e+00 2.168844e-01 -3.025711e+00
<VARIANCE> 3
 3.506874e+00 3.614310e-01 2.732915e+01
<GCONST> 9.058626e+00
<MIXTURE> 2 4.899412e-02
<MEAN> 3
 4.323320e-01 -5.000391e+01 -1.000000e+02
<VARIANCE> 3
 1.957377e-02 2.547021e+03 1.000000e-02
<GCONST> 4.817575e+00
<STATE> 5
<NUMMIXES> 2
<MIXTURE> 1 9.577392e-01
<MEAN> 3
 2.049836e+00 4.325387e+00 2.841742e+00
<VARIANCE> 3
 1.967467e+00 5.082319e+00 7.117795e+00
<GCONST> 9.778744e+00
<MIXTURE> 2 4.226507e-02
<MEAN> 3
 6.313152e-01 -4.903544e+01 -1.000000e+02
<VARIANCE> 3
 5.629427e-02 2.549280e+03 1.000000e-02
<GCONST> 5.874865e+00
<STATE> 6
<NUMMIXES> 2
<MIXTURE> 1 8.127415e-03
<MEAN> 3
 2.258297e+00 2.743748e+00 8.033973e-01
<VARIANCE> 3
 5.785063e+00 5.749661e+00 2.323720e+00
<GCONST> 9.861220e+00
<MIXTURE> 2 9.918735e-01
<MEAN> 3
 3.474588e+00 1.265472e+00 -1.000000e+02
<VARIANCE> 3
 7.570750e+00 6.013517e+01 1.000000e-02
<GCONST> 7.029348e+00
<STATE> 7
<NUMMIXES> 2
<MIXTURE> 1 4.986240e-02
<MEAN> 3
 4.274301e+00 5.161813e+00 5.706355e+00
<VARIANCE> 3
 4.101007e+00 7.127753e+00 1.345711e+01
<GCONST> 1.148837e+01
<MIXTURE> 2 9.501297e-01
<MEAN> 3
 4.280313e+00 -9.923506e+01 -1.000000e+02
<VARIANCE> 3
 9.123169e+00 7.556112e+01 1.000000e-02
<GCONST> 7.444220e+00
<TRANSP> 8
 0.000000e+00 1.000000e+00 0.000000e+00 0.000000e+00 0.000000e+00 0.000000e+00 0.000000e+00 0.000000e+00
 0.000000e+00 9.902876e-01 9.712446e-03 0.000000e+00 0.000000e+00 0.000000e+00 0.000000e+00 0.000000e+00
 0.000000e+00 0.000000e+00 9.641336e-01 3.586640e-02 0.000000e+00 0.000000e+00 0.000000e+00 0.000000e+00
 0.000000e+00 0.000000e+00 0.000000e+00 9.053454e-01 9.465455e-02 0.000000e+00 0.000000e+00 0.000000e+00
 0.000000e+00 0.000000e+00 0.000000e+00 0.000000e+00 9.209871e-01 7.901291e-02 0.000000e+00 0.000000e+00
 0.000000e+00 0.000000e+00 0.000000e+00 0.000000e+00 0.000000e+00 9.803116e-01 1.968845e-02 0.000000e+00
 0.000000e+00 0.000000e+00 0.000000e+00 0.000000e+00 0.000000e+00 0.000000e+00 9.626632e-01 3.733681e-02
 0.000000e+00 0.000000e+00 0.000000e+00 0.000000e+00 0.000000e+00 0.000000e+00 0.000000e+00 0.000000e+00
<ENDHMM>
~h "sil"
<BEGINHMM>
<NUMSTATES> 8
<STATE> 2
<NUMMIXES> 2
<MIXTURE> 1 9.089604e-01
<MEAN> 3
 9.496893e+00 3.443144e+00 1.135772e+00
<VARIANCE> 3
 7.385865e+00 6.505476e+00 3.406075e+00
<GCONST> 1.061140e+01
<MIXTURE> 2 9.103925e-02
<MEAN> 3
 5.340451e+00 -5.132907e+01 -4.925547e+01
<VARIANCE> 3
 6.011205e+00 2.180666e+03 2.370647e+03
<GCONST> 2.276556e+01
<STATE> 3
<NUMMIXES> 2
<MIXTURE> 1 3.641206e-02
<MEAN> 3
 5.089123e+00 -7.080349e+01 -7.101048e+01
<VARIANCE> 3
 8.687484e+00 2.130220e+03 2.106847e+03
<GCONST> 2.299244e+01
<MIXTURE> 2 9.635878e-01
<MEAN> 3
 9.253695e+00 -1.061084e-04 3.877288e-03
<VARIANCE> 3
 3.180504e+00 1.000000e-02 1.000000e-02
<GCONST> -2.539670e+00
<STATE> 4
<NUMMIXES> 2
<MIXTURE> 1 2.213792e-02
<MEAN> 3
 4.795720e+00 -8.451340e+01 -8.513299e+01
<VARIANCE> 3
 8.040798e+00 1.380984e+03 1.274375e+03
<GCONST> 2.197892e+01
<MIXTURE> 2 9.778622e-01
<MEAN> 3
 8.277032e+00 3.641762e-03 2.999567e+00
<VARIANCE> 3
 8.720639e+00 1.000000e-02 8.909243e+00
<GCONST> 5.261243e+00
<STATE> 5
<NUMMIXES> 2
<MIXTURE> 1 1.299385e-01
<MEAN> 3
 6.118744e+00 -5.165649e+01 -5.122307e+01
<VARIANCE> 3
 1.163526e+01 2.554530e+03 2.603439e+03
<GCONST> 2.367788e+01
<MIXTURE> 2 8.700609e-01
<MEAN> 3
 6.286593e+00 8.499971e-04 -8.948380e+00
<VARIANCE> 3
 5.753086e+00 1.000000e-02 3.362862e+00
<GCONST> 3.870990e+00
<STATE> 6
<NUMMIXES> 2
<MIXTURE> 1 1.191306e-01
<MEAN> 3
 5.456966e+00 -6.789071e+01 -6.865495e+01
<VARIANCE> 3
 8.938812e+00 2.285404e+03 2.177930e+03
<GCONST> 2.312446e+01
<MIXTURE> 2 8.808698e-01
<MEAN> 3
 7.656735e+00 9.900802e-01 2.807999e+00
<VARIANCE> 3
 9.238772e+00 2.591411e-01 2.043629e+00
<GCONST> 7.101385e+00
<STATE> 7
<NUMMIXES> 2
<MIXTURE> 1 9.590441e-01
<MEAN> 3
 8.021613e+00 4.315249e+00 2.593319e-03
<VARIANCE> 3
 1.250014e+01 8.245234e+00 1.000000e-02
<GCONST> 5.543837e+00
<MIXTURE> 2 4.095564e-02
<MEAN> 3
 4.858457e+00 -6.280886e+01 -6.223071e+01
<VARIANCE> 3
 7.586217e+00 2.406932e+03 2.484311e+03
<GCONST> 2.314382e+01
<TRANSP> 8
 0.000000e+00 1.000000e+00 0.000000e+00 0.000000e+00 0.000000e+00 0.000000e+00 0.000000e+00 0.000000e+00
 0.000000e+00 9.129350e-01 8.706496e-02 0.000000e+00 0.000000e+00 0.000000e+00 0.000000e+00 0.000000e+00
 0.000000e+00 0.000000e+00 9.479963e-01 5.200378e-02 0.000000e+00 0.000000e+00 0.000000e+00 0.000000e+00
 0.000000e+00 0.000000e+00 0.000000e+00 9.622739e-01 3.772607e-02 0.000000e+00 0.000000e+00 0.000000e+00
 0.000000e+00 0.000000e+00 0.000000e+00 0.000000e+00 8.643177e-01 1.356823e-01 0.000000e+00 0.000000e+00
 0.000000e+00 0.000000e+00 0.000000e+00 0.000000e+00 0.000000e+00 8.358369e-01 1.641631e-01 0.000000e+00
 0.000000e+00 0.000000e+00 0.000000e+00 0.000000e+00 0.000000e+00 0.000000e+00 9.479857e-01 5.201432e-02
 0.000000e+00 0.000000e+00 0.000000e+00 0.000000e+00 0.000000e+00 0.000000e+00 0.000000e+00 0.000000e+00
<ENDHMM>
