~o
<STREAMINFO> 1 3
<VECSIZE> 3<NULLD><USER><DIAGC>
~h "a"
<BEGINHMM>
<NUMSTATES> 8
<STATE> 2
<NUMMIXES> 2
<MIXTURE> 1 6.091589e-01
<MEAN> 3
 4.027580e+00 3.399579e+00 3.178760e+00
<VARIANCE> 3
 1.090100e+01 5.659003e+00 2.141169e+02
<GCONST> 1.500226e+01
<MIXTURE> 2 3.908409e-01
<MEAN> 3
 4.134757e-01 -5.547445e+01 -1.000000e+02
<VARIANCE> 3
 9.386297e-01 2.480136e+03 1.000000e-02
<GCONST> 8.661196e+00
<STATE> 3
<NUMMIXES> 2
<MIXTURE> 1 9.965131e-03
<MEAN> 3
 3.403584e+00 2.680971e+00 -1.964086e+01
<VARIANCE> 3
 1.014531e+01 8.031142e+00 1.996019e+03
<GCONST> 1.751288e+01
<MIXTURE> 2 9.900342e-01
<MEAN> 3
 -5.930809e-04 -1.000000e+02 -1.000000e+02
<VARIANCE> 3
 1.000000e-02 1.000000e-02 1.000000e-02
<GCONST> -8.301880e+00
<STATE> 4
<NUMMIXES> 2
<MIXTURE> 1 9.912848e-01
<MEAN> 3
 5.525000e+00 5.806580e+00 4.276376e+00
<VARIANCE> 3
 1.017066e+01 6.402442e+00 8.690515e+00
<GCONST> 1.185205e+01
<MIXTURE> 2 8.716008e-03
<MEAN> 3
 3.276704e-01 -5.429145e+01 -1.000000e+02
<VARIANCE> 3
 1.582519e-01 2.505580e+03 1.000000e-02
<GCONST> 6.891170e+00
<STATE> 5
<NUMMIXES> 2
<MIXTURE> 1 9.732803e-01
<MEAN> 3
 1.707322e+00 1.082180e-01 -6.749800e-01
<VARIANCE> 3
 5.648273e+00 3.226930e-01 4.038050e+01
<GCONST> 9.812275e+00
<MIXTURE> 2 2.671852e-02
<MEAN> 3
 2.003693e-01 -5.159311e+01 -1.000000e+02
<VARIANCE> 3
 6.224958e-02 2.535291e+03 1.000000e-02
<GCONST> 5.969921e+00
<STATE> 6
<NUMMIXES> 2
<MIXTURE> 1 9.902663e-01
<MEAN> 3
 4.728319e+00 8.527155e-01 1.477947e-03
<VARIANCE> 3
 9.315875e+00 2.804827e+00 1.000000e-02
<GCONST> 4.171523e+00
<MIXTURE> 2 9.733319e-03
<MEAN> 3
 1.022149e-01 -5.035377e+01 -1.000000e+02
<VARIANCE> 3
 1.961362e-02 2.524682e+03 1.000000e-02
<GCONST> 4.810801e+00
<STATE> 7
<NUMMIXES> 2
<MIXTURE> 1 7.034783e-02
<MEAN> 3
 3.757684e-02 -6.369721e+00 1.762531e-01
<VARIANCE> 3
 1.762937e-02 1.471120e+01 3.247592e-01
<GCONST> 3.039380e+00
<MIXTURE> 2 9.296421e-01
<MEAN> 3
 -7.152298e-04 -1.805120e+00 -1.000000e+02
<VARIANCE> 3
 1.000000e-02 4.808558e+01 1.000000e-02
<GCONST> 1.762733e-01
<TRANSP> 8
 0.000000e+00 1.000000e+00 0.000000e+00 0.000000e+00 0.000000e+00 0.000000e+00 0.000000e+00 0.000000e+00
 0.000000e+00 1.404839e-03 9.985951e-01 0.000000e+00 0.000000e+00 0.000000e+00 0.000000e+00 0.000000e+00
 0.000000e+00 0.000000e+00 9.873255e-01 1.267449e-02 0.000000e+00 0.000000e+00 0.000000e+00 0.000000e+00
 0.000000e+00 0.000000e+00 0.000000e+00 9.781553e-01 2.184468e-02 0.000000e+00 0.000000e+00 0.000000e+00
 0.000000e+00 0.000000e+00 0.000000e+00 0.000000e+00 9.361919e-01 6.380812e-02 0.000000e+00 0.000000e+00
 0.000000e+00 0.000000e+00 0.000000e+00 0.000000e+00 0.000000e+00 9.773644e-01 2.263555e-02 0.000000e+00
 0.000000e+00 0.000000e+00 0.000000e+00 0.000000e+00 0.000000e+00 0.000000e+00 9.830669e-01 1.693315e-02
 0.000000e+00 0.000000e+00 0.000000e+00 0.000000e+00 0.000000e+00 0.000000e+00 0.000000e+00 0.000000e+00
<ENDHMM>
~h "e"
<BEGINHMM>
<NUMSTATES> 8
<STATE> 2
<NUMMIXES> 2
<MIXTURE> 1 9.935391e-01
<MEAN> 3
 9.008861e-04 -9.756239e-04 -3.390990e-03
<VARIANCE> 3
 1.000000e-02 1.000000e-02 1.000000e-02
<GCONST> -8.301880e+00
<MIXTURE> 2 6.462275e-03
<MEAN> 3
 -1.863951e-01 -5.145238e+01 -1.000000e+02
<VARIANCE> 3
 3.710105e-02 2.272345e+03 1.000000e-02
<GCONST> 5.342918e+00
<STATE> 3
<NUMMIXES> 2
<MIXTURE> 1 9.920768e-01
<MEAN> 3
 -1.842714e-03 -3.147497e+00 -5.379239e+00
<VARIANCE> 3
 1.000000e-02 1.542244e+01 1.802146e+01
<GCONST> 6.535848e+00
<MIXTURE> 2 7.923618e-03
<MEAN> 3
 -3.082489e-01 -5.108634e+01 -1.000000e+02
<VARIANCE> 3
 9.651156e-02 2.272207e+03 1.000000e-02
<GCONST> 6.298875e+00
<STATE> 4
<NUMMIXES> 2
<MIXTURE> 1 9.753092e-01
<MEAN> 3
 -5.438395e+00 -2.778410e+00 -5.171123e-01
<VARIANCE> 3
 1.376426e+01 1.032228e+01 2.127963e+00
<GCONST> 1.122518e+01
<MIXTURE> 2 2.468894e-02
<MEAN> 3
 -4.698414e-01 -4.897955e+01 -1.000000e+02
<VARIANCE> 3
 2.195401e-01 2.266969e+03 1.000000e-02
<GCONST> 7.118440e+00
<STATE> 5
<NUMMIXES> 2
<MIXTURE> 1 9.693446e-01
<MEAN> 3
 -2.979607e+00 -7.994366e+00 -8.476578e+00
<VARIANCE> 3
 4.917167e+00 8.269164e+00 5.019463e+00
<GCONST> 1.083222e+01
<MIXTURE> 2 3.065519e-02
<MEAN> 3
 -6.480104e-01 -4.971880e+01 -1.000000e+02
<VARIANCE> 3
 5.007433e-01 2.271776e+03 1.000000e-02
<GCONST> 7.945117e+00
<STATE> 6
<NUMMIXES> 2
<MIXTURE> 1 3.200655e-02
<MEAN> 3
 -7.125858e+00 -2.764116e+00 9.851556e-02
<VARIANCE> 3
 1.024281e+01 1.685008e+01 4.039062e+01
<GCONST> 1.436316e+01
<MIXTURE> 2 9.679943e-01
<MEAN> 3
 -7.557675e+00 -4.891277e+00 -1.000000e+02
<VARIANCE> 3
 9.927445e+00 5.938693e+01 1.000000e-02
<GCONST> 7.287838e+00
<STATE> 7
<NUMMIXES> 2
<MIXTURE> 1 9.857145e-01
<MEAN> 3
 -9.514576e+00 -9.265512e+00 -7.745516e+00
<VARIANCE> 3
 2.328377e+00 2.616927e+00 8.155457e+00
<GCONST> 9.419491e+00
<MIXTURE> 2 1.428466e-02
<MEAN> 3
 -2.261357e+00 -4.938284e+01 -1.000000e+02
<VARIANCE> 3
 5.895144e+00 2.392637e+03 1.000000e-02
<GCONST> 1.046274e+01
<TRANSP> 8
 0.000000e+00 1.000000e+00 0.000000e+00 0.000000e+00 0.000000e+00 0.000000e+00 0.000000e+00 0.000000e+00
 0.000000e+00 9.854401e-01 1.455982e-02 0.000000e+00 0.000000e+00 0.000000e+00 0.000000e+00 0.000000e+00
 0.000000e+00 0.000000e+00 9.822851e-01 1.771494e-02 0.000000e+00 0.000000e+00 0.000000e+00 0.000000e+00
 0.000000e+00 0.000000e+00 0.000000e+00 9.472614e-01 5.273862e-02 0.000000e+00 0.000000e+00 0.000000e+00
 0.000000e+00 0.000000e+00 0.000000e+00 0.000000e+00 9.334146e-01 6.658545e-02 0.000000e+00 0.000000e+00
 0.000000e+00 0.000000e+00 0.000000e+00 0.000000e+00 0.000000e+00 9.804074e-01 1.959261e-02 0.000000e+00
 0.000000e+00 0.000000e+00 0.000000e+00 0.000000e+00 0.000000e+00 0.000000e+00 9.683331e-01 3.166692e-02
 0.000000e+00 0.000000e+00 0.000000e+00 0.000000e+00 0.000000e+00 0.000000e+00 0.000000e+00 0.000000e+00
<ENDHMM>
~h "i"
<BEGINHMM>
<NUMSTATES> 8
<STATE> 2
<NUMMIXES> 2
<MIXTURE> 1 9.752105e-01
<MEAN> 3
 -2.111336e+00 -4.038765e+00 -8.417118e+00
<VARIANCE> 3
 1.315924e+01 1.880586e+01 7.911319e+00
<GCONST> 1.309322e+01
<MIXTURE> 2 2.478956e-02
<MEAN> 3
 -1.841889e+00 -4.916149e+01 -1.000000e+02
<VARIANCE> 3
 3.886969e+00 2.394107e+03 1.000000e-02
<GCONST> 1.004686e+01
<STATE> 3
<NUMMIXES> 2
<MIXTURE> 1 9.830332e-01
<MEAN> 3
 -7.975699e+00 -8.164327e+00 -5.311087e-03
<VARIANCE> 3
 9.103862e+00 7.405951e+00 1.000000e-02
<GCONST> 5.119444e+00
<MIXTURE> 2 1.696801e-02
<MEAN> 3
 -1.419478e+00 -4.917682e+01 -1.000000e+02
<VARIANCE> 3
 2.355788e+00 2.396916e+03 1.000000e-02
<GCONST> 9.547275e+00
<STATE> 4
<NUMMIXES> 2
<MIXTURE> 1 9.823401e-01
<MEAN> 3
 -7.859984e+00 -3.579802e-03 3.957464e-03
<VARIANCE> 3
 8.413413e+00 1.000000e-02 1.000000e-02
<GCONST> -1.566882e+00
<MIXTURE> 2 1.766020e-02
<MEAN> 3
 -1.028174e+00 -4.912652e+01 -1.000000e+02
<VARIANCE> 3
 1.316086e+00 2.399257e+03 1.000000e-02
<GCONST> 8.966038e+00
<STATE> 5
<NUMMIXES> 2
<MIXTURE> 1 9.932887e-01
<MEAN> 3
 -4.105641e-03 5.767873e-04 1.199551e-03
<VARIANCE> 3
 1.000000e-02 1.000000e-02 1.000000e-02
<GCONST> -8.301880e+00
<MIXTURE> 2 6.711331e-03
<MEAN> 3
 -6.889540e-01 -4.919802e+01 -1.000000e+02
<VARIANCE> 3
 6.822487e-01 2.401890e+03 1.000000e-02
<GCONST> 8.310111e+00
<STATE> 6
<NUMMIXES> 2
<MIXTURE> 1 9.574565e-01
<MEAN> 3
 -3.434146e+00 1.393313e+00 9.813607e-01
<VARIANCE> 3
 1.960588e+01 3.743142e+00 3.076826e+00
<GCONST> 1.093328e+01
<MIXTURE> 2 4.253967e-02
<MEAN> 3
 -5.245828e-01 -4.385195e+01 -1.000000e+02
<VARIANCE> 3
 4.285998e-01 2.373817e+03 1.000000e-02
<GCONST> 7.833484e+00
<STATE> 7
<NUMMIXES> 2
<MIXTURE> 1 5.539010e-01
<MEAN> 3
 -5.553291e-02 2.376300e-01 1.732448e+00
<VARIANCE> 3
 2.447771e-01 7.072552e-01 9.368555e+01
<GCONST> 8.299805e+00
<MIXTURE> 2 4.460990e-01
<MEAN> 3
 -1.599583e-01 -4.859505e+01 -1.000000e+02
<VARIANCE> 3
 4.446399e-02 2.399799e+03 1.000000e-02
<GCONST> 5.578526e+00
<TRANSP> 8
 0.000000e+00 1.000000e+00 0.000000e+00 0.000000e+00 0.000000e+00 0.000000e+00 0.000000e+00 0.000000e+00
 0.000000e+00 9.452765e-01 5.472349e-02 0.000000e+00 0.000000e+00 0.000000e+00 0.000000e+00 0.000000e+00
 0.000000e+00 0.000000e+00 9.625080e-01 3.749196e-02 0.000000e+00 0.000000e+00 0.000000e+00 0.000000e+00
 0.000000e+00 0.000000e+00 0.000000e+00 9.609992e-01 3.900076e-02 0.000000e+00 0.000000e+00 0.000000e+00
 0.000000e+00 0.000000e+00 0.000000e+00 0.000000e+00 9.851487e-01 1.485129e-02 0.000000e+00 0.000000e+00
 0.000000e+00 0.000000e+00 0.000000e+00 0.000000e+00 0.000000e+00 9.161308e-01 8.386926e-02 0.000000e+00
 0.000000e+00 0.000000e+00 0.000000e+00 0.000000e+00 0.000000e+00 0.000000e+00 2.524058e-02 9.747594e-01
 0.000000e+00 0.000000e+00 0.000000e+00 0.000000e+00 0.000000e+00 0.000000e+00 0.000000e+00 0.000000e+00
<ENDHMM>
~h "m"
<BEGINHMM>
<NUMSTATES> 8
<STATE> 2
<NUMMIXES> 2
<MIXTURE> 1 1.782962e-02
<MEAN> 3
 3.148050e-03 4.189567e+00 8.793445e+01
<VARIANCE> 3
 7.339441e-02 1.798092e+01 1.196625e+04
<GCONST> 1.518088e+01
<MIXTURE> 2 9.821646e-01
<MEAN> 3
 5.720560e-04 -4.027014e-01 -1.000000e+02
<VARIANCE> 3
 1.000000e-02 4.442982e+01 1.000000e-02
<GCONST> 9.720182e-02
<STATE> 3
<NUMMIXES> 2
<MIXTURE> 1 9.759827e-01
<MEAN> 3
 3.660204e-03 9.629270e-03 3.284731e+00
<VARIANCE> 3
 1.000000e-02 1.000000e-02 8.803258e+00
<GCONST> -1.521587e+00
<MIXTURE> 2 2.401554e-02
<MEAN> 3
 2.412384e-01 -4.359965e+01 -1.000000e+02
<VARIANCE> 3
 1.106194e-02 2.526775e+03 1.000000e-02
<GCONST> 4.238915e+00
<STATE> 4
<NUMMIXES> 2
<MIXTURE> 1 9.868257e-01
<MEAN> 3
 2.690582e+00 3.119294e+00 8.433509e-02
<VARIANCE> 3
 1.421639e+01 9.275878e+00 1.766187e-01
<GCONST> 8.661682e+00
<MIXTURE> 2 1.317342e-02
<MEAN> 3
 4.083235e-01 -4.355870e+01 -1.000000e+02
<VARIANCE> 3
 2.583262e-02 2.526161e+03 1.000000e-02
<GCONST> 5.086800e+00
<STATE> 5
<NUMMIXES> 2
<MIXTURE> 1 9.819003e-01
<MEAN> 3
 9.533842e-01 4.273316e+00 4.250017e+00
<VARIANCE> 3
 2.565591e+00 7.755468e+00 9.197056e+00
<GCONST> 1.072310e+01
<MIXTURE> 2 1.810032e-02
<MEAN> 3
 6.090142e-01 -4.331172e+01 -1.000000e+02
<VARIANCE> 3
 6.245171e-02 2.524099e+03 1.000000e-02
<GCONST> 5.968740e+00
<STATE> 6
<NUMMIXES> 2
<MIXTURE> 1 5.381369e-02
<MEAN> 3
 4.109524e+00 6.760590e+00 3.313680e+02
<VARIANCE> 3
 1.033701e+01 6.826219e+00 7.930105e+04
<GCONST> 2.105114e+01
<MIXTURE> 2 9.461778e-01
<MEAN> 3
 4.157948e+00 1.106364e+00 -1.000000e+02
<VARIANCE> 3
 8.506166e+00 5.189916e+01 1.000000e-02
<GCONST> 6.998555e+00
<STATE> 7
<NUMMIXES> 2
<MIXTURE> 1 2.506678e-02
<MEAN> 3
 6.431753e+00 3.106303e+02 2.197858e+02
<VARIANCE> 3
 8.561673e+00 7.140105e+04 2.084928e+04
<GCONST> 2.878207e+01
<MIXTURE> 2 9.749314e-01
<MEAN> 3
 -1.802235e+00 -1.000000e+02 -1.000000e+02
<VARIANCE> 3
 2.350846e+01 1.000000e-02 1.000000e-02
<GCONST> -5.393486e-01
<TRANSP> 8
 0.000000e+00 1.000000e+00 0.000000e+00 0.000000e+00 0.000000e+00 0.000000e+00 0.000000e+00 0.000000e+00
 0.000000e+00 9.826450e-01 1.735499e-02 0.000000e+00 0.000000e+00 0.000000e+00 0.000000e+00 0.000000e+00
 0.000000e+00 0.000000e+00 9.511383e-01 4.886165e-02 0.000000e+00 0.000000e+00 0.000000e+00 0.000000e+00
 0.000000e+00 0.000000e+00 0.000000e+00 9.732227e-01 2.677734e-02 0.000000e+00 0.000000e+00 0.000000e+00
 0.000000e+00 0.000000e+00 0.000000e+00 0.000000e+00 9.634064e-01 3.659362e-02 0.000000e+00 0.000000e+00
 0.000000e+00 0.000000e+00 0.000000e+00 0.000000e+00 0.000000e+00 9.810743e-01 1.892569e-02 0.000000e+00
 0.000000e+00 0.000000e+00 0.000000e+00 0.000000e+00 0.000000e+00 0.000000e+00 9.925123e-01 7.487597e-03
 0.000000e+00 0.000000e+00 0.000000e+00 0.000000e+00 0.000000e+00 0.000000e+00 0.000000e+00 0.000000e+00
<ENDHMM>
~h "sil"
<BEGINHMM>
<NUMSTATES> 8
<STATE> 2
<NUMMIXES> 2
<MIXTURE> 1 9.156498e-01
<MEAN> 3
 9.383718e+00 -1.956915e-04 1.835882e-03
<VARIANCE> 3
 5.039988e+00 1.000000e-02 1.000000e-02
<GCONST> -2.079306e+00
<MIXTURE> 2 8.435003e-02
<MEAN> 3
 7.484825e+00 -1.740376e+01 -1.665173e+01
<VARIANCE> 3
 7.094752e+00 9.836813e+02 9.993580e+02
<GCONST> 2.127140e+01
<STATE> 3
<NUMMIXES> 2
<MIXTURE> 1 3.455226e-01
<MEAN> 3
 1.045819e+01 1.100931e+00 -2.514482e-01
<VARIANCE> 3
 3.076678e+00 2.276288e+00 1.425250e+00
<GCONST> 7.814375e+00
<MIXTURE> 2 6.544772e-01
<MEAN> 3
 5.569499e+00 -5.396788e+01 -5.543784e+01
<VARIANCE> 3
 8.944480e+00 2.627257e+03 2.459128e+03
<GCONST> 2.338593e+01
<STATE> 4
<NUMMIXES> 2
<MIXTURE> 1 8.884741e-02
<MEAN> 3
 7.537175e+00 -2.096847e+01 -1.861523e+01
<VARIANCE> 3
 1.220209e+01 1.832898e+03 1.954468e+03
<GCONST> 2.310677e+01
<MIXTURE> 2 9.111502e-01
<MEAN> 3
 7.854755e+00 5.083751e-03 3.664126e+00
<VARIANCE> 3
 1.404149e+01 1.000000e-02 9.862868e+00
<GCONST> 5.839254e+00
<STATE> 5
<NUMMIXES> 2
<MIXTURE> 1 3.042647e-02
<MEAN> 3
 5.139368e+00 -6.749856e+01 -6.660020e+01
<VARIANCE> 3
 9.008248e+00 2.205831e+03 2.333050e+03
<GCONST> 2.316556e+01
<MIXTURE> 2 9.695733e-01
<MEAN> 3
 6.795171e+00 4.730983e+00 2.492842e-03
<VARIANCE> 3
 7.359970e+00 7.476989e+00 1.000000e-02
<GCONST> 4.916348e+00
<STATE> 6
<NUMMIXES> 2
<MIXTURE> 1 5.476896e-02
<MEAN> 3
 4.918877e+00 -6.199658e+01 -6.411004e+01
<VARIANCE> 3
 7.265704e+00 2.531929e+03 2.259001e+03
<GCONST> 2.305621e+01
<MIXTURE> 2 9.452298e-01
<MEAN> 3
 6.313653e+00 1.234619e+00 3.984282e+00
<VARIANCE> 3
 6.087337e+00 8.305587e-01 5.955819e+00
<GCONST> 8.918554e+00
<STATE> 7
<NUMMIXES> 2
<MIXTURE> 1 9.530666e-02
<MEAN> 3
 5.176241e+00 -5.420993e+01 -5.397830e+01
<VARIANCE> 3
 8.689362e+00 2.605500e+03 2.634600e+03
<GCONST> 2.341760e+01
<MIXTURE> 2 9.046934e-01
<MEAN> 3
 5.634960e+00 1.797744e-03 -7.707153e+00
<VARIANCE> 3
 5.274408e+00 1.000000e-02 1.030146e+01
<GCONST> 4.903613e+00
<TRANSP> 8
 0.000000e+00 1.000000e+00 0.000000e+00 0.000000e+00 0.000000e+00 0.000000e+00 0.000000e+00 0.000000e+00
 0.000000e+00 9.791046e-01 2.089534e-02 0.000000e+00 0.000000e+00 0.000000e+00 0.000000e+00 0.000000e+00
 0.000000e+00 0.000000e+00 2.758309e-01 7.241691e-01 0.000000e+00 0.000000e+00 0.000000e+00 0.000000e+00
 0.000000e+00 0.000000e+00 0.000000e+00 9.597095e-01 4.029043e-02 0.000000e+00 0.000000e+00 0.000000e+00
 0.000000e+00 0.000000e+00 0.000000e+00 0.000000e+00 9.588488e-01 4.115120e-02 0.000000e+00 0.000000e+00
 0.000000e+00 0.000000e+00 0.000000e+00 0.000000e+00 0.000000e+00 9.302501e-01 6.974988e-02 0.000000e+00
 0.000000e+00 0.000000e+00 0.000000e+00 0.000000e+00 0.000000e+00 0.000000e+00 8.943827e-01 1.056174e-01
 0.000000e+00 0.000000e+00 0.000000e+00 0.000000e+00 0.000000e+00 0.000000e+00 0.000000e+00 0.000000e+00
<ENDHMM>
