~o
<STREAMINFO> 1 1
<VECSIZE> 1<NULLD><USER><DIAGC>
~h "a"
<BEGINHMM>
<NUMSTATES> 8
<STATE> 2
<MEAN> 1
 3.197871e+00
<VARIANCE> 1
 3.344165e+00
<GCONST> 3.045094e+00
<STATE> 3
<MEAN> 1
 9.652106e+00
<VARIANCE> 1
 2.968508e+00
<GCONST> 2.925936e+00
<STATE> 4
<MEAN> 1
 3.057831e+00
<VARIANCE> 1
 4.316265e+00
<GCONST> 3.300267e+00
<STATE> 5
<MEAN> 1
 5.173540e+00
<VARIANCE> 1
 1.289612e+00
<GCONST> 2.092219e+00
<STATE> 6
<MEAN> 1
 1.814310e+00
<VARIANCE> 1
 8.954604e-01
<GCONST> 1.727460e+00
<STATE> 7
<MEAN> 1
 2.077105e-03
<VARIANCE> 1
 1.000000e-02
<GCONST> -2.767293e+00
<TRANSP> 8
 0.000000e+00 1.000000e+00 0.000000e+00 0.000000e+00 0.000000e+00 0.000000e+00 0.000000e+00 0.000000e+00
 0.000000e+00 9.343172e-01 6.568284e-02 0.000000e+00 0.000000e+00 0.000000e+00 0.000000e+00 0.000000e+00
 0.000000e+00 0.000000e+00 9.827573e-01 1.724273e-02 0.000000e+00 0.000000e+00 0.000000e+00 0.000000e+00
 0.000000e+00 0.000000e+00 0.000000e+00 8.269108e-01 1.730892e-01 0.000000e+00 0.000000e+00 0.000000e+00
 0.000000e+00 0.000000e+00 0.000000e+00 0.000000e+00 9.694510e-01 3.054901e-02 0.000000e+00 0.000000e+00
 0.000000e+00 0.000000e+00 0.000000e+00 0.000000e+00 0.000000e+00 9.515491e-01 4.845097e-02 0.000000e+00
 0.000000e+00 0.000000e+00 0.000000e+00 0.000000e+00 0.000000e+00 0.000000e+00 9.919229e-01 8.077123e-03
 0.000000e+00 0.000000e+00 0.000000e+00 0.000000e+00 0.000000e+00 0.000000e+00 0.000000e+00 0.000000e+00
<ENDHMM>
~h "e"
<BEGINHMM>
<NUMSTATES> 8
<STATE> 2
<MEAN> 1
 -1.406072e-03
<VARIANCE> 1
 1.000000e-02
<GCONST> -2.767293e+00
<STATE> 3
<MEAN> 1
 -8.025082e-01
<VARIANCE> 1
 1.599357e-01
<GCONST> 4.893661e-03
<STATE> 4
<MEAN> 1
 -2.563604e+00
<VARIANCE> 1
 8.164637e-01
<GCONST> 1.635104e+00
<STATE> 5
<MEAN> 1
 -5.383988e+00
<VARIANCE> 1
 4.666082e+00
<GCONST> 3.378197e+00
<STATE> 6
<MEAN> 1
 -5.899572e+00
<VARIANCE> 1
 5.071383e-01
<GCONST> 1.158906e+00
<STATE> 7
<MEAN> 1
 -8.691335e+00
<VARIANCE> 1
 9.985713e-01
<GCONST> 1.836447e+00
<TRANSP> 8
 0.000000e+00 1.000000e+00 0.000000e+00 0.000000e+00 0.000000e+00 0.000000e+00 0.000000e+00 0.000000e+00
 0.000000e+00 9.921899e-01 7.810074e-03 0.000000e+00 0.000000e+00 0.000000e+00 0.000000e+00 0.000000e+00
 0.000000e+00 0.000000e+00 9.437185e-01 5.628147e-02 0.000000e+00 0.000000e+00 0.000000e+00 0.000000e+00
 0.000000e+00 0.000000e+00 0.000000e+00 9.480894e-01 5.191057e-02 0.000000e+00 0.000000e+00 0.000000e+00
 0.000000e+00 0.000000e+00 0.000000e+00 0.000000e+00 8.492501e-01 1.507499e-01 0.000000e+00 0.000000e+00
 0.000000e+00 0.000000e+00 0.000000e+00 0.000000e+00 0.000000e+00 9.503472e-01 4.965270e-02 0.000000e+00
 0.000000e+00 0.000000e+00 0.000000e+00 0.000000e+00 0.000000e+00 0.000000e+00 9.688194e-01 3.118061e-02
 0.000000e+00 0.000000e+00 0.000000e+00 0.000000e+00 0.000000e+00 0.000000e+00 0.000000e+00 0.000000e+00
<ENDHMM>
~h "i"
<BEGINHMM>
<NUMSTATES> 8
<STATE> 2
<MEAN> 1
 -1.018268e+01
<VARIANCE> 1
 6.023328e-01
<GCONST> 1.330932e+00
<STATE> 3
<MEAN> 1
 -7.299782e+00
<VARIANCE> 1
 2.708878e+00
<GCONST> 2.834412e+00
<STATE> 4
<MEAN> 1
 -3.275103e+00
<VARIANCE> 1
 4.931262e-01
<GCONST> 1.130887e+00
<STATE> 5
<MEAN> 1
 -2.129424e+00
<VARIANCE> 1
 9.532040e-02
<GCONST> -5.126343e-01
<STATE> 6
<MEAN> 1
 -9.814852e-01
<VARIANCE> 1
 2.383971e-01
<GCONST> 4.040596e-01
<STATE> 7
<MEAN> 1
 -5.145087e-02
<VARIANCE> 1
 1.000000e-02
<GCONST> -2.767293e+00
<TRANSP> 8
 0.000000e+00 1.000000e+00 0.000000e+00 0.000000e+00 0.000000e+00 0.000000e+00 0.000000e+00 0.000000e+00
 0.000000e+00 9.891067e-01 1.089327e-02 0.000000e+00 0.000000e+00 0.000000e+00 0.000000e+00 0.000000e+00
 0.000000e+00 0.000000e+00 9.724359e-01 2.756407e-02 0.000000e+00 0.000000e+00 0.000000e+00 0.000000e+00
 0.000000e+00 0.000000e+00 0.000000e+00 6.930946e-01 3.069054e-01 0.000000e+00 0.000000e+00 0.000000e+00
 0.000000e+00 0.000000e+00 0.000000e+00 0.000000e+00 0.000000e+00 1.000000e+00 0.000000e+00 0.000000e+00
 0.000000e+00 0.000000e+00 0.000000e+00 0.000000e+00 0.000000e+00 7.746652e-01 2.253348e-01 0.000000e+00
 0.000000e+00 0.000000e+00 0.000000e+00 0.000000e+00 0.000000e+00 0.000000e+00 7.501174e-01 2.498825e-01
 0.000000e+00 0.000000e+00 0.000000e+00 0.000000e+00 0.000000e+00 0.000000e+00 0.000000e+00 0.000000e+00
<ENDHMM>
~h "m"
<BEGINHMM>
<NUMSTATES> 8
<STATE> 2
<MEAN> 1
 8.903170e-04
<VARIANCE> 1
 1.000000e-02
<GCONST> -2.767293e+00
<STATE> 3
<MEAN> 1
 1.000030e+00
<VARIANCE> 1
 1.479235e-01
<GCONST> -7.318294e-02
<STATE> 4
<MEAN> 1
 1.215676e+00
<VARIANCE> 1
 1.122476e+00
<GCONST> 1.953414e+00
<STATE> 5
<MEAN> 1
 2.772670e+00
<VARIANCE> 1
 4.664268e-01
<GCONST> 1.075223e+00
<STATE> 6
<MEAN> 1
 4.921975e+00
<VARIANCE> 1
 6.469061e-01
<GCONST> 1.402323e+00
<STATE> 7
<MEAN> 1
 7.501131e+00
<VARIANCE> 1
 1.249359e+00
<GCONST> 2.060507e+00
<TRANSP> 8
 0.000000e+00 1.000000e+00 0.000000e+00 0.000000e+00 0.000000e+00 0.000000e+00 0.000000e+00 0.000000e+00
 0.000000e+00 9.961714e-01 3.828573e-03 0.000000e+00 0.000000e+00 0.000000e+00 0.000000e+00 0.000000e+00
 0.000000e+00 0.000000e+00 9.416030e-01 5.839697e-02 0.000000e+00 0.000000e+00 0.000000e+00 0.000000e+00
 0.000000e+00 0.000000e+00 0.000000e+00 9.197441e-01 8.025590e-02 0.000000e+00 0.000000e+00 0.000000e+00
 0.000000e+00 0.000000e+00 0.000000e+00 0.000000e+00 9.324957e-01 6.750434e-02 0.000000e+00 0.000000e+00
 0.000000e+00 0.000000e+00 0.000000e+00 0.000000e+00 0.000000e+00 9.455549e-01 5.444513e-02 0.000000e+00
 0.000000e+00 0.000000e+00 0.000000e+00 0.000000e+00 0.000000e+00 0.000000e+00 9.465315e-01 5.346846e-02
 0.000000e+00 0.000000e+00 0.000000e+00 0.000000e+00 0.000000e+00 0.000000e+00 0.000000e+00 0.000000e+00
<ENDHMM>
~h "sil"
<BEGINHMM>
<NUMSTATES> 8
<STATE> 2
<MEAN> 1
 1.209594e+01
<VARIANCE> 1
 1.273221e+01
<GCONST> 4.382011e+00
<STATE> 3
<MEAN> 1
 1.086780e+01
<VARIANCE> 1
 5.887889e-01
<GCONST> 1.308189e+00
<STATE> 4
<MEAN> 1
 9.419901e+00
<VARIANCE> 1
 7.830574e-01
<GCONST> 1.593328e+00
<STATE> 5
<MEAN> 1
 7.529876e+00
<VARIANCE> 1
 1.129688e+00
<GCONST> 1.959818e+00
<STATE> 6
<MEAN> 1
 8.721682e+00
<VARIANCE> 1
 6.809948e+00
<GCONST> 3.756261e+00
<STATE> 7
<MEAN> 1
 5.343156e+00
<VARIANCE> 1
 2.598379e+00
<GCONST> 2.792765e+00
<TRANSP> 8
 0.000000e+00 1.000000e+00 0.000000e+00 0.000000e+00 0.000000e+00 0.000000e+00 0.000000e+00 0.000000e+00
 0.000000e+00 9.495741e-01 5.042589e-02 0.000000e+00 0.000000e+00 0.000000e+00 0.000000e+00 0.000000e+00
 0.000000e+00 0.000000e+00 9.790080e-01 2.099203e-02 0.000000e+00 0.000000e+00 0.000000e+00 0.000000e+00
 0.000000e+00 0.000000e+00 0.000000e+00 9.638672e-01 3.613277e-02 0.000000e+00 0.000000e+00 0.000000e+00
 0.000000e+00 0.000000e+00 0.000000e+00 0.000000e+00 9.343521e-01 6.564792e-02 0.000000e+00 0.000000e+00
 0.000000e+00 0.000000e+00 0.000000e+00 0.000000e+00 0.000000e+00 7.416333e-01 2.583667e-01 0.000000e+00
 0.000000e+00 0.000000e+00 0.000000e+00 0.000000e+00 0.000000e+00 0.000000e+00 9.306696e-01 6.933039e-02
 0.000000e+00 0.000000e+00 0.000000e+00 0.000000e+00 0.000000e+00 0.000000e+00 0.000000e+00 0.000000e+00
<ENDHMM>
