~o
<STREAMINFO> 1 3
<VECSIZE> 3<NULLD><USER><DIAGC>
~h "a"
<BEGINHMM>
<NUMSTATES> 8
<STATE> 2
<NUMMIXES> 2
<MIXTURE> 1 9.765146e-01
<MEAN> 3
 5.788691e+00 4.243706e+00 4.528479e+00
<VARIANCE> 3
 9.355910e+00 7.921648e+00 6.761174e+00
<GCONST> 1.173044e+01
<MIXTURE> 2 2.348655e-02
<MEAN> 3
 3.707745e+00 -1.703440e+00 -1.000000e+02
<VARIANCE> 3
 1.305473e+01 1.066340e+01 1.000000e-02
<GCONST> 5.844429e+00
<STATE> 3
<NUMMIXES> 2
<MIXTURE> 1 9.867731e-01
<MEAN> 3
 3.661229e+00 4.484715e+00 2.992977e-03
<VARIANCE> 3
 9.771544e+00 8.658393e+00 1.000000e-02
<GCONST> 5.346465e+00
<MIXTURE> 2 1.322697e-02
<MEAN> 3
 4.559869e-01 -1.406155e+00 -1.000000e+02
<VARIANCE> 3
 3.061728e-01 4.873911e+00 1.000000e-02
<GCONST> 1.308752e+00
<STATE> 4
<NUMMIXES> 2
<MIXTURE> 1 9.895872e-01
<MEAN> 3
 4.543268e+00 2.710585e-03 3.065824e-04
<VARIANCE> 3
 8.510189e+00 1.000000e-02 1.000000e-02
<GCONST> -1.555445e+00
<MIXTURE> 2 1.041320e-02
<MEAN> 3
 2.983461e-01 -1.581437e+00 -1.000000e+02
<VARIANCE> 3
 1.338084e-01 5.534332e+00 1.000000e-02
<GCONST> 6.080856e-01
<STATE> 5
<NUMMIXES> 2
<MIXTURE> 1 9.604049e-01
<MEAN> 3
 1.231206e+00 -4.147086e+00 1.280471e-01
<VARIANCE> 3
 5.269245e+00 3.154706e+01 3.010133e+00
<GCONST> 1.172898e+01
<MIXTURE> 2 3.959232e-02
<MEAN> 3
 2.506533e-01 -1.493511e+00 -1.000000e+02
<VARIANCE> 3
 9.600171e-02 6.259196e+00 1.000000e-02
<GCONST> 3.991237e-01
<STATE> 6
<NUMMIXES> 2
<MIXTURE> 1 8.151242e-01
<MEAN> 3
 2.075169e-03 -4.082512e-04 -2.623842e-03
<VARIANCE> 3
 1.000000e-02 1.000000e-02 1.000000e-02
<GCONST> -8.301880e+00
<MIXTURE> 2 1.848575e-01
<MEAN> 3
 2.394638e-03 -7.944695e+00 -1.000000e+02
<VARIANCE> 3
 1.000000e-02 5.449051e+00 1.000000e-02
<GCONST> -2.001268e+00
<STATE> 7
<NUMMIXES> 2
<MIXTURE> 1 8.152636e-01
<MEAN> 3
 1.111953e-03 -2.171893e-01 -6.459373e-01
<VARIANCE> 3
 1.000000e-02 1.740165e-01 2.610384e-01
<GCONST> -2.183232e+00
<MIXTURE> 2 1.847343e-01
<MEAN> 3
 -8.639703e-03 -6.200622e-01 -1.000000e+02
<VARIANCE> 3
 1.000000e-02 7.476749e+00 1.000000e-02
<GCONST> -1.684911e+00
<TRANSP> 8
 0.000000e+00 1.000000e+00 0.000000e+00 0.000000e+00 0.000000e+00 0.000000e+00 0.000000e+00 0.000000e+00
 0.000000e+00 9.714566e-01 2.854334e-02 0.000000e+00 0.000000e+00 0.000000e+00 0.000000e+00 0.000000e+00
 0.000000e+00 0.000000e+00 9.685649e-01 3.143518e-02 0.000000e+00 0.000000e+00 0.000000e+00 0.000000e+00
 0.000000e+00 0.000000e+00 0.000000e+00 9.748739e-01 2.512612e-02 0.000000e+00 0.000000e+00 0.000000e+00
 0.000000e+00 0.000000e+00 0.000000e+00 0.000000e+00 9.190799e-01 8.092011e-02 0.000000e+00 0.000000e+00
 0.000000e+00 0.000000e+00 0.000000e+00 0.000000e+00 0.000000e+00 9.856648e-01 1.433514e-02 0.000000e+00
 0.000000e+00 0.000000e+00 0.000000e+00 0.000000e+00 0.000000e+00 0.000000e+00 9.003235e-01 9.967656e-02
 0.000000e+00 0.000000e+00 0.000000e+00 0.000000e+00 0.000000e+00 0.000000e+00 0.000000e+00 0.000000e+00
<ENDHMM>
~h "e"
<BEGINHMM>
<NUMSTATES> 8
<STATE> 2
<NUMMIXES> 2
<MIXTURE> 1 9.849068e-01
<MEAN> 3
 9.535264e-06 -4.314966e-03 -6.064216e+00
<VARIANCE> 3
 1.000000e-02 1.000000e-02 1.691922e+01
<GCONST> -8.682592e-01
<MIXTURE> 2 1.509344e-02
<MEAN> 3
 -1.466872e-01 -3.018845e+00 -1.000000e+02
<VARIANCE> 3
 3.213541e-02 1.868128e+01 1.000000e-02
<GCONST> 3.981862e-01
<STATE> 3
<NUMMIXES> 2
<MIXTURE> 1 1.706285e-01
<MEAN> 3
 -5.165499e-01 -1.472974e-01 -4.852353e+00
<VARIANCE> 3
 2.141754e-01 5.759347e-02 1.825851e+01
<GCONST> 4.022957e+00
<MIXTURE> 2 8.293732e-01
<MEAN> 3
 -1.653162e+00 -3.887301e+00 -1.000000e+02
<VARIANCE> 3
 1.207370e+00 1.692889e+01 1.000000e-02
<GCONST> 3.925927e+00
<STATE> 4
<NUMMIXES> 2
<MIXTURE> 1 9.850447e-01
<MEAN> 3
 -4.142521e-03 -5.881088e+00 -7.715730e+00
<VARIANCE> 3
 1.000000e-02 1.289527e+01 8.528058e+00
<GCONST> 5.608683e+00
<MIXTURE> 2 1.495600e-02
<MEAN> 3
 -2.119022e+00 -2.846622e+00 -1.000000e+02
<VARIANCE> 3
 3.933815e+00 1.618566e+01 1.000000e-02
<GCONST> 5.062197e+00
<STATE> 5
<NUMMIXES> 2
<MIXTURE> 1 1.320040e-01
<MEAN> 3
 -3.117942e+00 -1.971595e+00 -1.194481e+00
<VARIANCE> 3
 4.075324e+00 5.309593e+00 4.758096e+00
<GCONST> 1.014794e+01
<MIXTURE> 2 8.679934e-01
<MEAN> 3
 -8.642459e+00 -4.293975e+00 -1.000000e+02
<VARIANCE> 3
 4.058505e+00 1.985165e+01 1.000000e-02
<GCONST> 5.297563e+00
<STATE> 6
<NUMMIXES> 2
<MIXTURE> 1 9.488354e-01
<MEAN> 3
 -2.448962e+00 -8.020808e+00 -7.988904e+00
<VARIANCE> 3
 2.783349e+00 6.144163e+00 7.260118e+00
<GCONST> 1.033519e+01
<MIXTURE> 2 5.116436e-02
<MEAN> 3
 -2.535389e+00 -6.507545e-01 -1.000000e+02
<VARIANCE> 3
 5.370579e+00 7.678044e+00 1.000000e-02
<GCONST> 4.627762e+00
<STATE> 7
<NUMMIXES> 2
<MIXTURE> 1 9.869331e-01
<MEAN> 3
 -9.074552e+00 -8.390071e+00 -7.990595e+00
<VARIANCE> 3
 4.109081e+00 7.223018e+00 8.260612e+00
<GCONST> 1.101560e+01
<MIXTURE> 2 1.306670e-02
<MEAN> 3
 -1.831604e+00 -6.750875e-01 -1.000000e+02
<VARIANCE> 3
 3.448157e+00 7.841931e+00 1.000000e-02
<GCONST> 4.205786e+00
<TRANSP> 8
 0.000000e+00 1.000000e+00 0.000000e+00 0.000000e+00 0.000000e+00 0.000000e+00 0.000000e+00 0.000000e+00
 0.000000e+00 9.662467e-01 3.375335e-02 0.000000e+00 0.000000e+00 0.000000e+00 0.000000e+00 0.000000e+00
 0.000000e+00 0.000000e+00 8.851826e-01 1.148175e-01 0.000000e+00 0.000000e+00 0.000000e+00 0.000000e+00
 0.000000e+00 0.000000e+00 0.000000e+00 9.674396e-01 3.256036e-02 0.000000e+00 0.000000e+00 0.000000e+00
 0.000000e+00 0.000000e+00 0.000000e+00 0.000000e+00 9.791062e-01 2.089375e-02 0.000000e+00 0.000000e+00
 0.000000e+00 0.000000e+00 0.000000e+00 0.000000e+00 0.000000e+00 8.999656e-01 1.000344e-01 0.000000e+00
 0.000000e+00 0.000000e+00 0.000000e+00 0.000000e+00 0.000000e+00 0.000000e+00 9.713768e-01 2.862318e-02
 0.000000e+00 0.000000e+00 0.000000e+00 0.000000e+00 0.000000e+00 0.000000e+00 0.000000e+00 0.000000e+00
<ENDHMM>
~h "i"
<BEGINHMM>
<NUMSTATES> 8
<STATE> 2
<NUMMIXES> 2
<MIXTURE> 1 7.792804e-01
<MEAN> 3
 -3.542571e-01 -3.843992e+00 -6.652448e+00
<VARIANCE> 3
 5.458527e+00 1.935819e+01 1.780204e+01
<GCONST> 1.305324e+01
<MIXTURE> 2 2.207250e-01
<MEAN> 3
 -3.857803e-01 -1.803779e+00 -1.000000e+02
<VARIANCE> 3
 8.403385e-01 4.254631e+01 1.000000e-02
<GCONST> 4.485104e+00
<STATE> 3
<NUMMIXES> 2
<MIXTURE> 1 9.878654e-01
<MEAN> 3
 -6.261857e+00 -8.323239e+00 -3.109877e-03
<VARIANCE> 3
 1.668111e+01 6.632819e+00 1.000000e-02
<GCONST> 5.614768e+00
<MIXTURE> 2 1.213615e-02
<MEAN> 3
 -8.874183e-01 -1.087330e-01 -1.000000e+02
<VARIANCE> 3
 1.201992e+00 4.898549e-01 1.000000e-02
<GCONST> 3.787951e-01
<STATE> 4
<NUMMIXES> 2
<MIXTURE> 1 8.776940e-01
<MEAN> 3
 -5.678727e+00 -1.852431e-03 2.622544e+00
<VARIANCE> 3
 1.701108e+01 2.356086e-02 8.452116e+00
<GCONST> 6.733745e+00
<MIXTURE> 2 1.223051e-01
<MEAN> 3
 -3.678566e+00 4.749895e-01 -1.000000e+02
<VARIANCE> 3
 1.363946e+01 9.828008e-01 1.000000e-02
<GCONST> 3.504079e+00
<STATE> 5
<NUMMIXES> 2
<MIXTURE> 1 9.867718e-01
<MEAN> 3
 -8.204377e+00 -1.415093e-03 9.744643e-04
<VARIANCE> 3
 6.785802e+00 1.000000e-02 1.000000e-02
<GCONST> -1.781877e+00
<MIXTURE> 2 1.322864e-02
<MEAN> 3
 -3.661633e-01 6.363210e-03 -1.000000e+02
<VARIANCE> 3
 2.281056e-01 1.261849e-01 1.000000e-02
<GCONST> -2.639492e+00
<STATE> 6
<NUMMIXES> 2
<MIXTURE> 1 9.077830e-01
<MEAN> 3
 -2.876261e+00 2.356372e+00 -1.353918e+00
<VARIANCE> 3
 1.652846e+01 7.467138e+00 1.442268e+01
<GCONST> 1.299803e+01
<MIXTURE> 2 9.221724e-02
<MEAN> 3
 -4.096019e-01 1.786393e-02 -1.000000e+02
<VARIANCE> 3
 1.612101e-01 4.875233e-02 1.000000e-02
<GCONST> -3.937588e+00
<STATE> 7
<NUMMIXES> 2
<MIXTURE> 1 4.267044e-01
<MEAN> 3
 -2.097338e-03 7.763668e-04 1.662863e-03
<VARIANCE> 3
 1.000000e-02 1.000000e-02 1.000000e-02
<GCONST> -8.301880e+00
<MIXTURE> 2 5.732132e-01
<MEAN> 3
 -3.848760e-04 -1.827405e-05 -1.000000e+02
<VARIANCE> 3
 1.000000e-02 1.000000e-02 1.000000e-02
<GCONST> -8.301880e+00
<TRANSP> 8
 0.000000e+00 1.000000e+00 0.000000e+00 0.000000e+00 0.000000e+00 0.000000e+00 0.000000e+00 0.000000e+00
 0.000000e+00 8.903134e-01 1.096867e-01 0.000000e+00 0.000000e+00 0.000000e+00 0.000000e+00 0.000000e+00
 0.000000e+00 0.000000e+00 9.732804e-01 2.671959e-02 0.000000e+00 0.000000e+00 0.000000e+00 0.000000e+00
 0.000000e+00 0.000000e+00 0.000000e+00 8.911976e-01 1.088024e-01 0.000000e+00 0.000000e+00 0.000000e+00
 0.000000e+00 0.000000e+00 0.000000e+00 0.000000e+00 9.718753e-01 2.812468e-02 0.000000e+00 0.000000e+00
 0.000000e+00 0.000000e+00 0.000000e+00 0.000000e+00 0.000000e+00 8.753250e-01 1.246750e-01 0.000000e+00
 0.000000e+00 0.000000e+00 0.000000e+00 0.000000e+00 0.000000e+00 0.000000e+00 9.929913e-01 7.008711e-03
 0.000000e+00 0.000000e+00 0.000000e+00 0.000000e+00 0.000000e+00 0.000000e+00 0.000000e+00 0.000000e+00
<ENDHMM>
~h "m"
<BEGINHMM>
<NUMSTATES> 8
<STATE> 2
<NUMMIXES> 2
<MIXTURE> 1 9.766361e-01
<MEAN> 3
 5.725626e-04 5.810543e-03 2.538831e+00
<VARIANCE> 3
 1.000000e-02 1.000000e-02 1.208329e+01
<GCONST> -1.204885e+00
<MIXTURE> 2 2.336277e-02
<MEAN> 3
 1.428929e-02 -3.752834e-02 -1.000000e+02
<VARIANCE> 3
 1.000000e-02 1.158496e-01 1.000000e-02
<GCONST> -5.852172e+00
<STATE> 3
<NUMMIXES> 2
<MIXTURE> 1 9.811988e-01
<MEAN> 3
 3.474905e-03 2.420640e+00 2.227745e+00
<VARIANCE> 3
 1.000000e-02 3.155941e+00 8.974296e+00
<GCONST> 4.252112e+00
<MIXTURE> 2 1.880589e-02
<MEAN> 3
 3.955821e-02 -8.649925e-02 -1.000000e+02
<VARIANCE> 3
 1.000000e-02 2.294000e-01 1.000000e-02
<GCONST> -5.168997e+00
<STATE> 4
<NUMMIXES> 2
<MIXTURE> 1 3.706037e-01
<MEAN> 3
 2.506579e+00 2.293713e-01 -2.333952e+00
<VARIANCE> 3
 3.167901e+00 4.267057e-01 2.503263e+01
<GCONST> 9.035220e+00
<MIXTURE> 2 6.293969e-01
<MEAN> 3
 4.744995e-03 2.331284e+00 -1.000000e+02
<VARIANCE> 3
 1.000000e-02 1.341906e+01 1.000000e-02
<GCONST> -1.100033e+00
<STATE> 5
<NUMMIXES> 2
<MIXTURE> 1 9.474585e-01
<MEAN> 3
 1.999300e+00 4.266119e+00 2.822613e+00
<VARIANCE> 3
 1.895100e+00 5.125642e+00 7.103202e+00
<GCONST> 9.747705e+00
<MIXTURE> 2 5.254688e-02
<MEAN> 3
 2.560664e-01 3.275549e-01 -1.000000e+02
<VARIANCE> 3
 6.755259e-02 4.794405e+00 1.000000e-02
<GCONST> -2.189379e-01
<STATE> 6
<NUMMIXES> 2
<MIXTURE> 1 8.401004e-03
<MEAN> 3
 1.770955e+00 2.788922e+00 6.965015e-01
<VARIANCE> 3
 3.958862e+00 6.200065e+00 1.743187e+00
<GCONST> 9.269863e+00
<MIXTURE> 2 9.916036e-01
<MEAN> 3
 3.695759e+00 1.390242e+00 -1.000000e+02
<VARIANCE> 3
 7.236581e+00 7.057852e+00 1.000000e-02
<GCONST> 4.841751e+00
<STATE> 7
<NUMMIXES> 2
<MIXTURE> 1 3.858613e-01
<MEAN> 3
 1.859938e+00 2.898646e+00 6.836855e-01
<VARIANCE> 3
 4.246816e+00 6.651151e+00 1.637167e+00
<GCONST> 9.347558e+00
<MIXTURE> 2 6.141380e-01
<MEAN> 3
 1.756095e+00 6.811375e-01 -1.000000e+02
<VARIANCE> 3
 6.547449e+00 9.277099e+00 1.000000e-02
<GCONST> 5.015085e+00
<TRANSP> 8
 0.000000e+00 1.000000e+00 0.000000e+00 0.000000e+00 0.000000e+00 0.000000e+00 0.000000e+00 0.000000e+00
 0.000000e+00 9.537007e-01 4.629932e-02 0.000000e+00 0.000000e+00 0.000000e+00 0.000000e+00 0.000000e+00
 0.000000e+00 0.000000e+00 9.626864e-01 3.731366e-02 0.000000e+00 0.000000e+00 0.000000e+00 0.000000e+00
 0.000000e+00 0.000000e+00 0.000000e+00 9.553838e-01 4.461615e-02 0.000000e+00 0.000000e+00 0.000000e+00
 0.000000e+00 0.000000e+00 0.000000e+00 0.000000e+00 9.209776e-01 7.902249e-02 0.000000e+00 0.000000e+00
 0.000000e+00 0.000000e+00 0.000000e+00 0.000000e+00 0.000000e+00 9.784445e-01 2.155554e-02 0.000000e+00
 0.000000e+00 0.000000e+00 0.000000e+00 0.000000e+00 0.000000e+00 0.000000e+00 4.520165e-04 9.995480e-01
 0.000000e+00 0.000000e+00 0.000000e+00 0.000000e+00 0.000000e+00 0.000000e+00 0.000000e+00 0.000000e+00
<ENDHMM>
~h "sil"
<BEGINHMM>
<NUMSTATES> 8
<STATE> 2
<NUMMIXES> 2
<MIXTURE> 1 9.270031e-01
<MEAN> 3
 9.393701e+00 3.193762e+00 1.103577e+00
<VARIANCE> 3
 6.827340e+00 6.216842e+00 3.225649e+00
<GCONST> 1.043296e+01
<MIXTURE> 2 7.299678e-02
<MEAN> 3
 4.971493e+00 -1.459049e+00 -5.411743e+01
<VARIANCE> 3
 1.014623e+01 4.364322e+01 2.357210e+03
<GCONST> 1.937202e+01
<STATE> 3
<NUMMIXES> 2
<MIXTURE> 1 3.794717e-02
<MEAN> 3
 4.870574e+00 3.392509e+00 -6.850014e+01
<VARIANCE> 3
 1.416778e+01 5.301973e+00 2.181318e+03
<GCONST> 1.752037e+01
<MIXTURE> 2 9.620526e-01
<MEAN> 3
 9.250533e+00 -4.085109e-04 3.914049e-03
<VARIANCE> 3
 3.165309e+00 1.000000e-02 1.000000e-02
<GCONST> -2.544458e+00
<STATE> 4
<NUMMIXES> 2
<MIXTURE> 1 2.272240e-02
<MEAN> 3
 4.255667e+00 4.095234e+00 -8.652142e+01
<VARIANCE> 3
 1.464563e+01 4.075266e+00 1.163797e+03
<GCONST> 1.666215e+01
<MIXTURE> 2 9.772775e-01
<MEAN> 3
 8.429607e+00 2.521570e-03 3.267591e+00
<VARIANCE> 3
 7.540850e+00 1.000000e-02 7.800704e+00
<GCONST> 4.983010e+00
<STATE> 5
<NUMMIXES> 2
<MIXTURE> 1 6.558650e-02
<MEAN> 3
 4.215175e+00 4.115891e+00 -8.651546e+01
<VARIANCE> 3
 1.469769e+01 4.147566e+00 1.191151e+03
<GCONST> 1.670652e+01
<MIXTURE> 2 9.344136e-01
<MEAN> 3
 6.133614e+00 9.463377e-03 -7.245168e+00
<VARIANCE> 3
 7.811311e+00 1.000000e-02 1.433279e+01
<GCONST> 5.626584e+00
<STATE> 6
<NUMMIXES> 2
<MIXTURE> 1 9.982683e-01
<MEAN> 3
 -1.017384e+00 -1.000000e+02 -1.000000e+02
<VARIANCE> 3
 1.539800e+01 1.000000e-02 1.000000e-02
<GCONST> -9.624710e-01
<MIXTURE> 2 1.732009e-03
<MEAN> 3
 8.561801e+00 1.258478e+00 2.166857e+00
<VARIANCE> 3
 6.401180e+00 2.715734e+00 3.808001e+00
<GCONST> 9.706281e+00
<STATE> 7
<NUMMIXES> 2
<MIXTURE> 1 9.381818e-01
<MEAN> 3
 8.658137e+00 4.461710e+00 2.660420e-03
<VARIANCE> 3
 1.154240e+01 1.011905e+01 1.000000e-02
<GCONST> 5.668908e+00
<MIXTURE> 2 6.181785e-02
<MEAN> 3
 5.273888e+00 -6.329747e+01 -6.232756e+01
<VARIANCE> 3
 9.147146e+00 2.366170e+03 2.493362e+03
<GCONST> 2.331749e+01
<TRANSP> 8
 0.000000e+00 1.000000e+00 0.000000e+00 0.000000e+00 0.000000e+00 0.000000e+00 0.000000e+00 0.000000e+00
 0.000000e+00 9.230647e-01 7.693532e-02 0.000000e+00 0.000000e+00 0.000000e+00 0.000000e+00 0.000000e+00
 0.000000e+00 0.000000e+00 9.479212e-01 5.207879e-02 0.000000e+00 0.000000e+00 0.000000e+00 0.000000e+00
 0.000000e+00 0.000000e+00 0.000000e+00 9.607055e-01 3.929449e-02 0.000000e+00 0.000000e+00 0.000000e+00
 0.000000e+00 0.000000e+00 0.000000e+00 0.000000e+00 8.862450e-01 1.137550e-01 0.000000e+00 0.000000e+00
 0.000000e+00 0.000000e+00 0.000000e+00 0.000000e+00 0.000000e+00 9.979995e-01 2.000468e-03 0.000000e+00
 0.000000e+00 0.000000e+00 0.000000e+00 0.000000e+00 0.000000e+00 0.000000e+00 9.212193e-01 7.878070e-02
 0.000000e+00 0.000000e+00 0.000000e+00 0.000000e+00 0.000000e+00 0.000000e+00 0.000000e+00 0.000000e+00
<ENDHMM>
