~o
<STREAMINFO> 1 3
<VECSIZE> 3<NULLD><USER><DIAGC>
~h "a"
<BEGINHMM>
<NUMSTATES> 8
<STATE> 2
<NUMMIXES> 2
<MIXTURE> 1 6.032770e-01
<MEAN> 3
 3.826991e+00 3.738587e+00 1.929856e+00
<VARIANCE> 3
 8.792937e+00 5.711481e+00 1.003167e+01
<GCONST> 1.173581e+01
<MIXTURE> 2 3.967224e-01
<MEAN> 3
 2.106856e-01 -5.463618e+01 -1.000000e+02
<VARIANCE> 3
 5.062518e-01 2.498792e+03 1.000000e-02
<GCONST> 8.051303e+00
<STATE> 3
<NUMMIXES> 2
<MIXTURE> 1 9.927467e-03
<MEAN> 3
 3.146990e+00 2.976065e+00 -2.138233e+01
<VARIANCE> 3
 8.691200e+00 8.960299e+00 1.841079e+03
<GCONST> 1.738685e+01
<MIXTURE> 2 9.900719e-01
<MEAN> 3
 -5.890260e-04 -1.000000e+02 -1.000000e+02
<VARIANCE> 3
 1.000000e-02 1.000000e-02 1.000000e-02
<GCONST> -8.301880e+00
<STATE> 4
<NUMMIXES> 2
<MIXTURE> 1 9.914283e-01
<MEAN> 3
 5.245139e+00 5.764479e+00 4.445593e+00
<VARIANCE> 3
 9.704255e+00 6.531059e+00 8.260858e+00
<GCONST> 1.177429e+01
<MIXTURE> 2 8.571670e-03
<MEAN> 3
 1.718054e-01 -5.459962e+01 -1.000000e+02
<VARIANCE> 3
 4.439388e-02 2.496514e+03 1.000000e-02
<GCONST> 5.616458e+00
<STATE> 5
<NUMMIXES> 2
<MIXTURE> 1 9.737131e-01
<MEAN> 3
 1.711323e+00 1.183595e-01 -5.747294e-01
<VARIANCE> 3
 5.653142e+00 3.568369e-01 4.044817e+01
<GCONST> 9.915388e+00
<MIXTURE> 2 2.628687e-02
<MEAN> 3
 8.455116e-02 -5.247343e+01 -1.000000e+02
<VARIANCE> 3
 1.304081e-02 2.519970e+03 1.000000e-02
<GCONST> 4.400791e+00
<STATE> 6
<NUMMIXES> 2
<MIXTURE> 1 9.901820e-01
<MEAN> 3
 4.692058e+00 9.187173e-01 1.286284e-03
<VARIANCE> 3
 9.266850e+00 3.079364e+00 1.000000e-02
<GCONST> 4.259628e+00
<MIXTURE> 2 9.817299e-03
<MEAN> 3
 3.312105e-02 -4.979772e+01 -1.000000e+02
<VARIANCE> 3
 1.000000e-02 2.522283e+03 1.000000e-02
<GCONST> 4.136210e+00
<STATE> 7
<NUMMIXES> 2
<MIXTURE> 1 9.560319e-02
<MEAN> 3
 2.063831e-02 -6.904470e+00 7.976846e-02
<VARIANCE> 3
 1.000000e-02 1.340718e+01 1.327465e-01
<GCONST> 1.484937e+00
<MIXTURE> 2 9.043838e-01
<MEAN> 3
 -7.470401e-04 -1.808055e+00 -1.000000e+02
<VARIANCE> 3
 1.000000e-02 4.825869e+01 1.000000e-02
<GCONST> 1.798668e-01
<TRANSP> 8
 0.000000e+00 1.000000e+00 0.000000e+00 0.000000e+00 0.000000e+00 0.000000e+00 0.000000e+00 0.000000e+00
 0.000000e+00 9.432043e-10 1.000000e+00 0.000000e+00 0.000000e+00 0.000000e+00 0.000000e+00 0.000000e+00
 0.000000e+00 0.000000e+00 9.873374e-01 1.266267e-02 0.000000e+00 0.000000e+00 0.000000e+00 0.000000e+00
 0.000000e+00 0.000000e+00 0.000000e+00 9.784200e-01 2.158004e-02 0.000000e+00 0.000000e+00 0.000000e+00
 0.000000e+00 0.000000e+00 0.000000e+00 0.000000e+00 9.362936e-01 6.370644e-02 0.000000e+00 0.000000e+00
 0.000000e+00 0.000000e+00 0.000000e+00 0.000000e+00 0.000000e+00 9.774317e-01 2.256829e-02 0.000000e+00
 0.000000e+00 0.000000e+00 0.000000e+00 0.000000e+00 0.000000e+00 0.000000e+00 9.834219e-01 1.657809e-02
 0.000000e+00 0.000000e+00 0.000000e+00 0.000000e+00 0.000000e+00 0.000000e+00 0.000000e+00 0.000000e+00
<ENDHMM>
~h "e"
<BEGINHMM>
<NUMSTATES> 8
<STATE> 2
<NUMMIXES> 2
<MIXTURE> 1 9.935748e-01
<MEAN> 3
 5.380450e-04 -9.409840e-04 -2.307746e-03
<VARIANCE> 3
 1.000000e-02 1.000000e-02 1.000000e-02
<GCONST> -8.301880e+00
<MIXTURE> 2 6.426233e-03
<MEAN> 3
 -1.343095e-01 -5.174934e+01 -1.000000e+02
<VARIANCE> 3
 2.478198e-02 2.272463e+03 1.000000e-02
<GCONST> 4.939443e+00
<STATE> 3
<NUMMIXES> 2
<MIXTURE> 1 9.919476e-01
<MEAN> 3
 -1.769096e-03 -2.975924e+00 -5.514015e+00
<VARIANCE> 3
 1.000000e-02 1.474208e+01 1.772152e+01
<GCONST> 6.473947e+00
<MIXTURE> 2 8.053066e-03
<MEAN> 3
 -2.374957e-01 -5.155124e+01 -1.000000e+02
<VARIANCE> 3
 6.022096e-02 2.272683e+03 1.000000e-02
<GCONST> 5.827443e+00
<STATE> 4
<NUMMIXES> 2
<MIXTURE> 1 9.771926e-01
<MEAN> 3
 -5.630783e+00 -3.147575e+00 -5.386335e-01
<VARIANCE> 3
 1.386791e+01 1.230066e+01 2.051519e+00
<GCONST> 1.137144e+01
<MIXTURE> 2 2.280827e-02
<MEAN> 3
 -3.753385e-01 -5.040668e+01 -1.000000e+02
<VARIANCE> 3
 1.416669e-01 2.272177e+03 1.000000e-02
<GCONST> 6.682678e+00
<STATE> 5
<NUMMIXES> 2
<MIXTURE> 1 9.645565e-01
<MEAN> 3
 -2.535207e+00 -7.784512e+00 -8.458399e+00
<VARIANCE> 3
 3.971703e+00 8.782444e+00 4.858683e+00
<GCONST> 1.064635e+01
<MIXTURE> 2 3.544394e-02
<MEAN> 3
 -5.555681e-01 -4.875144e+01 -1.000000e+02
<VARIANCE> 3
 3.363397e-01 2.269100e+03 1.000000e-02
<GCONST> 7.545966e+00
<STATE> 6
<NUMMIXES> 2
<MIXTURE> 1 3.170998e-02
<MEAN> 3
 -7.250601e+00 -2.748066e+00 -6.006502e-02
<VARIANCE> 3
 9.501014e+00 1.660999e+01 4.142853e+01
<GCONST> 1.429900e+01
<MIXTURE> 2 9.682887e-01
<MEAN> 3
 -7.538579e+00 -4.889977e+00 -1.000000e+02
<VARIANCE> 3
 9.994631e+00 5.922458e+01 1.000000e-02
<GCONST> 7.291846e+00
<STATE> 7
<NUMMIXES> 2
<MIXTURE> 1 9.863625e-01
<MEAN> 3
 -9.272676e+00 -9.255569e+00 -8.058651e+00
<VARIANCE> 3
 3.071905e+00 2.616728e+00 6.703035e+00
<GCONST> 9.500414e+00
<MIXTURE> 2 1.363719e-02
<MEAN> 3
 -2.095680e+00 -4.931647e+01 -1.000000e+02
<VARIANCE> 3
 5.012042e+00 2.392219e+03 1.000000e-02
<GCONST> 1.030028e+01
<TRANSP> 8
 0.000000e+00 1.000000e+00 0.000000e+00 0.000000e+00 0.000000e+00 0.000000e+00 0.000000e+00 0.000000e+00
 0.000000e+00 9.854302e-01 1.456972e-02 0.000000e+00 0.000000e+00 0.000000e+00 0.000000e+00 0.000000e+00
 0.000000e+00 0.000000e+00 9.818166e-01 1.818334e-02 0.000000e+00 0.000000e+00 0.000000e+00 0.000000e+00
 0.000000e+00 0.000000e+00 0.000000e+00 9.497320e-01 5.026804e-02 0.000000e+00 0.000000e+00 0.000000e+00
 0.000000e+00 0.000000e+00 0.000000e+00 0.000000e+00 9.246114e-01 7.538861e-02 0.000000e+00 0.000000e+00
 0.000000e+00 0.000000e+00 0.000000e+00 0.000000e+00 0.000000e+00 9.804779e-01 1.952204e-02 0.000000e+00
 0.000000e+00 0.000000e+00 0.000000e+00 0.000000e+00 0.000000e+00 0.000000e+00 9.698120e-01 3.018796e-02
 0.000000e+00 0.000000e+00 0.000000e+00 0.000000e+00 0.000000e+00 0.000000e+00 0.000000e+00 0.000000e+00
<ENDHMM>
~h "i"
<BEGINHMM>
<NUMSTATES> 8
<STATE> 2
<NUMMIXES> 2
<MIXTURE> 1 9.742672e-01
<MEAN> 3
 -1.896547e+00 -3.810152e+00 -8.306074e+00
<VARIANCE> 3
 1.245574e+01 1.844483e+01 8.507184e+00
<GCONST> 1.309151e+01
<MIXTURE> 2 2.573264e-02
<MEAN> 3
 -1.676070e+00 -4.922538e+01 -1.000000e+02
<VARIANCE> 3
 3.270633e+00 2.394229e+03 1.000000e-02
<GCONST> 9.874261e+00
<STATE> 3
<NUMMIXES> 2
<MIXTURE> 1 9.830951e-01
<MEAN> 3
 -7.965028e+00 -8.163997e+00 -5.226936e-03
<VARIANCE> 3
 9.164681e+00 7.421886e+00 1.000000e-02
<GCONST> 5.128251e+00
<MIXTURE> 2 1.690639e-02
<MEAN> 3
 -1.270910e+00 -4.923751e+01 -1.000000e+02
<VARIANCE> 3
 2.006811e+00 2.396833e+03 1.000000e-02
<GCONST> 9.386911e+00
<STATE> 4
<NUMMIXES> 2
<MIXTURE> 1 9.818168e-01
<MEAN> 3
 -7.791946e+00 -2.892633e-03 7.894771e-03
<VARIANCE> 3
 8.791642e+00 1.000000e-02 1.000000e-02
<GCONST> -1.522908e+00
<MIXTURE> 2 1.818438e-02
<MEAN> 3
 -9.492834e-01 -4.720541e+01 -1.000000e+02
<VARIANCE> 3
 1.183949e+00 2.396016e+03 1.000000e-02
<GCONST> 8.858879e+00
<STATE> 5
<NUMMIXES> 2
<MIXTURE> 1 9.931435e-01
<MEAN> 3
 -2.603473e-03 9.302491e-04 1.268237e-03
<VARIANCE> 3
 1.000000e-02 1.000000e-02 1.000000e-02
<GCONST> -8.301880e+00
<MIXTURE> 2 6.856077e-03
<MEAN> 3
 -6.175550e-01 -4.849484e+01 -1.000000e+02
<VARIANCE> 3
 7.140216e-01 2.401329e+03 1.000000e-02
<GCONST> 8.355397e+00
<STATE> 6
<NUMMIXES> 2
<MIXTURE> 1 9.392290e-01
<MEAN> 3
 -6.480197e+00 3.490334e-01 1.431876e+00
<VARIANCE> 3
 1.627717e+01 7.343969e-01 4.369123e+00
<GCONST> 9.469252e+00
<MIXTURE> 2 6.077175e-02
<MEAN> 3
 -3.846327e-01 -4.722269e+01 -1.000000e+02
<VARIANCE> 3
 4.354462e-01 2.399503e+03 1.000000e-02
<GCONST> 7.860094e+00
<STATE> 7
<NUMMIXES> 2
<MIXTURE> 1 9.572064e-01
<MEAN> 3
 4.845740e-04 2.328330e+00 5.061536e-01
<VARIANCE> 3
 1.000000e-02 3.668066e+00 1.421975e+00
<GCONST> 2.560172e+00
<MIXTURE> 2 4.279477e-02
<MEAN> 3
 -1.681705e-01 -4.813536e+01 -1.000000e+02
<VARIANCE> 3
 2.546477e-01 2.404031e+03 1.000000e-02
<GCONST> 7.325489e+00
<TRANSP> 8
 0.000000e+00 1.000000e+00 0.000000e+00 0.000000e+00 0.000000e+00 0.000000e+00 0.000000e+00 0.000000e+00
 0.000000e+00 9.431178e-01 5.688217e-02 0.000000e+00 0.000000e+00 0.000000e+00 0.000000e+00 0.000000e+00
 0.000000e+00 0.000000e+00 9.625976e-01 3.740239e-02 0.000000e+00 0.000000e+00 0.000000e+00 0.000000e+00
 0.000000e+00 0.000000e+00 0.000000e+00 9.614120e-01 3.858807e-02 0.000000e+00 0.000000e+00 0.000000e+00
 0.000000e+00 0.000000e+00 0.000000e+00 0.000000e+00 9.850460e-01 1.495408e-02 0.000000e+00 0.000000e+00
 0.000000e+00 0.000000e+00 0.000000e+00 0.000000e+00 0.000000e+00 8.708984e-01 1.291015e-01 0.000000e+00
 0.000000e+00 0.000000e+00 0.000000e+00 0.000000e+00 0.000000e+00 0.000000e+00 9.072907e-01 9.270930e-02
 0.000000e+00 0.000000e+00 0.000000e+00 0.000000e+00 0.000000e+00 0.000000e+00 0.000000e+00 0.000000e+00
<ENDHMM>
~h "m"
<BEGINHMM>
<NUMSTATES> 8
<STATE> 2
<NUMMIXES> 2
<MIXTURE> 1 2.583148e-02
<MEAN> 3
 -8.558315e-03 4.902061e+00 1.571943e+02
<VARIANCE> 3
 8.185825e-02 1.462603e+01 5.023989e+04
<GCONST> 1.651823e+01
<MIXTURE> 2 9.741686e-01
<MEAN> 3
 1.197016e-03 -3.028816e-01 -1.000000e+02
<VARIANCE> 3
 1.000000e-02 4.445436e+01 1.000000e-02
<GCONST> 9.775400e-02
<STATE> 3
<NUMMIXES> 2
<MIXTURE> 1 9.740022e-01
<MEAN> 3
 4.259803e-03 1.023867e-02 3.268556e+00
<VARIANCE> 3
 1.000000e-02 1.000000e-02 9.224307e+00
<GCONST> -1.474867e+00
<MIXTURE> 2 2.599579e-02
<MEAN> 3
 2.893961e-01 -4.152690e+01 -1.000000e+02
<VARIANCE> 3
 1.530225e-02 2.521085e+03 1.000000e-02
<GCONST> 4.561151e+00
<STATE> 4
<NUMMIXES> 2
<MIXTURE> 1 9.838948e-01
<MEAN> 3
 3.473677e+00 3.127760e+00 5.215673e-02
<VARIANCE> 3
 1.159489e+01 1.019300e+01 1.683961e-01
<GCONST> 8.504460e+00
<MIXTURE> 2 1.610314e-02
<MEAN> 3
 4.674804e-01 -4.161154e+01 -1.000000e+02
<VARIANCE> 3
 3.039188e-02 2.521100e+03 1.000000e-02
<GCONST> 5.247332e+00
<STATE> 5
<NUMMIXES> 2
<MIXTURE> 1 9.787919e-01
<MEAN> 3
 5.118775e-01 4.327158e+00 3.920432e+00
<VARIANCE> 3
 8.658308e-01 7.911910e+00 1.042614e+01
<GCONST> 9.782251e+00
<MIXTURE> 2 2.120515e-02
<MEAN> 3
 6.749488e-01 -4.136991e+01 -1.000000e+02
<VARIANCE> 3
 6.554576e-02 2.517142e+03 1.000000e-02
<GCONST> 6.014334e+00
<STATE> 6
<NUMMIXES> 2
<MIXTURE> 1 6.531256e-02
<MEAN> 3
 4.884124e+00 6.761264e+00 2.326587e+02
<VARIANCE> 3
 8.565980e+00 6.755994e+00 7.492288e+04
<GCONST> 2.079607e+01
<MIXTURE> 2 9.346823e-01
<MEAN> 3
 4.225832e+00 1.011097e+00 -1.000000e+02
<VARIANCE> 3
 8.333047e+00 5.213036e+01 1.000000e-02
<GCONST> 6.982438e+00
<STATE> 7
<NUMMIXES> 2
<MIXTURE> 1 2.510229e-02
<MEAN> 3
 6.382931e+00 3.106522e+02 2.193922e+02
<VARIANCE> 3
 8.792727e+00 7.139301e+04 2.100725e+04
<GCONST> 2.881613e+01
<MIXTURE> 2 9.748953e-01
<MEAN> 3
 -1.809084e+00 -1.000000e+02 -1.000000e+02
<VARIANCE> 3
 2.350143e+01 1.000000e-02 1.000000e-02
<GCONST> -5.396481e-01
<TRANSP> 8
 0.000000e+00 1.000000e+00 0.000000e+00 0.000000e+00 0.000000e+00 0.000000e+00 0.000000e+00 0.000000e+00
 0.000000e+00 9.830358e-01 1.696423e-02 0.000000e+00 0.000000e+00 0.000000e+00 0.000000e+00 0.000000e+00
 0.000000e+00 0.000000e+00 9.493125e-01 5.068749e-02 0.000000e+00 0.000000e+00 0.000000e+00 0.000000e+00
 0.000000e+00 0.000000e+00 0.000000e+00 9.685475e-01 3.145247e-02 0.000000e+00 0.000000e+00 0.000000e+00
 0.000000e+00 0.000000e+00 0.000000e+00 0.000000e+00 9.588192e-01 4.118084e-02 0.000000e+00 0.000000e+00
 0.000000e+00 0.000000e+00 0.000000e+00 0.000000e+00 0.000000e+00 9.810282e-01 1.897178e-02 0.000000e+00
 0.000000e+00 0.000000e+00 0.000000e+00 0.000000e+00 0.000000e+00 0.000000e+00 9.925020e-01 7.498048e-03
 0.000000e+00 0.000000e+00 0.000000e+00 0.000000e+00 0.000000e+00 0.000000e+00 0.000000e+00 0.000000e+00
<ENDHMM>
~h "sil"
<BEGINHMM>
<NUMSTATES> 8
<STATE> 2
<NUMMIXES> 2
<MIXTURE> 1 9.158464e-01
<MEAN> 3
 9.388780e+00 -7.798489e-05 1.907784e-03
<VARIANCE> 3
 5.004485e+00 1.000000e-02 1.000000e-02
<GCONST> -2.086375e+00
<MIXTURE> 2 8.415355e-02
<MEAN> 3
 7.481616e+00 -1.746451e+01 -1.669017e+01
<VARIANCE> 3
 7.134552e+00 9.845970e+02 1.001209e+03
<GCONST> 2.127978e+01
<STATE> 3
<NUMMIXES> 2
<MIXTURE> 1 9.217565e-01
<MEAN> 3
 9.739248e+00 2.119834e+00 1.264109e+00
<VARIANCE> 3
 2.959604e+00 2.636967e+00 1.587122e+00
<GCONST> 8.030239e+00
<MIXTURE> 2 7.824393e-02
<MEAN> 3
 3.997992e+00 -1.000000e+02 -1.000000e+02
<VARIANCE> 3
 3.756442e+00 1.000000e-02 1.000000e-02
<GCONST> -2.373237e+00
<STATE> 4
<NUMMIXES> 2
<MIXTURE> 1 8.174299e-02
<MEAN> 3
 7.308445e+00 -2.350793e+01 -2.100011e+01
<VARIANCE> 3
 1.286790e+01 1.982226e+03 2.124506e+03
<GCONST> 2.332164e+01
<MIXTURE> 2 9.182567e-01
<MEAN> 3
 7.735146e+00 5.328130e-03 3.785404e+00
<VARIANCE> 3
 1.483877e+01 1.000000e-02 9.870237e+00
<GCONST> 5.895228e+00
<STATE> 5
<NUMMIXES> 2
<MIXTURE> 1 3.332252e-02
<MEAN> 3
 5.304112e+00 -6.384822e+01 -6.285307e+01
<VARIANCE> 3
 9.552180e+00 2.341150e+03 2.474250e+03
<GCONST> 2.334249e+01
<MIXTURE> 2 9.666778e-01
<MEAN> 3
 6.560374e+00 4.879667e+00 2.059410e-03
<VARIANCE> 3
 6.250052e+00 7.328651e+00 1.000000e-02
<GCONST> 4.732842e+00
<STATE> 6
<NUMMIXES> 2
<MIXTURE> 1 4.323908e-02
<MEAN> 3
 4.096369e+00 -1.000000e+02 -1.000000e+02
<VARIANCE> 3
 3.808802e+00 1.000000e-02 1.000000e-02
<GCONST> -2.359395e+00
<MIXTURE> 2 9.567615e-01
<MEAN> 3
 6.145538e+00 1.464209e+00 4.147515e+00
<VARIANCE> 3
 5.855255e+00 1.318796e+00 6.954197e+00
<GCONST> 9.497036e+00
<STATE> 7
<NUMMIXES> 2
<MIXTURE> 1 9.528284e-02
<MEAN> 3
 4.980155e+00 -5.344732e+01 -5.354567e+01
<VARIANCE> 3
 7.136097e+00 2.656067e+03 2.647337e+03
<GCONST> 2.324471e+01
<MIXTURE> 2 9.047164e-01
<MEAN> 3
 5.610784e+00 1.897303e-03 -7.689721e+00
<VARIANCE> 3
 5.405908e+00 1.000000e-02 1.030807e+01
<GCONST> 4.928881e+00
<TRANSP> 8
 0.000000e+00 1.000000e+00 0.000000e+00 0.000000e+00 0.000000e+00 0.000000e+00 0.000000e+00 0.000000e+00
 0.000000e+00 9.791018e-01 2.089823e-02 0.000000e+00 0.000000e+00 0.000000e+00 0.000000e+00 0.000000e+00
 0.000000e+00 0.000000e+00 8.831232e-01 1.168768e-01 0.000000e+00 0.000000e+00 0.000000e+00 0.000000e+00
 0.000000e+00 0.000000e+00 0.000000e+00 9.586512e-01 4.134870e-02 0.000000e+00 0.000000e+00 0.000000e+00
 0.000000e+00 0.000000e+00 0.000000e+00 0.000000e+00 9.572303e-01 4.276970e-02 0.000000e+00 0.000000e+00
 0.000000e+00 0.000000e+00 0.000000e+00 0.000000e+00 0.000000e+00 9.258050e-01 7.419502e-02 0.000000e+00
 0.000000e+00 0.000000e+00 0.000000e+00 0.000000e+00 0.000000e+00 0.000000e+00 8.950601e-01 1.049399e-01
 0.000000e+00 0.000000e+00 0.000000e+00 0.000000e+00 0.000000e+00 0.000000e+00 0.000000e+00 0.000000e+00
<ENDHMM>
