~o
<STREAMINFO> 1 1
<VECSIZE> 1<NULLD><USER><DIAGC>
~h "a"
<BEGINHMM>
<NUMSTATES> 8
<STATE> 2
<MEAN> 1
 3.491762e+00
<VARIANCE> 1
 4.066919e+00
<GCONST> 3.240763e+00
<STATE> 3
<MEAN> 1
 1.042575e+01
<VARIANCE> 1
 2.318146e+00
<GCONST> 2.678645e+00
<STATE> 4
<MEAN> 1
 7.048741e+00
<VARIANCE> 1
 1.094509e+00
<GCONST> 1.928183e+00
<STATE> 5
<MEAN> 1
 4.367243e+00
<VARIANCE> 1
 8.458760e-01
<GCONST> 1.670495e+00
<STATE> 6
<MEAN> 1
 1.669962e+00
<VARIANCE> 1
 8.696643e-01
<GCONST> 1.698229e+00
<STATE> 7
<MEAN> 1
 1.885843e-03
<VARIANCE> 1
 1.000000e-02
<GCONST> -2.767293e+00
<TRANSP> 8
 0.000000e+00 1.000000e+00 0.000000e+00 0.000000e+00 0.000000e+00 0.000000e+00 0.000000e+00 0.000000e+00
 0.000000e+00 9.346553e-01 6.534471e-02 0.000000e+00 0.000000e+00 0.000000e+00 0.000000e+00 0.000000e+00
 0.000000e+00 0.000000e+00 9.753353e-01 2.466474e-02 0.000000e+00 0.000000e+00 0.000000e+00 0.000000e+00
 0.000000e+00 0.000000e+00 0.000000e+00 9.621618e-01 3.783816e-02 0.000000e+00 0.000000e+00 0.000000e+00
 0.000000e+00 0.000000e+00 0.000000e+00 0.000000e+00 9.594132e-01 4.058683e-02 0.000000e+00 0.000000e+00
 0.000000e+00 0.000000e+00 0.000000e+00 0.000000e+00 0.000000e+00 9.497015e-01 5.029845e-02 0.000000e+00
 0.000000e+00 0.000000e+00 0.000000e+00 0.000000e+00 0.000000e+00 0.000000e+00 9.919726e-01 8.027397e-03
 0.000000e+00 0.000000e+00 0.000000e+00 0.000000e+00 0.000000e+00 0.000000e+00 0.000000e+00 0.000000e+00
<ENDHMM>
~h "e"
<BEGINHMM>
<NUMSTATES> 8
<STATE> 2
<MEAN> 1
 -1.421315e-03
<VARIANCE> 1
 1.000000e-02
<GCONST> -2.767293e+00
<STATE> 3
<MEAN> 1
 -7.781864e-01
<VARIANCE> 1
 1.363778e-01
<GCONST> -1.544490e-01
<STATE> 4
<MEAN> 1
 -2.219460e+00
<VARIANCE> 1
 6.493437e-01
<GCONST> 1.406084e+00
<STATE> 5
<MEAN> 1
 -4.391819e+00
<VARIANCE> 1
 4.767913e-01
<GCONST> 1.097201e+00
<STATE> 6
<MEAN> 1
 -6.212797e+00
<VARIANCE> 1
 4.587546e-01
<GCONST> 1.058637e+00
<STATE> 7
<MEAN> 1
 -8.506936e+00
<VARIANCE> 1
 5.210789e-01
<GCONST> 1.186023e+00
<TRANSP> 8
 0.000000e+00 1.000000e+00 0.000000e+00 0.000000e+00 0.000000e+00 0.000000e+00 0.000000e+00 0.000000e+00
 0.000000e+00 9.921378e-01 7.862239e-03 0.000000e+00 0.000000e+00 0.000000e+00 0.000000e+00 0.000000e+00
 0.000000e+00 0.000000e+00 9.408399e-01 5.916015e-02 0.000000e+00 0.000000e+00 0.000000e+00 0.000000e+00
 0.000000e+00 0.000000e+00 0.000000e+00 9.397832e-01 6.021683e-02 0.000000e+00 0.000000e+00 0.000000e+00
 0.000000e+00 0.000000e+00 0.000000e+00 0.000000e+00 9.094248e-01 9.057517e-02 0.000000e+00 0.000000e+00
 0.000000e+00 0.000000e+00 0.000000e+00 0.000000e+00 0.000000e+00 9.432688e-01 5.673119e-02 0.000000e+00
 0.000000e+00 0.000000e+00 0.000000e+00 0.000000e+00 0.000000e+00 0.000000e+00 9.424107e-01 5.758928e-02
 0.000000e+00 0.000000e+00 0.000000e+00 0.000000e+00 0.000000e+00 0.000000e+00 0.000000e+00 0.000000e+00
<ENDHMM>
~h "i"
<BEGINHMM>
<NUMSTATES> 8
<STATE> 2
<MEAN> 1
 -1.042815e+01
<VARIANCE> 1
 2.739476e-01
<GCONST> 5.430585e-01
<STATE> 3
<MEAN> 1
 -8.858685e+00
<VARIANCE> 1
 1.540645e+00
<GCONST> 2.270078e+00
<STATE> 4
<MEAN> 1
 -5.992137e+00
<VARIANCE> 1
 3.524143e+00
<GCONST> 3.097514e+00
<STATE> 5
<MEAN> 1
 -2.262124e+00
<VARIANCE> 1
 6.077186e-02
<GCONST> -9.627514e-01
<STATE> 6
<MEAN> 1
 -1.231520e+00
<VARIANCE> 1
 1.921342e-01
<GCONST> 1.883159e-01
<STATE> 7
<MEAN> 1
 -3.860205e-01
<VARIANCE> 1
 2.003069e-02
<GCONST> -2.072613e+00
<TRANSP> 8
 0.000000e+00 1.000000e+00 0.000000e+00 0.000000e+00 0.000000e+00 0.000000e+00 0.000000e+00 0.000000e+00
 0.000000e+00 9.857367e-01 1.426332e-02 0.000000e+00 0.000000e+00 0.000000e+00 0.000000e+00 0.000000e+00
 0.000000e+00 0.000000e+00 9.817023e-01 1.829766e-02 0.000000e+00 0.000000e+00 0.000000e+00 0.000000e+00
 0.000000e+00 0.000000e+00 0.000000e+00 9.557809e-01 4.421915e-02 0.000000e+00 0.000000e+00 0.000000e+00
 0.000000e+00 0.000000e+00 0.000000e+00 0.000000e+00 0.000000e+00 1.000000e+00 0.000000e+00 0.000000e+00
 0.000000e+00 0.000000e+00 0.000000e+00 0.000000e+00 0.000000e+00 7.192550e-01 2.807450e-01 0.000000e+00
 0.000000e+00 0.000000e+00 0.000000e+00 0.000000e+00 0.000000e+00 0.000000e+00 3.322065e-01 6.677935e-01
 0.000000e+00 0.000000e+00 0.000000e+00 0.000000e+00 0.000000e+00 0.000000e+00 0.000000e+00 0.000000e+00
<ENDHMM>
~h "m"
<BEGINHMM>
<NUMSTATES> 8
<STATE> 2
<MEAN> 1
 7.448545e-04
<VARIANCE> 1
 1.000000e-02
<GCONST> -2.767293e+00
<STATE> 3
<MEAN> 1
 8.903924e-01
<VARIANCE> 1
 5.068501e-02
<GCONST> -1.144248e+00
<STATE> 4
<MEAN> 1
 1.399737e+00
<VARIANCE> 1
 8.127378e-01
<GCONST> 1.630530e+00
<STATE> 5
<MEAN> 1
 3.275170e+00
<VARIANCE> 1
 6.042423e-01
<GCONST> 1.334097e+00
<STATE> 6
<MEAN> 1
 5.373827e+00
<VARIANCE> 1
 4.669292e-01
<GCONST> 1.076299e+00
<STATE> 7
<MEAN> 1
 8.138160e+00
<VARIANCE> 1
 1.136996e+00
<GCONST> 1.966267e+00
<TRANSP> 8
 0.000000e+00 1.000000e+00 0.000000e+00 0.000000e+00 0.000000e+00 0.000000e+00 0.000000e+00 0.000000e+00
 0.000000e+00 9.962293e-01 3.770735e-03 0.000000e+00 0.000000e+00 0.000000e+00 0.000000e+00 0.000000e+00
 0.000000e+00 0.000000e+00 9.224430e-01 7.755704e-02 0.000000e+00 0.000000e+00 0.000000e+00 0.000000e+00
 0.000000e+00 0.000000e+00 0.000000e+00 9.492406e-01 5.075935e-02 0.000000e+00 0.000000e+00 0.000000e+00
 0.000000e+00 0.000000e+00 0.000000e+00 0.000000e+00 9.394903e-01 6.050975e-02 0.000000e+00 0.000000e+00
 0.000000e+00 0.000000e+00 0.000000e+00 0.000000e+00 0.000000e+00 9.326725e-01 6.732745e-02 0.000000e+00
 0.000000e+00 0.000000e+00 0.000000e+00 0.000000e+00 0.000000e+00 0.000000e+00 9.462310e-01 5.376900e-02
 0.000000e+00 0.000000e+00 0.000000e+00 0.000000e+00 0.000000e+00 0.000000e+00 0.000000e+00 0.000000e+00
<ENDHMM>
~h "sil"
<BEGINHMM>
<NUMSTATES> 8
<STATE> 2
<MEAN> 1
 1.280411e+01
<VARIANCE> 1
 8.380337e+00
<GCONST> 3.963765e+00
<STATE> 3
<MEAN> 1
 1.068404e+01
<VARIANCE> 1
 6.643214e-01
<GCONST> 1.428888e+00
<STATE> 4
<MEAN> 1
 8.775673e+00
<VARIANCE> 1
 9.077144e-01
<GCONST> 1.741052e+00
<STATE> 5
<MEAN> 1
 7.283291e+00
<VARIANCE> 1
 2.291177e+00
<GCONST> 2.666943e+00
<STATE> 6
<MEAN> 1
 2.856278e+00
<VARIANCE> 1
 2.972878e+00
<GCONST> 2.927407e+00
<STATE> 7
<MEAN> 1
 6.465400e+00
<VARIANCE> 1
 1.118182e+00
<GCONST> 1.949581e+00
<TRANSP> 8
 0.000000e+00 1.000000e+00 0.000000e+00 0.000000e+00 0.000000e+00 0.000000e+00 0.000000e+00 0.000000e+00
 0.000000e+00 9.408449e-01 5.915510e-02 0.000000e+00 0.000000e+00 0.000000e+00 0.000000e+00 0.000000e+00
 0.000000e+00 0.000000e+00 9.829624e-01 1.703766e-02 0.000000e+00 0.000000e+00 0.000000e+00 0.000000e+00
 0.000000e+00 0.000000e+00 0.000000e+00 9.567075e-01 4.329249e-02 0.000000e+00 0.000000e+00 0.000000e+00
 0.000000e+00 0.000000e+00 0.000000e+00 0.000000e+00 9.007891e-01 9.921097e-02 0.000000e+00 0.000000e+00
 0.000000e+00 0.000000e+00 0.000000e+00 0.000000e+00 0.000000e+00 9.211240e-01 7.887608e-02 0.000000e+00
 0.000000e+00 0.000000e+00 0.000000e+00 0.000000e+00 0.000000e+00 0.000000e+00 9.408100e-01 5.918997e-02
 0.000000e+00 0.000000e+00 0.000000e+00 0.000000e+00 0.000000e+00 0.000000e+00 0.000000e+00 0.000000e+00
<ENDHMM>
