~o
<STREAMINFO> 1 3
<VECSIZE> 3<NULLD><USER><DIAGC>
~h "a"
<BEGINHMM>
<NUMSTATES> 8
<STATE> 2
<NUMMIXES> 2
<MIXTURE> 1 6.032074e-01
<MEAN> 3
 3.930683e+00 3.511524e+00 2.040740e+00
<VARIANCE> 3
 9.403811e+00 4.883801e+00 9.332782e+00
<GCONST> 1.157420e+01
<MIXTURE> 2 3.967937e-01
<MEAN> 3
 3.266358e-01 -5.457359e+01 -1.000000e+02
<VARIANCE> 3
 7.351468e-01 2.501837e+03 1.000000e-02
<GCONST> 8.425557e+00
<STATE> 3
<NUMMIXES> 2
<MIXTURE> 1 9.960148e-03
<MEAN> 3
 3.255049e+00 2.792976e+00 -2.126128e+01
<VARIANCE> 3
 9.037122e+00 7.895848e+00 1.840118e+03
<GCONST> 1.729889e+01
<MIXTURE> 2 9.900388e-01
<MEAN> 3
 -5.981991e-04 -1.000000e+02 -1.000000e+02
<VARIANCE> 3
 1.000000e-02 1.000000e-02 1.000000e-02
<GCONST> -8.301880e+00
<STATE> 4
<NUMMIXES> 2
<MIXTURE> 1 9.910222e-01
<MEAN> 3
 5.419576e+00 5.826239e+00 4.458246e+00
<VARIANCE> 3
 1.002094e+01 6.362185e+00 8.340780e+00
<GCONST> 1.178984e+01
<MIXTURE> 2 8.979173e-03
<MEAN> 3
 2.645198e-01 -5.381143e+01 -1.000000e+02
<VARIANCE> 3
 1.019583e-01 2.516106e+03 1.000000e-02
<GCONST> 6.455738e+00
<STATE> 5
<NUMMIXES> 2
<MIXTURE> 1 9.741634e-01
<MEAN> 3
 1.682910e+00 1.104208e-01 -6.434729e-01
<VARIANCE> 3
 5.543260e+00 3.357937e-01 3.939412e+01
<GCONST> 9.808572e+00
<MIXTURE> 2 2.583651e-02
<MEAN> 3
 1.477279e-01 -5.195502e+01 -1.000000e+02
<VARIANCE> 3
 3.588738e-02 2.529164e+03 1.000000e-02
<GCONST> 5.416736e+00
<STATE> 6
<NUMMIXES> 2
<MIXTURE> 1 9.901583e-01
<MEAN> 3
 4.695571e+00 9.128817e-01 1.276202e-03
<VARIANCE> 3
 9.270798e+00 3.060264e+00 1.000000e-02
<GCONST> 4.253831e+00
<MIXTURE> 2 9.841594e-03
<MEAN> 3
 6.824253e-02 -4.977698e+01 -1.000000e+02
<VARIANCE> 3
 1.029251e-02 2.523427e+03 1.000000e-02
<GCONST> 4.165496e+00
<STATE> 7
<NUMMIXES> 2
<MIXTURE> 1 9.470128e-02
<MEAN> 3
 2.333510e-02 -6.948024e+00 8.034813e-02
<VARIANCE> 3
 1.074847e-02 1.328516e+01 1.336535e-01
<GCONST> 1.554782e+00
<MIXTURE> 2 9.052880e-01
<MEAN> 3
 -6.981916e-04 -1.806310e+00 -1.000000e+02
<VARIANCE> 3
 1.000000e-02 4.815448e+01 1.000000e-02
<GCONST> 1.777048e-01
<TRANSP> 8
 0.000000e+00 1.000000e+00 0.000000e+00 0.000000e+00 0.000000e+00 0.000000e+00 0.000000e+00 0.000000e+00
 0.000000e+00 5.224945e-04 9.994774e-01 0.000000e+00 0.000000e+00 0.000000e+00 0.000000e+00 0.000000e+00
 0.000000e+00 0.000000e+00 9.873297e-01 1.267034e-02 0.000000e+00 0.000000e+00 0.000000e+00 0.000000e+00
 0.000000e+00 0.000000e+00 0.000000e+00 9.776693e-01 2.233075e-02 0.000000e+00 0.000000e+00 0.000000e+00
 0.000000e+00 0.000000e+00 0.000000e+00 0.000000e+00 9.379221e-01 6.207786e-02 0.000000e+00 0.000000e+00
 0.000000e+00 0.000000e+00 0.000000e+00 0.000000e+00 0.000000e+00 9.773796e-01 2.262040e-02 0.000000e+00
 0.000000e+00 0.000000e+00 0.000000e+00 0.000000e+00 0.000000e+00 0.000000e+00 9.834601e-01 1.653984e-02
 0.000000e+00 0.000000e+00 0.000000e+00 0.000000e+00 0.000000e+00 0.000000e+00 0.000000e+00 0.000000e+00
<ENDHMM>
~h "e"
<BEGINHMM>
<NUMSTATES> 8
<STATE> 2
<NUMMIXES> 2
<MIXTURE> 1 9.935833e-01
<MEAN> 3
 7.394374e-04 -9.499382e-04 -2.324244e-03
<VARIANCE> 3
 1.000000e-02 1.000000e-02 1.000000e-02
<GCONST> -8.301880e+00
<MIXTURE> 2 6.417421e-03
<MEAN> 3
 -1.544026e-01 -5.168465e+01 -1.000000e+02
<VARIANCE> 3
 2.943796e-02 2.272457e+03 1.000000e-02
<GCONST> 5.111608e+00
<STATE> 3
<NUMMIXES> 2
<MIXTURE> 1 9.918364e-01
<MEAN> 3
 -1.935503e-03 -3.019387e+00 -5.670439e+00
<VARIANCE> 3
 1.000000e-02 1.486697e+01 1.579629e+01
<GCONST> 6.367379e+00
<MIXTURE> 2 8.160500e-03
<MEAN> 3
 -2.641151e-01 -5.144241e+01 -1.000000e+02
<VARIANCE> 3
 7.301159e-02 2.272690e+03 1.000000e-02
<GCONST> 6.020043e+00
<STATE> 4
<NUMMIXES> 2
<MIXTURE> 1 9.783860e-01
<MEAN> 3
 -5.543949e+00 -2.709859e+00 -4.251122e-01
<VARIANCE> 3
 1.350132e+01 1.073764e+01 2.028187e+00
<GCONST> 1.119732e+01
<MIXTURE> 2 2.161313e-02
<MEAN> 3
 -4.086196e-01 -5.020607e+01 -1.000000e+02
<VARIANCE> 3
 1.695874e-01 2.271729e+03 1.000000e-02
<GCONST> 6.862370e+00
<STATE> 5
<NUMMIXES> 2
<MIXTURE> 1 9.680624e-01
<MEAN> 3
 -2.917404e+00 -7.962916e+00 -8.468700e+00
<VARIANCE> 3
 4.809424e+00 8.342253e+00 4.993281e+00
<GCONST> 1.081363e+01
<MIXTURE> 2 3.193717e-02
<MEAN> 3
 -5.860562e-01 -4.850252e+01 -1.000000e+02
<VARIANCE> 3
 3.967739e-01 2.272122e+03 1.000000e-02
<GCONST> 7.712543e+00
<STATE> 6
<NUMMIXES> 2
<MIXTURE> 1 3.149216e-02
<MEAN> 3
 -7.164547e+00 -2.766909e+00 3.389606e-02
<VARIANCE> 3
 9.958945e+00 1.662145e+01 4.100493e+01
<GCONST> 1.433649e+01
<MIXTURE> 2 9.685068e-01
<MEAN> 3
 -7.541429e+00 -4.886676e+00 -1.000000e+02
<VARIANCE> 3
 9.973381e+00 5.924041e+01 1.000000e-02
<GCONST> 7.289985e+00
<STATE> 7
<NUMMIXES> 2
<MIXTURE> 1 9.858015e-01
<MEAN> 3
 -9.461607e+00 -9.268203e+00 -7.763104e+00
<VARIANCE> 3
 2.492762e+00 2.592607e+00 8.184483e+00
<GCONST> 9.481927e+00
<MIXTURE> 2 1.419988e-02
<MEAN> 3
 -2.014391e+00 -4.871427e+01 -1.000000e+02
<VARIANCE> 3
 4.722915e+00 2.393062e+03 1.000000e-02
<GCONST> 1.024122e+01
<TRANSP> 8
 0.000000e+00 1.000000e+00 0.000000e+00 0.000000e+00 0.000000e+00 0.000000e+00 0.000000e+00 0.000000e+00
 0.000000e+00 9.854700e-01 1.453001e-02 0.000000e+00 0.000000e+00 0.000000e+00 0.000000e+00 0.000000e+00
 0.000000e+00 0.000000e+00 9.816160e-01 1.838403e-02 0.000000e+00 0.000000e+00 0.000000e+00 0.000000e+00
 0.000000e+00 0.000000e+00 0.000000e+00 9.525712e-01 4.742884e-02 0.000000e+00 0.000000e+00 0.000000e+00
 0.000000e+00 0.000000e+00 0.000000e+00 0.000000e+00 9.323760e-01 6.762404e-02 0.000000e+00 0.000000e+00
 0.000000e+00 0.000000e+00 0.000000e+00 0.000000e+00 0.000000e+00 9.804726e-01 1.952741e-02 0.000000e+00
 0.000000e+00 0.000000e+00 0.000000e+00 0.000000e+00 0.000000e+00 0.000000e+00 9.689453e-01 3.105466e-02
 0.000000e+00 0.000000e+00 0.000000e+00 0.000000e+00 0.000000e+00 0.000000e+00 0.000000e+00 0.000000e+00
<ENDHMM>
~h "i"
<BEGINHMM>
<NUMSTATES> 8
<STATE> 2
<NUMMIXES> 2
<MIXTURE> 1 9.745503e-01
<MEAN> 3
 -2.026937e+00 -3.949096e+00 -8.382434e+00
<VARIANCE> 3
 1.290244e+01 1.867039e+01 8.081297e+00
<GCONST> 1.308754e+01
<MIXTURE> 2 2.545083e-02
<MEAN> 3
 -1.597172e+00 -4.862499e+01 -1.000000e+02
<VARIANCE> 3
 3.007109e+00 2.395048e+03 1.000000e-02
<GCONST> 9.790599e+00
<STATE> 3
<NUMMIXES> 2
<MIXTURE> 1 9.824530e-01
<MEAN> 3
 -8.043770e+00 -8.163115e+00 -5.078371e-03
<VARIANCE> 3
 8.992352e+00 7.485189e+00 1.000000e-02
<GCONST> 5.117762e+00
<MIXTURE> 2 1.754753e-02
<MEAN> 3
 -1.197869e+00 -4.863197e+01 -1.000000e+02
<VARIANCE> 3
 1.782583e+00 2.397766e+03 1.000000e-02
<GCONST> 9.268817e+00
<STATE> 4
<NUMMIXES> 2
<MIXTURE> 1 9.812642e-01
<MEAN> 3
 -7.802211e+00 -3.287864e-03 8.096778e-03
<VARIANCE> 3
 8.823408e+00 1.000000e-02 1.000000e-02
<GCONST> -1.519301e+00
<MIXTURE> 2 1.873251e-02
<MEAN> 3
 -8.975002e-01 -4.606667e+01 -1.000000e+02
<VARIANCE> 3
 1.006699e+00 2.391588e+03 1.000000e-02
<GCONST> 8.694850e+00
<STATE> 5
<NUMMIXES> 2
<MIXTURE> 1 9.930544e-01
<MEAN> 3
 -1.907175e-03 5.600335e-04 1.485760e-03
<VARIANCE> 3
 1.000000e-02 1.000000e-02 1.000000e-02
<GCONST> -8.301880e+00
<MIXTURE> 2 6.945938e-03
<MEAN> 3
 -5.582319e-01 -4.789996e+01 -1.000000e+02
<VARIANCE> 3
 5.423177e-01 2.401332e+03 1.000000e-02
<GCONST> 8.080337e+00
<STATE> 6
<NUMMIXES> 2
<MIXTURE> 1 9.484197e-01
<MEAN> 3
 -2.463341e+00 1.531013e+00 1.217663e+00
<VARIANCE> 3
 1.683071e+01 3.656592e+00 3.644316e+00
<GCONST> 1.092654e+01
<MIXTURE> 2 5.158027e-02
<MEAN> 3
 -3.338218e-01 -4.686494e+01 -1.000000e+02
<VARIANCE> 3
 2.892437e-01 2.398889e+03 1.000000e-02
<GCONST> 7.450736e+00
<STATE> 7
<NUMMIXES> 2
<MIXTURE> 1 6.240535e-01
<MEAN> 3
 -3.151651e-03 4.630701e-01 2.506404e+00
<VARIANCE> 3
 1.037099e-01 7.701090e-01 7.165742e+01
<GCONST> 7.258147e+00
<MIXTURE> 2 3.759460e-01
<MEAN> 3
 -9.984628e-02 -4.800352e+01 -1.000000e+02
<VARIANCE> 3
 2.870503e-02 2.398246e+03 1.000000e-02
<GCONST> 5.140271e+00
<TRANSP> 8
 0.000000e+00 1.000000e+00 0.000000e+00 0.000000e+00 0.000000e+00 0.000000e+00 0.000000e+00 0.000000e+00
 0.000000e+00 9.444172e-01 5.558278e-02 0.000000e+00 0.000000e+00 0.000000e+00 0.000000e+00 0.000000e+00
 0.000000e+00 0.000000e+00 9.616491e-01 3.835098e-02 0.000000e+00 0.000000e+00 0.000000e+00 0.000000e+00
 0.000000e+00 0.000000e+00 0.000000e+00 9.611997e-01 3.880028e-02 0.000000e+00 0.000000e+00 0.000000e+00
 0.000000e+00 0.000000e+00 0.000000e+00 0.000000e+00 9.850329e-01 1.496709e-02 0.000000e+00 0.000000e+00
 0.000000e+00 0.000000e+00 0.000000e+00 0.000000e+00 0.000000e+00 8.912374e-01 1.087626e-01 0.000000e+00
 0.000000e+00 0.000000e+00 0.000000e+00 0.000000e+00 0.000000e+00 0.000000e+00 1.886687e-01 8.113314e-01
 0.000000e+00 0.000000e+00 0.000000e+00 0.000000e+00 0.000000e+00 0.000000e+00 0.000000e+00 0.000000e+00
<ENDHMM>
~h "m"
<BEGINHMM>
<NUMSTATES> 8
<STATE> 2
<NUMMIXES> 2
<MIXTURE> 1 2.347348e-02
<MEAN> 3
 3.254499e-03 4.691026e+00 1.644251e+02
<VARIANCE> 3
 4.910251e-02 1.513033e+01 4.937888e+04
<GCONST> 1.602377e+01
<MIXTURE> 2 9.765245e-01
<MEAN> 3
 9.993295e-04 -3.257609e-01 -1.000000e+02
<VARIANCE> 3
 1.000000e-02 4.446790e+01 1.000000e-02
<GCONST> 9.805870e-02
<STATE> 3
<NUMMIXES> 2
<MIXTURE> 1 9.759958e-01
<MEAN> 3
 3.380516e-03 9.165946e-03 3.452939e+00
<VARIANCE> 3
 1.000000e-02 1.000000e-02 9.414751e+00
<GCONST> -1.454432e+00
<MIXTURE> 2 2.400466e-02
<MEAN> 3
 2.610027e-01 -4.290629e+01 -1.000000e+02
<VARIANCE> 3
 1.088984e-02 2.525723e+03 1.000000e-02
<GCONST> 4.222818e+00
<STATE> 4
<NUMMIXES> 2
<MIXTURE> 1 9.870995e-01
<MEAN> 3
 2.503865e+00 3.063038e+00 7.877778e-02
<VARIANCE> 3
 1.702757e+01 9.151996e+00 1.740580e-01
<GCONST> 8.814071e+00
<MIXTURE> 2 1.289939e-02
<MEAN> 3
 4.340758e-01 -4.285858e+01 -1.000000e+02
<VARIANCE> 3
 2.436731e-02 2.524821e+03 1.000000e-02
<GCONST> 5.027873e+00
<STATE> 5
<NUMMIXES> 2
<MIXTURE> 1 9.809577e-01
<MEAN> 3
 7.998220e-01 4.319506e+00 4.089957e+00
<VARIANCE> 3
 1.836026e+00 8.155082e+00 9.578475e+00
<GCONST> 1.047939e+01
<MIXTURE> 2 1.903768e-02
<MEAN> 3
 6.394089e-01 -4.256155e+01 -1.000000e+02
<VARIANCE> 3
 5.884843e-02 2.521597e+03 1.000000e-02
<GCONST> 5.908319e+00
<STATE> 6
<NUMMIXES> 2
<MIXTURE> 1 5.238014e-02
<MEAN> 3
 4.693802e+00 6.866701e+00 2.967789e+02
<VARIANCE> 3
 9.474349e+00 6.632686e+00 7.803131e+04
<GCONST> 2.091909e+01
<MIXTURE> 2 9.476107e-01
<MEAN> 3
 4.213568e+00 1.038735e+00 -1.000000e+02
<VARIANCE> 3
 8.375678e+00 5.218118e+01 1.000000e-02
<GCONST> 6.988515e+00
<STATE> 7
<NUMMIXES> 2
<MIXTURE> 1 2.507135e-02
<MEAN> 3
 6.419779e+00 3.106287e+02 2.197327e+02
<VARIANCE> 3
 8.601804e+00 7.140530e+04 2.086905e+04
<GCONST> 2.878775e+01
<MIXTURE> 2 9.749272e-01
<MEAN> 3
 -1.802812e+00 -1.000000e+02 -1.000000e+02
<VARIANCE> 3
 2.350883e+01 1.000000e-02 1.000000e-02
<GCONST> -5.393333e-01
<TRANSP> 8
 0.000000e+00 1.000000e+00 0.000000e+00 0.000000e+00 0.000000e+00 0.000000e+00 0.000000e+00 0.000000e+00
 0.000000e+00 9.829091e-01 1.709095e-02 0.000000e+00 0.000000e+00 0.000000e+00 0.000000e+00 0.000000e+00
 0.000000e+00 0.000000e+00 9.518428e-01 4.815717e-02 0.000000e+00 0.000000e+00 0.000000e+00 0.000000e+00
 0.000000e+00 0.000000e+00 0.000000e+00 9.741513e-01 2.584880e-02 0.000000e+00 0.000000e+00 0.000000e+00
 0.000000e+00 0.000000e+00 0.000000e+00 0.000000e+00 9.621048e-01 3.789523e-02 0.000000e+00 0.000000e+00
 0.000000e+00 0.000000e+00 0.000000e+00 0.000000e+00 0.000000e+00 9.808052e-01 1.919479e-02 0.000000e+00
 0.000000e+00 0.000000e+00 0.000000e+00 0.000000e+00 0.000000e+00 0.000000e+00 9.925112e-01 7.488833e-03
 0.000000e+00 0.000000e+00 0.000000e+00 0.000000e+00 0.000000e+00 0.000000e+00 0.000000e+00 0.000000e+00
<ENDHMM>
~h "sil"
<BEGINHMM>
<NUMSTATES> 8
<STATE> 2
<NUMMIXES> 2
<MIXTURE> 1 9.158001e-01
<MEAN> 3
 9.387393e+00 -1.082538e-04 1.726336e-03
<VARIANCE> 3
 5.010204e+00 1.000000e-02 1.000000e-02
<GCONST> -2.085233e+00
<MIXTURE> 2 8.420000e-02
<MEAN> 3
 7.484504e+00 -1.746528e+01 -1.669136e+01
<VARIANCE> 3
 7.112188e+00 9.846466e+02 1.001244e+03
<GCONST> 2.127672e+01
<STATE> 3
<NUMMIXES> 2
<MIXTURE> 1 8.394461e-01
<MEAN> 3
 9.226175e+00 1.976765e+00 3.908398e-01
<VARIANCE> 3
 3.661658e+00 2.751678e+00 7.077217e-01
<GCONST> 7.478054e+00
<MIXTURE> 2 1.605536e-01
<MEAN> 3
 3.911443e+00 -9.994532e+01 -9.994328e+01
<VARIANCE> 3
 4.161550e+00 5.466157e+00 5.882030e+00
<GCONST> 1.041000e+01
<STATE> 4
<NUMMIXES> 2
<MIXTURE> 1 8.650868e-02
<MEAN> 3
 7.479727e+00 -2.131587e+01 -1.898570e+01
<VARIANCE> 3
 1.216720e+01 1.857604e+03 1.979788e+03
<GCONST> 2.313017e+01
<MIXTURE> 2 9.134926e-01
<MEAN> 3
 7.864628e+00 5.509199e-03 3.686713e+00
<VARIANCE> 3
 1.397060e+01 1.000000e-02 9.822553e+00
<GCONST> 5.830097e+00
<STATE> 5
<NUMMIXES> 2
<MIXTURE> 1 3.338331e-02
<MEAN> 3
 5.417728e+00 -6.191967e+01 -6.134761e+01
<VARIANCE> 3
 9.260603e+00 2.404533e+03 2.480127e+03
<GCONST> 2.334058e+01
<MIXTURE> 2 9.666172e-01
<MEAN> 3
 6.717529e+00 4.817674e+00 2.414593e-03
<VARIANCE> 3
 7.167575e+00 7.291535e+00 1.000000e-02
<GCONST> 4.864742e+00
<STATE> 6
<NUMMIXES> 2
<MIXTURE> 1 3.268475e-02
<MEAN> 3
 4.048076e+00 -9.773338e+01 -9.787221e+01
<VARIANCE> 3
 3.979693e+00 2.358984e+02 2.079038e+02
<GCONST> 1.769531e+01
<MIXTURE> 2 9.673151e-01
<MEAN> 3
 6.548469e+00 1.482342e+00 3.710077e+00
<VARIANCE> 3
 7.097850e+00 1.208755e+00 6.270757e+00
<GCONST> 9.498912e+00
<STATE> 7
<NUMMIXES> 2
<MIXTURE> 1 9.515871e-02
<MEAN> 3
 4.985326e+00 -5.371125e+01 -5.377877e+01
<VARIANCE> 3
 7.440078e+00 2.641601e+03 2.636568e+03
<GCONST> 2.327689e+01
<MIXTURE> 2 9.048406e-01
<MEAN> 3
 5.618857e+00 2.006170e-03 -7.693210e+00
<VARIANCE> 3
 5.379430e+00 1.000000e-02 1.032058e+01
<GCONST> 4.925183e+00
<TRANSP> 8
 0.000000e+00 1.000000e+00 0.000000e+00 0.000000e+00 0.000000e+00 0.000000e+00 0.000000e+00 0.000000e+00
 0.000000e+00 9.790893e-01 2.091078e-02 0.000000e+00 0.000000e+00 0.000000e+00 0.000000e+00 0.000000e+00
 0.000000e+00 0.000000e+00 6.790378e-01 3.209621e-01 0.000000e+00 0.000000e+00 0.000000e+00 0.000000e+00
 0.000000e+00 0.000000e+00 0.000000e+00 9.600913e-01 3.990868e-02 0.000000e+00 0.000000e+00 0.000000e+00
 0.000000e+00 0.000000e+00 0.000000e+00 0.000000e+00 9.583559e-01 4.164405e-02 0.000000e+00 0.000000e+00
 0.000000e+00 0.000000e+00 0.000000e+00 0.000000e+00 0.000000e+00 9.360177e-01 6.398236e-02 0.000000e+00
 0.000000e+00 0.000000e+00 0.000000e+00 0.000000e+00 0.000000e+00 0.000000e+00 8.949183e-01 1.050818e-01
 0.000000e+00 0.000000e+00 0.000000e+00 0.000000e+00 0.000000e+00 0.000000e+00 0.000000e+00 0.000000e+00
<ENDHMM>
