~o
<STREAMINFO> 1 3
<VECSIZE> 3<NULLD><USER><DIAGC>
~h "a"
<BEGINHMM>
<NUMSTATES> 8
<STATE> 2
<NUMMIXES> 2
<MIXTURE> 1 9.778485e-01
<MEAN> 3
 5.681091e+00 4.451529e+00 4.666680e+00
<VARIANCE> 3
 9.142013e+00 7.767103e+00 6.843230e+00
<GCONST> 1.169967e+01
<MIXTURE> 2 2.215065e-02
<MEAN> 3
 3.755137e+00 -2.796087e+01 -1.000000e+02
<VARIANCE> 3
 1.107771e+01 2.011787e+03 1.000000e-02
<GCONST> 1.092017e+01
<STATE> 3
<NUMMIXES> 2
<MIXTURE> 1 9.858928e-01
<MEAN> 3
 3.412379e+00 4.510684e+00 2.925266e-03
<VARIANCE> 3
 8.618642e+00 8.900104e+00 1.000000e-02
<GCONST> 5.248451e+00
<MIXTURE> 2 1.410434e-02
<MEAN> 3
 7.847089e-01 -4.899734e+01 -1.000000e+02
<VARIANCE> 3
 3.747000e-02 2.477481e+03 1.000000e-02
<GCONST> 5.439244e+00
<STATE> 4
<NUMMIXES> 2
<MIXTURE> 1 9.896398e-01
<MEAN> 3
 4.507732e+00 2.654256e-03 2.545782e-04
<VARIANCE> 3
 8.505420e+00 1.000000e-02 1.000000e-02
<GCONST> -1.556005e+00
<MIXTURE> 2 1.036078e-02
<MEAN> 3
 4.890087e-01 -4.957539e+01 -1.000000e+02
<VARIANCE> 3
 1.360432e-02 2.477906e+03 1.000000e-02
<GCONST> 4.426263e+00
<STATE> 5
<NUMMIXES> 2
<MIXTURE> 1 9.564329e-01
<MEAN> 3
 1.319182e+00 -3.862014e+00 -1.344753e-02
<VARIANCE> 3
 5.541731e+00 3.210889e+01 2.572864e+00
<GCONST> 1.164009e+01
<MIXTURE> 2 4.356354e-02
<MEAN> 3
 3.263498e-01 -4.323342e+01 -1.000000e+02
<VARIANCE> 3
 4.494399e-02 2.439414e+03 1.000000e-02
<GCONST> 5.605636e+00
<STATE> 6
<NUMMIXES> 2
<MIXTURE> 1 3.335591e-01
<MEAN> 3
 1.812987e-03 -5.343130e-04 -2.478010e-03
<VARIANCE> 3
 1.000000e-02 1.000000e-02 1.000000e-02
<GCONST> -8.301880e+00
<MIXTURE> 2 6.663982e-01
<MEAN> 3
 4.220012e-04 -5.082375e+01 -1.000000e+02
<VARIANCE> 3
 1.000000e-02 2.409916e+03 1.000000e-02
<GCONST> 4.090638e+00
<STATE> 7
<NUMMIXES> 2
<MIXTURE> 1 9.492481e-01
<MEAN> 3
 1.264520e-03 -2.083618e-01 -6.825309e-01
<VARIANCE> 3
 1.000000e-02 1.671592e-01 2.821249e-01
<GCONST> -2.145753e+00
<MIXTURE> 2 5.075131e-02
<MEAN> 3
 -9.641539e-02 -5.227349e+01 -1.000000e+02
<VARIANCE> 3
 1.000000e-02 2.237702e+03 1.000000e-02
<GCONST> 4.016496e+00
<TRANSP> 8
 0.000000e+00 1.000000e+00 0.000000e+00 0.000000e+00 0.000000e+00 0.000000e+00 0.000000e+00 0.000000e+00
 0.000000e+00 9.692833e-01 3.071669e-02 0.000000e+00 0.000000e+00 0.000000e+00 0.000000e+00 0.000000e+00
 0.000000e+00 0.000000e+00 9.663391e-01 3.366095e-02 0.000000e+00 0.000000e+00 0.000000e+00 0.000000e+00
 0.000000e+00 0.000000e+00 0.000000e+00 9.750433e-01 2.495673e-02 0.000000e+00 0.000000e+00 0.000000e+00
 0.000000e+00 0.000000e+00 0.000000e+00 0.000000e+00 9.135759e-01 8.642409e-02 0.000000e+00 0.000000e+00
 0.000000e+00 0.000000e+00 0.000000e+00 0.000000e+00 0.000000e+00 9.940754e-01 5.924654e-03 0.000000e+00
 0.000000e+00 0.000000e+00 0.000000e+00 0.000000e+00 0.000000e+00 0.000000e+00 8.922053e-01 1.077947e-01
 0.000000e+00 0.000000e+00 0.000000e+00 0.000000e+00 0.000000e+00 0.000000e+00 0.000000e+00 0.000000e+00
<ENDHMM>
~h "e"
<BEGINHMM>
<NUMSTATES> 8
<STATE> 2
<NUMMIXES> 2
<MIXTURE> 1 9.845330e-01
<MEAN> 3
 8.588094e-05 -1.226808e-02 -6.256741e+00
<VARIANCE> 3
 1.000000e-02 1.000000e-02 1.626157e+01
<GCONST> -9.079046e-01
<MIXTURE> 2 1.546756e-02
<MEAN> 3
 -2.479337e-01 -5.181412e+01 -1.000000e+02
<VARIANCE> 3
 1.000000e-02 2.239536e+03 1.000000e-02
<GCONST> 4.017314e+00
<STATE> 3
<NUMMIXES> 2
<MIXTURE> 1 9.187431e-02
<MEAN> 3
 -4.591594e-01 -3.395807e-01 -5.856864e+00
<VARIANCE> 3
 2.131933e-01 1.723708e-01 1.882357e+01
<GCONST> 5.145077e+00
<MIXTURE> 2 9.081270e-01
<MEAN> 3
 -1.067711e+00 -4.987372e+01 -1.000000e+02
<VARIANCE> 3
 3.872452e-01 2.355941e+03 1.000000e-02
<GCONST> 7.724460e+00
<STATE> 4
<NUMMIXES> 2
<MIXTURE> 1 9.867832e-01
<MEAN> 3
 -4.067122e-03 -6.335790e+00 -6.282919e+00
<VARIANCE> 3
 1.000000e-02 1.256378e+01 1.664014e+01
<GCONST> 6.251097e+00
<MIXTURE> 2 1.321716e-02
<MEAN> 3
 -2.373339e+00 -5.115649e+01 -1.000000e+02
<VARIANCE> 3
 4.375704e-02 2.256355e+03 1.000000e-02
<GCONST> 5.500865e+00
<STATE> 5
<NUMMIXES> 2
<MIXTURE> 1 1.250643e-01
<MEAN> 3
 -2.715242e+00 -2.072577e+00 -1.049647e+00
<VARIANCE> 3
 3.029152e+00 5.961489e+00 3.997814e+00
<GCONST> 9.792982e+00
<MIXTURE> 2 8.748977e-01
<MEAN> 3
 -8.440547e+00 -4.822022e+00 -1.000000e+02
<VARIANCE> 3
 4.825532e+00 6.534006e+01 1.000000e-02
<GCONST> 6.661988e+00
<STATE> 6
<NUMMIXES> 2
<MIXTURE> 1 1.001771e-01
<MEAN> 3
 -1.805782e+00 -8.160252e+00 -8.200060e+00
<VARIANCE> 3
 1.223902e+00 6.569455e+00 8.937981e+00
<GCONST> 9.788417e+00
<MIXTURE> 2 8.998210e-01
<MEAN> 3
 -8.111401e+00 -9.943938e+01 -1.000000e+02
<VARIANCE> 3
 4.777924e+00 5.500772e+01 1.000000e-02
<GCONST> 6.479941e+00
<STATE> 7
<NUMMIXES> 2
<MIXTURE> 1 9.879929e-01
<MEAN> 3
 -8.783425e+00 -8.265723e+00 -7.938066e+00
<VARIANCE> 3
 5.037926e+00 7.815120e+00 8.272732e+00
<GCONST> 1.129965e+01
<MIXTURE> 2 1.200592e-02
<MEAN> 3
 -4.129854e+00 -4.936322e+01 -1.000000e+02
<VARIANCE> 3
 6.720253e-01 2.433577e+03 1.000000e-02
<GCONST> 8.308119e+00
<TRANSP> 8
 0.000000e+00 1.000000e+00 0.000000e+00 0.000000e+00 0.000000e+00 0.000000e+00 0.000000e+00 0.000000e+00
 0.000000e+00 9.659657e-01 3.403432e-02 0.000000e+00 0.000000e+00 0.000000e+00 0.000000e+00 0.000000e+00
 0.000000e+00 0.000000e+00 9.250030e-01 7.499702e-02 0.000000e+00 0.000000e+00 0.000000e+00 0.000000e+00
 0.000000e+00 0.000000e+00 0.000000e+00 9.727476e-01 2.725243e-02 0.000000e+00 0.000000e+00 0.000000e+00
 0.000000e+00 0.000000e+00 0.000000e+00 0.000000e+00 9.797803e-01 2.021977e-02 0.000000e+00 0.000000e+00
 0.000000e+00 0.000000e+00 0.000000e+00 0.000000e+00 0.000000e+00 9.775683e-01 2.243170e-02 0.000000e+00
 0.000000e+00 0.000000e+00 0.000000e+00 0.000000e+00 0.000000e+00 0.000000e+00 9.733707e-01 2.662931e-02
 0.000000e+00 0.000000e+00 0.000000e+00 0.000000e+00 0.000000e+00 0.000000e+00 0.000000e+00 0.000000e+00
<ENDHMM>
~h "i"
<BEGINHMM>
<NUMSTATES> 8
<STATE> 2
<NUMMIXES> 2
<MIXTURE> 1 9.502791e-01
<MEAN> 3
 -8.098544e-01 -5.030948e+00 -6.977103e+00
<VARIANCE> 3
 5.218141e+00 1.892588e+01 1.475891e+01
<GCONST> 1.279815e+01
<MIXTURE> 2 4.972203e-02
<MEAN> 3
 -3.252049e+00 -4.657031e+01 -1.000000e+02
<VARIANCE> 3
 2.831348e-01 2.413974e+03 1.000000e-02
<GCONST> 7.435658e+00
<STATE> 3
<NUMMIXES> 2
<MIXTURE> 1 9.849389e-01
<MEAN> 3
 -7.313303e+00 -8.274902e+00 -3.268533e-03
<VARIANCE> 3
 1.186061e+01 6.951756e+00 1.000000e-02
<GCONST> 5.320679e+00
<MIXTURE> 2 1.506055e-02
<MEAN> 3
 -2.446902e+00 -5.016167e+01 -1.000000e+02
<VARIANCE> 3
 1.185792e-01 2.437640e+03 1.000000e-02
<GCONST> 6.575072e+00
<STATE> 4
<NUMMIXES> 2
<MIXTURE> 1 8.593269e-01
<MEAN> 3
 -5.475116e+00 -5.995039e-03 2.658710e+00
<VARIANCE> 3
 2.005514e+01 2.073416e-02 7.743280e+00
<GCONST> 6.682970e+00
<MIXTURE> 2 1.406699e-01
<MEAN> 3
 -4.188018e+00 -2.241620e+01 -1.000000e+02
<VARIANCE> 3
 1.079220e+01 1.749019e+03 1.000000e-02
<GCONST> 1.075410e+01
<STATE> 5
<NUMMIXES> 2
<MIXTURE> 1 9.860787e-01
<MEAN> 3
 -8.042794e+00 -1.277857e-03 7.793188e-04
<VARIANCE> 3
 7.684092e+00 1.000000e-02 1.000000e-02
<GCONST> -1.657557e+00
<MIXTURE> 2 1.391942e-02
<MEAN> 3
 -1.086167e+00 -4.985563e+01 -1.000000e+02
<VARIANCE> 3
 4.814969e-02 2.451507e+03 1.000000e-02
<GCONST> 5.679479e+00
<STATE> 6
<NUMMIXES> 2
<MIXTURE> 1 8.809225e-01
<MEAN> 3
 -3.757278e+00 1.545557e+00 5.879151e-01
<VARIANCE> 3
 1.705071e+01 4.048226e+00 1.188540e+01
<GCONST> 1.222341e+01
<MIXTURE> 2 1.190834e-01
<MEAN> 3
 -6.667325e-01 -4.583493e+01 -1.000000e+02
<VARIANCE> 3
 6.051274e-02 2.449202e+03 1.000000e-02
<GCONST> 5.907078e+00
<STATE> 7
<NUMMIXES> 2
<MIXTURE> 1 5.215904e-01
<MEAN> 3
 -1.853698e-03 1.176071e-03 2.026976e-03
<VARIANCE> 3
 1.000000e-02 1.000000e-02 1.000000e-02
<GCONST> -8.301880e+00
<MIXTURE> 2 4.783776e-01
<MEAN> 3
 -1.683853e-03 -1.527196e-01 -1.000000e+02
<VARIANCE> 3
 1.000000e-02 4.169157e+01 1.000000e-02
<GCONST> 3.358984e-02
<TRANSP> 8
 0.000000e+00 1.000000e+00 0.000000e+00 0.000000e+00 0.000000e+00 0.000000e+00 0.000000e+00 0.000000e+00
 0.000000e+00 9.025390e-01 9.746101e-02 0.000000e+00 0.000000e+00 0.000000e+00 0.000000e+00 0.000000e+00
 0.000000e+00 0.000000e+00 9.689318e-01 3.106822e-02 0.000000e+00 0.000000e+00 0.000000e+00 0.000000e+00
 0.000000e+00 0.000000e+00 0.000000e+00 8.724471e-01 1.275529e-01 0.000000e+00 0.000000e+00 0.000000e+00
 0.000000e+00 0.000000e+00 0.000000e+00 0.000000e+00 9.726576e-01 2.734239e-02 0.000000e+00 0.000000e+00
 0.000000e+00 0.000000e+00 0.000000e+00 0.000000e+00 0.000000e+00 8.784770e-01 1.215230e-01 0.000000e+00
 0.000000e+00 0.000000e+00 0.000000e+00 0.000000e+00 0.000000e+00 0.000000e+00 9.914607e-01 8.539272e-03
 0.000000e+00 0.000000e+00 0.000000e+00 0.000000e+00 0.000000e+00 0.000000e+00 0.000000e+00 0.000000e+00
<ENDHMM>
~h "m"
<BEGINHMM>
<NUMSTATES> 8
<STATE> 2
<NUMMIXES> 2
<MIXTURE> 1 1.834307e-01
<MEAN> 3
 7.153296e-04 6.211945e-03 2.884047e+00
<VARIANCE> 3
 1.000000e-02 1.000000e-02 9.172377e+00
<GCONST> -1.480513e+00
<MIXTURE> 2 8.165521e-01
<MEAN> 3
 6.865362e-04 -9.974111e+01 -1.000000e+02
<VARIANCE> 3
 1.000000e-02 2.594088e+01 1.000000e-02
<GCONST> -4.408894e-01
<STATE> 3
<NUMMIXES> 2
<MIXTURE> 1 9.831031e-01
<MEAN> 3
 2.947854e-03 2.520620e+00 2.063815e+00
<VARIANCE> 3
 1.000000e-02 3.987968e+00 9.408210e+00
<GCONST> 4.533325e+00
<MIXTURE> 2 1.689780e-02
<MEAN> 3
 2.806677e-01 -5.318931e+01 -1.000000e+02
<VARIANCE> 3
 1.000000e-02 2.514906e+03 1.000000e-02
<GCONST> 4.133281e+00
<STATE> 4
<NUMMIXES> 2
<MIXTURE> 1 9.512912e-01
<MEAN> 3
 2.233814e+00 2.318046e-01 -2.867830e+00
<VARIANCE> 3
 3.511770e+00 3.814728e-01 2.800736e+01
<GCONST> 9.138503e+00
<MIXTURE> 2 4.870915e-02
<MEAN> 3
 4.561151e-01 -5.107370e+01 -1.000000e+02
<VARIANCE> 3
 1.601785e-02 2.544580e+03 1.000000e-02
<GCONST> 4.616130e+00
<STATE> 5
<NUMMIXES> 2
<MIXTURE> 1 9.575992e-01
<MEAN> 3
 2.000941e+00 4.356728e+00 2.833154e+00
<VARIANCE> 3
 1.918732e+00 4.962550e+00 7.205945e+00
<GCONST> 9.742122e+00
<MIXTURE> 2 4.240176e-02
<MEAN> 3
 6.612739e-01 -5.006549e+01 -1.000000e+02
<VARIANCE> 3
 4.859916e-02 2.549308e+03 1.000000e-02
<GCONST> 5.727889e+00
<STATE> 6
<NUMMIXES> 2
<MIXTURE> 1 7.660001e-03
<MEAN> 3
 1.808102e+00 2.783349e+00 7.842624e-01
<VARIANCE> 3
 4.266230e+00 6.228004e+00 2.200068e+00
<GCONST> 9.581906e+00
<MIXTURE> 2 9.923412e-01
<MEAN> 3
 3.473389e+00 1.264882e+00 -1.000000e+02
<VARIANCE> 3
 7.569603e+00 6.010376e+01 1.000000e-02
<GCONST> 7.028674e+00
<STATE> 7
<NUMMIXES> 2
<MIXTURE> 1 1.510571e-02
<MEAN> 3
 1.909628e+00 2.898329e+00 7.731395e-01
<VARIANCE> 3
 4.586197e+00 6.668218e+00 2.054309e+00
<GCONST> 9.653975e+00
<MIXTURE> 2 9.848930e-01
<MEAN> 3
 4.275938e+00 -9.923617e+01 -1.000000e+02
<VARIANCE> 3
 9.122073e+00 7.545682e+01 1.000000e-02
<GCONST> 7.442719e+00
<TRANSP> 8
 0.000000e+00 1.000000e+00 0.000000e+00 0.000000e+00 0.000000e+00 0.000000e+00 0.000000e+00 0.000000e+00
 0.000000e+00 9.903225e-01 9.677524e-03 0.000000e+00 0.000000e+00 0.000000e+00 0.000000e+00 0.000000e+00
 0.000000e+00 0.000000e+00 9.642075e-01 3.579250e-02 0.000000e+00 0.000000e+00 0.000000e+00 0.000000e+00
 0.000000e+00 0.000000e+00 0.000000e+00 9.043193e-01 9.568063e-02 0.000000e+00 0.000000e+00 0.000000e+00
 0.000000e+00 0.000000e+00 0.000000e+00 0.000000e+00 9.186642e-01 8.133586e-02 0.000000e+00 0.000000e+00
 0.000000e+00 0.000000e+00 0.000000e+00 0.000000e+00 0.000000e+00 9.803142e-01 1.968582e-02 0.000000e+00
 0.000000e+00 0.000000e+00 0.000000e+00 0.000000e+00 0.000000e+00 0.000000e+00 9.613541e-01 3.864588e-02
 0.000000e+00 0.000000e+00 0.000000e+00 0.000000e+00 0.000000e+00 0.000000e+00 0.000000e+00 0.000000e+00
<ENDHMM>
~h "sil"
<BEGINHMM>
<NUMSTATES> 8
<STATE> 2
<NUMMIXES> 2
<MIXTURE> 1 9.273359e-01
<MEAN> 3
 9.437443e+00 3.285444e+00 1.093304e+00
<VARIANCE> 3
 7.416730e+00 7.622888e+00 3.462160e+00
<GCONST> 1.079042e+01
<MIXTURE> 2 7.266242e-02
<MEAN> 3
 4.942859e+00 -6.301205e+01 -6.106690e+01
<VARIANCE> 3
 5.690617e+00 2.014112e+03 2.237549e+03
<GCONST> 2.257352e+01
<STATE> 3
<NUMMIXES> 2
<MIXTURE> 1 3.650386e-02
<MEAN> 3
 5.095057e+00 -7.070140e+01 -7.091588e+01
<VARIANCE> 3
 8.695102e+00 2.134490e+03 2.110087e+03
<GCONST> 2.299686e+01
<MIXTURE> 2 9.634961e-01
<MEAN> 3
 9.254181e+00 -1.706573e-04 3.873829e-03
<VARIANCE> 3
 3.173712e+00 1.000000e-02 1.000000e-02
<GCONST> -2.541807e+00
<STATE> 4
<NUMMIXES> 2
<MIXTURE> 1 2.225290e-02
<MEAN> 3
 4.795804e+00 -8.455463e+01 -8.518580e+01
<VARIANCE> 3
 8.047934e+00 1.377598e+03 1.269008e+03
<GCONST> 2.197313e+01
<MIXTURE> 2 9.777471e-01
<MEAN> 3
 8.271322e+00 2.991820e-03 3.022051e+00
<VARIANCE> 3
 8.649360e+00 1.000000e-02 8.853456e+00
<GCONST> 5.246755e+00
<STATE> 5
<NUMMIXES> 2
<MIXTURE> 1 1.183607e-01
<MEAN> 3
 5.959653e+00 -5.483291e+01 -5.443691e+01
<VARIANCE> 3
 1.102815e+01 2.534821e+03 2.583309e+03
<GCONST> 2.360879e+01
<MIXTURE> 2 8.816386e-01
<MEAN> 3
 6.309465e+00 2.107379e-03 -8.624728e+00
<VARIANCE> 3
 5.861964e+00 1.000000e-02 5.489711e+00
<GCONST> 4.379821e+00
<STATE> 6
<NUMMIXES> 2
<MIXTURE> 1 7.886285e-02
<MEAN> 3
 4.718107e+00 -8.910209e+01 -8.950440e+01
<VARIANCE> 3
 7.892244e+00 1.038459e+03 9.635374e+02
<GCONST> 2.139562e+01
<MIXTURE> 2 9.211369e-01
<MEAN> 3
 7.742164e+00 1.192127e+00 2.700359e+00
<VARIANCE> 3
 8.674094e+00 5.094499e-01 1.996560e+00
<GCONST> 7.690974e+00
<STATE> 7
<NUMMIXES> 2
<MIXTURE> 1 9.575953e-01
<MEAN> 3
 8.143613e+00 4.222717e+00 3.158794e-03
<VARIANCE> 3
 1.286970e+01 8.507624e+00 1.000000e-02
<GCONST> 5.604300e+00
<MIXTURE> 2 4.240470e-02
<MEAN> 3
 4.882337e+00 -6.196780e+01 -6.153760e+01
<VARIANCE> 3
 7.085001e+00 2.447266e+03 2.504257e+03
<GCONST> 2.310009e+01
<TRANSP> 8
 0.000000e+00 1.000000e+00 0.000000e+00 0.000000e+00 0.000000e+00 0.000000e+00 0.000000e+00 0.000000e+00
 0.000000e+00 9.135250e-01 8.647497e-02 0.000000e+00 0.000000e+00 0.000000e+00 0.000000e+00 0.000000e+00
 0.000000e+00 0.000000e+00 9.479396e-01 5.206042e-02 0.000000e+00 0.000000e+00 0.000000e+00 0.000000e+00
 0.000000e+00 0.000000e+00 0.000000e+00 9.620623e-01 3.793771e-02 0.000000e+00 0.000000e+00 0.000000e+00
 0.000000e+00 0.000000e+00 0.000000e+00 0.000000e+00 8.688688e-01 1.311312e-01 0.000000e+00 0.000000e+00
 0.000000e+00 0.000000e+00 0.000000e+00 0.000000e+00 0.000000e+00 8.584496e-01 1.415504e-01 0.000000e+00
 0.000000e+00 0.000000e+00 0.000000e+00 0.000000e+00 0.000000e+00 0.000000e+00 9.467015e-01 5.329854e-02
 0.000000e+00 0.000000e+00 0.000000e+00 0.000000e+00 0.000000e+00 0.000000e+00 0.000000e+00 0.000000e+00
<ENDHMM>
