~o
<STREAMINFO> 1 1
<VECSIZE> 1<NULLD><USER><DIAGC>
~h "a"
<BEGINHMM>
<NUMSTATES> 8
<STATE> 2
<MEAN> 1
 3.127363e+00
<VARIANCE> 1
 3.007618e+00
<GCONST> 2.939025e+00
<STATE> 3
<MEAN> 1
 9.686926e+00
<VARIANCE> 1
 3.068469e+00
<GCONST> 2.959056e+00
<STATE> 4
<MEAN> 1
 4.525929e+00
<VARIANCE> 1
 3.171363e+00
<GCONST> 2.992038e+00
<STATE> 5
<MEAN> 1
 5.233505e+00
<VARIANCE> 1
 1.252331e+00
<GCONST> 2.062884e+00
<STATE> 6
<MEAN> 1
 1.767291e+00
<VARIANCE> 1
 9.589183e-01
<GCONST> 1.795928e+00
<STATE> 7
<MEAN> 1
 1.933152e-03
<VARIANCE> 1
 1.000000e-02
<GCONST> -2.767293e+00
<TRANSP> 8
 0.000000e+00 1.000000e+00 0.000000e+00 0.000000e+00 0.000000e+00 0.000000e+00 0.000000e+00 0.000000e+00
 0.000000e+00 9.487374e-01 5.126256e-02 0.000000e+00 0.000000e+00 0.000000e+00 0.000000e+00 0.000000e+00
 0.000000e+00 0.000000e+00 9.821976e-01 1.780235e-02 0.000000e+00 0.000000e+00 0.000000e+00 0.000000e+00
 0.000000e+00 0.000000e+00 0.000000e+00 7.519608e-01 2.480393e-01 0.000000e+00 0.000000e+00 0.000000e+00
 0.000000e+00 0.000000e+00 0.000000e+00 0.000000e+00 9.675224e-01 3.247757e-02 0.000000e+00 0.000000e+00
 0.000000e+00 0.000000e+00 0.000000e+00 0.000000e+00 0.000000e+00 9.527851e-01 4.721488e-02 0.000000e+00
 0.000000e+00 0.000000e+00 0.000000e+00 0.000000e+00 0.000000e+00 0.000000e+00 9.919345e-01 8.065397e-03
 0.000000e+00 0.000000e+00 0.000000e+00 0.000000e+00 0.000000e+00 0.000000e+00 0.000000e+00 0.000000e+00
<ENDHMM>
~h "e"
<BEGINHMM>
<NUMSTATES> 8
<STATE> 2
<MEAN> 1
 -1.424188e-03
<VARIANCE> 1
 1.000000e-02
<GCONST> -2.767293e+00
<STATE> 3
<MEAN> 1
 -7.874765e-01
<VARIANCE> 1
 1.402981e-01
<GCONST> -1.261091e-01
<STATE> 4
<MEAN> 1
 -2.352628e+00
<VARIANCE> 1
 6.919402e-01
<GCONST> 1.469621e+00
<STATE> 5
<MEAN> 1
 -4.792271e+00
<VARIANCE> 1
 2.562979e+00
<GCONST> 2.779047e+00
<STATE> 6
<MEAN> 1
 -5.976377e+00
<VARIANCE> 1
 4.081351e-01
<GCONST> 9.417199e-01
<STATE> 7
<MEAN> 1
 -8.713711e+00
<VARIANCE> 1
 8.921754e-01
<GCONST> 1.723785e+00
<TRANSP> 8
 0.000000e+00 1.000000e+00 0.000000e+00 0.000000e+00 0.000000e+00 0.000000e+00 0.000000e+00 0.000000e+00
 0.000000e+00 9.921755e-01 7.824490e-03 0.000000e+00 0.000000e+00 0.000000e+00 0.000000e+00 0.000000e+00
 0.000000e+00 0.000000e+00 9.417427e-01 5.825726e-02 0.000000e+00 0.000000e+00 0.000000e+00 0.000000e+00
 0.000000e+00 0.000000e+00 0.000000e+00 9.431649e-01 5.683507e-02 0.000000e+00 0.000000e+00 0.000000e+00
 0.000000e+00 0.000000e+00 0.000000e+00 0.000000e+00 9.010816e-01 9.891832e-02 0.000000e+00 0.000000e+00
 0.000000e+00 0.000000e+00 0.000000e+00 0.000000e+00 0.000000e+00 9.442226e-01 5.577740e-02 0.000000e+00
 0.000000e+00 0.000000e+00 0.000000e+00 0.000000e+00 0.000000e+00 0.000000e+00 9.681373e-01 3.186275e-02
 0.000000e+00 0.000000e+00 0.000000e+00 0.000000e+00 0.000000e+00 0.000000e+00 0.000000e+00 0.000000e+00
<ENDHMM>
~h "i"
<BEGINHMM>
<NUMSTATES> 8
<STATE> 2
<MEAN> 1
 -1.030200e+01
<VARIANCE> 1
 4.530465e-01
<GCONST> 1.046117e+00
<STATE> 3
<MEAN> 1
 -7.768936e+00
<VARIANCE> 1
 2.793077e+00
<GCONST> 2.865021e+00
<STATE> 4
<MEAN> 1
 -3.516955e+00
<VARIANCE> 1
 7.659511e-01
<GCONST> 1.571240e+00
<STATE> 5
<MEAN> 1
 -2.064276e+00
<VARIANCE> 1
 5.712095e-02
<GCONST> -1.024707e+00
<STATE> 6
<MEAN> 1
 -9.455211e-01
<VARIANCE> 1
 1.896095e-01
<GCONST> 1.750883e-01
<STATE> 7
<MEAN> 1
 -9.426549e-02
<VARIANCE> 1
 1.032991e-02
<GCONST> -2.734834e+00
<TRANSP> 8
 0.000000e+00 1.000000e+00 0.000000e+00 0.000000e+00 0.000000e+00 0.000000e+00 0.000000e+00 0.000000e+00
 0.000000e+00 9.877886e-01 1.221137e-02 0.000000e+00 0.000000e+00 0.000000e+00 0.000000e+00 0.000000e+00
 0.000000e+00 0.000000e+00 9.786872e-01 2.131288e-02 0.000000e+00 0.000000e+00 0.000000e+00 0.000000e+00
 0.000000e+00 0.000000e+00 0.000000e+00 7.734847e-01 2.265152e-01 0.000000e+00 0.000000e+00 0.000000e+00
 0.000000e+00 0.000000e+00 0.000000e+00 0.000000e+00 0.000000e+00 1.000000e+00 0.000000e+00 0.000000e+00
 0.000000e+00 0.000000e+00 0.000000e+00 0.000000e+00 0.000000e+00 7.582079e-01 2.417922e-01 0.000000e+00
 0.000000e+00 0.000000e+00 0.000000e+00 0.000000e+00 0.000000e+00 0.000000e+00 5.788873e-01 4.211127e-01
 0.000000e+00 0.000000e+00 0.000000e+00 0.000000e+00 0.000000e+00 0.000000e+00 0.000000e+00 0.000000e+00
<ENDHMM>
~h "m"
<BEGINHMM>
<NUMSTATES> 8
<STATE> 2
<MEAN> 1
 9.811616e-04
<VARIANCE> 1
 1.000000e-02
<GCONST> -2.767293e+00
<STATE> 3
<MEAN> 1
 8.902110e-01
<VARIANCE> 1
 6.022696e-02
<GCONST> -9.717581e-01
<STATE> 4
<MEAN> 1
 1.338224e+00
<VARIANCE> 1
 9.102980e-01
<GCONST> 1.743894e+00
<STATE> 5
<MEAN> 1
 2.874559e+00
<VARIANCE> 1
 4.541393e-01
<GCONST> 1.048526e+00
<STATE> 6
<MEAN> 1
 5.005207e+00
<VARIANCE> 1
 6.260002e-01
<GCONST> 1.369473e+00
<STATE> 7
<MEAN> 1
 7.693371e+00
<VARIANCE> 1
 1.224366e+00
<GCONST> 2.040300e+00
<TRANSP> 8
 0.000000e+00 1.000000e+00 0.000000e+00 0.000000e+00 0.000000e+00 0.000000e+00 0.000000e+00 0.000000e+00
 0.000000e+00 9.961985e-01 3.801525e-03 0.000000e+00 0.000000e+00 0.000000e+00 0.000000e+00 0.000000e+00
 0.000000e+00 0.000000e+00 9.255601e-01 7.443991e-02 0.000000e+00 0.000000e+00 0.000000e+00 0.000000e+00
 0.000000e+00 0.000000e+00 0.000000e+00 9.436162e-01 5.638383e-02 0.000000e+00 0.000000e+00 0.000000e+00
 0.000000e+00 0.000000e+00 0.000000e+00 0.000000e+00 9.260734e-01 7.392662e-02 0.000000e+00 0.000000e+00
 0.000000e+00 0.000000e+00 0.000000e+00 0.000000e+00 0.000000e+00 9.451127e-01 5.488728e-02 0.000000e+00
 0.000000e+00 0.000000e+00 0.000000e+00 0.000000e+00 0.000000e+00 0.000000e+00 9.505066e-01 4.949344e-02
 0.000000e+00 0.000000e+00 0.000000e+00 0.000000e+00 0.000000e+00 0.000000e+00 0.000000e+00 0.000000e+00
<ENDHMM>
~h "sil"
<BEGINHMM>
<NUMSTATES> 8
<STATE> 2
<MEAN> 1
 1.211876e+01
<VARIANCE> 1
 1.271582e+01
<GCONST> 4.380724e+00
<STATE> 3
<MEAN> 1
 1.082444e+01
<VARIANCE> 1
 6.098162e-01
<GCONST> 1.343279e+00
<STATE> 4
<MEAN> 1
 9.261236e+00
<VARIANCE> 1
 7.688408e-01
<GCONST> 1.575006e+00
<STATE> 5
<MEAN> 1
 7.422471e+00
<VARIANCE> 1
 1.106736e+00
<GCONST> 1.939292e+00
<STATE> 6
<MEAN> 1
 8.216942e+00
<VARIANCE> 1
 6.332106e+00
<GCONST> 3.683510e+00
<STATE> 7
<MEAN> 1
 5.495112e+00
<VARIANCE> 1
 1.998869e+00
<GCONST> 2.530459e+00
<TRANSP> 8
 0.000000e+00 1.000000e+00 0.000000e+00 0.000000e+00 0.000000e+00 0.000000e+00 0.000000e+00 0.000000e+00
 0.000000e+00 9.492763e-01 5.072371e-02 0.000000e+00 0.000000e+00 0.000000e+00 0.000000e+00 0.000000e+00
 0.000000e+00 0.000000e+00 9.802866e-01 1.971340e-02 0.000000e+00 0.000000e+00 0.000000e+00 0.000000e+00
 0.000000e+00 0.000000e+00 0.000000e+00 9.621714e-01 3.782867e-02 0.000000e+00 0.000000e+00 0.000000e+00
 0.000000e+00 0.000000e+00 0.000000e+00 0.000000e+00 9.243568e-01 7.564320e-02 0.000000e+00 0.000000e+00
 0.000000e+00 0.000000e+00 0.000000e+00 0.000000e+00 0.000000e+00 7.136735e-01 2.863265e-01 0.000000e+00
 0.000000e+00 0.000000e+00 0.000000e+00 0.000000e+00 0.000000e+00 0.000000e+00 9.212665e-01 7.873354e-02
 0.000000e+00 0.000000e+00 0.000000e+00 0.000000e+00 0.000000e+00 0.000000e+00 0.000000e+00 0.000000e+00
<ENDHMM>
