~o
<STREAMINFO> 1 3
<VECSIZE> 3<NULLD><USER><DIAGC>
~h "a"
<BEGINHMM>
<NUMSTATES> 8
<STATE> 2
<NUMMIXES> 2
<MIXTURE> 1 6.032789e-01
<MEAN> 3
 3.827363e+00 3.738154e+00 1.929770e+00
<VARIANCE> 3
 8.792033e+00 5.711209e+00 1.003269e+01
<GCONST> 1.173576e+01
<MIXTURE> 2 3.967205e-01
<MEAN> 3
 2.158558e-01 -5.463583e+01 -1.000000e+02
<VARIANCE> 3
 5.156714e-01 2.498837e+03 1.000000e-02
<GCONST> 8.069757e+00
<STATE> 3
<NUMMIXES> 2
<MIXTURE> 1 9.927645e-03
<MEAN> 3
 3.149628e+00 2.975955e+00 -2.138222e+01
<VARIANCE> 3
 8.679486e+00 8.956422e+00 1.841069e+03
<GCONST> 1.738507e+01
<MIXTURE> 2 9.900707e-01
<MEAN> 3
 -5.894494e-04 -1.000000e+02 -1.000000e+02
<VARIANCE> 3
 1.000000e-02 1.000000e-02 1.000000e-02
<GCONST> -8.301880e+00
<STATE> 4
<NUMMIXES> 2
<MIXTURE> 1 9.914289e-01
<MEAN> 3
 5.245058e+00 5.764363e+00 4.445461e+00
<VARIANCE> 3
 9.704394e+00 6.531186e+00 8.261272e+00
<GCONST> 1.177438e+01
<MIXTURE> 2 8.571396e-03
<MEAN> 3
 1.753619e-01 -5.459870e+01 -1.000000e+02
<VARIANCE> 3
 4.611307e-02 2.496559e+03 1.000000e-02
<GCONST> 5.654470e+00
<STATE> 5
<NUMMIXES> 2
<MIXTURE> 1 9.737140e-01
<MEAN> 3
 1.711303e+00 1.182118e-01 -5.750751e-01
<VARIANCE> 3
 5.652679e+00 3.564802e-01 4.044458e+01
<GCONST> 9.914217e+00
<MIXTURE> 2 2.628613e-02
<MEAN> 3
 8.699570e-02 -5.247284e+01 -1.000000e+02
<VARIANCE> 3
 1.367944e-02 2.520005e+03 1.000000e-02
<GCONST> 4.448616e+00
<STATE> 6
<NUMMIXES> 2
<MIXTURE> 1 9.901819e-01
<MEAN> 3
 4.692110e+00 9.185745e-01 1.285945e-03
<VARIANCE> 3
 9.266928e+00 3.079094e+00 1.000000e-02
<GCONST> 4.259548e+00
<MIXTURE> 2 9.817589e-03
<MEAN> 3
 3.441260e-02 -4.979746e+01 -1.000000e+02
<VARIANCE> 3
 1.000000e-02 2.522315e+03 1.000000e-02
<GCONST> 4.136224e+00
<STATE> 7
<NUMMIXES> 2
<MIXTURE> 1 9.559468e-02
<MEAN> 3
 2.063941e-02 -6.904496e+00 7.976823e-02
<VARIANCE> 3
 1.000000e-02 1.340708e+01 1.327465e-01
<GCONST> 1.484930e+00
<MIXTURE> 2 9.043902e-01
<MEAN> 3
 -7.439097e-04 -1.807928e+00 -1.000000e+02
<VARIANCE> 3
 1.000000e-02 4.825555e+01 1.000000e-02
<GCONST> 1.798019e-01
<TRANSP> 8
 0.000000e+00 1.000000e+00 0.000000e+00 0.000000e+00 0.000000e+00 0.000000e+00 0.000000e+00 0.000000e+00
 0.000000e+00 1.052636e-08 1.000000e+00 0.000000e+00 0.000000e+00 0.000000e+00 0.000000e+00 0.000000e+00
 0.000000e+00 0.000000e+00 9.873371e-01 1.266287e-02 0.000000e+00 0.000000e+00 0.000000e+00 0.000000e+00
 0.000000e+00 0.000000e+00 0.000000e+00 9.784208e-01 2.157921e-02 0.000000e+00 0.000000e+00 0.000000e+00
 0.000000e+00 0.000000e+00 0.000000e+00 0.000000e+00 9.362956e-01 6.370447e-02 0.000000e+00 0.000000e+00
 0.000000e+00 0.000000e+00 0.000000e+00 0.000000e+00 0.000000e+00 9.774310e-01 2.256905e-02 0.000000e+00
 0.000000e+00 0.000000e+00 0.000000e+00 0.000000e+00 0.000000e+00 0.000000e+00 9.834235e-01 1.657652e-02
 0.000000e+00 0.000000e+00 0.000000e+00 0.000000e+00 0.000000e+00 0.000000e+00 0.000000e+00 0.000000e+00
<ENDHMM>
~h "e"
<BEGINHMM>
<NUMSTATES> 8
<STATE> 2
<NUMMIXES> 2
<MIXTURE> 1 9.935746e-01
<MEAN> 3
 5.382410e-04 -9.410169e-04 -2.307921e-03
<VARIANCE> 3
 1.000000e-02 1.000000e-02 1.000000e-02
<GCONST> -8.301880e+00
<MIXTURE> 2 6.426266e-03
<MEAN> 3
 -1.345049e-01 -5.174880e+01 -1.000000e+02
<VARIANCE> 3
 2.483178e-02 2.272464e+03 1.000000e-02
<GCONST> 4.941450e+00
<STATE> 3
<NUMMIXES> 2
<MIXTURE> 1 9.919486e-01
<MEAN> 3
 -1.779025e-03 -2.976781e+00 -5.514107e+00
<VARIANCE> 3
 1.000000e-02 1.474567e+01 1.772134e+01
<GCONST> 6.474180e+00
<MIXTURE> 2 8.052029e-03
<MEAN> 3
 -2.377500e-01 -5.155045e+01 -1.000000e+02
<VARIANCE> 3
 6.033842e-02 2.272683e+03 1.000000e-02
<GCONST> 5.829391e+00
<STATE> 4
<NUMMIXES> 2
<MIXTURE> 1 9.771674e-01
<MEAN> 3
 -5.624185e+00 -3.141007e+00 -5.375367e-01
<VARIANCE> 3
 1.386162e+01 1.227292e+01 2.051580e+00
<GCONST> 1.136876e+01
<MIXTURE> 2 2.283264e-02
<MEAN> 3
 -3.756893e-01 -5.040114e+01 -1.000000e+02
<VARIANCE> 3
 1.419131e-01 2.272168e+03 1.000000e-02
<GCONST> 6.684411e+00
<STATE> 5
<NUMMIXES> 2
<MIXTURE> 1 9.649033e-01
<MEAN> 3
 -2.570448e+00 -7.795270e+00 -8.462172e+00
<VARIANCE> 3
 4.049206e+00 8.747267e+00 4.835272e+00
<GCONST> 1.065683e+01
<MIXTURE> 2 3.509689e-02
<MEAN> 3
 -5.560824e-01 -4.879825e+01 -1.000000e+02
<VARIANCE> 3
 3.385430e-01 2.269461e+03 1.000000e-02
<GCONST> 7.552655e+00
<STATE> 6
<NUMMIXES> 2
<MIXTURE> 1 3.160724e-02
<MEAN> 3
 -7.258913e+00 -2.753863e+00 -3.294091e-02
<VARIANCE> 3
 9.460681e+00 1.667890e+01 4.134926e+01
<GCONST> 1.429697e+01
<MIXTURE> 2 9.683915e-01
<MEAN> 3
 -7.538575e+00 -4.889976e+00 -1.000000e+02
<VARIANCE> 3
 9.994959e+00 5.922570e+01 1.000000e-02
<GCONST> 7.291898e+00
<STATE> 7
<NUMMIXES> 2
<MIXTURE> 1 9.863228e-01
<MEAN> 3
 -9.286768e+00 -9.253969e+00 -8.050832e+00
<VARIANCE> 3
 3.037514e+00 2.623886e+00 6.740271e+00
<GCONST> 9.497427e+00
<MIXTURE> 2 1.367736e-02
<MEAN> 3
 -2.095688e+00 -4.931601e+01 -1.000000e+02
<VARIANCE> 3
 5.011971e+00 2.392214e+03 1.000000e-02
<GCONST> 1.030027e+01
<TRANSP> 8
 0.000000e+00 1.000000e+00 0.000000e+00 0.000000e+00 0.000000e+00 0.000000e+00 0.000000e+00 0.000000e+00
 0.000000e+00 9.854304e-01 1.456969e-02 0.000000e+00 0.000000e+00 0.000000e+00 0.000000e+00 0.000000e+00
 0.000000e+00 0.000000e+00 9.818193e-01 1.818076e-02 0.000000e+00 0.000000e+00 0.000000e+00 0.000000e+00
 0.000000e+00 0.000000e+00 0.000000e+00 9.496840e-01 5.031608e-02 0.000000e+00 0.000000e+00 0.000000e+00
 0.000000e+00 0.000000e+00 0.000000e+00 0.000000e+00 9.252695e-01 7.473048e-02 0.000000e+00 0.000000e+00
 0.000000e+00 0.000000e+00 0.000000e+00 0.000000e+00 0.000000e+00 9.804754e-01 1.952464e-02 0.000000e+00
 0.000000e+00 0.000000e+00 0.000000e+00 0.000000e+00 0.000000e+00 0.000000e+00 9.697233e-01 3.027664e-02
 0.000000e+00 0.000000e+00 0.000000e+00 0.000000e+00 0.000000e+00 0.000000e+00 0.000000e+00 0.000000e+00
<ENDHMM>
~h "i"
<BEGINHMM>
<NUMSTATES> 8
<STATE> 2
<NUMMIXES> 2
<MIXTURE> 1 9.742677e-01
<MEAN> 3
 -1.894539e+00 -3.813542e+00 -8.307119e+00
<VARIANCE> 3
 1.243200e+01 1.846802e+01 8.506974e+00
<GCONST> 1.309083e+01
<MIXTURE> 2 2.573090e-02
<MEAN> 3
 -1.676069e+00 -4.922540e+01 -1.000000e+02
<VARIANCE> 3
 3.270610e+00 2.394226e+03 1.000000e-02
<GCONST> 9.874253e+00
<STATE> 3
<NUMMIXES> 2
<MIXTURE> 1 9.830914e-01
<MEAN> 3
 -7.965656e+00 -8.163846e+00 -5.211098e-03
<VARIANCE> 3
 9.161234e+00 7.421906e+00 1.000000e-02
<GCONST> 5.127877e+00
<MIXTURE> 2 1.690891e-02
<MEAN> 3
 -1.270912e+00 -4.923750e+01 -1.000000e+02
<VARIANCE> 3
 2.006808e+00 2.396835e+03 1.000000e-02
<GCONST> 9.386910e+00
<STATE> 4
<NUMMIXES> 2
<MIXTURE> 1 9.818162e-01
<MEAN> 3
 -7.791953e+00 -2.892523e-03 7.894555e-03
<VARIANCE> 3
 8.791623e+00 1.000000e-02 1.000000e-02
<GCONST> -1.522910e+00
<MIXTURE> 2 1.818331e-02
<MEAN> 3
 -9.492357e-01 -4.720811e+01 -1.000000e+02
<VARIANCE> 3
 1.183976e+00 2.396027e+03 1.000000e-02
<GCONST> 8.858907e+00
<STATE> 5
<NUMMIXES> 2
<MIXTURE> 1 9.931421e-01
<MEAN> 3
 -2.603457e-03 9.306005e-04 1.269028e-03
<VARIANCE> 3
 1.000000e-02 1.000000e-02 1.000000e-02
<GCONST> -8.301880e+00
<MIXTURE> 2 6.856020e-03
<MEAN> 3
 -6.175783e-01 -4.849487e+01 -1.000000e+02
<VARIANCE> 3
 7.140471e-01 2.401328e+03 1.000000e-02
<GCONST> 8.355432e+00
<STATE> 6
<NUMMIXES> 2
<MIXTURE> 1 9.392245e-01
<MEAN> 3
 -6.480216e+00 3.490393e-01 1.431868e+00
<VARIANCE> 3
 1.627719e+01 7.344111e-01 4.369127e+00
<GCONST> 9.469274e+00
<MIXTURE> 2 6.077559e-02
<MEAN> 3
 -3.848900e-01 -4.721964e+01 -1.000000e+02
<VARIANCE> 3
 4.353720e-01 2.399490e+03 1.000000e-02
<GCONST> 7.859919e+00
<STATE> 7
<NUMMIXES> 2
<MIXTURE> 1 9.573295e-01
<MEAN> 3
 4.828470e-04 2.323957e+00 5.110236e-01
<VARIANCE> 3
 1.000000e-02 3.668716e+00 1.436329e+00
<GCONST> 2.570394e+00
<MIXTURE> 2 4.267100e-02
<MEAN> 3
 -1.685007e-01 -4.813601e+01 -1.000000e+02
<VARIANCE> 3
 2.544748e-01 2.404032e+03 1.000000e-02
<GCONST> 7.324810e+00
<TRANSP> 8
 0.000000e+00 1.000000e+00 0.000000e+00 0.000000e+00 0.000000e+00 0.000000e+00 0.000000e+00 0.000000e+00
 0.000000e+00 9.431216e-01 5.687840e-02 0.000000e+00 0.000000e+00 0.000000e+00 0.000000e+00 0.000000e+00
 0.000000e+00 0.000000e+00 9.625919e-01 3.740806e-02 0.000000e+00 0.000000e+00 0.000000e+00 0.000000e+00
 0.000000e+00 0.000000e+00 0.000000e+00 9.614118e-01 3.858817e-02 0.000000e+00 0.000000e+00 0.000000e+00
 0.000000e+00 0.000000e+00 0.000000e+00 0.000000e+00 9.850459e-01 1.495403e-02 0.000000e+00 0.000000e+00
 0.000000e+00 0.000000e+00 0.000000e+00 0.000000e+00 0.000000e+00 8.708985e-01 1.291015e-01 0.000000e+00
 0.000000e+00 0.000000e+00 0.000000e+00 0.000000e+00 0.000000e+00 0.000000e+00 9.075572e-01 9.244280e-02
 0.000000e+00 0.000000e+00 0.000000e+00 0.000000e+00 0.000000e+00 0.000000e+00 0.000000e+00 0.000000e+00
<ENDHMM>
~h "m"
<BEGINHMM>
<NUMSTATES> 8
<STATE> 2
<NUMMIXES> 2
<MIXTURE> 1 2.577335e-02
<MEAN> 3
 -8.577110e-03 4.908268e+00 1.575530e+02
<VARIANCE> 3
 8.205508e-02 1.462733e+01 5.030482e+04
<GCONST> 1.652201e+01
<MIXTURE> 2 9.742257e-01
<MEAN> 3
 1.182847e-03 -3.029123e-01 -1.000000e+02
<VARIANCE> 3
 1.000000e-02 4.445642e+01 1.000000e-02
<GCONST> 9.780025e-02
<STATE> 3
<NUMMIXES> 2
<MIXTURE> 1 9.739907e-01
<MEAN> 3
 4.270856e-03 1.024287e-02 3.269580e+00
<VARIANCE> 3
 1.000000e-02 1.000000e-02 9.227855e+00
<GCONST> -1.474483e+00
<MIXTURE> 2 2.600705e-02
<MEAN> 3
 2.880286e-01 -4.153874e+01 -1.000000e+02
<VARIANCE> 3
 1.516184e-02 2.521237e+03 1.000000e-02
<GCONST> 4.551993e+00
<STATE> 4
<NUMMIXES> 2
<MIXTURE> 1 9.838988e-01
<MEAN> 3
 3.473768e+00 3.127926e+00 5.215906e-02
<VARIANCE> 3
 1.159544e+01 1.019309e+01 1.683569e-01
<GCONST> 8.504284e+00
<MIXTURE> 2 1.610317e-02
<MEAN> 3
 4.658551e-01 -4.161365e+01 -1.000000e+02
<VARIANCE> 3
 3.015052e-02 2.521133e+03 1.000000e-02
<GCONST> 5.239371e+00
<STATE> 5
<NUMMIXES> 2
<MIXTURE> 1 9.787790e-01
<MEAN> 3
 5.121998e-01 4.328915e+00 3.921840e+00
<VARIANCE> 3
 8.662335e-01 7.910899e+00 1.042780e+01
<GCONST> 9.782746e+00
<MIXTURE> 2 2.121679e-02
<MEAN> 3
 6.732363e-01 -4.136902e+01 -1.000000e+02
<VARIANCE> 3
 6.515696e-02 2.517132e+03 1.000000e-02
<GCONST> 6.008380e+00
<STATE> 6
<NUMMIXES> 2
<MIXTURE> 1 6.531651e-02
<MEAN> 3
 4.884164e+00 6.761267e+00 2.326640e+02
<VARIANCE> 3
 8.565871e+00 6.756141e+00 7.492277e+04
<GCONST> 2.079608e+01
<MIXTURE> 2 9.346798e-01
<MEAN> 3
 4.226011e+00 1.011246e+00 -1.000000e+02
<VARIANCE> 3
 8.333491e+00 5.213448e+01 1.000000e-02
<GCONST> 6.982570e+00
<STATE> 7
<NUMMIXES> 2
<MIXTURE> 1 2.510178e-02
<MEAN> 3
 6.383651e+00 3.106512e+02 2.193925e+02
<VARIANCE> 3
 8.785875e+00 7.139262e+04 2.100728e+04
<GCONST> 2.881535e+01
<MIXTURE> 2 9.748952e-01
<MEAN> 3
 -1.809073e+00 -1.000000e+02 -1.000000e+02
<VARIANCE> 3
 2.350093e+01 1.000000e-02 1.000000e-02
<GCONST> -5.396690e-01
<TRANSP> 8
 0.000000e+00 1.000000e+00 0.000000e+00 0.000000e+00 0.000000e+00 0.000000e+00 0.000000e+00 0.000000e+00
 0.000000e+00 9.830339e-01 1.696609e-02 0.000000e+00 0.000000e+00 0.000000e+00 0.000000e+00 0.000000e+00
 0.000000e+00 0.000000e+00 9.492769e-01 5.072315e-02 0.000000e+00 0.000000e+00 0.000000e+00 0.000000e+00
 0.000000e+00 0.000000e+00 0.000000e+00 9.685462e-01 3.145380e-02 0.000000e+00 0.000000e+00 0.000000e+00
 0.000000e+00 0.000000e+00 0.000000e+00 0.000000e+00 9.587973e-01 4.120273e-02 0.000000e+00 0.000000e+00
 0.000000e+00 0.000000e+00 0.000000e+00 0.000000e+00 0.000000e+00 9.810264e-01 1.897365e-02 0.000000e+00
 0.000000e+00 0.000000e+00 0.000000e+00 0.000000e+00 0.000000e+00 0.000000e+00 9.925021e-01 7.497931e-03
 0.000000e+00 0.000000e+00 0.000000e+00 0.000000e+00 0.000000e+00 0.000000e+00 0.000000e+00 0.000000e+00
<ENDHMM>
~h "sil"
<BEGINHMM>
<NUMSTATES> 8
<STATE> 2
<NUMMIXES> 2
<MIXTURE> 1 9.158465e-01
<MEAN> 3
 9.388780e+00 -7.794845e-05 1.907804e-03
<VARIANCE> 3
 5.004486e+00 1.000000e-02 1.000000e-02
<GCONST> -2.086374e+00
<MIXTURE> 2 8.415349e-02
<MEAN> 3
 7.481591e+00 -1.746441e+01 -1.669006e+01
<VARIANCE> 3
 7.134730e+00 9.845884e+02 1.001199e+03
<GCONST> 2.127978e+01
<STATE> 3
<NUMMIXES> 2
<MIXTURE> 1 9.215180e-01
<MEAN> 3
 9.739250e+00 2.119807e+00 1.264087e+00
<VARIANCE> 3
 2.959644e+00 2.636879e+00 1.587104e+00
<GCONST> 8.030208e+00
<MIXTURE> 2 7.848191e-02
<MEAN> 3
 3.998584e+00 -1.000000e+02 -1.000000e+02
<VARIANCE> 3
 3.748684e+00 1.000000e-02 1.000000e-02
<GCONST> -2.375304e+00
<STATE> 4
<NUMMIXES> 2
<MIXTURE> 1 8.174264e-02
<MEAN> 3
 7.308455e+00 -2.350777e+01 -2.099995e+01
<VARIANCE> 3
 1.286794e+01 1.982219e+03 2.124498e+03
<GCONST> 2.332163e+01
<MIXTURE> 2 9.182572e-01
<MEAN> 3
 7.735150e+00 5.328140e-03 3.785402e+00
<VARIANCE> 3
 1.483877e+01 1.000000e-02 9.870243e+00
<GCONST> 5.895229e+00
<STATE> 5
<NUMMIXES> 2
<MIXTURE> 1 3.332222e-02
<MEAN> 3
 5.304132e+00 -6.384790e+01 -6.285275e+01
<VARIANCE> 3
 9.552279e+00 2.341158e+03 2.474256e+03
<GCONST> 2.334251e+01
<MIXTURE> 2 9.666779e-01
<MEAN> 3
 6.560364e+00 4.879664e+00 2.059303e-03
<VARIANCE> 3
 6.250076e+00 7.328633e+00 1.000000e-02
<GCONST> 4.732843e+00
<STATE> 6
<NUMMIXES> 2
<MIXTURE> 1 4.323910e-02
<MEAN> 3
 4.096336e+00 -1.000000e+02 -1.000000e+02
<VARIANCE> 3
 3.808736e+00 1.000000e-02 1.000000e-02
<GCONST> -2.359412e+00
<MIXTURE> 2 9.567611e-01
<MEAN> 3
 6.145550e+00 1.464186e+00 4.147511e+00
<VARIANCE> 3
 5.855209e+00 1.318763e+00 6.954198e+00
<GCONST> 9.497003e+00
<STATE> 7
<NUMMIXES> 2
<MIXTURE> 1 9.528467e-02
<MEAN> 3
 4.980175e+00 -5.344754e+01 -5.354578e+01
<VARIANCE> 3
 7.136154e+00 2.656054e+03 2.647337e+03
<GCONST> 2.324471e+01
<MIXTURE> 2 9.047145e-01
<MEAN> 3
 5.610941e+00 1.897445e-03 -7.689844e+00
<VARIANCE> 3
 5.405303e+00 1.000000e-02 1.030792e+01
<GCONST> 4.928754e+00
<TRANSP> 8
 0.000000e+00 1.000000e+00 0.000000e+00 0.000000e+00 0.000000e+00 0.000000e+00 0.000000e+00 0.000000e+00
 0.000000e+00 9.791019e-01 2.089813e-02 0.000000e+00 0.000000e+00 0.000000e+00 0.000000e+00 0.000000e+00
 0.000000e+00 0.000000e+00 8.831513e-01 1.168488e-01 0.000000e+00 0.000000e+00 0.000000e+00 0.000000e+00
 0.000000e+00 0.000000e+00 0.000000e+00 9.586515e-01 4.134845e-02 0.000000e+00 0.000000e+00 0.000000e+00
 0.000000e+00 0.000000e+00 0.000000e+00 0.000000e+00 9.572307e-01 4.276935e-02 0.000000e+00 0.000000e+00
 0.000000e+00 0.000000e+00 0.000000e+00 0.000000e+00 0.000000e+00 9.258044e-01 7.419555e-02 0.000000e+00
 0.000000e+00 0.000000e+00 0.000000e+00 0.000000e+00 0.000000e+00 0.000000e+00 8.950574e-01 1.049426e-01
 0.000000e+00 0.000000e+00 0.000000e+00 0.000000e+00 0.000000e+00 0.000000e+00 0.000000e+00 0.000000e+00
<ENDHMM>
