~o
<STREAMINFO> 1 1
<VECSIZE> 1<NULLD><USER><DIAGC>
~h "a"
<BEGINHMM>
<NUMSTATES> 8
<STATE> 2
<MEAN> 1
 3.454221e+00
<VARIANCE> 1
 3.971107e+00
<GCONST> 3.216922e+00
<STATE> 3
<MEAN> 1
 1.038802e+01
<VARIANCE> 1
 2.358106e+00
<GCONST> 2.695736e+00
<STATE> 4
<MEAN> 1
 7.045206e+00
<VARIANCE> 1
 1.130943e+00
<GCONST> 1.960928e+00
<STATE> 5
<MEAN> 1
 4.392946e+00
<VARIANCE> 1
 8.489539e-01
<GCONST> 1.674127e+00
<STATE> 6
<MEAN> 1
 1.684395e+00
<VARIANCE> 1
 8.797476e-01
<GCONST> 1.709757e+00
<STATE> 7
<MEAN> 1
 1.892261e-03
<VARIANCE> 1
 1.000000e-02
<GCONST> -2.767293e+00
<TRANSP> 8
 0.000000e+00 1.000000e+00 0.000000e+00 0.000000e+00 0.000000e+00 0.000000e+00 0.000000e+00 0.000000e+00
 0.000000e+00 9.348314e-01 6.516860e-02 0.000000e+00 0.000000e+00 0.000000e+00 0.000000e+00 0.000000e+00
 0.000000e+00 0.000000e+00 9.757587e-01 2.424128e-02 0.000000e+00 0.000000e+00 0.000000e+00 0.000000e+00
 0.000000e+00 0.000000e+00 0.000000e+00 9.621668e-01 3.783319e-02 0.000000e+00 0.000000e+00 0.000000e+00
 0.000000e+00 0.000000e+00 0.000000e+00 0.000000e+00 9.592649e-01 4.073506e-02 0.000000e+00 0.000000e+00
 0.000000e+00 0.000000e+00 0.000000e+00 0.000000e+00 0.000000e+00 9.502213e-01 4.977871e-02 0.000000e+00
 0.000000e+00 0.000000e+00 0.000000e+00 0.000000e+00 0.000000e+00 0.000000e+00 9.919697e-01 8.030263e-03
 0.000000e+00 0.000000e+00 0.000000e+00 0.000000e+00 0.000000e+00 0.000000e+00 0.000000e+00 0.000000e+00
<ENDHMM>
~h "e"
<BEGINHMM>
<NUMSTATES> 8
<STATE> 2
<MEAN> 1
 -1.420750e-03
<VARIANCE> 1
 1.000000e-02
<GCONST> -2.767293e+00
<STATE> 3
<MEAN> 1
 -7.781805e-01
<VARIANCE> 1
 1.363769e-01
<GCONST> -1.544558e-01
<STATE> 4
<MEAN> 1
 -2.219407e+00
<VARIANCE> 1
 6.493077e-01
<GCONST> 1.406029e+00
<STATE> 5
<MEAN> 1
 -4.391963e+00
<VARIANCE> 1
 4.770586e-01
<GCONST> 1.097761e+00
<STATE> 6
<MEAN> 1
 -6.217892e+00
<VARIANCE> 1
 4.631766e-01
<GCONST> 1.068230e+00
<STATE> 7
<MEAN> 1
 -8.600862e+00
<VARIANCE> 1
 5.840141e-01
<GCONST> 1.300047e+00
<TRANSP> 8
 0.000000e+00 1.000000e+00 0.000000e+00 0.000000e+00 0.000000e+00 0.000000e+00 0.000000e+00 0.000000e+00
 0.000000e+00 9.921407e-01 7.859316e-03 0.000000e+00 0.000000e+00 0.000000e+00 0.000000e+00 0.000000e+00
 0.000000e+00 0.000000e+00 9.408395e-01 5.916055e-02 0.000000e+00 0.000000e+00 0.000000e+00 0.000000e+00
 0.000000e+00 0.000000e+00 0.000000e+00 9.397792e-01 6.022078e-02 0.000000e+00 0.000000e+00 0.000000e+00
 0.000000e+00 0.000000e+00 0.000000e+00 0.000000e+00 9.094481e-01 9.055184e-02 0.000000e+00 0.000000e+00
 0.000000e+00 0.000000e+00 0.000000e+00 0.000000e+00 0.000000e+00 9.434949e-01 5.650518e-02 0.000000e+00
 0.000000e+00 0.000000e+00 0.000000e+00 0.000000e+00 0.000000e+00 0.000000e+00 9.490686e-01 5.093141e-02
 0.000000e+00 0.000000e+00 0.000000e+00 0.000000e+00 0.000000e+00 0.000000e+00 0.000000e+00 0.000000e+00
<ENDHMM>
~h "i"
<BEGINHMM>
<NUMSTATES> 8
<STATE> 2
<MEAN> 1
 -1.042529e+01
<VARIANCE> 1
 2.792672e-01
<GCONST> 5.622907e-01
<STATE> 3
<MEAN> 1
 -8.710954e+00
<VARIANCE> 1
 1.707880e+00
<GCONST> 2.373130e+00
<STATE> 4
<MEAN> 1
 -5.654131e+00
<VARIANCE> 1
 3.649407e+00
<GCONST> 3.132442e+00
<STATE> 5
<MEAN> 1
 -2.142071e+00
<VARIANCE> 1
 5.529813e-02
<GCONST> -1.057139e+00
<STATE> 6
<MEAN> 1
 -1.151806e+00
<VARIANCE> 1
 1.635432e-01
<GCONST> 2.719879e-02
<STATE> 7
<MEAN> 1
 -3.679210e-01
<VARIANCE> 1
 1.726980e-02
<GCONST> -2.220919e+00
<TRANSP> 8
 0.000000e+00 1.000000e+00 0.000000e+00 0.000000e+00 0.000000e+00 0.000000e+00 0.000000e+00 0.000000e+00
 0.000000e+00 9.858779e-01 1.412213e-02 0.000000e+00 0.000000e+00 0.000000e+00 0.000000e+00 0.000000e+00
 0.000000e+00 0.000000e+00 9.820484e-01 1.795159e-02 0.000000e+00 0.000000e+00 0.000000e+00 0.000000e+00
 0.000000e+00 0.000000e+00 0.000000e+00 9.467968e-01 5.320315e-02 0.000000e+00 0.000000e+00 0.000000e+00
 0.000000e+00 0.000000e+00 0.000000e+00 0.000000e+00 0.000000e+00 1.000000e+00 0.000000e+00 0.000000e+00
 0.000000e+00 0.000000e+00 0.000000e+00 0.000000e+00 0.000000e+00 7.053652e-01 2.946348e-01 0.000000e+00
 0.000000e+00 0.000000e+00 0.000000e+00 0.000000e+00 0.000000e+00 0.000000e+00 2.856685e-01 7.143315e-01
 0.000000e+00 0.000000e+00 0.000000e+00 0.000000e+00 0.000000e+00 0.000000e+00 0.000000e+00 0.000000e+00
<ENDHMM>
~h "m"
<BEGINHMM>
<NUMSTATES> 8
<STATE> 2
<MEAN> 1
 7.553651e-04
<VARIANCE> 1
 1.000000e-02
<GCONST> -2.767293e+00
<STATE> 3
<MEAN> 1
 8.904122e-01
<VARIANCE> 1
 5.065590e-02
<GCONST> -1.144823e+00
<STATE> 4
<MEAN> 1
 1.398337e+00
<VARIANCE> 1
 8.123764e-01
<GCONST> 1.630086e+00
<STATE> 5
<MEAN> 1
 3.267180e+00
<VARIANCE> 1
 6.009480e-01
<GCONST> 1.328630e+00
<STATE> 6
<MEAN> 1
 5.362198e+00
<VARIANCE> 1
 4.654575e-01
<GCONST> 1.073143e+00
<STATE> 7
<MEAN> 1
 8.118905e+00
<VARIANCE> 1
 1.146404e+00
<GCONST> 1.974507e+00
<TRANSP> 8
 0.000000e+00 1.000000e+00 0.000000e+00 0.000000e+00 0.000000e+00 0.000000e+00 0.000000e+00 0.000000e+00
 0.000000e+00 9.962291e-01 3.770966e-03 0.000000e+00 0.000000e+00 0.000000e+00 0.000000e+00 0.000000e+00
 0.000000e+00 0.000000e+00 9.224275e-01 7.757259e-02 0.000000e+00 0.000000e+00 0.000000e+00 0.000000e+00
 0.000000e+00 0.000000e+00 0.000000e+00 9.491738e-01 5.082624e-02 0.000000e+00 0.000000e+00 0.000000e+00
 0.000000e+00 0.000000e+00 0.000000e+00 0.000000e+00 9.391721e-01 6.082792e-02 0.000000e+00 0.000000e+00
 0.000000e+00 0.000000e+00 0.000000e+00 0.000000e+00 0.000000e+00 9.326453e-01 6.735472e-02 0.000000e+00
 0.000000e+00 0.000000e+00 0.000000e+00 0.000000e+00 0.000000e+00 0.000000e+00 9.459273e-01 5.407267e-02
 0.000000e+00 0.000000e+00 0.000000e+00 0.000000e+00 0.000000e+00 0.000000e+00 0.000000e+00 0.000000e+00
<ENDHMM>
~h "sil"
<BEGINHMM>
<NUMSTATES> 8
<STATE> 2
<MEAN> 1
 1.276387e+01
<VARIANCE> 1
 8.469126e+00
<GCONST> 3.974304e+00
<STATE> 3
<MEAN> 1
 1.068844e+01
<VARIANCE> 1
 6.622992e-01
<GCONST> 1.425839e+00
<STATE> 4
<MEAN> 1
 8.794250e+00
<VARIANCE> 1
 9.091064e-01
<GCONST> 1.742584e+00
<STATE> 5
<MEAN> 1
 7.235104e+00
<VARIANCE> 1
 1.661376e+00
<GCONST> 2.345523e+00
<STATE> 6
<MEAN> 1
 2.816682e+00
<VARIANCE> 1
 2.975547e+00
<GCONST> 2.928305e+00
<STATE> 7
<MEAN> 1
 6.355982e+00
<VARIANCE> 1
 1.142988e+00
<GCONST> 1.971523e+00
<TRANSP> 8
 0.000000e+00 1.000000e+00 0.000000e+00 0.000000e+00 0.000000e+00 0.000000e+00 0.000000e+00 0.000000e+00
 0.000000e+00 9.418821e-01 5.811786e-02 0.000000e+00 0.000000e+00 0.000000e+00 0.000000e+00 0.000000e+00
 0.000000e+00 0.000000e+00 9.829166e-01 1.708341e-02 0.000000e+00 0.000000e+00 0.000000e+00 0.000000e+00
 0.000000e+00 0.000000e+00 0.000000e+00 9.563366e-01 4.366350e-02 0.000000e+00 0.000000e+00 0.000000e+00
 0.000000e+00 0.000000e+00 0.000000e+00 0.000000e+00 8.933867e-01 1.066133e-01 0.000000e+00 0.000000e+00
 0.000000e+00 0.000000e+00 0.000000e+00 0.000000e+00 0.000000e+00 9.169722e-01 8.302784e-02 0.000000e+00
 0.000000e+00 0.000000e+00 0.000000e+00 0.000000e+00 0.000000e+00 0.000000e+00 9.404411e-01 5.955889e-02
 0.000000e+00 0.000000e+00 0.000000e+00 0.000000e+00 0.000000e+00 0.000000e+00 0.000000e+00 0.000000e+00
<ENDHMM>
