~o
<STREAMINFO> 1 3
<VECSIZE> 3<NULLD><USER><DIAGC>
~h "a"
<BEGINHMM>
<NUMSTATES> 8
<STATE> 2
<NUMMIXES> 2
<MIXTURE> 1 9.768458e-01
<MEAN> 3
 5.784472e+00 4.247336e+00 4.535377e+00
<VARIANCE> 3
 9.356593e+00 7.918821e+00 6.752770e+00
<GCONST> 1.172891e+01
<MIXTURE> 2 2.315601e-02
<MEAN> 3
 3.700154e+00 -1.492216e+00 -1.000000e+02
<VARIANCE> 3
 1.303685e+01 1.042222e+01 1.000000e-02
<GCONST> 5.820182e+00
<STATE> 3
<NUMMIXES> 2
<MIXTURE> 1 9.866990e-01
<MEAN> 3
 3.682157e+00 4.517018e+00 3.008822e-03
<VARIANCE> 3
 9.750751e+00 8.531260e+00 1.000000e-02
<GCONST> 5.329542e+00
<MIXTURE> 2 1.330145e-02
<MEAN> 3
 4.297563e-01 -1.272101e+00 -1.000000e+02
<VARIANCE> 3
 2.389971e-01 5.865323e+00 1.000000e-02
<GCONST> 1.246215e+00
<STATE> 4
<NUMMIXES> 2
<MIXTURE> 1 9.897009e-01
<MEAN> 3
 4.542407e+00 2.721138e-03 2.972877e-04
<VARIANCE> 3
 8.512559e+00 1.000000e-02 1.000000e-02
<GCONST> -1.555166e+00
<MIXTURE> 2 1.029993e-02
<MEAN> 3
 2.677638e-01 -1.276516e+00 -1.000000e+02
<VARIANCE> 3
 9.965683e-02 5.292304e+00 1.000000e-02
<GCONST> 2.686920e-01
<STATE> 5
<NUMMIXES> 2
<MIXTURE> 1 9.575368e-01
<MEAN> 3
 1.318032e+00 -3.902552e+00 1.370022e-01
<VARIANCE> 3
 5.527165e+00 3.215392e+01 3.221128e+00
<GCONST> 1.186357e+01
<MIXTURE> 2 4.246325e-02
<MEAN> 3
 2.256854e-01 -1.197906e+00 -1.000000e+02
<VARIANCE> 3
 8.785157e-02 5.676285e+00 1.000000e-02
<GCONST> 2.126513e-01
<STATE> 6
<NUMMIXES> 2
<MIXTURE> 1 7.883690e-01
<MEAN> 3
 2.069939e-03 -4.562406e-04 -2.598557e-03
<VARIANCE> 3
 1.000000e-02 1.000000e-02 1.000000e-02
<GCONST> -8.301880e+00
<MIXTURE> 2 2.116157e-01
<MEAN> 3
 1.390373e-03 -6.948956e+00 -1.000000e+02
<VARIANCE> 3
 1.000000e-02 1.052695e+01 1.000000e-02
<GCONST> -1.342770e+00
<STATE> 7
<NUMMIXES> 2
<MIXTURE> 1 9.375978e-01
<MEAN> 3
 1.079080e-03 -2.350086e-01 -6.319761e-01
<VARIANCE> 3
 1.000000e-02 1.852398e-01 2.645027e-01
<GCONST> -2.107547e+00
<MIXTURE> 2 6.240147e-02
<MEAN> 3
 -4.016085e-02 -2.316735e+00 -1.000000e+02
<VARIANCE> 3
 1.449767e-02 1.847400e+01 1.000000e-02
<GCONST> -4.089413e-01
<TRANSP> 8
 0.000000e+00 1.000000e+00 0.000000e+00 0.000000e+00 0.000000e+00 0.000000e+00 0.000000e+00 0.000000e+00
 0.000000e+00 9.713737e-01 2.862628e-02 0.000000e+00 0.000000e+00 0.000000e+00 0.000000e+00 0.000000e+00
 0.000000e+00 0.000000e+00 9.683928e-01 3.160725e-02 0.000000e+00 0.000000e+00 0.000000e+00 0.000000e+00
 0.000000e+00 0.000000e+00 0.000000e+00 9.748760e-01 2.512398e-02 0.000000e+00 0.000000e+00 0.000000e+00
 0.000000e+00 0.000000e+00 0.000000e+00 0.000000e+00 9.136405e-01 8.635957e-02 0.000000e+00 0.000000e+00
 0.000000e+00 0.000000e+00 0.000000e+00 0.000000e+00 0.000000e+00 9.861155e-01 1.388453e-02 0.000000e+00
 0.000000e+00 0.000000e+00 0.000000e+00 0.000000e+00 0.000000e+00 0.000000e+00 8.880764e-01 1.119236e-01
 0.000000e+00 0.000000e+00 0.000000e+00 0.000000e+00 0.000000e+00 0.000000e+00 0.000000e+00 0.000000e+00
<ENDHMM>
~h "e"
<BEGINHMM>
<NUMSTATES> 8
<STATE> 2
<NUMMIXES> 2
<MIXTURE> 1 9.851077e-01
<MEAN> 3
 1.008682e-05 -4.548120e-03 -6.064897e+00
<VARIANCE> 3
 1.000000e-02 1.000000e-02 1.691857e+01
<GCONST> -8.682973e-01
<MIXTURE> 2 1.489281e-02
<MEAN> 3
 -1.582600e-01 -2.940136e+00 -1.000000e+02
<VARIANCE> 3
 3.565348e-02 1.925783e+01 1.000000e-02
<GCONST> 5.324707e-01
<STATE> 3
<NUMMIXES> 2
<MIXTURE> 1 1.683399e-01
<MEAN> 3
 -5.139447e-01 -1.530538e-01 -4.837139e+00
<VARIANCE> 3
 2.145265e-01 6.171266e-02 1.826721e+01
<GCONST> 4.094151e+00
<MIXTURE> 2 8.316603e-01
<MEAN> 3
 -1.409416e+00 -3.491032e+00 -1.000000e+02
<VARIANCE> 3
 9.276528e-01 1.630134e+01 1.000000e-02
<GCONST> 3.624611e+00
<STATE> 4
<NUMMIXES> 2
<MIXTURE> 1 9.851463e-01
<MEAN> 3
 -4.096119e-03 -5.883385e+00 -7.719540e+00
<VARIANCE> 3
 1.000000e-02 1.288990e+01 8.503887e+00
<GCONST> 5.605429e+00
<MIXTURE> 2 1.485339e-02
<MEAN> 3
 -2.075756e+00 -2.802216e+00 -1.000000e+02
<VARIANCE> 3
 3.656047e+00 1.666664e+01 1.000000e-02
<GCONST> 5.018252e+00
<STATE> 5
<NUMMIXES> 2
<MIXTURE> 1 1.301235e-01
<MEAN> 3
 -3.072786e+00 -1.969983e+00 -1.205894e+00
<VARIANCE> 3
 3.892962e+00 5.314675e+00 4.860649e+00
<GCONST> 1.012445e+01
<MIXTURE> 2 8.698608e-01
<MEAN> 3
 -8.597816e+00 -4.285933e+00 -1.000000e+02
<VARIANCE> 3
 4.222319e+00 1.987467e+01 1.000000e-02
<GCONST> 5.338292e+00
<STATE> 6
<NUMMIXES> 2
<MIXTURE> 1 9.456397e-01
<MEAN> 3
 -2.256377e+00 -8.012695e+00 -7.995979e+00
<VARIANCE> 3
 2.364762e+00 6.207428e+00 7.529932e+00
<GCONST> 1.021894e+01
<MIXTURE> 2 5.435922e-02
<MEAN> 3
 -2.580933e+00 -5.836158e-01 -1.000000e+02
<VARIANCE> 3
 5.339554e+00 7.808426e+00 1.000000e-02
<GCONST> 4.638806e+00
<STATE> 7
<NUMMIXES> 2
<MIXTURE> 1 9.873316e-01
<MEAN> 3
 -9.005863e+00 -8.374254e+00 -7.973576e+00
<VARIANCE> 3
 4.304684e+00 7.259572e+00 8.270531e+00
<GCONST> 1.106835e+01
<MIXTURE> 2 1.266809e-02
<MEAN> 3
 -1.873740e+00 -6.389497e-01 -1.000000e+02
<VARIANCE> 3
 3.516946e+00 7.902543e+00 1.000000e-02
<GCONST> 4.233238e+00
<TRANSP> 8
 0.000000e+00 1.000000e+00 0.000000e+00 0.000000e+00 0.000000e+00 0.000000e+00 0.000000e+00 0.000000e+00
 0.000000e+00 9.662428e-01 3.375718e-02 0.000000e+00 0.000000e+00 0.000000e+00 0.000000e+00 0.000000e+00
 0.000000e+00 0.000000e+00 8.873896e-01 1.126104e-01 0.000000e+00 0.000000e+00 0.000000e+00 0.000000e+00
 0.000000e+00 0.000000e+00 0.000000e+00 9.674057e-01 3.259427e-02 0.000000e+00 0.000000e+00 0.000000e+00
 0.000000e+00 0.000000e+00 0.000000e+00 0.000000e+00 9.792649e-01 2.073509e-02 0.000000e+00 0.000000e+00
 0.000000e+00 0.000000e+00 0.000000e+00 0.000000e+00 0.000000e+00 8.938422e-01 1.061578e-01 0.000000e+00
 0.000000e+00 0.000000e+00 0.000000e+00 0.000000e+00 0.000000e+00 0.000000e+00 9.719093e-01 2.809073e-02
 0.000000e+00 0.000000e+00 0.000000e+00 0.000000e+00 0.000000e+00 0.000000e+00 0.000000e+00 0.000000e+00
<ENDHMM>
~h "i"
<BEGINHMM>
<NUMSTATES> 8
<STATE> 2
<NUMMIXES> 2
<MIXTURE> 1 7.815071e-01
<MEAN> 3
 -3.425069e-01 -3.836330e+00 -6.643923e+00
<VARIANCE> 3
 5.407966e+00 1.931997e+01 1.784280e+01
<GCONST> 1.304424e+01
<MIXTURE> 2 2.184968e-01
<MEAN> 3
 -4.931649e-01 -2.128580e+00 -1.000000e+02
<VARIANCE> 3
 1.062151e+00 4.468623e+01 1.000000e-02
<GCONST> 4.768422e+00
<STATE> 3
<NUMMIXES> 2
<MIXTURE> 1 9.882549e-01
<MEAN> 3
 -6.135639e+00 -8.311830e+00 -3.035585e-03
<VARIANCE> 3
 1.711938e+01 6.698697e+00 1.000000e-02
<GCONST> 5.650585e+00
<MIXTURE> 2 1.174705e-02
<MEAN> 3
 -8.937100e-01 -1.586216e-01 -1.000000e+02
<VARIANCE> 3
 1.192072e+00 1.231439e+00 1.000000e-02
<GCONST> 1.292337e+00
<STATE> 4
<NUMMIXES> 2
<MIXTURE> 1 8.814227e-01
<MEAN> 3
 -5.674789e+00 -2.210426e-03 2.620710e+00
<VARIANCE> 3
 1.702183e+01 2.376079e-02 8.450646e+00
<GCONST> 6.742653e+00
<MIXTURE> 2 1.185781e-01
<MEAN> 3
 -3.800143e+00 4.084792e-01 -1.000000e+02
<VARIANCE> 3
 1.363085e+01 1.158617e+00 1.000000e-02
<GCONST> 3.668024e+00
<STATE> 5
<NUMMIXES> 2
<MIXTURE> 1 9.868549e-01
<MEAN> 3
 -8.202862e+00 -1.462089e-03 9.748872e-04
<VARIANCE> 3
 6.796804e+00 1.000000e-02 1.000000e-02
<GCONST> -1.780257e+00
<MIXTURE> 2 1.314519e-02
<MEAN> 3
 -3.657457e-01 -4.354732e-03 -1.000000e+02
<VARIANCE> 3
 2.022599e-01 4.157789e-01 1.000000e-02
<GCONST> -1.567343e+00
<STATE> 6
<NUMMIXES> 2
<MIXTURE> 1 9.037655e-01
<MEAN> 3
 -2.873976e+00 2.354575e+00 -1.353031e+00
<VARIANCE> 3
 1.652244e+01 7.466215e+00 1.441341e+01
<GCONST> 1.299690e+01
<MIXTURE> 2 9.623419e-02
<MEAN> 3
 -3.656422e-01 1.242285e-01 -1.000000e+02
<VARIANCE> 3
 1.521299e-01 3.033215e-01 1.000000e-02
<GCONST> -2.167521e+00
<STATE> 7
<NUMMIXES> 2
<MIXTURE> 1 4.231846e-01
<MEAN> 3
 -2.098651e-03 7.743446e-04 1.655976e-03
<VARIANCE> 3
 1.000000e-02 1.000000e-02 1.000000e-02
<GCONST> -8.301880e+00
<MIXTURE> 2 5.767066e-01
<MEAN> 3
 -4.089855e-04 1.537801e-03 -1.000000e+02
<VARIANCE> 3
 1.000000e-02 1.000000e-02 1.000000e-02
<GCONST> -8.301880e+00
<TRANSP> 8
 0.000000e+00 1.000000e+00 0.000000e+00 0.000000e+00 0.000000e+00 0.000000e+00 0.000000e+00 0.000000e+00
 0.000000e+00 8.897508e-01 1.102492e-01 0.000000e+00 0.000000e+00 0.000000e+00 0.000000e+00 0.000000e+00
 0.000000e+00 0.000000e+00 9.738074e-01 2.619266e-02 0.000000e+00 0.000000e+00 0.000000e+00 0.000000e+00
 0.000000e+00 0.000000e+00 0.000000e+00 8.908159e-01 1.091841e-01 0.000000e+00 0.000000e+00 0.000000e+00
 0.000000e+00 0.000000e+00 0.000000e+00 0.000000e+00 9.718780e-01 2.812202e-02 0.000000e+00 0.000000e+00
 0.000000e+00 0.000000e+00 0.000000e+00 0.000000e+00 0.000000e+00 8.759645e-01 1.240355e-01 0.000000e+00
 0.000000e+00 0.000000e+00 0.000000e+00 0.000000e+00 0.000000e+00 0.000000e+00 9.930497e-01 6.950350e-03
 0.000000e+00 0.000000e+00 0.000000e+00 0.000000e+00 0.000000e+00 0.000000e+00 0.000000e+00 0.000000e+00
<ENDHMM>
~h "m"
<BEGINHMM>
<NUMSTATES> 8
<STATE> 2
<NUMMIXES> 2
<MIXTURE> 1 9.758248e-01
<MEAN> 3
 5.247430e-04 5.890665e-03 2.657745e+00
<VARIANCE> 3
 1.000000e-02 1.000000e-02 1.068783e+01
<GCONST> -1.327603e+00
<MIXTURE> 2 2.417404e-02
<MEAN> 3
 1.416681e-02 -1.129854e-01 -1.000000e+02
<VARIANCE> 3
 1.000000e-02 2.497759e-01 1.000000e-02
<GCONST> -5.083900e+00
<STATE> 3
<NUMMIXES> 2
<MIXTURE> 1 9.812347e-01
<MEAN> 3
 3.369173e-03 2.420242e+00 2.227373e+00
<VARIANCE> 3
 1.000000e-02 3.156275e+00 8.978582e+00
<GCONST> 4.252696e+00
<MIXTURE> 2 1.877056e-02
<MEAN> 3
 4.157750e-02 -1.458780e-01 -1.000000e+02
<VARIANCE> 3
 1.000000e-02 4.503921e-01 1.000000e-02
<GCONST> -4.494346e+00
<STATE> 4
<NUMMIXES> 2
<MIXTURE> 1 4.269134e-01
<MEAN> 3
 2.442213e+00 2.319493e-01 -2.454891e+00
<VARIANCE> 3
 3.244621e+00 4.180166e-01 2.568830e+01
<GCONST> 9.064431e+00
<MIXTURE> 2 5.730812e-01
<MEAN> 3
 5.887110e-03 3.030936e+00 -1.000000e+02
<VARIANCE> 3
 1.000000e-02 1.298513e+01 1.000000e-02
<GCONST> -1.132904e+00
<STATE> 5
<NUMMIXES> 2
<MIXTURE> 1 9.469720e-01
<MEAN> 3
 2.004257e+00 4.292309e+00 2.826301e+00
<VARIANCE> 3
 1.901679e+00 5.081480e+00 7.123360e+00
<GCONST> 9.745351e+00
<MIXTURE> 2 5.302191e-02
<MEAN> 3
 2.640800e-01 4.724367e-01 -1.000000e+02
<VARIANCE> 3
 6.117745e-02 4.694738e+00 1.000000e-02
<GCONST> -3.390732e-01
<STATE> 6
<NUMMIXES> 2
<MIXTURE> 1 8.557959e-03
<MEAN> 3
 1.753109e+00 2.761286e+00 6.965862e-01
<VARIANCE> 3
 3.990828e+00 6.237476e+00 1.819787e+00
<GCONST> 9.326925e+00
<MIXTURE> 2 9.914469e-01
<MEAN> 3
 3.723377e+00 1.402080e+00 -1.000000e+02
<VARIANCE> 3
 7.141366e+00 7.089880e+00 1.000000e-02
<GCONST> 4.833034e+00
<STATE> 7
<NUMMIXES> 2
<MIXTURE> 1 3.911789e-01
<MEAN> 3
 1.842752e+00 2.870058e+00 6.864298e-01
<VARIANCE> 3
 4.282063e+00 6.693243e+00 1.694889e+00
<GCONST> 9.396782e+00
<MIXTURE> 2 6.088213e-01
<MEAN> 3
 1.745415e+00 8.319964e-01 -1.000000e+02
<VARIANCE> 3
 6.514613e+00 9.114674e+00 1.000000e-02
<GCONST> 4.992394e+00
<TRANSP> 8
 0.000000e+00 1.000000e+00 0.000000e+00 0.000000e+00 0.000000e+00 0.000000e+00 0.000000e+00 0.000000e+00
 0.000000e+00 9.533142e-01 4.668579e-02 0.000000e+00 0.000000e+00 0.000000e+00 0.000000e+00 0.000000e+00
 0.000000e+00 0.000000e+00 9.626827e-01 3.731741e-02 0.000000e+00 0.000000e+00 0.000000e+00 0.000000e+00
 0.000000e+00 0.000000e+00 0.000000e+00 9.505102e-01 4.948978e-02 0.000000e+00 0.000000e+00 0.000000e+00
 0.000000e+00 0.000000e+00 0.000000e+00 0.000000e+00 9.206160e-01 7.938401e-02 0.000000e+00 0.000000e+00
 0.000000e+00 0.000000e+00 0.000000e+00 0.000000e+00 0.000000e+00 9.783410e-01 2.165896e-02 0.000000e+00
 0.000000e+00 0.000000e+00 0.000000e+00 0.000000e+00 0.000000e+00 0.000000e+00 2.336421e-03 9.976636e-01
 0.000000e+00 0.000000e+00 0.000000e+00 0.000000e+00 0.000000e+00 0.000000e+00 0.000000e+00 0.000000e+00
<ENDHMM>
~h "sil"
<BEGINHMM>
<NUMSTATES> 8
<STATE> 2
<NUMMIXES> 2
<MIXTURE> 1 9.274712e-01
<MEAN> 3
 9.394659e+00 3.193935e+00 1.105085e+00
<VARIANCE> 3
 6.824050e+00 6.259792e+00 3.228701e+00
<GCONST> 1.044031e+01
<MIXTURE> 2 7.252820e-02
<MEAN> 3
 4.960682e+00 -1.431555e+00 -5.440879e+01
<VARIANCE> 3
 1.014100e+01 4.375270e+01 2.353111e+03
<GCONST> 1.937226e+01
<STATE> 3
<NUMMIXES> 2
<MIXTURE> 1 3.794910e-02
<MEAN> 3
 4.870636e+00 3.394794e+00 -6.849587e+01
<VARIANCE> 3
 1.416569e+01 5.344575e+00 2.181632e+03
<GCONST> 1.752836e+01
<MIXTURE> 2 9.620510e-01
<MEAN> 3
 9.250548e+00 -4.075434e-04 3.913775e-03
<VARIANCE> 3
 3.165327e+00 1.000000e-02 1.000000e-02
<GCONST> -2.544453e+00
<STATE> 4
<NUMMIXES> 2
<MIXTURE> 1 2.272348e-02
<MEAN> 3
 4.255330e+00 4.100432e+00 -8.652166e+01
<VARIANCE> 3
 1.464344e+01 4.121226e+00 1.164326e+03
<GCONST> 1.667367e+01
<MIXTURE> 2 9.772765e-01
<MEAN> 3
 8.429962e+00 2.492017e-03 3.267406e+00
<VARIANCE> 3
 7.540795e+00 1.000000e-02 7.801014e+00
<GCONST> 4.983043e+00
<STATE> 5
<NUMMIXES> 2
<MIXTURE> 1 6.503749e-02
<MEAN> 3
 4.179076e+00 4.150279e+00 -8.721721e+01
<VARIANCE> 3
 1.465190e+01 4.116425e+00 1.139628e+03
<GCONST> 1.665164e+01
<MIXTURE> 2 9.349626e-01
<MEAN> 3
 6.133907e+00 9.581796e-03 -7.238045e+00
<VARIANCE> 3
 7.813520e+00 1.000000e-02 1.439441e+01
<GCONST> 5.631156e+00
<STATE> 6
<NUMMIXES> 2
<MIXTURE> 1 9.981471e-01
<MEAN> 3
 -1.017380e+00 -1.000000e+02 -1.000000e+02
<VARIANCE> 3
 1.539737e+01 1.000000e-02 1.000000e-02
<GCONST> -9.625120e-01
<MIXTURE> 2 1.853028e-03
<MEAN> 3
 8.615269e+00 1.240578e+00 2.196334e+00
<VARIANCE> 3
 6.028174e+00 2.577676e+00 3.608536e+00
<GCONST> 9.540266e+00
<STATE> 7
<NUMMIXES> 2
<MIXTURE> 1 9.385619e-01
<MEAN> 3
 8.660691e+00 4.447147e+00 2.829992e-03
<VARIANCE> 3
 1.150918e+01 1.012135e+01 1.000000e-02
<GCONST> 5.666253e+00
<MIXTURE> 2 6.143817e-02
<MEAN> 3
 5.261169e+00 -6.354522e+01 -6.257725e+01
<VARIANCE> 3
 9.117733e+00 2.359695e+03 2.487116e+03
<GCONST> 2.330902e+01
<TRANSP> 8
 0.000000e+00 1.000000e+00 0.000000e+00 0.000000e+00 0.000000e+00 0.000000e+00 0.000000e+00 0.000000e+00
 0.000000e+00 9.231613e-01 7.683866e-02 0.000000e+00 0.000000e+00 0.000000e+00 0.000000e+00 0.000000e+00
 0.000000e+00 0.000000e+00 9.479212e-01 5.207884e-02 0.000000e+00 0.000000e+00 0.000000e+00 0.000000e+00
 0.000000e+00 0.000000e+00 0.000000e+00 9.607013e-01 3.929860e-02 0.000000e+00 0.000000e+00 0.000000e+00
 0.000000e+00 0.000000e+00 0.000000e+00 0.000000e+00 8.862620e-01 1.137380e-01 0.000000e+00 0.000000e+00
 0.000000e+00 0.000000e+00 0.000000e+00 0.000000e+00 0.000000e+00 9.979998e-01 2.000140e-03 0.000000e+00
 0.000000e+00 0.000000e+00 0.000000e+00 0.000000e+00 0.000000e+00 0.000000e+00 9.213970e-01 7.860293e-02
 0.000000e+00 0.000000e+00 0.000000e+00 0.000000e+00 0.000000e+00 0.000000e+00 0.000000e+00 0.000000e+00
<ENDHMM>
