~o
<STREAMINFO> 1 1
<VECSIZE> 1<NULLD><USER><DIAGC>
~h "a"
<BEGINHMM>
<NUMSTATES> 8
<STATE> 2
<MEAN> 1
 3.210136e+00
<VARIANCE> 1
 3.320369e+00
<GCONST> 3.037953e+00
<STATE> 3
<MEAN> 1
 1.019234e+01
<VARIANCE> 1
 2.458233e+00
<GCONST> 2.737320e+00
<STATE> 4
<MEAN> 1
 6.988934e+00
<VARIANCE> 1
 1.094878e+00
<GCONST> 1.928520e+00
<STATE> 5
<MEAN> 1
 4.469739e+00
<VARIANCE> 1
 8.402493e-01
<GCONST> 1.663820e+00
<STATE> 6
<MEAN> 1
 1.745795e+00
<VARIANCE> 1
 9.254069e-01
<GCONST> 1.760355e+00
<STATE> 7
<MEAN> 1
 1.932992e-03
<VARIANCE> 1
 1.000000e-02
<GCONST> -2.767293e+00
<TRANSP> 8
 0.000000e+00 1.000000e+00 0.000000e+00 0.000000e+00 0.000000e+00 0.000000e+00 0.000000e+00 0.000000e+00
 0.000000e+00 9.429361e-01 5.706387e-02 0.000000e+00 0.000000e+00 0.000000e+00 0.000000e+00 0.000000e+00
 0.000000e+00 0.000000e+00 9.774774e-01 2.252259e-02 0.000000e+00 0.000000e+00 0.000000e+00 0.000000e+00
 0.000000e+00 0.000000e+00 0.000000e+00 9.600816e-01 3.991843e-02 0.000000e+00 0.000000e+00 0.000000e+00
 0.000000e+00 0.000000e+00 0.000000e+00 0.000000e+00 9.584725e-01 4.152750e-02 0.000000e+00 0.000000e+00
 0.000000e+00 0.000000e+00 0.000000e+00 0.000000e+00 0.000000e+00 9.522809e-01 4.771907e-02 0.000000e+00
 0.000000e+00 0.000000e+00 0.000000e+00 0.000000e+00 0.000000e+00 0.000000e+00 9.919643e-01 8.035671e-03
 0.000000e+00 0.000000e+00 0.000000e+00 0.000000e+00 0.000000e+00 0.000000e+00 0.000000e+00 0.000000e+00
<ENDHMM>
~h "e"
<BEGINHMM>
<NUMSTATES> 8
<STATE> 2
<MEAN> 1
 -1.419491e-03
<VARIANCE> 1
 1.000000e-02
<GCONST> -2.767293e+00
<STATE> 3
<MEAN> 1
 -7.774349e-01
<VARIANCE> 1
 1.360667e-01
<GCONST> -1.567330e-01
<STATE> 4
<MEAN> 1
 -2.215407e+00
<VARIANCE> 1
 6.487449e-01
<GCONST> 1.405161e+00
<STATE> 5
<MEAN> 1
 -4.406559e+00
<VARIANCE> 1
 4.928889e-01
<GCONST> 1.130406e+00
<STATE> 6
<MEAN> 1
 -6.225791e+00
<VARIANCE> 1
 4.559165e-01
<GCONST> 1.052431e+00
<STATE> 7
<MEAN> 1
 -8.767280e+00
<VARIANCE> 1
 6.765037e-01
<GCONST> 1.447060e+00
<TRANSP> 8
 0.000000e+00 1.000000e+00 0.000000e+00 0.000000e+00 0.000000e+00 0.000000e+00 0.000000e+00 0.000000e+00
 0.000000e+00 9.921471e-01 7.852834e-03 0.000000e+00 0.000000e+00 0.000000e+00 0.000000e+00 0.000000e+00
 0.000000e+00 0.000000e+00 9.407575e-01 5.924252e-02 0.000000e+00 0.000000e+00 0.000000e+00 0.000000e+00
 0.000000e+00 0.000000e+00 0.000000e+00 9.396907e-01 6.030929e-02 0.000000e+00 0.000000e+00 0.000000e+00
 0.000000e+00 0.000000e+00 0.000000e+00 0.000000e+00 9.116759e-01 8.832406e-02 0.000000e+00 0.000000e+00
 0.000000e+00 0.000000e+00 0.000000e+00 0.000000e+00 0.000000e+00 9.425659e-01 5.743415e-02 0.000000e+00
 0.000000e+00 0.000000e+00 0.000000e+00 0.000000e+00 0.000000e+00 0.000000e+00 9.618825e-01 3.811746e-02
 0.000000e+00 0.000000e+00 0.000000e+00 0.000000e+00 0.000000e+00 0.000000e+00 0.000000e+00 0.000000e+00
<ENDHMM>
~h "i"
<BEGINHMM>
<NUMSTATES> 8
<STATE> 2
<MEAN> 1
 -1.042279e+01
<VARIANCE> 1
 2.911346e-01
<GCONST> 6.039073e-01
<STATE> 3
<MEAN> 1
 -8.269539e+00
<VARIANCE> 1
 2.663409e+00
<GCONST> 2.817484e+00
<STATE> 4
<MEAN> 1
 -4.488886e+00
<VARIANCE> 1
 2.266993e+00
<GCONST> 2.656332e+00
<STATE> 5
<MEAN> 1
 -2.042660e+00
<VARIANCE> 1
 5.425742e-02
<GCONST> -1.076138e+00
<STATE> 6
<MEAN> 1
 -1.046878e+00
<VARIANCE> 1
 1.361001e-01
<GCONST> -1.564872e-01
<STATE> 7
<MEAN> 1
 -3.146590e-01
<VARIANCE> 1
 1.349835e-02
<GCONST> -2.467311e+00
<TRANSP> 8
 0.000000e+00 1.000000e+00 0.000000e+00 0.000000e+00 0.000000e+00 0.000000e+00 0.000000e+00 0.000000e+00
 0.000000e+00 9.858953e-01 1.410474e-02 0.000000e+00 0.000000e+00 0.000000e+00 0.000000e+00 0.000000e+00
 0.000000e+00 0.000000e+00 9.831792e-01 1.682083e-02 0.000000e+00 0.000000e+00 0.000000e+00 0.000000e+00
 0.000000e+00 0.000000e+00 0.000000e+00 8.851025e-01 1.148976e-01 0.000000e+00 0.000000e+00 0.000000e+00
 0.000000e+00 0.000000e+00 0.000000e+00 0.000000e+00 0.000000e+00 1.000000e+00 0.000000e+00 0.000000e+00
 0.000000e+00 0.000000e+00 0.000000e+00 0.000000e+00 0.000000e+00 7.015516e-01 2.984484e-01 0.000000e+00
 0.000000e+00 0.000000e+00 0.000000e+00 0.000000e+00 0.000000e+00 0.000000e+00 2.286721e-01 7.713279e-01
 0.000000e+00 0.000000e+00 0.000000e+00 0.000000e+00 0.000000e+00 0.000000e+00 0.000000e+00 0.000000e+00
<ENDHMM>
~h "m"
<BEGINHMM>
<NUMSTATES> 8
<STATE> 2
<MEAN> 1
 8.407317e-04
<VARIANCE> 1
 1.000000e-02
<GCONST> -2.767293e+00
<STATE> 3
<MEAN> 1
 8.903415e-01
<VARIANCE> 1
 5.063830e-02
<GCONST> -1.145170e+00
<STATE> 4
<MEAN> 1
 1.391661e+00
<VARIANCE> 1
 8.110269e-01
<GCONST> 1.628423e+00
<STATE> 5
<MEAN> 1
 3.201994e+00
<VARIANCE> 1
 5.509436e-01
<GCONST> 1.241754e+00
<STATE> 6
<MEAN> 1
 5.288317e+00
<VARIANCE> 1
 4.456994e-01
<GCONST> 1.029767e+00
<STATE> 7
<MEAN> 1
 7.973667e+00
<VARIANCE> 1
 1.204345e+00
<GCONST> 2.023813e+00
<TRANSP> 8
 0.000000e+00 1.000000e+00 0.000000e+00 0.000000e+00 0.000000e+00 0.000000e+00 0.000000e+00 0.000000e+00
 0.000000e+00 9.962270e-01 3.772979e-03 0.000000e+00 0.000000e+00 0.000000e+00 0.000000e+00 0.000000e+00
 0.000000e+00 0.000000e+00 9.223925e-01 7.760752e-02 0.000000e+00 0.000000e+00 0.000000e+00 0.000000e+00
 0.000000e+00 0.000000e+00 0.000000e+00 9.488366e-01 5.116337e-02 0.000000e+00 0.000000e+00 0.000000e+00
 0.000000e+00 0.000000e+00 0.000000e+00 0.000000e+00 9.346742e-01 6.532583e-02 0.000000e+00 0.000000e+00
 0.000000e+00 0.000000e+00 0.000000e+00 0.000000e+00 0.000000e+00 9.310997e-01 6.890030e-02 0.000000e+00
 0.000000e+00 0.000000e+00 0.000000e+00 0.000000e+00 0.000000e+00 0.000000e+00 9.450544e-01 5.494559e-02
 0.000000e+00 0.000000e+00 0.000000e+00 0.000000e+00 0.000000e+00 0.000000e+00 0.000000e+00 0.000000e+00
<ENDHMM>
~h "sil"
<BEGINHMM>
<NUMSTATES> 8
<STATE> 2
<MEAN> 1
 1.225640e+01
<VARIANCE> 1
 1.142582e+01
<GCONST> 4.273753e+00
<STATE> 3
<MEAN> 1
 1.073739e+01
<VARIANCE> 1
 6.376392e-01
<GCONST> 1.387894e+00
<STATE> 4
<MEAN> 1
 9.006358e+00
<VARIANCE> 1
 8.518785e-01
<GCONST> 1.677566e+00
<STATE> 5
<MEAN> 1
 7.347039e+00
<VARIANCE> 1
 1.173440e+00
<GCONST> 1.997816e+00
<STATE> 6
<MEAN> 1
 3.104829e+00
<VARIANCE> 1
 3.937460e+00
<GCONST> 3.208413e+00
<STATE> 7
<MEAN> 1
 6.038414e+00
<VARIANCE> 1
 1.064839e+00
<GCONST> 1.900701e+00
<TRANSP> 8
 0.000000e+00 1.000000e+00 0.000000e+00 0.000000e+00 0.000000e+00 0.000000e+00 0.000000e+00 0.000000e+00
 0.000000e+00 9.490722e-01 5.092772e-02 0.000000e+00 0.000000e+00 0.000000e+00 0.000000e+00 0.000000e+00
 0.000000e+00 0.000000e+00 9.822776e-01 1.772239e-02 0.000000e+00 0.000000e+00 0.000000e+00 0.000000e+00
 0.000000e+00 0.000000e+00 0.000000e+00 9.552405e-01 4.475945e-02 0.000000e+00 0.000000e+00 0.000000e+00
 0.000000e+00 0.000000e+00 0.000000e+00 0.000000e+00 9.155920e-01 8.440806e-02 0.000000e+00 0.000000e+00
 0.000000e+00 0.000000e+00 0.000000e+00 0.000000e+00 0.000000e+00 8.475018e-01 1.524983e-01 0.000000e+00
 0.000000e+00 0.000000e+00 0.000000e+00 0.000000e+00 0.000000e+00 0.000000e+00 9.303950e-01 6.960495e-02
 0.000000e+00 0.000000e+00 0.000000e+00 0.000000e+00 0.000000e+00 0.000000e+00 0.000000e+00 0.000000e+00
<ENDHMM>
