~o
<STREAMINFO> 1 3
<VECSIZE> 3<NULLD><USER><DIAGC>
~h "a"
<BEGINHMM>
<NUMSTATES> 8
<STATE> 2
<NUMMIXES> 2
<MIXTURE> 1 9.796894e-01
<MEAN> 3
 5.666623e+00 4.366450e+00 4.631620e+00
<VARIANCE> 3
 9.113950e+00 7.831866e+00 6.689792e+00
<GCONST> 1.168222e+01
<MIXTURE> 2 2.031052e-02
<MEAN> 3
 3.579420e+00 -1.610961e+00 -1.000000e+02
<VARIANCE> 3
 1.327972e+01 1.391914e+01 1.000000e-02
<GCONST> 6.127964e+00
<STATE> 3
<NUMMIXES> 2
<MIXTURE> 1 9.869916e-01
<MEAN> 3
 3.458821e+00 4.573487e+00 3.171497e-03
<VARIANCE> 3
 8.597954e+00 8.699608e+00 1.000000e-02
<GCONST> 5.223263e+00
<MIXTURE> 2 1.300632e-02
<MEAN> 3
 3.731933e-01 -3.059064e+00 -1.000000e+02
<VARIANCE> 3
 1.672942e-01 2.014837e+01 1.000000e-02
<GCONST> 2.123584e+00
<STATE> 4
<NUMMIXES> 2
<MIXTURE> 1 9.905958e-01
<MEAN> 3
 4.562126e+00 2.817406e-03 2.962133e-04
<VARIANCE> 3
 8.501001e+00 1.000000e-02 1.000000e-02
<GCONST> -1.556525e+00
<MIXTURE> 2 9.404911e-03
<MEAN> 3
 2.273057e-01 -3.090662e+00 -1.000000e+02
<VARIANCE> 3
 6.012423e-02 2.029595e+01 1.000000e-02
<GCONST> 1.107540e+00
<STATE> 5
<NUMMIXES> 2
<MIXTURE> 1 9.591203e-01
<MEAN> 3
 1.417025e+00 -3.609390e+00 1.472271e-01
<VARIANCE> 3
 5.807874e+00 3.288630e+01 3.463316e+00
<GCONST> 1.200813e+01
<MIXTURE> 2 4.088017e-02
<MEAN> 3
 2.046502e-01 -2.632401e+00 -1.000000e+02
<VARIANCE> 3
 8.192863e-02 1.937185e+01 1.000000e-02
<GCONST> 1.370376e+00
<STATE> 6
<NUMMIXES> 2
<MIXTURE> 1 8.363680e-01
<MEAN> 3
 1.897220e-03 -4.110844e-04 -2.328126e-03
<VARIANCE> 3
 1.000000e-02 1.000000e-02 1.000000e-02
<GCONST> -8.301880e+00
<MIXTURE> 2 1.636146e-01
<MEAN> 3
 -9.002528e-06 -4.584508e+00 -1.000000e+02
<VARIANCE> 3
 1.000000e-02 1.986178e+01 1.000000e-02
<GCONST> -7.079120e-01
<STATE> 7
<NUMMIXES> 2
<MIXTURE> 1 9.534636e-01
<MEAN> 3
 1.037651e-03 -2.336821e-01 -6.251943e-01
<VARIANCE> 3
 1.000000e-02 1.835753e-01 2.671089e-01
<GCONST> -2.106768e+00
<MIXTURE> 2 4.653627e-02
<MEAN> 3
 -1.178775e-01 -2.951802e+00 -1.000000e+02
<VARIANCE> 3
 1.931834e-02 1.927602e+01 1.000000e-02
<GCONST> -7.937717e-02
<TRANSP> 8
 0.000000e+00 1.000000e+00 0.000000e+00 0.000000e+00 0.000000e+00 0.000000e+00 0.000000e+00 0.000000e+00
 0.000000e+00 9.702960e-01 2.970397e-02 0.000000e+00 0.000000e+00 0.000000e+00 0.000000e+00 0.000000e+00
 0.000000e+00 0.000000e+00 9.658362e-01 3.416377e-02 0.000000e+00 0.000000e+00 0.000000e+00 0.000000e+00
 0.000000e+00 0.000000e+00 0.000000e+00 9.750264e-01 2.497363e-02 0.000000e+00 0.000000e+00 0.000000e+00
 0.000000e+00 0.000000e+00 0.000000e+00 0.000000e+00 9.069605e-01 9.303937e-02 0.000000e+00 0.000000e+00
 0.000000e+00 0.000000e+00 0.000000e+00 0.000000e+00 0.000000e+00 9.851496e-01 1.485040e-02 0.000000e+00
 0.000000e+00 0.000000e+00 0.000000e+00 0.000000e+00 0.000000e+00 0.000000e+00 8.887780e-01 1.112220e-01
 0.000000e+00 0.000000e+00 0.000000e+00 0.000000e+00 0.000000e+00 0.000000e+00 0.000000e+00 0.000000e+00
<ENDHMM>
~h "e"
<BEGINHMM>
<NUMSTATES> 8
<STATE> 2
<NUMMIXES> 2
<MIXTURE> 1 9.858344e-01
<MEAN> 3
 1.370668e-05 -4.926157e-03 -6.302013e+00
<VARIANCE> 3
 1.000000e-02 1.000000e-02 1.459608e+01
<GCONST> -1.015956e+00
<MIXTURE> 2 1.416656e-02
<MEAN> 3
 -2.439376e-01 -2.904543e+00 -1.000000e+02
<VARIANCE> 3
 5.420498e-02 1.913504e+01 1.000000e-02
<GCONST> 9.449997e-01
<STATE> 3
<NUMMIXES> 2
<MIXTURE> 1 2.513704e-01
<MEAN> 3
 -5.054360e-01 -1.556625e-01 -4.742672e+00
<VARIANCE> 3
 2.157275e-01 6.661158e-02 1.873098e+01
<GCONST> 4.201194e+00
<MIXTURE> 2 7.486321e-01
<MEAN> 3
 -1.139349e+00 -3.528105e+00 -1.000000e+02
<VARIANCE> 3
 4.139609e-01 1.740531e+01 1.000000e-02
<GCONST> 2.883253e+00
<STATE> 4
<NUMMIXES> 2
<MIXTURE> 1 9.859533e-01
<MEAN> 3
 -4.752548e-03 -5.887000e+00 -7.707703e+00
<VARIANCE> 3
 1.000000e-02 1.289802e+01 8.598005e+00
<GCONST> 5.617065e+00
<MIXTURE> 2 1.404567e-02
<MEAN> 3
 -1.580886e+00 -2.927784e+00 -1.000000e+02
<VARIANCE> 3
 1.830921e+00 1.723485e+01 1.000000e-02
<GCONST> 4.360214e+00
<STATE> 5
<NUMMIXES> 2
<MIXTURE> 1 1.219572e-01
<MEAN> 3
 -2.776853e+00 -2.094651e+00 -9.857507e-01
<VARIANCE> 3
 3.130591e+00 5.736123e+00 4.049004e+00
<GCONST> 9.800107e+00
<MIXTURE> 2 8.780370e-01
<MEAN> 3
 -8.444394e+00 -4.310870e+00 -1.000000e+02
<VARIANCE> 3
 4.897850e+00 1.970748e+01 1.000000e-02
<GCONST> 5.478255e+00
<STATE> 6
<NUMMIXES> 2
<MIXTURE> 1 9.282182e-01
<MEAN> 3
 -1.786460e+00 -8.129691e+00 -8.114574e+00
<VARIANCE> 3
 1.231533e+00 6.761552e+00 8.671237e+00
<GCONST> 9.793156e+00
<MIXTURE> 2 7.178315e-02
<MEAN> 3
 -2.705208e+00 -6.572368e-01 -1.000000e+02
<VARIANCE> 3
 6.408860e+00 9.535903e+00 1.000000e-02
<GCONST> 5.021207e+00
<STATE> 7
<NUMMIXES> 2
<MIXTURE> 1 9.887465e-01
<MEAN> 3
 -8.776571e+00 -8.258237e+00 -7.936477e+00
<VARIANCE> 3
 5.096764e+00 7.850911e+00 8.271288e+00
<GCONST> 1.131566e+01
<MIXTURE> 2 1.125549e-02
<MEAN> 3
 -2.171000e+00 -6.482931e-01 -1.000000e+02
<VARIANCE> 3
 4.197812e+00 9.299570e+00 1.000000e-02
<GCONST> 4.572992e+00
<TRANSP> 8
 0.000000e+00 1.000000e+00 0.000000e+00 0.000000e+00 0.000000e+00 0.000000e+00 0.000000e+00 0.000000e+00
 0.000000e+00 9.654255e-01 3.457458e-02 0.000000e+00 0.000000e+00 0.000000e+00 0.000000e+00 0.000000e+00
 0.000000e+00 0.000000e+00 8.345627e-01 1.654374e-01 0.000000e+00 0.000000e+00 0.000000e+00 0.000000e+00
 0.000000e+00 0.000000e+00 0.000000e+00 9.674988e-01 3.250121e-02 0.000000e+00 0.000000e+00 0.000000e+00
 0.000000e+00 0.000000e+00 0.000000e+00 0.000000e+00 9.796673e-01 2.033271e-02 0.000000e+00 0.000000e+00
 0.000000e+00 0.000000e+00 0.000000e+00 0.000000e+00 0.000000e+00 8.238813e-01 1.761187e-01 0.000000e+00
 0.000000e+00 0.000000e+00 0.000000e+00 0.000000e+00 0.000000e+00 0.000000e+00 9.733708e-01 2.662919e-02
 0.000000e+00 0.000000e+00 0.000000e+00 0.000000e+00 0.000000e+00 0.000000e+00 0.000000e+00 0.000000e+00
<ENDHMM>
~h "i"
<BEGINHMM>
<NUMSTATES> 8
<STATE> 2
<NUMMIXES> 2
<MIXTURE> 1 9.515127e-01
<MEAN> 3
 -7.018875e-01 -4.661596e+00 -6.813834e+00
<VARIANCE> 3
 5.401960e+00 1.923816e+01 1.605341e+01
<GCONST> 1.293321e+01
<MIXTURE> 2 4.848596e-02
<MEAN> 3
 -1.761649e+00 -8.070296e-01 -1.000000e+02
<VARIANCE> 3
 2.346704e+00 1.027532e+01 1.000000e-02
<GCONST> 4.091218e+00
<STATE> 3
<NUMMIXES> 2
<MIXTURE> 1 9.888484e-01
<MEAN> 3
 -6.022426e+00 -8.309733e+00 -2.897258e-03
<VARIANCE> 3
 1.748528e+01 6.661352e+00 1.000000e-02
<GCONST> 5.666142e+00
<MIXTURE> 2 1.115175e-02
<MEAN> 3
 -1.220045e+00 -5.744460e-01 -1.000000e+02
<VARIANCE> 3
 1.291822e+00 8.845979e+00 1.000000e-02
<GCONST> 3.344478e+00
<STATE> 4
<NUMMIXES> 2
<MIXTURE> 1 8.997654e-01
<MEAN> 3
 -5.520224e+00 -2.422804e-03 2.698474e+00
<VARIANCE> 3
 1.814165e+01 2.188358e-02 8.570346e+00
<GCONST> 6.738132e+00
<MIXTURE> 2 1.002343e-01
<MEAN> 3
 -4.083271e+00 1.985501e-01 -1.000000e+02
<VARIANCE> 3
 1.399902e+01 5.298697e+00 1.000000e-02
<GCONST> 5.214909e+00
<STATE> 5
<NUMMIXES> 2
<MIXTURE> 1 9.872245e-01
<MEAN> 3
 -8.184784e+00 -1.423116e-03 1.063264e-03
<VARIANCE> 3
 6.811729e+00 1.000000e-02 1.000000e-02
<GCONST> -1.778063e+00
<MIXTURE> 2 1.277630e-02
<MEAN> 3
 -5.367261e-01 -4.866647e-01 -1.000000e+02
<VARIANCE> 3
 2.570393e-01 7.940423e+00 1.000000e-02
<GCONST> 1.621902e+00
<STATE> 6
<NUMMIXES> 2
<MIXTURE> 1 9.124915e-01
<MEAN> 3
 -2.778943e+00 2.332294e+00 -1.335392e+00
<VARIANCE> 3
 1.602106e+01 7.447102e+00 1.431263e+01
<GCONST> 1.295650e+01
<MIXTURE> 2 8.750460e-02
<MEAN> 3
 -4.699703e-01 -4.058238e-01 -1.000000e+02
<VARIANCE> 3
 1.403913e-01 6.108961e+00 1.000000e-02
<GCONST> 7.548962e-01
<STATE> 7
<NUMMIXES> 2
<MIXTURE> 1 3.869031e-01
<MEAN> 3
 -2.046973e-03 7.872345e-04 1.879719e-03
<VARIANCE> 3
 1.000000e-02 1.000000e-02 1.000000e-02
<GCONST> -8.301880e+00
<MIXTURE> 2 6.130223e-01
<MEAN> 3
 -4.255078e-04 -3.304998e-01 -1.000000e+02
<VARIANCE> 3
 1.000000e-02 5.805399e+00 1.000000e-02
<GCONST> -1.937921e+00
<TRANSP> 8
 0.000000e+00 1.000000e+00 0.000000e+00 0.000000e+00 0.000000e+00 0.000000e+00 0.000000e+00 0.000000e+00
 0.000000e+00 8.951414e-01 1.048586e-01 0.000000e+00 0.000000e+00 0.000000e+00 0.000000e+00 0.000000e+00
 0.000000e+00 0.000000e+00 9.742830e-01 2.571696e-02 0.000000e+00 0.000000e+00 0.000000e+00 0.000000e+00
 0.000000e+00 0.000000e+00 0.000000e+00 8.976080e-01 1.023920e-01 0.000000e+00 0.000000e+00 0.000000e+00
 0.000000e+00 0.000000e+00 0.000000e+00 0.000000e+00 9.717087e-01 2.829126e-02 0.000000e+00 0.000000e+00
 0.000000e+00 0.000000e+00 0.000000e+00 0.000000e+00 0.000000e+00 8.759547e-01 1.240453e-01 0.000000e+00
 0.000000e+00 0.000000e+00 0.000000e+00 0.000000e+00 0.000000e+00 0.000000e+00 9.937599e-01 6.240123e-03
 0.000000e+00 0.000000e+00 0.000000e+00 0.000000e+00 0.000000e+00 0.000000e+00 0.000000e+00 0.000000e+00
<ENDHMM>
~h "m"
<BEGINHMM>
<NUMSTATES> 8
<STATE> 2
<NUMMIXES> 2
<MIXTURE> 1 9.781784e-01
<MEAN> 3
 7.207871e-04 5.122746e-03 2.894018e+00
<VARIANCE> 3
 1.000000e-02 1.000000e-02 9.616831e+00
<GCONST> -1.433194e+00
<MIXTURE> 2 2.182050e-02
<MEAN> 3
 6.803440e-02 -2.081083e+00 -1.000000e+02
<VARIANCE> 3
 1.000000e-02 2.001873e+01 1.000000e-02
<GCONST> -7.000406e-01
<STATE> 3
<NUMMIXES> 2
<MIXTURE> 1 9.833828e-01
<MEAN> 3
 3.178589e-03 2.415200e+00 2.231074e+00
<VARIANCE> 3
 1.000000e-02 3.175563e+00 8.987045e+00
<GCONST> 4.259730e+00
<MIXTURE> 2 1.661591e-02
<MEAN> 3
 1.368500e-01 -2.064007e+00 -1.000000e+02
<VARIANCE> 3
 1.964322e-02 2.047777e+01 1.000000e-02
<GCONST> -2.222061e-03
<STATE> 4
<NUMMIXES> 2
<MIXTURE> 1 9.517557e-01
<MEAN> 3
 2.396437e+00 2.550554e-01 -2.341210e+00
<VARIANCE> 3
 3.381272e+00 4.193527e-01 2.618514e+01
<GCONST> 9.128033e+00
<MIXTURE> 2 4.824390e-02
<MEAN> 3
 2.159920e-01 -1.726218e+00 -1.000000e+02
<VARIANCE> 3
 5.466358e-02 2.150109e+01 1.000000e-02
<GCONST> 1.070007e+00
<STATE> 5
<NUMMIXES> 2
<MIXTURE> 1 9.600042e-01
<MEAN> 3
 1.998049e+00 4.358410e+00 2.822159e+00
<VARIANCE> 3
 1.910192e+00 4.952890e+00 7.250997e+00
<GCONST> 9.741945e+00
<MIXTURE> 2 3.999179e-02
<MEAN> 3
 3.077075e-01 -1.653088e+00 -1.000000e+02
<VARIANCE> 3
 1.240389e-01 2.175422e+01 1.000000e-02
<GCONST> 1.901109e+00
<STATE> 6
<NUMMIXES> 2
<MIXTURE> 1 8.275270e-03
<MEAN> 3
 1.642381e+00 2.576301e+00 7.259119e-01
<VARIANCE> 3
 4.020419e+00 6.040688e+00 1.790751e+00
<GCONST> 9.286170e+00
<MIXTURE> 2 9.917262e-01
<MEAN> 3
 3.379899e+00 1.571442e+00 -1.000000e+02
<VARIANCE> 3
 7.960706e+00 9.008675e+00 1.000000e-02
<GCONST> 5.181167e+00
<STATE> 7
<NUMMIXES> 2
<MIXTURE> 1 4.327411e-01
<MEAN> 3
 1.764091e+00 2.683407e+00 7.129080e-01
<VARIANCE> 3
 4.328819e+00 6.462409e+00 1.631839e+00
<GCONST> 9.334637e+00
<MIXTURE> 2 5.672596e-01
<MEAN> 3
 1.707947e+00 -3.980367e+01 -1.000000e+02
<VARIANCE> 3
 6.297165e+00 2.215013e+03 1.000000e-02
<GCONST> 1.045158e+01
<TRANSP> 8
 0.000000e+00 1.000000e+00 0.000000e+00 0.000000e+00 0.000000e+00 0.000000e+00 0.000000e+00 0.000000e+00
 0.000000e+00 9.504302e-01 4.956982e-02 0.000000e+00 0.000000e+00 0.000000e+00 0.000000e+00 0.000000e+00
 0.000000e+00 0.000000e+00 9.624501e-01 3.754992e-02 0.000000e+00 0.000000e+00 0.000000e+00 0.000000e+00
 0.000000e+00 0.000000e+00 0.000000e+00 8.984256e-01 1.015743e-01 0.000000e+00 0.000000e+00 0.000000e+00
 0.000000e+00 0.000000e+00 0.000000e+00 0.000000e+00 9.173914e-01 8.260863e-02 0.000000e+00 0.000000e+00
 0.000000e+00 0.000000e+00 0.000000e+00 0.000000e+00 0.000000e+00 9.806363e-01 1.936373e-02 0.000000e+00
 0.000000e+00 0.000000e+00 0.000000e+00 0.000000e+00 0.000000e+00 0.000000e+00 2.266391e-02 9.773361e-01
 0.000000e+00 0.000000e+00 0.000000e+00 0.000000e+00 0.000000e+00 0.000000e+00 0.000000e+00 0.000000e+00
<ENDHMM>
~h "sil"
<BEGINHMM>
<NUMSTATES> 8
<STATE> 2
<NUMMIXES> 2
<MIXTURE> 1 9.354013e-01
<MEAN> 3
 9.355464e+00 3.094816e+00 1.067813e+00
<VARIANCE> 3
 6.888456e+00 6.942243e+00 3.399587e+00
<GCONST> 1.060476e+01
<MIXTURE> 2 6.459840e-02
<MEAN> 3
 4.590872e+00 -6.262987e+01 -6.156852e+01
<VARIANCE> 3
 1.045077e+01 2.038149e+03 2.217335e+03
<GCONST> 2.318417e+01
<STATE> 3
<NUMMIXES> 2
<MIXTURE> 1 3.674402e-02
<MEAN> 3
 4.655423e+00 -6.965195e+01 -7.058363e+01
<VARIANCE> 3
 1.497251e+01 2.169320e+03 2.121476e+03
<GCONST> 2.356188e+01
<MIXTURE> 2 9.632557e-01
<MEAN> 3
 9.251054e+00 -3.922867e-04 3.910880e-03
<VARIANCE> 3
 3.165462e+00 1.000000e-02 1.000000e-02
<GCONST> -2.544410e+00
<STATE> 4
<NUMMIXES> 2
<MIXTURE> 1 2.230187e-02
<MEAN> 3
 4.095719e+00 -8.551528e+01 -8.698611e+01
<VARIANCE> 3
 1.549533e+01 1.300034e+03 1.131383e+03
<GCONST> 2.245551e+01
<MIXTURE> 2 9.776979e-01
<MEAN> 3
 8.345198e+00 2.336175e-03 3.209201e+00
<VARIANCE> 3
 8.104711e+00 1.000000e-02 7.943764e+00
<GCONST> 5.073294e+00
<STATE> 5
<NUMMIXES> 2
<MIXTURE> 1 6.639363e-02
<MEAN> 3
 3.998837e+00 -8.767136e+01 -8.869296e+01
<VARIANCE> 3
 1.565000e+01 1.142115e+03 1.020291e+03
<GCONST> 2.223258e+01
<MIXTURE> 2 9.336064e-01
<MEAN> 3
 6.314798e+00 1.038571e-02 -7.489957e+00
<VARIANCE> 3
 7.167360e+00 1.000000e-02 1.330553e+01
<GCONST> 5.466178e+00
<STATE> 6
<NUMMIXES> 2
<MIXTURE> 1 9.932235e-01
<MEAN> 3
 -1.038837e+00 -1.000000e+02 -1.000000e+02
<VARIANCE> 3
 1.532014e+01 1.000000e-02 1.000000e-02
<GCONST> -9.675407e-01
<MIXTURE> 2 6.775547e-03
<MEAN> 3
 9.115766e+00 1.176275e+00 2.020214e+00
<VARIANCE> 3
 6.947705e+00 1.032211e+00 1.519527e+00
<GCONST> 7.902144e+00
<STATE> 7
<NUMMIXES> 2
<MIXTURE> 1 9.568843e-01
<MEAN> 3
 8.078737e+00 4.453768e+00 3.250768e-03
<VARIANCE> 3
 1.378327e+01 8.363804e+00 1.000000e-02
<GCONST> 5.655829e+00
<MIXTURE> 2 4.311570e-02
<MEAN> 3
 5.008948e+00 -6.623569e+01 -6.541438e+01
<VARIANCE> 3
 7.950589e+00 2.285774e+03 2.398844e+03
<GCONST> 2.310408e+01
<TRANSP> 8
 0.000000e+00 1.000000e+00 0.000000e+00 0.000000e+00 0.000000e+00 0.000000e+00 0.000000e+00 0.000000e+00
 0.000000e+00 9.225950e-01 7.740507e-02 0.000000e+00 0.000000e+00 0.000000e+00 0.000000e+00 0.000000e+00
 0.000000e+00 0.000000e+00 9.478619e-01 5.213819e-02 0.000000e+00 0.000000e+00 0.000000e+00 0.000000e+00
 0.000000e+00 0.000000e+00 0.000000e+00 9.612080e-01 3.879207e-02 0.000000e+00 0.000000e+00 0.000000e+00
 0.000000e+00 0.000000e+00 0.000000e+00 0.000000e+00 8.819851e-01 1.180149e-01 0.000000e+00 0.000000e+00
 0.000000e+00 0.000000e+00 0.000000e+00 0.000000e+00 0.000000e+00 9.979998e-01 2.000233e-03 0.000000e+00
 0.000000e+00 0.000000e+00 0.000000e+00 0.000000e+00 0.000000e+00 0.000000e+00 9.424654e-01 5.753465e-02
 0.000000e+00 0.000000e+00 0.000000e+00 0.000000e+00 0.000000e+00 0.000000e+00 0.000000e+00 0.000000e+00
<ENDHMM>
