~o
<STREAMINFO> 1 3
<VECSIZE> 3<NULLD><USER><DIAGC>
~h "a"
<BEGINHMM>
<NUMSTATES> 8
<STATE> 2
<NUMMIXES> 2
<MIXTURE> 1 6.032801e-01
<MEAN> 3
 3.855241e+00 3.752145e+00 1.950726e+00
<VARIANCE> 3
 8.713221e+00 5.570374e+00 9.719316e+00
<GCONST> 1.167005e+01
<MIXTURE> 2 3.967201e-01
<MEAN> 3
 2.306364e-01 -5.463432e+01 -1.000000e+02
<VARIANCE> 3
 5.425518e-01 2.498986e+03 1.000000e-02
<GCONST> 8.120629e+00
<STATE> 3
<NUMMIXES> 2
<MIXTURE> 1 9.932610e-03
<MEAN> 3
 3.176926e+00 2.983917e+00 -2.136046e+01
<VARIANCE> 3
 8.618730e+00 8.863309e+00 1.841106e+03
<GCONST> 1.736761e+01
<MIXTURE> 2 9.900665e-01
<MEAN> 3
 -5.907184e-04 -1.000000e+02 -1.000000e+02
<VARIANCE> 3
 1.000000e-02 1.000000e-02 1.000000e-02
<GCONST> -8.301880e+00
<STATE> 4
<NUMMIXES> 2
<MIXTURE> 1 9.914350e-01
<MEAN> 3
 5.246544e+00 5.762868e+00 4.443213e+00
<VARIANCE> 3
 9.707755e+00 6.529896e+00 8.258364e+00
<GCONST> 1.177417e+01
<MIXTURE> 2 8.565333e-03
<MEAN> 3
 1.856152e-01 -5.459508e+01 -1.000000e+02
<VARIANCE> 3
 5.116706e-02 2.496730e+03 1.000000e-02
<GCONST> 5.758539e+00
<STATE> 5
<NUMMIXES> 2
<MIXTURE> 1 9.741638e-01
<MEAN> 3
 1.701047e+00 1.150059e-01 -5.830485e-01
<VARIANCE> 3
 5.556131e+00 3.443615e-01 3.971350e+01
<GCONST> 9.844161e+00
<MIXTURE> 2 2.583659e-02
<MEAN> 3
 9.406774e-02 -5.242851e+01 -1.000000e+02
<VARIANCE> 3
 1.561136e-02 2.520534e+03 1.000000e-02
<GCONST> 4.580930e+00
<STATE> 6
<NUMMIXES> 2
<MIXTURE> 1 9.901749e-01
<MEAN> 3
 4.693241e+00 9.160004e-01 1.281529e-03
<VARIANCE> 3
 9.267036e+00 3.072209e+00 1.000000e-02
<GCONST> 4.257321e+00
<MIXTURE> 2 9.825291e-03
<MEAN> 3
 3.821987e-02 -4.979604e+01 -1.000000e+02
<VARIANCE> 3
 1.000000e-02 2.522411e+03 1.000000e-02
<GCONST> 4.136262e+00
<STATE> 7
<NUMMIXES> 2
<MIXTURE> 1 9.557023e-02
<MEAN> 3
 2.063952e-02 -6.904026e+00 7.974605e-02
<VARIANCE> 3
 1.000000e-02 1.340885e+01 1.327289e-01
<GCONST> 1.484929e+00
<MIXTURE> 2 9.044380e-01
<MEAN> 3
 -7.411585e-04 -1.807709e+00 -1.000000e+02
<VARIANCE> 3
 1.000000e-02 4.824245e+01 1.000000e-02
<GCONST> 1.795301e-01
<TRANSP> 8
 0.000000e+00 1.000000e+00 0.000000e+00 0.000000e+00 0.000000e+00 0.000000e+00 0.000000e+00 0.000000e+00
 0.000000e+00 1.280539e-06 9.999987e-01 0.000000e+00 0.000000e+00 0.000000e+00 0.000000e+00 0.000000e+00
 0.000000e+00 0.000000e+00 9.873346e-01 1.266539e-02 0.000000e+00 0.000000e+00 0.000000e+00 0.000000e+00
 0.000000e+00 0.000000e+00 0.000000e+00 9.784368e-01 2.156326e-02 0.000000e+00 0.000000e+00 0.000000e+00
 0.000000e+00 0.000000e+00 0.000000e+00 0.000000e+00 9.374334e-01 6.256667e-02 0.000000e+00 0.000000e+00
 0.000000e+00 0.000000e+00 0.000000e+00 0.000000e+00 0.000000e+00 9.774132e-01 2.258674e-02 0.000000e+00
 0.000000e+00 0.000000e+00 0.000000e+00 0.000000e+00 0.000000e+00 0.000000e+00 9.834293e-01 1.657074e-02
 0.000000e+00 0.000000e+00 0.000000e+00 0.000000e+00 0.000000e+00 0.000000e+00 0.000000e+00 0.000000e+00
<ENDHMM>
~h "e"
<BEGINHMM>
<NUMSTATES> 8
<STATE> 2
<NUMMIXES> 2
<MIXTURE> 1 9.935733e-01
<MEAN> 3
 5.412234e-04 -9.508834e-04 -2.334464e-03
<VARIANCE> 3
 1.000000e-02 1.000000e-02 1.000000e-02
<GCONST> -8.301880e+00
<MIXTURE> 2 6.426167e-03
<MEAN> 3
 -1.359784e-01 -5.174469e+01 -1.000000e+02
<VARIANCE> 3
 2.521309e-02 2.272466e+03 1.000000e-02
<GCONST> 4.956691e+00
<STATE> 3
<NUMMIXES> 2
<MIXTURE> 1 9.918541e-01
<MEAN> 3
 -1.835209e-03 -3.011149e+00 -5.664094e+00
<VARIANCE> 3
 1.000000e-02 1.483550e+01 1.582786e+01
<GCONST> 6.367256e+00
<MIXTURE> 2 8.141053e-03
<MEAN> 3
 -2.396939e-01 -5.153984e+01 -1.000000e+02
<VARIANCE> 3
 6.123438e-02 2.272688e+03 1.000000e-02
<GCONST> 5.844133e+00
<STATE> 4
<NUMMIXES> 2
<MIXTURE> 1 9.764400e-01
<MEAN> 3
 -5.532632e+00 -2.921331e+00 -5.014346e-01
<VARIANCE> 3
 1.381895e+01 1.116829e+01 2.040035e+00
<GCONST> 1.126572e+01
<MIXTURE> 2 2.356138e-02
<MEAN> 3
 -3.771173e-01 -5.049729e+01 -1.000000e+02
<VARIANCE> 3
 1.436596e-01 2.272324e+03 1.000000e-02
<GCONST> 6.696712e+00
<STATE> 5
<NUMMIXES> 2
<MIXTURE> 1 9.669050e-01
<MEAN> 3
 -2.740304e+00 -7.908131e+00 -8.438543e+00
<VARIANCE> 3
 4.364663e+00 8.584990e+00 5.046590e+00
<GCONST> 1.075590e+01
<MIXTURE> 2 3.309388e-02
<MEAN> 3
 -5.571560e-01 -4.889829e+01 -1.000000e+02
<VARIANCE> 3
 3.413847e-01 2.269974e+03 1.000000e-02
<GCONST> 7.561240e+00
<STATE> 6
<NUMMIXES> 2
<MIXTURE> 1 3.150191e-02
<MEAN> 3
 -7.284870e+00 -2.784157e+00 -4.967689e-02
<VARIANCE> 3
 9.297242e+00 1.659877e+01 4.137746e+01
<GCONST> 1.427541e+01
<MIXTURE> 2 9.684983e-01
<MEAN> 3
 -7.538700e+00 -4.889752e+00 -1.000000e+02
<VARIANCE> 3
 9.992263e+00 5.922478e+01 1.000000e-02
<GCONST> 7.291612e+00
<STATE> 7
<NUMMIXES> 2
<MIXTURE> 1 9.862715e-01
<MEAN> 3
 -9.358684e+00 -9.243368e+00 -7.906142e+00
<VARIANCE> 3
 2.829127e+00 2.630850e+00 7.485807e+00
<GCONST> 9.533916e+00
<MIXTURE> 2 1.372825e-02
<MEAN> 3
 -2.080874e+00 -4.931423e+01 -1.000000e+02
<VARIANCE> 3
 4.934687e+00 2.392222e+03 1.000000e-02
<GCONST> 1.028473e+01
<TRANSP> 8
 0.000000e+00 1.000000e+00 0.000000e+00 0.000000e+00 0.000000e+00 0.000000e+00 0.000000e+00 0.000000e+00
 0.000000e+00 9.854316e-01 1.456834e-02 0.000000e+00 0.000000e+00 0.000000e+00 0.000000e+00 0.000000e+00
 0.000000e+00 0.000000e+00 9.816220e-01 1.837799e-02 0.000000e+00 0.000000e+00 0.000000e+00 0.000000e+00
 0.000000e+00 0.000000e+00 0.000000e+00 9.479707e-01 5.202927e-02 0.000000e+00 0.000000e+00 0.000000e+00
 0.000000e+00 0.000000e+00 0.000000e+00 0.000000e+00 9.293768e-01 7.062315e-02 0.000000e+00 0.000000e+00
 0.000000e+00 0.000000e+00 0.000000e+00 0.000000e+00 0.000000e+00 9.804749e-01 1.952509e-02 0.000000e+00
 0.000000e+00 0.000000e+00 0.000000e+00 0.000000e+00 0.000000e+00 0.000000e+00 9.696115e-01 3.038849e-02
 0.000000e+00 0.000000e+00 0.000000e+00 0.000000e+00 0.000000e+00 0.000000e+00 0.000000e+00 0.000000e+00
<ENDHMM>
~h "i"
<BEGINHMM>
<NUMSTATES> 8
<STATE> 2
<NUMMIXES> 2
<MIXTURE> 1 9.742838e-01
<MEAN> 3
 -1.895477e+00 -3.817637e+00 -8.318615e+00
<VARIANCE> 3
 1.243239e+01 1.848130e+01 8.445004e+00
<GCONST> 1.308427e+01
<MIXTURE> 2 2.571630e-02
<MEAN> 3
 -1.661656e+00 -4.922263e+01 -1.000000e+02
<VARIANCE> 3
 3.214634e+00 2.394236e+03 1.000000e-02
<GCONST> 9.856994e+00
<STATE> 3
<NUMMIXES> 2
<MIXTURE> 1 9.830703e-01
<MEAN> 3
 -7.969269e+00 -8.163889e+00 -5.093992e-03
<VARIANCE> 3
 9.144540e+00 7.417618e+00 1.000000e-02
<GCONST> 5.125476e+00
<MIXTURE> 2 1.692945e-02
<MEAN> 3
 -1.258039e+00 -4.923388e+01 -1.000000e+02
<VARIANCE> 3
 1.972195e+00 2.396843e+03 1.000000e-02
<GCONST> 9.369515e+00
<STATE> 4
<NUMMIXES> 2
<MIXTURE> 1 9.819660e-01
<MEAN> 3
 -7.791187e+00 -3.305041e-03 8.032280e-03
<VARIANCE> 3
 8.798919e+00 1.000000e-02 1.000000e-02
<GCONST> -1.522080e+00
<MIXTURE> 2 1.803210e-02
<MEAN> 3
 -9.311594e-01 -4.761027e+01 -1.000000e+02
<VARIANCE> 3
 1.170260e+00 2.397311e+03 1.000000e-02
<GCONST> 8.847791e+00
<STATE> 5
<NUMMIXES> 2
<MIXTURE> 1 9.931480e-01
<MEAN> 3
 -2.421843e-03 8.091240e-04 1.403298e-03
<VARIANCE> 3
 1.000000e-02 1.000000e-02 1.000000e-02
<GCONST> -8.301880e+00
<MIXTURE> 2 6.851922e-03
<MEAN> 3
 -6.108815e-01 -4.852288e+01 -1.000000e+02
<VARIANCE> 3
 7.105662e-01 2.401375e+03 1.000000e-02
<GCONST> 8.350565e+00
<STATE> 6
<NUMMIXES> 2
<MIXTURE> 1 9.306836e-01
<MEAN> 3
 -6.185649e+00 3.432714e-01 1.624080e+00
<VARIANCE> 3
 1.718965e+01 7.279296e-01 4.644362e+00
<GCONST> 9.576042e+00
<MIXTURE> 2 6.931558e-02
<MEAN> 3
 -3.948243e-01 -4.649585e+01 -1.000000e+02
<VARIANCE> 3
 4.432693e-01 2.395893e+03 1.000000e-02
<GCONST> 7.876395e+00
<STATE> 7
<NUMMIXES> 2
<MIXTURE> 1 9.551891e-01
<MEAN> 3
 6.596512e-04 2.174072e+00 5.593753e-01
<VARIANCE> 3
 1.000000e-02 3.441984e+00 1.537710e+00
<GCONST> 2.574804e+00
<MIXTURE> 2 4.481094e-02
<MEAN> 3
 -1.660615e-01 -4.815284e+01 -1.000000e+02
<VARIANCE> 3
 2.522746e-01 2.404020e+03 1.000000e-02
<GCONST> 7.316122e+00
<TRANSP> 8
 0.000000e+00 1.000000e+00 0.000000e+00 0.000000e+00 0.000000e+00 0.000000e+00 0.000000e+00 0.000000e+00
 0.000000e+00 9.431566e-01 5.684341e-02 0.000000e+00 0.000000e+00 0.000000e+00 0.000000e+00 0.000000e+00
 0.000000e+00 0.000000e+00 9.625489e-01 3.745108e-02 0.000000e+00 0.000000e+00 0.000000e+00 0.000000e+00
 0.000000e+00 0.000000e+00 0.000000e+00 9.614061e-01 3.859395e-02 0.000000e+00 0.000000e+00 0.000000e+00
 0.000000e+00 0.000000e+00 0.000000e+00 0.000000e+00 9.850461e-01 1.495385e-02 0.000000e+00 0.000000e+00
 0.000000e+00 0.000000e+00 0.000000e+00 0.000000e+00 0.000000e+00 8.550310e-01 1.449690e-01 0.000000e+00
 0.000000e+00 0.000000e+00 0.000000e+00 0.000000e+00 0.000000e+00 0.000000e+00 9.028878e-01 9.711216e-02
 0.000000e+00 0.000000e+00 0.000000e+00 0.000000e+00 0.000000e+00 0.000000e+00 0.000000e+00 0.000000e+00
<ENDHMM>
~h "m"
<BEGINHMM>
<NUMSTATES> 8
<STATE> 2
<NUMMIXES> 2
<MIXTURE> 1 2.560316e-02
<MEAN> 3
 -8.792965e-03 4.973627e+00 1.586438e+02
<VARIANCE> 3
 8.253817e-02 1.460701e+01 5.049766e+04
<GCONST> 1.653032e+01
<MIXTURE> 2 9.743973e-01
<MEAN> 3
 1.120261e-03 -3.029741e-01 -1.000000e+02
<VARIANCE> 3
 1.000000e-02 4.446702e+01 1.000000e-02
<GCONST> 9.803867e-02
<STATE> 3
<NUMMIXES> 2
<MIXTURE> 1 9.747452e-01
<MEAN> 3
 4.023402e-03 9.764994e-03 3.414743e+00
<VARIANCE> 3
 1.000000e-02 1.000000e-02 9.829359e+00
<GCONST> -1.411335e+00
<MIXTURE> 2 2.525308e-02
<MEAN> 3
 2.804493e-01 -4.162069e+01 -1.000000e+02
<VARIANCE> 3
 1.432696e-02 2.522313e+03 1.000000e-02
<GCONST> 4.495780e+00
<STATE> 4
<NUMMIXES> 2
<MIXTURE> 1 9.846073e-01
<MEAN> 3
 3.092075e+00 3.119318e+00 5.584456e-02
<VARIANCE> 3
 1.520877e+01 1.000644e+01 1.702588e-01
<GCONST> 8.768296e+00
<MIXTURE> 2 1.538979e-02
<MEAN> 3
 4.567631e-01 -4.167231e+01 -1.000000e+02
<VARIANCE> 3
 2.887774e-02 2.521927e+03 1.000000e-02
<GCONST> 5.196555e+00
<STATE> 5
<NUMMIXES> 2
<MIXTURE> 1 9.786484e-01
<MEAN> 3
 5.292026e-01 4.339416e+00 3.953504e+00
<VARIANCE> 3
 9.022176e-01 8.002821e+00 1.036628e+01
<GCONST> 9.829084e+00
<MIXTURE> 2 2.135078e-02
<MEAN> 3
 6.637272e-01 -4.136329e+01 -1.000000e+02
<VARIANCE> 3
 6.329799e-02 2.517069e+03 1.000000e-02
<GCONST> 5.979409e+00
<STATE> 6
<NUMMIXES> 2
<MIXTURE> 1 6.335296e-02
<MEAN> 3
 4.857478e+00 6.762153e+00 2.403290e+02
<VARIANCE> 3
 8.598410e+00 6.532402e+00 7.558972e+04
<GCONST> 2.077506e+01
<MIXTURE> 2 9.366451e-01
<MEAN> 3
 4.226015e+00 1.011743e+00 -1.000000e+02
<VARIANCE> 3
 8.334981e+00 5.213922e+01 1.000000e-02
<GCONST> 6.982840e+00
<STATE> 7
<NUMMIXES> 2
<MIXTURE> 1 2.510645e-02
<MEAN> 3
 6.389971e+00 3.106573e+02 2.193953e+02
<VARIANCE> 3
 8.727769e+00 7.139105e+04 2.100550e+04
<GCONST> 2.880861e+01
<MIXTURE> 2 9.748907e-01
<MEAN> 3
 -1.810566e+00 -1.000000e+02 -1.000000e+02
<VARIANCE> 3
 2.349460e+01 1.000000e-02 1.000000e-02
<GCONST> -5.399389e-01
<TRANSP> 8
 0.000000e+00 1.000000e+00 0.000000e+00 0.000000e+00 0.000000e+00 0.000000e+00 0.000000e+00 0.000000e+00
 0.000000e+00 9.830252e-01 1.697476e-02 0.000000e+00 0.000000e+00 0.000000e+00 0.000000e+00 0.000000e+00
 0.000000e+00 0.000000e+00 9.506543e-01 4.934565e-02 0.000000e+00 0.000000e+00 0.000000e+00 0.000000e+00
 0.000000e+00 0.000000e+00 0.000000e+00 9.698985e-01 3.010149e-02 0.000000e+00 0.000000e+00 0.000000e+00
 0.000000e+00 0.000000e+00 0.000000e+00 0.000000e+00 9.585422e-01 4.145779e-02 0.000000e+00 0.000000e+00
 0.000000e+00 0.000000e+00 0.000000e+00 0.000000e+00 0.000000e+00 9.809849e-01 1.901507e-02 0.000000e+00
 0.000000e+00 0.000000e+00 0.000000e+00 0.000000e+00 0.000000e+00 0.000000e+00 9.925007e-01 7.499314e-03
 0.000000e+00 0.000000e+00 0.000000e+00 0.000000e+00 0.000000e+00 0.000000e+00 0.000000e+00 0.000000e+00
<ENDHMM>
~h "sil"
<BEGINHMM>
<NUMSTATES> 8
<STATE> 2
<NUMMIXES> 2
<MIXTURE> 1 9.158362e-01
<MEAN> 3
 9.388609e+00 -8.006213e-05 1.905811e-03
<VARIANCE> 3
 5.005282e+00 1.000000e-02 1.000000e-02
<GCONST> -2.086215e+00
<MIXTURE> 2 8.416395e-02
<MEAN> 3
 7.480832e+00 -1.746081e+01 -1.668768e+01
<VARIANCE> 3
 7.139221e+00 9.845269e+02 1.001089e+03
<GCONST> 2.128024e+01
<STATE> 3
<NUMMIXES> 2
<MIXTURE> 1 9.121740e-01
<MEAN> 3
 9.739804e+00 2.108540e+00 1.258333e+00
<VARIANCE> 3
 2.969424e+00 2.613918e+00 1.582917e+00
<GCONST> 8.022119e+00
<MIXTURE> 2 8.782613e-02
<MEAN> 3
 4.040362e+00 -1.000000e+02 -1.000000e+02
<VARIANCE> 3
 3.495484e+00 1.000000e-02 1.000000e-02
<GCONST> -2.445237e+00
<STATE> 4
<NUMMIXES> 2
<MIXTURE> 1 8.174875e-02
<MEAN> 3
 7.310598e+00 -2.350823e+01 -2.099990e+01
<VARIANCE> 3
 1.287457e+01 1.982150e+03 2.124457e+03
<GCONST> 2.332209e+01
<MIXTURE> 2 9.182512e-01
<MEAN> 3
 7.735351e+00 5.330486e-03 3.785724e+00
<VARIANCE> 3
 1.483838e+01 1.000000e-02 9.869862e+00
<GCONST> 5.895164e+00
<STATE> 5
<NUMMIXES> 2
<MIXTURE> 1 3.332170e-02
<MEAN> 3
 5.309083e+00 -6.384999e+01 -6.285337e+01
<VARIANCE> 3
 9.585143e+00 2.340833e+03 2.474138e+03
<GCONST> 2.334576e+01
<MIXTURE> 2 9.666782e-01
<MEAN> 3
 6.560225e+00 4.879701e+00 2.055926e-03
<VARIANCE> 3
 6.250199e+00 7.328308e+00 1.000000e-02
<GCONST> 4.732820e+00
<STATE> 6
<NUMMIXES> 2
<MIXTURE> 1 4.320098e-02
<MEAN> 3
 4.095787e+00 -1.000000e+02 -1.000000e+02
<VARIANCE> 3
 3.810410e+00 1.000000e-02 1.000000e-02
<GCONST> -2.358973e+00
<MIXTURE> 2 9.567992e-01
<MEAN> 3
 6.145008e+00 1.463665e+00 4.147294e+00
<VARIANCE> 3
 5.858119e+00 1.316656e+00 6.952536e+00
<GCONST> 9.495661e+00
<STATE> 7
<NUMMIXES> 2
<MIXTURE> 1 9.534539e-02
<MEAN> 3
 4.983083e+00 -5.344143e+01 -5.353910e+01
<VARIANCE> 3
 7.158335e+00 2.655804e+03 2.647170e+03
<GCONST> 2.324766e+01
<MIXTURE> 2 9.046531e-01
<MEAN> 3
 5.613766e+00 1.903480e-03 -7.692069e+00
<VARIANCE> 3
 5.394814e+00 1.000000e-02 1.030260e+01
<GCONST> 4.926296e+00
<TRANSP> 8
 0.000000e+00 1.000000e+00 0.000000e+00 0.000000e+00 0.000000e+00 0.000000e+00 0.000000e+00 0.000000e+00
 0.000000e+00 9.791024e-01 2.089762e-02 0.000000e+00 0.000000e+00 0.000000e+00 0.000000e+00 0.000000e+00
 0.000000e+00 0.000000e+00 8.839095e-01 1.160905e-01 0.000000e+00 0.000000e+00 0.000000e+00 0.000000e+00
 0.000000e+00 0.000000e+00 0.000000e+00 9.586490e-01 4.135096e-02 0.000000e+00 0.000000e+00 0.000000e+00
 0.000000e+00 0.000000e+00 0.000000e+00 0.000000e+00 9.572314e-01 4.276859e-02 0.000000e+00 0.000000e+00
 0.000000e+00 0.000000e+00 0.000000e+00 0.000000e+00 0.000000e+00 9.258062e-01 7.419378e-02 0.000000e+00
 0.000000e+00 0.000000e+00 0.000000e+00 0.000000e+00 0.000000e+00 0.000000e+00 8.950067e-01 1.049934e-01
 0.000000e+00 0.000000e+00 0.000000e+00 0.000000e+00 0.000000e+00 0.000000e+00 0.000000e+00 0.000000e+00
<ENDHMM>
