~o
<STREAMINFO> 1 3
<VECSIZE> 3<NULLD><USER><DIAGC>
~h "a"
<BEGINHMM>
<NUMSTATES> 8
<STATE> 2
<NUMMIXES> 2
<MIXTURE> 1 9.765106e-01
<MEAN> 3
 5.786441e+00 4.246837e+00 4.532639e+00
<VARIANCE> 3
 9.354829e+00 7.919811e+00 6.754678e+00
<GCONST> 1.172913e+01
<MIXTURE> 2 2.348971e-02
<MEAN> 3
 3.694432e+00 -1.596607e+00 -1.000000e+02
<VARIANCE> 3
 1.302495e+01 1.079024e+01 1.000000e-02
<GCONST> 5.853970e+00
<STATE> 3
<NUMMIXES> 2
<MIXTURE> 1 9.867715e-01
<MEAN> 3
 3.661143e+00 4.484991e+00 2.996059e-03
<VARIANCE> 3
 9.772484e+00 8.660466e+00 1.000000e-02
<GCONST> 5.346801e+00
<MIXTURE> 2 1.322841e-02
<MEAN> 3
 4.445336e-01 -1.238080e+00 -1.000000e+02
<VARIANCE> 3
 2.729224e-01 5.107447e+00 1.000000e-02
<GCONST> 1.240593e+00
<STATE> 4
<NUMMIXES> 2
<MIXTURE> 1 9.895872e-01
<MEAN> 3
 4.543077e+00 2.721847e-03 3.047845e-04
<VARIANCE> 3
 8.510714e+00 1.000000e-02 1.000000e-02
<GCONST> -1.555384e+00
<MIXTURE> 2 1.041304e-02
<MEAN> 3
 2.882662e-01 -1.365753e+00 -1.000000e+02
<VARIANCE> 3
 1.192431e-01 5.420661e+00 1.000000e-02
<GCONST> 4.720879e-01
<STATE> 5
<NUMMIXES> 2
<MIXTURE> 1 9.601332e-01
<MEAN> 3
 1.231827e+00 -4.147835e+00 1.280396e-01
<VARIANCE> 3
 5.271754e+00 3.155745e+01 3.011313e+00
<GCONST> 1.173018e+01
<MIXTURE> 2 3.986296e-02
<MEAN> 3
 2.400656e-01 -1.276342e+00 -1.000000e+02
<VARIANCE> 3
 9.311487e-02 5.820176e+00 1.000000e-02
<GCONST> 2.958703e-01
<STATE> 6
<NUMMIXES> 2
<MIXTURE> 1 8.038976e-01
<MEAN> 3
 2.068315e-03 -4.027140e-04 -2.599343e-03
<VARIANCE> 3
 1.000000e-02 1.000000e-02 1.000000e-02
<GCONST> -8.301880e+00
<MIXTURE> 2 1.960840e-01
<MEAN> 3
 1.903533e-03 -7.563755e+00 -1.000000e+02
<VARIANCE> 3
 1.000000e-02 7.281961e+00 1.000000e-02
<GCONST> -1.711309e+00
<STATE> 7
<NUMMIXES> 2
<MIXTURE> 1 8.671686e-01
<MEAN> 3
 1.101924e-03 -2.171541e-01 -6.454349e-01
<VARIANCE> 3
 1.000000e-02 1.739489e-01 2.612411e-01
<GCONST> -2.182844e+00
<MIXTURE> 2 1.328300e-01
<MEAN> 3
 -1.582839e-02 -9.242883e-01 -1.000000e+02
<VARIANCE> 3
 1.000000e-02 1.011672e+01 1.000000e-02
<GCONST> -1.382519e+00
<TRANSP> 8
 0.000000e+00 1.000000e+00 0.000000e+00 0.000000e+00 0.000000e+00 0.000000e+00 0.000000e+00 0.000000e+00
 0.000000e+00 9.714171e-01 2.858291e-02 0.000000e+00 0.000000e+00 0.000000e+00 0.000000e+00 0.000000e+00
 0.000000e+00 0.000000e+00 9.685791e-01 3.142091e-02 0.000000e+00 0.000000e+00 0.000000e+00 0.000000e+00
 0.000000e+00 0.000000e+00 0.000000e+00 9.748754e-01 2.512462e-02 0.000000e+00 0.000000e+00 0.000000e+00
 0.000000e+00 0.000000e+00 0.000000e+00 0.000000e+00 9.190719e-01 8.092817e-02 0.000000e+00 0.000000e+00
 0.000000e+00 0.000000e+00 0.000000e+00 0.000000e+00 0.000000e+00 9.858603e-01 1.413964e-02 0.000000e+00
 0.000000e+00 0.000000e+00 0.000000e+00 0.000000e+00 0.000000e+00 0.000000e+00 8.941321e-01 1.058679e-01
 0.000000e+00 0.000000e+00 0.000000e+00 0.000000e+00 0.000000e+00 0.000000e+00 0.000000e+00 0.000000e+00
<ENDHMM>
~h "e"
<BEGINHMM>
<NUMSTATES> 8
<STATE> 2
<NUMMIXES> 2
<MIXTURE> 1 9.849111e-01
<MEAN> 3
 7.917603e-06 -4.354965e-03 -6.064973e+00
<VARIANCE> 3
 1.000000e-02 1.000000e-02 1.691683e+01
<GCONST> -8.684003e-01
<MIXTURE> 2 1.508986e-02
<MEAN> 3
 -1.540354e-01 -2.898758e+00 -1.000000e+02
<VARIANCE> 3
 3.719802e-02 1.907799e+01 1.000000e-02
<GCONST> 5.654964e-01
<STATE> 3
<NUMMIXES> 2
<MIXTURE> 1 1.697350e-01
<MEAN> 3
 -5.160833e-01 -1.491666e-01 -4.853054e+00
<VARIANCE> 3
 2.142863e-01 5.860600e-02 1.824909e+01
<GCONST> 4.040386e+00
<MIXTURE> 2 8.302637e-01
<MEAN> 3
 -1.446224e+00 -3.577620e+00 -1.000000e+02
<VARIANCE> 3
 9.853837e-01 1.639168e+01 1.000000e-02
<GCONST> 3.690511e+00
<STATE> 4
<NUMMIXES> 2
<MIXTURE> 1 9.849700e-01
<MEAN> 3
 -4.124327e-03 -5.884380e+00 -7.720902e+00
<VARIANCE> 3
 1.000000e-02 1.288926e+01 8.495501e+00
<GCONST> 5.604393e+00
<MIXTURE> 2 1.502910e-02
<MEAN> 3
 -2.091434e+00 -2.768409e+00 -1.000000e+02
<VARIANCE> 3
 3.804664e+00 1.654147e+01 1.000000e-02
<GCONST> 5.050559e+00
<STATE> 5
<NUMMIXES> 2
<MIXTURE> 1 1.308119e-01
<MEAN> 3
 -3.109264e+00 -1.969333e+00 -1.204860e+00
<VARIANCE> 3
 4.025332e+00 5.302764e+00 4.815709e+00
<GCONST> 1.014635e+01
<MIXTURE> 2 8.691795e-01
<MEAN> 3
 -8.599623e+00 -4.292842e+00 -1.000000e+02
<VARIANCE> 3
 4.226302e+00 1.987704e+01 1.000000e-02
<GCONST> 5.339354e+00
<STATE> 6
<NUMMIXES> 2
<MIXTURE> 1 9.467470e-01
<MEAN> 3
 -2.335125e+00 -8.008876e+00 -7.993027e+00
<VARIANCE> 3
 2.526299e+00 6.229005e+00 7.438893e+00
<GCONST> 1.027633e+01
<MIXTURE> 2 5.325168e-02
<MEAN> 3
 -2.554793e+00 -5.935951e-01 -1.000000e+02
<VARIANCE> 3
 5.411043e+00 7.640389e+00 1.000000e-02
<GCONST> 4.630351e+00
<STATE> 7
<NUMMIXES> 2
<MIXTURE> 1 9.870764e-01
<MEAN> 3
 -9.035111e+00 -8.387895e+00 -7.985017e+00
<VARIANCE> 3
 4.221481e+00 7.199048e+00 8.233200e+00
<GCONST> 1.103594e+01
<MIXTURE> 2 1.292317e-02
<MEAN> 3
 -1.848292e+00 -6.283253e-01 -1.000000e+02
<VARIANCE> 3
 3.505244e+00 7.874541e+00 1.000000e-02
<GCONST> 4.226356e+00
<TRANSP> 8
 0.000000e+00 1.000000e+00 0.000000e+00 0.000000e+00 0.000000e+00 0.000000e+00 0.000000e+00 0.000000e+00
 0.000000e+00 9.662490e-01 3.375100e-02 0.000000e+00 0.000000e+00 0.000000e+00 0.000000e+00 0.000000e+00
 0.000000e+00 0.000000e+00 8.859475e-01 1.140525e-01 0.000000e+00 0.000000e+00 0.000000e+00 0.000000e+00
 0.000000e+00 0.000000e+00 0.000000e+00 9.674104e-01 3.258955e-02 0.000000e+00 0.000000e+00 0.000000e+00
 0.000000e+00 0.000000e+00 0.000000e+00 0.000000e+00 9.792660e-01 2.073397e-02 0.000000e+00 0.000000e+00
 0.000000e+00 0.000000e+00 0.000000e+00 0.000000e+00 0.000000e+00 8.963619e-01 1.036380e-01 0.000000e+00
 0.000000e+00 0.000000e+00 0.000000e+00 0.000000e+00 0.000000e+00 0.000000e+00 9.716812e-01 2.831881e-02
 0.000000e+00 0.000000e+00 0.000000e+00 0.000000e+00 0.000000e+00 0.000000e+00 0.000000e+00 0.000000e+00
<ENDHMM>
~h "i"
<BEGINHMM>
<NUMSTATES> 8
<STATE> 2
<NUMMIXES> 2
<MIXTURE> 1 7.784492e-01
<MEAN> 3
 -3.488298e-01 -3.836581e+00 -6.654572e+00
<VARIANCE> 3
 5.443090e+00 1.934562e+01 1.780513e+01
<GCONST> 1.304993e+01
<MIXTURE> 2 2.215541e-01
<MEAN> 3
 -4.265996e-01 -1.898762e+00 -1.000000e+02
<VARIANCE> 3
 9.279537e-01 4.321011e+01 1.000000e-02
<GCONST> 4.599763e+00
<STATE> 3
<NUMMIXES> 2
<MIXTURE> 1 9.878874e-01
<MEAN> 3
 -6.258381e+00 -8.320372e+00 -3.110206e-03
<VARIANCE> 3
 1.669324e+01 6.647082e+00 1.000000e-02
<GCONST> 5.617642e+00
<MIXTURE> 2 1.211435e-02
<MEAN> 3
 -8.873684e-01 -1.050415e-01 -1.000000e+02
<VARIANCE> 3
 1.206464e+00 6.551874e-01 1.000000e-02
<GCONST> 6.733208e-01
<STATE> 4
<NUMMIXES> 2
<MIXTURE> 1 8.782070e-01
<MEAN> 3
 -5.678761e+00 -1.845368e-03 2.622470e+00
<VARIANCE> 3
 1.701126e+01 2.358009e-02 8.451873e+00
<GCONST> 6.734542e+00
<MIXTURE> 2 1.217926e-01
<MEAN> 3
 -3.705905e+00 4.603333e-01 -1.000000e+02
<VARIANCE> 3
 1.357510e+01 1.012998e+00 1.000000e-02
<GCONST> 3.529613e+00
<STATE> 5
<NUMMIXES> 2
<MIXTURE> 1 9.867159e-01
<MEAN> 3
 -8.204265e+00 -1.415810e-03 9.741901e-04
<VARIANCE> 3
 6.786585e+00 1.000000e-02 1.000000e-02
<GCONST> -1.781761e+00
<MIXTURE> 2 1.328422e-02
<MEAN> 3
 -3.593134e-01 1.388142e-02 -1.000000e+02
<VARIANCE> 3
 2.126676e-01 1.854919e-01 1.000000e-02
<GCONST> -2.324307e+00
<STATE> 6
<NUMMIXES> 2
<MIXTURE> 1 9.072064e-01
<MEAN> 3
 -2.876146e+00 2.356433e+00 -1.353996e+00
<VARIANCE> 3
 1.652837e+01 7.467222e+00 1.442292e+01
<GCONST> 1.299805e+01
<MIXTURE> 2 9.279303e-02
<MEAN> 3
 -3.864975e-01 4.950389e-02 -1.000000e+02
<VARIANCE> 3
 1.575586e-01 9.423912e-02 1.000000e-02
<GCONST> -3.301416e+00
<STATE> 7
<NUMMIXES> 2
<MIXTURE> 1 4.256091e-01
<MEAN> 3
 -2.098388e-03 7.758868e-04 1.659708e-03
<VARIANCE> 3
 1.000000e-02 1.000000e-02 1.000000e-02
<GCONST> -8.301880e+00
<MIXTURE> 2 5.742878e-01
<MEAN> 3
 -4.165011e-04 -4.518280e-05 -1.000000e+02
<VARIANCE> 3
 1.000000e-02 1.000000e-02 1.000000e-02
<GCONST> -8.301880e+00
<TRANSP> 8
 0.000000e+00 1.000000e+00 0.000000e+00 0.000000e+00 0.000000e+00 0.000000e+00 0.000000e+00 0.000000e+00
 0.000000e+00 8.902105e-01 1.097895e-01 0.000000e+00 0.000000e+00 0.000000e+00 0.000000e+00 0.000000e+00
 0.000000e+00 0.000000e+00 9.732931e-01 2.670684e-02 0.000000e+00 0.000000e+00 0.000000e+00 0.000000e+00
 0.000000e+00 0.000000e+00 0.000000e+00 8.911384e-01 1.088616e-01 0.000000e+00 0.000000e+00 0.000000e+00
 0.000000e+00 0.000000e+00 0.000000e+00 0.000000e+00 9.718776e-01 2.812240e-02 0.000000e+00 0.000000e+00
 0.000000e+00 0.000000e+00 0.000000e+00 0.000000e+00 0.000000e+00 8.753994e-01 1.246006e-01 0.000000e+00
 0.000000e+00 0.000000e+00 0.000000e+00 0.000000e+00 0.000000e+00 0.000000e+00 9.930090e-01 6.991048e-03
 0.000000e+00 0.000000e+00 0.000000e+00 0.000000e+00 0.000000e+00 0.000000e+00 0.000000e+00 0.000000e+00
<ENDHMM>
~h "m"
<BEGINHMM>
<NUMSTATES> 8
<STATE> 2
<NUMMIXES> 2
<MIXTURE> 1 9.760396e-01
<MEAN> 3
 5.437835e-04 5.833340e-03 2.546634e+00
<VARIANCE> 3
 1.000000e-02 1.000000e-02 1.199318e+01
<GCONST> -1.212371e+00
<MIXTURE> 2 2.396026e-02
<MEAN> 3
 1.498989e-02 -5.210539e-02 -1.000000e+02
<VARIANCE> 3
 1.000000e-02 1.315023e-01 1.000000e-02
<GCONST> -5.725440e+00
<STATE> 3
<NUMMIXES> 2
<MIXTURE> 1 9.810151e-01
<MEAN> 3
 3.422639e-03 2.420670e+00 2.228047e+00
<VARIANCE> 3
 1.000000e-02 3.156088e+00 8.977272e+00
<GCONST> 4.252491e+00
<MIXTURE> 2 1.899062e-02
<MEAN> 3
 4.187498e-02 -9.567921e-02 -1.000000e+02
<VARIANCE> 3
 1.000000e-02 2.616014e-01 1.000000e-02
<GCONST> -5.037642e+00
<STATE> 4
<NUMMIXES> 2
<MIXTURE> 1 3.901034e-01
<MEAN> 3
 2.500602e+00 2.310378e-01 -2.327423e+00
<VARIANCE> 3
 3.175413e+00 4.254128e-01 2.504538e+01
<GCONST> 9.035063e+00
<MIXTURE> 2 6.098996e-01
<MEAN> 3
 5.210062e-03 2.625937e+00 -1.000000e+02
<VARIANCE> 3
 1.000000e-02 1.289102e+01 1.000000e-02
<GCONST> -1.140178e+00
<STATE> 5
<NUMMIXES> 2
<MIXTURE> 1 9.472702e-01
<MEAN> 3
 2.001363e+00 4.274954e+00 2.824242e+00
<VARIANCE> 3
 1.898597e+00 5.108418e+00 7.105247e+00
<GCONST> 9.746469e+00
<MIXTURE> 2 5.273528e-02
<MEAN> 3
 2.596256e-01 4.326323e-01 -1.000000e+02
<VARIANCE> 3
 6.437624e-02 4.743547e+00 1.000000e-02
<GCONST> -2.777643e-01
<STATE> 6
<NUMMIXES> 2
<MIXTURE> 1 8.431756e-03
<MEAN> 3
 1.772152e+00 2.790001e+00 7.030372e-01
<VARIANCE> 3
 3.970123e+00 6.206212e+00 1.760341e+00
<GCONST> 9.283486e+00
<MIXTURE> 2 9.915724e-01
<MEAN> 3
 3.713727e+00 1.398536e+00 -1.000000e+02
<VARIANCE> 3
 7.181621e+00 7.078885e+00 1.000000e-02
<GCONST> 4.837103e+00
<STATE> 7
<NUMMIXES> 2
<MIXTURE> 1 3.858451e-01
<MEAN> 3
 1.861883e+00 2.900292e+00 6.900148e-01
<VARIANCE> 3
 4.258602e+00 6.657076e+00 1.656086e+00
<GCONST> 9.362709e+00
<MIXTURE> 2 6.141548e-01
<MEAN> 3
 1.748904e+00 7.915844e-01 -1.000000e+02
<VARIANCE> 3
 6.509897e+00 9.112084e+00 1.000000e-02
<GCONST> 4.991385e+00
<TRANSP> 8
 0.000000e+00 1.000000e+00 0.000000e+00 0.000000e+00 0.000000e+00 0.000000e+00 0.000000e+00 0.000000e+00
 0.000000e+00 9.537040e-01 4.629596e-02 0.000000e+00 0.000000e+00 0.000000e+00 0.000000e+00 0.000000e+00
 0.000000e+00 0.000000e+00 9.626819e-01 3.731800e-02 0.000000e+00 0.000000e+00 0.000000e+00 0.000000e+00
 0.000000e+00 0.000000e+00 0.000000e+00 9.533396e-01 4.666041e-02 0.000000e+00 0.000000e+00 0.000000e+00
 0.000000e+00 0.000000e+00 0.000000e+00 0.000000e+00 9.208810e-01 7.911903e-02 0.000000e+00 0.000000e+00
 0.000000e+00 0.000000e+00 0.000000e+00 0.000000e+00 0.000000e+00 9.783644e-01 2.163556e-02 0.000000e+00
 0.000000e+00 0.000000e+00 0.000000e+00 0.000000e+00 0.000000e+00 0.000000e+00 1.019975e-03 9.989800e-01
 0.000000e+00 0.000000e+00 0.000000e+00 0.000000e+00 0.000000e+00 0.000000e+00 0.000000e+00 0.000000e+00
<ENDHMM>
~h "sil"
<BEGINHMM>
<NUMSTATES> 8
<STATE> 2
<NUMMIXES> 2
<MIXTURE> 1 9.271194e-01
<MEAN> 3
 9.393527e+00 3.192994e+00 1.103570e+00
<VARIANCE> 3
 6.827478e+00 6.226127e+00 3.226117e+00
<GCONST> 1.043462e+01
<MIXTURE> 2 7.287990e-02
<MEAN> 3
 4.967950e+00 -1.453541e+00 -5.420164e+01
<VARIANCE> 3
 1.014439e+01 4.367630e+01 2.356219e+03
<GCONST> 1.937217e+01
<STATE> 3
<NUMMIXES> 2
<MIXTURE> 1 3.796194e-02
<MEAN> 3
 4.871868e+00 3.391917e+00 -6.847534e+01
<VARIANCE> 3
 1.416601e+01 5.303338e+00 2.181913e+03
<GCONST> 1.752077e+01
<MIXTURE> 2 9.620379e-01
<MEAN> 3
 9.250534e+00 -4.084003e-04 3.913989e-03
<VARIANCE> 3
 3.165327e+00 1.000000e-02 1.000000e-02
<GCONST> -2.544453e+00
<STATE> 4
<NUMMIXES> 2
<MIXTURE> 1 2.272301e-02
<MEAN> 3
 4.255791e+00 4.094903e+00 -8.651870e+01
<VARIANCE> 3
 1.464556e+01 4.079780e+00 1.163975e+03
<GCONST> 1.666341e+01
<MIXTURE> 2 9.772769e-01
<MEAN> 3
 8.429670e+00 2.515861e-03 3.267438e+00
<VARIANCE> 3
 7.540611e+00 1.000000e-02 7.800517e+00
<GCONST> 4.982954e+00
<STATE> 5
<NUMMIXES> 2
<MIXTURE> 1 6.538094e-02
<MEAN> 3
 4.201848e+00 4.126966e+00 -8.678552e+01
<VARIANCE> 3
 1.468221e+01 4.122633e+00 1.170920e+03
<GCONST> 1.668230e+01
<MIXTURE> 2 9.346189e-01
<MEAN> 3
 6.133746e+00 9.519393e-03 -7.242398e+00
<VARIANCE> 3
 7.811881e+00 1.000000e-02 1.435794e+01
<GCONST> 5.628409e+00
<STATE> 6
<NUMMIXES> 2
<MIXTURE> 1 9.981865e-01
<MEAN> 3
 -1.017380e+00 -1.000000e+02 -1.000000e+02
<VARIANCE> 3
 1.539687e+01 1.000000e-02 1.000000e-02
<GCONST> -9.625454e-01
<MIXTURE> 2 1.813392e-03
<MEAN> 3
 8.598845e+00 1.244879e+00 2.184879e+00
<VARIANCE> 3
 6.146424e+00 2.598792e+00 3.666118e+00
<GCONST> 9.583682e+00
<STATE> 7
<NUMMIXES> 2
<MIXTURE> 1 9.383748e-01
<MEAN> 3
 8.662703e+00 4.449014e+00 2.789944e-03
<VARIANCE> 3
 1.152743e+01 1.012354e+01 1.000000e-02
<GCONST> 5.668054e+00
<MIXTURE> 2 6.162485e-02
<MEAN> 3
 5.264708e+00 -6.346240e+01 -6.249522e+01
<VARIANCE> 3
 9.127922e+00 2.361707e+03 2.488872e+03
<GCONST> 2.331170e+01
<TRANSP> 8
 0.000000e+00 1.000000e+00 0.000000e+00 0.000000e+00 0.000000e+00 0.000000e+00 0.000000e+00 0.000000e+00
 0.000000e+00 9.230693e-01 7.693071e-02 0.000000e+00 0.000000e+00 0.000000e+00 0.000000e+00 0.000000e+00
 0.000000e+00 0.000000e+00 9.479222e-01 5.207779e-02 0.000000e+00 0.000000e+00 0.000000e+00 0.000000e+00
 0.000000e+00 0.000000e+00 0.000000e+00 9.607057e-01 3.929428e-02 0.000000e+00 0.000000e+00 0.000000e+00
 0.000000e+00 0.000000e+00 0.000000e+00 0.000000e+00 8.862528e-01 1.137472e-01 0.000000e+00 0.000000e+00
 0.000000e+00 0.000000e+00 0.000000e+00 0.000000e+00 0.000000e+00 9.979998e-01 2.000160e-03 0.000000e+00
 0.000000e+00 0.000000e+00 0.000000e+00 0.000000e+00 0.000000e+00 0.000000e+00 9.212623e-01 7.873771e-02
 0.000000e+00 0.000000e+00 0.000000e+00 0.000000e+00 0.000000e+00 0.000000e+00 0.000000e+00 0.000000e+00
<ENDHMM>
