~o
<STREAMINFO> 1 3
<VECSIZE> 3<NULLD><USER><DIAGC>
~h "a"
<BEGINHMM>
<NUMSTATES> 8
<STATE> 2
<NUMMIXES> 2
<MIXTURE> 1 6.032782e-01
<MEAN> 3
 3.827119e+00 3.738460e+00 1.929838e+00
<VARIANCE> 3
 8.792663e+00 5.711376e+00 1.003192e+01
<GCONST> 1.173578e+01
<MIXTURE> 2 3.967218e-01
<MEAN> 3
 2.131697e-01 -5.463606e+01 -1.000000e+02
<VARIANCE> 3
 5.107790e-01 2.498815e+03 1.000000e-02
<GCONST> 8.060214e+00
<STATE> 3
<NUMMIXES> 2
<MIXTURE> 1 9.927554e-03
<MEAN> 3
 3.148218e+00 2.976072e+00 -2.138227e+01
<VARIANCE> 3
 8.685640e+00 8.958530e+00 1.841075e+03
<GCONST> 1.738601e+01
<MIXTURE> 2 9.900716e-01
<MEAN> 3
 -5.892284e-04 -1.000000e+02 -1.000000e+02
<VARIANCE> 3
 1.000000e-02 1.000000e-02 1.000000e-02
<GCONST> -8.301880e+00
<STATE> 4
<NUMMIXES> 2
<MIXTURE> 1 9.914280e-01
<MEAN> 3
 5.245121e+00 5.764446e+00 4.445553e+00
<VARIANCE> 3
 9.704372e+00 6.531143e+00 8.261047e+00
<GCONST> 1.177434e+01
<MIXTURE> 2 8.571688e-03
<MEAN> 3
 1.735132e-01 -5.459921e+01 -1.000000e+02
<VARIANCE> 3
 4.521760e-02 2.496535e+03 1.000000e-02
<GCONST> 5.634851e+00
<STATE> 5
<NUMMIXES> 2
<MIXTURE> 1 9.737144e-01
<MEAN> 3
 1.711320e+00 1.183197e-01 -5.748346e-01
<VARIANCE> 3
 5.653053e+00 3.567444e-01 4.044707e+01
<GCONST> 9.915086e+00
<MIXTURE> 2 2.628644e-02
<MEAN> 3
 8.572356e-02 -5.247388e+01 -1.000000e+02
<VARIANCE> 3
 1.334563e-02 2.519981e+03 1.000000e-02
<GCONST> 4.423902e+00
<STATE> 6
<NUMMIXES> 2
<MIXTURE> 1 9.901829e-01
<MEAN> 3
 4.692068e+00 9.186769e-01 1.286142e-03
<VARIANCE> 3
 9.266902e+00 3.079342e+00 1.000000e-02
<GCONST> 4.259626e+00
<MIXTURE> 2 9.817404e-03
<MEAN> 3
 3.373950e-02 -4.979754e+01 -1.000000e+02
<VARIANCE> 3
 1.000000e-02 2.522302e+03 1.000000e-02
<GCONST> 4.136218e+00
<STATE> 7
<NUMMIXES> 2
<MIXTURE> 1 9.559846e-02
<MEAN> 3
 2.063857e-02 -6.904479e+00 7.976872e-02
<VARIANCE> 3
 1.000000e-02 1.340714e+01 1.327467e-01
<GCONST> 1.484936e+00
<MIXTURE> 2 9.043816e-01
<MEAN> 3
 -7.454823e-04 -1.807967e+00 -1.000000e+02
<VARIANCE> 3
 1.000000e-02 4.825732e+01 1.000000e-02
<GCONST> 1.798382e-01
<TRANSP> 8
 0.000000e+00 1.000000e+00 0.000000e+00 0.000000e+00 0.000000e+00 0.000000e+00 0.000000e+00 0.000000e+00
 0.000000e+00 3.152496e-09 1.000000e+00 0.000000e+00 0.000000e+00 0.000000e+00 0.000000e+00 0.000000e+00
 0.000000e+00 0.000000e+00 9.873372e-01 1.266278e-02 0.000000e+00 0.000000e+00 0.000000e+00 0.000000e+00
 0.000000e+00 0.000000e+00 0.000000e+00 9.784200e-01 2.158001e-02 0.000000e+00 0.000000e+00 0.000000e+00
 0.000000e+00 0.000000e+00 0.000000e+00 0.000000e+00 9.362940e-01 6.370601e-02 0.000000e+00 0.000000e+00
 0.000000e+00 0.000000e+00 0.000000e+00 0.000000e+00 0.000000e+00 9.774315e-01 2.256853e-02 0.000000e+00
 0.000000e+00 0.000000e+00 0.000000e+00 0.000000e+00 0.000000e+00 0.000000e+00 9.834227e-01 1.657731e-02
 0.000000e+00 0.000000e+00 0.000000e+00 0.000000e+00 0.000000e+00 0.000000e+00 0.000000e+00 0.000000e+00
<ENDHMM>
~h "e"
<BEGINHMM>
<NUMSTATES> 8
<STATE> 2
<NUMMIXES> 2
<MIXTURE> 1 9.935742e-01
<MEAN> 3
 5.380937e-04 -9.409940e-04 -2.307800e-03
<VARIANCE> 3
 1.000000e-02 1.000000e-02 1.000000e-02
<GCONST> -8.301880e+00
<MIXTURE> 2 6.426282e-03
<MEAN> 3
 -1.344034e-01 -5.174914e+01 -1.000000e+02
<VARIANCE> 3
 2.480334e-02 2.272461e+03 1.000000e-02
<GCONST> 4.940303e+00
<STATE> 3
<NUMMIXES> 2
<MIXTURE> 1 9.919477e-01
<MEAN> 3
 -1.772468e-03 -2.976240e+00 -5.514054e+00
<VARIANCE> 3
 1.000000e-02 1.474255e+01 1.772156e+01
<GCONST> 6.473981e+00
<MIXTURE> 2 8.052734e-03
<MEAN> 3
 -2.376209e-01 -5.155086e+01 -1.000000e+02
<VARIANCE> 3
 6.027758e-02 2.272683e+03 1.000000e-02
<GCONST> 5.828382e+00
<STATE> 4
<NUMMIXES> 2
<MIXTURE> 1 9.771842e-01
<MEAN> 3
 -5.628644e+00 -3.145537e+00 -5.383354e-01
<VARIANCE> 3
 1.386572e+01 1.229181e+01 2.051564e+00
<GCONST> 1.137059e+01
<MIXTURE> 2 2.281588e-02
<MEAN> 3
 -3.755111e-01 -5.040446e+01 -1.000000e+02
<VARIANCE> 3
 1.417952e-01 2.272176e+03 1.000000e-02
<GCONST> 6.683583e+00
<STATE> 5
<NUMMIXES> 2
<MIXTURE> 1 9.646610e-01
<MEAN> 3
 -2.546188e+00 -7.786821e+00 -8.459480e+00
<VARIANCE> 3
 3.996268e+00 8.772156e+00 4.850599e+00
<GCONST> 1.064968e+01
<MIXTURE> 2 3.533927e-02
<MEAN> 3
 -5.559197e-01 -4.876515e+01 -1.000000e+02
<VARIANCE> 3
 3.374219e-01 2.269227e+03 1.000000e-02
<GCONST> 7.549234e+00
<STATE> 6
<NUMMIXES> 2
<MIXTURE> 1 3.166565e-02
<MEAN> 3
 -7.254031e+00 -2.750618e+00 -4.852866e-02
<VARIANCE> 3
 9.486060e+00 1.663811e+01 4.139025e+01
<GCONST> 1.429820e+01
<MIXTURE> 2 9.683333e-01
<MEAN> 3
 -7.538585e+00 -4.889984e+00 -1.000000e+02
<VARIANCE> 3
 9.994745e+00 5.922510e+01 1.000000e-02
<GCONST> 7.291866e+00
<STATE> 7
<NUMMIXES> 2
<MIXTURE> 1 9.863509e-01
<MEAN> 3
 -9.276966e+00 -9.255228e+00 -8.056364e+00
<VARIANCE> 3
 3.061387e+00 2.618939e+00 6.714410e+00
<GCONST> 9.499525e+00
<MIXTURE> 2 1.364908e-02
<MEAN> 3
 -2.095700e+00 -4.931632e+01 -1.000000e+02
<VARIANCE> 3
 5.012112e+00 2.392215e+03 1.000000e-02
<GCONST> 1.030029e+01
<TRANSP> 8
 0.000000e+00 1.000000e+00 0.000000e+00 0.000000e+00 0.000000e+00 0.000000e+00 0.000000e+00 0.000000e+00
 0.000000e+00 9.854302e-01 1.456976e-02 0.000000e+00 0.000000e+00 0.000000e+00 0.000000e+00 0.000000e+00
 0.000000e+00 0.000000e+00 9.818175e-01 1.818245e-02 0.000000e+00 0.000000e+00 0.000000e+00 0.000000e+00
 0.000000e+00 0.000000e+00 0.000000e+00 9.497174e-01 5.028258e-02 0.000000e+00 0.000000e+00 0.000000e+00
 0.000000e+00 0.000000e+00 0.000000e+00 0.000000e+00 9.248102e-01 7.518986e-02 0.000000e+00 0.000000e+00
 0.000000e+00 0.000000e+00 0.000000e+00 0.000000e+00 0.000000e+00 9.804769e-01 1.952313e-02 0.000000e+00
 0.000000e+00 0.000000e+00 0.000000e+00 0.000000e+00 0.000000e+00 0.000000e+00 9.697858e-01 3.021417e-02
 0.000000e+00 0.000000e+00 0.000000e+00 0.000000e+00 0.000000e+00 0.000000e+00 0.000000e+00 0.000000e+00
<ENDHMM>
~h "i"
<BEGINHMM>
<NUMSTATES> 8
<STATE> 2
<NUMMIXES> 2
<MIXTURE> 1 9.742678e-01
<MEAN> 3
 -1.895748e+00 -3.811313e+00 -8.306211e+00
<VARIANCE> 3
 1.244699e+01 1.845318e+01 8.508957e+00
<GCONST> 1.309147e+01
<MIXTURE> 2 2.573201e-02
<MEAN> 3
 -1.676088e+00 -4.922540e+01 -1.000000e+02
<VARIANCE> 3
 3.270696e+00 2.394227e+03 1.000000e-02
<GCONST> 9.874280e+00
<STATE> 3
<NUMMIXES> 2
<MIXTURE> 1 9.830945e-01
<MEAN> 3
 -7.965250e+00 -8.163940e+00 -5.221832e-03
<VARIANCE> 3
 9.163352e+00 7.421863e+00 1.000000e-02
<GCONST> 5.128103e+00
<MIXTURE> 2 1.690735e-02
<MEAN> 3
 -1.270927e+00 -4.923751e+01 -1.000000e+02
<VARIANCE> 3
 2.006853e+00 2.396834e+03 1.000000e-02
<GCONST> 9.386933e+00
<STATE> 4
<NUMMIXES> 2
<MIXTURE> 1 9.818168e-01
<MEAN> 3
 -7.791950e+00 -2.892542e-03 7.894646e-03
<VARIANCE> 3
 8.791678e+00 1.000000e-02 1.000000e-02
<GCONST> -1.522903e+00
<MIXTURE> 2 1.818425e-02
<MEAN> 3
 -9.492862e-01 -4.720603e+01 -1.000000e+02
<VARIANCE> 3
 1.183975e+00 2.396016e+03 1.000000e-02
<GCONST> 8.858901e+00
<STATE> 5
<NUMMIXES> 2
<MIXTURE> 1 9.931431e-01
<MEAN> 3
 -2.603485e-03 9.303989e-04 1.268715e-03
<VARIANCE> 3
 1.000000e-02 1.000000e-02 1.000000e-02
<GCONST> -8.301880e+00
<MIXTURE> 2 6.856054e-03
<MEAN> 3
 -6.175720e-01 -4.849488e+01 -1.000000e+02
<VARIANCE> 3
 7.140340e-01 2.401327e+03 1.000000e-02
<GCONST> 8.355412e+00
<STATE> 6
<NUMMIXES> 2
<MIXTURE> 1 9.392276e-01
<MEAN> 3
 -6.480211e+00 3.490342e-01 1.431873e+00
<VARIANCE> 3
 1.627712e+01 7.344048e-01 4.369132e+00
<GCONST> 9.469262e+00
<MIXTURE> 2 6.077260e-02
<MEAN> 3
 -3.847300e-01 -4.722203e+01 -1.000000e+02
<VARIANCE> 3
 4.354009e-01 2.399499e+03 1.000000e-02
<GCONST> 7.859988e+00
<STATE> 7
<NUMMIXES> 2
<MIXTURE> 1 9.572828e-01
<MEAN> 3
 4.834849e-04 2.325528e+00 5.089688e-01
<VARIANCE> 3
 1.000000e-02 3.668225e+00 1.429665e+00
<GCONST> 2.565609e+00
<MIXTURE> 2 4.271815e-02
<MEAN> 3
 -1.683101e-01 -4.813580e+01 -1.000000e+02
<VARIANCE> 3
 2.545757e-01 2.404031e+03 1.000000e-02
<GCONST> 7.325206e+00
<TRANSP> 8
 0.000000e+00 1.000000e+00 0.000000e+00 0.000000e+00 0.000000e+00 0.000000e+00 0.000000e+00 0.000000e+00
 0.000000e+00 9.431192e-01 5.688079e-02 0.000000e+00 0.000000e+00 0.000000e+00 0.000000e+00 0.000000e+00
 0.000000e+00 0.000000e+00 9.625955e-01 3.740448e-02 0.000000e+00 0.000000e+00 0.000000e+00 0.000000e+00
 0.000000e+00 0.000000e+00 0.000000e+00 9.614117e-01 3.858827e-02 0.000000e+00 0.000000e+00 0.000000e+00
 0.000000e+00 0.000000e+00 0.000000e+00 0.000000e+00 9.850460e-01 1.495402e-02 0.000000e+00 0.000000e+00
 0.000000e+00 0.000000e+00 0.000000e+00 0.000000e+00 0.000000e+00 8.708986e-01 1.291014e-01 0.000000e+00
 0.000000e+00 0.000000e+00 0.000000e+00 0.000000e+00 0.000000e+00 0.000000e+00 9.074559e-01 9.254421e-02
 0.000000e+00 0.000000e+00 0.000000e+00 0.000000e+00 0.000000e+00 0.000000e+00 0.000000e+00 0.000000e+00
<ENDHMM>
~h "m"
<BEGINHMM>
<NUMSTATES> 8
<STATE> 2
<NUMMIXES> 2
<MIXTURE> 1 2.580312e-02
<MEAN> 3
 -8.567734e-03 4.905193e+00 1.573687e+02
<VARIANCE> 3
 8.195375e-02 1.462648e+01 5.027127e+04
<GCONST> 1.652005e+01
<MIXTURE> 2 9.741962e-01
<MEAN> 3
 1.191087e-03 -3.028897e-01 -1.000000e+02
<VARIANCE> 3
 1.000000e-02 4.445522e+01 1.000000e-02
<GCONST> 9.777308e-02
<STATE> 3
<NUMMIXES> 2
<MIXTURE> 1 9.739932e-01
<MEAN> 3
 4.266929e-03 1.024168e-02 3.269211e+00
<VARIANCE> 3
 1.000000e-02 1.000000e-02 9.226564e+00
<GCONST> -1.474622e+00
<MIXTURE> 2 2.600462e-02
<MEAN> 3
 2.888248e-01 -4.153181e+01 -1.000000e+02
<VARIANCE> 3
 1.524391e-02 2.521145e+03 1.000000e-02
<GCONST> 4.557355e+00
<STATE> 4
<NUMMIXES> 2
<MIXTURE> 1 9.838945e-01
<MEAN> 3
 3.473701e+00 3.127798e+00 5.215185e-02
<VARIANCE> 3
 1.159507e+01 1.019314e+01 1.683590e-01
<GCONST> 8.504271e+00
<MIXTURE> 2 1.610296e-02
<MEAN> 3
 4.668008e-01 -4.161242e+01 -1.000000e+02
<VARIANCE> 3
 3.029040e-02 2.521114e+03 1.000000e-02
<GCONST> 5.243993e+00
<STATE> 5
<NUMMIXES> 2
<MIXTURE> 1 9.787837e-01
<MEAN> 3
 5.120757e-01 4.328269e+00 3.921358e+00
<VARIANCE> 3
 8.660613e-01 7.911337e+00 1.042716e+01
<GCONST> 9.782543e+00
<MIXTURE> 2 2.121282e-02
<MEAN> 3
 6.742327e-01 -4.136947e+01 -1.000000e+02
<VARIANCE> 3
 6.538067e-02 2.517139e+03 1.000000e-02
<GCONST> 6.011811e+00
<STATE> 6
<NUMMIXES> 2
<MIXTURE> 1 6.531495e-02
<MEAN> 3
 4.884153e+00 6.761262e+00 2.326588e+02
<VARIANCE> 3
 8.565897e+00 6.756010e+00 7.492180e+04
<GCONST> 2.079605e+01
<MIXTURE> 2 9.346774e-01
<MEAN> 3
 4.225930e+00 1.011161e+00 -1.000000e+02
<VARIANCE> 3
 8.333192e+00 5.213256e+01 1.000000e-02
<GCONST> 6.982497e+00
<STATE> 7
<NUMMIXES> 2
<MIXTURE> 1 2.510215e-02
<MEAN> 3
 6.383281e+00 3.106511e+02 2.193922e+02
<VARIANCE> 3
 8.789469e+00 7.139222e+04 2.100725e+04
<GCONST> 2.881575e+01
<MIXTURE> 2 9.748950e-01
<MEAN> 3
 -1.809077e+00 -1.000000e+02 -1.000000e+02
<VARIANCE> 3
 2.350131e+01 1.000000e-02 1.000000e-02
<GCONST> -5.396528e-01
<TRANSP> 8
 0.000000e+00 1.000000e+00 0.000000e+00 0.000000e+00 0.000000e+00 0.000000e+00 0.000000e+00 0.000000e+00
 0.000000e+00 9.830349e-01 1.696510e-02 0.000000e+00 0.000000e+00 0.000000e+00 0.000000e+00 0.000000e+00
 0.000000e+00 0.000000e+00 9.492897e-01 5.071035e-02 0.000000e+00 0.000000e+00 0.000000e+00 0.000000e+00
 0.000000e+00 0.000000e+00 0.000000e+00 9.685472e-01 3.145279e-02 0.000000e+00 0.000000e+00 0.000000e+00
 0.000000e+00 0.000000e+00 0.000000e+00 0.000000e+00 9.588047e-01 4.119536e-02 0.000000e+00 0.000000e+00
 0.000000e+00 0.000000e+00 0.000000e+00 0.000000e+00 0.000000e+00 9.810274e-01 1.897267e-02 0.000000e+00
 0.000000e+00 0.000000e+00 0.000000e+00 0.000000e+00 0.000000e+00 0.000000e+00 9.925020e-01 7.498014e-03
 0.000000e+00 0.000000e+00 0.000000e+00 0.000000e+00 0.000000e+00 0.000000e+00 0.000000e+00 0.000000e+00
<ENDHMM>
~h "sil"
<BEGINHMM>
<NUMSTATES> 8
<STATE> 2
<NUMMIXES> 2
<MIXTURE> 1 9.158465e-01
<MEAN> 3
 9.388777e+00 -7.796516e-05 1.907778e-03
<VARIANCE> 3
 5.004488e+00 1.000000e-02 1.000000e-02
<GCONST> -2.086374e+00
<MIXTURE> 2 8.415358e-02
<MEAN> 3
 7.481605e+00 -1.746449e+01 -1.669015e+01
<VARIANCE> 3
 7.134596e+00 9.845937e+02 1.001204e+03
<GCONST> 2.127978e+01
<STATE> 3
<NUMMIXES> 2
<MIXTURE> 1 9.216878e-01
<MEAN> 3
 9.739249e+00 2.119828e+00 1.264104e+00
<VARIANCE> 3
 2.959613e+00 2.636945e+00 1.587120e+00
<GCONST> 8.030232e+00
<MIXTURE> 2 7.831188e-02
<MEAN> 3
 3.998136e+00 -1.000000e+02 -1.000000e+02
<VARIANCE> 3
 3.754176e+00 1.000000e-02 1.000000e-02
<GCONST> -2.373840e+00
<STATE> 4
<NUMMIXES> 2
<MIXTURE> 1 8.174293e-02
<MEAN> 3
 7.308446e+00 -2.350791e+01 -2.100009e+01
<VARIANCE> 3
 1.286791e+01 1.982226e+03 2.124506e+03
<GCONST> 2.332164e+01
<MIXTURE> 2 9.182571e-01
<MEAN> 3
 7.735147e+00 5.328132e-03 3.785403e+00
<VARIANCE> 3
 1.483877e+01 1.000000e-02 9.870234e+00
<GCONST> 5.895228e+00
<STATE> 5
<NUMMIXES> 2
<MIXTURE> 1 3.332248e-02
<MEAN> 3
 5.304114e+00 -6.384817e+01 -6.285301e+01
<VARIANCE> 3
 9.552188e+00 2.341150e+03 2.474250e+03
<GCONST> 2.334249e+01
<MIXTURE> 2 9.666780e-01
<MEAN> 3
 6.560371e+00 4.879672e+00 2.059383e-03
<VARIANCE> 3
 6.250053e+00 7.328644e+00 1.000000e-02
<GCONST> 4.732841e+00
<STATE> 6
<NUMMIXES> 2
<MIXTURE> 1 4.323922e-02
<MEAN> 3
 4.096356e+00 -1.000000e+02 -1.000000e+02
<VARIANCE> 3
 3.808752e+00 1.000000e-02 1.000000e-02
<GCONST> -2.359407e+00
<MIXTURE> 2 9.567611e-01
<MEAN> 3
 6.145544e+00 1.464202e+00 4.147514e+00
<VARIANCE> 3
 5.855244e+00 1.318790e+00 6.954205e+00
<GCONST> 9.497030e+00
<STATE> 7
<NUMMIXES> 2
<MIXTURE> 1 9.528340e-02
<MEAN> 3
 4.980160e+00 -5.344744e+01 -5.354576e+01
<VARIANCE> 3
 7.136093e+00 2.656063e+03 2.647336e+03
<GCONST> 2.324471e+01
<MIXTURE> 2 9.047157e-01
<MEAN> 3
 5.610828e+00 1.897353e-03 -7.689755e+00
<VARIANCE> 3
 5.405738e+00 1.000000e-02 1.030803e+01
<GCONST> 4.928845e+00
<TRANSP> 8
 0.000000e+00 1.000000e+00 0.000000e+00 0.000000e+00 0.000000e+00 0.000000e+00 0.000000e+00 0.000000e+00
 0.000000e+00 9.791018e-01 2.089823e-02 0.000000e+00 0.000000e+00 0.000000e+00 0.000000e+00 0.000000e+00
 0.000000e+00 0.000000e+00 8.831312e-01 1.168688e-01 0.000000e+00 0.000000e+00 0.000000e+00 0.000000e+00
 0.000000e+00 0.000000e+00 0.000000e+00 9.586513e-01 4.134867e-02 0.000000e+00 0.000000e+00 0.000000e+00
 0.000000e+00 0.000000e+00 0.000000e+00 0.000000e+00 9.572303e-01 4.276964e-02 0.000000e+00 0.000000e+00
 0.000000e+00 0.000000e+00 0.000000e+00 0.000000e+00 0.000000e+00 9.258047e-01 7.419524e-02 0.000000e+00
 0.000000e+00 0.000000e+00 0.000000e+00 0.000000e+00 0.000000e+00 0.000000e+00 8.950592e-01 1.049408e-01
 0.000000e+00 0.000000e+00 0.000000e+00 0.000000e+00 0.000000e+00 0.000000e+00 0.000000e+00 0.000000e+00
<ENDHMM>
