~o
<STREAMINFO> 1 1
<VECSIZE> 1<NULLD><USER><DIAGC>
~h "a"
<BEGINHMM>
<NUMSTATES> 8
<STATE> 2
<MEAN> 1
 3.481112e+00
<VARIANCE> 1
 4.050918e+00
<GCONST> 3.236821e+00
<STATE> 3
<MEAN> 1
 1.041811e+01
<VARIANCE> 1
 2.324873e+00
<GCONST> 2.681542e+00
<STATE> 4
<MEAN> 1
 7.048321e+00
<VARIANCE> 1
 1.094997e+00
<GCONST> 1.928628e+00
<STATE> 5
<MEAN> 1
 4.376736e+00
<VARIANCE> 1
 8.458333e-01
<GCONST> 1.670444e+00
<STATE> 6
<MEAN> 1
 1.678558e+00
<VARIANCE> 1
 8.756798e-01
<GCONST> 1.705122e+00
<STATE> 7
<MEAN> 1
 1.888864e-03
<VARIANCE> 1
 1.000000e-02
<GCONST> -2.767293e+00
<TRANSP> 8
 0.000000e+00 1.000000e+00 0.000000e+00 0.000000e+00 0.000000e+00 0.000000e+00 0.000000e+00 0.000000e+00
 0.000000e+00 9.342981e-01 6.570190e-02 0.000000e+00 0.000000e+00 0.000000e+00 0.000000e+00 0.000000e+00
 0.000000e+00 0.000000e+00 9.754406e-01 2.455941e-02 0.000000e+00 0.000000e+00 0.000000e+00 0.000000e+00
 0.000000e+00 0.000000e+00 0.000000e+00 9.620841e-01 3.791594e-02 0.000000e+00 0.000000e+00 0.000000e+00
 0.000000e+00 0.000000e+00 0.000000e+00 0.000000e+00 9.593885e-01 4.061158e-02 0.000000e+00 0.000000e+00
 0.000000e+00 0.000000e+00 0.000000e+00 0.000000e+00 0.000000e+00 9.500150e-01 4.998499e-02 0.000000e+00
 0.000000e+00 0.000000e+00 0.000000e+00 0.000000e+00 0.000000e+00 0.000000e+00 9.919713e-01 8.028693e-03
 0.000000e+00 0.000000e+00 0.000000e+00 0.000000e+00 0.000000e+00 0.000000e+00 0.000000e+00 0.000000e+00
<ENDHMM>
~h "e"
<BEGINHMM>
<NUMSTATES> 8
<STATE> 2
<MEAN> 1
 -1.421060e-03
<VARIANCE> 1
 1.000000e-02
<GCONST> -2.767293e+00
<STATE> 3
<MEAN> 1
 -7.781829e-01
<VARIANCE> 1
 1.363783e-01
<GCONST> -1.544458e-01
<STATE> 4
<MEAN> 1
 -2.219442e+00
<VARIANCE> 1
 6.493364e-01
<GCONST> 1.406073e+00
<STATE> 5
<MEAN> 1
 -4.391977e+00
<VARIANCE> 1
 4.769053e-01
<GCONST> 1.097440e+00
<STATE> 6
<MEAN> 1
 -6.215474e+00
<VARIANCE> 1
 4.609114e-01
<GCONST> 1.063328e+00
<STATE> 7
<MEAN> 1
 -8.539719e+00
<VARIANCE> 1
 5.410080e-01
<GCONST> 1.223556e+00
<TRANSP> 8
 0.000000e+00 1.000000e+00 0.000000e+00 0.000000e+00 0.000000e+00 0.000000e+00 0.000000e+00 0.000000e+00
 0.000000e+00 9.921391e-01 7.860891e-03 0.000000e+00 0.000000e+00 0.000000e+00 0.000000e+00 0.000000e+00
 0.000000e+00 0.000000e+00 9.408392e-01 5.916075e-02 0.000000e+00 0.000000e+00 0.000000e+00 0.000000e+00
 0.000000e+00 0.000000e+00 0.000000e+00 9.397818e-01 6.021816e-02 0.000000e+00 0.000000e+00 0.000000e+00
 0.000000e+00 0.000000e+00 0.000000e+00 0.000000e+00 9.094425e-01 9.055746e-02 0.000000e+00 0.000000e+00
 0.000000e+00 0.000000e+00 0.000000e+00 0.000000e+00 0.000000e+00 9.433851e-01 5.661483e-02 0.000000e+00
 0.000000e+00 0.000000e+00 0.000000e+00 0.000000e+00 0.000000e+00 0.000000e+00 9.450308e-01 5.496921e-02
 0.000000e+00 0.000000e+00 0.000000e+00 0.000000e+00 0.000000e+00 0.000000e+00 0.000000e+00 0.000000e+00
<ENDHMM>
~h "i"
<BEGINHMM>
<NUMSTATES> 8
<STATE> 2
<MEAN> 1
 -1.042642e+01
<VARIANCE> 1
 2.760200e-01
<GCONST> 5.505952e-01
<STATE> 3
<MEAN> 1
 -8.808352e+00
<VARIANCE> 1
 1.594960e+00
<GCONST> 2.304726e+00
<STATE> 4
<MEAN> 1
 -5.881799e+00
<VARIANCE> 1
 3.622946e+00
<GCONST> 3.125165e+00
<STATE> 5
<MEAN> 1
 -2.194937e+00
<VARIANCE> 1
 5.718699e-02
<GCONST> -1.023552e+00
<STATE> 6
<MEAN> 1
 -1.193622e+00
<VARIANCE> 1
 1.796195e-01
<GCONST> 1.209624e-01
<STATE> 7
<MEAN> 1
 -3.771215e-01
<VARIANCE> 1
 1.857890e-02
<GCONST> -2.147852e+00
<TRANSP> 8
 0.000000e+00 1.000000e+00 0.000000e+00 0.000000e+00 0.000000e+00 0.000000e+00 0.000000e+00 0.000000e+00
 0.000000e+00 9.857947e-01 1.420532e-02 0.000000e+00 0.000000e+00 0.000000e+00 0.000000e+00 0.000000e+00
 0.000000e+00 0.000000e+00 9.817924e-01 1.820758e-02 0.000000e+00 0.000000e+00 0.000000e+00 0.000000e+00
 0.000000e+00 0.000000e+00 0.000000e+00 9.531031e-01 4.689694e-02 0.000000e+00 0.000000e+00 0.000000e+00
 0.000000e+00 0.000000e+00 0.000000e+00 0.000000e+00 0.000000e+00 1.000000e+00 0.000000e+00 0.000000e+00
 0.000000e+00 0.000000e+00 0.000000e+00 0.000000e+00 0.000000e+00 7.131436e-01 2.868564e-01 0.000000e+00
 0.000000e+00 0.000000e+00 0.000000e+00 0.000000e+00 0.000000e+00 0.000000e+00 3.084129e-01 6.915870e-01
 0.000000e+00 0.000000e+00 0.000000e+00 0.000000e+00 0.000000e+00 0.000000e+00 0.000000e+00 0.000000e+00
<ENDHMM>
~h "m"
<BEGINHMM>
<NUMSTATES> 8
<STATE> 2
<MEAN> 1
 7.489874e-04
<VARIANCE> 1
 1.000000e-02
<GCONST> -2.767293e+00
<STATE> 3
<MEAN> 1
 8.904022e-01
<VARIANCE> 1
 5.067170e-02
<GCONST> -1.144511e+00
<STATE> 4
<MEAN> 1
 1.399203e+00
<VARIANCE> 1
 8.125879e-01
<GCONST> 1.630346e+00
<STATE> 5
<MEAN> 1
 3.272680e+00
<VARIANCE> 1
 6.032973e-01
<GCONST> 1.332532e+00
<STATE> 6
<MEAN> 1
 5.369892e+00
<VARIANCE> 1
 4.665902e-01
<GCONST> 1.075573e+00
<STATE> 7
<MEAN> 1
 8.130118e+00
<VARIANCE> 1
 1.138448e+00
<GCONST> 1.967543e+00
<TRANSP> 8
 0.000000e+00 1.000000e+00 0.000000e+00 0.000000e+00 0.000000e+00 0.000000e+00 0.000000e+00 0.000000e+00
 0.000000e+00 9.962292e-01 3.770790e-03 0.000000e+00 0.000000e+00 0.000000e+00 0.000000e+00 0.000000e+00
 0.000000e+00 0.000000e+00 9.224362e-01 7.756384e-02 0.000000e+00 0.000000e+00 0.000000e+00 0.000000e+00
 0.000000e+00 0.000000e+00 0.000000e+00 9.492159e-01 5.078405e-02 0.000000e+00 0.000000e+00 0.000000e+00
 0.000000e+00 0.000000e+00 0.000000e+00 0.000000e+00 9.394057e-01 6.059431e-02 0.000000e+00 0.000000e+00
 0.000000e+00 0.000000e+00 0.000000e+00 0.000000e+00 0.000000e+00 9.326632e-01 6.733682e-02 0.000000e+00
 0.000000e+00 0.000000e+00 0.000000e+00 0.000000e+00 0.000000e+00 0.000000e+00 9.460769e-01 5.392306e-02
 0.000000e+00 0.000000e+00 0.000000e+00 0.000000e+00 0.000000e+00 0.000000e+00 0.000000e+00 0.000000e+00
<ENDHMM>
~h "sil"
<BEGINHMM>
<NUMSTATES> 8
<STATE> 2
<MEAN> 1
 1.279891e+01
<VARIANCE> 1
 8.403158e+00
<GCONST> 3.966485e+00
<STATE> 3
<MEAN> 1
 1.068583e+01
<VARIANCE> 1
 6.634228e-01
<GCONST> 1.427534e+00
<STATE> 4
<MEAN> 1
 8.785249e+00
<VARIANCE> 1
 9.069659e-01
<GCONST> 1.740227e+00
<STATE> 5
<MEAN> 1
 7.299072e+00
<VARIANCE> 1
 2.188820e+00
<GCONST> 2.621240e+00
<STATE> 6
<MEAN> 1
 2.832297e+00
<VARIANCE> 1
 2.950593e+00
<GCONST> 2.919883e+00
<STATE> 7
<MEAN> 1
 6.430307e+00
<VARIANCE> 1
 1.137546e+00
<GCONST> 1.966750e+00
<TRANSP> 8
 0.000000e+00 1.000000e+00 0.000000e+00 0.000000e+00 0.000000e+00 0.000000e+00 0.000000e+00 0.000000e+00
 0.000000e+00 9.408893e-01 5.911071e-02 0.000000e+00 0.000000e+00 0.000000e+00 0.000000e+00 0.000000e+00
 0.000000e+00 0.000000e+00 9.829394e-01 1.706059e-02 0.000000e+00 0.000000e+00 0.000000e+00 0.000000e+00
 0.000000e+00 0.000000e+00 0.000000e+00 9.565682e-01 4.343176e-02 0.000000e+00 0.000000e+00 0.000000e+00
 0.000000e+00 0.000000e+00 0.000000e+00 0.000000e+00 9.038748e-01 9.612521e-02 0.000000e+00 0.000000e+00
 0.000000e+00 0.000000e+00 0.000000e+00 0.000000e+00 0.000000e+00 9.201351e-01 7.986487e-02 0.000000e+00
 0.000000e+00 0.000000e+00 0.000000e+00 0.000000e+00 0.000000e+00 0.000000e+00 9.402428e-01 5.975726e-02
 0.000000e+00 0.000000e+00 0.000000e+00 0.000000e+00 0.000000e+00 0.000000e+00 0.000000e+00 0.000000e+00
<ENDHMM>
