~o
<STREAMINFO> 1 1
<VECSIZE> 1<NULLD><USER><DIAGC>
~h "a"
<BEGINHMM>
<NUMSTATES> 8
<STATE> 2
<MEAN> 1
 3.696762e+00
<VARIANCE> 1
 6.594416e+00
<GCONST> 3.724100e+00
<STATE> 3
<MEAN> 1
 9.465163e+00
<VARIANCE> 1
 3.885799e+00
<GCONST> 3.195206e+00
<STATE> 4
<MEAN> 1
 5.660610e-01
<VARIANCE> 1
 2.689451e+00
<GCONST> 2.827214e+00
<STATE> 5
<MEAN> 1
 5.129188e+00
<VARIANCE> 1
 1.649234e+00
<GCONST> 2.338188e+00
<STATE> 6
<MEAN> 1
 1.943912e+00
<VARIANCE> 1
 9.147023e-01
<GCONST> 1.748720e+00
<STATE> 7
<MEAN> 1
 5.044082e-04
<VARIANCE> 1
 1.000000e-02
<GCONST> -2.767293e+00
<TRANSP> 8
 0.000000e+00 1.000000e+00 0.000000e+00 0.000000e+00 0.000000e+00 0.000000e+00 0.000000e+00 0.000000e+00
 0.000000e+00 9.268624e-01 7.313757e-02 0.000000e+00 0.000000e+00 0.000000e+00 0.000000e+00 0.000000e+00
 0.000000e+00 0.000000e+00 9.797640e-01 2.023599e-02 0.000000e+00 0.000000e+00 0.000000e+00 0.000000e+00
 0.000000e+00 0.000000e+00 0.000000e+00 9.287379e-01 7.126211e-02 0.000000e+00 0.000000e+00 0.000000e+00
 0.000000e+00 0.000000e+00 0.000000e+00 0.000000e+00 9.695269e-01 3.047312e-02 0.000000e+00 0.000000e+00
 0.000000e+00 0.000000e+00 0.000000e+00 0.000000e+00 0.000000e+00 9.434674e-01 5.653264e-02 0.000000e+00
 0.000000e+00 0.000000e+00 0.000000e+00 0.000000e+00 0.000000e+00 0.000000e+00 9.913046e-01 8.695403e-03
 0.000000e+00 0.000000e+00 0.000000e+00 0.000000e+00 0.000000e+00 0.000000e+00 0.000000e+00 0.000000e+00
<ENDHMM>
