~o
<STREAMINFO> 1 3
<VECSIZE> 3<NULLD><USER><DIAGC>
~h "a"
<BEGINHMM>
<NUMSTATES> 8
<STATE> 2
<NUMMIXES> 2
<MIXTURE> 1 1.553227e-01
<MEAN> 3
 5.413773e+00 1.621032e+02 2.022771e+02
<VARIANCE> 3
 1.036169e+01 6.032171e+04 4.653402e+04
<GCONST> 2.960713e+01
<MIXTURE> 2 8.446773e-01
<MEAN> 3
 5.554458e+00 -4.051007e+01 -1.000000e+02
<VARIANCE> 3
 8.029421e+00 2.545653e+03 1.000000e-02
<GCONST> 1.083372e+01
<STATE> 3
<NUMMIXES> 2
<MIXTURE> 1 5.358974e-02
<MEAN> 3
 6.174456e+00 6.521024e+00 5.740052e+00
<VARIANCE> 3
 8.824736e+00 1.263925e+01 3.027958e+03
<GCONST> 1.824364e+01
<MIXTURE> 2 9.464103e-01
<MEAN> 3
 3.290157e-03 -1.000000e+02 -1.000000e+02
<VARIANCE> 3
 1.000000e-02 1.000000e-02 1.000000e-02
<GCONST> -8.301880e+00
<STATE> 4
<NUMMIXES> 2
<MIXTURE> 1 9.869907e-01
<MEAN> 3
 4.805895e+00 5.509790e+00 3.468505e+00
<VARIANCE> 3
 1.109768e+01 7.936390e+00 9.979860e+00
<GCONST> 1.229240e+01
<MIXTURE> 2 1.300930e-02
<MEAN> 3
 1.685047e+00 -5.087166e+01 -1.000000e+02
<VARIANCE> 3
 6.860567e+00 2.547276e+03 1.000000e-02
<GCONST> 1.067703e+01
<STATE> 5
<NUMMIXES> 2
<MIXTURE> 1 7.409441e-01
<MEAN> 3
 2.548889e+00 6.986846e-02 -8.975800e-01
<VARIANCE> 3
 7.451169e+00 2.669643e-01 4.255371e+01
<GCONST> 9.952128e+00
<MIXTURE> 2 2.590559e-01
<MEAN> 3
 1.918874e+00 -4.426665e+00 -1.000000e+02
<VARIANCE> 3
 8.459080e-01 4.883484e+02 1.000000e-02
<GCONST> 6.932145e+00
<STATE> 6
<NUMMIXES> 2
<MIXTURE> 1 9.134853e-01
<MEAN> 3
 4.665360e+00 6.419152e-01 -1.757382e-03
<VARIANCE> 3
 9.533027e+00 2.236582e+00 3.173617e-02
<GCONST> 5.123044e+00
<MIXTURE> 2 8.651461e-02
<MEAN> 3
 -1.562049e-01 -5.849493e+00 -1.000000e+02
<VARIANCE> 3
 1.974735e-01 5.550775e+02 1.000000e-02
<GCONST> 5.605418e+00
<STATE> 7
<NUMMIXES> 2
<MIXTURE> 1 6.191322e-01
<MEAN> 3
 1.613145e-03 -5.220999e-01 -4.066050e-01
<VARIANCE> 3
 1.000000e-02 4.170913e+00 3.374109e+00
<GCONST> 3.552727e+00
<MIXTURE> 2 3.808677e-01
<MEAN> 3
 -8.834962e-04 -1.513282e+00 -1.000000e+02
<VARIANCE> 3
 1.000000e-02 8.678185e+01 1.000000e-02
<GCONST> 7.666883e-01
<TRANSP> 8
 0.000000e+00 1.000000e+00 0.000000e+00 0.000000e+00 0.000000e+00 0.000000e+00 0.000000e+00 0.000000e+00
 0.000000e+00 9.649341e-01 3.506590e-02 0.000000e+00 0.000000e+00 0.000000e+00 0.000000e+00 0.000000e+00
 0.000000e+00 0.000000e+00 9.742177e-01 2.578227e-02 0.000000e+00 0.000000e+00 0.000000e+00 0.000000e+00
 0.000000e+00 0.000000e+00 0.000000e+00 9.780306e-01 2.196941e-02 0.000000e+00 0.000000e+00 0.000000e+00
 0.000000e+00 0.000000e+00 0.000000e+00 0.000000e+00 9.400405e-01 5.995947e-02 0.000000e+00 0.000000e+00
 0.000000e+00 0.000000e+00 0.000000e+00 0.000000e+00 0.000000e+00 9.765801e-01 2.341987e-02 0.000000e+00
 0.000000e+00 0.000000e+00 0.000000e+00 0.000000e+00 0.000000e+00 0.000000e+00 9.858019e-01 1.419816e-02
 0.000000e+00 0.000000e+00 0.000000e+00 0.000000e+00 0.000000e+00 0.000000e+00 0.000000e+00 0.000000e+00
<ENDHMM>
