~o
<STREAMINFO> 1 3
<VECSIZE> 3<NULLD><USER><DIAGC>
~h "a"
<BEGINHMM>
<NUMSTATES> 8
<STATE> 2
<NUMMIXES> 2
<MIXTURE> 1 5.225167e-01
<MEAN> 3
 4.087234e+00 3.241640e+00 2.140991e+00
<VARIANCE> 3
 1.082860e+01 9.548351e+00 2.570275e+01
<GCONST> 1.339879e+01
<MIXTURE> 2 4.774833e-01
<MEAN> 3
 5.483208e+00 -1.366613e+01 -1.000000e+02
<VARIANCE> 3
 8.329447e+00 1.272673e+03 1.000000e-02
<GCONST> 1.017713e+01
<STATE> 3
<NUMMIXES> 2
<MIXTURE> 1 7.286851e-01
<MEAN> 3
 4.726209e+00 4.089922e+00 3.081418e-03
<VARIANCE> 3
 1.086979e+01 6.765135e+00 1.000000e-02
<GCONST> 5.206230e+00
<MIXTURE> 2 2.713149e-01
<MEAN> 3
 3.990271e+00 -9.551337e+01 -1.000000e+02
<VARIANCE> 3
 4.110487e+00 4.281045e+02 1.000000e-02
<GCONST> 8.381370e+00
<STATE> 4
<NUMMIXES> 2
<MIXTURE> 1 9.874420e-01
<MEAN> 3
 3.907268e+00 1.184663e-03 -2.178586e-04
<VARIANCE> 3
 9.653819e+00 1.000000e-02 1.000000e-02
<GCONST> -1.429356e+00
<MIXTURE> 2 1.255812e-02
<MEAN> 3
 1.098465e+00 -4.762156e+01 -1.000000e+02
<VARIANCE> 3
 3.023475e-01 2.488280e+03 1.000000e-02
<GCONST> 7.531631e+00
<STATE> 5
<NUMMIXES> 2
<MIXTURE> 1 7.504660e-01
<MEAN> 3
 1.745581e+00 -2.586354e+00 -1.141991e+00
<VARIANCE> 3
 9.725943e+00 2.702626e+01 5.975368e+00
<GCONST> 1.287288e+01
<MIXTURE> 2 2.495340e-01
<MEAN> 3
 7.349833e-01 -3.867753e+01 -1.000000e+02
<VARIANCE> 3
 1.051755e-01 2.356535e+03 1.000000e-02
<GCONST> 6.421284e+00
<STATE> 6
<NUMMIXES> 2
<MIXTURE> 1 3.503612e-01
<MEAN> 3
 -4.190615e-05 -5.207329e-03 -7.291312e-02
<VARIANCE> 3
 1.754487e-02 2.053460e-02 8.165348e-02
<GCONST> -4.920278e+00
<MIXTURE> 2 6.496388e-01
<MEAN> 3
 8.776631e-04 -5.496121e+01 -1.000000e+02
<VARIANCE> 3
 1.000000e-02 2.439125e+03 1.000000e-02
<GCONST> 4.102685e+00
<STATE> 7
<NUMMIXES> 2
<MIXTURE> 1 9.307927e-01
<MEAN> 3
 -6.035676e-03 -1.907713e+00 -4.777929e+00
<VARIANCE> 3
 6.512143e-02 1.098435e+01 1.447536e+01
<GCONST> 7.851049e+00
<MIXTURE> 2 6.920730e-02
<MEAN> 3
 -1.006392e+00 -2.824446e+01 -1.000000e+02
<VARIANCE> 3
 1.031503e+00 1.978069e+03 1.000000e-02
<GCONST> 8.529354e+00
<TRANSP> 8
 0.000000e+00 1.000000e+00 0.000000e+00 0.000000e+00 0.000000e+00 0.000000e+00 0.000000e+00 0.000000e+00
 0.000000e+00 9.672515e-01 3.274847e-02 0.000000e+00 0.000000e+00 0.000000e+00 0.000000e+00 0.000000e+00
 0.000000e+00 0.000000e+00 9.453007e-01 5.469933e-02 0.000000e+00 0.000000e+00 0.000000e+00 0.000000e+00
 0.000000e+00 0.000000e+00 0.000000e+00 9.723730e-01 2.762700e-02 0.000000e+00 0.000000e+00 0.000000e+00
 0.000000e+00 0.000000e+00 0.000000e+00 0.000000e+00 8.663375e-01 1.336625e-01 0.000000e+00 0.000000e+00
 0.000000e+00 0.000000e+00 0.000000e+00 0.000000e+00 0.000000e+00 9.915181e-01 8.481889e-03 0.000000e+00
 0.000000e+00 0.000000e+00 0.000000e+00 0.000000e+00 0.000000e+00 0.000000e+00 9.587401e-01 4.125991e-02
 0.000000e+00 0.000000e+00 0.000000e+00 0.000000e+00 0.000000e+00 0.000000e+00 0.000000e+00 0.000000e+00
<ENDHMM>
