~o
<STREAMINFO> 1 3
<VECSIZE> 3<NULLD><USER><DIAGC>
~h "e"
<BEGINHMM>
<NUMSTATES> 8
<STATE> 2
<NUMMIXES> 2
<MIXTURE> 1 5.142643e-01
<MEAN> 3
 -2.029368e-03 -1.965092e-01 -4.035200e+00
<VARIANCE> 3
 2.355701e-02 4.146240e-01 2.007728e+01
<GCONST> 3.884505e+00
<MIXTURE> 2 4.857357e-01
<MEAN> 3
 -3.099978e-03 -4.344679e+01 -1.000000e+02
<VARIANCE> 3
 1.000000e-02 2.238134e+03 1.000000e-02
<GCONST> 4.016688e+00
<STATE> 3
<NUMMIXES> 2
<MIXTURE> 1 1.448379e-01
<MEAN> 3
 -1.655723e+00 -2.926709e+00 -6.862242e+00
<VARIANCE> 3
 4.003107e+00 7.663966e+00 1.620968e+01
<GCONST> 1.172284e+01
<MIXTURE> 2 8.551620e-01
<MEAN> 3
 -9.540555e-01 -5.857433e+01 -1.000000e+02
<VARIANCE> 3
 3.067340e-01 2.291546e+03 1.000000e-02
<GCONST> 7.463668e+00
<STATE> 4
<NUMMIXES> 2
<MIXTURE> 1 9.837241e-01
<MEAN> 3
 -1.118369e-02 -7.644596e+00 -5.907328e+00
<VARIANCE> 3
 1.933969e-02 7.443939e+00 1.846317e+01
<GCONST> 6.491214e+00
<MIXTURE> 2 1.627595e-02
<MEAN> 3
 -2.170854e+00 -5.232794e+01 -1.000000e+02
<VARIANCE> 3
 1.874554e-01 2.243671e+03 1.000000e-02
<GCONST> 6.950115e+00
<STATE> 5
<NUMMIXES> 2
<MIXTURE> 1 2.484481e-01
<MEAN> 3
 -1.250602e+00 -9.452053e-01 7.826225e-01
<VARIANCE> 3
 1.798394e+00 4.669296e+00 1.369457e+01
<GCONST> 1.025853e+01
<MIXTURE> 2 7.515519e-01
<MEAN> 3
 -7.547356e+00 -6.588695e+00 -1.000000e+02
<VARIANCE> 3
 8.101229e+00 8.559361e+01 1.000000e-02
<GCONST> 7.450088e+00
<STATE> 6
<NUMMIXES> 2
<MIXTURE> 1 2.495462e-01
<MEAN> 3
 -2.032924e+00 -8.730939e+00 -4.736639e+00
<VARIANCE> 3
 1.394626e+00 4.170490e+00 2.080135e+01
<GCONST> 1.030931e+01
<MIXTURE> 2 7.504538e-01
<MEAN> 3
 -7.975112e+00 -9.928665e+01 -1.000000e+02
<VARIANCE> 3
 5.626533e+00 6.850723e+01 1.000000e-02
<GCONST> 6.862893e+00
<STATE> 7
<NUMMIXES> 2
<MIXTURE> 1 9.876462e-01
<MEAN> 3
 -8.679799e+00 -7.122784e+00 -4.715682e+00
<VARIANCE> 3
 5.121653e+00 1.435380e+01 1.994406e+01
<GCONST> 1.280405e+01
<MIXTURE> 2 1.235384e-02
<MEAN> 3
 -8.238969e+00 -4.056656e+01 -1.000000e+02
<VARIANCE> 3
 8.449759e+00 2.287410e+03 1.000000e-02
<GCONST> 1.077777e+01
<TRANSP> 8
 0.000000e+00 1.000000e+00 0.000000e+00 0.000000e+00 0.000000e+00 0.000000e+00 0.000000e+00 0.000000e+00
 0.000000e+00 9.858675e-01 1.413250e-02 0.000000e+00 0.000000e+00 0.000000e+00 0.000000e+00 0.000000e+00
 0.000000e+00 0.000000e+00 9.135939e-01 8.640614e-02 0.000000e+00 0.000000e+00 0.000000e+00 0.000000e+00
 0.000000e+00 0.000000e+00 0.000000e+00 9.662128e-01 3.378719e-02 0.000000e+00 0.000000e+00 0.000000e+00
 0.000000e+00 0.000000e+00 0.000000e+00 0.000000e+00 9.726156e-01 2.738440e-02 0.000000e+00 0.000000e+00
 0.000000e+00 0.000000e+00 0.000000e+00 0.000000e+00 0.000000e+00 9.757077e-01 2.429228e-02 0.000000e+00
 0.000000e+00 0.000000e+00 0.000000e+00 0.000000e+00 0.000000e+00 0.000000e+00 9.777576e-01 2.224245e-02
 0.000000e+00 0.000000e+00 0.000000e+00 0.000000e+00 0.000000e+00 0.000000e+00 0.000000e+00 0.000000e+00
<ENDHMM>
