~o
<STREAMINFO> 1 3
<VECSIZE> 3<NULLD><USER><DIAGC>
~h "e"
<BEGINHMM>
<NUMSTATES> 8
<STATE> 2
<NUMMIXES> 2
<MIXTURE> 1 4.505540e-01
<MEAN> 3
 1.515343e-02 -3.358513e-02 -1.036836e-01
<VARIANCE> 3
 5.574355e-02 1.337175e-01 2.224946e-01
<GCONST> -8.882401e-01
<MIXTURE> 2 5.494460e-01
<MEAN> 3
 -2.814639e-03 -4.465982e+01 -1.000000e+02
<VARIANCE> 3
 1.000000e-02 2.349935e+03 1.000000e-02
<GCONST> 4.065434e+00
<STATE> 3
<NUMMIXES> 2
<MIXTURE> 1 9.210847e-01
<MEAN> 3
 -2.319252e-03 -3.421530e+00 -5.294456e+00
<VARIANCE> 3
 1.000000e-02 1.597133e+01 2.126121e+01
<GCONST> 6.736141e+00
<MIXTURE> 2 7.891531e-02
<MEAN> 3
 -7.461423e-01 -9.531504e+01 -1.000000e+02
<VARIANCE> 3
 1.519430e-01 4.240468e+02 1.000000e-02
<GCONST> 5.074056e+00
<STATE> 4
<NUMMIXES> 2
<MIXTURE> 1 9.720916e-01
<MEAN> 3
 -5.155669e+00 -2.525072e+00 -2.702125e-01
<VARIANCE> 3
 1.191529e+01 1.022478e+01 1.931449e+00
<GCONST> 1.097454e+01
<MIXTURE> 2 2.790842e-02
<MEAN> 3
 -8.523606e-01 -5.098783e+01 -1.000000e+02
<VARIANCE> 3
 8.309723e-02 2.266427e+03 1.000000e-02
<GCONST> 6.146677e+00
<STATE> 5
<NUMMIXES> 2
<MIXTURE> 1 7.912380e-01
<MEAN> 3
 -2.589447e+00 -7.808742e+00 -8.100598e+00
<VARIANCE> 3
 4.340087e+00 9.386840e+00 7.131672e+00
<GCONST> 1.118538e+01
<MIXTURE> 2 2.087620e-01
<MEAN> 3
 -2.122061e+00 -9.207774e+01 -1.000000e+02
<VARIANCE> 3
 4.477183e-01 6.930995e+02 1.000000e-02
<GCONST> 6.646043e+00
<STATE> 6
<NUMMIXES> 2
<MIXTURE> 1 2.375120e-02
<MEAN> 3
 -5.042656e+00 -5.633754e+00 -2.427592e+00
<VARIANCE> 3
 1.012776e+01 1.771705e+01 4.108159e+01
<GCONST> 1.441900e+01
<MIXTURE> 2 9.762488e-01
<MEAN> 3
 -6.298449e+00 -6.143692e+00 -1.000000e+02
<VARIANCE> 3
 1.217716e+01 8.680903e+01 1.000000e-02
<GCONST> 7.871734e+00
<STATE> 7
<NUMMIXES> 2
<MIXTURE> 1 4.250184e-01
<MEAN> 3
 -9.140660e+00 -8.204341e+00 -5.533015e+00
<VARIANCE> 3
 3.383472e+00 8.127190e+00 1.598001e+01
<GCONST> 1.159909e+01
<MIXTURE> 2 5.749816e-01
<MEAN> 3
 -8.161518e+00 -9.918936e+01 -1.000000e+02
<VARIANCE> 3
 5.042630e+00 7.606875e+01 1.000000e-02
<GCONST> 6.858027e+00
<TRANSP> 8
 0.000000e+00 1.000000e+00 0.000000e+00 0.000000e+00 0.000000e+00 0.000000e+00 0.000000e+00 0.000000e+00
 0.000000e+00 9.876974e-01 1.230266e-02 0.000000e+00 0.000000e+00 0.000000e+00 0.000000e+00 0.000000e+00
 0.000000e+00 0.000000e+00 9.820998e-01 1.790022e-02 0.000000e+00 0.000000e+00 0.000000e+00 0.000000e+00
 0.000000e+00 0.000000e+00 0.000000e+00 9.437480e-01 5.625203e-02 0.000000e+00 0.000000e+00 0.000000e+00
 0.000000e+00 0.000000e+00 0.000000e+00 0.000000e+00 9.236017e-01 7.639834e-02 0.000000e+00 0.000000e+00
 0.000000e+00 0.000000e+00 0.000000e+00 0.000000e+00 0.000000e+00 9.647974e-01 3.520260e-02 0.000000e+00
 0.000000e+00 0.000000e+00 0.000000e+00 0.000000e+00 0.000000e+00 0.000000e+00 9.783844e-01 2.161556e-02
 0.000000e+00 0.000000e+00 0.000000e+00 0.000000e+00 0.000000e+00 0.000000e+00 0.000000e+00 0.000000e+00
<ENDHMM>
