~o
<STREAMINFO> 1 1
<VECSIZE> 1<NULLD><USER><DIAGC>
~h "e"
<BEGINHMM>
<NUMSTATES> 8
<STATE> 2
<MEAN> 1
 -9.797309e-04
<VARIANCE> 1
 1.000000e-02
<GCONST> -2.767293e+00
<STATE> 3
<MEAN> 1
 -5.479025e-01
<VARIANCE> 1
 4.074373e-01
<GCONST> 9.400089e-01
<STATE> 4
<MEAN> 1
 -2.587126e+00
<VARIANCE> 1
 7.584503e-01
<GCONST> 1.561399e+00
<STATE> 5
<MEAN> 1
 -6.765904e+00
<VARIANCE> 1
 9.049884e+00
<GCONST> 4.040629e+00
<STATE> 6
<MEAN> 1
 -5.898541e+00
<VARIANCE> 1
 9.536624e-01
<GCONST> 1.790431e+00
<STATE> 7
<MEAN> 1
 -9.556932e+00
<VARIANCE> 1
 2.131998e+00
<GCONST> 2.594937e+00
<TRANSP> 8
 0.000000e+00 1.000000e+00 0.000000e+00 0.000000e+00 0.000000e+00 0.000000e+00 0.000000e+00 0.000000e+00
 0.000000e+00 9.917153e-01 8.284775e-03 0.000000e+00 0.000000e+00 0.000000e+00 0.000000e+00 0.000000e+00
 0.000000e+00 0.000000e+00 9.552254e-01 4.477461e-02 0.000000e+00 0.000000e+00 0.000000e+00 0.000000e+00
 0.000000e+00 0.000000e+00 0.000000e+00 9.363085e-01 6.369153e-02 0.000000e+00 0.000000e+00 0.000000e+00
 0.000000e+00 0.000000e+00 0.000000e+00 0.000000e+00 9.341778e-01 6.582229e-02 0.000000e+00 0.000000e+00
 0.000000e+00 0.000000e+00 0.000000e+00 0.000000e+00 0.000000e+00 9.446625e-01 5.533756e-02 0.000000e+00
 0.000000e+00 0.000000e+00 0.000000e+00 0.000000e+00 0.000000e+00 0.000000e+00 9.802697e-01 1.973031e-02
 0.000000e+00 0.000000e+00 0.000000e+00 0.000000e+00 0.000000e+00 0.000000e+00 0.000000e+00 0.000000e+00
<ENDHMM>
