~o
<STREAMINFO> 1 3
<VECSIZE> 3<NULLD><USER><DIAGC>
~h "i"
<BEGINHMM>
<NUMSTATES> 8
<STATE> 2
<NUMMIXES> 2
<MIXTURE> 1 5.478930e-01
<MEAN> 3
 -5.893794e+00 -7.204930e+00 -7.741322e+00
<VARIANCE> 3
 1.952799e+01 1.494036e+01 1.211049e+01
<GCONST> 1.368362e+01
<MIXTURE> 2 4.521070e-01
<MEAN> 3
 -8.947899e+00 -3.736389e+01 -1.000000e+02
<VARIANCE> 3
 2.917219e+00 2.133674e+03 1.000000e-02
<GCONST> 9.644692e+00
<STATE> 3
<NUMMIXES> 2
<MIXTURE> 1 9.260988e-01
<MEAN> 3
 -8.229218e+00 -8.153896e+00 -2.956698e-02
<VARIANCE> 3
 8.374144e+00 8.019645e+00 9.368242e-02
<GCONST> 7.352830e+00
<MIXTURE> 2 7.390120e-02
<MEAN> 3
 -4.808018e+00 -8.246684e+01 -1.000000e+02
<VARIANCE> 3
 1.411383e+00 1.406638e+03 1.000000e-02
<GCONST> 8.501988e+00
<STATE> 4
<NUMMIXES> 2
<MIXTURE> 1 9.726219e-01
<MEAN> 3
 -8.224770e+00 -4.338168e-03 2.904141e-03
<VARIANCE> 3
 6.460289e+00 1.000000e-02 7.314494e-02
<GCONST> 1.588228e-01
<MIXTURE> 2 2.737808e-02
<MEAN> 3
 -3.136171e+00 -4.245153e+01 -1.000000e+02
<VARIANCE> 3
 8.496912e-01 2.288310e+03 1.000000e-02
<GCONST> 8.481148e+00
<STATE> 5
<NUMMIXES> 2
<MIXTURE> 1 9.848940e-01
<MEAN> 3
 -2.545717e-02 5.845733e-04 1.126518e-02
<VARIANCE> 3
 1.299176e-01 1.000000e-02 5.747899e-02
<GCONST> -3.988730e+00
<MIXTURE> 2 1.510599e-02
<MEAN> 3
 -2.187768e+00 -4.943819e+01 -1.000000e+02
<VARIANCE> 3
 5.852390e-01 2.406483e+03 1.000000e-02
<GCONST> 8.158648e+00
<STATE> 6
<NUMMIXES> 2
<MIXTURE> 1 8.117868e-01
<MEAN> 3
 -2.747170e+00 1.268899e+00 8.258859e-01
<VARIANCE> 3
 1.683504e+01 4.678339e+00 1.407327e+01
<GCONST> 1.252431e+01
<MIXTURE> 2 1.882131e-01
<MEAN> 3
 -1.030313e+00 -4.873066e+01 -1.000000e+02
<VARIANCE> 3
 3.178335e-01 2.438433e+03 1.000000e-02
<GCONST> 7.561344e+00
<STATE> 7
<NUMMIXES> 2
<MIXTURE> 1 1.973521e-02
<MEAN> 3
 2.777858e-01 1.320447e+00 2.885404e+01
<VARIANCE> 3
 1.636417e+00 7.594881e+00 5.244550e+04
<GCONST> 1.890115e+01
<MIXTURE> 2 9.802648e-01
<MEAN> 3
 -1.022165e-03 -5.471663e+01 -1.000000e+02
<VARIANCE> 3
 1.000000e-02 2.469191e+03 1.000000e-02
<GCONST> 4.114937e+00
<TRANSP> 8
 0.000000e+00 1.000000e+00 0.000000e+00 0.000000e+00 0.000000e+00 0.000000e+00 0.000000e+00 0.000000e+00
 0.000000e+00 9.865280e-01 1.347200e-02 0.000000e+00 0.000000e+00 0.000000e+00 0.000000e+00 0.000000e+00
 0.000000e+00 0.000000e+00 9.557290e-01 4.427102e-02 0.000000e+00 0.000000e+00 0.000000e+00 0.000000e+00
 0.000000e+00 0.000000e+00 0.000000e+00 9.627080e-01 3.729201e-02 0.000000e+00 0.000000e+00 0.000000e+00
 0.000000e+00 0.000000e+00 0.000000e+00 0.000000e+00 9.724349e-01 2.756515e-02 0.000000e+00 0.000000e+00
 0.000000e+00 0.000000e+00 0.000000e+00 0.000000e+00 0.000000e+00 9.049313e-01 9.506871e-02 0.000000e+00
 0.000000e+00 0.000000e+00 0.000000e+00 0.000000e+00 0.000000e+00 0.000000e+00 9.861501e-01 1.384996e-02
 0.000000e+00 0.000000e+00 0.000000e+00 0.000000e+00 0.000000e+00 0.000000e+00 0.000000e+00 0.000000e+00
<ENDHMM>
