~o
<STREAMINFO> 1 1
<VECSIZE> 1<NULLD><USER><DIAGC>
~h "i"
<BEGINHMM>
<NUMSTATES> 8
<STATE> 2
<MEAN> 1
 -9.700406e+00
<VARIANCE> 1
 1.720565e+00
<GCONST> 2.380530e+00
<STATE> 3
<MEAN> 1
 -7.170367e+00
<VARIANCE> 1
 7.821948e+00
<GCONST> 3.894811e+00
<STATE> 4
<MEAN> 1
 -1.798455e-02
<VARIANCE> 1
 1.695601e+00
<GCONST> 2.365914e+00
<STATE> 5
<MEAN> 1
 -1.869457e+00
<VARIANCE> 1
 2.793372e+00
<GCONST> 2.865126e+00
<STATE> 6
<MEAN> 1
 -1.217860e+00
<VARIANCE> 1
 1.045532e+00
<GCONST> 1.882403e+00
<STATE> 7
<MEAN> 1
 3.093559e-04
<VARIANCE> 1
 2.195394e-02
<GCONST> -1.980932e+00
<TRANSP> 8
 0.000000e+00 1.000000e+00 0.000000e+00 0.000000e+00 0.000000e+00 0.000000e+00 0.000000e+00 0.000000e+00
 0.000000e+00 9.834750e-01 1.652499e-02 0.000000e+00 0.000000e+00 0.000000e+00 0.000000e+00 0.000000e+00
 0.000000e+00 0.000000e+00 9.806623e-01 1.933764e-02 0.000000e+00 0.000000e+00 0.000000e+00 0.000000e+00
 0.000000e+00 0.000000e+00 0.000000e+00 9.165152e-01 8.348478e-02 0.000000e+00 0.000000e+00 0.000000e+00
 0.000000e+00 0.000000e+00 0.000000e+00 0.000000e+00 0.000000e+00 1.000000e+00 0.000000e+00 0.000000e+00
 0.000000e+00 0.000000e+00 0.000000e+00 0.000000e+00 0.000000e+00 7.620796e-01 2.379204e-01 0.000000e+00
 0.000000e+00 0.000000e+00 0.000000e+00 0.000000e+00 0.000000e+00 0.000000e+00 9.911678e-01 8.832200e-03
 0.000000e+00 0.000000e+00 0.000000e+00 0.000000e+00 0.000000e+00 0.000000e+00 0.000000e+00 0.000000e+00
<ENDHMM>
