~o
<STREAMINFO> 1 3
<VECSIZE> 3<NULLD><USER><DIAGC>
~h "i"
<BEGINHMM>
<NUMSTATES> 8
<STATE> 2
<NUMMIXES> 2
<MIXTURE> 1 3.905630e-01
<MEAN> 3
 -6.182231e+00 -7.306462e+00 -7.810420e+00
<VARIANCE> 3
 1.888285e+01 1.393585e+01 1.053313e+01
<GCONST> 1.344088e+01
<MIXTURE> 2 6.094370e-01
<MEAN> 3
 -9.070798e+00 -3.394063e+01 -1.000000e+02
<VARIANCE> 3
 2.404794e+00 2.119558e+03 1.000000e-02
<GCONST> 9.444888e+00
<STATE> 3
<NUMMIXES> 2
<MIXTURE> 1 9.693379e-01
<MEAN> 3
 -7.738947e+00 -7.564312e+00 -5.272646e-03
<VARIANCE> 3
 1.074393e+01 1.116013e+01 1.000000e-02
<GCONST> 5.695149e+00
<MIXTURE> 2 3.066213e-02
<MEAN> 3
 -5.534399e+00 -4.845885e+01 -1.000000e+02
<VARIANCE> 3
 3.002342e+00 2.466963e+03 1.000000e-02
<GCONST> 9.818597e+00
<STATE> 4
<NUMMIXES> 2
<MIXTURE> 1 4.575513e-01
<MEAN> 3
 -6.395423e+00 -1.721762e-02 2.811188e+00
<VARIANCE> 3
 1.843837e+01 3.395525e-02 7.087469e+00
<GCONST> 7.003682e+00
<MIXTURE> 2 5.424487e-01
<MEAN> 3
 -3.409874e+00 -6.091496e+01 -1.000000e+02
<VARIANCE> 3
 2.456628e+00 2.365178e+03 1.000000e-02
<GCONST> 9.575860e+00
<STATE> 5
<NUMMIXES> 2
<MIXTURE> 1 9.876485e-01
<MEAN> 3
 -6.294869e+00 -3.826137e-04 8.620674e-04
<VARIANCE> 3
 1.701705e+01 1.000000e-02 1.000000e-02
<GCONST> -8.624935e-01
<MIXTURE> 2 1.235143e-02
<MEAN> 3
 -9.280477e-01 -4.974318e+01 -1.000000e+02
<VARIANCE> 3
 1.709859e-01 2.479113e+03 1.000000e-02
<GCONST> 6.957944e+00
<STATE> 6
<NUMMIXES> 2
<MIXTURE> 1 6.677504e-01
<MEAN> 3
 -1.796263e+00 1.490704e+00 1.776176e+00
<VARIANCE> 3
 1.291016e+01 5.282654e+00 7.475183e+00
<GCONST> 1.174766e+01
<MIXTURE> 2 3.322496e-01
<MEAN> 3
 6.506841e-02 -3.591934e+00 -1.000000e+02
<VARIANCE> 3
 2.371208e-01 3.506045e+02 1.000000e-02
<GCONST> 5.328935e+00
<STATE> 7
<NUMMIXES> 2
<MIXTURE> 1 3.508844e-01
<MEAN> 3
 -2.838731e-03 7.979925e-03 1.329692e-01
<VARIANCE> 3
 2.528622e-02 2.601502e-02 2.910132e-01
<GCONST> -3.047332e+00
<MIXTURE> 2 6.491156e-01
<MEAN> 3
 -3.678911e-04 -5.697608e+01 -1.000000e+02
<VARIANCE> 3
 1.000000e-02 2.463913e+03 1.000000e-02
<GCONST> 4.112797e+00
<TRANSP> 8
 0.000000e+00 1.000000e+00 0.000000e+00 0.000000e+00 0.000000e+00 0.000000e+00 0.000000e+00 0.000000e+00
 0.000000e+00 9.762408e-01 2.375916e-02 0.000000e+00 0.000000e+00 0.000000e+00 0.000000e+00 0.000000e+00
 0.000000e+00 0.000000e+00 9.408462e-01 5.915378e-02 0.000000e+00 0.000000e+00 0.000000e+00 0.000000e+00
 0.000000e+00 0.000000e+00 0.000000e+00 8.484044e-01 1.515956e-01 0.000000e+00 0.000000e+00 0.000000e+00
 0.000000e+00 0.000000e+00 0.000000e+00 0.000000e+00 9.756358e-01 2.436424e-02 0.000000e+00 0.000000e+00
 0.000000e+00 0.000000e+00 0.000000e+00 0.000000e+00 0.000000e+00 9.459643e-01 5.403564e-02 0.000000e+00
 0.000000e+00 0.000000e+00 0.000000e+00 0.000000e+00 0.000000e+00 0.000000e+00 9.908658e-01 9.134178e-03
 0.000000e+00 0.000000e+00 0.000000e+00 0.000000e+00 0.000000e+00 0.000000e+00 0.000000e+00 0.000000e+00
<ENDHMM>
