~o
<STREAMINFO> 1 3
<VECSIZE> 3<NULLD><USER><DIAGC>
~h "m"
<BEGINHMM>
<NUMSTATES> 8
<STATE> 2
<NUMMIXES> 2
<MIXTURE> 1 1.197054e-01
<MEAN> 3
 -6.925880e-01 2.656502e+00 5.144941e+00
<VARIANCE> 3
 6.220905e+00 8.598934e+00 4.474131e+03
<GCONST> 1.789925e+01
<MIXTURE> 2 8.802945e-01
<MEAN> 3
 1.979104e-03 -6.857434e-01 -1.000000e+02
<VARIANCE> 3
 1.000000e-02 9.724995e+01 1.000000e-02
<GCONST> 8.805752e-01
<STATE> 3
<NUMMIXES> 2
<MIXTURE> 1 9.907823e-01
<MEAN> 3
 1.793772e-03 4.140048e-03 8.160634e-01
<VARIANCE> 3
 1.000000e-02 1.000000e-02 8.657252e+00
<GCONST> -1.538312e+00
<MIXTURE> 2 9.217770e-03
<MEAN> 3
 1.682183e-01 -4.840787e+01 -1.000000e+02
<VARIANCE> 3
 7.768951e-02 2.532202e+03 1.000000e-02
<GCONST> 6.190270e+00
<STATE> 4
<NUMMIXES> 2
<MIXTURE> 1 9.862469e-01
<MEAN> 3
 2.738415e+00 2.650774e+00 9.310932e-02
<VARIANCE> 3
 8.307898e+00 7.674655e+00 2.222546e-01
<GCONST> 8.164829e+00
<MIXTURE> 2 1.375316e-02
<MEAN> 3
 2.450093e-01 -4.778808e+01 -1.000000e+02
<VARIANCE> 3
 1.060516e-01 2.530000e+03 1.000000e-02
<GCONST> 6.500606e+00
<STATE> 5
<NUMMIXES> 2
<MIXTURE> 1 9.863052e-01
<MEAN> 3
 2.158918e+00 3.882847e+00 3.600088e+00
<VARIANCE> 3
 7.142748e+00 7.701933e+00 1.355772e+01
<GCONST> 1.212816e+01
<MIXTURE> 2 1.369476e-02
<MEAN> 3
 3.363087e-01 -4.765891e+01 -1.000000e+02
<VARIANCE> 3
 1.631221e-01 2.530997e+03 1.000000e-02
<GCONST> 6.931573e+00
<STATE> 6
<NUMMIXES> 2
<MIXTURE> 1 5.389988e-02
<MEAN> 3
 2.906813e+00 6.730082e+00 2.790829e+02
<VARIANCE> 3
 9.015669e+00 8.275881e+00 5.662691e+04
<GCONST> 2.077018e+01
<MIXTURE> 2 9.461001e-01
<MEAN> 3
 3.594468e+00 8.053518e-01 -1.000000e+02
<VARIANCE> 3
 8.311317e+00 7.988764e+01 1.000000e-02
<GCONST> 7.406700e+00
<STATE> 7
<NUMMIXES> 2
<MIXTURE> 1 2.487178e-02
<MEAN> 3
 5.653667e+00 2.244279e+02 1.423752e+02
<VARIANCE> 3
 7.967578e+00 6.816638e+04 2.919479e+04
<GCONST> 2.900047e+01
<MIXTURE> 2 9.751282e-01
<MEAN> 3
 9.077487e-01 -1.000000e+02 -1.000000e+02
<VARIANCE> 3
 4.341765e+00 1.000000e-02 1.000000e-02
<GCONST> -2.228428e+00
<TRANSP> 8
 0.000000e+00 1.000000e+00 0.000000e+00 0.000000e+00 0.000000e+00 0.000000e+00 0.000000e+00 0.000000e+00
 0.000000e+00 9.629273e-01 3.707275e-02 0.000000e+00 0.000000e+00 0.000000e+00 0.000000e+00 0.000000e+00
 0.000000e+00 0.000000e+00 9.803193e-01 1.968066e-02 0.000000e+00 0.000000e+00 0.000000e+00 0.000000e+00
 0.000000e+00 0.000000e+00 0.000000e+00 9.710085e-01 2.899145e-02 0.000000e+00 0.000000e+00 0.000000e+00
 0.000000e+00 0.000000e+00 0.000000e+00 0.000000e+00 9.711992e-01 2.880078e-02 0.000000e+00 0.000000e+00
 0.000000e+00 0.000000e+00 0.000000e+00 0.000000e+00 0.000000e+00 9.705740e-01 2.942603e-02 0.000000e+00
 0.000000e+00 0.000000e+00 0.000000e+00 0.000000e+00 0.000000e+00 0.000000e+00 9.837773e-01 1.622274e-02
 0.000000e+00 0.000000e+00 0.000000e+00 0.000000e+00 0.000000e+00 0.000000e+00 0.000000e+00 0.000000e+00
<ENDHMM>
