~o
<STREAMINFO> 1 3
<VECSIZE> 3<NULLD><USER><DIAGC>
~h "m"
<BEGINHMM>
<NUMSTATES> 8
<STATE> 2
<NUMMIXES> 2
<MIXTURE> 1 3.017777e-01
<MEAN> 3
 -7.807115e-04 1.317057e-02 1.279180e+00
<VARIANCE> 3
 3.448968e-02 3.401361e-02 5.738565e+00
<GCONST> 5.127509e-01
<MIXTURE> 2 6.982223e-01
<MEAN> 3
 1.408499e-03 -6.581297e+01 -1.000000e+02
<VARIANCE> 3
 1.000000e-02 2.272618e+03 1.000000e-02
<GCONST> 4.031979e+00
<STATE> 3
<NUMMIXES> 2
<MIXTURE> 1 9.824723e-01
<MEAN> 3
 4.630734e-03 2.879392e+00 1.937195e+00
<VARIANCE> 3
 3.489706e-02 5.391710e+00 9.084526e+00
<GCONST> 6.049714e+00
<MIXTURE> 2 1.752769e-02
<MEAN> 3
 2.821088e-01 -5.126367e+01 -1.000000e+02
<VARIANCE> 3
 1.092453e-01 2.542731e+03 1.000000e-02
<GCONST> 6.535295e+00
<STATE> 4
<NUMMIXES> 2
<MIXTURE> 1 9.576569e-01
<MEAN> 3
 1.096202e+00 2.079844e-01 -1.020351e+00
<VARIANCE> 3
 3.092049e+00 3.567016e-01 2.722010e+01
<GCONST> 8.915565e+00
<MIXTURE> 2 4.234309e-02
<MEAN> 3
 4.391181e-01 -4.780785e+01 -1.000000e+02
<VARIANCE> 3
 1.042754e-01 2.565105e+03 1.000000e-02
<GCONST> 6.497497e+00
<STATE> 5
<NUMMIXES> 2
<MIXTURE> 1 9.707905e-01
<MEAN> 3
 2.465954e+00 5.122401e+00 1.992855e+00
<VARIANCE> 3
 4.389382e+00 7.119803e+00 7.206613e+00
<GCONST> 1.093070e+01
<MIXTURE> 2 2.920953e-02
<MEAN> 3
 6.306601e-01 -4.716985e+01 -1.000000e+02
<VARIANCE> 3
 1.239939e-01 2.565503e+03 1.000000e-02
<GCONST> 6.670848e+00
<STATE> 6
<NUMMIXES> 2
<MIXTURE> 1 2.525980e-01
<MEAN> 3
 4.084821e+00 1.002235e+00 7.237841e-02
<VARIANCE> 3
 8.790999e+00 1.721260e+00 2.311181e-01
<GCONST> 6.765590e+00
<MIXTURE> 2 7.474019e-01
<MEAN> 3
 3.096704e+00 1.226951e+00 -1.000000e+02
<VARIANCE> 3
 6.981952e+00 7.864621e+01 1.000000e-02
<GCONST> 7.216748e+00
<STATE> 7
<NUMMIXES> 2
<MIXTURE> 1 3.227205e-01
<MEAN> 3
 5.571733e+00 4.886071e+00 4.833611e+00
<VARIANCE> 3
 4.482317e+00 5.652881e+00 7.787745e+00
<GCONST> 1.079849e+01
<MIXTURE> 2 6.772794e-01
<MEAN> 3
 3.794141e+00 -9.892695e+01 -1.000000e+02
<VARIANCE> 3
 8.643833e+00 1.078943e+02 1.000000e-02
<GCONST> 7.746459e+00
<TRANSP> 8
 0.000000e+00 1.000000e+00 0.000000e+00 0.000000e+00 0.000000e+00 0.000000e+00 0.000000e+00 0.000000e+00
 0.000000e+00 9.894454e-01 1.055461e-02 0.000000e+00 0.000000e+00 0.000000e+00 0.000000e+00 0.000000e+00
 0.000000e+00 0.000000e+00 9.647209e-01 3.527908e-02 0.000000e+00 0.000000e+00 0.000000e+00 0.000000e+00
 0.000000e+00 0.000000e+00 0.000000e+00 9.228482e-01 7.715183e-02 0.000000e+00 0.000000e+00 0.000000e+00
 0.000000e+00 0.000000e+00 0.000000e+00 0.000000e+00 9.465209e-01 5.347905e-02 0.000000e+00 0.000000e+00
 0.000000e+00 0.000000e+00 0.000000e+00 0.000000e+00 0.000000e+00 9.796806e-01 2.031940e-02 0.000000e+00
 0.000000e+00 0.000000e+00 0.000000e+00 0.000000e+00 0.000000e+00 0.000000e+00 9.670748e-01 3.292526e-02
 0.000000e+00 0.000000e+00 0.000000e+00 0.000000e+00 0.000000e+00 0.000000e+00 0.000000e+00 0.000000e+00
<ENDHMM>
