~o
<STREAMINFO> 1 1
<VECSIZE> 1<NULLD><USER><DIAGC>
~h "m"
<BEGINHMM>
<NUMSTATES> 8
<STATE> 2
<MEAN> 1
 1.549527e-03
<VARIANCE> 1
 1.609062e-02
<GCONST> -2.291642e+00
<STATE> 3
<MEAN> 1
 1.112169e+00
<VARIANCE> 1
 3.980293e-01
<GCONST> 9.166474e-01
<STATE> 4
<MEAN> 1
 6.318862e-01
<VARIANCE> 1
 3.794186e+00
<GCONST> 3.171347e+00
<STATE> 5
<MEAN> 1
 2.663137e+00
<VARIANCE> 1
 6.646327e-01
<GCONST> 1.429356e+00
<STATE> 6
<MEAN> 1
 4.618926e+00
<VARIANCE> 1
 1.806830e+00
<GCONST> 2.429451e+00
<STATE> 7
<MEAN> 1
 7.449148e+00
<VARIANCE> 1
 9.430897e+00
<GCONST> 4.081868e+00
<TRANSP> 8
 0.000000e+00 1.000000e+00 0.000000e+00 0.000000e+00 0.000000e+00 0.000000e+00 0.000000e+00 0.000000e+00
 0.000000e+00 9.926723e-01 7.327730e-03 0.000000e+00 0.000000e+00 0.000000e+00 0.000000e+00 0.000000e+00
 0.000000e+00 0.000000e+00 9.480912e-01 5.190881e-02 0.000000e+00 0.000000e+00 0.000000e+00 0.000000e+00
 0.000000e+00 0.000000e+00 0.000000e+00 9.265240e-01 7.347598e-02 0.000000e+00 0.000000e+00 0.000000e+00
 0.000000e+00 0.000000e+00 0.000000e+00 0.000000e+00 9.319215e-01 6.807854e-02 0.000000e+00 0.000000e+00
 0.000000e+00 0.000000e+00 0.000000e+00 0.000000e+00 0.000000e+00 9.537738e-01 4.622614e-02 0.000000e+00
 0.000000e+00 0.000000e+00 0.000000e+00 0.000000e+00 0.000000e+00 0.000000e+00 9.729444e-01 2.705554e-02
 0.000000e+00 0.000000e+00 0.000000e+00 0.000000e+00 0.000000e+00 0.000000e+00 0.000000e+00 0.000000e+00
<ENDHMM>
