~o
<STREAMINFO> 1 3
<VECSIZE> 3<NULLD><USER><DIAGC>
~h "sil"
<BEGINHMM>
<NUMSTATES> 8
<STATE> 2
<NUMMIXES> 2
<MIXTURE> 1 9.244698e-01
<MEAN> 3
 9.433354e+00 1.096324e-04 1.465532e-03
<VARIANCE> 3
 4.851718e+00 1.000000e-02 1.000000e-02
<GCONST> -2.117376e+00
<MIXTURE> 2 7.553014e-02
<MEAN> 3
 8.000692e+00 -5.757417e+00 -4.872727e+00
<VARIANCE> 3
 5.379012e+00 2.162536e+01 1.983430e+01
<GCONST> 1.325741e+01
<STATE> 3
<NUMMIXES> 2
<MIXTURE> 1 9.518904e-02
<MEAN> 3
 1.149868e+01 1.661875e+00 1.003166e-03
<VARIANCE> 3
 4.953994e+00 1.183319e+00 1.000000e-02
<GCONST> 2.676979e+00
<MIXTURE> 2 9.048109e-01
<MEAN> 3
 9.566787e+00 2.768991e-03 2.078027e+00
<VARIANCE> 3
 5.629913e+00 1.000000e-02 1.826631e+00
<GCONST> 3.239028e+00
<STATE> 4
<NUMMIXES> 2
<MIXTURE> 1 4.896913e-01
<MEAN> 3
 9.577764e+00 3.129177e+00 1.714132e+00
<VARIANCE> 3
 2.471023e+00 2.436946e+00 1.513583e+00
<GCONST> 7.723489e+00
<MIXTURE> 2 5.103087e-01
<MEAN> 3
 4.539429e+00 5.792666e-03 4.691828e+00
<VARIANCE> 3
 6.723397e+00 1.000000e-02 9.301266e+00
<GCONST> 5.044205e+00
<STATE> 5
<NUMMIXES> 2
<MIXTURE> 1 1.884279e-01
<MEAN> 3
 1.095849e+01 3.672532e-01 8.545462e+00
<VARIANCE> 3
 1.249685e+01 6.956347e-01 1.044601e+01
<GCONST> 1.002240e+01
<MIXTURE> 2 8.115721e-01
<MEAN> 3
 6.772920e+00 3.832217e+00 2.330710e-03
<VARIANCE> 3
 6.377792e+00 5.472781e+00 1.000000e-02
<GCONST> 4.461070e+00
<STATE> 6
<NUMMIXES> 2
<MIXTURE> 1 4.986016e-01
<MEAN> 3
 8.170918e+00 5.021431e+00 7.658573e+00
<VARIANCE> 3
 4.675770e+00 5.460088e+00 2.783378e+00
<GCONST> 9.777156e+00
<MIXTURE> 2 5.013984e-01
<MEAN> 3
 4.778051e+00 1.217032e+00 3.526088e+00
<VARIANCE> 3
 3.355709e+00 4.359425e-01 3.715467e+00
<GCONST> 7.206553e+00
<STATE> 7
<NUMMIXES> 2
<MIXTURE> 1 6.459512e-01
<MEAN> 3
 5.700328e+00 6.392166e+00 2.036306e+00
<VARIANCE> 3
 8.013642e+00 8.202333e+00 3.522866e+00
<GCONST> 1.095847e+01
<MIXTURE> 2 3.540488e-01
<MEAN> 3
 5.838362e+00 4.251132e-03 -5.699064e+00
<VARIANCE> 3
 8.660536e+00 1.000000e-02 1.847689e+01
<GCONST> 5.983759e+00
<TRANSP> 8
 0.000000e+00 1.000000e+00 0.000000e+00 0.000000e+00 0.000000e+00 0.000000e+00 0.000000e+00 0.000000e+00
 0.000000e+00 9.893095e-01 1.069046e-02 0.000000e+00 0.000000e+00 0.000000e+00 0.000000e+00 0.000000e+00
 0.000000e+00 0.000000e+00 9.605405e-01 3.945949e-02 0.000000e+00 0.000000e+00 0.000000e+00 0.000000e+00
 0.000000e+00 0.000000e+00 0.000000e+00 9.694372e-01 3.056285e-02 0.000000e+00 0.000000e+00 0.000000e+00
 0.000000e+00 0.000000e+00 0.000000e+00 0.000000e+00 9.696089e-01 3.039110e-02 0.000000e+00 0.000000e+00
 0.000000e+00 0.000000e+00 0.000000e+00 0.000000e+00 0.000000e+00 9.636409e-01 3.635910e-02 0.000000e+00
 0.000000e+00 0.000000e+00 0.000000e+00 0.000000e+00 0.000000e+00 0.000000e+00 9.677045e-01 3.229549e-02
 0.000000e+00 0.000000e+00 0.000000e+00 0.000000e+00 0.000000e+00 0.000000e+00 0.000000e+00 0.000000e+00
<ENDHMM>
