~o
<STREAMINFO> 1 3
<VECSIZE> 3<NULLD><USER><DIAGC>
~h "sil"
<BEGINHMM>
<NUMSTATES> 8
<STATE> 2
<NUMMIXES> 2
<MIXTURE> 1 4.883743e-01
<MEAN> 3
 1.143918e+01 2.766396e+00 2.180626e+00
<VARIANCE> 3
 5.904841e+00 3.149486e+00 3.813612e+00
<GCONST> 9.775219e+00
<MIXTURE> 2 5.116257e-01
<MEAN> 3
 7.521066e+00 2.185235e+00 -3.289593e-01
<VARIANCE> 3
 3.458519e+00 2.060222e+01 3.586564e+00
<GCONST> 1.105707e+01
<STATE> 3
<NUMMIXES> 2
<MIXTURE> 1 1.311001e-02
<MEAN> 3
 8.293814e+00 1.511607e+00 -7.704374e-01
<VARIANCE> 3
 4.693451e+00 3.516693e+00 4.220047e+01
<GCONST> 1.205975e+01
<MIXTURE> 2 9.868900e-01
<MEAN> 3
 9.241378e+00 3.732135e-04 3.812243e-03
<VARIANCE> 3
 3.144426e+00 1.000000e-02 1.000000e-02
<GCONST> -2.551078e+00
<STATE> 4
<NUMMIXES> 2
<MIXTURE> 1 1.597958e-02
<MEAN> 3
 9.674974e+00 5.355832e+00 7.537442e+00
<VARIANCE> 3
 6.882016e-01 1.995149e+00 6.109754e+00
<GCONST> 7.640563e+00
<MIXTURE> 2 9.840204e-01
<MEAN> 3
 8.563764e+00 3.728800e-03 3.172427e+00
<VARIANCE> 3
 7.168443e+00 1.000000e-02 8.752721e+00
<GCONST> 5.047514e+00
<STATE> 5
<NUMMIXES> 2
<MIXTURE> 1 7.154482e-01
<MEAN> 3
 9.091389e+00 1.622964e+00 3.509325e+00
<VARIANCE> 3
 1.886024e+00 1.207724e+00 6.969609e+00
<GCONST> 8.278399e+00
<MIXTURE> 2 2.845518e-01
<MEAN> 3
 6.883673e+00 2.093559e-04 -9.235636e+00
<VARIANCE> 3
 4.579773e+00 1.000000e-02 1.896390e+00
<GCONST> 3.070062e+00
<STATE> 6
<NUMMIXES> 2
<MIXTURE> 1 8.420637e-01
<MEAN> 3
 6.803873e+00 6.018193e+00 4.449419e+00
<VARIANCE> 3
 8.336362e+00 4.881278e+00 6.088531e+00
<GCONST> 1.102607e+01
<MIXTURE> 2 1.579363e-01
<MEAN> 3
 3.999604e+00 8.988345e-01 2.822014e+00
<VARIANCE> 3
 6.376134e+00 5.998726e-01 1.814845e+00
<GCONST> 7.451155e+00
<STATE> 7
<NUMMIXES> 2
<MIXTURE> 1 9.701151e-01
<MEAN> 3
 6.287183e+00 3.720621e+00 1.796944e-03
<VARIANCE> 3
 1.281275e+01 1.040219e+01 1.000000e-02
<GCONST> 5.800918e+00
<MIXTURE> 2 2.988488e-02
<MEAN> 3
 2.770969e+00 1.710394e+00 -2.059117e-03
<VARIANCE> 3
 2.933583e+00 5.503101e+00 4.698321e+00
<GCONST> 9.842373e+00
<TRANSP> 8
 0.000000e+00 1.000000e+00 0.000000e+00 0.000000e+00 0.000000e+00 0.000000e+00 0.000000e+00 0.000000e+00
 0.000000e+00 9.463282e-01 5.367179e-02 0.000000e+00 0.000000e+00 0.000000e+00 0.000000e+00 0.000000e+00
 0.000000e+00 0.000000e+00 9.739301e-01 2.606986e-02 0.000000e+00 0.000000e+00 0.000000e+00 0.000000e+00
 0.000000e+00 0.000000e+00 0.000000e+00 9.804666e-01 1.953341e-02 0.000000e+00 0.000000e+00 0.000000e+00
 0.000000e+00 0.000000e+00 0.000000e+00 0.000000e+00 9.696174e-01 3.038258e-02 0.000000e+00 0.000000e+00
 0.000000e+00 0.000000e+00 0.000000e+00 0.000000e+00 0.000000e+00 9.737891e-01 2.621093e-02 0.000000e+00
 0.000000e+00 0.000000e+00 0.000000e+00 0.000000e+00 0.000000e+00 0.000000e+00 9.819657e-01 1.803430e-02
 0.000000e+00 0.000000e+00 0.000000e+00 0.000000e+00 0.000000e+00 0.000000e+00 0.000000e+00 0.000000e+00
<ENDHMM>
