~o
<STREAMINFO> 1 1
<VECSIZE> 1<NULLD><USER><DIAGC>
~h "sil"
<BEGINHMM>
<NUMSTATES> 8
<STATE> 2
<MEAN> 1
 1.184653e+01
<VARIANCE> 1
 9.717385e+00
<GCONST> 4.111794e+00
<STATE> 3
<MEAN> 1
 1.097749e+01
<VARIANCE> 1
 1.917405e-02
<GCONST> -2.116321e+00
<STATE> 4
<MEAN> 1
 9.685731e+00
<VARIANCE> 1
 3.815726e-01
<GCONST> 8.744228e-01
<STATE> 5
<MEAN> 1
 7.817823e+00
<VARIANCE> 1
 1.011538e+00
<GCONST> 1.849349e+00
<STATE> 6
<MEAN> 1
 9.659249e+00
<VARIANCE> 1
 5.055848e+00
<GCONST> 3.458423e+00
<STATE> 7
<MEAN> 1
 4.446798e+00
<VARIANCE> 1
 6.049210e+00
<GCONST> 3.637805e+00
<TRANSP> 8
 0.000000e+00 1.000000e+00 0.000000e+00 0.000000e+00 0.000000e+00 0.000000e+00 0.000000e+00 0.000000e+00
 0.000000e+00 9.769339e-01 2.306609e-02 0.000000e+00 0.000000e+00 0.000000e+00 0.000000e+00 0.000000e+00
 0.000000e+00 0.000000e+00 9.849122e-01 1.508784e-02 0.000000e+00 0.000000e+00 0.000000e+00 0.000000e+00
 0.000000e+00 0.000000e+00 0.000000e+00 9.782227e-01 2.177733e-02 0.000000e+00 0.000000e+00 0.000000e+00
 0.000000e+00 0.000000e+00 0.000000e+00 0.000000e+00 9.660110e-01 3.398896e-02 0.000000e+00 0.000000e+00
 0.000000e+00 0.000000e+00 0.000000e+00 0.000000e+00 0.000000e+00 9.596153e-01 4.038465e-02 0.000000e+00
 0.000000e+00 0.000000e+00 0.000000e+00 0.000000e+00 0.000000e+00 0.000000e+00 9.699160e-01 3.008399e-02
 0.000000e+00 0.000000e+00 0.000000e+00 0.000000e+00 0.000000e+00 0.000000e+00 0.000000e+00 0.000000e+00
<ENDHMM>
