~o
<STREAMINFO> 1 1
<VECSIZE> 1<NULLD><USER><DIAGC>
~h "a"
<BEGINHMM>
<NUMSTATES> 8
<STATE> 2
<MEAN> 1
 3.635784e+00
<VARIANCE> 1
 6.489606e+00
<GCONST> 3.708079e+00
<STATE> 3
<MEAN> 1
 9.478789e+00
<VARIANCE> 1
 3.839423e+00
<GCONST> 3.183199e+00
<STATE> 4
<MEAN> 1
 5.574520e-01
<VARIANCE> 1
 2.670464e+00
<GCONST> 2.820129e+00
<STATE> 5
<MEAN> 1
 5.145040e+00
<VARIANCE> 1
 1.628134e+00
<GCONST> 2.325312e+00
<STATE> 6
<MEAN> 1
 1.915178e+00
<VARIANCE> 1
 9.021185e-01
<GCONST> 1.734868e+00
<STATE> 7
<MEAN> 1
 6.251965e-05
<VARIANCE> 1
 1.000000e-02
<GCONST> -2.767293e+00
<TRANSP> 8
 0.000000e+00 1.000000e+00 0.000000e+00 0.000000e+00 0.000000e+00 0.000000e+00 0.000000e+00 0.000000e+00
 0.000000e+00 9.248059e-01 7.519412e-02 0.000000e+00 0.000000e+00 0.000000e+00 0.000000e+00 0.000000e+00
 0.000000e+00 0.000000e+00 9.797133e-01 2.028666e-02 0.000000e+00 0.000000e+00 0.000000e+00 0.000000e+00
 0.000000e+00 0.000000e+00 0.000000e+00 9.282930e-01 7.170694e-02 0.000000e+00 0.000000e+00 0.000000e+00
 0.000000e+00 0.000000e+00 0.000000e+00 0.000000e+00 9.699494e-01 3.005063e-02 0.000000e+00 0.000000e+00
 0.000000e+00 0.000000e+00 0.000000e+00 0.000000e+00 0.000000e+00 9.443268e-01 5.567322e-02 0.000000e+00
 0.000000e+00 0.000000e+00 0.000000e+00 0.000000e+00 0.000000e+00 0.000000e+00 9.912933e-01 8.706763e-03
 0.000000e+00 0.000000e+00 0.000000e+00 0.000000e+00 0.000000e+00 0.000000e+00 0.000000e+00 0.000000e+00
<ENDHMM>
