~o
<STREAMINFO> 1 3
<VECSIZE> 3<NULLD><USER><DIAGC>
~h "a"
<BEGINHMM>
<NUMSTATES> 8
<STATE> 2
<NUMMIXES> 2
<MIXTURE> 1 1.898439e-01
<MEAN> 3
 5.413696e+00 1.621138e+02 2.022929e+02
<VARIANCE> 3
 1.036156e+01 6.032236e+04 4.653360e+04
<GCONST> 2.960712e+01
<MIXTURE> 2 8.101560e-01
<MEAN> 3
 5.703097e+00 -1.518319e+01 -1.000000e+02
<VARIANCE> 3
 8.129025e+00 1.465826e+03 1.000000e-02
<GCONST> 1.029408e+01
<STATE> 3
<NUMMIXES> 2
<MIXTURE> 1 4.537895e-02
<MEAN> 3
 6.108817e+00 6.493478e+00 5.740661e+00
<VARIANCE> 3
 9.184546e+00 1.282228e+01 3.031416e+03
<GCONST> 1.829912e+01
<MIXTURE> 2 9.546211e-01
<MEAN> 3
 7.027179e-01 -1.000000e+02 -1.000000e+02
<VARIANCE> 3
 3.683459e+00 1.000000e-02 1.000000e-02
<GCONST> -2.392857e+00
<STATE> 4
<NUMMIXES> 2
<MIXTURE> 1 9.878049e-01
<MEAN> 3
 4.810806e+00 5.513159e+00 3.466525e+00
<VARIANCE> 3
 1.110101e+01 7.924611e+00 9.983659e+00
<GCONST> 1.229159e+01
<MIXTURE> 2 1.219512e-02
<MEAN> 3
 2.209805e+00 -3.884834e+01 -1.000000e+02
<VARIANCE> 3
 5.353173e+00 2.416227e+03 1.000000e-02
<GCONST> 1.037611e+01
<STATE> 5
<NUMMIXES> 2
<MIXTURE> 1 8.260239e-01
<MEAN> 3
 2.538080e+00 7.191633e-02 -8.800372e-01
<VARIANCE> 3
 7.395852e+00 2.630236e-01 4.257252e+01
<GCONST> 9.930248e+00
<MIXTURE> 2 1.739761e-01
<MEAN> 3
 1.400921e+00 -7.630268e+00 -1.000000e+02
<VARIANCE> 3
 4.765649e-01 7.802413e+02 1.000000e-02
<GCONST> 6.826913e+00
<STATE> 6
<NUMMIXES> 2
<MIXTURE> 1 9.146513e-01
<MEAN> 3
 4.682992e+00 6.435386e-01 -1.967813e-03
<VARIANCE> 3
 9.483506e+00 2.243201e+00 3.171484e-02
<GCONST> 5.120118e+00
<MIXTURE> 2 8.534869e-02
<MEAN> 3
 -1.679160e-01 -5.962627e+00 -1.000000e+02
<VARIANCE> 3
 1.926648e-01 5.647170e+02 1.000000e-02
<GCONST> 5.597982e+00
<STATE> 7
<NUMMIXES> 2
<MIXTURE> 1 6.196229e-01
<MEAN> 3
 1.899078e-03 -5.201941e-01 -4.051955e-01
<VARIANCE> 3
 1.000000e-02 4.156065e+00 3.362515e+00
<GCONST> 3.545719e+00
<MIXTURE> 2 3.803771e-01
<MEAN> 3
 -6.067935e-04 -1.509990e+00 -1.000000e+02
<VARIANCE> 3
 1.000000e-02 8.668871e+01 1.000000e-02
<GCONST> 7.656145e-01
<TRANSP> 8
 0.000000e+00 1.000000e+00 0.000000e+00 0.000000e+00 0.000000e+00 0.000000e+00 0.000000e+00 0.000000e+00
 0.000000e+00 9.571396e-01 4.286047e-02 0.000000e+00 0.000000e+00 0.000000e+00 0.000000e+00 0.000000e+00
 0.000000e+00 0.000000e+00 9.781421e-01 2.185792e-02 0.000000e+00 0.000000e+00 0.000000e+00 0.000000e+00
 0.000000e+00 0.000000e+00 0.000000e+00 9.780009e-01 2.199904e-02 0.000000e+00 0.000000e+00 0.000000e+00
 0.000000e+00 0.000000e+00 0.000000e+00 0.000000e+00 9.333092e-01 6.669082e-02 0.000000e+00 0.000000e+00
 0.000000e+00 0.000000e+00 0.000000e+00 0.000000e+00 0.000000e+00 9.764555e-01 2.354447e-02 0.000000e+00
 0.000000e+00 0.000000e+00 0.000000e+00 0.000000e+00 0.000000e+00 0.000000e+00 9.858407e-01 1.415929e-02
 0.000000e+00 0.000000e+00 0.000000e+00 0.000000e+00 0.000000e+00 0.000000e+00 0.000000e+00 0.000000e+00
<ENDHMM>
