~o
<STREAMINFO> 1 3
<VECSIZE> 3<NULLD><USER><DIAGC>
~h "a"
<BEGINHMM>
<NUMSTATES> 8
<STATE> 2
<NUMMIXES> 2
<MIXTURE> 1 4.652491e-01
<MEAN> 3
 4.088100e+00 3.237474e+00 2.143578e+00
<VARIANCE> 3
 1.084770e+01 9.530902e+00 2.573060e+01
<GCONST> 1.339980e+01
<MIXTURE> 2 5.347509e-01
<MEAN> 3
 5.328559e+00 -3.168786e+01 -1.000000e+02
<VARIANCE> 3
 7.373572e+00 2.238616e+03 1.000000e-02
<GCONST> 1.061998e+01
<STATE> 3
<NUMMIXES> 2
<MIXTURE> 1 9.688609e-01
<MEAN> 3
 4.723828e+00 4.089442e+00 3.433086e-03
<VARIANCE> 3
 1.083849e+01 6.788442e+00 1.000000e-02
<GCONST> 5.206786e+00
<MIXTURE> 2 3.113914e-02
<MEAN> 3
 1.649937e+00 -4.818054e+01 -1.000000e+02
<VARIANCE> 3
 6.314772e-01 2.491647e+03 1.000000e-02
<GCONST> 8.269467e+00
<STATE> 4
<NUMMIXES> 2
<MIXTURE> 1 9.741033e-01
<MEAN> 3
 3.922756e+00 8.980571e-04 -2.350080e-04
<VARIANCE> 3
 9.639997e+00 1.000000e-02 1.000000e-02
<GCONST> -1.430788e+00
<MIXTURE> 2 2.589671e-02
<MEAN> 3
 1.664113e+00 -7.647182e+01 -1.000000e+02
<VARIANCE> 3
 2.908472e-01 1.797125e+03 1.000000e-02
<GCONST> 7.167447e+00
<STATE> 5
<NUMMIXES> 2
<MIXTURE> 1 7.183588e-01
<MEAN> 3
 1.752367e+00 -2.584949e+00 -1.139909e+00
<VARIANCE> 3
 9.719676e+00 2.702400e+01 5.975077e+00
<GCONST> 1.287211e+01
<MIXTURE> 2 2.816412e-01
<MEAN> 3
 7.936177e-01 -4.363309e+01 -1.000000e+02
<VARIANCE> 3
 1.218628e-01 2.444923e+03 1.000000e-02
<GCONST> 6.605371e+00
<STATE> 6
<NUMMIXES> 2
<MIXTURE> 1 3.515280e-01
<MEAN> 3
 1.770601e-04 -5.118827e-03 -7.384070e-02
<VARIANCE> 3
 1.743931e-02 2.040801e-02 8.227982e-02
<GCONST> -4.924854e+00
<MIXTURE> 2 6.484720e-01
<MEAN> 3
 6.797774e-04 -5.494293e+01 -1.000000e+02
<VARIANCE> 3
 1.000000e-02 2.439379e+03 1.000000e-02
<GCONST> 4.102790e+00
<STATE> 7
<NUMMIXES> 2
<MIXTURE> 1 9.312050e-01
<MEAN> 3
 -6.043064e-03 -1.912376e+00 -4.786353e+00
<VARIANCE> 3
 6.524393e-02 1.100098e+01 1.447420e+01
<GCONST> 7.854361e+00
<MIXTURE> 2 6.879497e-02
<MEAN> 3
 -1.013187e+00 -2.828883e+01 -1.000000e+02
<VARIANCE> 3
 1.034915e+00 1.979803e+03 1.000000e-02
<GCONST> 8.533533e+00
<TRANSP> 8
 0.000000e+00 1.000000e+00 0.000000e+00 0.000000e+00 0.000000e+00 0.000000e+00 0.000000e+00 0.000000e+00
 0.000000e+00 9.708029e-01 2.919708e-02 0.000000e+00 0.000000e+00 0.000000e+00 0.000000e+00 0.000000e+00
 0.000000e+00 0.000000e+00 9.274734e-01 7.252660e-02 0.000000e+00 0.000000e+00 0.000000e+00 0.000000e+00
 0.000000e+00 0.000000e+00 0.000000e+00 9.726149e-01 2.738503e-02 0.000000e+00 0.000000e+00 0.000000e+00
 0.000000e+00 0.000000e+00 0.000000e+00 0.000000e+00 8.720445e-01 1.279555e-01 0.000000e+00 0.000000e+00
 0.000000e+00 0.000000e+00 0.000000e+00 0.000000e+00 0.000000e+00 9.915317e-01 8.468335e-03 0.000000e+00
 0.000000e+00 0.000000e+00 0.000000e+00 0.000000e+00 0.000000e+00 0.000000e+00 9.586331e-01 4.136690e-02
 0.000000e+00 0.000000e+00 0.000000e+00 0.000000e+00 0.000000e+00 0.000000e+00 0.000000e+00 0.000000e+00
<ENDHMM>
