~o
<STREAMINFO> 1 3
<VECSIZE> 3<NULLD><USER><DIAGC>
~h "e"
<BEGINHMM>
<NUMSTATES> 8
<STATE> 2
<NUMMIXES> 2
<MIXTURE> 1 5.218769e-01
<MEAN> 3
 -2.817625e-03 -2.441207e-01 -4.095376e+00
<VARIANCE> 3
 2.301452e-02 4.827825e-01 2.005247e+01
<GCONST> 4.012165e+00
<MIXTURE> 2 4.781231e-01
<MEAN> 3
 -3.283240e-03 -4.352905e+01 -1.000000e+02
<VARIANCE> 3
 1.000000e-02 2.239548e+03 1.000000e-02
<GCONST> 4.017320e+00
<STATE> 3
<NUMMIXES> 2
<MIXTURE> 1 3.263757e-01
<MEAN> 3
 -2.381601e+00 -1.322979e+00 -3.217597e+00
<VARIANCE> 3
 3.363463e+00 2.705578e+00 1.601062e+01
<GCONST> 1.049517e+01
<MIXTURE> 2 6.736243e-01
<MEAN> 3
 -9.404854e-01 -5.889474e+01 -1.000000e+02
<VARIANCE> 3
 2.862668e-01 2.289785e+03 1.000000e-02
<GCONST> 7.393844e+00
<STATE> 4
<NUMMIXES> 2
<MIXTURE> 1 9.863105e-01
<MEAN> 3
 -1.227924e-01 -8.021708e+00 -5.886263e+00
<VARIANCE> 3
 1.144995e-01 6.000699e+00 1.867937e+01
<GCONST> 8.065742e+00
<MIXTURE> 2 1.368948e-02
<MEAN> 3
 -2.073085e+00 -5.158180e+01 -1.000000e+02
<VARIANCE> 3
 1.462519e-01 2.241632e+03 1.000000e-02
<GCONST> 6.700995e+00
<STATE> 5
<NUMMIXES> 2
<MIXTURE> 1 1.696385e-01
<MEAN> 3
 -5.999454e-01 -8.807051e-01 1.799101e+00
<VARIANCE> 3
 8.228405e-01 5.769513e+00 1.703488e+01
<GCONST> 9.906488e+00
<MIXTURE> 2 8.303615e-01
<MEAN> 3
 -7.518550e+00 -6.583193e+00 -1.000000e+02
<VARIANCE> 3
 8.218847e+00 8.527044e+01 1.000000e-02
<GCONST> 7.460719e+00
<STATE> 6
<NUMMIXES> 2
<MIXTURE> 1 1.818182e-01
<MEAN> 3
 -2.738130e+00 -8.411327e+00 -4.038634e+00
<VARIANCE> 3
 8.947719e-01 4.965989e+00 1.972006e+01
<GCONST> 9.986694e+00
<MIXTURE> 2 8.181818e-01
<MEAN> 3
 -7.964092e+00 -9.928825e+01 -1.000000e+02
<VARIANCE> 3
 5.668508e+00 6.835132e+01 1.000000e-02
<GCONST> 6.868048e+00
<STATE> 7
<NUMMIXES> 2
<MIXTURE> 1 9.875671e-01
<MEAN> 3
 -8.707591e+00 -7.117640e+00 -4.669697e+00
<VARIANCE> 3
 5.051772e+00 1.453123e+01 2.015557e+01
<GCONST> 1.281315e+01
<MIXTURE> 2 1.243296e-02
<MEAN> 3
 -8.239737e+00 -4.058119e+01 -1.000000e+02
<VARIANCE> 3
 8.442208e+00 2.287834e+03 1.000000e-02
<GCONST> 1.077707e+01
<TRANSP> 8
 0.000000e+00 1.000000e+00 0.000000e+00 0.000000e+00 0.000000e+00 0.000000e+00 0.000000e+00 0.000000e+00
 0.000000e+00 9.861195e-01 1.388051e-02 0.000000e+00 0.000000e+00 0.000000e+00 0.000000e+00 0.000000e+00
 0.000000e+00 0.000000e+00 9.301708e-01 6.982923e-02 0.000000e+00 0.000000e+00 0.000000e+00 0.000000e+00
 0.000000e+00 0.000000e+00 0.000000e+00 9.692822e-01 3.071786e-02 0.000000e+00 0.000000e+00 0.000000e+00
 0.000000e+00 0.000000e+00 0.000000e+00 0.000000e+00 9.699002e-01 3.009978e-02 0.000000e+00 0.000000e+00
 0.000000e+00 0.000000e+00 0.000000e+00 0.000000e+00 0.000000e+00 9.735746e-01 2.642539e-02 0.000000e+00
 0.000000e+00 0.000000e+00 0.000000e+00 0.000000e+00 0.000000e+00 0.000000e+00 9.775719e-01 2.242809e-02
 0.000000e+00 0.000000e+00 0.000000e+00 0.000000e+00 0.000000e+00 0.000000e+00 0.000000e+00 0.000000e+00
<ENDHMM>
