~o
<STREAMINFO> 1 1
<VECSIZE> 1<NULLD><USER><DIAGC>
~h "e"
<BEGINHMM>
<NUMSTATES> 8
<STATE> 2
<MEAN> 1
 -1.176718e-03
<VARIANCE> 1
 1.000000e-02
<GCONST> -2.767293e+00
<STATE> 3
<MEAN> 1
 -8.082884e-01
<VARIANCE> 1
 6.217340e-01
<GCONST> 1.362634e+00
<STATE> 4
<MEAN> 1
 -3.111627e+00
<VARIANCE> 1
 5.222284e-01
<GCONST> 1.188227e+00
<STATE> 5
<MEAN> 1
 -6.948037e+00
<VARIANCE> 1
 9.041677e+00
<GCONST> 4.039721e+00
<STATE> 6
<MEAN> 1
 -5.903959e+00
<VARIANCE> 1
 9.004648e-01
<GCONST> 1.733033e+00
<STATE> 7
<MEAN> 1
 -9.567513e+00
<VARIANCE> 1
 2.114590e+00
<GCONST> 2.586738e+00
<TRANSP> 8
 0.000000e+00 1.000000e+00 0.000000e+00 0.000000e+00 0.000000e+00 0.000000e+00 0.000000e+00 0.000000e+00
 0.000000e+00 9.917311e-01 8.268920e-03 0.000000e+00 0.000000e+00 0.000000e+00 0.000000e+00 0.000000e+00
 0.000000e+00 0.000000e+00 9.640765e-01 3.592347e-02 0.000000e+00 0.000000e+00 0.000000e+00 0.000000e+00
 0.000000e+00 0.000000e+00 0.000000e+00 9.077232e-01 9.227683e-02 0.000000e+00 0.000000e+00 0.000000e+00
 0.000000e+00 0.000000e+00 0.000000e+00 0.000000e+00 9.310603e-01 6.893968e-02 0.000000e+00 0.000000e+00
 0.000000e+00 0.000000e+00 0.000000e+00 0.000000e+00 0.000000e+00 9.448771e-01 5.512282e-02 0.000000e+00
 0.000000e+00 0.000000e+00 0.000000e+00 0.000000e+00 0.000000e+00 0.000000e+00 9.801702e-01 1.982972e-02
 0.000000e+00 0.000000e+00 0.000000e+00 0.000000e+00 0.000000e+00 0.000000e+00 0.000000e+00 0.000000e+00
<ENDHMM>
