~o
<STREAMINFO> 1 3
<VECSIZE> 3<NULLD><USER><DIAGC>
~h "e"
<BEGINHMM>
<NUMSTATES> 8
<STATE> 2
<NUMMIXES> 2
<MIXTURE> 1 4.311464e-01
<MEAN> 3
 6.619906e-03 -3.196961e-02 -1.115945e-01
<VARIANCE> 3
 1.611272e-02 1.401114e-01 2.212693e-01
<GCONST> -2.088207e+00
<MIXTURE> 2 5.688536e-01
<MEAN> 3
 -3.405250e-03 -4.457466e+01 -1.000000e+02
<VARIANCE> 3
 1.000000e-02 2.348397e+03 1.000000e-02
<GCONST> 4.064779e+00
<STATE> 3
<NUMMIXES> 2
<MIXTURE> 1 9.134178e-01
<MEAN> 3
 -6.616157e-04 -3.438111e+00 -5.349669e+00
<VARIANCE> 3
 1.000000e-02 1.600352e+01 2.145018e+01
<GCONST> 6.747003e+00
<MIXTURE> 2 8.658223e-02
<MEAN> 3
 -7.770818e-01 -9.565794e+01 -1.000000e+02
<VARIANCE> 3
 1.458139e-01 3.944436e+02 1.000000e-02
<GCONST> 4.960513e+00
<STATE> 4
<NUMMIXES> 2
<MIXTURE> 1 8.894284e-01
<MEAN> 3
 -2.382198e+00 -8.401206e-01 -2.702208e-01
<VARIANCE> 3
 5.073209e+00 2.829763e+00 2.278637e+00
<GCONST> 9.001375e+00
<MIXTURE> 2 1.105715e-01
<MEAN> 3
 -1.735857e+00 -8.716379e+01 -1.000000e+02
<VARIANCE> 3
 1.951403e-01 1.057095e+03 1.000000e-02
<GCONST> 6.237704e+00
<STATE> 5
<NUMMIXES> 2
<MIXTURE> 1 7.379182e-01
<MEAN> 3
 -1.799496e+00 -7.468571e+00 -6.935268e+00
<VARIANCE> 3
 2.228984e+00 1.188337e+01 1.401506e+01
<GCONST> 1.143045e+01
<MIXTURE> 2 2.620818e-01
<MEAN> 3
 -3.771627e+00 -9.461045e+01 -1.000000e+02
<VARIANCE> 3
 1.314462e+00 4.839898e+02 1.000000e-02
<GCONST> 7.363953e+00
<STATE> 6
<NUMMIXES> 2
<MIXTURE> 1 2.301938e-02
<MEAN> 3
 -4.135720e+00 -5.225368e+00 -1.976982e+00
<VARIANCE> 3
 5.354325e+00 1.811628e+01 4.155996e+01
<GCONST> 1.381549e+01
<MIXTURE> 2 9.769806e-01
<MEAN> 3
 -6.321728e+00 -6.144377e+00 -1.000000e+02
<VARIANCE> 3
 1.209403e+01 8.694344e+01 1.000000e-02
<GCONST> 7.866431e+00
<STATE> 7
<NUMMIXES> 2
<MIXTURE> 1 5.347808e-01
<MEAN> 3
 -8.915843e+00 -7.198273e+00 -4.476789e+00
<VARIANCE> 3
 3.969466e+00 1.184538e+01 1.734455e+01
<GCONST> 1.221748e+01
<MIXTURE> 2 4.652192e-01
<MEAN> 3
 -8.559413e+00 -9.910112e+01 -1.000000e+02
<VARIANCE> 3
 3.924976e+00 8.427275e+01 1.000000e-02
<GCONST> 6.709880e+00
<TRANSP> 8
 0.000000e+00 1.000000e+00 0.000000e+00 0.000000e+00 0.000000e+00 0.000000e+00 0.000000e+00 0.000000e+00
 0.000000e+00 9.872928e-01 1.270719e-02 0.000000e+00 0.000000e+00 0.000000e+00 0.000000e+00 0.000000e+00
 0.000000e+00 0.000000e+00 9.817930e-01 1.820700e-02 0.000000e+00 0.000000e+00 0.000000e+00 0.000000e+00
 0.000000e+00 0.000000e+00 0.000000e+00 9.312664e-01 6.873366e-02 0.000000e+00 0.000000e+00 0.000000e+00
 0.000000e+00 0.000000e+00 0.000000e+00 0.000000e+00 9.315985e-01 6.840149e-02 0.000000e+00 0.000000e+00
 0.000000e+00 0.000000e+00 0.000000e+00 0.000000e+00 0.000000e+00 9.647036e-01 3.529637e-02 0.000000e+00
 0.000000e+00 0.000000e+00 0.000000e+00 0.000000e+00 0.000000e+00 0.000000e+00 9.806071e-01 1.939292e-02
 0.000000e+00 0.000000e+00 0.000000e+00 0.000000e+00 0.000000e+00 0.000000e+00 0.000000e+00 0.000000e+00
<ENDHMM>
