~o
<STREAMINFO> 1 1
<VECSIZE> 1<NULLD><USER><DIAGC>
~h "i"
<BEGINHMM>
<NUMSTATES> 8
<STATE> 2
<MEAN> 1
 -9.708900e+00
<VARIANCE> 1
 1.700907e+00
<GCONST> 2.369039e+00
<STATE> 3
<MEAN> 1
 -7.178379e+00
<VARIANCE> 1
 7.744984e+00
<GCONST> 3.884923e+00
<STATE> 4
<MEAN> 1
 3.090006e-02
<VARIANCE> 1
 1.639670e+00
<GCONST> 2.332372e+00
<STATE> 5
<MEAN> 1
 -2.083774e+00
<VARIANCE> 1
 2.526576e+00
<GCONST> 2.764742e+00
<STATE> 6
<MEAN> 1
 -1.258281e+00
<VARIANCE> 1
 9.487185e-01
<GCONST> 1.785234e+00
<STATE> 7
<MEAN> 1
 1.356391e-04
<VARIANCE> 1
 2.193438e-02
<GCONST> -1.981823e+00
<TRANSP> 8
 0.000000e+00 1.000000e+00 0.000000e+00 0.000000e+00 0.000000e+00 0.000000e+00 0.000000e+00 0.000000e+00
 0.000000e+00 9.834547e-01 1.654528e-02 0.000000e+00 0.000000e+00 0.000000e+00 0.000000e+00 0.000000e+00
 0.000000e+00 0.000000e+00 9.806377e-01 1.936231e-02 0.000000e+00 0.000000e+00 0.000000e+00 0.000000e+00
 0.000000e+00 0.000000e+00 0.000000e+00 9.140589e-01 8.594115e-02 0.000000e+00 0.000000e+00 0.000000e+00
 0.000000e+00 0.000000e+00 0.000000e+00 0.000000e+00 0.000000e+00 1.000000e+00 0.000000e+00 0.000000e+00
 0.000000e+00 0.000000e+00 0.000000e+00 0.000000e+00 0.000000e+00 7.801673e-01 2.198327e-01 0.000000e+00
 0.000000e+00 0.000000e+00 0.000000e+00 0.000000e+00 0.000000e+00 0.000000e+00 9.911785e-01 8.821556e-03
 0.000000e+00 0.000000e+00 0.000000e+00 0.000000e+00 0.000000e+00 0.000000e+00 0.000000e+00 0.000000e+00
<ENDHMM>
