~o
<STREAMINFO> 1 3
<VECSIZE> 3<NULLD><USER><DIAGC>
~h "i"
<BEGINHMM>
<NUMSTATES> 8
<STATE> 2
<NUMMIXES> 2
<MIXTURE> 1 5.447593e-01
<MEAN> 3
 -5.893429e+00 -7.204151e+00 -7.744791e+00
<VARIANCE> 3
 1.952801e+01 1.494339e+01 1.209511e+01
<GCONST> 1.368255e+01
<MIXTURE> 2 4.552407e-01
<MEAN> 3
 -8.913089e+00 -3.809042e+01 -1.000000e+02
<VARIANCE> 3
 2.982943e+00 2.154019e+03 1.000000e-02
<GCONST> 9.676462e+00
<STATE> 3
<NUMMIXES> 2
<MIXTURE> 1 9.469157e-01
<MEAN> 3
 -8.231108e+00 -8.154864e+00 -3.017252e-02
<VARIANCE> 3
 8.369561e+00 8.015088e+00 9.389516e-02
<GCONST> 7.353982e+00
<MIXTURE> 2 5.308430e-02
<MEAN> 3
 -4.474873e+00 -7.475041e+01 -1.000000e+02
<VARIANCE> 3
 1.179503e+00 1.826955e+03 1.000000e-02
<GCONST> 8.583961e+00
<STATE> 4
<NUMMIXES> 2
<MIXTURE> 1 9.829848e-01
<MEAN> 3
 -8.228379e+00 -4.222026e-03 2.960685e-03
<VARIANCE> 3
 6.430245e+00 1.000000e-02 7.334159e-02
<GCONST> 1.568460e-01
<MIXTURE> 2 1.701517e-02
<MEAN> 3
 -3.403513e+00 -4.935575e+01 -1.000000e+02
<VARIANCE> 3
 1.240817e+00 2.396124e+03 1.000000e-02
<GCONST> 8.905839e+00
<STATE> 5
<NUMMIXES> 2
<MIXTURE> 1 9.873968e-01
<MEAN> 3
 -2.576214e-02 4.695356e-04 1.183869e-02
<VARIANCE> 3
 1.296146e-01 1.000000e-02 5.810480e-02
<GCONST> -3.980236e+00
<MIXTURE> 2 1.260315e-02
<MEAN> 3
 -2.640650e+00 -4.875654e+01 -1.000000e+02
<VARIANCE> 3
 7.914883e-01 2.397407e+03 1.000000e-02
<GCONST> 8.456764e+00
<STATE> 6
<NUMMIXES> 2
<MIXTURE> 1 7.775025e-01
<MEAN> 3
 -2.751269e+00 1.271522e+00 8.199053e-01
<VARIANCE> 3
 1.685617e+01 4.684693e+00 1.413173e+01
<GCONST> 1.253107e+01
<MIXTURE> 2 2.224975e-01
<MEAN> 3
 -1.271915e+00 -4.872358e+01 -1.000000e+02
<VARIANCE> 3
 5.299550e-01 2.422420e+03 1.000000e-02
<GCONST> 8.066020e+00
<STATE> 7
<NUMMIXES> 2
<MIXTURE> 1 2.009786e-02
<MEAN> 3
 2.811792e-01 1.300755e+00 2.637650e+01
<VARIANCE> 3
 1.607087e+00 7.468573e+00 5.182465e+04
<GCONST> 1.885438e+01
<MIXTURE> 2 9.799021e-01
<MEAN> 3
 -1.154894e-03 -5.475627e+01 -1.000000e+02
<VARIANCE> 3
 1.000000e-02 2.468614e+03 1.000000e-02
<GCONST> 4.114703e+00
<TRANSP> 8
 0.000000e+00 1.000000e+00 0.000000e+00 0.000000e+00 0.000000e+00 0.000000e+00 0.000000e+00 0.000000e+00
 0.000000e+00 9.865977e-01 1.340229e-02 0.000000e+00 0.000000e+00 0.000000e+00 0.000000e+00 0.000000e+00
 0.000000e+00 0.000000e+00 9.547800e-01 4.521995e-02 0.000000e+00 0.000000e+00 0.000000e+00 0.000000e+00
 0.000000e+00 0.000000e+00 0.000000e+00 9.622796e-01 3.772038e-02 0.000000e+00 0.000000e+00 0.000000e+00
 0.000000e+00 0.000000e+00 0.000000e+00 0.000000e+00 9.723931e-01 2.760690e-02 0.000000e+00 0.000000e+00
 0.000000e+00 0.000000e+00 0.000000e+00 0.000000e+00 0.000000e+00 9.088206e-01 9.117938e-02 0.000000e+00
 0.000000e+00 0.000000e+00 0.000000e+00 0.000000e+00 0.000000e+00 0.000000e+00 9.861498e-01 1.385021e-02
 0.000000e+00 0.000000e+00 0.000000e+00 0.000000e+00 0.000000e+00 0.000000e+00 0.000000e+00 0.000000e+00
<ENDHMM>
