~o
<STREAMINFO> 1 3
<VECSIZE> 3<NULLD><USER><DIAGC>
~h "i"
<BEGINHMM>
<NUMSTATES> 8
<STATE> 2
<NUMMIXES> 2
<MIXTURE> 1 3.904737e-01
<MEAN> 3
 -6.184689e+00 -7.307619e+00 -7.809585e+00
<VARIANCE> 3
 1.887894e+01 1.392981e+01 1.053836e+01
<GCONST> 1.344073e+01
<MIXTURE> 2 6.095263e-01
<MEAN> 3
 -9.072464e+00 -3.395562e+01 -1.000000e+02
<VARIANCE> 3
 2.391919e+00 2.120167e+03 1.000000e-02
<GCONST> 9.439807e+00
<STATE> 3
<NUMMIXES> 2
<MIXTURE> 1 9.732994e-01
<MEAN> 3
 -7.760077e+00 -7.445801e+00 -5.063794e-03
<VARIANCE> 3
 1.063880e+01 1.187450e+01 1.000000e-02
<GCONST> 5.747362e+00
<MIXTURE> 2 2.670057e-02
<MEAN> 3
 -5.535368e+00 -4.799834e+01 -1.000000e+02
<VARIANCE> 3
 3.066278e+00 2.463630e+03 1.000000e-02
<GCONST> 9.838317e+00
<STATE> 4
<NUMMIXES> 2
<MIXTURE> 1 4.249364e-01
<MEAN> 3
 -6.107343e+00 -2.124739e-02 3.115718e+00
<VARIANCE> 3
 1.928664e+01 3.920493e-02 6.911826e+00
<GCONST> 7.167325e+00
<MIXTURE> 2 5.750636e-01
<MEAN> 3
 -3.385741e+00 -6.036852e+01 -1.000000e+02
<VARIANCE> 3
 2.397949e+00 2.376135e+03 1.000000e-02
<GCONST> 9.556305e+00
<STATE> 5
<NUMMIXES> 2
<MIXTURE> 1 9.887103e-01
<MEAN> 3
 -6.315313e+00 -5.352910e-04 8.839596e-04
<VARIANCE> 3
 1.695272e+01 1.000000e-02 1.000000e-02
<GCONST> -8.662806e-01
<MIXTURE> 2 1.128968e-02
<MEAN> 3
 -8.870373e-01 -4.732474e+01 -1.000000e+02
<VARIANCE> 3
 1.304417e-01 2.470697e+03 1.000000e-02
<GCONST> 6.683887e+00
<STATE> 6
<NUMMIXES> 2
<MIXTURE> 1 6.757882e-01
<MEAN> 3
 -1.795921e+00 1.491769e+00 1.777612e+00
<VARIANCE> 3
 1.288576e+01 5.285663e+00 7.478749e+00
<GCONST> 1.174682e+01
<MIXTURE> 2 3.242118e-01
<MEAN> 3
 7.316333e-02 -3.716731e+00 -1.000000e+02
<VARIANCE> 3
 2.388811e-01 3.631860e+02 1.000000e-02
<GCONST> 5.371587e+00
<STATE> 7
<NUMMIXES> 2
<MIXTURE> 1 3.509675e-01
<MEAN> 3
 -2.841252e-03 7.938841e-03 1.324559e-01
<VARIANCE> 3
 2.514350e-02 2.591699e-02 2.899444e-01
<GCONST> -3.060447e+00
<MIXTURE> 2 6.490325e-01
<MEAN> 3
 -4.441804e-04 -5.682541e+01 -1.000000e+02
<VARIANCE> 3
 1.000000e-02 2.465925e+03 1.000000e-02
<GCONST> 4.113613e+00
<TRANSP> 8
 0.000000e+00 1.000000e+00 0.000000e+00 0.000000e+00 0.000000e+00 0.000000e+00 0.000000e+00 0.000000e+00
 0.000000e+00 9.762489e-01 2.375113e-02 0.000000e+00 0.000000e+00 0.000000e+00 0.000000e+00 0.000000e+00
 0.000000e+00 0.000000e+00 9.415131e-01 5.848696e-02 0.000000e+00 0.000000e+00 0.000000e+00 0.000000e+00
 0.000000e+00 0.000000e+00 0.000000e+00 8.439355e-01 1.560645e-01 0.000000e+00 0.000000e+00 0.000000e+00
 0.000000e+00 0.000000e+00 0.000000e+00 0.000000e+00 9.755611e-01 2.443884e-02 0.000000e+00 0.000000e+00
 0.000000e+00 0.000000e+00 0.000000e+00 0.000000e+00 0.000000e+00 9.452707e-01 5.472934e-02 0.000000e+00
 0.000000e+00 0.000000e+00 0.000000e+00 0.000000e+00 0.000000e+00 0.000000e+00 9.908943e-01 9.105754e-03
 0.000000e+00 0.000000e+00 0.000000e+00 0.000000e+00 0.000000e+00 0.000000e+00 0.000000e+00 0.000000e+00
<ENDHMM>
