~o
<STREAMINFO> 1 1
<VECSIZE> 1<NULLD><USER><DIAGC>
~h "m"
<BEGINHMM>
<NUMSTATES> 8
<STATE> 2
<MEAN> 1
 1.937189e-03
<VARIANCE> 1
 1.614724e-02
<GCONST> -2.288130e+00
<STATE> 3
<MEAN> 1
 1.120320e+00
<VARIANCE> 1
 3.743303e-01
<GCONST> 8.552603e-01
<STATE> 4
<MEAN> 1
 5.807269e-01
<VARIANCE> 1
 3.846108e+00
<GCONST> 3.184939e+00
<STATE> 5
<MEAN> 1
 2.644531e+00
<VARIANCE> 1
 6.212786e-01
<GCONST> 1.361901e+00
<STATE> 6
<MEAN> 1
 4.626406e+00
<VARIANCE> 1
 1.757132e+00
<GCONST> 2.401560e+00
<STATE> 7
<MEAN> 1
 7.474434e+00
<VARIANCE> 1
 9.429837e+00
<GCONST> 4.081756e+00
<TRANSP> 8
 0.000000e+00 1.000000e+00 0.000000e+00 0.000000e+00 0.000000e+00 0.000000e+00 0.000000e+00 0.000000e+00
 0.000000e+00 9.926854e-01 7.314649e-03 0.000000e+00 0.000000e+00 0.000000e+00 0.000000e+00 0.000000e+00
 0.000000e+00 0.000000e+00 9.474886e-01 5.251142e-02 0.000000e+00 0.000000e+00 0.000000e+00 0.000000e+00
 0.000000e+00 0.000000e+00 0.000000e+00 9.241862e-01 7.581376e-02 0.000000e+00 0.000000e+00 0.000000e+00
 0.000000e+00 0.000000e+00 0.000000e+00 0.000000e+00 9.338130e-01 6.618706e-02 0.000000e+00 0.000000e+00
 0.000000e+00 0.000000e+00 0.000000e+00 0.000000e+00 0.000000e+00 9.543537e-01 4.564624e-02 0.000000e+00
 0.000000e+00 0.000000e+00 0.000000e+00 0.000000e+00 0.000000e+00 0.000000e+00 9.727246e-01 2.727542e-02
 0.000000e+00 0.000000e+00 0.000000e+00 0.000000e+00 0.000000e+00 0.000000e+00 0.000000e+00 0.000000e+00
<ENDHMM>
