~o
<STREAMINFO> 1 3
<VECSIZE> 3<NULLD><USER><DIAGC>
~h "m"
<BEGINHMM>
<NUMSTATES> 8
<STATE> 2
<NUMMIXES> 2
<MIXTURE> 1 3.015800e-01
<MEAN> 3
 -5.749351e-04 1.265883e-02 1.277718e+00
<VARIANCE> 3
 3.448090e-02 3.364286e-02 5.740202e+00
<GCONST> 5.018216e-01
<MIXTURE> 2 6.984200e-01
<MEAN> 3
 1.648471e-03 -6.570467e+01 -1.000000e+02
<VARIANCE> 3
 1.000000e-02 2.276259e+03 1.000000e-02
<GCONST> 4.033580e+00
<STATE> 3
<NUMMIXES> 2
<MIXTURE> 1 9.829665e-01
<MEAN> 3
 4.777398e-03 2.875918e+00 1.926359e+00
<VARIANCE> 3
 3.479903e-02 5.396093e+00 9.079140e+00
<GCONST> 6.047120e+00
<MIXTURE> 2 1.703349e-02
<MEAN> 3
 3.199683e-01 -5.126079e+01 -1.000000e+02
<VARIANCE> 3
 1.014902e-01 2.543229e+03 1.000000e-02
<GCONST> 6.461858e+00
<STATE> 4
<NUMMIXES> 2
<MIXTURE> 1 9.612823e-01
<MEAN> 3
 1.129198e+00 2.130375e-01 -9.839479e-01
<VARIANCE> 3
 3.153067e+00 3.597685e-01 2.702914e+01
<GCONST> 8.936628e+00
<MIXTURE> 2 3.871774e-02
<MEAN> 3
 4.933020e-01 -4.880698e+01 -1.000000e+02
<VARIANCE> 3
 9.215125e-02 2.567820e+03 1.000000e-02
<GCONST> 6.374949e+00
<STATE> 5
<NUMMIXES> 2
<MIXTURE> 1 8.806529e-01
<MEAN> 3
 2.456459e+00 5.161080e+00 2.007402e+00
<VARIANCE> 3
 4.370416e+00 7.070638e+00 7.278193e+00
<GCONST> 1.092932e+01
<MIXTURE> 2 1.193471e-01
<MEAN> 3
 9.106443e-01 -8.931831e+01 -1.000000e+02
<VARIANCE> 3
 3.748139e-02 9.692680e+02 1.000000e-02
<GCONST> 4.501092e+00
<STATE> 6
<NUMMIXES> 2
<MIXTURE> 1 2.527096e-01
<MEAN> 3
 4.089283e+00 1.029110e+00 7.265349e-02
<VARIANCE> 3
 8.791737e+00 1.736815e+00 2.294525e-01
<GCONST> 6.767438e+00
<MIXTURE> 2 7.472904e-01
<MEAN> 3
 3.101599e+00 1.228364e+00 -1.000000e+02
<VARIANCE> 3
 6.980447e+00 7.876633e+01 1.000000e-02
<GCONST> 7.218060e+00
<STATE> 7
<NUMMIXES> 2
<MIXTURE> 1 3.453471e-01
<MEAN> 3
 5.574242e+00 4.884991e+00 4.826090e+00
<VARIANCE> 3
 4.466153e+00 5.670908e+00 7.772775e+00
<GCONST> 1.079613e+01
<MIXTURE> 2 6.546530e-01
<MEAN> 3
 4.081414e+00 -9.881695e+01 -1.000000e+02
<VARIANCE> 3
 8.641536e+00 1.188249e+02 1.000000e-02
<GCONST> 7.842692e+00
<TRANSP> 8
 0.000000e+00 1.000000e+00 0.000000e+00 0.000000e+00 0.000000e+00 0.000000e+00 0.000000e+00 0.000000e+00
 0.000000e+00 9.894664e-01 1.053355e-02 0.000000e+00 0.000000e+00 0.000000e+00 0.000000e+00 0.000000e+00
 0.000000e+00 0.000000e+00 9.647847e-01 3.521531e-02 0.000000e+00 0.000000e+00 0.000000e+00 0.000000e+00
 0.000000e+00 0.000000e+00 0.000000e+00 9.233972e-01 7.660284e-02 0.000000e+00 0.000000e+00 0.000000e+00
 0.000000e+00 0.000000e+00 0.000000e+00 0.000000e+00 9.507626e-01 4.923736e-02 0.000000e+00 0.000000e+00
 0.000000e+00 0.000000e+00 0.000000e+00 0.000000e+00 0.000000e+00 9.796505e-01 2.034948e-02 0.000000e+00
 0.000000e+00 0.000000e+00 0.000000e+00 0.000000e+00 0.000000e+00 0.000000e+00 9.649123e-01 3.508772e-02
 0.000000e+00 0.000000e+00 0.000000e+00 0.000000e+00 0.000000e+00 0.000000e+00 0.000000e+00 0.000000e+00
<ENDHMM>
