~o
<STREAMINFO> 1 3
<VECSIZE> 3<NULLD><USER><DIAGC>
~h "m"
<BEGINHMM>
<NUMSTATES> 8
<STATE> 2
<NUMMIXES> 2
<MIXTURE> 1 1.197098e-01
<MEAN> 3
 -6.930708e-01 2.656778e+00 5.167450e+00
<VARIANCE> 3
 6.221896e+00 8.600830e+00 4.474602e+03
<GCONST> 1.789974e+01
<MIXTURE> 2 8.802902e-01
<MEAN> 3
 1.779066e-03 -6.860873e-01 -1.000000e+02
<VARIANCE> 3
 1.000000e-02 9.727296e+01 1.000000e-02
<GCONST> 8.808122e-01
<STATE> 3
<NUMMIXES> 2
<MIXTURE> 1 9.908041e-01
<MEAN> 3
 1.864139e-03 4.155005e-03 8.155442e-01
<VARIANCE> 3
 1.000000e-02 1.000000e-02 8.660351e+00
<GCONST> -1.537954e+00
<MIXTURE> 2 9.195894e-03
<MEAN> 3
 1.651826e-01 -4.850546e+01 -1.000000e+02
<VARIANCE> 3
 7.478742e-02 2.532555e+03 1.000000e-02
<GCONST> 6.152340e+00
<STATE> 4
<NUMMIXES> 2
<MIXTURE> 1 9.863229e-01
<MEAN> 3
 2.736919e+00 2.651840e+00 9.421148e-02
<VARIANCE> 3
 8.310037e+00 7.678728e+00 2.223293e-01
<GCONST> 8.165954e+00
<MIXTURE> 2 1.367710e-02
<MEAN> 3
 2.424963e-01 -4.794190e+01 -1.000000e+02
<VARIANCE> 3
 1.025607e-01 2.530755e+03 1.000000e-02
<GCONST> 6.467433e+00
<STATE> 5
<NUMMIXES> 2
<MIXTURE> 1 9.863444e-01
<MEAN> 3
 2.159982e+00 3.886402e+00 3.607808e+00
<VARIANCE> 3
 7.140171e+00 7.693873e+00 1.356850e+01
<GCONST> 1.212754e+01
<MIXTURE> 2 1.365563e-02
<MEAN> 3
 3.351895e-01 -4.793515e+01 -1.000000e+02
<VARIANCE> 3
 1.605169e-01 2.531403e+03 1.000000e-02
<GCONST> 6.915634e+00
<STATE> 6
<NUMMIXES> 2
<MIXTURE> 1 5.387690e-02
<MEAN> 3
 2.907825e+00 6.731616e+00 2.791693e+02
<VARIANCE> 3
 9.020835e+00 8.275656e+00 5.660329e+04
<GCONST> 2.077031e+01
<MIXTURE> 2 9.461231e-01
<MEAN> 3
 3.593523e+00 8.053509e-01 -1.000000e+02
<VARIANCE> 3
 8.311191e+00 7.986133e+01 1.000000e-02
<GCONST> 7.406356e+00
<STATE> 7
<NUMMIXES> 2
<MIXTURE> 1 2.486334e-02
<MEAN> 3
 5.652978e+00 2.245018e+02 1.423618e+02
<VARIANCE> 3
 7.968006e+00 6.817455e+04 2.920181e+04
<GCONST> 2.900088e+01
<MIXTURE> 2 9.751366e-01
<MEAN> 3
 9.077457e-01 -1.000000e+02 -1.000000e+02
<VARIANCE> 3
 4.341746e+00 1.000000e-02 1.000000e-02
<GCONST> -2.228433e+00
<TRANSP> 8
 0.000000e+00 1.000000e+00 0.000000e+00 0.000000e+00 0.000000e+00 0.000000e+00 0.000000e+00 0.000000e+00
 0.000000e+00 9.629182e-01 3.708182e-02 0.000000e+00 0.000000e+00 0.000000e+00 0.000000e+00 0.000000e+00
 0.000000e+00 0.000000e+00 9.803250e-01 1.967493e-02 0.000000e+00 0.000000e+00 0.000000e+00 0.000000e+00
 0.000000e+00 0.000000e+00 0.000000e+00 9.710737e-01 2.892627e-02 0.000000e+00 0.000000e+00 0.000000e+00
 0.000000e+00 0.000000e+00 0.000000e+00 0.000000e+00 9.711191e-01 2.888087e-02 0.000000e+00 0.000000e+00
 0.000000e+00 0.000000e+00 0.000000e+00 0.000000e+00 0.000000e+00 9.705836e-01 2.941646e-02 0.000000e+00
 0.000000e+00 0.000000e+00 0.000000e+00 0.000000e+00 0.000000e+00 0.000000e+00 9.837771e-01 1.622289e-02
 0.000000e+00 0.000000e+00 0.000000e+00 0.000000e+00 0.000000e+00 0.000000e+00 0.000000e+00 0.000000e+00
<ENDHMM>
