~o
<STREAMINFO> 1 3
<VECSIZE> 3<NULLD><USER><DIAGC>
~h "sil"
<BEGINHMM>
<NUMSTATES> 8
<STATE> 2
<NUMMIXES> 2
<MIXTURE> 1 4.344512e-01
<MEAN> 3
 1.268516e+01 2.519903e+00 2.282781e+00
<VARIANCE> 3
 3.049734e+00 3.424677e+00 3.792905e+00
<GCONST> 9.192825e+00
<MIXTURE> 2 5.655488e-01
<MEAN> 3
 7.466139e+00 2.312953e+00 -3.880984e-01
<VARIANCE> 3
 3.262976e+00 2.193277e+01 3.621040e+00
<GCONST> 1.107101e+01
<STATE> 3
<NUMMIXES> 2
<MIXTURE> 1 1.291990e-02
<MEAN> 3
 8.263511e+00 1.559063e+00 -1.169377e+00
<VARIANCE> 3
 4.619105e+00 3.454901e+00 4.083572e+01
<GCONST> 1.199318e+01
<MIXTURE> 2 9.870801e-01
<MEAN> 3
 9.259917e+00 7.161152e-04 3.877601e-03
<VARIANCE> 3
 3.220380e+00 1.000000e-02 1.000000e-02
<GCONST> -2.527210e+00
<STATE> 4
<NUMMIXES> 2
<MIXTURE> 1 1.596994e-02
<MEAN> 3
 9.627325e+00 5.104279e+00 7.362185e+00
<VARIANCE> 3
 6.784948e-01 3.108843e+00 7.541138e+00
<GCONST> 8.280376e+00
<MIXTURE> 2 9.840301e-01
<MEAN> 3
 8.710162e+00 2.891396e-03 2.634087e+00
<VARIANCE> 3
 6.274455e+00 1.000000e-02 1.360258e+01
<GCONST> 5.355207e+00
<STATE> 5
<NUMMIXES> 2
<MIXTURE> 1 7.817919e-01
<MEAN> 3
 9.100678e+00 1.697451e+00 3.264698e+00
<VARIANCE> 3
 1.845949e+00 1.199315e+00 6.668621e+00
<GCONST> 8.205789e+00
<MIXTURE> 2 2.182081e-01
<MEAN> 3
 6.166294e+00 2.085106e-04 -9.314981e+00
<VARIANCE> 3
 2.774730e+00 1.000000e-02 1.298066e+00
<GCONST> 2.189890e+00
<STATE> 6
<NUMMIXES> 2
<MIXTURE> 1 7.030342e-01
<MEAN> 3
 7.140184e+00 6.592380e+00 4.597120e+00
<VARIANCE> 3
 7.994909e+00 3.348410e+00 5.889529e+00
<GCONST> 1.057410e+01
<MIXTURE> 2 2.969658e-01
<MEAN> 3
 4.302832e+00 1.651532e+00 3.352557e+00
<VARIANCE> 3
 6.256672e+00 1.743474e+00 4.127929e+00
<GCONST> 9.320935e+00
<STATE> 7
<NUMMIXES> 2
<MIXTURE> 1 7.766258e-01
<MEAN> 3
 6.864982e+00 4.825475e+00 2.034532e-03
<VARIANCE> 3
 1.117566e+01 8.394963e+00 1.000000e-02
<GCONST> 5.449832e+00
<MIXTURE> 2 2.233742e-01
<MEAN> 3
 2.687073e+00 2.869848e-01 3.378836e-02
<VARIANCE> 3
 2.553892e+00 1.097126e+00 7.237667e-01
<GCONST> 6.220658e+00
<TRANSP> 8
 0.000000e+00 1.000000e+00 0.000000e+00 0.000000e+00 0.000000e+00 0.000000e+00 0.000000e+00 0.000000e+00
 0.000000e+00 9.390244e-01 6.097561e-02 0.000000e+00 0.000000e+00 0.000000e+00 0.000000e+00 0.000000e+00
 0.000000e+00 0.000000e+00 9.741602e-01 2.583979e-02 0.000000e+00 0.000000e+00 0.000000e+00 0.000000e+00
 0.000000e+00 0.000000e+00 0.000000e+00 9.812118e-01 1.878816e-02 0.000000e+00 0.000000e+00 0.000000e+00
 0.000000e+00 0.000000e+00 0.000000e+00 0.000000e+00 9.710982e-01 2.890173e-02 0.000000e+00 0.000000e+00
 0.000000e+00 0.000000e+00 0.000000e+00 0.000000e+00 0.000000e+00 9.741769e-01 2.582311e-02 0.000000e+00
 0.000000e+00 0.000000e+00 0.000000e+00 0.000000e+00 0.000000e+00 0.000000e+00 9.811499e-01 1.885014e-02
 0.000000e+00 0.000000e+00 0.000000e+00 0.000000e+00 0.000000e+00 0.000000e+00 0.000000e+00 0.000000e+00
<ENDHMM>
