~o
<STREAMINFO> 1 3
<VECSIZE> 3<NULLD><USER><DIAGC>
~h "sil"
<BEGINHMM>
<NUMSTATES> 8
<STATE> 2
<NUMMIXES> 2
<MIXTURE> 1 9.241655e-01
<MEAN> 3
 9.434407e+00 3.720046e-04 1.469551e-03
<VARIANCE> 3
 4.871827e+00 1.000000e-02 1.000000e-02
<GCONST> -2.113240e+00
<MIXTURE> 2 7.583445e-02
<MEAN> 3
 7.998134e+00 -5.730560e+00 -4.850102e+00
<VARIANCE> 3
 5.368493e+00 2.166731e+01 1.984257e+01
<GCONST> 1.325781e+01
<STATE> 3
<NUMMIXES> 2
<MIXTURE> 1 4.530478e-01
<MEAN> 3
 1.264252e+01 9.199770e-01 2.167944e+00
<VARIANCE> 3
 3.864014e+00 1.563882e+00 2.671372e+00
<GCONST> 8.295101e+00
<MIXTURE> 2 5.469522e-01
<MEAN> 3
 9.826446e+00 2.173408e-01 7.357861e-01
<VARIANCE> 3
 1.766277e+00 1.470322e-01 1.885101e-01
<GCONST> 2.496798e+00
<STATE> 4
<NUMMIXES> 2
<MIXTURE> 1 3.140644e-01
<MEAN> 3
 9.345131e+00 3.491520e+00 1.734086e+00
<VARIANCE> 3
 2.264093e+00 1.949158e+00 1.597226e+00
<GCONST> 7.466472e+00
<MIXTURE> 2 6.859356e-01
<MEAN> 3
 6.373206e+00 3.995328e-03 3.442481e+00
<VARIANCE> 3
 7.786399e+00 1.000000e-02 5.690706e+00
<GCONST> 4.699674e+00
<STATE> 5
<NUMMIXES> 2
<MIXTURE> 1 2.387420e-01
<MEAN> 3
 9.272822e+00 4.097870e-01 8.671552e+00
<VARIANCE> 3
 2.031198e+01 5.878705e-01 8.089753e+00
<GCONST> 1.008419e+01
<MIXTURE> 2 7.612581e-01
<MEAN> 3
 6.779716e+00 3.847714e+00 2.428456e-03
<VARIANCE> 3
 6.390464e+00 5.439836e+00 1.000000e-02
<GCONST> 4.457017e+00
<STATE> 6
<NUMMIXES> 2
<MIXTURE> 1 4.938389e-01
<MEAN> 3
 8.222358e+00 5.285903e+00 7.682470e+00
<VARIANCE> 3
 4.720055e+00 4.656083e+00 2.839988e+00
<GCONST> 9.647426e+00
<MIXTURE> 2 5.061612e-01
<MEAN> 3
 4.695598e+00 1.208429e+00 3.385785e+00
<VARIANCE> 3
 3.041909e+00 4.311047e-01 3.128087e+00
<GCONST> 6.925134e+00
<STATE> 7
<NUMMIXES> 2
<MIXTURE> 1 6.429150e-01
<MEAN> 3
 5.702756e+00 6.413162e+00 2.024752e+00
<VARIANCE> 3
 8.073316e+00 8.125008e+00 3.610633e+00
<GCONST> 1.098103e+01
<MIXTURE> 2 3.570850e-01
<MEAN> 3
 5.841878e+00 4.636608e-03 -5.663263e+00
<VARIANCE> 3
 8.690555e+00 1.000000e-02 1.860436e+01
<GCONST> 5.994094e+00
<TRANSP> 8
 0.000000e+00 1.000000e+00 0.000000e+00 0.000000e+00 0.000000e+00 0.000000e+00 0.000000e+00 0.000000e+00
 0.000000e+00 9.893191e-01 1.068091e-02 0.000000e+00 0.000000e+00 0.000000e+00 0.000000e+00 0.000000e+00
 0.000000e+00 0.000000e+00 9.341021e-01 6.589786e-02 0.000000e+00 0.000000e+00 0.000000e+00 0.000000e+00
 0.000000e+00 0.000000e+00 0.000000e+00 9.761621e-01 2.383790e-02 0.000000e+00 0.000000e+00 0.000000e+00
 0.000000e+00 0.000000e+00 0.000000e+00 0.000000e+00 9.714081e-01 2.859185e-02 0.000000e+00 0.000000e+00
 0.000000e+00 0.000000e+00 0.000000e+00 0.000000e+00 0.000000e+00 9.620853e-01 3.791469e-02 0.000000e+00
 0.000000e+00 0.000000e+00 0.000000e+00 0.000000e+00 0.000000e+00 0.000000e+00 9.676113e-01 3.238867e-02
 0.000000e+00 0.000000e+00 0.000000e+00 0.000000e+00 0.000000e+00 0.000000e+00 0.000000e+00 0.000000e+00
<ENDHMM>
