~o
<STREAMINFO> 1 1
<VECSIZE> 1<NULLD><USER><DIAGC>
~h "sil"
<BEGINHMM>
<NUMSTATES> 8
<STATE> 2
<MEAN> 1
 1.184758e+01
<VARIANCE> 1
 9.720257e+00
<GCONST> 4.112089e+00
<STATE> 3
<MEAN> 1
 1.097707e+01
<VARIANCE> 1
 1.903384e-02
<GCONST> -2.123660e+00
<STATE> 4
<MEAN> 1
 9.675052e+00
<VARIANCE> 1
 3.751576e-01
<GCONST> 8.574679e-01
<STATE> 5
<MEAN> 1
 7.807438e+00
<VARIANCE> 1
 9.839033e-01
<GCONST> 1.821649e+00
<STATE> 6
<MEAN> 1
 9.707657e+00
<VARIANCE> 1
 5.027888e+00
<GCONST> 3.452877e+00
<STATE> 7
<MEAN> 1
 4.438016e+00
<VARIANCE> 1
 5.986210e+00
<GCONST> 3.627336e+00
<TRANSP> 8
 0.000000e+00 1.000000e+00 0.000000e+00 0.000000e+00 0.000000e+00 0.000000e+00 0.000000e+00 0.000000e+00
 0.000000e+00 9.769186e-01 2.308136e-02 0.000000e+00 0.000000e+00 0.000000e+00 0.000000e+00 0.000000e+00
 0.000000e+00 0.000000e+00 9.849511e-01 1.504891e-02 0.000000e+00 0.000000e+00 0.000000e+00 0.000000e+00
 0.000000e+00 0.000000e+00 0.000000e+00 9.783667e-01 2.163332e-02 0.000000e+00 0.000000e+00 0.000000e+00
 0.000000e+00 0.000000e+00 0.000000e+00 0.000000e+00 9.659864e-01 3.401361e-02 0.000000e+00 0.000000e+00
 0.000000e+00 0.000000e+00 0.000000e+00 0.000000e+00 0.000000e+00 9.588054e-01 4.119465e-02 0.000000e+00
 0.000000e+00 0.000000e+00 0.000000e+00 0.000000e+00 0.000000e+00 0.000000e+00 9.699700e-01 3.003003e-02
 0.000000e+00 0.000000e+00 0.000000e+00 0.000000e+00 0.000000e+00 0.000000e+00 0.000000e+00 0.000000e+00
<ENDHMM>
