~o
<STREAMINFO> 1 3
<VECSIZE> 3<NULLD><USER><DIAGC>
~h "a"
<BEGINHMM>
<NUMSTATES> 8
<STATE> 2
<NUMMIXES> 2
<MIXTURE> 1 6.032776e-01
<MEAN> 3
 3.841792e+00 3.736946e+00 1.925894e+00
<VARIANCE> 3
 8.742011e+00 5.694146e+00 1.002912e+01
<GCONST> 1.172670e+01
<MIXTURE> 2 3.967225e-01
<MEAN> 3
 2.260058e-01 -5.463488e+01 -1.000000e+02
<VARIANCE> 3
 5.341414e-01 2.498935e+03 1.000000e-02
<GCONST> 8.104986e+00
<STATE> 3
<NUMMIXES> 2
<MIXTURE> 1 9.930299e-03
<MEAN> 3
 3.164875e+00 2.974985e+00 -2.138305e+01
<VARIANCE> 3
 8.636383e+00 8.935836e+00 1.840649e+03
<GCONST> 1.737756e+01
<MIXTURE> 2 9.900687e-01
<MEAN> 3
 -5.903115e-04 -1.000000e+02 -1.000000e+02
<VARIANCE> 3
 1.000000e-02 1.000000e-02 1.000000e-02
<GCONST> -8.301880e+00
<STATE> 4
<NUMMIXES> 2
<MIXTURE> 1 9.914319e-01
<MEAN> 3
 5.245301e+00 5.763378e+00 4.443851e+00
<VARIANCE> 3
 9.705834e+00 6.531659e+00 8.264627e+00
<GCONST> 1.177501e+01
<MIXTURE> 2 8.568401e-03
<MEAN> 3
 1.823854e-01 -5.459625e+01 -1.000000e+02
<VARIANCE> 3
 4.955674e-02 2.496672e+03 1.000000e-02
<GCONST> 5.726538e+00
<STATE> 5
<NUMMIXES> 2
<MIXTURE> 1 9.738591e-01
<MEAN> 3
 1.709290e+00 1.161379e-01 -5.747791e-01
<VARIANCE> 3
 5.615729e+00 3.506666e-01 4.017620e+01
<GCONST> 9.884559e+00
<MIXTURE> 2 2.614165e-02
<MEAN> 3
 9.182607e-02 -5.244383e+01 -1.000000e+02
<VARIANCE> 3
 1.498479e-02 2.520353e+03 1.000000e-02
<GCONST> 4.539896e+00
<STATE> 6
<NUMMIXES> 2
<MIXTURE> 1 9.901788e-01
<MEAN> 3
 4.692175e+00 9.170378e-01 1.282450e-03
<VARIANCE> 3
 9.268958e+00 3.074546e+00 1.000000e-02
<GCONST> 4.258289e+00
<MIXTURE> 2 9.821327e-03
<MEAN> 3
 3.700345e-02 -4.979663e+01 -1.000000e+02
<VARIANCE> 3
 1.000000e-02 2.522380e+03 1.000000e-02
<GCONST> 4.136249e+00
<STATE> 7
<NUMMIXES> 2
<MIXTURE> 1 9.557972e-02
<MEAN> 3
 2.064063e-02 -6.904064e+00 7.975300e-02
<VARIANCE> 3
 1.000000e-02 1.340872e+01 1.327312e-01
<GCONST> 1.484937e+00
<MIXTURE> 2 9.044085e-01
<MEAN> 3
 -7.411179e-04 -1.807735e+00 -1.000000e+02
<VARIANCE> 3
 1.000000e-02 4.824733e+01 1.000000e-02
<GCONST> 1.796312e-01
<TRANSP> 8
 0.000000e+00 1.000000e+00 0.000000e+00 0.000000e+00 0.000000e+00 0.000000e+00 0.000000e+00 0.000000e+00
 0.000000e+00 3.921863e-07 9.999996e-01 0.000000e+00 0.000000e+00 0.000000e+00 0.000000e+00 0.000000e+00
 0.000000e+00 0.000000e+00 9.873359e-01 1.266410e-02 0.000000e+00 0.000000e+00 0.000000e+00 0.000000e+00
 0.000000e+00 0.000000e+00 0.000000e+00 9.784290e-01 2.157099e-02 0.000000e+00 0.000000e+00 0.000000e+00
 0.000000e+00 0.000000e+00 0.000000e+00 0.000000e+00 9.366782e-01 6.332175e-02 0.000000e+00 0.000000e+00
 0.000000e+00 0.000000e+00 0.000000e+00 0.000000e+00 0.000000e+00 9.774225e-01 2.257745e-02 0.000000e+00
 0.000000e+00 0.000000e+00 0.000000e+00 0.000000e+00 0.000000e+00 0.000000e+00 9.834273e-01 1.657267e-02
 0.000000e+00 0.000000e+00 0.000000e+00 0.000000e+00 0.000000e+00 0.000000e+00 0.000000e+00 0.000000e+00
<ENDHMM>
~h "e"
<BEGINHMM>
<NUMSTATES> 8
<STATE> 2
<NUMMIXES> 2
<MIXTURE> 1 9.935731e-01
<MEAN> 3
 5.404537e-04 -9.504986e-04 -2.332855e-03
<VARIANCE> 3
 1.000000e-02 1.000000e-02 1.000000e-02
<GCONST> -8.301880e+00
<MIXTURE> 2 6.426239e-03
<MEAN> 3
 -1.353759e-01 -5.174640e+01 -1.000000e+02
<VARIANCE> 3
 2.505636e-02 2.272466e+03 1.000000e-02
<GCONST> 4.950455e+00
<STATE> 3
<NUMMIXES> 2
<MIXTURE> 1 9.919463e-01
<MEAN> 3
 -1.804659e-03 -2.979488e+00 -5.516910e+00
<VARIANCE> 3
 1.000000e-02 1.475833e+01 1.771475e+01
<GCONST> 6.474667e+00
<MIXTURE> 2 8.052240e-03
<MEAN> 3
 -2.389080e-01 -5.154331e+01 -1.000000e+02
<VARIANCE> 3
 6.087019e-02 2.272689e+03 1.000000e-02
<GCONST> 5.838168e+00
<STATE> 4
<NUMMIXES> 2
<MIXTURE> 1 9.767320e-01
<MEAN> 3
 -5.579587e+00 -3.018090e+00 -5.163122e-01
<VARIANCE> 3
 1.385173e+01 1.166794e+01 2.053913e+00
<GCONST> 1.131863e+01
<MIXTURE> 2 2.326988e-02
<MEAN> 3
 -3.774031e-01 -5.035980e+01 -1.000000e+02
<VARIANCE> 3
 1.430253e-01 2.272099e+03 1.000000e-02
<GCONST> 6.692186e+00
<STATE> 5
<NUMMIXES> 2
<MIXTURE> 1 9.665960e-01
<MEAN> 3
 -2.715259e+00 -7.891225e+00 -8.447041e+00
<VARIANCE> 3
 4.314022e+00 8.606193e+00 5.012024e+00
<GCONST> 1.073982e+01
<MIXTURE> 2 3.340359e-02
<MEAN> 3
 -5.556031e-01 -4.893561e+01 -1.000000e+02
<VARIANCE> 3
 3.387558e-01 2.270000e+03 1.000000e-02
<GCONST> 7.553520e+00
<STATE> 6
<NUMMIXES> 2
<MIXTURE> 1 3.142356e-02
<MEAN> 3
 -7.271453e+00 -2.761452e+00 -1.147759e-02
<VARIANCE> 3
 9.340878e+00 1.669662e+01 4.145645e+01
<GCONST> 1.428788e+01
<MIXTURE> 2 9.685755e-01
<MEAN> 3
 -7.538702e+00 -4.889896e+00 -1.000000e+02
<VARIANCE> 3
 9.993479e+00 5.922697e+01 1.000000e-02
<GCONST> 7.291771e+00
<STATE> 7
<NUMMIXES> 2
<MIXTURE> 1 9.862070e-01
<MEAN> 3
 -9.347870e+00 -9.242935e+00 -7.966809e+00
<VARIANCE> 3
 2.874445e+00 2.643512e+00 7.144912e+00
<GCONST> 9.507999e+00
<MIXTURE> 2 1.379394e-02
<MEAN> 3
 -2.091240e+00 -4.931596e+01 -1.000000e+02
<VARIANCE> 3
 4.988286e+00 2.392213e+03 1.000000e-02
<GCONST> 1.029553e+01
<TRANSP> 8
 0.000000e+00 1.000000e+00 0.000000e+00 0.000000e+00 0.000000e+00 0.000000e+00 0.000000e+00 0.000000e+00
 0.000000e+00 9.854311e-01 1.456884e-02 0.000000e+00 0.000000e+00 0.000000e+00 0.000000e+00 0.000000e+00
 0.000000e+00 0.000000e+00 9.818215e-01 1.817852e-02 0.000000e+00 0.000000e+00 0.000000e+00 0.000000e+00
 0.000000e+00 0.000000e+00 0.000000e+00 9.487662e-01 5.123371e-02 0.000000e+00 0.000000e+00 0.000000e+00
 0.000000e+00 0.000000e+00 0.000000e+00 0.000000e+00 9.286603e-01 7.133974e-02 0.000000e+00 0.000000e+00
 0.000000e+00 0.000000e+00 0.000000e+00 0.000000e+00 0.000000e+00 9.804720e-01 1.952801e-02 0.000000e+00
 0.000000e+00 0.000000e+00 0.000000e+00 0.000000e+00 0.000000e+00 0.000000e+00 9.694655e-01 3.053451e-02
 0.000000e+00 0.000000e+00 0.000000e+00 0.000000e+00 0.000000e+00 0.000000e+00 0.000000e+00 0.000000e+00
<ENDHMM>
~h "i"
<BEGINHMM>
<NUMSTATES> 8
<STATE> 2
<NUMMIXES> 2
<MIXTURE> 1 9.742723e-01
<MEAN> 3
 -1.895577e+00 -3.815733e+00 -8.318623e+00
<VARIANCE> 3
 1.242582e+01 1.848206e+01 8.450459e+00
<GCONST> 1.308443e+01
<MIXTURE> 2 2.572856e-02
<MEAN> 3
 -1.671751e+00 -4.922547e+01 -1.000000e+02
<VARIANCE> 3
 3.253588e+00 2.394230e+03 1.000000e-02
<GCONST> 9.869037e+00
<STATE> 3
<NUMMIXES> 2
<MIXTURE> 1 9.830836e-01
<MEAN> 3
 -7.964839e+00 -8.164352e+00 -5.078536e-03
<VARIANCE> 3
 9.166674e+00 7.421610e+00 1.000000e-02
<GCONST> 5.128432e+00
<MIXTURE> 2 1.691579e-02
<MEAN> 3
 -1.267076e+00 -4.923771e+01 -1.000000e+02
<VARIANCE> 3
 1.996424e+00 2.396836e+03 1.000000e-02
<GCONST> 9.381724e+00
<STATE> 4
<NUMMIXES> 2
<MIXTURE> 1 9.818938e-01
<MEAN> 3
 -7.791809e+00 -2.902787e-03 7.895071e-03
<VARIANCE> 3
 8.792468e+00 1.000000e-02 1.000000e-02
<GCONST> -1.522814e+00
<MIXTURE> 2 1.810632e-02
<MEAN> 3
 -9.423245e-01 -4.741089e+01 -1.000000e+02
<VARIANCE> 3
 1.180586e+00 2.396720e+03 1.000000e-02
<GCONST> 8.856329e+00
<STATE> 5
<NUMMIXES> 2
<MIXTURE> 1 9.931452e-01
<MEAN> 3
 -2.597416e-03 9.269706e-04 1.280148e-03
<VARIANCE> 3
 1.000000e-02 1.000000e-02 1.000000e-02
<GCONST> -8.301880e+00
<MIXTURE> 2 6.854569e-03
<MEAN> 3
 -6.160052e-01 -4.850369e+01 -1.000000e+02
<VARIANCE> 3
 7.138349e-01 2.401342e+03 1.000000e-02
<GCONST> 8.355141e+00
<STATE> 6
<NUMMIXES> 2
<MIXTURE> 1 9.390345e-01
<MEAN> 3
 -6.459926e+00 3.501492e-01 1.428453e+00
<VARIANCE> 3
 1.639807e+01 7.333664e-01 4.363507e+00
<GCONST> 9.473961e+00
<MIXTURE> 2 6.096527e-02
<MEAN> 3
 -3.902903e-01 -4.694588e+01 -1.000000e+02
<VARIANCE> 3
 4.398064e-01 2.398320e+03 1.000000e-02
<GCONST> 7.869565e+00
<STATE> 7
<NUMMIXES> 2
<MIXTURE> 1 9.574500e-01
<MEAN> 3
 4.819268e-04 2.319456e+00 5.197716e-01
<VARIANCE> 3
 1.000000e-02 3.666489e+00 1.477570e+00
<GCONST> 2.598094e+00
<MIXTURE> 2 4.255041e-02
<MEAN> 3
 -1.685914e-01 -4.813549e+01 -1.000000e+02
<VARIANCE> 3
 2.535712e-01 2.404011e+03 1.000000e-02
<GCONST> 7.321244e+00
<TRANSP> 8
 0.000000e+00 1.000000e+00 0.000000e+00 0.000000e+00 0.000000e+00 0.000000e+00 0.000000e+00 0.000000e+00
 0.000000e+00 9.431271e-01 5.687295e-02 0.000000e+00 0.000000e+00 0.000000e+00 0.000000e+00 0.000000e+00
 0.000000e+00 0.000000e+00 9.625767e-01 3.742334e-02 0.000000e+00 0.000000e+00 0.000000e+00 0.000000e+00
 0.000000e+00 0.000000e+00 0.000000e+00 9.614102e-01 3.858983e-02 0.000000e+00 0.000000e+00 0.000000e+00
 0.000000e+00 0.000000e+00 0.000000e+00 0.000000e+00 9.850466e-01 1.495348e-02 0.000000e+00 0.000000e+00
 0.000000e+00 0.000000e+00 0.000000e+00 0.000000e+00 0.000000e+00 8.712510e-01 1.287490e-01 0.000000e+00
 0.000000e+00 0.000000e+00 0.000000e+00 0.000000e+00 0.000000e+00 0.000000e+00 9.078203e-01 9.217970e-02
 0.000000e+00 0.000000e+00 0.000000e+00 0.000000e+00 0.000000e+00 0.000000e+00 0.000000e+00 0.000000e+00
<ENDHMM>
~h "m"
<BEGINHMM>
<NUMSTATES> 8
<STATE> 2
<NUMMIXES> 2
<MIXTURE> 1 2.556683e-02
<MEAN> 3
 -8.724035e-03 4.939540e+00 1.588324e+02
<VARIANCE> 3
 8.271071e-02 1.462920e+01 5.053461e+04
<GCONST> 1.653466e+01
<MIXTURE> 2 9.744344e-01
<MEAN> 3
 1.137896e-03 -3.030264e-01 -1.000000e+02
<VARIANCE> 3
 1.000000e-02 4.446186e+01 1.000000e-02
<GCONST> 9.792280e-02
<STATE> 3
<NUMMIXES> 2
<MIXTURE> 1 9.740180e-01
<MEAN> 3
 4.248586e-03 1.020876e-02 3.270627e+00
<VARIANCE> 3
 1.000000e-02 1.000000e-02 9.232102e+00
<GCONST> -1.474022e+00
<MIXTURE> 2 2.598193e-02
<MEAN> 3
 2.832827e-01 -4.159690e+01 -1.000000e+02
<VARIANCE> 3
 1.465199e-02 2.522000e+03 1.000000e-02
<GCONST> 4.518090e+00
<STATE> 4
<NUMMIXES> 2
<MIXTURE> 1 9.838482e-01
<MEAN> 3
 3.478451e+00 3.140428e+00 5.237938e-02
<VARIANCE> 3
 1.163141e+01 1.019648e+01 1.693036e-01
<GCONST> 8.513321e+00
<MIXTURE> 2 1.614928e-02
<MEAN> 3
 4.601600e-01 -4.164565e+01 -1.000000e+02
<VARIANCE> 3
 2.934399e-02 2.521567e+03 1.000000e-02
<GCONST> 5.212429e+00
<STATE> 5
<NUMMIXES> 2
<MIXTURE> 1 9.787730e-01
<MEAN> 3
 5.158637e-01 4.330777e+00 3.924277e+00
<VARIANCE> 3
 8.722264e-01 7.908968e+00 1.042175e+01
<GCONST> 9.788817e+00
<MIXTURE> 2 2.122165e-02
<MEAN> 3
 6.672741e-01 -4.136365e+01 -1.000000e+02
<VARIANCE> 3
 6.394233e-02 2.517069e+03 1.000000e-02
<GCONST> 5.989538e+00
<STATE> 6
<NUMMIXES> 2
<MIXTURE> 1 6.521553e-02
<MEAN> 3
 4.885091e+00 6.764474e+00 2.330641e+02
<VARIANCE> 3
 8.560331e+00 6.748815e+00 7.496167e+04
<GCONST> 2.079487e+01
<MIXTURE> 2 9.347856e-01
<MEAN> 3
 4.226077e+00 1.011581e+00 -1.000000e+02
<VARIANCE> 3
 8.334363e+00 5.213834e+01 1.000000e-02
<GCONST> 6.982749e+00
<STATE> 7
<NUMMIXES> 2
<MIXTURE> 1 2.510307e-02
<MEAN> 3
 6.387366e+00 3.106526e+02 2.193912e+02
<VARIANCE> 3
 8.751530e+00 7.139267e+04 2.100739e+04
<GCONST> 2.881144e+01
<MIXTURE> 2 9.748934e-01
<MEAN> 3
 -1.809660e+00 -1.000000e+02 -1.000000e+02
<VARIANCE> 3
 2.349836e+01 1.000000e-02 1.000000e-02
<GCONST> -5.397787e-01
<TRANSP> 8
 0.000000e+00 1.000000e+00 0.000000e+00 0.000000e+00 0.000000e+00 0.000000e+00 0.000000e+00 0.000000e+00
 0.000000e+00 9.830275e-01 1.697246e-02 0.000000e+00 0.000000e+00 0.000000e+00 0.000000e+00 0.000000e+00
 0.000000e+00 0.000000e+00 9.492585e-01 5.074149e-02 0.000000e+00 0.000000e+00 0.000000e+00 0.000000e+00
 0.000000e+00 0.000000e+00 0.000000e+00 9.684326e-01 3.156736e-02 0.000000e+00 0.000000e+00 0.000000e+00
 0.000000e+00 0.000000e+00 0.000000e+00 0.000000e+00 9.587930e-01 4.120697e-02 0.000000e+00 0.000000e+00
 0.000000e+00 0.000000e+00 0.000000e+00 0.000000e+00 0.000000e+00 9.810228e-01 1.897719e-02 0.000000e+00
 0.000000e+00 0.000000e+00 0.000000e+00 0.000000e+00 0.000000e+00 0.000000e+00 9.925017e-01 7.498283e-03
 0.000000e+00 0.000000e+00 0.000000e+00 0.000000e+00 0.000000e+00 0.000000e+00 0.000000e+00 0.000000e+00
<ENDHMM>
~h "sil"
<BEGINHMM>
<NUMSTATES> 8
<STATE> 2
<NUMMIXES> 2
<MIXTURE> 1 9.158448e-01
<MEAN> 3
 9.388752e+00 -7.808214e-05 1.907662e-03
<VARIANCE> 3
 5.004694e+00 1.000000e-02 1.000000e-02
<GCONST> -2.086333e+00
<MIXTURE> 2 8.415493e-02
<MEAN> 3
 7.481227e+00 -1.746411e+01 -1.668992e+01
<VARIANCE> 3
 7.137233e+00 9.845927e+02 1.001198e+03
<GCONST> 2.128014e+01
<STATE> 3
<NUMMIXES> 2
<MIXTURE> 1 9.175858e-01
<MEAN> 3
 9.739368e+00 2.117958e+00 1.263036e+00
<VARIANCE> 3
 2.961387e+00 2.632737e+00 1.586488e+00
<GCONST> 8.028836e+00
<MIXTURE> 2 8.241446e-02
<MEAN> 3
 4.014410e+00 -1.000000e+02 -1.000000e+02
<VARIANCE> 3
 3.633177e+00 1.000000e-02 1.000000e-02
<GCONST> -2.406602e+00
<STATE> 4
<NUMMIXES> 2
<MIXTURE> 1 8.174141e-02
<MEAN> 3
 7.308775e+00 -2.350860e+01 -2.100068e+01
<VARIANCE> 3
 1.286887e+01 1.982241e+03 2.124528e+03
<GCONST> 2.332173e+01
<MIXTURE> 2 9.182587e-01
<MEAN> 3
 7.735238e+00 5.328464e-03 3.785398e+00
<VARIANCE> 3
 1.483854e+01 1.000000e-02 9.870102e+00
<GCONST> 5.895199e+00
<STATE> 5
<NUMMIXES> 2
<MIXTURE> 1 3.332293e-02
<MEAN> 3
 5.304948e+00 -6.384685e+01 -6.285167e+01
<VARIANCE> 3
 9.556543e+00 2.341138e+03 2.474240e+03
<GCONST> 2.334294e+01
<MIXTURE> 2 9.666774e-01
<MEAN> 3
 6.560318e+00 4.879643e+00 2.057507e-03
<VARIANCE> 3
 6.250129e+00 7.328523e+00 1.000000e-02
<GCONST> 4.732837e+00
<STATE> 6
<NUMMIXES> 2
<MIXTURE> 1 4.322361e-02
<MEAN> 3
 4.096109e+00 -1.000000e+02 -1.000000e+02
<VARIANCE> 3
 3.809411e+00 1.000000e-02 1.000000e-02
<GCONST> -2.359235e+00
<MIXTURE> 2 9.567765e-01
<MEAN> 3
 6.145242e+00 1.463974e+00 4.147614e+00
<VARIANCE> 3
 5.856212e+00 1.318009e+00 6.953622e+00
<GCONST> 9.496519e+00
<STATE> 7
<NUMMIXES> 2
<MIXTURE> 1 9.533110e-02
<MEAN> 3
 4.980356e+00 -5.344025e+01 -5.353836e+01
<VARIANCE> 3
 7.138456e+00 2.656042e+03 2.647345e+03
<GCONST> 2.324503e+01
<MIXTURE> 2 9.046678e-01
<MEAN> 3
 5.612714e+00 1.897374e-03 -7.691414e+00
<VARIANCE> 3
 5.398534e+00 1.000000e-02 1.030363e+01
<GCONST> 4.927085e+00
<TRANSP> 8
 0.000000e+00 1.000000e+00 0.000000e+00 0.000000e+00 0.000000e+00 0.000000e+00 0.000000e+00 0.000000e+00
 0.000000e+00 9.791018e-01 2.089821e-02 0.000000e+00 0.000000e+00 0.000000e+00 0.000000e+00 0.000000e+00
 0.000000e+00 0.000000e+00 8.835588e-01 1.164412e-01 0.000000e+00 0.000000e+00 0.000000e+00 0.000000e+00
 0.000000e+00 0.000000e+00 0.000000e+00 9.586515e-01 4.134848e-02 0.000000e+00 0.000000e+00 0.000000e+00
 0.000000e+00 0.000000e+00 0.000000e+00 0.000000e+00 9.572311e-01 4.276889e-02 0.000000e+00 0.000000e+00
 0.000000e+00 0.000000e+00 0.000000e+00 0.000000e+00 0.000000e+00 9.258071e-01 7.419293e-02 0.000000e+00
 0.000000e+00 0.000000e+00 0.000000e+00 0.000000e+00 0.000000e+00 0.000000e+00 8.950220e-01 1.049780e-01
 0.000000e+00 0.000000e+00 0.000000e+00 0.000000e+00 0.000000e+00 0.000000e+00 0.000000e+00 0.000000e+00
<ENDHMM>
