~o
<STREAMINFO> 1 1
<VECSIZE> 1<NULLD><USER><DIAGC>
~h "a"
<BEGINHMM>
<NUMSTATES> 8
<STATE> 2
<MEAN> 1
 3.236954e+00
<VARIANCE> 1
 3.456791e+00
<GCONST> 3.078218e+00
<STATE> 3
<MEAN> 1
 1.024630e+01
<VARIANCE> 1
 2.415947e+00
<GCONST> 2.719968e+00
<STATE> 4
<MEAN> 1
 7.017927e+00
<VARIANCE> 1
 1.112724e+00
<GCONST> 1.944688e+00
<STATE> 5
<MEAN> 1
 4.437976e+00
<VARIANCE> 1
 8.554386e-01
<GCONST> 1.681736e+00
<STATE> 6
<MEAN> 1
 1.714617e+00
<VARIANCE> 1
 9.007965e-01
<GCONST> 1.733401e+00
<STATE> 7
<MEAN> 1
 1.917968e-03
<VARIANCE> 1
 1.000000e-02
<GCONST> -2.767293e+00
<TRANSP> 8
 0.000000e+00 1.000000e+00 0.000000e+00 0.000000e+00 0.000000e+00 0.000000e+00 0.000000e+00 0.000000e+00
 0.000000e+00 9.418004e-01 5.819964e-02 0.000000e+00 0.000000e+00 0.000000e+00 0.000000e+00 0.000000e+00
 0.000000e+00 0.000000e+00 9.768635e-01 2.313655e-02 0.000000e+00 0.000000e+00 0.000000e+00 0.000000e+00
 0.000000e+00 0.000000e+00 0.000000e+00 9.618608e-01 3.813920e-02 0.000000e+00 0.000000e+00 0.000000e+00
 0.000000e+00 0.000000e+00 0.000000e+00 0.000000e+00 9.592565e-01 4.074353e-02 0.000000e+00 0.000000e+00
 0.000000e+00 0.000000e+00 0.000000e+00 0.000000e+00 0.000000e+00 9.512531e-01 4.874685e-02 0.000000e+00
 0.000000e+00 0.000000e+00 0.000000e+00 0.000000e+00 0.000000e+00 0.000000e+00 9.919649e-01 8.035135e-03
 0.000000e+00 0.000000e+00 0.000000e+00 0.000000e+00 0.000000e+00 0.000000e+00 0.000000e+00 0.000000e+00
<ENDHMM>
~h "e"
<BEGINHMM>
<NUMSTATES> 8
<STATE> 2
<MEAN> 1
 -1.419139e-03
<VARIANCE> 1
 1.000000e-02
<GCONST> -2.767293e+00
<STATE> 3
<MEAN> 1
 -7.778234e-01
<VARIANCE> 1
 1.362296e-01
<GCONST> -1.555362e-01
<STATE> 4
<MEAN> 1
 -2.218883e+00
<VARIANCE> 1
 6.495789e-01
<GCONST> 1.406446e+00
<STATE> 5
<MEAN> 1
 -4.396449e+00
<VARIANCE> 1
 4.795653e-01
<GCONST> 1.103002e+00
<STATE> 6
<MEAN> 1
 -6.222092e+00
<VARIANCE> 1
 4.691868e-01
<GCONST> 1.081123e+00
<STATE> 7
<MEAN> 1
 -8.746478e+00
<VARIANCE> 1
 6.654177e-01
<GCONST> 1.430537e+00
<TRANSP> 8
 0.000000e+00 1.000000e+00 0.000000e+00 0.000000e+00 0.000000e+00 0.000000e+00 0.000000e+00 0.000000e+00
 0.000000e+00 9.921461e-01 7.853841e-03 0.000000e+00 0.000000e+00 0.000000e+00 0.000000e+00 0.000000e+00
 0.000000e+00 0.000000e+00 9.408039e-01 5.919605e-02 0.000000e+00 0.000000e+00 0.000000e+00 0.000000e+00
 0.000000e+00 0.000000e+00 0.000000e+00 9.398171e-01 6.018285e-02 0.000000e+00 0.000000e+00 0.000000e+00
 0.000000e+00 0.000000e+00 0.000000e+00 0.000000e+00 9.099005e-01 9.009950e-02 0.000000e+00 0.000000e+00
 0.000000e+00 0.000000e+00 0.000000e+00 0.000000e+00 0.000000e+00 9.436105e-01 5.638950e-02 0.000000e+00
 0.000000e+00 0.000000e+00 0.000000e+00 0.000000e+00 0.000000e+00 0.000000e+00 9.603085e-01 3.969155e-02
 0.000000e+00 0.000000e+00 0.000000e+00 0.000000e+00 0.000000e+00 0.000000e+00 0.000000e+00 0.000000e+00
<ENDHMM>
~h "i"
<BEGINHMM>
<NUMSTATES> 8
<STATE> 2
<MEAN> 1
 -1.042368e+01
<VARIANCE> 1
 2.890828e-01
<GCONST> 5.968349e-01
<STATE> 3
<MEAN> 1
 -8.383706e+00
<VARIANCE> 1
 2.352296e+00
<GCONST> 2.693269e+00
<STATE> 4
<MEAN> 1
 -4.810794e+00
<VARIANCE> 1
 2.991372e+00
<GCONST> 2.933609e+00
<STATE> 5
<MEAN> 1
 -2.057101e+00
<VARIANCE> 1
 5.443062e-02
<GCONST> -1.072951e+00
<STATE> 6
<MEAN> 1
 -1.065018e+00
<VARIANCE> 1
 1.362814e-01
<GCONST> -1.551566e-01
<STATE> 7
<MEAN> 1
 -3.322763e-01
<VARIANCE> 1
 1.426885e-02
<GCONST> -2.411799e+00
<TRANSP> 8
 0.000000e+00 1.000000e+00 0.000000e+00 0.000000e+00 0.000000e+00 0.000000e+00 0.000000e+00 0.000000e+00
 0.000000e+00 9.859036e-01 1.409644e-02 0.000000e+00 0.000000e+00 0.000000e+00 0.000000e+00 0.000000e+00
 0.000000e+00 0.000000e+00 9.827353e-01 1.726475e-02 0.000000e+00 0.000000e+00 0.000000e+00 0.000000e+00
 0.000000e+00 0.000000e+00 0.000000e+00 9.095259e-01 9.047400e-02 0.000000e+00 0.000000e+00 0.000000e+00
 0.000000e+00 0.000000e+00 0.000000e+00 0.000000e+00 0.000000e+00 1.000000e+00 0.000000e+00 0.000000e+00
 0.000000e+00 0.000000e+00 0.000000e+00 0.000000e+00 0.000000e+00 6.978995e-01 3.021005e-01 0.000000e+00
 0.000000e+00 0.000000e+00 0.000000e+00 0.000000e+00 0.000000e+00 0.000000e+00 2.350997e-01 7.649003e-01
 0.000000e+00 0.000000e+00 0.000000e+00 0.000000e+00 0.000000e+00 0.000000e+00 0.000000e+00 0.000000e+00
<ENDHMM>
~h "m"
<BEGINHMM>
<NUMSTATES> 8
<STATE> 2
<MEAN> 1
 8.060025e-04
<VARIANCE> 1
 1.000000e-02
<GCONST> -2.767293e+00
<STATE> 3
<MEAN> 1
 8.904088e-01
<VARIANCE> 1
 5.061823e-02
<GCONST> -1.145566e+00
<STATE> 4
<MEAN> 1
 1.394362e+00
<VARIANCE> 1
 8.114188e-01
<GCONST> 1.628906e+00
<STATE> 5
<MEAN> 1
 3.226770e+00
<VARIANCE> 1
 5.731179e-01
<GCONST> 1.281213e+00
<STATE> 6
<MEAN> 1
 5.310832e+00
<VARIANCE> 1
 4.419580e-01
<GCONST> 1.021337e+00
<STATE> 7
<MEAN> 1
 8.039330e+00
<VARIANCE> 1
 1.193042e+00
<GCONST> 2.014383e+00
<TRANSP> 8
 0.000000e+00 1.000000e+00 0.000000e+00 0.000000e+00 0.000000e+00 0.000000e+00 0.000000e+00 0.000000e+00
 0.000000e+00 9.962279e-01 3.772083e-03 0.000000e+00 0.000000e+00 0.000000e+00 0.000000e+00 0.000000e+00
 0.000000e+00 0.000000e+00 9.223965e-01 7.760350e-02 0.000000e+00 0.000000e+00 0.000000e+00 0.000000e+00
 0.000000e+00 0.000000e+00 0.000000e+00 9.489825e-01 5.101753e-02 0.000000e+00 0.000000e+00 0.000000e+00
 0.000000e+00 0.000000e+00 0.000000e+00 0.000000e+00 9.362305e-01 6.376950e-02 0.000000e+00 0.000000e+00
 0.000000e+00 0.000000e+00 0.000000e+00 0.000000e+00 0.000000e+00 9.304780e-01 6.952206e-02 0.000000e+00
 0.000000e+00 0.000000e+00 0.000000e+00 0.000000e+00 0.000000e+00 0.000000e+00 9.446962e-01 5.530373e-02
 0.000000e+00 0.000000e+00 0.000000e+00 0.000000e+00 0.000000e+00 0.000000e+00 0.000000e+00 0.000000e+00
<ENDHMM>
~h "sil"
<BEGINHMM>
<NUMSTATES> 8
<STATE> 2
<MEAN> 1
 1.248385e+01
<VARIANCE> 1
 9.483101e+00
<GCONST> 4.087388e+00
<STATE> 3
<MEAN> 1
 1.070928e+01
<VARIANCE> 1
 6.542852e-01
<GCONST> 1.413665e+00
<STATE> 4
<MEAN> 1
 8.893861e+00
<VARIANCE> 1
 8.982133e-01
<GCONST> 1.730529e+00
<STATE> 5
<MEAN> 1
 7.352582e+00
<VARIANCE> 1
 1.273538e+00
<GCONST> 2.079676e+00
<STATE> 6
<MEAN> 1
 3.035696e+00
<VARIANCE> 1
 3.627051e+00
<GCONST> 3.126297e+00
<STATE> 7
<MEAN> 1
 6.093439e+00
<VARIANCE> 1
 1.041445e+00
<GCONST> 1.878486e+00
<TRANSP> 8
 0.000000e+00 1.000000e+00 0.000000e+00 0.000000e+00 0.000000e+00 0.000000e+00 0.000000e+00 0.000000e+00
 0.000000e+00 9.476919e-01 5.230816e-02 0.000000e+00 0.000000e+00 0.000000e+00 0.000000e+00 0.000000e+00
 0.000000e+00 0.000000e+00 9.827479e-01 1.725216e-02 0.000000e+00 0.000000e+00 0.000000e+00 0.000000e+00
 0.000000e+00 0.000000e+00 0.000000e+00 9.527636e-01 4.723640e-02 0.000000e+00 0.000000e+00 0.000000e+00
 0.000000e+00 0.000000e+00 0.000000e+00 0.000000e+00 9.089825e-01 9.101746e-02 0.000000e+00 0.000000e+00
 0.000000e+00 0.000000e+00 0.000000e+00 0.000000e+00 0.000000e+00 8.648045e-01 1.351955e-01 0.000000e+00
 0.000000e+00 0.000000e+00 0.000000e+00 0.000000e+00 0.000000e+00 0.000000e+00 9.328498e-01 6.715026e-02
 0.000000e+00 0.000000e+00 0.000000e+00 0.000000e+00 0.000000e+00 0.000000e+00 0.000000e+00 0.000000e+00
<ENDHMM>
