~o
<STREAMINFO> 1 3
<VECSIZE> 3<NULLD><USER><DIAGC>
~h "a"
<BEGINHMM>
<NUMSTATES> 8
<STATE> 2
<NUMMIXES> 2
<MIXTURE> 1 9.783703e-01
<MEAN> 3
 5.772564e+00 4.293394e+00 4.562844e+00
<VARIANCE> 3
 9.349529e+00 7.873545e+00 6.759616e+00
<GCONST> 1.172343e+01
<MIXTURE> 2 2.162988e-02
<MEAN> 3
 3.574011e+00 -1.578515e+00 -1.000000e+02
<VARIANCE> 3
 1.283218e+01 1.100540e+01 1.000000e-02
<GCONST> 5.858804e+00
<STATE> 3
<NUMMIXES> 2
<MIXTURE> 1 9.863719e-01
<MEAN> 3
 3.521348e+00 4.584718e+00 3.212543e-03
<VARIANCE> 3
 8.770474e+00 8.556375e+00 1.000000e-02
<GCONST> 5.226529e+00
<MIXTURE> 2 1.362609e-02
<MEAN> 3
 3.921702e-01 -2.442321e+00 -1.000000e+02
<VARIANCE> 3
 1.802335e-01 1.299935e+01 1.000000e-02
<GCONST> 1.759858e+00
<STATE> 4
<NUMMIXES> 2
<MIXTURE> 1 9.902008e-01
<MEAN> 3
 4.569707e+00 2.761602e-03 3.124683e-04
<VARIANCE> 3
 8.490837e+00 1.000000e-02 1.000000e-02
<GCONST> -1.557722e+00
<MIXTURE> 2 9.800164e-03
<MEAN> 3
 2.219845e-01 -2.327156e+00 -1.000000e+02
<VARIANCE> 3
 6.410320e-02 1.263029e+01 1.000000e-02
<GCONST> 6.972980e-01
<STATE> 5
<NUMMIXES> 2
<MIXTURE> 1 9.565690e-01
<MEAN> 3
 1.419598e+00 -3.614192e+00 1.474839e-01
<VARIANCE> 3
 5.808811e+00 3.290598e+01 3.467047e+00
<GCONST> 1.200996e+01
<MIXTURE> 2 4.343156e-02
<MEAN> 3
 2.018452e-01 -2.107940e+00 -1.000000e+02
<VARIANCE> 3
 8.064640e-02 1.316829e+01 1.000000e-02
<GCONST> 9.685917e-01
<STATE> 6
<NUMMIXES> 2
<MIXTURE> 1 7.788994e-01
<MEAN> 3
 2.131855e-03 -4.673444e-04 -2.600136e-03
<VARIANCE> 3
 1.000000e-02 1.000000e-02 1.000000e-02
<GCONST> -8.301880e+00
<MIXTURE> 2 2.210616e-01
<MEAN> 3
 4.541609e-04 -5.878267e+00 -1.000000e+02
<VARIANCE> 3
 1.000000e-02 1.721427e+01 1.000000e-02
<GCONST> -8.509707e-01
<STATE> 7
<NUMMIXES> 2
<MIXTURE> 1 9.496527e-01
<MEAN> 3
 1.039998e-03 -2.359440e-01 -6.314225e-01
<VARIANCE> 3
 1.000000e-02 1.850821e-01 2.665736e-01
<GCONST> -2.100600e+00
<MIXTURE> 2 5.034777e-02
<MEAN> 3
 -7.967824e-02 -3.057673e+00 -1.000000e+02
<VARIANCE> 3
 1.466388e-02 2.014936e+01 1.000000e-02
<GCONST> -3.107338e-01
<TRANSP> 8
 0.000000e+00 1.000000e+00 0.000000e+00 0.000000e+00 0.000000e+00 0.000000e+00 0.000000e+00 0.000000e+00
 0.000000e+00 9.710028e-01 2.899723e-02 0.000000e+00 0.000000e+00 0.000000e+00 0.000000e+00 0.000000e+00
 0.000000e+00 0.000000e+00 9.666646e-01 3.333542e-02 0.000000e+00 0.000000e+00 0.000000e+00 0.000000e+00
 0.000000e+00 0.000000e+00 0.000000e+00 9.749936e-01 2.500635e-02 0.000000e+00 0.000000e+00 0.000000e+00
 0.000000e+00 0.000000e+00 0.000000e+00 0.000000e+00 9.071013e-01 9.289868e-02 0.000000e+00 0.000000e+00
 0.000000e+00 0.000000e+00 0.000000e+00 0.000000e+00 0.000000e+00 9.863316e-01 1.366846e-02 0.000000e+00
 0.000000e+00 0.000000e+00 0.000000e+00 0.000000e+00 0.000000e+00 0.000000e+00 8.880909e-01 1.119091e-01
 0.000000e+00 0.000000e+00 0.000000e+00 0.000000e+00 0.000000e+00 0.000000e+00 0.000000e+00 0.000000e+00
<ENDHMM>
~h "e"
<BEGINHMM>
<NUMSTATES> 8
<STATE> 2
<NUMMIXES> 2
<MIXTURE> 1 9.852836e-01
<MEAN> 3
 6.637050e-06 -4.886987e-03 -6.321403e+00
<VARIANCE> 3
 1.000000e-02 1.000000e-02 1.446524e+01
<GCONST> -1.024961e+00
<MIXTURE> 2 1.471607e-02
<MEAN> 3
 -1.897800e-01 -2.938876e+00 -1.000000e+02
<VARIANCE> 3
 3.923777e-02 1.993877e+01 1.000000e-02
<GCONST> 6.630116e-01
<STATE> 3
<NUMMIXES> 2
<MIXTURE> 1 1.871767e-01
<MEAN> 3
 -5.007874e-01 -1.614652e-01 -4.803369e+00
<VARIANCE> 3
 2.150798e-01 6.625205e-02 1.831785e+01
<GCONST> 4.170472e+00
<MIXTURE> 2 8.128268e-01
<MEAN> 3
 -1.236276e+00 -3.332974e+00 -1.000000e+02
<VARIANCE> 3
 6.629412e-01 1.639337e+01 1.000000e-02
<GCONST> 3.294269e+00
<STATE> 4
<NUMMIXES> 2
<MIXTURE> 1 9.851327e-01
<MEAN> 3
 -4.080930e-03 -5.884668e+00 -7.714275e+00
<VARIANCE> 3
 1.000000e-02 1.288499e+01 8.539313e+00
<GCONST> 5.609205e+00
<MIXTURE> 2 1.486734e-02
<MEAN> 3
 -1.748768e+00 -2.755031e+00 -1.000000e+02
<VARIANCE> 3
 2.266024e+00 1.683689e+01 1.000000e-02
<GCONST> 4.550060e+00
<STATE> 5
<NUMMIXES> 2
<MIXTURE> 1 1.199194e-01
<MEAN> 3
 -2.808299e+00 -2.018552e+00 -9.462234e-01
<VARIANCE> 3
 3.166181e+00 5.547946e+00 3.993069e+00
<GCONST> 9.764145e+00
<MIXTURE> 2 8.800583e-01
<MEAN> 3
 -8.505962e+00 -4.308653e+00 -1.000000e+02
<VARIANCE> 3
 4.614705e+00 1.979041e+01 1.000000e-02
<GCONST> 5.422906e+00
<STATE> 6
<NUMMIXES> 2
<MIXTURE> 1 9.398670e-01
<MEAN> 3
 -1.950201e+00 -8.102636e+00 -8.053984e+00
<VARIANCE> 3
 1.743155e+00 6.051759e+00 7.753950e+00
<GCONST> 9.917879e+00
<MIXTURE> 2 6.013305e-02
<MEAN> 3
 -2.668274e+00 -5.714949e-01 -1.000000e+02
<VARIANCE> 3
 5.490712e+00 8.457080e+00 1.000000e-02
<GCONST> 4.746523e+00
<STATE> 7
<NUMMIXES> 2
<MIXTURE> 1 9.883121e-01
<MEAN> 3
 -8.852593e+00 -8.248775e+00 -7.919900e+00
<VARIANCE> 3
 4.784905e+00 7.885510e+00 8.336082e+00
<GCONST> 1.126472e+01
<MIXTURE> 2 1.168952e-02
<MEAN> 3
 -1.959981e+00 -5.684925e-01 -1.000000e+02
<VARIANCE> 3
 3.758315e+00 8.992621e+00 1.000000e-02
<GCONST> 4.428836e+00
<TRANSP> 8
 0.000000e+00 1.000000e+00 0.000000e+00 0.000000e+00 0.000000e+00 0.000000e+00 0.000000e+00 0.000000e+00
 0.000000e+00 9.653472e-01 3.465279e-02 0.000000e+00 0.000000e+00 0.000000e+00 0.000000e+00 0.000000e+00
 0.000000e+00 0.000000e+00 8.783412e-01 1.216588e-01 0.000000e+00 0.000000e+00 0.000000e+00 0.000000e+00
 0.000000e+00 0.000000e+00 0.000000e+00 9.673948e-01 3.260519e-02 0.000000e+00 0.000000e+00 0.000000e+00
 0.000000e+00 0.000000e+00 0.000000e+00 0.000000e+00 9.793907e-01 2.060929e-02 0.000000e+00 0.000000e+00
 0.000000e+00 0.000000e+00 0.000000e+00 0.000000e+00 0.000000e+00 8.799983e-01 1.200017e-01 0.000000e+00
 0.000000e+00 0.000000e+00 0.000000e+00 0.000000e+00 0.000000e+00 0.000000e+00 9.729900e-01 2.700995e-02
 0.000000e+00 0.000000e+00 0.000000e+00 0.000000e+00 0.000000e+00 0.000000e+00 0.000000e+00 0.000000e+00
<ENDHMM>
~h "i"
<BEGINHMM>
<NUMSTATES> 8
<STATE> 2
<NUMMIXES> 2
<MIXTURE> 1 9.385906e-01
<MEAN> 3
 -3.878302e-01 -3.911283e+00 -6.593843e+00
<VARIANCE> 3
 5.481395e+00 1.934248e+01 1.778205e+01
<GCONST> 1.305548e+01
<MIXTURE> 2 6.140950e-02
<MEAN> 3
 -1.575595e+00 -5.730878e-01 -1.000000e+02
<VARIANCE> 3
 2.142533e+00 8.631497e+00 1.000000e-02
<GCONST> 3.825868e+00
<STATE> 3
<NUMMIXES> 2
<MIXTURE> 1 9.888864e-01
<MEAN> 3
 -6.023424e+00 -8.309852e+00 -2.832715e-03
<VARIANCE> 3
 1.748250e+01 6.662122e+00 1.000000e-02
<GCONST> 5.666101e+00
<MIXTURE> 2 1.111357e-02
<MEAN> 3
 -1.064152e+00 -5.379844e-01 -1.000000e+02
<VARIANCE> 3
 1.166459e+00 8.330213e+00 1.000000e-02
<GCONST> 3.182323e+00
<STATE> 4
<NUMMIXES> 2
<MIXTURE> 1 8.898478e-01
<MEAN> 3
 -5.661159e+00 -2.380796e-03 2.616831e+00
<VARIANCE> 3
 1.705571e+01 2.341565e-02 8.445575e+00
<GCONST> 6.729409e+00
<MIXTURE> 2 1.101485e-01
<MEAN> 3
 -3.995178e+00 2.503985e-01 -1.000000e+02
<VARIANCE> 3
 1.407310e+01 4.543160e+00 1.000000e-02
<GCONST> 5.066349e+00
<STATE> 5
<NUMMIXES> 2
<MIXTURE> 1 9.872815e-01
<MEAN> 3
 -8.199836e+00 -1.443986e-03 1.142862e-03
<VARIANCE> 3
 6.819675e+00 1.000000e-02 1.000000e-02
<GCONST> -1.776897e+00
<MIXTURE> 2 1.271826e-02
<MEAN> 3
 -4.456381e-01 -4.520451e-01 -1.000000e+02
<VARIANCE> 3
 2.255456e-01 7.441144e+00 1.000000e-02
<GCONST> 1.426253e+00
<STATE> 6
<NUMMIXES> 2
<MIXTURE> 1 9.094693e-01
<MEAN> 3
 -2.868214e+00 2.348823e+00 -1.348702e+00
<VARIANCE> 3
 1.650894e+01 7.460629e+00 1.438515e+01
<GCONST> 1.299337e+01
<MIXTURE> 2 9.053126e-02
<MEAN> 3
 -4.271066e-01 -2.498383e-01 -1.000000e+02
<VARIANCE> 3
 1.458662e-01 4.568025e+00 1.000000e-02
<GCONST> 5.024767e-01
<STATE> 7
<NUMMIXES> 2
<MIXTURE> 1 3.993022e-01
<MEAN> 3
 -2.095257e-03 7.481374e-04 1.739742e-03
<VARIANCE> 3
 1.000000e-02 1.000000e-02 1.000000e-02
<GCONST> -8.301880e+00
<MIXTURE> 2 6.005902e-01
<MEAN> 3
 -2.393843e-04 5.362424e-02 -1.000000e+02
<VARIANCE> 3
 1.000000e-02 2.032691e+00 1.000000e-02
<GCONST> -2.987349e+00
<TRANSP> 8
 0.000000e+00 1.000000e+00 0.000000e+00 0.000000e+00 0.000000e+00 0.000000e+00 0.000000e+00 0.000000e+00
 0.000000e+00 8.704653e-01 1.295347e-01 0.000000e+00 0.000000e+00 0.000000e+00 0.000000e+00 0.000000e+00
 0.000000e+00 0.000000e+00 9.742776e-01 2.572247e-02 0.000000e+00 0.000000e+00 0.000000e+00 0.000000e+00
 0.000000e+00 0.000000e+00 0.000000e+00 8.899606e-01 1.100394e-01 0.000000e+00 0.000000e+00 0.000000e+00
 0.000000e+00 0.000000e+00 0.000000e+00 0.000000e+00 9.718718e-01 2.812825e-02 0.000000e+00 0.000000e+00
 0.000000e+00 0.000000e+00 0.000000e+00 0.000000e+00 0.000000e+00 8.754974e-01 1.245026e-01 0.000000e+00
 0.000000e+00 0.000000e+00 0.000000e+00 0.000000e+00 0.000000e+00 0.000000e+00 9.934420e-01 6.557957e-03
 0.000000e+00 0.000000e+00 0.000000e+00 0.000000e+00 0.000000e+00 0.000000e+00 0.000000e+00 0.000000e+00
<ENDHMM>
~h "m"
<BEGINHMM>
<NUMSTATES> 8
<STATE> 2
<NUMMIXES> 2
<MIXTURE> 1 9.762756e-01
<MEAN> 3
 4.494141e-04 5.702835e-03 2.814626e+00
<VARIANCE> 3
 1.000000e-02 1.000000e-02 9.920532e+00
<GCONST> -1.402102e+00
<MIXTURE> 2 2.372466e-02
<MEAN> 3
 5.253438e-02 2.112585e-01 -1.000000e+02
<VARIANCE> 3
 1.000000e-02 1.626240e+01 1.000000e-02
<GCONST> -9.078534e-01
<STATE> 3
<NUMMIXES> 2
<MIXTURE> 1 9.823678e-01
<MEAN> 3
 3.201400e-03 2.416727e+00 2.228741e+00
<VARIANCE> 3
 1.000000e-02 3.163741e+00 8.964252e+00
<GCONST> 4.253461e+00
<MIXTURE> 2 1.763199e-02
<MEAN> 3
 1.185655e-01 -6.281015e-01 -1.000000e+02
<VARIANCE> 3
 1.893048e-02 9.600348e+00 1.000000e-02
<GCONST> -7.967217e-01
<STATE> 4
<NUMMIXES> 2
<MIXTURE> 1 9.136563e-01
<MEAN> 3
 2.423978e+00 2.517602e-01 -2.329610e+00
<VARIANCE> 3
 3.350364e+00 4.153819e-01 2.608700e+01
<GCONST> 9.105580e+00
<MIXTURE> 2 8.634390e-02
<MEAN> 3
 1.173756e-01 3.774237e+00 -1.000000e+02
<VARIANCE> 3
 4.004496e-02 3.677214e+01 1.000000e-02
<GCONST> 1.295449e+00
<STATE> 5
<NUMMIXES> 2
<MIXTURE> 1 9.543570e-01
<MEAN> 3
 2.001678e+00 4.364128e+00 2.821421e+00
<VARIANCE> 3
 1.907575e+00 4.949825e+00 7.243160e+00
<GCONST> 9.738873e+00
<MIXTURE> 2 4.564045e-02
<MEAN> 3
 2.853374e-01 -1.928602e-01 -1.000000e+02
<VARIANCE> 3
 1.149313e-01 1.300142e+01 1.000000e-02
<GCONST> 1.310099e+00
<STATE> 6
<NUMMIXES> 2
<MIXTURE> 1 8.263070e-03
<MEAN> 3
 1.709822e+00 2.633535e+00 7.155929e-01
<VARIANCE> 3
 4.077792e+00 6.234771e+00 1.800587e+00
<GCONST> 9.337441e+00
<MIXTURE> 2 9.917361e-01
<MEAN> 3
 3.484817e+00 1.645526e+00 -1.000000e+02
<VARIANCE> 3
 7.550686e+00 8.317384e+00 1.000000e-02
<GCONST> 5.048448e+00
<STATE> 7
<NUMMIXES> 2
<MIXTURE> 1 4.082935e-01
<MEAN> 3
 1.808678e+00 2.743859e+00 7.001729e-01
<VARIANCE> 3
 4.362414e+00 6.678059e+00 1.684084e+00
<GCONST> 9.406707e+00
<MIXTURE> 2 5.917066e-01
<MEAN> 3
 1.742717e+00 -5.647822e-01 -1.000000e+02
<VARIANCE> 3
 6.377398e+00 8.174643e+01 1.000000e-02
<GCONST> 7.164844e+00
<TRANSP> 8
 0.000000e+00 1.000000e+00 0.000000e+00 0.000000e+00 0.000000e+00 0.000000e+00 0.000000e+00 0.000000e+00
 0.000000e+00 9.538809e-01 4.611911e-02 0.000000e+00 0.000000e+00 0.000000e+00 0.000000e+00 0.000000e+00
 0.000000e+00 0.000000e+00 9.626283e-01 3.737172e-02 0.000000e+00 0.000000e+00 0.000000e+00 0.000000e+00
 0.000000e+00 0.000000e+00 0.000000e+00 9.009610e-01 9.903901e-02 0.000000e+00 0.000000e+00 0.000000e+00
 0.000000e+00 0.000000e+00 0.000000e+00 0.000000e+00 9.179925e-01 8.200759e-02 0.000000e+00 0.000000e+00
 0.000000e+00 0.000000e+00 0.000000e+00 0.000000e+00 0.000000e+00 9.798955e-01 2.010451e-02 0.000000e+00
 0.000000e+00 0.000000e+00 0.000000e+00 0.000000e+00 0.000000e+00 0.000000e+00 7.208794e-03 9.927912e-01
 0.000000e+00 0.000000e+00 0.000000e+00 0.000000e+00 0.000000e+00 0.000000e+00 0.000000e+00 0.000000e+00
<ENDHMM>
~h "sil"
<BEGINHMM>
<NUMSTATES> 8
<STATE> 2
<NUMMIXES> 2
<MIXTURE> 1 9.348903e-01
<MEAN> 3
 9.359092e+00 3.106889e+00 1.073269e+00
<VARIANCE> 3
 6.883324e+00 6.884180e+00 3.381579e+00
<GCONST> 1.059030e+01
<MIXTURE> 2 6.510946e-02
<MEAN> 3
 4.731352e+00 -5.437825e+00 -6.099693e+01
<VARIANCE> 3
 1.017537e+01 4.492935e+02 2.228579e+03
<GCONST> 2.165040e+01
<STATE> 3
<NUMMIXES> 2
<MIXTURE> 1 3.672848e-02
<MEAN> 3
 4.771044e+00 -9.163797e+00 -7.060703e+01
<VARIANCE> 3
 1.437731e+01 1.150151e+03 2.121385e+03
<GCONST> 2.288676e+01
<MIXTURE> 2 9.632712e-01
<MEAN> 3
 9.250990e+00 -3.928294e-04 3.909526e-03
<VARIANCE> 3
 3.165558e+00 1.000000e-02 1.000000e-02
<GCONST> -2.544380e+00
<STATE> 4
<NUMMIXES> 2
<MIXTURE> 1 2.255679e-02
<MEAN> 3
 4.232025e+00 -3.903789e+01 -8.697044e+01
<VARIANCE> 3
 1.477663e+01 2.654711e+03 1.133188e+03
<GCONST> 2.312356e+01
<MIXTURE> 2 9.774433e-01
<MEAN> 3
 8.424706e+00 2.409344e-03 3.256030e+00
<VARIANCE> 3
 7.616747e+00 1.000000e-02 7.833714e+00
<GCONST> 4.997247e+00
<STATE> 5
<NUMMIXES> 2
<MIXTURE> 1 6.430492e-02
<MEAN> 3
 4.110608e+00 -6.528005e+01 -8.866924e+01
<VARIANCE> 3
 1.485916e+01 2.441985e+03 1.023020e+03
<GCONST> 2.294333e+01
<MIXTURE> 2 9.356951e-01
<MEAN> 3
 6.144934e+00 9.976867e-03 -7.270793e+00
<VARIANCE> 3
 7.782704e+00 1.000000e-02 1.422644e+01
<GCONST> 5.615468e+00
<STATE> 6
<NUMMIXES> 2
<MIXTURE> 1 9.965717e-01
<MEAN> 3
 -1.023883e+00 -1.000000e+02 -1.000000e+02
<VARIANCE> 3
 1.537585e+01 1.000000e-02 1.000000e-02
<GCONST> -9.639111e-01
<MIXTURE> 2 3.428385e-03
<MEAN> 3
 8.088402e+00 1.099236e+00 2.339047e+00
<VARIANCE> 3
 1.041672e+01 1.330026e+00 2.289711e+00
<GCONST> 8.970668e+00
<STATE> 7
<NUMMIXES> 2
<MIXTURE> 1 9.506108e-01
<MEAN> 3
 8.276140e+00 4.425149e+00 2.593179e-03
<VARIANCE> 3
 1.392725e+01 8.944452e+00 1.000000e-02
<GCONST> 5.733341e+00
<MIXTURE> 2 4.938897e-02
<MEAN> 3
 5.194430e+00 -6.427049e+01 -6.340322e+01
<VARIANCE> 3
 8.639796e+00 2.341436e+03 2.457016e+03
<GCONST> 2.323523e+01
<TRANSP> 8
 0.000000e+00 1.000000e+00 0.000000e+00 0.000000e+00 0.000000e+00 0.000000e+00 0.000000e+00 0.000000e+00
 0.000000e+00 9.227498e-01 7.725023e-02 0.000000e+00 0.000000e+00 0.000000e+00 0.000000e+00 0.000000e+00
 0.000000e+00 0.000000e+00 9.478604e-01 5.213955e-02 0.000000e+00 0.000000e+00 0.000000e+00 0.000000e+00
 0.000000e+00 0.000000e+00 0.000000e+00 9.607689e-01 3.923102e-02 0.000000e+00 0.000000e+00 0.000000e+00
 0.000000e+00 0.000000e+00 0.000000e+00 0.000000e+00 8.857175e-01 1.142825e-01 0.000000e+00 0.000000e+00
 0.000000e+00 0.000000e+00 0.000000e+00 0.000000e+00 0.000000e+00 9.980001e-01 1.999944e-03 0.000000e+00
 0.000000e+00 0.000000e+00 0.000000e+00 0.000000e+00 0.000000e+00 0.000000e+00 9.360766e-01 6.392344e-02
 0.000000e+00 0.000000e+00 0.000000e+00 0.000000e+00 0.000000e+00 0.000000e+00 0.000000e+00 0.000000e+00
<ENDHMM>
