~o
<STREAMINFO> 1 3
<VECSIZE> 3<NULLD><USER><DIAGC>
~h "a"
<BEGINHMM>
<NUMSTATES> 8
<STATE> 2
<NUMMIXES> 2
<MIXTURE> 1 6.032816e-01
<MEAN> 3
 3.872711e+00 3.756529e+00 1.994289e+00
<VARIANCE> 3
 8.821288e+00 5.498810e+00 9.292969e+00
<GCONST> 1.162459e+01
<MIXTURE> 2 3.967182e-01
<MEAN> 3
 2.364913e-01 -5.463362e+01 -1.000000e+02
<VARIANCE> 3
 5.531926e-01 2.499058e+03 1.000000e-02
<GCONST> 8.140080e+00
<STATE> 3
<NUMMIXES> 2
<MIXTURE> 1 9.932891e-03
<MEAN> 3
 3.193915e+00 2.985896e+00 -2.132576e+01
<VARIANCE> 3
 8.719171e+00 8.815426e+00 1.842406e+03
<GCONST> 1.737449e+01
<MIXTURE> 2 9.900662e-01
<MEAN> 3
 -5.912467e-04 -1.000000e+02 -1.000000e+02
<VARIANCE> 3
 1.000000e-02 1.000000e-02 1.000000e-02
<GCONST> -8.301880e+00
<STATE> 4
<NUMMIXES> 2
<MIXTURE> 1 9.914453e-01
<MEAN> 3
 5.252971e+00 5.761371e+00 4.442644e+00
<VARIANCE> 3
 9.721422e+00 6.523411e+00 8.239487e+00
<GCONST> 1.177230e+01
<MIXTURE> 2 8.554887e-03
<MEAN> 3
 1.897266e-01 -5.459341e+01 -1.000000e+02
<VARIANCE> 3
 5.324721e-02 2.496814e+03 1.000000e-02
<GCONST> 5.798423e+00
<STATE> 5
<NUMMIXES> 2
<MIXTURE> 1 9.746421e-01
<MEAN> 3
 1.670585e+00 1.129906e-01 -6.186659e-01
<VARIANCE> 3
 5.495599e+00 3.373475e-01 3.905736e+01
<GCONST> 9.795969e+00
<MIXTURE> 2 2.535814e-02
<MEAN> 3
 9.697366e-02 -5.242663e+01 -1.000000e+02
<VARIANCE> 3
 1.643828e-02 2.520603e+03 1.000000e-02
<GCONST> 4.632571e+00
<STATE> 6
<NUMMIXES> 2
<MIXTURE> 1 9.901741e-01
<MEAN> 3
 4.693574e+00 9.158558e-01 1.281354e-03
<VARIANCE> 3
 9.265512e+00 3.072954e+00 1.000000e-02
<GCONST> 4.257400e+00
<MIXTURE> 2 9.826366e-03
<MEAN> 3
 3.979037e-02 -4.979549e+01 -1.000000e+02
<VARIANCE> 3
 1.000000e-02 2.522461e+03 1.000000e-02
<GCONST> 4.136281e+00
<STATE> 7
<NUMMIXES> 2
<MIXTURE> 1 9.555497e-02
<MEAN> 3
 2.063613e-02 -6.903921e+00 7.973778e-02
<VARIANCE> 3
 1.000000e-02 1.340932e+01 1.327267e-01
<GCONST> 1.484948e+00
<MIXTURE> 2 9.044196e-01
<MEAN> 3
 -7.413343e-04 -1.807680e+00 -1.000000e+02
<VARIANCE> 3
 1.000000e-02 4.823843e+01 1.000000e-02
<GCONST> 1.794467e-01
<TRANSP> 8
 0.000000e+00 1.000000e+00 0.000000e+00 0.000000e+00 0.000000e+00 0.000000e+00 0.000000e+00 0.000000e+00
 0.000000e+00 4.099418e-06 9.999959e-01 0.000000e+00 0.000000e+00 0.000000e+00 0.000000e+00 0.000000e+00
 0.000000e+00 0.000000e+00 9.873340e-01 1.266604e-02 0.000000e+00 0.000000e+00 0.000000e+00 0.000000e+00
 0.000000e+00 0.000000e+00 0.000000e+00 9.784635e-01 2.153659e-02 0.000000e+00 0.000000e+00 0.000000e+00
 0.000000e+00 0.000000e+00 0.000000e+00 0.000000e+00 9.385936e-01 6.140648e-02 0.000000e+00 0.000000e+00
 0.000000e+00 0.000000e+00 0.000000e+00 0.000000e+00 0.000000e+00 9.774109e-01 2.258916e-02 0.000000e+00
 0.000000e+00 0.000000e+00 0.000000e+00 0.000000e+00 0.000000e+00 0.000000e+00 9.834318e-01 1.656821e-02
 0.000000e+00 0.000000e+00 0.000000e+00 0.000000e+00 0.000000e+00 0.000000e+00 0.000000e+00 0.000000e+00
<ENDHMM>
~h "e"
<BEGINHMM>
<NUMSTATES> 8
<STATE> 2
<NUMMIXES> 2
<MIXTURE> 1 9.935843e-01
<MEAN> 3
 5.303686e-04 -9.489394e-04 -2.330978e-03
<VARIANCE> 3
 1.000000e-02 1.000000e-02 1.000000e-02
<GCONST> -8.301880e+00
<MIXTURE> 2 6.415670e-03
<MEAN> 3
 -1.368755e-01 -5.174229e+01 -1.000000e+02
<VARIANCE> 3
 2.543342e-02 2.272468e+03 1.000000e-02
<GCONST> 4.965391e+00
<STATE> 3
<NUMMIXES> 2
<MIXTURE> 1 9.918462e-01
<MEAN> 3
 -1.893086e-03 -3.016032e+00 -5.670799e+00
<VARIANCE> 3
 1.000000e-02 1.484932e+01 1.579401e+01
<GCONST> 6.366046e+00
<MIXTURE> 2 8.149072e-03
<MEAN> 3
 -2.408734e-01 -5.153567e+01 -1.000000e+02
<VARIANCE> 3
 6.178009e-02 2.272692e+03 1.000000e-02
<GCONST> 5.853007e+00
<STATE> 4
<NUMMIXES> 2
<MIXTURE> 1 9.787445e-01
<MEAN> 3
 -5.605944e+00 -2.819986e+00 -4.158174e-01
<VARIANCE> 3
 1.354896e+01 1.138284e+01 1.958221e+00
<GCONST> 1.122408e+01
<MIXTURE> 2 2.125408e-02
<MEAN> 3
 -3.786374e-01 -5.048427e+01 -1.000000e+02
<VARIANCE> 3
 1.448255e-01 2.272307e+03 1.000000e-02
<GCONST> 6.704786e+00
<STATE> 5
<NUMMIXES> 2
<MIXTURE> 1 9.667352e-01
<MEAN> 3
 -2.757366e+00 -7.917374e+00 -8.443547e+00
<VARIANCE> 3
 4.394932e+00 8.567738e+00 5.040954e+00
<GCONST> 1.075968e+01
<MIXTURE> 2 3.326311e-02
<MEAN> 3
 -5.537665e-01 -4.842183e+01 -1.000000e+02
<VARIANCE> 3
 3.444453e-01 2.271029e+03 1.000000e-02
<GCONST> 7.570629e+00
<STATE> 6
<NUMMIXES> 2
<MIXTURE> 1 3.136606e-02
<MEAN> 3
 -7.300000e+00 -2.760329e+00 -3.752278e-02
<VARIANCE> 3
 9.209506e+00 1.647033e+01 4.152425e+01
<GCONST> 1.426171e+01
<MIXTURE> 2 9.686352e-01
<MEAN> 3
 -7.537828e+00 -4.888887e+00 -1.000000e+02
<VARIANCE> 3
 9.995407e+00 5.921568e+01 1.000000e-02
<GCONST> 7.291773e+00
<STATE> 7
<NUMMIXES> 2
<MIXTURE> 1 9.861265e-01
<MEAN> 3
 -9.367310e+00 -9.244198e+00 -7.877987e+00
<VARIANCE> 3
 2.792043e+00 2.628837e+00 7.648058e+00
<GCONST> 9.541398e+00
<MIXTURE> 2 1.387332e-02
<MEAN> 3
 -2.040800e+00 -4.872710e+01 -1.000000e+02
<VARIANCE> 3
 4.849833e+00 2.392392e+03 1.000000e-02
<GCONST> 1.026746e+01
<TRANSP> 8
 0.000000e+00 1.000000e+00 0.000000e+00 0.000000e+00 0.000000e+00 0.000000e+00 0.000000e+00 0.000000e+00
 0.000000e+00 9.854563e-01 1.454376e-02 0.000000e+00 0.000000e+00 0.000000e+00 0.000000e+00 0.000000e+00
 0.000000e+00 0.000000e+00 9.816055e-01 1.839447e-02 0.000000e+00 0.000000e+00 0.000000e+00 0.000000e+00
 0.000000e+00 0.000000e+00 0.000000e+00 9.530787e-01 4.692130e-02 0.000000e+00 0.000000e+00 0.000000e+00
 0.000000e+00 0.000000e+00 0.000000e+00 0.000000e+00 9.297056e-01 7.029440e-02 0.000000e+00 0.000000e+00
 0.000000e+00 0.000000e+00 0.000000e+00 0.000000e+00 0.000000e+00 9.804758e-01 1.952423e-02 0.000000e+00
 0.000000e+00 0.000000e+00 0.000000e+00 0.000000e+00 0.000000e+00 0.000000e+00 9.696558e-01 3.034428e-02
 0.000000e+00 0.000000e+00 0.000000e+00 0.000000e+00 0.000000e+00 0.000000e+00 0.000000e+00 0.000000e+00
<ENDHMM>
~h "i"
<BEGINHMM>
<NUMSTATES> 8
<STATE> 2
<NUMMIXES> 2
<MIXTURE> 1 9.739786e-01
<MEAN> 3
 -1.897142e+00 -3.816960e+00 -8.322590e+00
<VARIANCE> 3
 1.243823e+01 1.847670e+01 8.419811e+00
<GCONST> 1.308150e+01
<MIXTURE> 2 2.602112e-02
<MEAN> 3
 -1.626828e+00 -4.863735e+01 -1.000000e+02
<VARIANCE> 3
 3.152667e+00 2.394280e+03 1.000000e-02
<GCONST> 9.837548e+00
<STATE> 3
<NUMMIXES> 2
<MIXTURE> 1 9.824624e-01
<MEAN> 3
 -8.043249e+00 -8.163477e+00 -5.101965e-03
<VARIANCE> 3
 8.994893e+00 7.488141e+00 1.000000e-02
<GCONST> 5.118438e+00
<MIXTURE> 2 1.753602e-02
<MEAN> 3
 -1.229355e+00 -4.864887e+01 -1.000000e+02
<VARIANCE> 3
 1.932157e+00 2.396873e+03 1.000000e-02
<GCONST> 9.349018e+00
<STATE> 4
<NUMMIXES> 2
<MIXTURE> 1 9.815416e-01
<MEAN> 3
 -7.801327e+00 -3.252449e-03 8.129330e-03
<VARIANCE> 3
 8.828251e+00 1.000000e-02 1.000000e-02
<GCONST> -1.518752e+00
<MIXTURE> 2 1.845609e-02
<MEAN> 3
 -9.153290e-01 -4.677515e+01 -1.000000e+02
<VARIANCE> 3
 1.148591e+00 2.394368e+03 1.000000e-02
<GCONST> 8.827871e+00
<STATE> 5
<NUMMIXES> 2
<MIXTURE> 1 9.930659e-01
<MEAN> 3
 -2.038250e-03 7.915174e-04 1.436517e-03
<VARIANCE> 3
 1.000000e-02 1.000000e-02 1.000000e-02
<GCONST> -8.301880e+00
<MIXTURE> 2 6.934297e-03
<MEAN> 3
 -5.939073e-01 -4.795150e+01 -1.000000e+02
<VARIANCE> 3
 6.966124e-01 2.400538e+03 1.000000e-02
<GCONST> 8.330383e+00
<STATE> 6
<NUMMIXES> 2
<MIXTURE> 1 8.921968e-01
<MEAN> 3
 -5.581371e+00 4.074461e-01 2.137079e+00
<VARIANCE> 3
 1.891569e+01 9.287203e-01 5.170552e+00
<GCONST> 1.002265e+01
<MIXTURE> 2 1.078029e-01
<MEAN> 3
 -3.757780e-01 -4.639717e+01 -1.000000e+02
<VARIANCE> 3
 4.294273e-01 2.395669e+03 1.000000e-02
<GCONST> 7.844577e+00
<STATE> 7
<NUMMIXES> 2
<MIXTURE> 1 9.499903e-01
<MEAN> 3
 1.532739e-03 1.892077e+00 6.480629e-01
<VARIANCE> 3
 1.000000e-02 2.457336e+00 1.617987e+00
<GCONST> 2.288722e+00
<MIXTURE> 2 5.001066e-02
<MEAN> 3
 -1.625710e-01 -4.753210e+01 -1.000000e+02
<VARIANCE> 3
 2.487460e-01 2.402521e+03 1.000000e-02
<GCONST> 7.301412e+00
<TRANSP> 8
 0.000000e+00 1.000000e+00 0.000000e+00 0.000000e+00 0.000000e+00 0.000000e+00 0.000000e+00 0.000000e+00
 0.000000e+00 9.431662e-01 5.683381e-02 0.000000e+00 0.000000e+00 0.000000e+00 0.000000e+00 0.000000e+00
 0.000000e+00 0.000000e+00 9.616675e-01 3.833250e-02 0.000000e+00 0.000000e+00 0.000000e+00 0.000000e+00
 0.000000e+00 0.000000e+00 0.000000e+00 9.611911e-01 3.880889e-02 0.000000e+00 0.000000e+00 0.000000e+00
 0.000000e+00 0.000000e+00 0.000000e+00 0.000000e+00 9.850445e-01 1.495554e-02 0.000000e+00 0.000000e+00
 0.000000e+00 0.000000e+00 0.000000e+00 0.000000e+00 0.000000e+00 7.750012e-01 2.249988e-01 0.000000e+00
 0.000000e+00 0.000000e+00 0.000000e+00 0.000000e+00 0.000000e+00 0.000000e+00 8.930171e-01 1.069829e-01
 0.000000e+00 0.000000e+00 0.000000e+00 0.000000e+00 0.000000e+00 0.000000e+00 0.000000e+00 0.000000e+00
<ENDHMM>
~h "m"
<BEGINHMM>
<NUMSTATES> 8
<STATE> 2
<NUMMIXES> 2
<MIXTURE> 1 2.998707e-02
<MEAN> 3
 -7.264628e-03 5.223146e+00 1.348024e+02
<VARIANCE> 3
 7.038755e-02 1.332964e+01 4.620779e+04
<GCONST> 1.619079e+01
<MIXTURE> 2 9.700134e-01
<MEAN> 3
 1.094397e-03 -3.031340e-01 -1.000000e+02
<VARIANCE> 3
 1.000000e-02 4.450993e+01 1.000000e-02
<GCONST> 9.900331e-02
<STATE> 3
<NUMMIXES> 2
<MIXTURE> 1 9.747369e-01
<MEAN> 3
 3.816203e-03 9.781992e-03 3.510787e+00
<VARIANCE> 3
 1.000000e-02 1.000000e-02 9.458791e+00
<GCONST> -1.449764e+00
<MIXTURE> 2 2.526194e-02
<MEAN> 3
 2.767065e-01 -4.165224e+01 -1.000000e+02
<VARIANCE> 3
 1.387583e-02 2.522726e+03 1.000000e-02
<GCONST> 4.463949e+00
<STATE> 4
<NUMMIXES> 2
<MIXTURE> 1 9.852985e-01
<MEAN> 3
 2.749173e+00 3.097706e+00 6.178586e-02
<VARIANCE> 3
 1.817060e+01 9.805179e+00 1.738359e-01
<GCONST> 8.946704e+00
<MIXTURE> 2 1.470180e-02
<MEAN> 3
 4.523613e-01 -4.168549e+01 -1.000000e+02
<VARIANCE> 3
 2.825712e-02 2.522108e+03 1.000000e-02
<GCONST> 5.174902e+00
<STATE> 5
<NUMMIXES> 2
<MIXTURE> 1 9.786361e-01
<MEAN> 3
 5.405983e-01 4.353165e+00 3.963417e+00
<VARIANCE> 3
 9.328917e-01 8.085257e+00 1.031963e+01
<GCONST> 9.868256e+00
<MIXTURE> 2 2.136344e-02
<MEAN> 3
 6.591415e-01 -4.136589e+01 -1.000000e+02
<VARIANCE> 3
 6.249502e-02 2.517107e+03 1.000000e-02
<GCONST> 5.966659e+00
<STATE> 6
<NUMMIXES> 2
<MIXTURE> 1 6.120607e-02
<MEAN> 3
 4.823682e+00 6.749837e+00 2.492576e+02
<VARIANCE> 3
 8.646607e+00 6.295577e+00 7.621390e+04
<GCONST> 2.075195e+01
<MIXTURE> 2 9.387986e-01
<MEAN> 3
 4.225941e+00 1.011944e+00 -1.000000e+02
<VARIANCE> 3
 8.335725e+00 5.213933e+01 1.000000e-02
<GCONST> 6.982931e+00
<STATE> 7
<NUMMIXES> 2
<MIXTURE> 1 2.511199e-02
<MEAN> 3
 6.391787e+00 3.106573e+02 2.194027e+02
<VARIANCE> 3
 8.713857e+00 7.138951e+04 2.100210e+04
<GCONST> 2.880683e+01
<MIXTURE> 2 9.748856e-01
<MEAN> 3
 -1.812145e+00 -1.000000e+02 -1.000000e+02
<VARIANCE> 3
 2.348753e+01 1.000000e-02 1.000000e-02
<GCONST> -5.402393e-01
<TRANSP> 8
 0.000000e+00 1.000000e+00 0.000000e+00 0.000000e+00 0.000000e+00 0.000000e+00 0.000000e+00 0.000000e+00
 0.000000e+00 9.830840e-01 1.691605e-02 0.000000e+00 0.000000e+00 0.000000e+00 0.000000e+00 0.000000e+00
 0.000000e+00 0.000000e+00 9.506014e-01 4.939860e-02 0.000000e+00 0.000000e+00 0.000000e+00 0.000000e+00
 0.000000e+00 0.000000e+00 0.000000e+00 9.712355e-01 2.876448e-02 0.000000e+00 0.000000e+00 0.000000e+00
 0.000000e+00 0.000000e+00 0.000000e+00 0.000000e+00 9.585152e-01 4.148487e-02 0.000000e+00 0.000000e+00
 0.000000e+00 0.000000e+00 0.000000e+00 0.000000e+00 0.000000e+00 9.809408e-01 1.905923e-02 0.000000e+00
 0.000000e+00 0.000000e+00 0.000000e+00 0.000000e+00 0.000000e+00 0.000000e+00 9.924989e-01 7.501010e-03
 0.000000e+00 0.000000e+00 0.000000e+00 0.000000e+00 0.000000e+00 0.000000e+00 0.000000e+00 0.000000e+00
<ENDHMM>
~h "sil"
<BEGINHMM>
<NUMSTATES> 8
<STATE> 2
<NUMMIXES> 2
<MIXTURE> 1 9.157456e-01
<MEAN> 3
 9.388204e+00 -8.467030e-05 1.901350e-03
<VARIANCE> 3
 5.007533e+00 1.000000e-02 1.000000e-02
<GCONST> -2.085766e+00
<MIXTURE> 2 8.425520e-02
<MEAN> 3
 7.480322e+00 -1.743159e+01 -1.666836e+01
<VARIANCE> 3
 7.134399e+00 9.840490e+02 1.000191e+03
<GCONST> 2.127818e+01
<STATE> 3
<NUMMIXES> 2
<MIXTURE> 1 9.019624e-01
<MEAN> 3
 9.736474e+00 2.048662e+00 1.229666e+00
<VARIANCE> 3
 3.023953e+00 2.490101e+00 1.550488e+00
<GCONST> 7.971089e+00
<MIXTURE> 2 9.803745e-02
<MEAN> 3
 4.085018e+00 -1.000000e+02 -1.000000e+02
<VARIANCE> 3
 3.306395e+00 1.000000e-02 1.000000e-02
<GCONST> -2.500851e+00
<STATE> 4
<NUMMIXES> 2
<MIXTURE> 1 8.182784e-02
<MEAN> 3
 7.316963e+00 -2.349335e+01 -2.098738e+01
<VARIANCE> 3
 1.289405e+01 1.981261e+03 2.123365e+03
<GCONST> 2.332264e+01
<MIXTURE> 2 9.181724e-01
<MEAN> 3
 7.735096e+00 5.337631e-03 3.787107e+00
<VARIANCE> 3
 1.484028e+01 1.000000e-02 9.869600e+00
<GCONST> 5.895266e+00
<STATE> 5
<NUMMIXES> 2
<MIXTURE> 1 3.329412e-02
<MEAN> 3
 5.320710e+00 -6.392694e+01 -6.292419e+01
<VARIANCE> 3
 9.701605e+00 2.337916e+03 2.472148e+03
<GCONST> 2.335578e+01
<MIXTURE> 2 9.667063e-01
<MEAN> 3
 6.560627e+00 4.880503e+00 2.065843e-03
<VARIANCE> 3
 6.250079e+00 7.326774e+00 1.000000e-02
<GCONST> 4.732591e+00
<STATE> 6
<NUMMIXES> 2
<MIXTURE> 1 4.312973e-02
<MEAN> 3
 4.094749e+00 -1.000000e+02 -1.000000e+02
<VARIANCE> 3
 3.812618e+00 1.000000e-02 1.000000e-02
<GCONST> -2.358393e+00
<MIXTURE> 2 9.568700e-01
<MEAN> 3
 6.145082e+00 1.463956e+00 4.143235e+00
<VARIANCE> 3
 5.861140e+00 1.316489e+00 6.947735e+00
<GCONST> 9.495360e+00
<STATE> 7
<NUMMIXES> 2
<MIXTURE> 1 9.535599e-02
<MEAN> 3
 4.998729e+00 -5.343126e+01 -5.353087e+01
<VARIANCE> 3
 7.280985e+00 2.655644e+03 2.646819e+03
<GCONST> 2.326445e+01
<MIXTURE> 2 9.046432e-01
<MEAN> 3
 5.615633e+00 1.994459e-03 -7.692257e+00
<VARIANCE> 3
 5.396736e+00 1.000000e-02 1.030071e+01
<GCONST> 4.926468e+00
<TRANSP> 8
 0.000000e+00 1.000000e+00 0.000000e+00 0.000000e+00 0.000000e+00 0.000000e+00 0.000000e+00 0.000000e+00
 0.000000e+00 9.791050e-01 2.089499e-02 0.000000e+00 0.000000e+00 0.000000e+00 0.000000e+00 0.000000e+00
 0.000000e+00 0.000000e+00 8.830112e-01 1.169888e-01 0.000000e+00 0.000000e+00 0.000000e+00 0.000000e+00
 0.000000e+00 0.000000e+00 0.000000e+00 9.586349e-01 4.136501e-02 0.000000e+00 0.000000e+00 0.000000e+00
 0.000000e+00 0.000000e+00 0.000000e+00 0.000000e+00 9.572205e-01 4.277949e-02 0.000000e+00 0.000000e+00
 0.000000e+00 0.000000e+00 0.000000e+00 0.000000e+00 0.000000e+00 9.258188e-01 7.418121e-02 0.000000e+00
 0.000000e+00 0.000000e+00 0.000000e+00 0.000000e+00 0.000000e+00 0.000000e+00 8.950186e-01 1.049814e-01
 0.000000e+00 0.000000e+00 0.000000e+00 0.000000e+00 0.000000e+00 0.000000e+00 0.000000e+00 0.000000e+00
<ENDHMM>
