~o
<STREAMINFO> 1 3
<VECSIZE> 3<NULLD><USER><DIAGC>
~h "a"
<BEGINHMM>
<NUMSTATES> 8
<STATE> 2
<NUMMIXES> 2
<MIXTURE> 1 9.795309e-01
<MEAN> 3
 5.617216e+00 4.478307e+00 4.682062e+00
<VARIANCE> 3
 9.264647e+00 7.774476e+00 6.855447e+00
<GCONST> 1.171573e+01
<MIXTURE> 2 2.046931e-02
<MEAN> 3
 3.888493e+00 -1.600746e+01 -1.000000e+02
<VARIANCE> 3
 1.201332e+01 1.310400e+03 1.000000e-02
<GCONST> 1.057256e+01
<STATE> 3
<NUMMIXES> 2
<MIXTURE> 1 9.880332e-01
<MEAN> 3
 3.460588e+00 4.588323e+00 3.240957e-03
<VARIANCE> 3
 8.598319e+00 8.590870e+00 1.000000e-02
<GCONST> 5.210729e+00
<MIXTURE> 2 1.196436e-02
<MEAN> 3
 6.254008e-01 -3.114608e+01 -1.000000e+02
<VARIANCE> 3
 7.704861e-02 2.059783e+03 1.000000e-02
<GCONST> 5.975499e+00
<STATE> 4
<NUMMIXES> 2
<MIXTURE> 1 9.912940e-01
<MEAN> 3
 4.582842e+00 3.080425e-03 3.182987e-04
<VARIANCE> 3
 8.438023e+00 1.000000e-02 1.000000e-02
<GCONST> -1.563961e+00
<MIXTURE> 2 8.705001e-03
<MEAN> 3
 3.740045e-01 -3.117719e+01 -1.000000e+02
<VARIANCE> 3
 2.717732e-02 2.061799e+03 1.000000e-02
<GCONST> 4.934422e+00
<STATE> 5
<NUMMIXES> 2
<MIXTURE> 1 9.580734e-01
<MEAN> 3
 1.546325e+00 -3.247403e+00 1.614084e-01
<VARIANCE> 3
 6.141582e+00 3.401888e+01 3.781663e+00
<GCONST> 1.218579e+01
<MIXTURE> 2 4.192822e-02
<MEAN> 3
 2.767568e-01 -2.661985e+01 -1.000000e+02
<VARIANCE> 3
 6.555298e-02 1.890417e+03 1.000000e-02
<GCONST> 5.728117e+00
<STATE> 6
<NUMMIXES> 2
<MIXTURE> 1 4.202593e-01
<MEAN> 3
 1.818111e-03 -3.723728e-04 -2.286262e-03
<VARIANCE> 3
 1.000000e-02 1.000000e-02 1.000000e-02
<GCONST> -8.301880e+00
<MIXTURE> 2 5.797180e-01
<MEAN> 3
 -1.071124e-06 -4.044222e+01 -1.000000e+02
<VARIANCE> 3
 1.000000e-02 2.290764e+03 1.000000e-02
<GCONST> 4.039931e+00
<STATE> 7
<NUMMIXES> 2
<MIXTURE> 1 9.552800e-01
<MEAN> 3
 1.191166e-03 -2.307773e-01 -6.229867e-01
<VARIANCE> 3
 1.000000e-02 1.820909e-01 2.672314e-01
<GCONST> -2.114429e+00
<MIXTURE> 2 4.472005e-02
<MEAN> 3
 -1.913380e-01 -3.480795e+01 -1.000000e+02
<VARIANCE> 3
 1.034625e-02 1.973824e+03 1.000000e-02
<GCONST> 3.925057e+00
<TRANSP> 8
 0.000000e+00 1.000000e+00 0.000000e+00 0.000000e+00 0.000000e+00 0.000000e+00 0.000000e+00 0.000000e+00
 0.000000e+00 9.690986e-01 3.090145e-02 0.000000e+00 0.000000e+00 0.000000e+00 0.000000e+00 0.000000e+00
 0.000000e+00 0.000000e+00 9.657617e-01 3.423827e-02 0.000000e+00 0.000000e+00 0.000000e+00 0.000000e+00
 0.000000e+00 0.000000e+00 0.000000e+00 9.748480e-01 2.515202e-02 0.000000e+00 0.000000e+00 0.000000e+00
 0.000000e+00 0.000000e+00 0.000000e+00 0.000000e+00 8.984576e-01 1.015424e-01 0.000000e+00 0.000000e+00
 0.000000e+00 0.000000e+00 0.000000e+00 0.000000e+00 0.000000e+00 9.923811e-01 7.618887e-03 0.000000e+00
 0.000000e+00 0.000000e+00 0.000000e+00 0.000000e+00 0.000000e+00 0.000000e+00 8.892764e-01 1.107236e-01
 0.000000e+00 0.000000e+00 0.000000e+00 0.000000e+00 0.000000e+00 0.000000e+00 0.000000e+00 0.000000e+00
<ENDHMM>
~h "e"
<BEGINHMM>
<NUMSTATES> 8
<STATE> 2
<NUMMIXES> 2
<MIXTURE> 1 9.869350e-01
<MEAN> 3
 8.844378e-05 -4.719851e-03 -6.254318e+00
<VARIANCE> 3
 1.000000e-02 1.000000e-02 1.468180e+01
<GCONST> -1.010101e+00
<MIXTURE> 2 1.306638e-02
<MEAN> 3
 -3.744030e-01 -3.439711e+01 -1.000000e+02
<VARIANCE> 3
 2.091781e-02 1.958127e+03 1.000000e-02
<GCONST> 4.621051e+00
<STATE> 3
<NUMMIXES> 2
<MIXTURE> 1 1.239287e-01
<MEAN> 3
 -4.715565e-01 -1.735000e-01 -5.595785e+00
<VARIANCE> 3
 2.174071e-01 6.895137e-02 1.726742e+01
<GCONST> 4.162115e+00
<MIXTURE> 2 8.760734e-01
<MEAN> 3
 -1.155279e+00 -3.573646e+01 -1.000000e+02
<VARIANCE> 3
 4.079735e-01 2.122670e+03 1.000000e-02
<GCONST> 7.672338e+00
<STATE> 4
<NUMMIXES> 2
<MIXTURE> 1 9.862753e-01
<MEAN> 3
 -4.838823e-03 -5.861645e+00 -7.672568e+00
<VARIANCE> 3
 1.000000e-02 1.295271e+01 8.824723e+00
<GCONST> 5.647323e+00
<MIXTURE> 2 1.372531e-02
<MEAN> 3
 -2.422702e+00 -3.313423e+01 -1.000000e+02
<VARIANCE> 3
 5.252418e-01 1.924647e+03 1.000000e-02
<GCONST> 7.827063e+00
<STATE> 5
<NUMMIXES> 2
<MIXTURE> 1 1.238398e-01
<MEAN> 3
 -2.764781e+00 -2.110132e+00 -1.006011e+00
<VARIANCE> 3
 3.151971e+00 5.769928e+00 4.084295e+00
<GCONST> 9.821468e+00
<MIXTURE> 2 8.761202e-01
<MEAN> 3
 -8.468668e+00 -4.584785e+00 -1.000000e+02
<VARIANCE> 3
 4.696740e+00 4.385547e+01 1.000000e-02
<GCONST> 6.236230e+00
<STATE> 6
<NUMMIXES> 2
<MIXTURE> 1 1.656453e-01
<MEAN> 3
 -1.778041e+00 -7.997938e+00 -8.090031e+00
<VARIANCE> 3
 1.296309e+00 7.592471e+00 9.681493e+00
<GCONST> 1.007053e+01
<MIXTURE> 2 8.343608e-01
<MEAN> 3
 -8.593940e+00 -9.888058e+01 -1.000000e+02
<VARIANCE> 3
 4.418683e+00 1.093976e+02 1.000000e-02
<GCONST> 7.089292e+00
<STATE> 7
<NUMMIXES> 2
<MIXTURE> 1 9.898526e-01
<MEAN> 3
 -8.769616e+00 -8.251510e+00 -7.930127e+00
<VARIANCE> 3
 5.188875e+00 7.922278e+00 8.341942e+00
<GCONST> 1.135112e+01
<MIXTURE> 2 1.014906e-02
<MEAN> 3
 -3.631398e+00 -3.117904e+01 -1.000000e+02
<VARIANCE> 3
 1.587413e+00 2.066550e+03 1.000000e-02
<GCONST> 9.004203e+00
<TRANSP> 8
 0.000000e+00 1.000000e+00 0.000000e+00 0.000000e+00 0.000000e+00 0.000000e+00 0.000000e+00 0.000000e+00
 0.000000e+00 9.657329e-01 3.426712e-02 0.000000e+00 0.000000e+00 0.000000e+00 0.000000e+00 0.000000e+00
 0.000000e+00 0.000000e+00 9.019129e-01 9.808709e-02 0.000000e+00 0.000000e+00 0.000000e+00 0.000000e+00
 0.000000e+00 0.000000e+00 0.000000e+00 9.676928e-01 3.230720e-02 0.000000e+00 0.000000e+00 0.000000e+00
 0.000000e+00 0.000000e+00 0.000000e+00 0.000000e+00 9.796563e-01 2.034374e-02 0.000000e+00 0.000000e+00
 0.000000e+00 0.000000e+00 0.000000e+00 0.000000e+00 0.000000e+00 9.637277e-01 3.627234e-02 0.000000e+00
 0.000000e+00 0.000000e+00 0.000000e+00 0.000000e+00 0.000000e+00 0.000000e+00 9.733362e-01 2.666383e-02
 0.000000e+00 0.000000e+00 0.000000e+00 0.000000e+00 0.000000e+00 0.000000e+00 0.000000e+00 0.000000e+00
<ENDHMM>
~h "i"
<BEGINHMM>
<NUMSTATES> 8
<STATE> 2
<NUMMIXES> 2
<MIXTURE> 1 9.543926e-01
<MEAN> 3
 -5.047591e-01 -4.583359e+00 -6.917693e+00
<VARIANCE> 3
 6.083560e+00 1.937131e+01 1.458498e+01
<GCONST> 1.296301e+01
<MIXTURE> 2 4.560830e-02
<MEAN> 3
 -2.840885e+00 -2.876086e+01 -1.000000e+02
<VARIANCE> 3
 6.719620e-01 1.926291e+03 1.000000e-02
<GCONST> 8.074260e+00
<STATE> 3
<NUMMIXES> 2
<MIXTURE> 1 9.882929e-01
<MEAN> 3
 -5.879879e+00 -8.278042e+00 -2.795317e-03
<VARIANCE> 3
 1.791680e+01 6.723919e+00 1.000000e-02
<GCONST> 5.699871e+00
<MIXTURE> 2 1.170770e-02
<MEAN> 3
 -1.979925e+00 -3.570689e+01 -1.000000e+02
<VARIANCE> 3
 5.106453e-01 2.237625e+03 1.000000e-02
<GCONST> 7.949552e+00
<STATE> 4
<NUMMIXES> 2
<MIXTURE> 1 8.945788e-01
<MEAN> 3
 -5.451618e+00 -3.095570e-03 2.790464e+00
<VARIANCE> 3
 1.889663e+01 2.326439e-02 8.735594e+00
<GCONST> 6.859189e+00
<MIXTURE> 2 1.054259e-01
<MEAN> 3
 -4.291254e+00 -1.298284e+01 -1.000000e+02
<VARIANCE> 3
 1.232088e+01 1.150486e+03 1.000000e-02
<GCONST> 1.046770e+01
<STATE> 5
<NUMMIXES> 2
<MIXTURE> 1 9.876936e-01
<MEAN> 3
 -8.218915e+00 -1.545680e-03 1.036460e-03
<VARIANCE> 3
 6.467438e+00 1.000000e-02 1.000000e-02
<GCONST> -1.829929e+00
<MIXTURE> 2 1.230635e-02
<MEAN> 3
 -8.501385e-01 -3.021294e+01 -1.000000e+02
<VARIANCE> 3
 1.498825e-01 2.058226e+03 1.000000e-02
<GCONST> 6.640158e+00
<STATE> 6
<NUMMIXES> 2
<MIXTURE> 1 9.099814e-01
<MEAN> 3
 -2.903040e+00 2.255408e+00 -1.254928e+00
<VARIANCE> 3
 1.618085e+01 7.374967e+00 1.405734e+01
<GCONST> 1.293870e+01
<MIXTURE> 2 9.001471e-02
<MEAN> 3
 -5.785837e-01 -2.485379e+01 -1.000000e+02
<VARIANCE> 3
 9.383848e-02 1.831496e+03 1.000000e-02
<GCONST> 6.055169e+00
<STATE> 7
<NUMMIXES> 2
<MIXTURE> 1 4.923621e-01
<MEAN> 3
 -1.934947e-03 7.774702e-04 1.897218e-03
<VARIANCE> 3
 1.000000e-02 1.000000e-02 1.000000e-02
<GCONST> -8.301880e+00
<MIXTURE> 2 5.075663e-01
<MEAN> 3
 -9.217641e-04 -1.060725e-01 -1.000000e+02
<VARIANCE> 3
 1.000000e-02 2.125734e+01 1.000000e-02
<GCONST> -6.400068e-01
<TRANSP> 8
 0.000000e+00 1.000000e+00 0.000000e+00 0.000000e+00 0.000000e+00 0.000000e+00 0.000000e+00 0.000000e+00
 0.000000e+00 9.101328e-01 8.986714e-02 0.000000e+00 0.000000e+00 0.000000e+00 0.000000e+00 0.000000e+00
 0.000000e+00 0.000000e+00 9.749044e-01 2.509562e-02 0.000000e+00 0.000000e+00 0.000000e+00 0.000000e+00
 0.000000e+00 0.000000e+00 0.000000e+00 8.935130e-01 1.064870e-01 0.000000e+00 0.000000e+00 0.000000e+00
 0.000000e+00 0.000000e+00 0.000000e+00 0.000000e+00 9.716825e-01 2.831747e-02 0.000000e+00 0.000000e+00
 0.000000e+00 0.000000e+00 0.000000e+00 0.000000e+00 0.000000e+00 8.803733e-01 1.196267e-01 0.000000e+00
 0.000000e+00 0.000000e+00 0.000000e+00 0.000000e+00 0.000000e+00 0.000000e+00 9.923100e-01 7.689946e-03
 0.000000e+00 0.000000e+00 0.000000e+00 0.000000e+00 0.000000e+00 0.000000e+00 0.000000e+00 0.000000e+00
<ENDHMM>
~h "m"
<BEGINHMM>
<NUMSTATES> 8
<STATE> 2
<NUMMIXES> 2
<MIXTURE> 1 2.817040e-01
<MEAN> 3
 7.691339e-04 5.150060e-03 3.087888e+00
<VARIANCE> 3
 1.000000e-02 1.000000e-02 9.360044e+00
<GCONST> -1.460259e+00
<MIXTURE> 2 7.182601e-01
<MEAN> 3
 8.445451e-04 -9.945290e+01 -1.000000e+02
<VARIANCE> 3
 1.000000e-02 5.416486e+01 1.000000e-02
<GCONST> 2.953234e-01
<STATE> 3
<NUMMIXES> 2
<MIXTURE> 1 9.845715e-01
<MEAN> 3
 3.169087e-03 2.409272e+00 2.232947e+00
<VARIANCE> 3
 1.000000e-02 3.183231e+00 8.966664e+00
<GCONST> 4.259871e+00
<MIXTURE> 2 1.542469e-02
<MEAN> 3
 2.318855e-01 -3.613937e+01 -1.000000e+02
<VARIANCE> 3
 1.014050e-02 2.282430e+03 1.000000e-02
<GCONST> 4.050239e+00
<STATE> 4
<NUMMIXES> 2
<MIXTURE> 1 9.523125e-01
<MEAN> 3
 2.327463e+00 2.774324e-01 -1.857680e+00
<VARIANCE> 3
 3.352362e+00 4.374609e-01 2.559458e+01
<GCONST> 9.138909e+00
<MIXTURE> 2 4.768817e-02
<MEAN> 3
 3.844822e-01 -3.426234e+01 -1.000000e+02
<VARIANCE> 3
 2.744108e-02 2.249051e+03 1.000000e-02
<GCONST> 5.031011e+00
<STATE> 5
<NUMMIXES> 2
<MIXTURE> 1 9.641638e-01
<MEAN> 3
 1.989573e+00 4.334250e+00 2.818325e+00
<VARIANCE> 3
 1.926031e+00 5.003831e+00 7.223623e+00
<GCONST> 9.756654e+00
<MIXTURE> 2 3.583471e-02
<MEAN> 3
 5.654355e-01 -3.390041e+01 -1.000000e+02
<VARIANCE> 3
 6.609987e-02 2.242602e+03 1.000000e-02
<GCONST> 5.907265e+00
<STATE> 6
<NUMMIXES> 2
<MIXTURE> 1 8.996060e-03
<MEAN> 3
 1.540199e+00 2.422713e+00 6.875411e-01
<VARIANCE> 3
 4.048677e+00 6.040566e+00 1.697116e+00
<GCONST> 9.239450e+00
<MIXTURE> 2 9.910066e-01
<MEAN> 3
 3.494123e+00 1.412646e+00 -1.000000e+02
<VARIANCE> 3
 7.568377e+00 3.925787e+01 1.000000e-02
<GCONST> 6.602592e+00
<STATE> 7
<NUMMIXES> 2
<MIXTURE> 1 5.677413e-02
<MEAN> 3
 1.641163e+00 2.527168e+00 6.645615e-01
<VARIANCE> 3
 4.367409e+00 6.475207e+00 1.599712e+00
<GCONST> 9.325606e+00
<MIXTURE> 2 9.432274e-01
<MEAN> 3
 5.043925e+00 -9.704552e+01 -1.000000e+02
<VARIANCE> 3
 9.306971e+00 2.827969e+02 1.000000e-02
<GCONST> 8.783954e+00
<TRANSP> 8
 0.000000e+00 1.000000e+00 0.000000e+00 0.000000e+00 0.000000e+00 0.000000e+00 0.000000e+00 0.000000e+00
 0.000000e+00 9.848541e-01 1.514584e-02 0.000000e+00 0.000000e+00 0.000000e+00 0.000000e+00 0.000000e+00
 0.000000e+00 0.000000e+00 9.624234e-01 3.757659e-02 0.000000e+00 0.000000e+00 0.000000e+00 0.000000e+00
 0.000000e+00 0.000000e+00 0.000000e+00 8.897012e-01 1.102988e-01 0.000000e+00 0.000000e+00 0.000000e+00
 0.000000e+00 0.000000e+00 0.000000e+00 0.000000e+00 9.178996e-01 8.210036e-02 0.000000e+00 0.000000e+00
 0.000000e+00 0.000000e+00 0.000000e+00 0.000000e+00 0.000000e+00 9.801995e-01 1.980056e-02 0.000000e+00
 0.000000e+00 0.000000e+00 0.000000e+00 0.000000e+00 0.000000e+00 0.000000e+00 8.761163e-01 1.238837e-01
 0.000000e+00 0.000000e+00 0.000000e+00 0.000000e+00 0.000000e+00 0.000000e+00 0.000000e+00 0.000000e+00
<ENDHMM>
~h "sil"
<BEGINHMM>
<NUMSTATES> 8
<STATE> 2
<NUMMIXES> 2
<MIXTURE> 1 9.358141e-01
<MEAN> 3
 9.361894e+00 3.103582e+00 1.071895e+00
<VARIANCE> 3
 6.871109e+00 6.972288e+00 3.404069e+00
<GCONST> 1.060787e+01
<MIXTURE> 2 6.418563e-02
<MEAN> 3
 3.960266e+00 -6.346836e+01 -6.174693e+01
<VARIANCE> 3
 8.436414e+00 2.014834e+03 2.214108e+03
<GCONST> 2.295708e+01
<STATE> 3
<NUMMIXES> 2
<MIXTURE> 1 3.674601e-02
<MEAN> 3
 4.065445e+00 -7.041918e+01 -7.057752e+01
<VARIANCE> 3
 1.214077e+01 2.137768e+03 2.122858e+03
<GCONST> 2.333824e+01
<MIXTURE> 2 9.632540e-01
<MEAN> 3
 9.250999e+00 -3.975153e-04 3.911731e-03
<VARIANCE> 3
 3.164878e+00 1.000000e-02 1.000000e-02
<GCONST> -2.544595e+00
<STATE> 4
<NUMMIXES> 2
<MIXTURE> 1 2.218306e-02
<MEAN> 3
 3.508309e+00 -8.638868e+01 -8.698093e+01
<VARIANCE> 3
 1.070650e+01 1.236731e+03 1.133341e+03
<GCONST> 2.203763e+01
<MIXTURE> 2 9.778165e-01
<MEAN> 3
 8.281016e+00 1.943758e-03 3.177663e+00
<VARIANCE> 3
 8.479690e+00 1.000000e-02 8.045212e+00
<GCONST> 5.131212e+00
<STATE> 5
<NUMMIXES> 2
<MIXTURE> 1 6.810644e-02
<MEAN> 3
 3.512342e+00 -8.826639e+01 -8.866618e+01
<VARIANCE> 3
 1.030301e+01 1.097314e+03 1.023982e+03
<GCONST> 2.177814e+01
<MIXTURE> 2 9.318936e-01
<MEAN> 3
 6.459830e+00 9.475458e-03 -7.665514e+00
<VARIANCE> 3
 6.573266e+00 1.000000e-02 1.253093e+01
<GCONST> 5.319672e+00
<STATE> 6
<NUMMIXES> 2
<MIXTURE> 1 9.739997e-01
<MEAN> 3
 -5.704613e-01 -1.000000e+02 -1.000000e+02
<VARIANCE> 3
 1.403185e+01 1.000000e-02 1.000000e-02
<GCONST> -1.055379e+00
<MIXTURE> 2 2.597334e-02
<MEAN> 3
 8.084845e+00 1.263320e+00 2.582898e+00
<VARIANCE> 3
 7.074361e+00 8.170968e-01 1.744348e+00
<GCONST> 7.824492e+00
<STATE> 7
<NUMMIXES> 2
<MIXTURE> 1 9.574199e-01
<MEAN> 3
 8.090531e+00 4.445910e+00 2.853340e-03
<VARIANCE> 3
 1.383303e+01 8.383730e+00 1.000000e-02
<GCONST> 5.661814e+00
<MIXTURE> 2 4.258078e-02
<MEAN> 3
 4.676809e+00 -6.676848e+01 -6.600928e+01
<VARIANCE> 3
 6.393785e+00 2.288479e+03 2.394543e+03
<GCONST> 2.288555e+01
<TRANSP> 8
 0.000000e+00 1.000000e+00 0.000000e+00 0.000000e+00 0.000000e+00 0.000000e+00 0.000000e+00 0.000000e+00
 0.000000e+00 9.228497e-01 7.715034e-02 0.000000e+00 0.000000e+00 0.000000e+00 0.000000e+00 0.000000e+00
 0.000000e+00 0.000000e+00 9.478567e-01 5.214330e-02 0.000000e+00 0.000000e+00 0.000000e+00 0.000000e+00
 0.000000e+00 0.000000e+00 0.000000e+00 9.614111e-01 3.858896e-02 0.000000e+00 0.000000e+00 0.000000e+00
 0.000000e+00 0.000000e+00 0.000000e+00 0.000000e+00 8.789588e-01 1.210411e-01 0.000000e+00 0.000000e+00
 0.000000e+00 0.000000e+00 0.000000e+00 0.000000e+00 0.000000e+00 9.959090e-01 4.091011e-03 0.000000e+00
 0.000000e+00 0.000000e+00 0.000000e+00 0.000000e+00 0.000000e+00 0.000000e+00 9.425595e-01 5.744052e-02
 0.000000e+00 0.000000e+00 0.000000e+00 0.000000e+00 0.000000e+00 0.000000e+00 0.000000e+00 0.000000e+00
<ENDHMM>
