~o
<STREAMINFO> 1 1
<VECSIZE> 1<NULLD><USER><DIAGC>
~h "a"
<BEGINHMM>
<NUMSTATES> 8
<STATE> 2
<MEAN> 1
 3.170530e+00
<VARIANCE> 1
 3.080282e+00
<GCONST> 2.962898e+00
<STATE> 3
<MEAN> 1
 1.013574e+01
<VARIANCE> 1
 2.514055e+00
<GCONST> 2.759774e+00
<STATE> 4
<MEAN> 1
 6.952271e+00
<VARIANCE> 1
 1.146546e+00
<GCONST> 1.974631e+00
<STATE> 5
<MEAN> 1
 4.585137e+00
<VARIANCE> 1
 8.270221e-01
<GCONST> 1.647953e+00
<STATE> 6
<MEAN> 1
 1.784639e+00
<VARIANCE> 1
 9.608917e-01
<GCONST> 1.797984e+00
<STATE> 7
<MEAN> 1
 1.935722e-03
<VARIANCE> 1
 1.000000e-02
<GCONST> -2.767293e+00
<TRANSP> 8
 0.000000e+00 1.000000e+00 0.000000e+00 0.000000e+00 0.000000e+00 0.000000e+00 0.000000e+00 0.000000e+00
 0.000000e+00 9.449059e-01 5.509410e-02 0.000000e+00 0.000000e+00 0.000000e+00 0.000000e+00 0.000000e+00
 0.000000e+00 0.000000e+00 9.780519e-01 2.194816e-02 0.000000e+00 0.000000e+00 0.000000e+00 0.000000e+00
 0.000000e+00 0.000000e+00 0.000000e+00 9.554675e-01 4.453246e-02 0.000000e+00 0.000000e+00 0.000000e+00
 0.000000e+00 0.000000e+00 0.000000e+00 0.000000e+00 9.566795e-01 4.332048e-02 0.000000e+00 0.000000e+00
 0.000000e+00 0.000000e+00 0.000000e+00 0.000000e+00 0.000000e+00 9.535028e-01 4.649719e-02 0.000000e+00
 0.000000e+00 0.000000e+00 0.000000e+00 0.000000e+00 0.000000e+00 0.000000e+00 9.919634e-01 8.036495e-03
 0.000000e+00 0.000000e+00 0.000000e+00 0.000000e+00 0.000000e+00 0.000000e+00 0.000000e+00 0.000000e+00
<ENDHMM>
~h "e"
<BEGINHMM>
<NUMSTATES> 8
<STATE> 2
<MEAN> 1
 -1.419871e-03
<VARIANCE> 1
 1.000000e-02
<GCONST> -2.767293e+00
<STATE> 3
<MEAN> 1
 -7.778821e-01
<VARIANCE> 1
 1.361285e-01
<GCONST> -1.562788e-01
<STATE> 4
<MEAN> 1
 -2.203017e+00
<VARIANCE> 1
 6.419531e-01
<GCONST> 1.394637e+00
<STATE> 5
<MEAN> 1
 -4.441789e+00
<VARIANCE> 1
 5.765518e-01
<GCONST> 1.287187e+00
<STATE> 6
<MEAN> 1
 -6.242880e+00
<VARIANCE> 1
 4.223160e-01
<GCONST> 9.758756e-01
<STATE> 7
<MEAN> 1
 -8.759989e+00
<VARIANCE> 1
 6.854646e-01
<GCONST> 1.460219e+00
<TRANSP> 8
 0.000000e+00 1.000000e+00 0.000000e+00 0.000000e+00 0.000000e+00 0.000000e+00 0.000000e+00 0.000000e+00
 0.000000e+00 9.921480e-01 7.851940e-03 0.000000e+00 0.000000e+00 0.000000e+00 0.000000e+00 0.000000e+00
 0.000000e+00 0.000000e+00 9.408284e-01 5.917152e-02 0.000000e+00 0.000000e+00 0.000000e+00 0.000000e+00
 0.000000e+00 0.000000e+00 0.000000e+00 9.387738e-01 6.122616e-02 0.000000e+00 0.000000e+00 0.000000e+00
 0.000000e+00 0.000000e+00 0.000000e+00 0.000000e+00 9.179926e-01 8.200743e-02 0.000000e+00 0.000000e+00
 0.000000e+00 0.000000e+00 0.000000e+00 0.000000e+00 0.000000e+00 9.397901e-01 6.020987e-02 0.000000e+00
 0.000000e+00 0.000000e+00 0.000000e+00 0.000000e+00 0.000000e+00 0.000000e+00 9.622077e-01 3.779229e-02
 0.000000e+00 0.000000e+00 0.000000e+00 0.000000e+00 0.000000e+00 0.000000e+00 0.000000e+00 0.000000e+00
<ENDHMM>
~h "i"
<BEGINHMM>
<NUMSTATES> 8
<STATE> 2
<MEAN> 1
 -1.042120e+01
<VARIANCE> 1
 2.923121e-01
<GCONST> 6.079439e-01
<STATE> 3
<MEAN> 1
 -8.209072e+00
<VARIANCE> 1
 2.818650e+00
<GCONST> 2.874135e+00
<STATE> 4
<MEAN> 1
 -4.237557e+00
<VARIANCE> 1
 1.700584e+00
<GCONST> 2.368849e+00
<STATE> 5
<MEAN> 1
 -2.032463e+00
<VARIANCE> 1
 5.436480e-02
<GCONST> -1.074161e+00
<STATE> 6
<MEAN> 1
 -1.028125e+00
<VARIANCE> 1
 1.375618e-01
<GCONST> -1.458049e-01
<STATE> 7
<MEAN> 1
 -2.927400e-01
<VARIANCE> 1
 1.279289e-02
<GCONST> -2.520988e+00
<TRANSP> 8
 0.000000e+00 1.000000e+00 0.000000e+00 0.000000e+00 0.000000e+00 0.000000e+00 0.000000e+00 0.000000e+00
 0.000000e+00 9.859207e-01 1.407926e-02 0.000000e+00 0.000000e+00 0.000000e+00 0.000000e+00 0.000000e+00
 0.000000e+00 0.000000e+00 9.835086e-01 1.649131e-02 0.000000e+00 0.000000e+00 0.000000e+00 0.000000e+00
 0.000000e+00 0.000000e+00 0.000000e+00 8.637854e-01 1.362146e-01 0.000000e+00 0.000000e+00 0.000000e+00
 0.000000e+00 0.000000e+00 0.000000e+00 0.000000e+00 0.000000e+00 1.000000e+00 0.000000e+00 0.000000e+00
 0.000000e+00 0.000000e+00 0.000000e+00 0.000000e+00 0.000000e+00 7.068554e-01 2.931446e-01 0.000000e+00
 0.000000e+00 0.000000e+00 0.000000e+00 0.000000e+00 0.000000e+00 0.000000e+00 2.307460e-01 7.692540e-01
 0.000000e+00 0.000000e+00 0.000000e+00 0.000000e+00 0.000000e+00 0.000000e+00 0.000000e+00 0.000000e+00
<ENDHMM>
~h "m"
<BEGINHMM>
<NUMSTATES> 8
<STATE> 2
<MEAN> 1
 8.867974e-04
<VARIANCE> 1
 1.000000e-02
<GCONST> -2.767293e+00
<STATE> 3
<MEAN> 1
 8.902170e-01
<VARIANCE> 1
 5.072173e-02
<GCONST> -1.143524e+00
<STATE> 4
<MEAN> 1
 1.388362e+00
<VARIANCE> 1
 8.103458e-01
<GCONST> 1.627583e+00
<STATE> 5
<MEAN> 1
 3.170274e+00
<VARIANCE> 1
 5.376321e-01
<GCONST> 1.217296e+00
<STATE> 6
<MEAN> 1
 5.243734e+00
<VARIANCE> 1
 4.734437e-01
<GCONST> 1.090155e+00
<STATE> 7
<MEAN> 1
 7.901255e+00
<VARIANCE> 1
 1.226949e+00
<GCONST> 2.042408e+00
<TRANSP> 8
 0.000000e+00 1.000000e+00 0.000000e+00 0.000000e+00 0.000000e+00 0.000000e+00 0.000000e+00 0.000000e+00
 0.000000e+00 9.962258e-01 3.774188e-03 0.000000e+00 0.000000e+00 0.000000e+00 0.000000e+00 0.000000e+00
 0.000000e+00 0.000000e+00 9.224114e-01 7.758868e-02 0.000000e+00 0.000000e+00 0.000000e+00 0.000000e+00
 0.000000e+00 0.000000e+00 0.000000e+00 9.486502e-01 5.134974e-02 0.000000e+00 0.000000e+00 0.000000e+00
 0.000000e+00 0.000000e+00 0.000000e+00 0.000000e+00 9.330758e-01 6.692413e-02 0.000000e+00 0.000000e+00
 0.000000e+00 0.000000e+00 0.000000e+00 0.000000e+00 0.000000e+00 9.339851e-01 6.601491e-02 0.000000e+00
 0.000000e+00 0.000000e+00 0.000000e+00 0.000000e+00 0.000000e+00 0.000000e+00 9.475877e-01 5.241230e-02
 0.000000e+00 0.000000e+00 0.000000e+00 0.000000e+00 0.000000e+00 0.000000e+00 0.000000e+00 0.000000e+00
<ENDHMM>
~h "sil"
<BEGINHMM>
<NUMSTATES> 8
<STATE> 2
<MEAN> 1
 1.212904e+01
<VARIANCE> 1
 1.254403e+01
<GCONST> 4.367122e+00
<STATE> 3
<MEAN> 1
 1.076515e+01
<VARIANCE> 1
 6.228611e-01
<GCONST> 1.364445e+00
<STATE> 4
<MEAN> 1
 9.088617e+00
<VARIANCE> 1
 8.426124e-01
<GCONST> 1.666629e+00
<STATE> 5
<MEAN> 1
 7.353719e+00
<VARIANCE> 1
 1.123056e+00
<GCONST> 1.953931e+00
<STATE> 6
<MEAN> 1
 3.180819e+00
<VARIANCE> 1
 4.465438e+00
<GCONST> 3.334244e+00
<STATE> 7
<MEAN> 1
 5.952623e+00
<VARIANCE> 1
 1.126436e+00
<GCONST> 1.956936e+00
<TRANSP> 8
 0.000000e+00 1.000000e+00 0.000000e+00 0.000000e+00 0.000000e+00 0.000000e+00 0.000000e+00 0.000000e+00
 0.000000e+00 9.497098e-01 5.029023e-02 0.000000e+00 0.000000e+00 0.000000e+00 0.000000e+00 0.000000e+00
 0.000000e+00 0.000000e+00 9.817156e-01 1.828432e-02 0.000000e+00 0.000000e+00 0.000000e+00 0.000000e+00
 0.000000e+00 0.000000e+00 0.000000e+00 9.590244e-01 4.097557e-02 0.000000e+00 0.000000e+00 0.000000e+00
 0.000000e+00 0.000000e+00 0.000000e+00 0.000000e+00 9.179400e-01 8.206004e-02 0.000000e+00 0.000000e+00
 0.000000e+00 0.000000e+00 0.000000e+00 0.000000e+00 0.000000e+00 8.327648e-01 1.672352e-01 0.000000e+00
 0.000000e+00 0.000000e+00 0.000000e+00 0.000000e+00 0.000000e+00 0.000000e+00 9.306968e-01 6.930326e-02
 0.000000e+00 0.000000e+00 0.000000e+00 0.000000e+00 0.000000e+00 0.000000e+00 0.000000e+00 0.000000e+00
<ENDHMM>
