~o
<STREAMINFO> 1 3
<VECSIZE> 3<NULLD><USER><DIAGC>
~h "a"
<BEGINHMM>
<NUMSTATES> 8
<STATE> 2
<NUMMIXES> 2
<MIXTURE> 1 6.032823e-01
<MEAN> 3
 3.869703e+00 3.789842e+00 1.977802e+00
<VARIANCE> 3
 8.808580e+00 5.447362e+00 9.160609e+00
<GCONST> 1.159940e+01
<MIXTURE> 2 3.967178e-01
<MEAN> 3
 2.441792e-01 -5.463265e+01 -1.000000e+02
<VARIANCE> 3
 5.672408e-01 2.499161e+03 1.000000e-02
<GCONST> 8.165200e+00
<STATE> 3
<NUMMIXES> 2
<MIXTURE> 1 9.934527e-03
<MEAN> 3
 3.193519e+00 3.003829e+00 -2.133150e+01
<VARIANCE> 3
 8.720586e+00 8.788072e+00 1.841834e+03
<GCONST> 1.737123e+01
<MIXTURE> 2 9.900645e-01
<MEAN> 3
 -5.919531e-04 -1.000000e+02 -1.000000e+02
<VARIANCE> 3
 1.000000e-02 1.000000e-02 1.000000e-02
<GCONST> -8.301880e+00
<STATE> 4
<NUMMIXES> 2
<MIXTURE> 1 9.914775e-01
<MEAN> 3
 5.279418e+00 5.751167e+00 4.444907e+00
<VARIANCE> 3
 9.815680e+00 6.536944e+00 8.203139e+00
<GCONST> 1.177960e+01
<MIXTURE> 2 8.522909e-03
<MEAN> 3
 1.951908e-01 -5.459009e+01 -1.000000e+02
<VARIANCE> 3
 5.608397e-02 2.496958e+03 1.000000e-02
<GCONST> 5.850385e+00
<STATE> 5
<NUMMIXES> 2
<MIXTURE> 1 9.751428e-01
<MEAN> 3
 1.632997e+00 1.127146e-01 -6.175708e-01
<VARIANCE> 3
 5.454109e+00 3.346206e-01 3.831933e+01
<GCONST> 9.761197e+00
<MIXTURE> 2 2.485627e-02
<MEAN> 3
 1.009286e-01 -5.245091e+01 -1.000000e+02
<VARIANCE> 3
 1.759422e-02 2.520427e+03 1.000000e-02
<GCONST> 4.700459e+00
<STATE> 6
<NUMMIXES> 2
<MIXTURE> 1 9.901776e-01
<MEAN> 3
 4.693080e+00 9.171021e-01 1.285219e-03
<VARIANCE> 3
 9.264933e+00 3.076713e+00 1.000000e-02
<GCONST> 4.258559e+00
<MIXTURE> 2 9.822525e-03
<MEAN> 3
 4.190698e-02 -4.979455e+01 -1.000000e+02
<VARIANCE> 3
 1.000000e-02 2.522544e+03 1.000000e-02
<GCONST> 4.136313e+00
<STATE> 7
<NUMMIXES> 2
<MIXTURE> 1 9.553467e-02
<MEAN> 3
 2.063526e-02 -6.903991e+00 7.975012e-02
<VARIANCE> 3
 1.000000e-02 1.340892e+01 1.327320e-01
<GCONST> 1.484958e+00
<MIXTURE> 2 9.044542e-01
<MEAN> 3
 -7.412483e-04 -1.807613e+00 -1.000000e+02
<VARIANCE> 3
 1.000000e-02 4.823122e+01 1.000000e-02
<GCONST> 1.792974e-01
<TRANSP> 8
 0.000000e+00 1.000000e+00 0.000000e+00 0.000000e+00 0.000000e+00 0.000000e+00 0.000000e+00 0.000000e+00
 0.000000e+00 1.302618e-05 9.999869e-01 0.000000e+00 0.000000e+00 0.000000e+00 0.000000e+00 0.000000e+00
 0.000000e+00 0.000000e+00 9.873331e-01 1.266695e-02 0.000000e+00 0.000000e+00 0.000000e+00 0.000000e+00
 0.000000e+00 0.000000e+00 0.000000e+00 9.785449e-01 2.145511e-02 0.000000e+00 0.000000e+00 0.000000e+00
 0.000000e+00 0.000000e+00 0.000000e+00 0.000000e+00 9.397819e-01 6.021808e-02 0.000000e+00 0.000000e+00
 0.000000e+00 0.000000e+00 0.000000e+00 0.000000e+00 0.000000e+00 9.774199e-01 2.258016e-02 0.000000e+00
 0.000000e+00 0.000000e+00 0.000000e+00 0.000000e+00 0.000000e+00 0.000000e+00 9.834352e-01 1.656483e-02
 0.000000e+00 0.000000e+00 0.000000e+00 0.000000e+00 0.000000e+00 0.000000e+00 0.000000e+00 0.000000e+00
<ENDHMM>
~h "e"
<BEGINHMM>
<NUMSTATES> 8
<STATE> 2
<NUMMIXES> 2
<MIXTURE> 1 9.935837e-01
<MEAN> 3
 5.306858e-04 -9.489428e-04 -2.330315e-03
<VARIANCE> 3
 1.000000e-02 1.000000e-02 1.000000e-02
<GCONST> -8.301880e+00
<MIXTURE> 2 6.416097e-03
<MEAN> 3
 -1.381574e-01 -5.173870e+01 -1.000000e+02
<VARIANCE> 3
 2.574622e-02 2.272472e+03 1.000000e-02
<GCONST> 4.977617e+00
<STATE> 3
<NUMMIXES> 2
<MIXTURE> 1 9.918494e-01
<MEAN> 3
 -1.894940e-03 -3.016214e+00 -5.670774e+00
<VARIANCE> 3
 1.000000e-02 1.485017e+01 1.579395e+01
<GCONST> 6.366099e+00
<MIXTURE> 2 8.149801e-03
<MEAN> 3
 -2.425572e-01 -5.152996e+01 -1.000000e+02
<VARIANCE> 3
 6.256422e-02 2.272699e+03 1.000000e-02
<GCONST> 5.865623e+00
<STATE> 4
<NUMMIXES> 2
<MIXTURE> 1 9.786393e-01
<MEAN> 3
 -5.585336e+00 -2.782359e+00 -4.164327e-01
<VARIANCE> 3
 1.352925e+01 1.115768e+01 1.968748e+00
<GCONST> 1.120801e+01
<MIXTURE> 2 2.135939e-02
<MEAN> 3
 -3.807411e-01 -5.047372e+01 -1.000000e+02
<VARIANCE> 3
 1.465008e-01 2.272294e+03 1.000000e-02
<GCONST> 6.716282e+00
<STATE> 5
<NUMMIXES> 2
<MIXTURE> 1 9.668571e-01
<MEAN> 3
 -2.770211e+00 -7.924960e+00 -8.446268e+00
<VARIANCE> 3
 4.420669e+00 8.549900e+00 5.036946e+00
<GCONST> 1.076264e+01
<MIXTURE> 2 3.314134e-02
<MEAN> 3
 -5.564018e-01 -4.842719e+01 -1.000000e+02
<VARIANCE> 3
 3.488441e-01 2.271181e+03 1.000000e-02
<GCONST> 7.583386e+00
<STATE> 6
<NUMMIXES> 2
<MIXTURE> 1 3.134441e-02
<MEAN> 3
 -7.292490e+00 -2.758964e+00 -3.129564e-02
<VARIANCE> 3
 9.256475e+00 1.644736e+01 4.150673e+01
<GCONST> 1.426498e+01
<MIXTURE> 2 9.686565e-01
<MEAN> 3
 -7.537177e+00 -4.887982e+00 -1.000000e+02
<VARIANCE> 3
 9.993571e+00 5.920943e+01 1.000000e-02
<GCONST> 7.291484e+00
<STATE> 7
<NUMMIXES> 2
<MIXTURE> 1 9.861470e-01
<MEAN> 3
 -9.373927e+00 -9.246644e+00 -7.851440e+00
<VARIANCE> 3
 2.772418e+00 2.627933e+00 7.810703e+00
<GCONST> 9.555044e+00
<MIXTURE> 2 1.385320e-02
<MEAN> 3
 -2.005569e+00 -4.872489e+01 -1.000000e+02
<VARIANCE> 3
 4.677507e+00 2.392490e+03 1.000000e-02
<GCONST> 1.023132e+01
<TRANSP> 8
 0.000000e+00 1.000000e+00 0.000000e+00 0.000000e+00 0.000000e+00 0.000000e+00 0.000000e+00 0.000000e+00
 0.000000e+00 9.854565e-01 1.454354e-02 0.000000e+00 0.000000e+00 0.000000e+00 0.000000e+00 0.000000e+00
 0.000000e+00 0.000000e+00 9.816064e-01 1.839361e-02 0.000000e+00 0.000000e+00 0.000000e+00 0.000000e+00
 0.000000e+00 0.000000e+00 0.000000e+00 9.528573e-01 4.714277e-02 0.000000e+00 0.000000e+00 0.000000e+00
 0.000000e+00 0.000000e+00 0.000000e+00 0.000000e+00 9.299533e-01 7.004665e-02 0.000000e+00 0.000000e+00
 0.000000e+00 0.000000e+00 0.000000e+00 0.000000e+00 0.000000e+00 9.804809e-01 1.951907e-02 0.000000e+00
 0.000000e+00 0.000000e+00 0.000000e+00 0.000000e+00 0.000000e+00 0.000000e+00 9.697007e-01 3.029930e-02
 0.000000e+00 0.000000e+00 0.000000e+00 0.000000e+00 0.000000e+00 0.000000e+00 0.000000e+00 0.000000e+00
<ENDHMM>
~h "i"
<BEGINHMM>
<NUMSTATES> 8
<STATE> 2
<NUMMIXES> 2
<MIXTURE> 1 9.739792e-01
<MEAN> 3
 -1.898470e+00 -3.818348e+00 -8.324636e+00
<VARIANCE> 3
 1.244214e+01 1.847925e+01 8.404661e+00
<GCONST> 1.308016e+01
<MIXTURE> 2 2.602029e-02
<MEAN> 3
 -1.592199e+00 -4.863534e+01 -1.000000e+02
<VARIANCE> 3
 3.027473e+00 2.394385e+03 1.000000e-02
<GCONST> 9.797071e+00
<STATE> 3
<NUMMIXES> 2
<MIXTURE> 1 9.824634e-01
<MEAN> 3
 -8.043228e+00 -8.163438e+00 -5.084049e-03
<VARIANCE> 3
 8.994994e+00 7.488518e+00 1.000000e-02
<GCONST> 5.118501e+00
<MIXTURE> 2 1.753694e-02
<MEAN> 3
 -1.197948e+00 -4.864859e+01 -1.000000e+02
<VARIANCE> 3
 1.854116e+00 2.396992e+03 1.000000e-02
<GCONST> 9.307839e+00
<STATE> 4
<NUMMIXES> 2
<MIXTURE> 1 9.813956e-01
<MEAN> 3
 -7.801334e+00 -3.242614e-03 8.133386e-03
<VARIANCE> 3
 8.828288e+00 1.000000e-02 1.000000e-02
<GCONST> -1.518748e+00
<MIXTURE> 2 1.860186e-02
<MEAN> 3
 -8.976786e-01 -4.640178e+01 -1.000000e+02
<VARIANCE> 3
 1.110064e+00 2.392678e+03 1.000000e-02
<GCONST> 8.793047e+00
<STATE> 5
<NUMMIXES> 2
<MIXTURE> 1 9.930663e-01
<MEAN> 3
 -1.985164e-03 7.653155e-04 1.434522e-03
<VARIANCE> 3
 1.000000e-02 1.000000e-02 1.000000e-02
<GCONST> -8.301880e+00
<MIXTURE> 2 6.933166e-03
<MEAN> 3
 -5.719320e-01 -4.796131e+01 -1.000000e+02
<VARIANCE> 3
 6.760400e-01 2.400647e+03 1.000000e-02
<GCONST> 8.300452e+00
<STATE> 6
<NUMMIXES> 2
<MIXTURE> 1 9.075910e-01
<MEAN> 3
 -4.680042e+00 8.827862e-01 1.820307e+00
<VARIANCE> 3
 2.087580e+01 3.280993e+00 4.980662e+00
<GCONST> 1.134593e+01
<MIXTURE> 2 9.240887e-02
<MEAN> 3
 -3.521088e-01 -4.690122e+01 -1.000000e+02
<VARIANCE> 3
 4.145864e-01 2.398415e+03 1.000000e-02
<GCONST> 7.810551e+00
<STATE> 7
<NUMMIXES> 2
<MIXTURE> 1 9.433299e-01
<MEAN> 3
 1.809675e-03 1.554538e+00 7.228354e-01
<VARIANCE> 3
 1.000000e-02 1.326102e+00 1.762473e+00
<GCONST> 1.757423e+00
<MIXTURE> 2 5.666846e-02
<MEAN> 3
 -1.566840e-01 -4.747452e+01 -1.000000e+02
<VARIANCE> 3
 2.466781e-01 2.402347e+03 1.000000e-02
<GCONST> 7.292992e+00
<TRANSP> 8
 0.000000e+00 1.000000e+00 0.000000e+00 0.000000e+00 0.000000e+00 0.000000e+00 0.000000e+00 0.000000e+00
 0.000000e+00 9.431694e-01 5.683067e-02 0.000000e+00 0.000000e+00 0.000000e+00 0.000000e+00 0.000000e+00
 0.000000e+00 0.000000e+00 9.616652e-01 3.833488e-02 0.000000e+00 0.000000e+00 0.000000e+00 0.000000e+00
 0.000000e+00 0.000000e+00 0.000000e+00 9.611961e-01 3.880391e-02 0.000000e+00 0.000000e+00 0.000000e+00
 0.000000e+00 0.000000e+00 0.000000e+00 0.000000e+00 9.850436e-01 1.495635e-02 0.000000e+00 0.000000e+00
 0.000000e+00 0.000000e+00 0.000000e+00 0.000000e+00 0.000000e+00 8.050198e-01 1.949802e-01 0.000000e+00
 0.000000e+00 0.000000e+00 0.000000e+00 0.000000e+00 0.000000e+00 0.000000e+00 8.789220e-01 1.210779e-01
 0.000000e+00 0.000000e+00 0.000000e+00 0.000000e+00 0.000000e+00 0.000000e+00 0.000000e+00 0.000000e+00
<ENDHMM>
~h "m"
<BEGINHMM>
<NUMSTATES> 8
<STATE> 2
<NUMMIXES> 2
<MIXTURE> 1 2.619881e-02
<MEAN> 3
 -9.933671e-03 5.042459e+00 1.552059e+02
<VARIANCE> 3
 8.024169e-02 1.417780e+01 4.992055e+04
<GCONST> 1.646078e+01
<MIXTURE> 2 9.738002e-01
<MEAN> 3
 1.072056e-03 -3.027893e-01 -1.000000e+02
<VARIANCE> 3
 1.000000e-02 4.452370e+01 1.000000e-02
<GCONST> 9.931278e-02
<STATE> 3
<NUMMIXES> 2
<MIXTURE> 1 9.744766e-01
<MEAN> 3
 3.644595e-03 9.989893e-03 3.558097e+00
<VARIANCE> 3
 1.000000e-02 1.000000e-02 9.375043e+00
<GCONST> -1.458658e+00
<MIXTURE> 2 2.552109e-02
<MEAN> 3
 2.716506e-01 -4.171503e+01 -1.000000e+02
<VARIANCE> 3
 1.322466e-02 2.523545e+03 1.000000e-02
<GCONST> 4.416209e+00
<STATE> 4
<NUMMIXES> 2
<MIXTURE> 1 9.855202e-01
<MEAN> 3
 2.705441e+00 3.146769e+00 6.209530e-02
<VARIANCE> 3
 1.804581e+01 9.738112e+00 1.727093e-01
<GCONST> 8.926447e+00
<MIXTURE> 2 1.447989e-02
<MEAN> 3
 4.464826e-01 -4.169757e+01 -1.000000e+02
<VARIANCE> 3
 2.742639e-02 2.522277e+03 1.000000e-02
<GCONST> 5.145129e+00
<STATE> 5
<NUMMIXES> 2
<MIXTURE> 1 9.787202e-01
<MEAN> 3
 5.452863e-01 4.363492e+00 3.947474e+00
<VARIANCE> 3
 9.484935e-01 8.100148e+00 1.038056e+01
<GCONST> 9.892568e+00
<MIXTURE> 2 2.127941e-02
<MEAN> 3
 6.530565e-01 -4.137347e+01 -1.000000e+02
<VARIANCE> 3
 6.153873e-02 2.517213e+03 1.000000e-02
<GCONST> 5.951280e+00
<STATE> 6
<NUMMIXES> 2
<MIXTURE> 1 6.050838e-02
<MEAN> 3
 4.814837e+00 6.752913e+00 2.522929e+02
<VARIANCE> 3
 8.672603e+00 6.183270e+00 7.639223e+04
<GCONST> 2.073928e+01
<MIXTURE> 2 9.394907e-01
<MEAN> 3
 4.225788e+00 1.012203e+00 -1.000000e+02
<VARIANCE> 3
 8.336760e+00 5.213937e+01 1.000000e-02
<GCONST> 6.983056e+00
<STATE> 7
<NUMMIXES> 2
<MIXTURE> 1 2.511602e-02
<MEAN> 3
 6.393847e+00 3.106627e+02 2.194047e+02
<VARIANCE> 3
 8.705271e+00 7.138687e+04 2.100128e+04
<GCONST> 2.880577e+01
<MIXTURE> 2 9.748824e-01
<MEAN> 3
 -1.813426e+00 -1.000000e+02 -1.000000e+02
<VARIANCE> 3
 2.348392e+01 1.000000e-02 1.000000e-02
<GCONST> -5.403938e-01
<TRANSP> 8
 0.000000e+00 1.000000e+00 0.000000e+00 0.000000e+00 0.000000e+00 0.000000e+00 0.000000e+00 0.000000e+00
 0.000000e+00 9.830105e-01 1.698952e-02 0.000000e+00 0.000000e+00 0.000000e+00 0.000000e+00 0.000000e+00
 0.000000e+00 0.000000e+00 9.500231e-01 4.997688e-02 0.000000e+00 0.000000e+00 0.000000e+00 0.000000e+00
 0.000000e+00 0.000000e+00 0.000000e+00 9.716620e-01 2.833796e-02 0.000000e+00 0.000000e+00 0.000000e+00
 0.000000e+00 0.000000e+00 0.000000e+00 0.000000e+00 9.586714e-01 4.132864e-02 0.000000e+00 0.000000e+00
 0.000000e+00 0.000000e+00 0.000000e+00 0.000000e+00 0.000000e+00 9.809265e-01 1.907351e-02 0.000000e+00
 0.000000e+00 0.000000e+00 0.000000e+00 0.000000e+00 0.000000e+00 0.000000e+00 9.924977e-01 7.502192e-03
 0.000000e+00 0.000000e+00 0.000000e+00 0.000000e+00 0.000000e+00 0.000000e+00 0.000000e+00 0.000000e+00
<ENDHMM>
~h "sil"
<BEGINHMM>
<NUMSTATES> 8
<STATE> 2
<NUMMIXES> 2
<MIXTURE> 1 9.157536e-01
<MEAN> 3
 9.387429e+00 -8.261517e-05 1.893979e-03
<VARIANCE> 3
 5.011547e+00 1.000000e-02 1.000000e-02
<GCONST> -2.084965e+00
<MIXTURE> 2 8.424629e-02
<MEAN> 3
 7.479430e+00 -1.743699e+01 -1.666550e+01
<VARIANCE> 3
 7.137630e+00 9.838765e+02 1.000348e+03
<GCONST> 2.127861e+01
<STATE> 3
<NUMMIXES> 2
<MIXTURE> 1 8.873563e-01
<MEAN> 3
 9.683875e+00 1.892167e+00 1.130098e+00
<VARIANCE> 3
 3.185080e+00 2.129291e+00 1.321540e+00
<GCONST> 7.706696e+00
<MIXTURE> 2 1.126432e-01
<MEAN> 3
 4.119952e+00 -1.000000e+02 -1.000000e+02
<VARIANCE> 3
 3.203696e+00 1.000000e-02 1.000000e-02
<GCONST> -2.532404e+00
<STATE> 4
<NUMMIXES> 2
<MIXTURE> 1 8.260342e-02
<MEAN> 3
 7.341741e+00 -2.328541e+01 -2.082302e+01
<VARIANCE> 3
 1.289083e+01 1.971815e+03 2.110733e+03
<GCONST> 2.331165e+01
<MIXTURE> 2 9.173974e-01
<MEAN> 3
 7.726907e+00 5.130699e-03 3.785148e+00
<VARIANCE> 3
 1.484142e+01 1.000000e-02 9.891519e+00
<GCONST> 5.897561e+00
<STATE> 5
<NUMMIXES> 2
<MIXTURE> 1 3.263694e-02
<MEAN> 3
 5.230554e+00 -6.501528e+01 -6.407282e+01
<VARIANCE> 3
 9.352914e+00 2.306269e+03 2.434591e+03
<GCONST> 2.329024e+01
<MIXTURE> 2 9.673629e-01
<MEAN> 3
 6.574879e+00 4.882212e+00 2.244798e-03
<VARIANCE> 3
 6.276011e+00 7.298241e+00 1.000000e-02
<GCONST> 4.732829e+00
<STATE> 6
<NUMMIXES> 2
<MIXTURE> 1 4.286064e-02
<MEAN> 3
 4.090367e+00 -1.000000e+02 -1.000000e+02
<VARIANCE> 3
 3.824237e+00 1.000000e-02 1.000000e-02
<GCONST> -2.355350e+00
<MIXTURE> 2 9.571397e-01
<MEAN> 3
 6.144897e+00 1.466816e+00 4.114090e+00
<VARIANCE> 3
 5.856635e+00 1.337484e+00 6.938210e+00
<GCONST> 9.509041e+00
<STATE> 7
<NUMMIXES> 2
<MIXTURE> 1 9.517947e-02
<MEAN> 3
 4.988679e+00 -5.347068e+01 -5.366010e+01
<VARIANCE> 3
 7.175168e+00 2.658997e+03 2.639939e+03
<GCONST> 2.324847e+01
<MIXTURE> 2 9.048193e-01
<MEAN> 3
 5.614019e+00 2.066019e-03 -7.688816e+00
<VARIANCE> 3
 5.409172e+00 1.000000e-02 1.032201e+01
<GCONST> 4.930836e+00
<TRANSP> 8
 0.000000e+00 1.000000e+00 0.000000e+00 0.000000e+00 0.000000e+00 0.000000e+00 0.000000e+00 0.000000e+00
 0.000000e+00 9.791065e-01 2.089347e-02 0.000000e+00 0.000000e+00 0.000000e+00 0.000000e+00 0.000000e+00
 0.000000e+00 0.000000e+00 8.765352e-01 1.234647e-01 0.000000e+00 0.000000e+00 0.000000e+00 0.000000e+00
 0.000000e+00 0.000000e+00 0.000000e+00 9.585612e-01 4.143881e-02 0.000000e+00 0.000000e+00 0.000000e+00
 0.000000e+00 0.000000e+00 0.000000e+00 0.000000e+00 9.573557e-01 4.264427e-02 0.000000e+00 0.000000e+00
 0.000000e+00 0.000000e+00 0.000000e+00 0.000000e+00 0.000000e+00 9.255842e-01 7.441580e-02 0.000000e+00
 0.000000e+00 0.000000e+00 0.000000e+00 0.000000e+00 0.000000e+00 0.000000e+00 8.950754e-01 1.049246e-01
 0.000000e+00 0.000000e+00 0.000000e+00 0.000000e+00 0.000000e+00 0.000000e+00 0.000000e+00 0.000000e+00
<ENDHMM>
