~o
<STREAMINFO> 1 1
<VECSIZE> 1<NULLD><USER><DIAGC>
~h "a"
<BEGINHMM>
<NUMSTATES> 8
<STATE> 2
<MEAN> 1
 3.126663e+00
<VARIANCE> 1
 2.924563e+00
<GCONST> 2.911022e+00
<STATE> 3
<MEAN> 1
 9.994205e+00
<VARIANCE> 1
 2.710914e+00
<GCONST> 2.835163e+00
<STATE> 4
<MEAN> 1
 6.666352e+00
<VARIANCE> 1
 1.885237e+00
<GCONST> 2.471931e+00
<STATE> 5
<MEAN> 1
 4.848653e+00
<VARIANCE> 1
 8.578191e-01
<GCONST> 1.684515e+00
<STATE> 6
<MEAN> 1
 1.794063e+00
<VARIANCE> 1
 9.725906e-01
<GCONST> 1.810085e+00
<STATE> 7
<MEAN> 1
 1.927667e-03
<VARIANCE> 1
 1.000000e-02
<GCONST> -2.767293e+00
<TRANSP> 8
 0.000000e+00 1.000000e+00 0.000000e+00 0.000000e+00 0.000000e+00 0.000000e+00 0.000000e+00 0.000000e+00
 0.000000e+00 9.459686e-01 5.403141e-02 0.000000e+00 0.000000e+00 0.000000e+00 0.000000e+00 0.000000e+00
 0.000000e+00 0.000000e+00 9.793797e-01 2.062038e-02 0.000000e+00 0.000000e+00 0.000000e+00 0.000000e+00
 0.000000e+00 0.000000e+00 0.000000e+00 9.318327e-01 6.816728e-02 0.000000e+00 0.000000e+00 0.000000e+00
 0.000000e+00 0.000000e+00 0.000000e+00 0.000000e+00 9.603303e-01 3.966970e-02 0.000000e+00 0.000000e+00
 0.000000e+00 0.000000e+00 0.000000e+00 0.000000e+00 0.000000e+00 9.537771e-01 4.622295e-02 0.000000e+00
 0.000000e+00 0.000000e+00 0.000000e+00 0.000000e+00 0.000000e+00 0.000000e+00 9.919612e-01 8.038725e-03
 0.000000e+00 0.000000e+00 0.000000e+00 0.000000e+00 0.000000e+00 0.000000e+00 0.000000e+00 0.000000e+00
<ENDHMM>
~h "e"
<BEGINHMM>
<NUMSTATES> 8
<STATE> 2
<MEAN> 1
 -1.420293e-03
<VARIANCE> 1
 1.000000e-02
<GCONST> -2.767293e+00
<STATE> 3
<MEAN> 1
 -7.783172e-01
<VARIANCE> 1
 1.363036e-01
<GCONST> -1.549935e-01
<STATE> 4
<MEAN> 1
 -2.194551e+00
<VARIANCE> 1
 5.556019e-01
<GCONST> 1.250174e+00
<STATE> 5
<MEAN> 1
 -4.475550e+00
<VARIANCE> 1
 9.052920e-01
<GCONST> 1.738379e+00
<STATE> 6
<MEAN> 1
 -6.244119e+00
<VARIANCE> 1
 3.603521e-01
<GCONST> 8.172033e-01
<STATE> 7
<MEAN> 1
 -8.750365e+00
<VARIANCE> 1
 7.044792e-01
<GCONST> 1.487581e+00
<TRANSP> 8
 0.000000e+00 1.000000e+00 0.000000e+00 0.000000e+00 0.000000e+00 0.000000e+00 0.000000e+00 0.000000e+00
 0.000000e+00 9.921499e-01 7.850082e-03 0.000000e+00 0.000000e+00 0.000000e+00 0.000000e+00 0.000000e+00
 0.000000e+00 0.000000e+00 9.408705e-01 5.912954e-02 0.000000e+00 0.000000e+00 0.000000e+00 0.000000e+00
 0.000000e+00 0.000000e+00 0.000000e+00 9.374561e-01 6.254387e-02 0.000000e+00 0.000000e+00 0.000000e+00
 0.000000e+00 0.000000e+00 0.000000e+00 0.000000e+00 9.245797e-01 7.542034e-02 0.000000e+00 0.000000e+00
 0.000000e+00 0.000000e+00 0.000000e+00 0.000000e+00 0.000000e+00 9.360152e-01 6.398486e-02 0.000000e+00
 0.000000e+00 0.000000e+00 0.000000e+00 0.000000e+00 0.000000e+00 0.000000e+00 9.627999e-01 3.720010e-02
 0.000000e+00 0.000000e+00 0.000000e+00 0.000000e+00 0.000000e+00 0.000000e+00 0.000000e+00 0.000000e+00
<ENDHMM>
~h "i"
<BEGINHMM>
<NUMSTATES> 8
<STATE> 2
<MEAN> 1
 -1.041894e+01
<VARIANCE> 1
 2.941910e-01
<GCONST> 6.143510e-01
<STATE> 3
<MEAN> 1
 -8.185643e+00
<VARIANCE> 1
 2.842484e+00
<GCONST> 2.882555e+00
<STATE> 4
<MEAN> 1
 -4.125221e+00
<VARIANCE> 1
 1.596516e+00
<GCONST> 2.305701e+00
<STATE> 5
<MEAN> 1
 -2.026398e+00
<VARIANCE> 1
 5.423823e-02
<GCONST> -1.076492e+00
<STATE> 6
<MEAN> 1
 -1.009973e+00
<VARIANCE> 1
 1.422806e-01
<GCONST> -1.120772e-01
<STATE> 7
<MEAN> 1
 -2.654232e-01
<VARIANCE> 1
 1.224398e-02
<GCONST> -2.564844e+00
<TRANSP> 8
 0.000000e+00 1.000000e+00 0.000000e+00 0.000000e+00 0.000000e+00 0.000000e+00 0.000000e+00 0.000000e+00
 0.000000e+00 9.859544e-01 1.404563e-02 0.000000e+00 0.000000e+00 0.000000e+00 0.000000e+00 0.000000e+00
 0.000000e+00 0.000000e+00 9.835364e-01 1.646362e-02 0.000000e+00 0.000000e+00 0.000000e+00 0.000000e+00
 0.000000e+00 0.000000e+00 0.000000e+00 8.551629e-01 1.448371e-01 0.000000e+00 0.000000e+00 0.000000e+00
 0.000000e+00 0.000000e+00 0.000000e+00 0.000000e+00 0.000000e+00 1.000000e+00 0.000000e+00 0.000000e+00
 0.000000e+00 0.000000e+00 0.000000e+00 0.000000e+00 0.000000e+00 7.145333e-01 2.854667e-01 0.000000e+00
 0.000000e+00 0.000000e+00 0.000000e+00 0.000000e+00 0.000000e+00 0.000000e+00 2.452513e-01 7.547488e-01
 0.000000e+00 0.000000e+00 0.000000e+00 0.000000e+00 0.000000e+00 0.000000e+00 0.000000e+00 0.000000e+00
<ENDHMM>
~h "m"
<BEGINHMM>
<NUMSTATES> 8
<STATE> 2
<MEAN> 1
 9.432241e-04
<VARIANCE> 1
 1.000000e-02
<GCONST> -2.767293e+00
<STATE> 3
<MEAN> 1
 8.900368e-01
<VARIANCE> 1
 5.093590e-02
<GCONST> -1.139310e+00
<STATE> 4
<MEAN> 1
 1.383737e+00
<VARIANCE> 1
 8.105745e-01
<GCONST> 1.627865e+00
<STATE> 5
<MEAN> 1
 3.129410e+00
<VARIANCE> 1
 5.075802e-01
<GCONST> 1.159776e+00
<STATE> 6
<MEAN> 1
 5.183237e+00
<VARIANCE> 1
 5.346867e-01
<GCONST> 1.211803e+00
<STATE> 7
<MEAN> 1
 7.847766e+00
<VARIANCE> 1
 1.262652e+00
<GCONST> 2.071092e+00
<TRANSP> 8
 0.000000e+00 1.000000e+00 0.000000e+00 0.000000e+00 0.000000e+00 0.000000e+00 0.000000e+00 0.000000e+00
 0.000000e+00 9.962240e-01 3.776023e-03 0.000000e+00 0.000000e+00 0.000000e+00 0.000000e+00 0.000000e+00
 0.000000e+00 0.000000e+00 9.224920e-01 7.750799e-02 0.000000e+00 0.000000e+00 0.000000e+00 0.000000e+00
 0.000000e+00 0.000000e+00 0.000000e+00 9.483465e-01 5.165352e-02 0.000000e+00 0.000000e+00 0.000000e+00
 0.000000e+00 0.000000e+00 0.000000e+00 0.000000e+00 9.298727e-01 7.012724e-02 0.000000e+00 0.000000e+00
 0.000000e+00 0.000000e+00 0.000000e+00 0.000000e+00 0.000000e+00 9.375420e-01 6.245800e-02 0.000000e+00
 0.000000e+00 0.000000e+00 0.000000e+00 0.000000e+00 0.000000e+00 0.000000e+00 9.539028e-01 4.609713e-02
 0.000000e+00 0.000000e+00 0.000000e+00 0.000000e+00 0.000000e+00 0.000000e+00 0.000000e+00 0.000000e+00
<ENDHMM>
~h "sil"
<BEGINHMM>
<NUMSTATES> 8
<STATE> 2
<MEAN> 1
 1.213180e+01
<VARIANCE> 1
 1.256983e+01
<GCONST> 4.369177e+00
<STATE> 3
<MEAN> 1
 1.078861e+01
<VARIANCE> 1
 6.138520e-01
<GCONST> 1.349876e+00
<STATE> 4
<MEAN> 1
 9.148452e+00
<VARIANCE> 1
 8.598419e-01
<GCONST> 1.686870e+00
<STATE> 5
<MEAN> 1
 7.370428e+00
<VARIANCE> 1
 1.119731e+00
<GCONST> 1.950966e+00
<STATE> 6
<MEAN> 1
 3.513724e+00
<VARIANCE> 1
 6.714774e+00
<GCONST> 3.742187e+00
<STATE> 7
<MEAN> 1
 5.802374e+00
<VARIANCE> 1
 1.188984e+00
<GCONST> 2.010976e+00
<TRANSP> 8
 0.000000e+00 1.000000e+00 0.000000e+00 0.000000e+00 0.000000e+00 0.000000e+00 0.000000e+00 0.000000e+00
 0.000000e+00 9.495981e-01 5.040183e-02 0.000000e+00 0.000000e+00 0.000000e+00 0.000000e+00 0.000000e+00
 0.000000e+00 0.000000e+00 9.811532e-01 1.884684e-02 0.000000e+00 0.000000e+00 0.000000e+00 0.000000e+00
 0.000000e+00 0.000000e+00 0.000000e+00 9.616010e-01 3.839907e-02 0.000000e+00 0.000000e+00 0.000000e+00
 0.000000e+00 0.000000e+00 0.000000e+00 0.000000e+00 9.169778e-01 8.302224e-02 0.000000e+00 0.000000e+00
 0.000000e+00 0.000000e+00 0.000000e+00 0.000000e+00 0.000000e+00 8.006798e-01 1.993202e-01 0.000000e+00
 0.000000e+00 0.000000e+00 0.000000e+00 0.000000e+00 0.000000e+00 0.000000e+00 9.313179e-01 6.868211e-02
 0.000000e+00 0.000000e+00 0.000000e+00 0.000000e+00 0.000000e+00 0.000000e+00 0.000000e+00 0.000000e+00
<ENDHMM>
