~o
<STREAMINFO> 1 3
<VECSIZE> 3<NULLD><USER><DIAGC>
~h "a"
<BEGINHMM>
<NUMSTATES> 8
<STATE> 2
<NUMMIXES> 2
<MIXTURE> 1 9.769927e-01
<MEAN> 3
 5.644325e+00 4.554987e+00 4.704461e+00
<VARIANCE> 3
 9.334510e+00 7.717819e+00 6.956317e+00
<GCONST> 1.173053e+01
<MIXTURE> 2 2.300695e-02
<MEAN> 3
 3.686857e+00 -2.773345e+01 -1.000000e+02
<VARIANCE> 3
 1.127728e+01 2.001690e+03 1.000000e-02
<GCONST> 1.093300e+01
<STATE> 3
<NUMMIXES> 2
<MIXTURE> 1 9.859805e-01
<MEAN> 3
 3.414546e+00 4.510775e+00 3.091580e-03
<VARIANCE> 3
 8.616345e+00 8.892686e+00 1.000000e-02
<GCONST> 5.247352e+00
<MIXTURE> 2 1.401635e-02
<MEAN> 3
 7.038590e-01 -4.936565e+01 -1.000000e+02
<VARIANCE> 3
 2.745752e-02 2.477549e+03 1.000000e-02
<GCONST> 5.128371e+00
<STATE> 4
<NUMMIXES> 2
<MIXTURE> 1 9.896345e-01
<MEAN> 3
 4.526595e+00 2.656930e-03 2.995294e-04
<VARIANCE> 3
 8.436989e+00 1.000000e-02 1.000000e-02
<GCONST> -1.564084e+00
<MIXTURE> 2 1.036586e-02
<MEAN> 3
 4.274110e-01 -4.956480e+01 -1.000000e+02
<VARIANCE> 3
 1.017846e-02 2.478029e+03 1.000000e-02
<GCONST> 4.136199e+00
<STATE> 5
<NUMMIXES> 2
<MIXTURE> 1 9.618118e-01
<MEAN> 3
 1.197182e+00 -4.034187e+00 1.670541e-01
<VARIANCE> 3
 5.173068e+00 3.119041e+01 3.015350e+00
<GCONST> 1.170092e+01
<MIXTURE> 2 3.818468e-02
<MEAN> 3
 2.915647e-01 -4.324025e+01 -1.000000e+02
<VARIANCE> 3
 5.012796e-02 2.441483e+03 1.000000e-02
<GCONST> 5.715646e+00
<STATE> 6
<NUMMIXES> 2
<MIXTURE> 1 3.342489e-01
<MEAN> 3
 1.750731e-03 -4.182214e-04 -2.296437e-03
<VARIANCE> 3
 1.000000e-02 1.000000e-02 1.000000e-02
<GCONST> -8.301880e+00
<MIXTURE> 2 6.657417e-01
<MEAN> 3
 8.094599e-05 -5.083397e+01 -1.000000e+02
<VARIANCE> 3
 1.000000e-02 2.409400e+03 1.000000e-02
<GCONST> 4.090425e+00
<STATE> 7
<NUMMIXES> 2
<MIXTURE> 1 9.450704e-01
<MEAN> 3
 1.114311e-03 -2.131335e-01 -6.441195e-01
<VARIANCE> 3
 1.000000e-02 1.713311e-01 2.604419e-01
<GCONST> -2.201072e+00
<MIXTURE> 2 5.492974e-02
<MEAN> 3
 -1.926056e-01 -5.231681e+01 -1.000000e+02
<VARIANCE> 3
 1.000000e-02 2.241787e+03 1.000000e-02
<GCONST> 4.018319e+00
<TRANSP> 8
 0.000000e+00 1.000000e+00 0.000000e+00 0.000000e+00 0.000000e+00 0.000000e+00 0.000000e+00 0.000000e+00
 0.000000e+00 9.683583e-01 3.164163e-02 0.000000e+00 0.000000e+00 0.000000e+00 0.000000e+00 0.000000e+00
 0.000000e+00 0.000000e+00 9.663465e-01 3.365353e-02 0.000000e+00 0.000000e+00 0.000000e+00 0.000000e+00
 0.000000e+00 0.000000e+00 0.000000e+00 9.748979e-01 2.510205e-02 0.000000e+00 0.000000e+00 0.000000e+00
 0.000000e+00 0.000000e+00 0.000000e+00 0.000000e+00 9.210727e-01 7.892730e-02 0.000000e+00 0.000000e+00
 0.000000e+00 0.000000e+00 0.000000e+00 0.000000e+00 0.000000e+00 9.940940e-01 5.905979e-03 0.000000e+00
 0.000000e+00 0.000000e+00 0.000000e+00 0.000000e+00 0.000000e+00 0.000000e+00 8.866755e-01 1.133245e-01
 0.000000e+00 0.000000e+00 0.000000e+00 0.000000e+00 0.000000e+00 0.000000e+00 0.000000e+00 0.000000e+00
<ENDHMM>
~h "e"
<BEGINHMM>
<NUMSTATES> 8
<STATE> 2
<NUMMIXES> 2
<MIXTURE> 1 9.844192e-01
<MEAN> 3
 4.036408e-05 -4.457965e-03 -6.148452e+00
<VARIANCE> 3
 1.000000e-02 1.000000e-02 1.647763e+01
<GCONST> -8.947055e-01
<MIXTURE> 2 1.558231e-02
<MEAN> 3
 -3.851435e-01 -5.225227e+01 -1.000000e+02
<VARIANCE> 3
 1.000000e-02 2.239515e+03 1.000000e-02
<GCONST> 4.017305e+00
<STATE> 3
<NUMMIXES> 2
<MIXTURE> 1 1.085660e-01
<MEAN> 3
 -5.250979e-01 -1.459130e-01 -4.887154e+00
<VARIANCE> 3
 2.141499e-01 5.747197e-02 1.815177e+01
<GCONST> 4.014862e+00
<MIXTURE> 2 8.914237e-01
<MEAN> 3
 -1.107003e+00 -4.969838e+01 -1.000000e+02
<VARIANCE> 3
 4.025066e-01 2.355999e+03 1.000000e-02
<GCONST> 7.763138e+00
<STATE> 4
<NUMMIXES> 2
<MIXTURE> 1 9.839073e-01
<MEAN> 3
 -4.799591e-03 -5.862742e+00 -7.639571e+00
<VARIANCE> 3
 1.000000e-02 1.286894e+01 9.005196e+00
<GCONST> 5.661079e+00
<MIXTURE> 2 1.609443e-02
<MEAN> 3
 -2.578120e+00 -5.048925e+01 -1.000000e+02
<VARIANCE> 3
 4.362188e-02 2.255491e+03 1.000000e-02
<GCONST> 5.497388e+00
<STATE> 5
<NUMMIXES> 2
<MIXTURE> 1 1.222098e-01
<MEAN> 3
 -2.799626e+00 -2.139145e+00 -1.022167e+00
<VARIANCE> 3
 3.092590e+00 5.800536e+00 4.051384e+00
<GCONST> 9.799649e+00
<MIXTURE> 2 8.777781e-01
<MEAN> 3
 -8.457796e+00 -4.817537e+00 -1.000000e+02
<VARIANCE> 3
 4.727354e+00 6.546225e+01 1.000000e-02
<GCONST> 6.643300e+00
<STATE> 6
<NUMMIXES> 2
<MIXTURE> 1 1.009352e-01
<MEAN> 3
 -1.805496e+00 -8.127516e+00 -8.222404e+00
<VARIANCE> 3
 1.264787e+00 6.662215e+00 8.625766e+00
<GCONST> 9.799741e+00
<MIXTURE> 2 8.990636e-01
<MEAN> 3
 -8.123892e+00 -9.943819e+01 -1.000000e+02
<VARIANCE> 3
 4.715681e+00 5.511819e+01 1.000000e-02
<GCONST> 6.468835e+00
<STATE> 7
<NUMMIXES> 2
<MIXTURE> 1 9.879427e-01
<MEAN> 3
 -8.786385e+00 -8.267277e+00 -7.946214e+00
<VARIANCE> 3
 5.051585e+00 7.805865e+00 8.215576e+00
<GCONST> 1.129424e+01
<MIXTURE> 2 1.205872e-02
<MEAN> 3
 -3.949611e+00 -4.933403e+01 -1.000000e+02
<VARIANCE> 3
 3.997554e-01 2.432820e+03 1.000000e-02
<GCONST> 7.788365e+00
<TRANSP> 8
 0.000000e+00 1.000000e+00 0.000000e+00 0.000000e+00 0.000000e+00 0.000000e+00 0.000000e+00 0.000000e+00
 0.000000e+00 9.658958e-01 3.410425e-02 0.000000e+00 0.000000e+00 0.000000e+00 0.000000e+00 0.000000e+00
 0.000000e+00 0.000000e+00 9.256328e-01 7.436721e-02 0.000000e+00 0.000000e+00 0.000000e+00 0.000000e+00
 0.000000e+00 0.000000e+00 0.000000e+00 9.679005e-01 3.209946e-02 0.000000e+00 0.000000e+00 0.000000e+00
 0.000000e+00 0.000000e+00 0.000000e+00 0.000000e+00 9.796664e-01 2.033364e-02 0.000000e+00 0.000000e+00
 0.000000e+00 0.000000e+00 0.000000e+00 0.000000e+00 0.000000e+00 9.775402e-01 2.245984e-02 0.000000e+00
 0.000000e+00 0.000000e+00 0.000000e+00 0.000000e+00 0.000000e+00 0.000000e+00 9.733357e-01 2.666433e-02
 0.000000e+00 0.000000e+00 0.000000e+00 0.000000e+00 0.000000e+00 0.000000e+00 0.000000e+00 0.000000e+00
<ENDHMM>
~h "i"
<BEGINHMM>
<NUMSTATES> 8
<STATE> 2
<NUMMIXES> 2
<MIXTURE> 1 9.444266e-01
<MEAN> 3
 -7.999651e-01 -5.014520e+00 -6.976448e+00
<VARIANCE> 3
 5.230741e+00 1.888311e+01 1.476157e+01
<GCONST> 1.279848e+01
<MIXTURE> 2 5.557269e-02
<MEAN> 3
 -3.052434e+00 -4.439368e+01 -1.000000e+02
<VARIANCE> 3
 1.404386e-01 2.374093e+03 1.000000e-02
<GCONST> 6.717847e+00
<STATE> 3
<NUMMIXES> 2
<MIXTURE> 1 9.860836e-01
<MEAN> 3
 -6.312299e+00 -8.358958e+00 -3.108936e-03
<VARIANCE> 3
 1.650183e+01 6.497506e+00 1.000000e-02
<GCONST> 5.583350e+00
<MIXTURE> 2 1.391729e-02
<MEAN> 3
 -2.243386e+00 -5.215856e+01 -1.000000e+02
<VARIANCE> 3
 6.148596e-02 2.438656e+03 1.000000e-02
<GCONST> 5.918717e+00
<STATE> 4
<NUMMIXES> 2
<MIXTURE> 1 8.850193e-01
<MEAN> 3
 -5.475852e+00 -2.915790e-03 2.801485e+00
<VARIANCE> 3
 1.902624e+01 2.293409e-02 8.670071e+00
<GCONST> 6.844195e+00
<MIXTURE> 2 1.149781e-01
<MEAN> 3
 -4.200735e+00 -2.265320e+01 -1.000000e+02
<VARIANCE> 3
 1.143499e+01 1.768518e+03 1.000000e-02
<GCONST> 1.082304e+01
<STATE> 5
<NUMMIXES> 2
<MIXTURE> 1 9.859115e-01
<MEAN> 3
 -8.162120e+00 -1.485973e-03 8.665093e-04
<VARIANCE> 3
 6.859635e+00 1.000000e-02 1.000000e-02
<GCONST> -1.771055e+00
<MIXTURE> 2 1.408905e-02
<MEAN> 3
 -9.835717e-01 -4.956106e+01 -1.000000e+02
<VARIANCE> 3
 5.843851e-02 2.451841e+03 1.000000e-02
<GCONST> 5.873276e+00
<STATE> 6
<NUMMIXES> 2
<MIXTURE> 1 8.936726e-01
<MEAN> 3
 -2.858945e+00 2.170540e+00 -1.035923e+00
<VARIANCE> 3
 1.598706e+01 7.191409e+00 1.453062e+01
<GCONST> 1.293456e+01
<MIXTURE> 2 1.063274e-01
<MEAN> 3
 -6.366280e-01 -4.549346e+01 -1.000000e+02
<VARIANCE> 3
 7.068605e-02 2.448274e+03 1.000000e-02
<GCONST> 6.062093e+00
<STATE> 7
<NUMMIXES> 2
<MIXTURE> 1 5.234505e-01
<MEAN> 3
 -1.959892e-03 8.195697e-04 1.882114e-03
<VARIANCE> 3
 1.000000e-02 1.000000e-02 1.000000e-02
<GCONST> -8.301880e+00
<MIXTURE> 2 4.764574e-01
<MEAN> 3
 -1.486800e-03 -1.527278e-01 -1.000000e+02
<VARIANCE> 3
 1.000000e-02 4.170710e+01 1.000000e-02
<GCONST> 3.396225e-02
<TRANSP> 8
 0.000000e+00 1.000000e+00 0.000000e+00 0.000000e+00 0.000000e+00 0.000000e+00 0.000000e+00 0.000000e+00
 0.000000e+00 9.028839e-01 9.711610e-02 0.000000e+00 0.000000e+00 0.000000e+00 0.000000e+00 0.000000e+00
 0.000000e+00 0.000000e+00 9.731168e-01 2.688329e-02 0.000000e+00 0.000000e+00 0.000000e+00 0.000000e+00
 0.000000e+00 0.000000e+00 0.000000e+00 8.913009e-01 1.086990e-01 0.000000e+00 0.000000e+00 0.000000e+00
 0.000000e+00 0.000000e+00 0.000000e+00 0.000000e+00 9.719805e-01 2.801953e-02 0.000000e+00 0.000000e+00
 0.000000e+00 0.000000e+00 0.000000e+00 0.000000e+00 0.000000e+00 8.881977e-01 1.118023e-01 0.000000e+00
 0.000000e+00 0.000000e+00 0.000000e+00 0.000000e+00 0.000000e+00 0.000000e+00 9.914920e-01 8.508019e-03
 0.000000e+00 0.000000e+00 0.000000e+00 0.000000e+00 0.000000e+00 0.000000e+00 0.000000e+00 0.000000e+00
<ENDHMM>
~h "m"
<BEGINHMM>
<NUMSTATES> 8
<STATE> 2
<NUMMIXES> 2
<MIXTURE> 1 1.845380e-01
<MEAN> 3
 7.619461e-04 5.063671e-03 2.839358e+00
<VARIANCE> 3
 1.000000e-02 1.000000e-02 9.398053e+00
<GCONST> -1.456207e+00
<MIXTURE> 2 8.154073e-01
<MEAN> 3
 6.577914e-04 -9.974095e+01 -1.000000e+02
<VARIANCE> 3
 1.000000e-02 2.595867e+01 1.000000e-02
<GCONST> -4.402037e-01
<STATE> 3
<NUMMIXES> 2
<MIXTURE> 1 9.822658e-01
<MEAN> 3
 3.148683e-03 2.415020e+00 2.237231e+00
<VARIANCE> 3
 1.000000e-02 3.186325e+00 8.993855e+00
<GCONST> 4.263871e+00
<MIXTURE> 2 1.772999e-02
<MEAN> 3
 2.755914e-01 -5.304733e+01 -1.000000e+02
<VARIANCE> 3
 1.000000e-02 2.515934e+03 1.000000e-02
<GCONST> 4.133690e+00
<STATE> 4
<NUMMIXES> 2
<MIXTURE> 1 9.487866e-01
<MEAN> 3
 2.388445e+00 2.462216e-01 -2.383943e+00
<VARIANCE> 3
 3.387070e+00 4.035704e-01 2.625812e+01
<GCONST> 9.094168e+00
<MIXTURE> 2 5.121376e-02
<MEAN> 3
 4.502735e-01 -5.046737e+01 -1.000000e+02
<VARIANCE> 3
 1.473643e-02 2.546034e+03 1.000000e-02
<GCONST> 4.533320e+00
<STATE> 5
<NUMMIXES> 2
<MIXTURE> 1 9.584838e-01
<MEAN> 3
 2.001434e+00 4.349325e+00 2.831470e+00
<VARIANCE> 3
 1.913973e+00 4.953335e+00 7.219240e+00
<GCONST> 9.739623e+00
<MIXTURE> 2 4.151928e-02
<MEAN> 3
 6.599110e-01 -4.987495e+01 -1.000000e+02
<VARIANCE> 3
 4.254711e-02 2.550016e+03 1.000000e-02
<GCONST> 5.595173e+00
<STATE> 6
<NUMMIXES> 2
<MIXTURE> 1 7.653980e-03
<MEAN> 3
 1.799543e+00 2.766015e+00 7.587273e-01
<VARIANCE> 3
 4.214035e+00 6.085917e+00 1.886023e+00
<GCONST> 9.392500e+00
<MIXTURE> 2 9.923462e-01
<MEAN> 3
 3.471331e+00 1.262809e+00 -1.000000e+02
<VARIANCE> 3
 7.567945e+00 6.006561e+01 1.000000e-02
<GCONST> 7.027820e+00
<STATE> 7
<NUMMIXES> 2
<MIXTURE> 1 2.029938e-02
<MEAN> 3
 1.898335e+00 2.881267e+00 7.430171e-01
<VARIANCE> 3
 4.516337e+00 6.502713e+00 1.782277e+00
<GCONST> 9.471443e+00
<MIXTURE> 2 9.797013e-01
<MEAN> 3
 4.819797e+00 -9.896935e+01 -1.000000e+02
<VARIANCE> 3
 9.440167e+00 1.015367e+02 1.000000e-02
<GCONST> 7.773854e+00
<TRANSP> 8
 0.000000e+00 1.000000e+00 0.000000e+00 0.000000e+00 0.000000e+00 0.000000e+00 0.000000e+00 0.000000e+00
 0.000000e+00 9.903298e-01 9.670173e-03 0.000000e+00 0.000000e+00 0.000000e+00 0.000000e+00 0.000000e+00
 0.000000e+00 0.000000e+00 9.624091e-01 3.759091e-02 0.000000e+00 0.000000e+00 0.000000e+00 0.000000e+00
 0.000000e+00 0.000000e+00 0.000000e+00 8.980864e-01 1.019136e-01 0.000000e+00 0.000000e+00 0.000000e+00
 0.000000e+00 0.000000e+00 0.000000e+00 0.000000e+00 9.181616e-01 8.183837e-02 0.000000e+00 0.000000e+00
 0.000000e+00 0.000000e+00 0.000000e+00 0.000000e+00 0.000000e+00 9.803317e-01 1.966835e-02 0.000000e+00
 0.000000e+00 0.000000e+00 0.000000e+00 0.000000e+00 0.000000e+00 0.000000e+00 9.481286e-01 5.187142e-02
 0.000000e+00 0.000000e+00 0.000000e+00 0.000000e+00 0.000000e+00 0.000000e+00 0.000000e+00 0.000000e+00
<ENDHMM>
~h "sil"
<BEGINHMM>
<NUMSTATES> 8
<STATE> 2
<NUMMIXES> 2
<MIXTURE> 1 9.350609e-01
<MEAN> 3
 9.357706e+00 3.099009e+00 1.070561e+00
<VARIANCE> 3
 6.885037e+00 6.912878e+00 3.382172e+00
<GCONST> 1.059489e+01
<MIXTURE> 2 6.493861e-02
<MEAN> 3
 3.565050e+00 -6.295895e+01 -6.123450e+01
<VARIANCE> 3
 7.686953e+00 2.027503e+03 2.225241e+03
<GCONST> 2.287534e+01
<STATE> 3
<NUMMIXES> 2
<MIXTURE> 1 3.676329e-02
<MEAN> 3
 3.607009e+00 -7.039194e+01 -7.055469e+01
<VARIANCE> 3
 1.103421e+01 2.137991e+03 2.122552e+03
<GCONST> 2.324263e+01
<MIXTURE> 2 9.632372e-01
<MEAN> 3
 9.251016e+00 -3.959025e-04 3.912270e-03
<VARIANCE> 3
 3.164951e+00 1.000000e-02 1.000000e-02
<GCONST> -2.544571e+00
<STATE> 4
<NUMMIXES> 2
<MIXTURE> 1 2.219138e-02
<MEAN> 3
 2.990689e+00 -8.638606e+01 -8.697791e+01
<VARIANCE> 3
 8.657986e+00 1.235390e+03 1.132193e+03
<GCONST> 2.182317e+01
<MIXTURE> 2 9.778089e-01
<MEAN> 3
 8.267236e+00 1.741598e-03 3.171041e+00
<VARIANCE> 3
 8.565542e+00 1.000000e-02 8.082761e+00
<GCONST> 5.145942e+00
<STATE> 5
<NUMMIXES> 2
<MIXTURE> 1 6.918259e-02
<MEAN> 3
 3.062361e+00 -8.738029e+01 -8.774112e+01
<VARIANCE> 3
 8.397660e+00 1.162428e+03 1.097427e+03
<GCONST> 2.170057e+01
<MIXTURE> 2 9.308177e-01
<MEAN> 3
 6.498054e+00 8.434132e-03 -7.713823e+00
<VARIANCE> 3
 6.425277e+00 1.000000e-02 1.221205e+01
<GCONST> 5.271124e+00
<STATE> 6
<NUMMIXES> 2
<MIXTURE> 1 6.574746e-01
<MEAN> 3
 3.003367e+00 -1.000000e+02 -1.000000e+02
<VARIANCE> 3
 5.356400e+00 1.000000e-02 1.000000e-02
<GCONST> -2.018417e+00
<MIXTURE> 2 3.425250e-01
<MEAN> 3
 7.420051e+00 1.348038e+00 2.902251e+00
<VARIANCE> 3
 8.006802e+00 9.851074e-01 1.974011e+00
<GCONST> 8.258986e+00
<STATE> 7
<NUMMIXES> 2
<MIXTURE> 1 9.587234e-01
<MEAN> 3
 8.111720e+00 4.299019e+00 2.682740e-03
<VARIANCE> 3
 1.340539e+01 8.743739e+00 1.000000e-02
<GCONST> 5.672456e+00
<MIXTURE> 2 4.127665e-02
<MEAN> 3
 4.704641e+00 -6.657672e+01 -6.586983e+01
<VARIANCE> 3
 6.676435e+00 2.307959e+03 2.407115e+03
<GCONST> 2.294252e+01
<TRANSP> 8
 0.000000e+00 1.000000e+00 0.000000e+00 0.000000e+00 0.000000e+00 0.000000e+00 0.000000e+00 0.000000e+00
 0.000000e+00 9.226191e-01 7.738093e-02 0.000000e+00 0.000000e+00 0.000000e+00 0.000000e+00 0.000000e+00
 0.000000e+00 0.000000e+00 9.478577e-01 5.214225e-02 0.000000e+00 0.000000e+00 0.000000e+00 0.000000e+00
 0.000000e+00 0.000000e+00 0.000000e+00 9.614037e-01 3.859635e-02 0.000000e+00 0.000000e+00 0.000000e+00
 0.000000e+00 0.000000e+00 0.000000e+00 0.000000e+00 8.782959e-01 1.217041e-01 0.000000e+00 0.000000e+00
 0.000000e+00 0.000000e+00 0.000000e+00 0.000000e+00 0.000000e+00 9.585893e-01 4.141069e-02 0.000000e+00
 0.000000e+00 0.000000e+00 0.000000e+00 0.000000e+00 0.000000e+00 0.000000e+00 9.443770e-01 5.562301e-02
 0.000000e+00 0.000000e+00 0.000000e+00 0.000000e+00 0.000000e+00 0.000000e+00 0.000000e+00 0.000000e+00
<ENDHMM>
