~o
<STREAMINFO> 1 3
<VECSIZE> 3<NULLD><USER><DIAGC>
~h "a"
<BEGINHMM>
<NUMSTATES> 8
<STATE> 2
<NUMMIXES> 2
<MIXTURE> 1 6.170077e-01
<MEAN> 3
 4.026099e+00 3.679463e+00 7.120978e+00
<VARIANCE> 3
 1.111200e+01 7.720138e+00 2.046331e+03
<GCONST> 1.758929e+01
<MIXTURE> 2 3.829931e-01
<MEAN> 3
 5.318702e-01 -5.653526e+01 -1.000000e+02
<VARIANCE> 3
 1.068355e+00 2.451627e+03 1.000000e-02
<GCONST> 8.779088e+00
<STATE> 3
<NUMMIXES> 2
<MIXTURE> 1 1.019427e-02
<MEAN> 3
 3.445787e+00 2.831349e+00 -1.832556e+01
<VARIANCE> 3
 1.027789e+01 9.525187e+00 2.093459e+03
<GCONST> 1.774414e+01
<MIXTURE> 2 9.898036e-01
<MEAN> 3
 -3.967306e-04 -1.000000e+02 -1.000000e+02
<VARIANCE> 3
 1.000000e-02 1.000000e-02 1.000000e-02
<GCONST> -8.301880e+00
<STATE> 4
<NUMMIXES> 2
<MIXTURE> 1 9.914259e-01
<MEAN> 3
 5.471528e+00 5.758151e+00 4.153577e+00
<VARIANCE> 3
 1.056016e+01 6.566167e+00 8.753841e+00
<GCONST> 1.192214e+01
<MIXTURE> 2 8.574383e-03
<MEAN> 3
 3.857900e-01 -5.425675e+01 -1.000000e+02
<VARIANCE> 3
 2.341731e-01 2.506236e+03 1.000000e-02
<GCONST> 7.283303e+00
<STATE> 5
<NUMMIXES> 2
<MIXTURE> 1 9.696769e-01
<MEAN> 3
 1.714432e+00 1.103275e-01 -7.510679e-01
<VARIANCE> 3
 5.902031e+00 3.266219e-01 4.423153e+01
<GCONST> 9.959414e+00
<MIXTURE> 2 3.032277e-02
<MEAN> 3
 2.547137e-01 -4.993803e+01 -1.000000e+02
<VARIANCE> 3
 1.071259e-01 2.558738e+03 1.000000e-02
<GCONST> 6.521979e+00
<STATE> 6
<NUMMIXES> 2
<MIXTURE> 1 9.904194e-01
<MEAN> 3
 4.696155e+00 7.874186e-01 3.584504e-04
<VARIANCE> 3
 9.257949e+00 2.544333e+00 1.000000e-02
<GCONST> 4.067812e+00
<MIXTURE> 2 9.580523e-03
<MEAN> 3
 1.212974e-01 -5.089302e+01 -1.000000e+02
<VARIANCE> 3
 3.494276e-02 2.525239e+03 1.000000e-02
<GCONST> 5.388508e+00
<STATE> 7
<NUMMIXES> 2
<MIXTURE> 1 5.039243e-02
<MEAN> 3
 4.436526e-02 -4.830056e+00 4.171915e-01
<VARIANCE> 3
 1.858543e-02 1.958665e+01 7.411228e-01
<GCONST> 4.203513e+00
<MIXTURE> 2 9.495984e-01
<MEAN> 3
 -7.367503e-04 -1.803722e+00 -1.000000e+02
<VARIANCE> 3
 1.000000e-02 4.803580e+01 1.000000e-02
<GCONST> 1.752377e-01
<TRANSP> 8
 0.000000e+00 1.000000e+00 0.000000e+00 0.000000e+00 0.000000e+00 0.000000e+00 0.000000e+00 0.000000e+00
 0.000000e+00 5.420656e-03 9.945794e-01 0.000000e+00 0.000000e+00 0.000000e+00 0.000000e+00 0.000000e+00
 0.000000e+00 0.000000e+00 9.870596e-01 1.294040e-02 0.000000e+00 0.000000e+00 0.000000e+00 0.000000e+00
 0.000000e+00 0.000000e+00 0.000000e+00 9.785224e-01 2.147760e-02 0.000000e+00 0.000000e+00 0.000000e+00
 0.000000e+00 0.000000e+00 0.000000e+00 0.000000e+00 9.296246e-01 7.037549e-02 0.000000e+00 0.000000e+00
 0.000000e+00 0.000000e+00 0.000000e+00 0.000000e+00 0.000000e+00 9.774770e-01 2.252304e-02 0.000000e+00
 0.000000e+00 0.000000e+00 0.000000e+00 0.000000e+00 0.000000e+00 0.000000e+00 9.827253e-01 1.727478e-02
 0.000000e+00 0.000000e+00 0.000000e+00 0.000000e+00 0.000000e+00 0.000000e+00 0.000000e+00 0.000000e+00
<ENDHMM>
~h "e"
<BEGINHMM>
<NUMSTATES> 8
<STATE> 2
<NUMMIXES> 2
<MIXTURE> 1 9.936009e-01
<MEAN> 3
 4.962509e-04 -1.400615e-03 -1.943311e-02
<VARIANCE> 3
 1.000000e-02 1.000000e-02 1.608845e-02
<GCONST> -7.826363e+00
<MIXTURE> 2 6.399553e-03
<MEAN> 3
 -2.229170e-01 -5.128467e+01 -1.000000e+02
<VARIANCE> 3
 4.166087e-02 2.271938e+03 1.000000e-02
<GCONST> 5.458656e+00
<STATE> 3
<NUMMIXES> 2
<MIXTURE> 1 9.895408e-01
<MEAN> 3
 -1.822153e-03 -3.340831e+00 -5.281773e+00
<VARIANCE> 3
 1.000000e-02 1.582245e+01 1.872621e+01
<GCONST> 6.599815e+00
<MIXTURE> 2 1.045849e-02
<MEAN> 3
 -5.182019e-01 -6.448396e+01 -1.000000e+02
<VARIANCE> 3
 1.518141e-01 2.124635e+03 1.000000e-02
<GCONST> 6.684718e+00
<STATE> 4
<NUMMIXES> 2
<MIXTURE> 1 9.724526e-01
<MEAN> 3
 -5.322806e+00 -2.839962e+00 -5.175982e-01
<VARIANCE> 3
 1.374394e+01 1.024539e+01 2.094200e+00
<GCONST> 1.120023e+01
<MIXTURE> 2 2.754577e-02
<MEAN> 3
 -5.737870e-01 -4.596619e+01 -1.000000e+02
<VARIANCE> 3
 2.288180e-01 2.242861e+03 1.000000e-02
<GCONST> 7.149140e+00
<STATE> 5
<NUMMIXES> 2
<MIXTURE> 1 9.592934e-01
<MEAN> 3
 -3.022017e+00 -7.998092e+00 -8.478243e+00
<VARIANCE> 3
 5.018099e+00 8.335482e+00 4.979712e+00
<GCONST> 1.085258e+01
<MIXTURE> 2 4.070358e-02
<MEAN> 3
 -1.264788e+00 -6.505821e+01 -1.000000e+02
<VARIANCE> 3
 1.182081e+00 2.114011e+03 1.000000e-02
<GCONST> 8.732080e+00
<STATE> 6
<NUMMIXES> 2
<MIXTURE> 1 3.036547e-02
<MEAN> 3
 -6.969936e+00 -2.945050e+00 2.304278e-01
<VARIANCE> 3
 1.031343e+01 1.737755e+01 4.008366e+01
<GCONST> 1.439323e+01
<MIXTURE> 2 9.696254e-01
<MEAN> 3
 -7.572866e+00 -4.913787e+00 -1.000000e+02
<VARIANCE> 3
 9.886250e+00 5.953161e+01 1.000000e-02
<GCONST> 7.286113e+00
<STATE> 7
<NUMMIXES> 2
<MIXTURE> 1 8.417090e-01
<MEAN> 3
 -9.555353e+00 -9.250534e+00 -7.727742e+00
<VARIANCE> 3
 2.239001e+00 2.694967e+00 8.153425e+00
<GCONST> 9.409485e+00
<MIXTURE> 2 1.582871e-01
<MEAN> 3
 -8.856388e+00 -9.614709e+01 -1.000000e+02
<VARIANCE> 3
 6.817039e+00 3.615757e+02 1.000000e-02
<GCONST> 8.718358e+00
<TRANSP> 8
 0.000000e+00 1.000000e+00 0.000000e+00 0.000000e+00 0.000000e+00 0.000000e+00 0.000000e+00 0.000000e+00
 0.000000e+00 9.856345e-01 1.436547e-02 0.000000e+00 0.000000e+00 0.000000e+00 0.000000e+00 0.000000e+00
 0.000000e+00 0.000000e+00 9.825059e-01 1.749417e-02 0.000000e+00 0.000000e+00 0.000000e+00 0.000000e+00
 0.000000e+00 0.000000e+00 0.000000e+00 9.458380e-01 5.416201e-02 0.000000e+00 0.000000e+00 0.000000e+00
 0.000000e+00 0.000000e+00 0.000000e+00 0.000000e+00 9.348742e-01 6.512584e-02 0.000000e+00 0.000000e+00
 0.000000e+00 0.000000e+00 0.000000e+00 0.000000e+00 0.000000e+00 9.802610e-01 1.973902e-02 0.000000e+00
 0.000000e+00 0.000000e+00 0.000000e+00 0.000000e+00 0.000000e+00 0.000000e+00 9.725978e-01 2.740218e-02
 0.000000e+00 0.000000e+00 0.000000e+00 0.000000e+00 0.000000e+00 0.000000e+00 0.000000e+00 0.000000e+00
<ENDHMM>
~h "i"
<BEGINHMM>
<NUMSTATES> 8
<STATE> 2
<NUMMIXES> 2
<MIXTURE> 1 9.756839e-01
<MEAN> 3
 -2.206035e+00 -4.136261e+00 -8.476140e+00
<VARIANCE> 3
 1.338081e+01 1.891779e+01 7.487761e+00
<GCONST> 1.306083e+01
<MIXTURE> 2 2.431612e-02
<MEAN> 3
 -2.274681e+00 -4.985256e+01 -1.000000e+02
<VARIANCE> 3
 4.595228e+00 2.386672e+03 1.000000e-02
<GCONST> 1.021113e+01
<STATE> 3
<NUMMIXES> 2
<MIXTURE> 1 9.831453e-01
<MEAN> 3
 -7.996027e+00 -8.174593e+00 -8.545909e-03
<VARIANCE> 3
 9.002379e+00 7.386183e+00 1.000000e-02
<GCONST> 5.105561e+00
<MIXTURE> 2 1.685509e-02
<MEAN> 3
 -1.796852e+00 -4.987527e+01 -1.000000e+02
<VARIANCE> 3
 2.862717e+00 2.389689e+03 1.000000e-02
<GCONST> 9.739151e+00
<STATE> 4
<NUMMIXES> 2
<MIXTURE> 1 9.831697e-01
<MEAN> 3
 -7.983795e+00 -4.832751e-03 2.799665e-03
<VARIANCE> 3
 7.657553e+00 1.000000e-02 1.000000e-02
<GCONST> -1.661016e+00
<MIXTURE> 2 1.683026e-02
<MEAN> 3
 -1.350107e+00 -4.975023e+01 -1.000000e+02
<VARIANCE> 3
 1.644273e+00 2.392260e+03 1.000000e-02
<GCONST> 9.185753e+00
<STATE> 5
<NUMMIXES> 2
<MIXTURE> 1 9.934051e-01
<MEAN> 3
 -8.361418e-03 4.960873e-04 8.922074e-04
<VARIANCE> 3
 2.194268e-02 1.000000e-02 1.000000e-02
<GCONST> -7.516031e+00
<MIXTURE> 2 6.594948e-03
<MEAN> 3
 -9.479439e-01 -4.975758e+01 -1.000000e+02
<VARIANCE> 3
 8.925657e-01 2.395733e+03 1.000000e-02
<GCONST> 8.576251e+00
<STATE> 6
<NUMMIXES> 2
<MIXTURE> 1 9.450105e-01
<MEAN> 3
 -3.189114e+00 1.654866e+00 9.948762e-01
<VARIANCE> 3
 1.914527e+01 4.099172e+00 3.089868e+00
<GCONST> 1.100460e+01
<MIXTURE> 2 5.498487e-02
<MEAN> 3
 -7.429186e-01 -4.100202e+01 -1.000000e+02
<VARIANCE> 3
 4.096122e-01 2.313959e+03 1.000000e-02
<GCONST> 7.762631e+00
<STATE> 7
<NUMMIXES> 2
<MIXTURE> 1 5.559900e-01
<MEAN> 3
 -1.236884e-01 2.508951e-01 1.664342e+00
<VARIANCE> 3
 9.637079e-01 7.152721e-01 9.350052e+01
<GCONST> 9.679540e+00
<MIXTURE> 2 4.440103e-01
<MEAN> 3
 -1.957546e-01 -4.907875e+01 -1.000000e+02
<VARIANCE> 3
 4.180834e-02 2.396564e+03 1.000000e-02
<GCONST> 5.515594e+00
<TRANSP> 8
 0.000000e+00 1.000000e+00 0.000000e+00 0.000000e+00 0.000000e+00 0.000000e+00 0.000000e+00 0.000000e+00
 0.000000e+00 9.458988e-01 5.410118e-02 0.000000e+00 0.000000e+00 0.000000e+00 0.000000e+00 0.000000e+00
 0.000000e+00 0.000000e+00 9.625425e-01 3.745745e-02 0.000000e+00 0.000000e+00 0.000000e+00 0.000000e+00
 0.000000e+00 0.000000e+00 0.000000e+00 9.628630e-01 3.713704e-02 0.000000e+00 0.000000e+00 0.000000e+00
 0.000000e+00 0.000000e+00 0.000000e+00 0.000000e+00 9.853744e-01 1.462565e-02 0.000000e+00 0.000000e+00
 0.000000e+00 0.000000e+00 0.000000e+00 0.000000e+00 0.000000e+00 9.192922e-01 8.070779e-02 0.000000e+00
 0.000000e+00 0.000000e+00 0.000000e+00 0.000000e+00 0.000000e+00 0.000000e+00 2.162069e-02 9.783793e-01
 0.000000e+00 0.000000e+00 0.000000e+00 0.000000e+00 0.000000e+00 0.000000e+00 0.000000e+00 0.000000e+00
<ENDHMM>
~h "m"
<BEGINHMM>
<NUMSTATES> 8
<STATE> 2
<NUMMIXES> 2
<MIXTURE> 1 1.786678e-02
<MEAN> 3
 -9.257903e-01 3.396510e+00 4.474392e+01
<VARIANCE> 3
 6.554784e+00 1.531485e+01 1.136858e+04
<GCONST> 1.946126e+01
<MIXTURE> 2 9.821284e-01
<MEAN> 3
 2.460852e-04 -4.160520e-01 -1.000000e+02
<VARIANCE> 3
 1.000000e-02 4.440599e+01 1.000000e-02
<GCONST> 9.666538e-02
<STATE> 3
<NUMMIXES> 2
<MIXTURE> 1 9.758719e-01
<MEAN> 3
 3.776666e-03 9.669239e-03 3.205348e+00
<VARIANCE> 3
 1.000000e-02 1.000000e-02 9.165795e+00
<GCONST> -1.481230e+00
<MIXTURE> 2 2.412908e-02
<MEAN> 3
 1.981847e-01 -4.369762e+01 -1.000000e+02
<VARIANCE> 3
 1.608959e-02 2.524585e+03 1.000000e-02
<GCONST> 4.612710e+00
<STATE> 4
<NUMMIXES> 2
<MIXTURE> 1 9.862654e-01
<MEAN> 3
 2.999100e+00 3.083175e+00 8.402897e-02
<VARIANCE> 3
 1.142080e+01 9.113693e+00 1.820323e-01
<GCONST> 8.455274e+00
<MIXTURE> 2 1.373388e-02
<MEAN> 3
 3.485133e-01 -4.369194e+01 -1.000000e+02
<VARIANCE> 3
 3.542911e-02 2.524570e+03 1.000000e-02
<GCONST> 5.402066e+00
<STATE> 5
<NUMMIXES> 2
<MIXTURE> 1 9.822187e-01
<MEAN> 3
 1.137014e+00 4.160285e+00 4.490174e+00
<VARIANCE> 3
 3.377975e+00 6.886185e+00 9.078777e+00
<GCONST> 1.086636e+01
<MIXTURE> 2 1.778220e-02
<MEAN> 3
 5.277390e-01 -4.349782e+01 -1.000000e+02
<VARIANCE> 3
 8.096407e-02 2.524002e+03 1.000000e-02
<GCONST> 6.228312e+00
<STATE> 6
<NUMMIXES> 2
<MIXTURE> 1 5.205322e-02
<MEAN> 3
 3.494963e+00 6.675080e+00 3.521074e+02
<VARIANCE> 3
 9.171968e+00 6.731325e+00 7.408500e+04
<GCONST> 2.084952e+01
<MIXTURE> 2 9.479454e-01
<MEAN> 3
 4.149964e+00 1.119856e+00 -1.000000e+02
<VARIANCE> 3
 8.535173e+00 5.191812e+01 1.000000e-02
<GCONST> 7.002324e+00
<STATE> 7
<NUMMIXES> 2
<MIXTURE> 1 2.586242e-02
<MEAN> 3
 6.428114e+00 3.106675e+02 2.197866e+02
<VARIANCE> 3
 8.636739e+00 7.138003e+04 2.084962e+04
<GCONST> 2.879052e+01
<MIXTURE> 2 9.741180e-01
<MEAN> 3
 -1.452905e+00 -1.000000e+02 -1.000000e+02
<VARIANCE> 3
 2.163107e+01 1.000000e-02 1.000000e-02
<GCONST> -6.225786e-01
<TRANSP> 8
 0.000000e+00 1.000000e+00 0.000000e+00 0.000000e+00 0.000000e+00 0.000000e+00 0.000000e+00 0.000000e+00
 0.000000e+00 9.826149e-01 1.738510e-02 0.000000e+00 0.000000e+00 0.000000e+00 0.000000e+00 0.000000e+00
 0.000000e+00 0.000000e+00 9.508336e-01 4.916637e-02 0.000000e+00 0.000000e+00 0.000000e+00 0.000000e+00
 0.000000e+00 0.000000e+00 0.000000e+00 9.720172e-01 2.798278e-02 0.000000e+00 0.000000e+00 0.000000e+00
 0.000000e+00 0.000000e+00 0.000000e+00 0.000000e+00 9.639127e-01 3.608722e-02 0.000000e+00 0.000000e+00
 0.000000e+00 0.000000e+00 0.000000e+00 0.000000e+00 0.000000e+00 9.810603e-01 1.893968e-02 0.000000e+00
 0.000000e+00 0.000000e+00 0.000000e+00 0.000000e+00 0.000000e+00 0.000000e+00 9.922748e-01 7.725182e-03
 0.000000e+00 0.000000e+00 0.000000e+00 0.000000e+00 0.000000e+00 0.000000e+00 0.000000e+00 0.000000e+00
<ENDHMM>
~h "sil"
<BEGINHMM>
<NUMSTATES> 8
<STATE> 2
<NUMMIXES> 2
<MIXTURE> 1 9.160802e-01
<MEAN> 3
 9.385444e+00 1.646036e-04 2.665116e-03
<VARIANCE> 3
 5.054527e+00 1.000000e-02 1.000000e-02
<GCONST> -2.076425e+00
<MIXTURE> 2 8.391976e-02
<MEAN> 3
 7.484529e+00 -1.744092e+01 -1.666444e+01
<VARIANCE> 3
 7.104706e+00 9.835717e+02 1.000243e+03
<GCONST> 2.127358e+01
<STATE> 3
<NUMMIXES> 2
<MIXTURE> 1 8.218706e-02
<MEAN> 3
 1.347211e+01 6.418293e-01 3.020197e+00
<VARIANCE> 3
 4.208583e+00 2.672177e+00 1.691850e+01
<GCONST> 1.076206e+01
<MIXTURE> 2 9.178123e-01
<MEAN> 3
 1.005297e+01 -2.193113e+01 -2.049373e+01
<VARIANCE> 3
 2.064806e+01 1.792763e+03 1.870363e+03
<GCONST> 2.356665e+01
<STATE> 4
<NUMMIXES> 2
<MIXTURE> 1 1.758837e-01
<MEAN> 3
 8.457405e+00 -8.302225e+00 -8.032447e+00
<VARIANCE> 3
 9.412668e+00 1.089370e+03 1.094460e+03
<GCONST> 2.174706e+01
<MIXTURE> 2 8.241181e-01
<MEAN> 3
 7.365953e+00 4.815509e-03 3.604934e+00
<VARIANCE> 3
 1.228756e+01 1.000000e-02 8.847889e+00
<GCONST> 5.597227e+00
<STATE> 5
<NUMMIXES> 2
<MIXTURE> 1 2.846143e-02
<MEAN> 3
 5.124590e+00 -6.803920e+01 -6.723334e+01
<VARIANCE> 3
 9.341922e+00 2.196928e+03 2.312104e+03
<GCONST> 2.318887e+01
<MIXTURE> 2 9.715371e-01
<MEAN> 3
 6.763197e+00 4.902258e+00 3.141099e-03
<VARIANCE> 3
 7.635930e+00 8.429876e+00 1.000000e-02
<GCONST> 5.073108e+00
<STATE> 6
<NUMMIXES> 2
<MIXTURE> 1 1.371163e-01
<MEAN> 3
 6.748075e+00 -3.195406e+01 -3.155908e+01
<VARIANCE> 3
 8.886861e+00 2.320520e+03 2.355101e+03
<GCONST> 2.321209e+01
<MIXTURE> 2 8.628833e-01
<MEAN> 3
 5.744986e+00 1.064134e+00 4.108243e+00
<VARIANCE> 3
 3.762657e+00 5.753681e-01 4.685746e+00
<GCONST> 7.830536e+00
<STATE> 7
<NUMMIXES> 2
<MIXTURE> 1 1.116195e-01
<MEAN> 3
 5.223496e+00 -4.577333e+01 -4.612946e+01
<VARIANCE> 3
 7.799437e+00 2.614932e+03 2.585655e+03
<GCONST> 2.329441e+01
<MIXTURE> 2 8.883806e-01
<MEAN> 3
 5.692491e+00 1.309615e-03 -7.741479e+00
<VARIANCE> 3
 5.200839e+00 1.000000e-02 1.029352e+01
<GCONST> 4.888795e+00
<TRANSP> 8
 0.000000e+00 1.000000e+00 0.000000e+00 0.000000e+00 0.000000e+00 0.000000e+00 0.000000e+00 0.000000e+00
 0.000000e+00 9.791894e-01 2.081061e-02 0.000000e+00 0.000000e+00 0.000000e+00 0.000000e+00 0.000000e+00
 0.000000e+00 0.000000e+00 5.832989e-01 4.167011e-01 0.000000e+00 0.000000e+00 0.000000e+00 0.000000e+00
 0.000000e+00 0.000000e+00 0.000000e+00 9.601009e-01 3.989900e-02 0.000000e+00 0.000000e+00 0.000000e+00
 0.000000e+00 0.000000e+00 0.000000e+00 0.000000e+00 9.611430e-01 3.885702e-02 0.000000e+00 0.000000e+00
 0.000000e+00 0.000000e+00 0.000000e+00 0.000000e+00 0.000000e+00 9.085060e-01 9.149396e-02 0.000000e+00
 0.000000e+00 0.000000e+00 0.000000e+00 0.000000e+00 0.000000e+00 0.000000e+00 8.949350e-01 1.050650e-01
 0.000000e+00 0.000000e+00 0.000000e+00 0.000000e+00 0.000000e+00 0.000000e+00 0.000000e+00 0.000000e+00
<ENDHMM>
