~o
<STREAMINFO> 1 1
<VECSIZE> 1<NULLD><USER><DIAGC>
~h "a"
<BEGINHMM>
<NUMSTATES> 8
<STATE> 2
<MEAN> 1
 3.227373e+00
<VARIANCE> 1
 3.623712e+00
<GCONST> 3.125376e+00
<STATE> 3
<MEAN> 1
 9.639382e+00
<VARIANCE> 1
 2.924205e+00
<GCONST> 2.910900e+00
<STATE> 4
<MEAN> 1
 2.525268e+00
<VARIANCE> 1
 4.191153e+00
<GCONST> 3.270853e+00
<STATE> 5
<MEAN> 1
 5.141058e+00
<VARIANCE> 1
 1.305470e+00
<GCONST> 2.104440e+00
<STATE> 6
<MEAN> 1
 1.879648e+00
<VARIANCE> 1
 8.269303e-01
<GCONST> 1.647842e+00
<STATE> 7
<MEAN> 1
 2.097113e-03
<VARIANCE> 1
 1.000000e-02
<GCONST> -2.767293e+00
<TRANSP> 8
 0.000000e+00 1.000000e+00 0.000000e+00 0.000000e+00 0.000000e+00 0.000000e+00 0.000000e+00 0.000000e+00
 0.000000e+00 9.261567e-01 7.384331e-02 0.000000e+00 0.000000e+00 0.000000e+00 0.000000e+00 0.000000e+00
 0.000000e+00 0.000000e+00 9.828246e-01 1.717543e-02 0.000000e+00 0.000000e+00 0.000000e+00 0.000000e+00
 0.000000e+00 0.000000e+00 0.000000e+00 8.521795e-01 1.478205e-01 0.000000e+00 0.000000e+00 0.000000e+00
 0.000000e+00 0.000000e+00 0.000000e+00 0.000000e+00 9.696709e-01 3.032908e-02 0.000000e+00 0.000000e+00
 0.000000e+00 0.000000e+00 0.000000e+00 0.000000e+00 0.000000e+00 9.495041e-01 5.049593e-02 0.000000e+00
 0.000000e+00 0.000000e+00 0.000000e+00 0.000000e+00 0.000000e+00 0.000000e+00 9.919212e-01 8.078806e-03
 0.000000e+00 0.000000e+00 0.000000e+00 0.000000e+00 0.000000e+00 0.000000e+00 0.000000e+00 0.000000e+00
<ENDHMM>
~h "e"
<BEGINHMM>
<NUMSTATES> 8
<STATE> 2
<MEAN> 1
 -1.359592e-03
<VARIANCE> 1
 1.000000e-02
<GCONST> -2.767293e+00
<STATE> 3
<MEAN> 1
 -8.154147e-01
<VARIANCE> 1
 1.750512e-01
<GCONST> 9.519994e-02
<STATE> 4
<MEAN> 1
 -2.594628e+00
<VARIANCE> 1
 8.017102e-01
<GCONST> 1.616869e+00
<STATE> 5
<MEAN> 1
 -6.123236e+00
<VARIANCE> 1
 6.657292e+00
<GCONST> 3.733590e+00
<STATE> 6
<MEAN> 1
 -5.931175e+00
<VARIANCE> 1
 5.739217e-01
<GCONST> 1.282615e+00
<STATE> 7
<MEAN> 1
 -8.713378e+00
<VARIANCE> 1
 1.068595e+00
<GCONST> 1.904222e+00
<TRANSP> 8
 0.000000e+00 1.000000e+00 0.000000e+00 0.000000e+00 0.000000e+00 0.000000e+00 0.000000e+00 0.000000e+00
 0.000000e+00 9.921899e-01 7.810055e-03 0.000000e+00 0.000000e+00 0.000000e+00 0.000000e+00 0.000000e+00
 0.000000e+00 0.000000e+00 9.450717e-01 5.492827e-02 0.000000e+00 0.000000e+00 0.000000e+00 0.000000e+00
 0.000000e+00 0.000000e+00 0.000000e+00 9.472955e-01 5.270452e-02 0.000000e+00 0.000000e+00 0.000000e+00
 0.000000e+00 0.000000e+00 0.000000e+00 0.000000e+00 8.655237e-01 1.344763e-01 0.000000e+00 0.000000e+00
 0.000000e+00 0.000000e+00 0.000000e+00 0.000000e+00 0.000000e+00 9.545226e-01 4.547745e-02 0.000000e+00
 0.000000e+00 0.000000e+00 0.000000e+00 0.000000e+00 0.000000e+00 0.000000e+00 9.682098e-01 3.179018e-02
 0.000000e+00 0.000000e+00 0.000000e+00 0.000000e+00 0.000000e+00 0.000000e+00 0.000000e+00 0.000000e+00
<ENDHMM>
~h "i"
<BEGINHMM>
<NUMSTATES> 8
<STATE> 2
<MEAN> 1
 -1.011886e+01
<VARIANCE> 1
 6.657783e-01
<GCONST> 1.431079e+00
<STATE> 3
<MEAN> 1
 -6.984651e+00
<VARIANCE> 1
 2.728480e+00
<GCONST> 2.841622e+00
<STATE> 4
<MEAN> 1
 -3.068765e+00
<VARIANCE> 1
 4.153522e-01
<GCONST> 9.592487e-01
<STATE> 5
<MEAN> 1
 -2.182612e+00
<VARIANCE> 1
 2.109432e-01
<GCONST> 2.817106e-01
<STATE> 6
<MEAN> 1
 -1.048253e+00
<VARIANCE> 1
 3.051947e-01
<GCONST> 6.510718e-01
<STATE> 7
<MEAN> 1
 -4.147150e-02
<VARIANCE> 1
 1.000000e-02
<GCONST> -2.767293e+00
<TRANSP> 8
 0.000000e+00 1.000000e+00 0.000000e+00 0.000000e+00 0.000000e+00 0.000000e+00 0.000000e+00 0.000000e+00
 0.000000e+00 9.895679e-01 1.043207e-02 0.000000e+00 0.000000e+00 0.000000e+00 0.000000e+00 0.000000e+00
 0.000000e+00 0.000000e+00 9.675999e-01 3.240020e-02 0.000000e+00 0.000000e+00 0.000000e+00 0.000000e+00
 0.000000e+00 0.000000e+00 0.000000e+00 5.576935e-01 4.423064e-01 0.000000e+00 0.000000e+00 0.000000e+00
 0.000000e+00 0.000000e+00 0.000000e+00 0.000000e+00 0.000000e+00 1.000000e+00 0.000000e+00 0.000000e+00
 0.000000e+00 0.000000e+00 0.000000e+00 0.000000e+00 0.000000e+00 7.837572e-01 2.162428e-01 0.000000e+00
 0.000000e+00 0.000000e+00 0.000000e+00 0.000000e+00 0.000000e+00 0.000000e+00 8.042982e-01 1.957017e-01
 0.000000e+00 0.000000e+00 0.000000e+00 0.000000e+00 0.000000e+00 0.000000e+00 0.000000e+00 0.000000e+00
<ENDHMM>
~h "m"
<BEGINHMM>
<NUMSTATES> 8
<STATE> 2
<MEAN> 1
 8.743040e-04
<VARIANCE> 1
 1.000000e-02
<GCONST> -2.767293e+00
<STATE> 3
<MEAN> 1
 1.081068e+00
<VARIANCE> 1
 2.182660e-01
<GCONST> 3.158361e-01
<STATE> 4
<MEAN> 1
 1.071002e+00
<VARIANCE> 1
 1.287238e+00
<GCONST> 2.090376e+00
<STATE> 5
<MEAN> 1
 2.741700e+00
<VARIANCE> 1
 4.637069e-01
<GCONST> 1.069374e+00
<STATE> 6
<MEAN> 1
 4.885496e+00
<VARIANCE> 1
 6.795528e-01
<GCONST> 1.451557e+00
<STATE> 7
<MEAN> 1
 7.408426e+00
<VARIANCE> 1
 1.378261e+00
<GCONST> 2.158700e+00
<TRANSP> 8
 0.000000e+00 1.000000e+00 0.000000e+00 0.000000e+00 0.000000e+00 0.000000e+00 0.000000e+00 0.000000e+00
 0.000000e+00 9.961548e-01 3.845152e-03 0.000000e+00 0.000000e+00 0.000000e+00 0.000000e+00 0.000000e+00
 0.000000e+00 0.000000e+00 9.500473e-01 4.995264e-02 0.000000e+00 0.000000e+00 0.000000e+00 0.000000e+00
 0.000000e+00 0.000000e+00 0.000000e+00 8.913851e-01 1.086149e-01 0.000000e+00 0.000000e+00 0.000000e+00
 0.000000e+00 0.000000e+00 0.000000e+00 0.000000e+00 9.327984e-01 6.720154e-02 0.000000e+00 0.000000e+00
 0.000000e+00 0.000000e+00 0.000000e+00 0.000000e+00 0.000000e+00 9.465229e-01 5.347710e-02 0.000000e+00
 0.000000e+00 0.000000e+00 0.000000e+00 0.000000e+00 0.000000e+00 0.000000e+00 9.449494e-01 5.505059e-02
 0.000000e+00 0.000000e+00 0.000000e+00 0.000000e+00 0.000000e+00 0.000000e+00 0.000000e+00 0.000000e+00
<ENDHMM>
~h "sil"
<BEGINHMM>
<NUMSTATES> 8
<STATE> 2
<MEAN> 1
 1.203412e+01
<VARIANCE> 1
 1.271277e+01
<GCONST> 4.380484e+00
<STATE> 3
<MEAN> 1
 1.088659e+01
<VARIANCE> 1
 5.724460e-01
<GCONST> 1.280040e+00
<STATE> 4
<MEAN> 1
 9.473163e+00
<VARIANCE> 1
 7.726406e-01
<GCONST> 1.579936e+00
<STATE> 5
<MEAN> 1
 7.542012e+00
<VARIANCE> 1
 1.129875e+00
<GCONST> 1.959984e+00
<STATE> 6
<MEAN> 1
 9.231717e+00
<VARIANCE> 1
 6.283199e+00
<GCONST> 3.675756e+00
<STATE> 7
<MEAN> 1
 5.255833e+00
<VARIANCE> 1
 2.874275e+00
<GCONST> 2.893677e+00
<TRANSP> 8
 0.000000e+00 1.000000e+00 0.000000e+00 0.000000e+00 0.000000e+00 0.000000e+00 0.000000e+00 0.000000e+00
 0.000000e+00 9.505681e-01 4.943197e-02 0.000000e+00 0.000000e+00 0.000000e+00 0.000000e+00 0.000000e+00
 0.000000e+00 0.000000e+00 9.784883e-01 2.151162e-02 0.000000e+00 0.000000e+00 0.000000e+00 0.000000e+00
 0.000000e+00 0.000000e+00 0.000000e+00 9.633809e-01 3.661915e-02 0.000000e+00 0.000000e+00 0.000000e+00
 0.000000e+00 0.000000e+00 0.000000e+00 0.000000e+00 9.393607e-01 6.063929e-02 0.000000e+00 0.000000e+00
 0.000000e+00 0.000000e+00 0.000000e+00 0.000000e+00 0.000000e+00 7.970659e-01 2.029341e-01 0.000000e+00
 0.000000e+00 0.000000e+00 0.000000e+00 0.000000e+00 0.000000e+00 0.000000e+00 9.407544e-01 5.924558e-02
 0.000000e+00 0.000000e+00 0.000000e+00 0.000000e+00 0.000000e+00 0.000000e+00 0.000000e+00 0.000000e+00
<ENDHMM>
