~o
<STREAMINFO> 1 3
<VECSIZE> 3<NULLD><USER><DIAGC>
~h "a"
<BEGINHMM>
<NUMSTATES> 8
<STATE> 2
<NUMMIXES> 2
<MIXTURE> 1 9.679633e-01
<MEAN> 3
 5.506846e+00 3.831972e+00 4.097248e+00
<VARIANCE> 3
 1.186125e+01 8.207509e+00 5.739161e+00
<GCONST> 1.183927e+01
<MIXTURE> 2 3.203819e-02
<MEAN> 3
 3.874658e+00 -2.840066e+01 -1.000000e+02
<VARIANCE> 3
 1.075056e+01 2.030607e+03 1.000000e-02
<GCONST> 1.089951e+01
<STATE> 3
<NUMMIXES> 2
<MIXTURE> 1 9.850348e-01
<MEAN> 3
 3.178197e+00 4.399774e+00 2.534257e-03
<VARIANCE> 3
 8.205387e+00 8.654977e+00 1.000000e-02
<GCONST> 5.171387e+00
<MIXTURE> 2 1.496798e-02
<MEAN> 3
 9.433660e-01 -4.947741e+01 -1.000000e+02
<VARIANCE> 3
 1.060355e-01 2.478222e+03 1.000000e-02
<GCONST> 6.479776e+00
<STATE> 4
<NUMMIXES> 2
<MIXTURE> 1 9.898049e-01
<MEAN> 3
 4.483805e+00 2.573615e-03 9.953797e-05
<VARIANCE> 3
 8.608332e+00 1.000000e-02 1.000000e-02
<GCONST> -1.543979e+00
<MIXTURE> 2 1.019593e-02
<MEAN> 3
 6.143224e-01 -4.961259e+01 -1.000000e+02
<VARIANCE> 3
 4.099146e-02 2.478297e+03 1.000000e-02
<GCONST> 5.529396e+00
<STATE> 5
<NUMMIXES> 2
<MIXTURE> 1 9.439269e-01
<MEAN> 3
 1.655753e+00 -3.252558e+00 -3.889796e-01
<VARIANCE> 3
 6.083190e+00 3.292825e+01 4.490979e+00
<GCONST> 1.231556e+01
<MIXTURE> 2 5.607205e-02
<MEAN> 3
 3.956464e-01 -4.441902e+01 -1.000000e+02
<VARIANCE> 3
 4.164130e-02 2.450112e+03 1.000000e-02
<GCONST> 5.533688e+00
<STATE> 6
<NUMMIXES> 2
<MIXTURE> 1 3.381981e-01
<MEAN> 3
 1.439180e-03 -9.255788e-04 -1.020006e-02
<VARIANCE> 3
 1.000000e-02 1.000000e-02 2.269400e-02
<GCONST> -7.482364e+00
<MIXTURE> 2 6.617275e-01
<MEAN> 3
 6.338455e-04 -5.149121e+01 -1.000000e+02
<VARIANCE> 3
 1.000000e-02 2.409481e+03 1.000000e-02
<GCONST> 4.090457e+00
<STATE> 7
<NUMMIXES> 2
<MIXTURE> 1 8.293909e-01
<MEAN> 3
 1.625712e-03 -8.501141e-01 -8.241292e-01
<VARIANCE> 3
 1.000000e-02 3.972447e-01 2.296200e+00
<GCONST> 8.165138e-01
<MIXTURE> 2 1.706089e-01
<MEAN> 3
 -3.719616e-01 -3.307674e+01 -1.000000e+02
<VARIANCE> 3
 1.870723e-01 1.961051e+03 1.000000e-02
<GCONST> 6.813437e+00
<TRANSP> 8
 0.000000e+00 1.000000e+00 0.000000e+00 0.000000e+00 0.000000e+00 0.000000e+00 0.000000e+00 0.000000e+00
 0.000000e+00 9.549635e-01 4.503651e-02 0.000000e+00 0.000000e+00 0.000000e+00 0.000000e+00 0.000000e+00
 0.000000e+00 0.000000e+00 9.642384e-01 3.576165e-02 0.000000e+00 0.000000e+00 0.000000e+00 0.000000e+00
 0.000000e+00 0.000000e+00 0.000000e+00 9.754185e-01 2.458149e-02 0.000000e+00 0.000000e+00 0.000000e+00
 0.000000e+00 0.000000e+00 0.000000e+00 0.000000e+00 9.020378e-01 9.796223e-02 0.000000e+00 0.000000e+00
 0.000000e+00 0.000000e+00 0.000000e+00 0.000000e+00 0.000000e+00 9.940315e-01 5.968531e-03 0.000000e+00
 0.000000e+00 0.000000e+00 0.000000e+00 0.000000e+00 0.000000e+00 0.000000e+00 7.696509e-01 2.303490e-01
 0.000000e+00 0.000000e+00 0.000000e+00 0.000000e+00 0.000000e+00 0.000000e+00 0.000000e+00 0.000000e+00
<ENDHMM>
~h "e"
<BEGINHMM>
<NUMSTATES> 8
<STATE> 2
<NUMMIXES> 2
<MIXTURE> 1 9.433984e-01
<MEAN> 3
 -2.365850e-04 -1.103165e-01 -5.759008e+00
<VARIANCE> 3
 1.000000e-02 9.379778e-02 1.714415e+01
<GCONST> 1.383504e+00
<MIXTURE> 2 5.660783e-02
<MEAN> 3
 -3.410611e-02 -1.074040e+01 -1.000000e+02
<VARIANCE> 3
 1.000000e-02 8.254048e+02 1.000000e-02
<GCONST> 3.019165e+00
<STATE> 3
<NUMMIXES> 2
<MIXTURE> 1 9.219300e-02
<MEAN> 3
 -4.762075e-01 -1.749876e+00 -7.337284e+00
<VARIANCE> 3
 2.129979e-01 6.059341e+00 1.262225e+01
<GCONST> 8.304220e+00
<MIXTURE> 2 9.078074e-01
<MEAN> 3
 -1.050012e+00 -5.460573e+01 -1.000000e+02
<VARIANCE> 3
 3.147728e-01 2.334906e+03 1.000000e-02
<GCONST> 7.508284e+00
<STATE> 4
<NUMMIXES> 2
<MIXTURE> 1 9.853886e-01
<MEAN> 3
 -4.654685e-03 -7.226182e+00 -5.762785e+00
<VARIANCE> 3
 1.000000e-02 9.061315e+00 1.878237e+01
<GCONST> 6.045394e+00
<MIXTURE> 2 1.461213e-02
<MEAN> 3
 -2.205008e+00 -5.155147e+01 -1.000000e+02
<VARIANCE> 3
 4.669557e-02 2.248469e+03 1.000000e-02
<GCONST> 5.562360e+00
<STATE> 5
<NUMMIXES> 2
<MIXTURE> 1 1.135328e-01
<MEAN> 3
 -2.145190e+00 -1.787360e+00 -1.071896e+00
<VARIANCE> 3
 1.825546e+00 6.042038e+00 4.470789e+00
<GCONST> 9.411817e+00
<MIXTURE> 2 8.864555e-01
<MEAN> 3
 -8.381495e+00 -4.814908e+00 -1.000000e+02
<VARIANCE> 3
 5.223292e+00 6.498278e+01 1.000000e-02
<GCONST> 6.735711e+00
<STATE> 6
<NUMMIXES> 2
<MIXTURE> 1 1.148438e-01
<MEAN> 3
 -1.823194e+00 -8.292882e+00 -7.480925e+00
<VARIANCE> 3
 1.099500e+00 6.075043e+00 1.361286e+01
<GCONST> 1.002369e+01
<MIXTURE> 2 8.851614e-01
<MEAN> 3
 -8.132016e+00 -9.943733e+01 -1.000000e+02
<VARIANCE> 3
 4.714435e+00 5.516377e+01 1.000000e-02
<GCONST> 6.469397e+00
<STATE> 7
<NUMMIXES> 2
<MIXTURE> 1 9.881594e-01
<MEAN> 3
 -8.781980e+00 -8.131436e+00 -7.749396e+00
<VARIANCE> 3
 4.896257e+00 8.304640e+00 9.331139e+00
<GCONST> 1.145227e+01
<MIXTURE> 2 1.184246e-02
<MEAN> 3
 -4.789114e+00 -4.953314e+01 -1.000000e+02
<VARIANCE> 3
 9.591562e-01 2.430671e+03 1.000000e-02
<GCONST> 8.662683e+00
<TRANSP> 8
 0.000000e+00 1.000000e+00 0.000000e+00 0.000000e+00 0.000000e+00 0.000000e+00 0.000000e+00 0.000000e+00
 0.000000e+00 9.758487e-01 2.415133e-02 0.000000e+00 0.000000e+00 0.000000e+00 0.000000e+00 0.000000e+00
 0.000000e+00 0.000000e+00 9.180367e-01 8.196327e-02 0.000000e+00 0.000000e+00 0.000000e+00 0.000000e+00
 0.000000e+00 0.000000e+00 0.000000e+00 9.706616e-01 2.933845e-02 0.000000e+00 0.000000e+00 0.000000e+00
 0.000000e+00 0.000000e+00 0.000000e+00 0.000000e+00 9.796410e-01 2.035897e-02 0.000000e+00 0.000000e+00
 0.000000e+00 0.000000e+00 0.000000e+00 0.000000e+00 0.000000e+00 9.778316e-01 2.216833e-02 0.000000e+00
 0.000000e+00 0.000000e+00 0.000000e+00 0.000000e+00 0.000000e+00 0.000000e+00 9.735367e-01 2.646327e-02
 0.000000e+00 0.000000e+00 0.000000e+00 0.000000e+00 0.000000e+00 0.000000e+00 0.000000e+00 0.000000e+00
<ENDHMM>
~h "i"
<BEGINHMM>
<NUMSTATES> 8
<STATE> 2
<NUMMIXES> 2
<MIXTURE> 1 9.458115e-01
<MEAN> 3
 -1.525433e+00 -5.747007e+00 -7.493657e+00
<VARIANCE> 3
 5.247372e+00 1.834741e+01 1.215723e+01
<GCONST> 1.257877e+01
<MIXTURE> 2 5.418858e-02
<MEAN> 3
 -3.954983e+00 -4.898527e+01 -1.000000e+02
<VARIANCE> 3
 5.435330e-01 2.430097e+03 1.000000e-02
<GCONST> 8.094482e+00
<STATE> 3
<NUMMIXES> 2
<MIXTURE> 1 9.855894e-01
<MEAN> 3
 -7.484232e+00 -8.279389e+00 -3.283527e-03
<VARIANCE> 3
 1.088489e+01 7.150333e+00 1.000000e-02
<GCONST> 5.262996e+00
<MIXTURE> 2 1.440925e-02
<MEAN> 3
 -3.117751e+00 -4.943545e+01 -1.000000e+02
<VARIANCE> 3
 3.203681e-01 2.434395e+03 1.000000e-02
<GCONST> 7.567630e+00
<STATE> 4
<NUMMIXES> 2
<MIXTURE> 1 7.577626e-01
<MEAN> 3
 -5.290852e+00 -1.418423e-02 2.290601e+00
<VARIANCE> 3
 1.967030e+01 1.648135e-02 7.166928e+00
<GCONST> 6.356692e+00
<MIXTURE> 2 2.422383e-01
<MEAN> 3
 -3.449622e+00 -3.969680e+01 -1.000000e+02
<VARIANCE> 3
 7.773509e+00 2.381161e+03 1.000000e-02
<GCONST> 1.073453e+01
<STATE> 5
<NUMMIXES> 2
<MIXTURE> 1 9.863008e-01
<MEAN> 3
 -7.961784e+00 -1.303096e-03 7.157345e-04
<VARIANCE> 3
 8.317963e+00 1.000000e-02 1.000000e-02
<GCONST> -1.578292e+00
<MIXTURE> 2 1.369965e-02
<MEAN> 3
 -1.062556e+00 -4.987629e+01 -1.000000e+02
<VARIANCE> 3
 6.205703e-02 2.451267e+03 1.000000e-02
<GCONST> 5.933120e+00
<STATE> 6
<NUMMIXES> 2
<MIXTURE> 1 8.864046e-01
<MEAN> 3
 -4.513843e+00 1.565086e+00 1.472311e+00
<VARIANCE> 3
 1.783119e+01 4.068777e+00 6.670929e+00
<GCONST> 1.169568e+01
<MIXTURE> 2 1.135902e-01
<MEAN> 3
 -6.060316e-01 -3.289977e+01 -1.000000e+02
<VARIANCE> 3
 6.052417e-02 2.165760e+03 1.000000e-02
<GCONST> 5.784275e+00
<STATE> 7
<NUMMIXES> 2
<MIXTURE> 1 5.257732e-01
<MEAN> 3
 -1.629578e-03 1.067167e-03 1.133645e-02
<VARIANCE> 3
 1.000000e-02 1.000000e-02 1.606398e-02
<GCONST> -7.827885e+00
<MIXTURE> 2 4.741347e-01
<MEAN> 3
 -1.437760e-03 -1.548620e-01 -1.000000e+02
<VARIANCE> 3
 1.000000e-02 4.177594e+01 1.000000e-02
<GCONST> 3.561115e-02
<TRANSP> 8
 0.000000e+00 1.000000e+00 0.000000e+00 0.000000e+00 0.000000e+00 0.000000e+00 0.000000e+00 0.000000e+00
 0.000000e+00 8.814573e-01 1.185426e-01 0.000000e+00 0.000000e+00 0.000000e+00 0.000000e+00 0.000000e+00
 0.000000e+00 0.000000e+00 9.681886e-01 3.181139e-02 0.000000e+00 0.000000e+00 0.000000e+00 0.000000e+00
 0.000000e+00 0.000000e+00 0.000000e+00 8.638395e-01 1.361606e-01 0.000000e+00 0.000000e+00 0.000000e+00
 0.000000e+00 0.000000e+00 0.000000e+00 0.000000e+00 9.731274e-01 2.687268e-02 0.000000e+00 0.000000e+00
 0.000000e+00 0.000000e+00 0.000000e+00 0.000000e+00 0.000000e+00 8.761802e-01 1.238197e-01 0.000000e+00
 0.000000e+00 0.000000e+00 0.000000e+00 0.000000e+00 0.000000e+00 0.000000e+00 9.915169e-01 8.483098e-03
 0.000000e+00 0.000000e+00 0.000000e+00 0.000000e+00 0.000000e+00 0.000000e+00 0.000000e+00 0.000000e+00
<ENDHMM>
~h "m"
<BEGINHMM>
<NUMSTATES> 8
<STATE> 2
<NUMMIXES> 2
<MIXTURE> 1 1.795103e-01
<MEAN> 3
 3.695087e-04 6.265586e-03 3.200891e+00
<VARIANCE> 3
 1.000000e-02 1.000000e-02 8.230953e+00
<GCONST> -1.588807e+00
<MIXTURE> 2 8.204105e-01
<MEAN> 3
 5.246012e-04 -9.973432e+01 -1.000000e+02
<VARIANCE> 3
 1.000000e-02 2.666448e+01 1.000000e-02
<GCONST> -4.133768e-01
<STATE> 3
<NUMMIXES> 2
<MIXTURE> 1 9.829308e-01
<MEAN> 3
 2.761419e-03 2.512157e+00 2.080827e+00
<VARIANCE> 3
 1.000000e-02 4.012395e+00 9.464740e+00
<GCONST> 4.545423e+00
<MIXTURE> 2 1.706898e-02
<MEAN> 3
 2.480489e-01 -5.193588e+01 -1.000000e+02
<VARIANCE> 3
 1.000000e-02 2.525284e+03 1.000000e-02
<GCONST> 4.137400e+00
<STATE> 4
<NUMMIXES> 2
<MIXTURE> 1 9.519626e-01
<MEAN> 3
 2.041748e+00 2.010152e-01 -3.266559e+00
<VARIANCE> 3
 3.544941e+00 3.393900e-01 2.781378e+01
<GCONST> 9.024078e+00
<MIXTURE> 2 4.803658e-02
<MEAN> 3
 4.039353e-01 -4.834682e+01 -1.000000e+02
<VARIANCE> 3
 2.247416e-02 2.548422e+03 1.000000e-02
<GCONST> 4.956302e+00
<STATE> 5
<NUMMIXES> 2
<MIXTURE> 1 9.581001e-01
<MEAN> 3
 2.160947e+00 4.400115e+00 2.830150e+00
<VARIANCE> 3
 2.267735e+00 5.118845e+00 6.975688e+00
<GCONST> 9.907772e+00
<MIXTURE> 2 4.190531e-02
<MEAN> 3
 6.011587e-01 -4.755022e+01 -1.000000e+02
<VARIANCE> 3
 6.093406e-02 2.548468e+03 1.000000e-02
<GCONST> 5.953746e+00
<STATE> 6
<NUMMIXES> 2
<MIXTURE> 1 1.550919e-02
<MEAN> 3
 4.363939e+00 2.107639e+00 3.993795e-01
<VARIANCE> 3
 8.940333e+00 3.195830e+00 9.598261e-01
<GCONST> 8.825048e+00
<MIXTURE> 2 9.844877e-01
<MEAN> 3
 3.474802e+00 1.277700e+00 -1.000000e+02
<VARIANCE> 3
 7.574752e+00 5.905537e+01 1.000000e-02
<GCONST> 7.011758e+00
<STATE> 7
<NUMMIXES> 2
<MIXTURE> 1 2.600712e-01
<MEAN> 3
 5.688052e+00 5.337348e+00 5.474836e+00
<VARIANCE> 3
 3.289194e+00 4.073746e+00 7.634874e+00
<GCONST> 1.014156e+01
<MIXTURE> 2 7.399460e-01
<MEAN> 3
 4.267586e+00 -9.923720e+01 -1.000000e+02
<VARIANCE> 3
 9.152901e+00 7.535248e+01 1.000000e-02
<GCONST> 7.444709e+00
<TRANSP> 8
 0.000000e+00 1.000000e+00 0.000000e+00 0.000000e+00 0.000000e+00 0.000000e+00 0.000000e+00 0.000000e+00
 0.000000e+00 9.902610e-01 9.739042e-03 0.000000e+00 0.000000e+00 0.000000e+00 0.000000e+00 0.000000e+00
 0.000000e+00 0.000000e+00 9.639967e-01 3.600328e-02 0.000000e+00 0.000000e+00 0.000000e+00 0.000000e+00
 0.000000e+00 0.000000e+00 0.000000e+00 9.097077e-01 9.029234e-02 0.000000e+00 0.000000e+00 0.000000e+00
 0.000000e+00 0.000000e+00 0.000000e+00 0.000000e+00 9.228008e-01 7.719914e-02 0.000000e+00 0.000000e+00
 0.000000e+00 0.000000e+00 0.000000e+00 0.000000e+00 0.000000e+00 9.804482e-01 1.955173e-02 0.000000e+00
 0.000000e+00 0.000000e+00 0.000000e+00 0.000000e+00 0.000000e+00 0.000000e+00 9.710047e-01 2.899530e-02
 0.000000e+00 0.000000e+00 0.000000e+00 0.000000e+00 0.000000e+00 0.000000e+00 0.000000e+00 0.000000e+00
<ENDHMM>
~h "sil"
<BEGINHMM>
<NUMSTATES> 8
<STATE> 2
<NUMMIXES> 2
<MIXTURE> 1 8.157210e-01
<MEAN> 3
 9.876484e+00 3.498158e+00 1.386884e+00
<VARIANCE> 3
 6.831037e+00 5.114386e+00 3.341266e+00
<GCONST> 1.027352e+01
<MIXTURE> 2 1.842784e-01
<MEAN> 3
 6.001680e+00 -2.446526e+01 -2.463085e+01
<VARIANCE> 3
 5.157847e+00 1.833721e+03 1.803646e+03
<GCONST> 2.216582e+01
<STATE> 3
<NUMMIXES> 2
<MIXTURE> 1 3.645090e-02
<MEAN> 3
 5.078956e+00 -7.062924e+01 -7.078590e+01
<VARIANCE> 3
 8.626909e+00 2.147869e+03 2.129875e+03
<GCONST> 2.300457e+01
<MIXTURE> 2 9.635493e-01
<MEAN> 3
 9.251603e+00 -2.267253e-04 3.885187e-03
<VARIANCE> 3
 3.182121e+00 1.000000e-02 1.000000e-02
<GCONST> -2.539161e+00
<STATE> 4
<NUMMIXES> 2
<MIXTURE> 1 2.210742e-02
<MEAN> 3
 4.788725e+00 -8.411292e+01 -8.470724e+01
<VARIANCE> 3
 7.951932e+00 1.422047e+03 1.318219e+03
<GCONST> 2.203094e+01
<MIXTURE> 2 9.778920e-01
<MEAN> 3
 8.287531e+00 4.544990e-03 2.993064e+00
<VARIANCE> 3
 8.704377e+00 1.000000e-02 8.924325e+00
<GCONST> 5.261068e+00
<STATE> 5
<NUMMIXES> 2
<MIXTURE> 1 2.023292e-01
<MEAN> 3
 7.246895e+00 -2.937684e+01 -3.031747e+01
<VARIANCE> 3
 9.666451e+00 2.309022e+03 2.258202e+03
<GCONST> 2.324920e+01
<MIXTURE> 2 7.976704e-01
<MEAN> 3
 6.285693e+00 4.558115e-04 -9.085772e+00
<VARIANCE> 3
 5.694557e+00 1.000000e-02 2.683162e+00
<GCONST> 3.634968e+00
<STATE> 6
<NUMMIXES> 2
<MIXTURE> 1 6.069069e-01
<MEAN> 3
 7.659774e+00 -5.000465e+00 -4.296983e+00
<VARIANCE> 3
 8.656796e+00 9.186446e+02 9.294065e+02
<GCONST> 2.132942e+01
<MIXTURE> 2 3.930938e-01
<MEAN> 3
 6.777574e+00 9.806743e-01 3.053688e+00
<VARIANCE> 3
 1.084437e+01 2.688103e-01 2.678591e+00
<GCONST> 7.568819e+00
<STATE> 7
<NUMMIXES> 2
<MIXTURE> 1 9.682314e-01
<MEAN> 3
 7.843148e+00 4.693003e+00 3.749511e-03
<VARIANCE> 3
 1.112879e+01 8.647460e+00 1.000000e-02
<GCONST> 5.475262e+00
<MIXTURE> 2 3.176881e-02
<MEAN> 3
 4.953141e+00 -6.835472e+01 -6.807201e+01
<VARIANCE> 3
 7.684093e+00 2.229217e+03 2.271104e+03
<GCONST> 2.299021e+01
<TRANSP> 8
 0.000000e+00 1.000000e+00 0.000000e+00 0.000000e+00 0.000000e+00 0.000000e+00 0.000000e+00 0.000000e+00
 0.000000e+00 9.114318e-01 8.856811e-02 0.000000e+00 0.000000e+00 0.000000e+00 0.000000e+00 0.000000e+00
 0.000000e+00 0.000000e+00 9.479941e-01 5.200591e-02 0.000000e+00 0.000000e+00 0.000000e+00 0.000000e+00
 0.000000e+00 0.000000e+00 0.000000e+00 9.624450e-01 3.755498e-02 0.000000e+00 0.000000e+00 0.000000e+00
 0.000000e+00 0.000000e+00 0.000000e+00 0.000000e+00 8.721858e-01 1.278143e-01 0.000000e+00 0.000000e+00
 0.000000e+00 0.000000e+00 0.000000e+00 0.000000e+00 0.000000e+00 8.892040e-01 1.107961e-01 0.000000e+00
 0.000000e+00 0.000000e+00 0.000000e+00 0.000000e+00 0.000000e+00 0.000000e+00 9.561591e-01 4.384093e-02
 0.000000e+00 0.000000e+00 0.000000e+00 0.000000e+00 0.000000e+00 0.000000e+00 0.000000e+00 0.000000e+00
<ENDHMM>
