~o
<STREAMINFO> 1 3
<VECSIZE> 3<NULLD><USER><DIAGC>
~h "e"
<BEGINHMM>
<NUMSTATES> 8
<STATE> 2
<NUMMIXES> 2
<MIXTURE> 1 5.000000e-01
<MEAN> 3
 -3.792006e+00 -2.565525e+01 -4.666147e+01
<VARIANCE> 3
 1.825012e+01 1.553888e+03 2.263981e+03
<GCONST> 2.349120e+01
<MIXTURE> 2 5.000000e-01
<MEAN> 3
 -3.792006e+00 -2.565525e+01 -4.666147e+01
<VARIANCE> 3
 1.825012e+01 1.553888e+03 2.263981e+03
<GCONST> 2.349120e+01
<STATE> 3
<NUMMIXES> 2
<MIXTURE> 1 5.000000e-01
<MEAN> 3
 -3.792006e+00 -2.565525e+01 -4.666147e+01
<VARIANCE> 3
 1.825012e+01 1.553888e+03 2.263981e+03
<GCONST> 2.349120e+01
<MIXTURE> 2 5.000000e-01
<MEAN> 3
 -3.792006e+00 -2.565525e+01 -4.666147e+01
<VARIANCE> 3
 1.825012e+01 1.553888e+03 2.263981e+03
<GCONST> 2.349120e+01
<STATE> 4
<NUMMIXES> 2
<MIXTURE> 1 5.000000e-01
<MEAN> 3
 -3.792006e+00 -2.565525e+01 -4.666147e+01
<VARIANCE> 3
 1.825012e+01 1.553888e+03 2.263981e+03
<GCONST> 2.349120e+01
<MIXTURE> 2 5.000000e-01
<MEAN> 3
 -3.792006e+00 -2.565525e+01 -4.666147e+01
<VARIANCE> 3
 1.825012e+01 1.553888e+03 2.263981e+03
<GCONST> 2.349120e+01
<STATE> 5
<NUMMIXES> 2
<MIXTURE> 1 5.000000e-01
<MEAN> 3
 -3.792006e+00 -2.565525e+01 -4.666147e+01
<VARIANCE> 3
 1.825012e+01 1.553888e+03 2.263981e+03
<GCONST> 2.349120e+01
<MIXTURE> 2 5.000000e-01
<MEAN> 3
 -3.792006e+00 -2.565525e+01 -4.666147e+01
<VARIANCE> 3
 1.825012e+01 1.553888e+03 2.263981e+03
<GCONST> 2.349120e+01
<STATE> 6
<NUMMIXES> 2
<MIXTURE> 1 5.000000e-01
<MEAN> 3
 -3.792006e+00 -2.565525e+01 -4.666147e+01
<VARIANCE> 3
 1.825012e+01 1.553888e+03 2.263981e+03
<GCONST> 2.349120e+01
<MIXTURE> 2 5.000000e-01
<MEAN> 3
 -3.792006e+00 -2.565525e+01 -4.666147e+01
<VARIANCE> 3
 1.825012e+01 1.553888e+03 2.263981e+03
<GCONST> 2.349120e+01
<STATE> 7
<NUMMIXES> 2
<MIXTURE> 1 5.000000e-01
<MEAN> 3
 -3.792006e+00 -2.565525e+01 -4.666147e+01
<VARIANCE> 3
 1.825012e+01 1.553888e+03 2.263981e+03
<GCONST> 2.349120e+01
<MIXTURE> 2 5.000000e-01
<MEAN> 3
 -3.792006e+00 -2.565525e+01 -4.666147e+01
<VARIANCE> 3
 1.825012e+01 1.553888e+03 2.263981e+03
<GCONST> 2.349120e+01
<TRANSP> 8
 0.000000e+00 1.000000e+00 0.000000e+00 0.000000e+00 0.000000e+00 0.000000e+00 0.000000e+00 0.000000e+00
 0.000000e+00 5.000000e-01 5.000000e-01 0.000000e+00 0.000000e+00 0.000000e+00 0.000000e+00 0.000000e+00
 0.000000e+00 0.000000e+00 5.000000e-01 5.000000e-01 0.000000e+00 0.000000e+00 0.000000e+00 0.000000e+00
 0.000000e+00 0.000000e+00 0.000000e+00 5.000000e-01 5.000000e-01 0.000000e+00 0.000000e+00 0.000000e+00
 0.000000e+00 0.000000e+00 0.000000e+00 0.000000e+00 5.000000e-01 5.000000e-01 0.000000e+00 0.000000e+00
 0.000000e+00 0.000000e+00 0.000000e+00 0.000000e+00 0.000000e+00 5.000000e-01 5.000000e-01 0.000000e+00
 0.000000e+00 0.000000e+00 0.000000e+00 0.000000e+00 0.000000e+00 0.000000e+00 5.000000e-01 5.000000e-01
 0.000000e+00 0.000000e+00 0.000000e+00 0.000000e+00 0.000000e+00 0.000000e+00 0.000000e+00 0.000000e+00
<ENDHMM>
