~o
<STREAMINFO> 1 3
<VECSIZE> 3<NULLD><USER><DIAGC>
~h "e"
<BEGINHMM>
<NUMSTATES> 8
<STATE> 2
<NUMMIXES> 2
<MIXTURE> 1 5.000000e-01
<MEAN> 3
 -2.884459e+00 -2.458914e+01 -4.589607e+01
<VARIANCE> 3
 1.589261e+01 1.597900e+03 2.304733e+03
<GCONST> 2.339865e+01
<MIXTURE> 2 5.000000e-01
<MEAN> 3
 -2.884459e+00 -2.458914e+01 -4.589607e+01
<VARIANCE> 3
 1.589261e+01 1.597900e+03 2.304733e+03
<GCONST> 2.339865e+01
<STATE> 3
<NUMMIXES> 2
<MIXTURE> 1 5.000000e-01
<MEAN> 3
 -2.884459e+00 -2.458914e+01 -4.589607e+01
<VARIANCE> 3
 1.589261e+01 1.597900e+03 2.304733e+03
<GCONST> 2.339865e+01
<MIXTURE> 2 5.000000e-01
<MEAN> 3
 -2.884459e+00 -2.458914e+01 -4.589607e+01
<VARIANCE> 3
 1.589261e+01 1.597900e+03 2.304733e+03
<GCONST> 2.339865e+01
<STATE> 4
<NUMMIXES> 2
<MIXTURE> 1 5.000000e-01
<MEAN> 3
 -2.884459e+00 -2.458914e+01 -4.589607e+01
<VARIANCE> 3
 1.589261e+01 1.597900e+03 2.304733e+03
<GCONST> 2.339865e+01
<MIXTURE> 2 5.000000e-01
<MEAN> 3
 -2.884459e+00 -2.458914e+01 -4.589607e+01
<VARIANCE> 3
 1.589261e+01 1.597900e+03 2.304733e+03
<GCONST> 2.339865e+01
<STATE> 5
<NUMMIXES> 2
<MIXTURE> 1 5.000000e-01
<MEAN> 3
 -2.884459e+00 -2.458914e+01 -4.589607e+01
<VARIANCE> 3
 1.589261e+01 1.597900e+03 2.304733e+03
<GCONST> 2.339865e+01
<MIXTURE> 2 5.000000e-01
<MEAN> 3
 -2.884459e+00 -2.458914e+01 -4.589607e+01
<VARIANCE> 3
 1.589261e+01 1.597900e+03 2.304733e+03
<GCONST> 2.339865e+01
<STATE> 6
<NUMMIXES> 2
<MIXTURE> 1 5.000000e-01
<MEAN> 3
 -2.884459e+00 -2.458914e+01 -4.589607e+01
<VARIANCE> 3
 1.589261e+01 1.597900e+03 2.304733e+03
<GCONST> 2.339865e+01
<MIXTURE> 2 5.000000e-01
<MEAN> 3
 -2.884459e+00 -2.458914e+01 -4.589607e+01
<VARIANCE> 3
 1.589261e+01 1.597900e+03 2.304733e+03
<GCONST> 2.339865e+01
<STATE> 7
<NUMMIXES> 2
<MIXTURE> 1 5.000000e-01
<MEAN> 3
 -2.884459e+00 -2.458914e+01 -4.589607e+01
<VARIANCE> 3
 1.589261e+01 1.597900e+03 2.304733e+03
<GCONST> 2.339865e+01
<MIXTURE> 2 5.000000e-01
<MEAN> 3
 -2.884459e+00 -2.458914e+01 -4.589607e+01
<VARIANCE> 3
 1.589261e+01 1.597900e+03 2.304733e+03
<GCONST> 2.339865e+01
<TRANSP> 8
 0.000000e+00 1.000000e+00 0.000000e+00 0.000000e+00 0.000000e+00 0.000000e+00 0.000000e+00 0.000000e+00
 0.000000e+00 5.000000e-01 5.000000e-01 0.000000e+00 0.000000e+00 0.000000e+00 0.000000e+00 0.000000e+00
 0.000000e+00 0.000000e+00 5.000000e-01 5.000000e-01 0.000000e+00 0.000000e+00 0.000000e+00 0.000000e+00
 0.000000e+00 0.000000e+00 0.000000e+00 5.000000e-01 5.000000e-01 0.000000e+00 0.000000e+00 0.000000e+00
 0.000000e+00 0.000000e+00 0.000000e+00 0.000000e+00 5.000000e-01 5.000000e-01 0.000000e+00 0.000000e+00
 0.000000e+00 0.000000e+00 0.000000e+00 0.000000e+00 0.000000e+00 5.000000e-01 5.000000e-01 0.000000e+00
 0.000000e+00 0.000000e+00 0.000000e+00 0.000000e+00 0.000000e+00 0.000000e+00 5.000000e-01 5.000000e-01
 0.000000e+00 0.000000e+00 0.000000e+00 0.000000e+00 0.000000e+00 0.000000e+00 0.000000e+00 0.000000e+00
<ENDHMM>
