~o
<STREAMINFO> 1 3
<VECSIZE> 3<NULLD><USER><DIAGC>
~h "m"
<BEGINHMM>
<NUMSTATES> 8
<STATE> 2
<NUMMIXES> 2
<MIXTURE> 1 5.000000e-01
<MEAN> 3
 1.440378e+00 -2.259007e+01 -4.463155e+01
<VARIANCE> 3
 6.375685e+00 2.770329e+03 4.241047e+03
<GCONST> 2.364541e+01
<MIXTURE> 2 5.000000e-01
<MEAN> 3
 1.440378e+00 -2.259007e+01 -4.463155e+01
<VARIANCE> 3
 6.375685e+00 2.770329e+03 4.241047e+03
<GCONST> 2.364541e+01
<STATE> 3
<NUMMIXES> 2
<MIXTURE> 1 5.000000e-01
<MEAN> 3
 1.440378e+00 -2.259007e+01 -4.463155e+01
<VARIANCE> 3
 6.375685e+00 2.770329e+03 4.241047e+03
<GCONST> 2.364541e+01
<MIXTURE> 2 5.000000e-01
<MEAN> 3
 1.440378e+00 -2.259007e+01 -4.463155e+01
<VARIANCE> 3
 6.375685e+00 2.770329e+03 4.241047e+03
<GCONST> 2.364541e+01
<STATE> 4
<NUMMIXES> 2
<MIXTURE> 1 5.000000e-01
<MEAN> 3
 1.440378e+00 -2.259007e+01 -4.463155e+01
<VARIANCE> 3
 6.375685e+00 2.770329e+03 4.241047e+03
<GCONST> 2.364541e+01
<MIXTURE> 2 5.000000e-01
<MEAN> 3
 1.440378e+00 -2.259007e+01 -4.463155e+01
<VARIANCE> 3
 6.375685e+00 2.770329e+03 4.241047e+03
<GCONST> 2.364541e+01
<STATE> 5
<NUMMIXES> 2
<MIXTURE> 1 5.000000e-01
<MEAN> 3
 1.440378e+00 -2.259007e+01 -4.463155e+01
<VARIANCE> 3
 6.375685e+00 2.770329e+03 4.241047e+03
<GCONST> 2.364541e+01
<MIXTURE> 2 5.000000e-01
<MEAN> 3
 1.440378e+00 -2.259007e+01 -4.463155e+01
<VARIANCE> 3
 6.375685e+00 2.770329e+03 4.241047e+03
<GCONST> 2.364541e+01
<STATE> 6
<NUMMIXES> 2
<MIXTURE> 1 5.000000e-01
<MEAN> 3
 1.440378e+00 -2.259007e+01 -4.463155e+01
<VARIANCE> 3
 6.375685e+00 2.770329e+03 4.241047e+03
<GCONST> 2.364541e+01
<MIXTURE> 2 5.000000e-01
<MEAN> 3
 1.440378e+00 -2.259007e+01 -4.463155e+01
<VARIANCE> 3
 6.375685e+00 2.770329e+03 4.241047e+03
<GCONST> 2.364541e+01
<STATE> 7
<NUMMIXES> 2
<MIXTURE> 1 5.000000e-01
<MEAN> 3
 1.440378e+00 -2.259007e+01 -4.463155e+01
<VARIANCE> 3
 6.375685e+00 2.770329e+03 4.241047e+03
<GCONST> 2.364541e+01
<MIXTURE> 2 5.000000e-01
<MEAN> 3
 1.440378e+00 -2.259007e+01 -4.463155e+01
<VARIANCE> 3
 6.375685e+00 2.770329e+03 4.241047e+03
<GCONST> 2.364541e+01
<TRANSP> 8
 0.000000e+00 1.000000e+00 0.000000e+00 0.000000e+00 0.000000e+00 0.000000e+00 0.000000e+00 0.000000e+00
 0.000000e+00 5.000000e-01 5.000000e-01 0.000000e+00 0.000000e+00 0.000000e+00 0.000000e+00 0.000000e+00
 0.000000e+00 0.000000e+00 5.000000e-01 5.000000e-01 0.000000e+00 0.000000e+00 0.000000e+00 0.000000e+00
 0.000000e+00 0.000000e+00 0.000000e+00 5.000000e-01 5.000000e-01 0.000000e+00 0.000000e+00 0.000000e+00
 0.000000e+00 0.000000e+00 0.000000e+00 0.000000e+00 5.000000e-01 5.000000e-01 0.000000e+00 0.000000e+00
 0.000000e+00 0.000000e+00 0.000000e+00 0.000000e+00 0.000000e+00 5.000000e-01 5.000000e-01 0.000000e+00
 0.000000e+00 0.000000e+00 0.000000e+00 0.000000e+00 0.000000e+00 0.000000e+00 5.000000e-01 5.000000e-01
 0.000000e+00 0.000000e+00 0.000000e+00 0.000000e+00 0.000000e+00 0.000000e+00 0.000000e+00 0.000000e+00
<ENDHMM>
