~o
<STREAMINFO> 1 3
<VECSIZE> 3<NULLD><USER><DIAGC>
~h "sil"
<BEGINHMM>
<NUMSTATES> 8
<STATE> 2
<NUMMIXES> 2
<MIXTURE> 1 5.000000e-01
<MEAN> 3
 8.039570e+00 1.365534e+00 1.251558e+00
<VARIANCE> 3
 9.308958e+00 8.689391e+00 1.217090e+01
<GCONST> 1.240576e+01
<MIXTURE> 2 5.000000e-01
<MEAN> 3
 8.039570e+00 1.365534e+00 1.251558e+00
<VARIANCE> 3
 9.308958e+00 8.689391e+00 1.217090e+01
<GCONST> 1.240576e+01
<STATE> 3
<NUMMIXES> 2
<MIXTURE> 1 5.000000e-01
<MEAN> 3
 8.039570e+00 1.365534e+00 1.251558e+00
<VARIANCE> 3
 9.308958e+00 8.689391e+00 1.217090e+01
<GCONST> 1.240576e+01
<MIXTURE> 2 5.000000e-01
<MEAN> 3
 8.039570e+00 1.365534e+00 1.251558e+00
<VARIANCE> 3
 9.308958e+00 8.689391e+00 1.217090e+01
<GCONST> 1.240576e+01
<STATE> 4
<NUMMIXES> 2
<MIXTURE> 1 5.000000e-01
<MEAN> 3
 8.039570e+00 1.365534e+00 1.251558e+00
<VARIANCE> 3
 9.308958e+00 8.689391e+00 1.217090e+01
<GCONST> 1.240576e+01
<MIXTURE> 2 5.000000e-01
<MEAN> 3
 8.039570e+00 1.365534e+00 1.251558e+00
<VARIANCE> 3
 9.308958e+00 8.689391e+00 1.217090e+01
<GCONST> 1.240576e+01
<STATE> 5
<NUMMIXES> 2
<MIXTURE> 1 5.000000e-01
<MEAN> 3
 8.039570e+00 1.365534e+00 1.251558e+00
<VARIANCE> 3
 9.308958e+00 8.689391e+00 1.217090e+01
<GCONST> 1.240576e+01
<MIXTURE> 2 5.000000e-01
<MEAN> 3
 8.039570e+00 1.365534e+00 1.251558e+00
<VARIANCE> 3
 9.308958e+00 8.689391e+00 1.217090e+01
<GCONST> 1.240576e+01
<STATE> 6
<NUMMIXES> 2
<MIXTURE> 1 5.000000e-01
<MEAN> 3
 8.039570e+00 1.365534e+00 1.251558e+00
<VARIANCE> 3
 9.308958e+00 8.689391e+00 1.217090e+01
<GCONST> 1.240576e+01
<MIXTURE> 2 5.000000e-01
<MEAN> 3
 8.039570e+00 1.365534e+00 1.251558e+00
<VARIANCE> 3
 9.308958e+00 8.689391e+00 1.217090e+01
<GCONST> 1.240576e+01
<STATE> 7
<NUMMIXES> 2
<MIXTURE> 1 5.000000e-01
<MEAN> 3
 8.039570e+00 1.365534e+00 1.251558e+00
<VARIANCE> 3
 9.308958e+00 8.689391e+00 1.217090e+01
<GCONST> 1.240576e+01
<MIXTURE> 2 5.000000e-01
<MEAN> 3
 8.039570e+00 1.365534e+00 1.251558e+00
<VARIANCE> 3
 9.308958e+00 8.689391e+00 1.217090e+01
<GCONST> 1.240576e+01
<TRANSP> 8
 0.000000e+00 1.000000e+00 0.000000e+00 0.000000e+00 0.000000e+00 0.000000e+00 0.000000e+00 0.000000e+00
 0.000000e+00 5.000000e-01 5.000000e-01 0.000000e+00 0.000000e+00 0.000000e+00 0.000000e+00 0.000000e+00
 0.000000e+00 0.000000e+00 5.000000e-01 5.000000e-01 0.000000e+00 0.000000e+00 0.000000e+00 0.000000e+00
 0.000000e+00 0.000000e+00 0.000000e+00 5.000000e-01 5.000000e-01 0.000000e+00 0.000000e+00 0.000000e+00
 0.000000e+00 0.000000e+00 0.000000e+00 0.000000e+00 5.000000e-01 5.000000e-01 0.000000e+00 0.000000e+00
 0.000000e+00 0.000000e+00 0.000000e+00 0.000000e+00 0.000000e+00 5.000000e-01 5.000000e-01 0.000000e+00
 0.000000e+00 0.000000e+00 0.000000e+00 0.000000e+00 0.000000e+00 0.000000e+00 5.000000e-01 5.000000e-01
 0.000000e+00 0.000000e+00 0.000000e+00 0.000000e+00 0.000000e+00 0.000000e+00 0.000000e+00 0.000000e+00
<ENDHMM>
