~o
<STREAMINFO> 1 3
<VECSIZE> 3<NULLD><USER><DIAGC>
~h "sil"
<BEGINHMM>
<NUMSTATES> 8
<STATE> 2
<NUMMIXES> 2
<MIXTURE> 1 5.000000e-01
<MEAN> 3
 7.810620e+00 2.093318e+00 1.442796e+00
<VARIANCE> 3
 9.461762e+00 8.851099e+00 1.199263e+01
<GCONST> 1.242572e+01
<MIXTURE> 2 5.000000e-01
<MEAN> 3
 7.810620e+00 2.093318e+00 1.442796e+00
<VARIANCE> 3
 9.461762e+00 8.851099e+00 1.199263e+01
<GCONST> 1.242572e+01
<STATE> 3
<NUMMIXES> 2
<MIXTURE> 1 5.000000e-01
<MEAN> 3
 7.810620e+00 2.093318e+00 1.442796e+00
<VARIANCE> 3
 9.461762e+00 8.851099e+00 1.199263e+01
<GCONST> 1.242572e+01
<MIXTURE> 2 5.000000e-01
<MEAN> 3
 7.810620e+00 2.093318e+00 1.442796e+00
<VARIANCE> 3
 9.461762e+00 8.851099e+00 1.199263e+01
<GCONST> 1.242572e+01
<STATE> 4
<NUMMIXES> 2
<MIXTURE> 1 5.000000e-01
<MEAN> 3
 7.810620e+00 2.093318e+00 1.442796e+00
<VARIANCE> 3
 9.461762e+00 8.851099e+00 1.199263e+01
<GCONST> 1.242572e+01
<MIXTURE> 2 5.000000e-01
<MEAN> 3
 7.810620e+00 2.093318e+00 1.442796e+00
<VARIANCE> 3
 9.461762e+00 8.851099e+00 1.199263e+01
<GCONST> 1.242572e+01
<STATE> 5
<NUMMIXES> 2
<MIXTURE> 1 5.000000e-01
<MEAN> 3
 7.810620e+00 2.093318e+00 1.442796e+00
<VARIANCE> 3
 9.461762e+00 8.851099e+00 1.199263e+01
<GCONST> 1.242572e+01
<MIXTURE> 2 5.000000e-01
<MEAN> 3
 7.810620e+00 2.093318e+00 1.442796e+00
<VARIANCE> 3
 9.461762e+00 8.851099e+00 1.199263e+01
<GCONST> 1.242572e+01
<STATE> 6
<NUMMIXES> 2
<MIXTURE> 1 5.000000e-01
<MEAN> 3
 7.810620e+00 2.093318e+00 1.442796e+00
<VARIANCE> 3
 9.461762e+00 8.851099e+00 1.199263e+01
<GCONST> 1.242572e+01
<MIXTURE> 2 5.000000e-01
<MEAN> 3
 7.810620e+00 2.093318e+00 1.442796e+00
<VARIANCE> 3
 9.461762e+00 8.851099e+00 1.199263e+01
<GCONST> 1.242572e+01
<STATE> 7
<NUMMIXES> 2
<MIXTURE> 1 5.000000e-01
<MEAN> 3
 7.810620e+00 2.093318e+00 1.442796e+00
<VARIANCE> 3
 9.461762e+00 8.851099e+00 1.199263e+01
<GCONST> 1.242572e+01
<MIXTURE> 2 5.000000e-01
<MEAN> 3
 7.810620e+00 2.093318e+00 1.442796e+00
<VARIANCE> 3
 9.461762e+00 8.851099e+00 1.199263e+01
<GCONST> 1.242572e+01
<TRANSP> 8
 0.000000e+00 1.000000e+00 0.000000e+00 0.000000e+00 0.000000e+00 0.000000e+00 0.000000e+00 0.000000e+00
 0.000000e+00 5.000000e-01 5.000000e-01 0.000000e+00 0.000000e+00 0.000000e+00 0.000000e+00 0.000000e+00
 0.000000e+00 0.000000e+00 5.000000e-01 5.000000e-01 0.000000e+00 0.000000e+00 0.000000e+00 0.000000e+00
 0.000000e+00 0.000000e+00 0.000000e+00 5.000000e-01 5.000000e-01 0.000000e+00 0.000000e+00 0.000000e+00
 0.000000e+00 0.000000e+00 0.000000e+00 0.000000e+00 5.000000e-01 5.000000e-01 0.000000e+00 0.000000e+00
 0.000000e+00 0.000000e+00 0.000000e+00 0.000000e+00 0.000000e+00 5.000000e-01 5.000000e-01 0.000000e+00
 0.000000e+00 0.000000e+00 0.000000e+00 0.000000e+00 0.000000e+00 0.000000e+00 5.000000e-01 5.000000e-01
 0.000000e+00 0.000000e+00 0.000000e+00 0.000000e+00 0.000000e+00 0.000000e+00 0.000000e+00 0.000000e+00
<ENDHMM>
