~o
<STREAMINFO> 1 3
<VECSIZE> 3<NULLD><USER><DIAGC>
~h "a"
<BEGINHMM>
<NUMSTATES> 8
<STATE> 2
<NUMMIXES> 2
<MIXTURE> 1 8.713788e-01
<MEAN> 3
 3.339406e+00 2.966424e+00 3.438189e+00
<VARIANCE> 3
 1.367654e+01 8.692999e+00 6.874718e+00
<GCONST> 1.221968e+01
<MIXTURE> 2 1.286222e-01
<MEAN> 3
 5.611362e+00 -2.095320e+01 -1.000000e+02
<VARIANCE> 3
 1.427482e+01 1.556753e+03 1.000000e-02
<GCONST> 1.091732e+01
<STATE> 3
<NUMMIXES> 2
<MIXTURE> 1 9.786801e-01
<MEAN> 3
 2.789216e+00 4.453162e+00 1.929168e-03
<VARIANCE> 3
 7.091623e+00 8.569399e+00 1.000000e-02
<GCONST> 5.015573e+00
<MIXTURE> 2 2.132227e-02
<MEAN> 3
 1.219709e+00 -5.503024e+01 -1.000000e+02
<VARIANCE> 3
 3.052728e-01 2.455869e+03 1.000000e-02
<GCONST> 7.528148e+00
<STATE> 4
<NUMMIXES> 2
<MIXTURE> 1 9.901097e-01
<MEAN> 3
 4.343931e+00 2.530942e-03 1.195679e-04
<VARIANCE> 3
 8.945472e+00 1.000000e-02 1.000000e-02
<GCONST> -1.505562e+00
<MIXTURE> 2 9.890946e-03
<MEAN> 3
 8.066642e-01 -4.958851e+01 -1.000000e+02
<VARIANCE> 3
 1.210019e-01 2.478198e+03 1.000000e-02
<GCONST> 6.611799e+00
<STATE> 5
<NUMMIXES> 2
<MIXTURE> 1 9.155354e-01
<MEAN> 3
 1.863899e+00 -2.903565e+00 -4.814663e-01
<VARIANCE> 3
 6.468149e+00 3.443888e+01 4.823675e+00
<GCONST> 1.249324e+01
<MIXTURE> 2 8.446419e-02
<MEAN> 3
 4.937220e-01 -4.375532e+01 -1.000000e+02
<VARIANCE> 3
 5.975743e-02 2.428822e+03 1.000000e-02
<GCONST> 5.886161e+00
<STATE> 6
<NUMMIXES> 2
<MIXTURE> 1 3.530797e-01
<MEAN> 3
 1.406617e-03 -1.463303e-03 -3.775619e-02
<VARIANCE> 3
 1.000000e-02 1.000000e-02 4.728993e-02
<GCONST> -6.748167e+00
<MIXTURE> 2 6.469144e-01
<MEAN> 3
 7.472867e-04 -5.326847e+01 -1.000000e+02
<VARIANCE> 3
 1.000000e-02 2.407353e+03 1.000000e-02
<GCONST> 4.089574e+00
<STATE> 7
<NUMMIXES> 2
<MIXTURE> 1 7.302516e-01
<MEAN> 3
 8.092312e-03 -1.034536e+00 -1.943915e+00
<VARIANCE> 3
 1.000000e-02 9.956666e-01 7.203459e+00
<GCONST> 2.878680e+00
<MIXTURE> 2 2.697478e-01
<MEAN> 3
 -2.910873e-01 -3.768825e+01 -1.000000e+02
<VARIANCE> 3
 1.778863e-01 2.167762e+03 1.000000e-02
<GCONST> 6.863301e+00
<TRANSP> 8
 0.000000e+00 1.000000e+00 0.000000e+00 0.000000e+00 0.000000e+00 0.000000e+00 0.000000e+00 0.000000e+00
 0.000000e+00 8.735604e-01 1.264396e-01 0.000000e+00 0.000000e+00 0.000000e+00 0.000000e+00 0.000000e+00
 0.000000e+00 0.000000e+00 9.533550e-01 4.664511e-02 0.000000e+00 0.000000e+00 0.000000e+00 0.000000e+00
 0.000000e+00 0.000000e+00 0.000000e+00 9.761354e-01 2.386467e-02 0.000000e+00 0.000000e+00 0.000000e+00
 0.000000e+00 0.000000e+00 0.000000e+00 0.000000e+00 8.929313e-01 1.070687e-01 0.000000e+00 0.000000e+00
 0.000000e+00 0.000000e+00 0.000000e+00 0.000000e+00 0.000000e+00 9.939173e-01 6.082746e-03 0.000000e+00
 0.000000e+00 0.000000e+00 0.000000e+00 0.000000e+00 0.000000e+00 0.000000e+00 5.579057e-01 4.420944e-01
 0.000000e+00 0.000000e+00 0.000000e+00 0.000000e+00 0.000000e+00 0.000000e+00 0.000000e+00 0.000000e+00
<ENDHMM>
~h "e"
<BEGINHMM>
<NUMSTATES> 8
<STATE> 2
<NUMMIXES> 2
<MIXTURE> 1 8.539647e-01
<MEAN> 3
 -6.367087e-04 -1.893310e-01 -5.866902e+00
<VARIANCE> 3
 1.000000e-02 1.720701e-01 1.718815e+01
<GCONST> 1.992828e+00
<MIXTURE> 2 1.460125e-01
<MEAN> 3
 -1.187859e-02 -9.279325e+00 -1.000000e+02
<VARIANCE> 3
 1.000000e-02 6.411235e+02 1.000000e-02
<GCONST> 2.766513e+00
<STATE> 3
<NUMMIXES> 2
<MIXTURE> 1 1.158796e-01
<MEAN> 3
 -1.095717e+00 -2.443371e+00 -7.826111e+00
<VARIANCE> 3
 2.350569e+00 6.261257e+00 1.145480e+01
<GCONST> 1.064108e+01
<MIXTURE> 2 8.841196e-01
<MEAN> 3
 -9.839193e-01 -5.642290e+01 -1.000000e+02
<VARIANCE> 3
 2.837890e-01 2.327749e+03 1.000000e-02
<GCONST> 7.401594e+00
<STATE> 4
<NUMMIXES> 2
<MIXTURE> 1 9.857489e-01
<MEAN> 3
 -6.867108e-03 -7.485945e+00 -5.649700e+00
<VARIANCE> 3
 1.000000e-02 7.852717e+00 1.853671e+01
<GCONST> 5.889074e+00
<MIXTURE> 2 1.425165e-02
<MEAN> 3
 -2.140417e+00 -5.220148e+01 -1.000000e+02
<VARIANCE> 3
 7.815082e-02 2.244826e+03 1.000000e-02
<GCONST> 6.075730e+00
<STATE> 5
<NUMMIXES> 2
<MIXTURE> 1 1.059672e-01
<MEAN> 3
 -1.908073e+00 -1.607309e+00 -9.313126e-01
<VARIANCE> 3
 1.520203e+00 6.013979e+00 7.265639e+00
<GCONST> 9.709718e+00
<MIXTURE> 2 8.940511e-01
<MEAN> 3
 -8.301810e+00 -4.857754e+00 -1.000000e+02
<VARIANCE> 3
 5.718506e+00 6.449767e+01 1.000000e-02
<GCONST> 6.818798e+00
<STATE> 6
<NUMMIXES> 2
<MIXTURE> 1 1.507035e-01
<MEAN> 3
 -1.871006e+00 -8.395207e+00 -7.206836e+00
<VARIANCE> 3
 1.219758e+00 4.976314e+00 1.323918e+01
<GCONST> 9.900153e+00
<MIXTURE> 2 8.493022e-01
<MEAN> 3
 -8.163662e+00 -9.943235e+01 -1.000000e+02
<VARIANCE> 3
 4.659393e+00 5.561209e+01 1.000000e-02
<GCONST> 6.465747e+00
<STATE> 7
<NUMMIXES> 2
<MIXTURE> 1 9.880306e-01
<MEAN> 3
 -8.837966e+00 -7.901467e+00 -7.488677e+00
<VARIANCE> 3
 4.631563e+00 9.560040e+00 1.088650e+01
<GCONST> 1.169164e+01
<MIXTURE> 2 1.196941e-02
<MEAN> 3
 -5.942531e+00 -4.954229e+01 -1.000000e+02
<VARIANCE> 3
 1.986345e+00 2.427296e+03 1.000000e-02
<GCONST> 9.389291e+00
<TRANSP> 8
 0.000000e+00 1.000000e+00 0.000000e+00 0.000000e+00 0.000000e+00 0.000000e+00 0.000000e+00 0.000000e+00
 0.000000e+00 9.783063e-01 2.169370e-02 0.000000e+00 0.000000e+00 0.000000e+00 0.000000e+00 0.000000e+00
 0.000000e+00 0.000000e+00 9.172916e-01 8.270841e-02 0.000000e+00 0.000000e+00 0.000000e+00 0.000000e+00
 0.000000e+00 0.000000e+00 0.000000e+00 9.704640e-01 2.953597e-02 0.000000e+00 0.000000e+00 0.000000e+00
 0.000000e+00 0.000000e+00 0.000000e+00 0.000000e+00 9.795862e-01 2.041381e-02 0.000000e+00 0.000000e+00
 0.000000e+00 0.000000e+00 0.000000e+00 0.000000e+00 0.000000e+00 9.785193e-01 2.148072e-02 0.000000e+00
 0.000000e+00 0.000000e+00 0.000000e+00 0.000000e+00 0.000000e+00 0.000000e+00 9.731852e-01 2.681474e-02
 0.000000e+00 0.000000e+00 0.000000e+00 0.000000e+00 0.000000e+00 0.000000e+00 0.000000e+00 0.000000e+00
<ENDHMM>
~h "i"
<BEGINHMM>
<NUMSTATES> 8
<STATE> 2
<NUMMIXES> 2
<MIXTURE> 1 9.109821e-01
<MEAN> 3
 -2.228137e+00 -5.842871e+00 -7.941644e+00
<VARIANCE> 3
 9.934311e+00 1.966461e+01 1.089180e+01
<GCONST> 1.317646e+01
<MIXTURE> 2 8.902267e-02
<MEAN> 3
 -6.383113e+00 -3.152205e+01 -1.000000e+02
<VARIANCE> 3
 4.074200e+00 2.199724e+03 1.000000e-02
<GCONST> 1.000922e+01
<STATE> 3
<NUMMIXES> 2
<MIXTURE> 1 9.850736e-01
<MEAN> 3
 -7.494596e+00 -8.287601e+00 -2.805184e-03
<VARIANCE> 3
 1.084912e+01 7.071045e+00 1.000000e-02
<GCONST> 5.248553e+00
<MIXTURE> 2 1.492428e-02
<MEAN> 3
 -4.262846e+00 -4.835468e+01 -1.000000e+02
<VARIANCE> 3
 9.158118e-01 2.433776e+03 1.000000e-02
<GCONST> 8.617716e+00
<STATE> 4
<NUMMIXES> 2
<MIXTURE> 1 6.541800e-01
<MEAN> 3
 -4.934569e+00 -3.456365e-02 1.971295e+00
<VARIANCE> 3
 1.926265e+01 1.218560e-02 7.330912e+00
<GCONST> 6.056399e+00
<MIXTURE> 2 3.458157e-01
<MEAN> 3
 -2.879798e+00 -5.203808e+01 -1.000000e+02
<VARIANCE> 3
 3.523132e+00 2.462002e+03 1.000000e-02
<GCONST> 9.976542e+00
<STATE> 5
<NUMMIXES> 2
<MIXTURE> 1 9.866365e-01
<MEAN> 3
 -7.826369e+00 -1.530974e-03 8.444024e-04
<VARIANCE> 3
 9.240551e+00 1.000000e-02 1.000000e-02
<GCONST> -1.473107e+00
<MIXTURE> 2 1.336446e-02
<MEAN> 3
 -1.016279e+00 -5.001323e+01 -1.000000e+02
<VARIANCE> 3
 1.034145e-01 2.451490e+03 1.000000e-02
<GCONST> 6.443902e+00
<STATE> 6
<NUMMIXES> 2
<MIXTURE> 1 8.473990e-01
<MEAN> 3
 -5.154630e+00 1.611231e+00 1.352849e+00
<VARIANCE> 3
 1.782774e+01 4.202029e+00 6.100610e+00
<GCONST> 1.163834e+01
<MIXTURE> 2 1.526003e-01
<MEAN> 3
 -4.509039e-01 -1.826490e+01 -1.000000e+02
<VARIANCE> 3
 1.069830e-01 1.445268e+03 1.000000e-02
<GCONST> 5.949426e+00
<STATE> 7
<NUMMIXES> 2
<MIXTURE> 1 5.444269e-01
<MEAN> 3
 -1.017642e-03 1.679318e-03 5.119272e-02
<VARIANCE> 3
 1.000000e-02 1.000000e-02 6.492326e-02
<GCONST> -6.431258e+00
<MIXTURE> 2 4.555767e-01
<MEAN> 3
 -1.118949e-03 -1.885487e+00 -1.000000e+02
<VARIANCE> 3
 1.000000e-02 2.035395e+02 1.000000e-02
<GCONST> 1.619151e+00
<TRANSP> 8
 0.000000e+00 1.000000e+00 0.000000e+00 0.000000e+00 0.000000e+00 0.000000e+00 0.000000e+00 0.000000e+00
 0.000000e+00 8.718895e-01 1.281105e-01 0.000000e+00 0.000000e+00 0.000000e+00 0.000000e+00 0.000000e+00
 0.000000e+00 0.000000e+00 9.680484e-01 3.195155e-02 0.000000e+00 0.000000e+00 0.000000e+00 0.000000e+00
 0.000000e+00 0.000000e+00 0.000000e+00 8.522307e-01 1.477693e-01 0.000000e+00 0.000000e+00 0.000000e+00
 0.000000e+00 0.000000e+00 0.000000e+00 0.000000e+00 9.737269e-01 2.627315e-02 0.000000e+00 0.000000e+00
 0.000000e+00 0.000000e+00 0.000000e+00 0.000000e+00 0.000000e+00 8.755475e-01 1.244526e-01 0.000000e+00
 0.000000e+00 0.000000e+00 0.000000e+00 0.000000e+00 0.000000e+00 0.000000e+00 9.916197e-01 8.380283e-03
 0.000000e+00 0.000000e+00 0.000000e+00 0.000000e+00 0.000000e+00 0.000000e+00 0.000000e+00 0.000000e+00
<ENDHMM>
~h "m"
<BEGINHMM>
<NUMSTATES> 8
<STATE> 2
<NUMMIXES> 2
<MIXTURE> 1 1.580410e-01
<MEAN> 3
 9.891782e-04 1.482037e-02 3.444933e+00
<VARIANCE> 3
 1.000000e-02 1.000000e-02 7.591011e+00
<GCONST> -1.669744e+00
<MIXTURE> 2 8.419524e-01
<MEAN> 3
 7.047158e-04 -9.599514e+01 -1.000000e+02
<VARIANCE> 3
 1.000000e-02 3.972637e+02 1.000000e-02
<GCONST> 2.287891e+00
<STATE> 3
<NUMMIXES> 2
<MIXTURE> 1 9.831761e-01
<MEAN> 3
 5.799497e-03 2.593024e+00 2.196059e+00
<VARIANCE> 3
 1.000000e-02 4.243412e+00 1.009910e+01
<GCONST> 4.666275e+00
<MIXTURE> 2 1.682334e-02
<MEAN> 3
 2.309924e-01 -5.064485e+01 -1.000000e+02
<VARIANCE> 3
 1.000000e-02 2.548699e+03 1.000000e-02
<GCONST> 4.146629e+00
<STATE> 4
<NUMMIXES> 2
<MIXTURE> 1 9.479899e-01
<MEAN> 3
 1.810690e+00 2.055127e-01 -3.409407e+00
<VARIANCE> 3
 3.100190e+00 3.507590e-01 2.928410e+01
<GCONST> 8.974483e+00
<MIXTURE> 2 5.200893e-02
<MEAN> 3
 3.965536e-01 -4.666205e+01 -1.000000e+02
<VARIANCE> 3
 3.111078e-02 2.567193e+03 1.000000e-02
<GCONST> 5.288829e+00
<STATE> 5
<NUMMIXES> 2
<MIXTURE> 1 9.566245e-01
<MEAN> 3
 2.307533e+00 4.529688e+00 2.928411e+00
<VARIANCE> 3
 2.757605e+00 5.060396e+00 6.742114e+00
<GCONST> 1.005781e+01
<MIXTURE> 2 4.337569e-02
<MEAN> 3
 5.947580e-01 -4.604102e+01 -1.000000e+02
<VARIANCE> 3
 6.778807e-02 2.566381e+03 1.000000e-02
<GCONST> 6.067344e+00
<STATE> 6
<NUMMIXES> 2
<MIXTURE> 1 4.673178e-02
<MEAN> 3
 3.774995e+00 1.444731e+00 1.988712e-01
<VARIANCE> 3
 4.984480e+00 2.090257e+00 3.288751e-01
<GCONST> 6.745170e+00
<MIXTURE> 2 9.532446e-01
<MEAN> 3
 3.521591e+00 1.220944e+00 -1.000000e+02
<VARIANCE> 3
 7.284921e+00 5.971437e+01 1.000000e-02
<GCONST> 6.983840e+00
<STATE> 7
<NUMMIXES> 2
<MIXTURE> 1 3.179047e-01
<MEAN> 3
 5.753643e+00 5.014390e+00 5.146593e+00
<VARIANCE> 3
 3.719041e+00 4.813920e+00 7.213891e+00
<GCONST> 1.037462e+01
<MIXTURE> 2 6.821042e-01
<MEAN> 3
 4.282582e+00 -9.923037e+01 -1.000000e+02
<VARIANCE> 3
 9.172749e+00 7.621214e+01 1.000000e-02
<GCONST> 7.458219e+00
<TRANSP> 8
 0.000000e+00 1.000000e+00 0.000000e+00 0.000000e+00 0.000000e+00 0.000000e+00 0.000000e+00 0.000000e+00
 0.000000e+00 9.902529e-01 9.747044e-03 0.000000e+00 0.000000e+00 0.000000e+00 0.000000e+00 0.000000e+00
 0.000000e+00 0.000000e+00 9.657616e-01 3.423839e-02 0.000000e+00 0.000000e+00 0.000000e+00 0.000000e+00
 0.000000e+00 0.000000e+00 0.000000e+00 9.052674e-01 9.473255e-02 0.000000e+00 0.000000e+00 0.000000e+00
 0.000000e+00 0.000000e+00 0.000000e+00 0.000000e+00 9.205469e-01 7.945311e-02 0.000000e+00 0.000000e+00
 0.000000e+00 0.000000e+00 0.000000e+00 0.000000e+00 0.000000e+00 9.804625e-01 1.953750e-02 0.000000e+00
 0.000000e+00 0.000000e+00 0.000000e+00 0.000000e+00 0.000000e+00 0.000000e+00 9.731146e-01 2.688545e-02
 0.000000e+00 0.000000e+00 0.000000e+00 0.000000e+00 0.000000e+00 0.000000e+00 0.000000e+00 0.000000e+00
<ENDHMM>
~h "sil"
<BEGINHMM>
<NUMSTATES> 8
<STATE> 2
<NUMMIXES> 2
<MIXTURE> 1 4.206370e-01
<MEAN> 3
 1.121318e+01 2.839728e+00 2.072413e+00
<VARIANCE> 3
 6.175545e+00 3.171592e+00 3.857593e+00
<GCONST> 9.838506e+00
<MIXTURE> 2 5.793625e-01
<MEAN> 3
 7.265665e+00 -5.163137e+00 -7.849323e+00
<VARIANCE> 3
 4.202154e+00 7.538010e+02 6.988858e+02
<GCONST> 2.012384e+01
<STATE> 3
<NUMMIXES> 2
<MIXTURE> 1 3.956864e-02
<MEAN> 3
 5.338643e+00 -6.487413e+01 -6.567973e+01
<VARIANCE> 3
 8.566998e+00 2.335763e+03 2.242567e+03
<GCONST> 2.313302e+01
<MIXTURE> 2 9.604310e-01
<MEAN> 3
 9.254585e+00 -5.554343e-05 3.895738e-03
<VARIANCE> 3
 3.178896e+00 1.000000e-02 1.000000e-02
<GCONST> -2.540175e+00
<STATE> 4
<NUMMIXES> 2
<MIXTURE> 1 3.327933e-02
<MEAN> 3
 6.536608e+00 -5.252477e+01 -5.156662e+01
<VARIANCE> 3
 1.061620e+01 2.752150e+03 2.866221e+03
<GCONST> 2.375690e+01
<MIXTURE> 2 9.667208e-01
<MEAN> 3
 8.297593e+00 3.771947e-03 3.028352e+00
<VARIANCE> 3
 8.545075e+00 1.000000e-02 8.903012e+00
<GCONST> 5.240206e+00
<STATE> 5
<NUMMIXES> 2
<MIXTURE> 1 6.489998e-01
<MEAN> 3
 8.815761e+00 -2.940068e+00 -7.270083e-01
<VARIANCE> 3
 3.066710e+00 4.354767e+02 4.604854e+02
<GCONST> 1.884296e+01
<MIXTURE> 2 3.509998e-01
<MEAN> 3
 6.290902e+00 1.600624e-04 -9.173470e+00
<VARIANCE> 3
 5.708898e+00 1.000000e-02 2.284786e+00
<GCONST> 3.476759e+00
<STATE> 6
<NUMMIXES> 2
<MIXTURE> 1 8.479291e-01
<MEAN> 3
 6.614138e+00 3.460660e+00 2.387504e+00
<VARIANCE> 3
 9.024510e+00 2.549152e+02 2.498093e+02
<GCONST> 1.877520e+01
<MIXTURE> 2 1.520705e-01
<MEAN> 3
 3.758627e+00 9.717743e-01 3.083095e+00
<VARIANCE> 3
 6.518682e+00 6.097093e-01 2.123271e+00
<GCONST> 7.646489e+00
<STATE> 7
<NUMMIXES> 2
<MIXTURE> 1 9.773687e-01
<MEAN> 3
 7.031665e+00 4.650371e+00 2.945953e-03
<VARIANCE> 3
 1.067228e+01 8.731535e+00 1.000000e-02
<GCONST> 5.443051e+00
<MIXTURE> 2 2.263211e-02
<MEAN> 3
 3.587746e+00 -6.608424e+01 -6.676523e+01
<VARIANCE> 3
 4.702432e+00 2.313407e+03 2.221092e+03
<GCONST> 2.251394e+01
<TRANSP> 8
 0.000000e+00 1.000000e+00 0.000000e+00 0.000000e+00 0.000000e+00 0.000000e+00 0.000000e+00 0.000000e+00
 0.000000e+00 9.121252e-01 8.787483e-02 0.000000e+00 0.000000e+00 0.000000e+00 0.000000e+00 0.000000e+00
 0.000000e+00 0.000000e+00 9.481858e-01 5.181417e-02 0.000000e+00 0.000000e+00 0.000000e+00 0.000000e+00
 0.000000e+00 0.000000e+00 0.000000e+00 9.633861e-01 3.661386e-02 0.000000e+00 0.000000e+00 0.000000e+00
 0.000000e+00 0.000000e+00 0.000000e+00 0.000000e+00 9.427363e-01 5.726369e-02 0.000000e+00 0.000000e+00
 0.000000e+00 0.000000e+00 0.000000e+00 0.000000e+00 0.000000e+00 9.615107e-01 3.848939e-02 0.000000e+00
 0.000000e+00 0.000000e+00 0.000000e+00 0.000000e+00 0.000000e+00 0.000000e+00 9.697511e-01 3.024888e-02
 0.000000e+00 0.000000e+00 0.000000e+00 0.000000e+00 0.000000e+00 0.000000e+00 0.000000e+00 0.000000e+00
<ENDHMM>
