~o
<STREAMINFO> 1 3
<VECSIZE> 3<NULLD><USER><DIAGC>
~h "a"
<BEGINHMM>
<NUMSTATES> 8
<STATE> 2
<NUMMIXES> 2
<MIXTURE> 1 4.356445e-01
<MEAN> 3
 5.090350e+00 4.620657e+01 7.919057e+01
<VARIANCE> 3
 1.436435e+01 8.967069e+03 2.520957e+04
<GCONST> 2.741467e+01
<MIXTURE> 2 5.643564e-01
<MEAN> 3
 6.136317e+00 -8.180520e+01 -1.000000e+02
<VARIANCE> 3
 2.220425e+01 1.484298e+03 1.000000e-02
<GCONST> 1.131144e+01
<STATE> 3
<NUMMIXES> 2
<MIXTURE> 1 1.315065e-02
<MEAN> 3
 3.391816e+00 3.237553e+00 -1.795742e+01
<VARIANCE> 3
 8.360343e+00 1.166437e+01 2.153099e+03
<GCONST> 1.776833e+01
<MIXTURE> 2 9.868586e-01
<MEAN> 3
 5.884188e-04 -1.000000e+02 -1.000000e+02
<VARIANCE> 3
 1.000000e-02 1.000000e-02 1.000000e-02
<GCONST> -8.301880e+00
<STATE> 4
<NUMMIXES> 2
<MIXTURE> 1 9.876872e-01
<MEAN> 3
 4.582398e+00 5.844438e+00 3.817075e+00
<VARIANCE> 3
 9.976851e+00 6.785031e+00 8.736926e+00
<GCONST> 1.189618e+01
<MIXTURE> 2 1.231032e-02
<MEAN> 3
 5.210231e-01 -5.454531e+01 -1.000000e+02
<VARIANCE> 3
 5.416316e-01 2.501528e+03 1.000000e-02
<GCONST> 8.119948e+00
<STATE> 5
<NUMMIXES> 2
<MIXTURE> 1 9.593419e-01
<MEAN> 3
 1.902406e+00 9.285698e-02 -1.057806e+00
<VARIANCE> 3
 6.268810e+00 3.047884e-01 4.669296e+01
<GCONST> 1.000467e+01
<MIXTURE> 2 4.066072e-02
<MEAN> 3
 4.665997e-01 -4.065411e+01 -1.000000e+02
<VARIANCE> 3
 3.264698e-01 2.442592e+03 1.000000e-02
<GCONST> 7.589858e+00
<STATE> 6
<NUMMIXES> 2
<MIXTURE> 1 9.889712e-01
<MEAN> 3
 4.740054e+00 6.792923e-01 9.671568e-04
<VARIANCE> 3
 9.331880e+00 2.227707e+00 1.070026e-02
<GCONST> 4.010553e+00
<MIXTURE> 2 1.103004e-02
<MEAN> 3
 1.264745e-01 -4.699133e+01 -1.000000e+02
<VARIANCE> 3
 5.504471e-02 2.517237e+03 1.000000e-02
<GCONST> 5.839768e+00
<STATE> 7
<NUMMIXES> 2
<MIXTURE> 1 7.239538e-02
<MEAN> 3
 2.237643e-02 -1.505836e+00 8.344316e-01
<VARIANCE> 3
 1.000000e-02 1.140910e+01 1.931049e+00
<GCONST> 4.000936e+00
<MIXTURE> 2 9.276261e-01
<MEAN> 3
 -3.792989e-04 -1.789362e+00 -1.000000e+02
<VARIANCE> 3
 1.000000e-02 4.811853e+01 1.000000e-02
<GCONST> 1.769581e-01
<TRANSP> 8
 0.000000e+00 1.000000e+00 0.000000e+00 0.000000e+00 0.000000e+00 0.000000e+00 0.000000e+00 0.000000e+00
 0.000000e+00 4.263341e-01 5.736659e-01 0.000000e+00 0.000000e+00 0.000000e+00 0.000000e+00 0.000000e+00
 0.000000e+00 0.000000e+00 9.832693e-01 1.673069e-02 0.000000e+00 0.000000e+00 0.000000e+00 0.000000e+00
 0.000000e+00 0.000000e+00 0.000000e+00 9.690080e-01 3.099203e-02 0.000000e+00 0.000000e+00 0.000000e+00
 0.000000e+00 0.000000e+00 0.000000e+00 0.000000e+00 9.235541e-01 7.644590e-02 0.000000e+00 0.000000e+00
 0.000000e+00 0.000000e+00 0.000000e+00 0.000000e+00 0.000000e+00 9.760510e-01 2.394903e-02 0.000000e+00
 0.000000e+00 0.000000e+00 0.000000e+00 0.000000e+00 0.000000e+00 0.000000e+00 9.830437e-01 1.695626e-02
 0.000000e+00 0.000000e+00 0.000000e+00 0.000000e+00 0.000000e+00 0.000000e+00 0.000000e+00 0.000000e+00
<ENDHMM>
~h "e"
<BEGINHMM>
<NUMSTATES> 8
<STATE> 2
<NUMMIXES> 2
<MIXTURE> 1 9.929036e-01
<MEAN> 3
 -2.226578e-03 -1.438530e-02 -5.338654e-02
<VARIANCE> 3
 1.000000e-02 1.398000e-02 5.289079e-02
<GCONST> -6.301193e+00
<MIXTURE> 2 7.094485e-03
<MEAN> 3
 -2.343723e-01 -4.520678e+01 -1.000000e+02
<VARIANCE> 3
 1.878193e-02 2.201531e+03 1.000000e-02
<GCONST> 4.630509e+00
<STATE> 3
<NUMMIXES> 2
<MIXTURE> 1 9.447662e-01
<MEAN> 3
 -1.893139e-03 -3.588714e+00 -5.474406e+00
<VARIANCE> 3
 1.000000e-02 1.631835e+01 1.889091e+01
<GCONST> 6.639432e+00
<MIXTURE> 2 5.523128e-02
<MEAN> 3
 -8.141581e-01 -9.348961e+01 -1.000000e+02
<VARIANCE> 3
 9.352967e-02 5.783518e+02 1.000000e-02
<GCONST> 4.899167e+00
<STATE> 4
<NUMMIXES> 2
<MIXTURE> 1 9.701849e-01
<MEAN> 3
 -5.277356e+00 -2.634821e+00 -4.784301e-01
<VARIANCE> 3
 1.264739e+01 9.123573e+00 1.860684e+00
<GCONST> 1.088289e+01
<MIXTURE> 2 2.981508e-02
<MEAN> 3
 -8.227181e-01 -4.968494e+01 -1.000000e+02
<VARIANCE> 3
 1.062300e-01 2.269866e+03 1.000000e-02
<GCONST> 6.393788e+00
<STATE> 5
<NUMMIXES> 2
<MIXTURE> 1 8.494487e-01
<MEAN> 3
 -2.801387e+00 -7.831472e+00 -8.496135e+00
<VARIANCE> 3
 4.642504e+00 9.477291e+00 5.029214e+00
<GCONST> 1.091305e+01
<MIXTURE> 2 1.505503e-01
<MEAN> 3
 -2.097497e+00 -9.156985e+01 -1.000000e+02
<VARIANCE> 3
 4.789746e-01 7.335041e+02 1.000000e-02
<GCONST> 6.770186e+00
<STATE> 6
<NUMMIXES> 2
<MIXTURE> 1 1.585796e-02
<MEAN> 3
 -5.652851e+00 -5.342204e+00 -1.067570e+00
<VARIANCE> 3
 8.431840e+00 1.905544e+01 4.504336e+01
<GCONST> 1.440062e+01
<MIXTURE> 2 9.841353e-01
<MEAN> 3
 -7.563660e+00 -4.921113e+00 -1.000000e+02
<VARIANCE> 3
 9.912252e+00 5.950559e+01 1.000000e-02
<GCONST> 7.288302e+00
<STATE> 7
<NUMMIXES> 2
<MIXTURE> 1 4.694810e-01
<MEAN> 3
 -9.596464e+00 -9.075798e+00 -7.487098e+00
<VARIANCE> 3
 2.084944e+00 3.653504e+00 9.422838e+00
<GCONST> 9.787196e+00
<MIXTURE> 2 5.304942e-01
<MEAN> 3
 -8.448110e+00 -9.935657e+01 -1.000000e+02
<VARIANCE> 3
 3.936748e+00 6.241780e+01 1.000000e-02
<GCONST> 6.412667e+00
<TRANSP> 8
 0.000000e+00 1.000000e+00 0.000000e+00 0.000000e+00 0.000000e+00 0.000000e+00 0.000000e+00 0.000000e+00
 0.000000e+00 9.862397e-01 1.376028e-02 0.000000e+00 0.000000e+00 0.000000e+00 0.000000e+00 0.000000e+00
 0.000000e+00 0.000000e+00 9.830395e-01 1.696050e-02 0.000000e+00 0.000000e+00 0.000000e+00 0.000000e+00
 0.000000e+00 0.000000e+00 0.000000e+00 9.402298e-01 5.977010e-02 0.000000e+00 0.000000e+00 0.000000e+00
 0.000000e+00 0.000000e+00 0.000000e+00 0.000000e+00 9.415155e-01 5.848452e-02 0.000000e+00 0.000000e+00
 0.000000e+00 0.000000e+00 0.000000e+00 0.000000e+00 0.000000e+00 9.799696e-01 2.003044e-02 0.000000e+00
 0.000000e+00 0.000000e+00 0.000000e+00 0.000000e+00 0.000000e+00 0.000000e+00 9.846545e-01 1.534543e-02
 0.000000e+00 0.000000e+00 0.000000e+00 0.000000e+00 0.000000e+00 0.000000e+00 0.000000e+00 0.000000e+00
<ENDHMM>
~h "i"
<BEGINHMM>
<NUMSTATES> 8
<STATE> 2
<NUMMIXES> 2
<MIXTURE> 1 9.748505e-01
<MEAN> 3
 -2.893832e+00 -4.965364e+00 -8.562474e+00
<VARIANCE> 3
 1.531121e+01 1.978998e+01 6.612365e+00
<GCONST> 1.311633e+01
<MIXTURE> 2 2.515027e-02
<MEAN> 3
 -4.464634e+00 -4.860187e+01 -1.000000e+02
<VARIANCE> 3
 2.884469e+00 2.386015e+03 1.000000e-02
<GCONST> 9.745181e+00
<STATE> 3
<NUMMIXES> 2
<MIXTURE> 1 9.809611e-01
<MEAN> 3
 -8.154717e+00 -8.201633e+00 -1.893137e-02
<VARIANCE> 3
 7.889725e+00 7.459749e+00 1.828259e-02
<GCONST> 5.586909e+00
<MIXTURE> 2 1.903950e-02
<MEAN> 3
 -3.569928e+00 -5.495415e+01 -1.000000e+02
<VARIANCE> 3
 1.510294e+00 2.374399e+03 1.000000e-02
<GCONST> 9.093265e+00
<STATE> 4
<NUMMIXES> 2
<MIXTURE> 1 9.824196e-01
<MEAN> 3
 -8.149745e+00 -4.771224e-03 7.236883e-03
<VARIANCE> 3
 6.870867e+00 1.000000e-02 1.737257e-02
<GCONST> -1.217111e+00
<MIXTURE> 2 1.757968e-02
<MEAN> 3
 -2.700603e+00 -5.016417e+01 -1.000000e+02
<VARIANCE> 3
 8.465173e-01 2.391851e+03 1.000000e-02
<GCONST> 8.521659e+00
<STATE> 5
<NUMMIXES> 2
<MIXTURE> 1 9.929062e-01
<MEAN> 3
 -5.579058e-03 4.026891e-04 1.521350e-03
<VARIANCE> 3
 5.011151e-02 1.000000e-02 1.000000e-02
<GCONST> -6.690214e+00
<MIXTURE> 2 7.094118e-03
<MEAN> 3
 -1.953813e+00 -5.007052e+01 -1.000000e+02
<VARIANCE> 3
 4.906376e-01 2.397204e+03 1.000000e-02
<GCONST> 7.978471e+00
<STATE> 6
<NUMMIXES> 2
<MIXTURE> 1 8.821144e-01
<MEAN> 3
 -2.952658e+00 1.809319e+00 1.320610e+00
<VARIANCE> 3
 1.754681e+01 4.253438e+00 4.107210e+00
<GCONST> 1.123897e+01
<MIXTURE> 2 1.178876e-01
<MEAN> 3
 -1.015286e+00 -5.255995e+01 -1.000000e+02
<VARIANCE> 3
 2.735012e-01 2.397331e+03 1.000000e-02
<GCONST> 7.394123e+00
<STATE> 7
<NUMMIXES> 2
<MIXTURE> 1 4.975017e-01
<MEAN> 3
 -6.925831e-02 2.126664e-01 2.759818e-01
<VARIANCE> 3
 1.079542e+00 7.378244e-01 2.223761e+02
<GCONST> 1.069049e+01
<MIXTURE> 2 5.024986e-01
<MEAN> 3
 -1.868251e-01 -4.347228e+01 -1.000000e+02
<VARIANCE> 3
 1.397451e-02 2.349460e+03 1.000000e-02
<GCONST> 4.399881e+00
<TRANSP> 8
 0.000000e+00 1.000000e+00 0.000000e+00 0.000000e+00 0.000000e+00 0.000000e+00 0.000000e+00 0.000000e+00
 0.000000e+00 9.463842e-01 5.361582e-02 0.000000e+00 0.000000e+00 0.000000e+00 0.000000e+00 0.000000e+00
 0.000000e+00 0.000000e+00 9.622906e-01 3.770939e-02 0.000000e+00 0.000000e+00 0.000000e+00 0.000000e+00
 0.000000e+00 0.000000e+00 0.000000e+00 9.640608e-01 3.593918e-02 0.000000e+00 0.000000e+00 0.000000e+00
 0.000000e+00 0.000000e+00 0.000000e+00 0.000000e+00 9.855037e-01 1.449627e-02 0.000000e+00 0.000000e+00
 0.000000e+00 0.000000e+00 0.000000e+00 0.000000e+00 0.000000e+00 9.169323e-01 8.306762e-02 0.000000e+00
 0.000000e+00 0.000000e+00 0.000000e+00 0.000000e+00 0.000000e+00 0.000000e+00 4.920270e-02 9.507973e-01
 0.000000e+00 0.000000e+00 0.000000e+00 0.000000e+00 0.000000e+00 0.000000e+00 0.000000e+00 0.000000e+00
<ENDHMM>
~h "m"
<BEGINHMM>
<NUMSTATES> 8
<STATE> 2
<NUMMIXES> 2
<MIXTURE> 1 1.685101e-02
<MEAN> 3
 -9.210880e-01 2.888772e+00 2.845627e+01
<VARIANCE> 3
 6.634048e+00 1.199105e+01 7.002851e+03
<GCONST> 1.874408e+01
<MIXTURE> 2 9.831482e-01
<MEAN> 3
 2.675584e-04 -4.337770e-01 -1.000000e+02
<VARIANCE> 3
 1.000000e-02 4.425102e+01 1.000000e-02
<GCONST> 9.316921e-02
<STATE> 3
<NUMMIXES> 2
<MIXTURE> 1 9.767073e-01
<MEAN> 3
 4.394697e-03 8.717848e-03 3.057267e+00
<VARIANCE> 3
 1.000000e-02 1.000000e-02 9.594142e+00
<GCONST> -1.435556e+00
<MIXTURE> 2 2.329355e-02
<MEAN> 3
 1.356220e-01 -4.380099e+01 -1.000000e+02
<VARIANCE> 3
 2.649061e-02 2.520226e+03 1.000000e-02
<GCONST> 5.109600e+00
<STATE> 4
<NUMMIXES> 2
<MIXTURE> 1 9.861576e-01
<MEAN> 3
 2.839234e+00 2.840177e+00 9.058187e-02
<VARIANCE> 3
 1.047422e+01 7.866205e+00 1.928948e-01
<GCONST> 8.279512e+00
<MIXTURE> 2 1.384252e-02
<MEAN> 3
 2.378057e-01 -4.373719e+01 -1.000000e+02
<VARIANCE> 3
 6.016791e-02 2.520063e+03 1.000000e-02
<GCONST> 5.929884e+00
<STATE> 5
<NUMMIXES> 2
<MIXTURE> 1 9.830874e-01
<MEAN> 3
 1.319827e+00 4.132899e+00 4.536611e+00
<VARIANCE> 3
 4.024424e+00 6.484253e+00 9.351713e+00
<GCONST> 1.101095e+01
<MIXTURE> 2 1.691161e-02
<MEAN> 3
 3.501110e-01 -4.364707e+01 -1.000000e+02
<VARIANCE> 3
 1.285646e-01 2.520973e+03 1.000000e-02
<GCONST> 6.689537e+00
<STATE> 6
<NUMMIXES> 2
<MIXTURE> 1 5.311483e-02
<MEAN> 3
 3.470543e+00 6.789169e+00 3.512205e+02
<VARIANCE> 3
 9.245795e+00 7.083138e+00 7.236042e+04
<GCONST> 2.088493e+01
<MIXTURE> 2 9.468859e-01
<MEAN> 3
 4.142955e+00 1.151875e+00 -1.000000e+02
<VARIANCE> 3
 8.586902e+00 5.221704e+01 1.000000e-02
<GCONST> 7.014108e+00
<STATE> 7
<NUMMIXES> 2
<MIXTURE> 1 2.854454e-02
<MEAN> 3
 6.312623e+00 3.134931e+02 2.127201e+02
<VARIANCE> 3
 7.890060e+00 7.377357e+04 2.047852e+04
<GCONST> 2.871512e+01
<MIXTURE> 2 9.714332e-01
<MEAN> 3
 5.768651e-01 -1.000000e+02 -1.000000e+02
<VARIANCE> 3
 6.992874e+00 1.000000e-02 1.000000e-02
<GCONST> -1.751818e+00
<TRANSP> 8
 0.000000e+00 1.000000e+00 0.000000e+00 0.000000e+00 0.000000e+00 0.000000e+00 0.000000e+00 0.000000e+00
 0.000000e+00 9.825077e-01 1.749233e-02 0.000000e+00 0.000000e+00 0.000000e+00 0.000000e+00 0.000000e+00
 0.000000e+00 0.000000e+00 9.524714e-01 4.752853e-02 0.000000e+00 0.000000e+00 0.000000e+00 0.000000e+00
 0.000000e+00 0.000000e+00 0.000000e+00 9.717926e-01 2.820744e-02 0.000000e+00 0.000000e+00 0.000000e+00
 0.000000e+00 0.000000e+00 0.000000e+00 0.000000e+00 9.655932e-01 3.440689e-02 0.000000e+00 0.000000e+00
 0.000000e+00 0.000000e+00 0.000000e+00 0.000000e+00 0.000000e+00 9.810630e-01 1.893698e-02 0.000000e+00
 0.000000e+00 0.000000e+00 0.000000e+00 0.000000e+00 0.000000e+00 0.000000e+00 9.910843e-01 8.915699e-03
 0.000000e+00 0.000000e+00 0.000000e+00 0.000000e+00 0.000000e+00 0.000000e+00 0.000000e+00 0.000000e+00
<ENDHMM>
~h "sil"
<BEGINHMM>
<NUMSTATES> 8
<STATE> 2
<NUMMIXES> 2
<MIXTURE> 1 9.157832e-01
<MEAN> 3
 9.374181e+00 1.083349e-04 1.567331e-03
<VARIANCE> 3
 5.095498e+00 1.000000e-02 1.000000e-02
<GCONST> -2.068352e+00
<MIXTURE> 2 8.421650e-02
<MEAN> 3
 7.474681e+00 -1.743876e+01 -1.666358e+01
<VARIANCE> 3
 7.144667e+00 9.833107e+02 9.999382e+02
<GCONST> 2.127862e+01
<STATE> 3
<NUMMIXES> 2
<MIXTURE> 1 8.798651e-02
<MEAN> 3
 1.139935e+01 8.727872e+00 7.136642e-01
<VARIANCE> 3
 5.288248e+00 5.040516e+03 5.066720e+01
<GCONST> 1.962966e+01
<MIXTURE> 2 9.120126e-01
<MEAN> 3
 9.142886e+00 -3.737638e+00 -1.810431e+00
<VARIANCE> 3
 8.000281e+00 3.600802e+02 3.763772e+02
<GCONST> 1.941003e+01
<STATE> 4
<NUMMIXES> 2
<MIXTURE> 1 5.431496e-01
<MEAN> 3
 9.116381e+00 -1.627900e+00 -3.044637e+00
<VARIANCE> 3
 4.475743e+00 4.833203e+02 4.684596e+02
<GCONST> 1.934243e+01
<MIXTURE> 2 4.568505e-01
<MEAN> 3
 4.547916e+00 6.067957e-03 4.591522e+00
<VARIANCE> 3
 6.549652e+00 1.000000e-02 8.918915e+00
<GCONST> 4.976048e+00
<STATE> 5
<NUMMIXES> 2
<MIXTURE> 1 1.580176e-01
<MEAN> 3
 1.001477e+01 -1.080916e+01 -4.208194e+00
<VARIANCE> 3
 1.625057e+01 1.031414e+03 1.197210e+03
<GCONST> 2.232819e+01
<MIXTURE> 2 8.419825e-01
<MEAN> 3
 6.545763e+00 4.822359e+00 3.053318e-03
<VARIANCE> 3
 6.311605e+00 7.286658e+00 1.000000e-02
<GCONST> 4.736897e+00
<STATE> 6
<NUMMIXES> 2
<MIXTURE> 1 6.291809e-01
<MEAN> 3
 7.791948e+00 2.146187e+00 3.843806e+00
<VARIANCE> 3
 4.391890e+00 3.627679e+02 3.710789e+02
<GCONST> 1.880357e+01
<MIXTURE> 2 3.708182e-01
<MEAN> 3
 5.107067e+00 1.183667e+00 3.875205e+00
<VARIANCE> 3
 3.134426e+00 5.790429e-01 3.918349e+00
<GCONST> 7.475369e+00
<STATE> 7
<NUMMIXES> 2
<MIXTURE> 1 6.470280e-01
<MEAN> 3
 6.372054e+00 3.309335e+00 -2.391812e+00
<VARIANCE> 3
 5.883677e+00 4.538499e+02 4.024558e+02
<GCONST> 1.940117e+01
<MIXTURE> 2 3.529716e-01
<MEAN> 3
 5.613106e+00 2.331125e-03 -7.661900e+00
<VARIANCE> 3
 5.439127e+00 1.000000e-02 1.080328e+01
<GCONST> 4.981930e+00
<TRANSP> 8
 0.000000e+00 1.000000e+00 0.000000e+00 0.000000e+00 0.000000e+00 0.000000e+00 0.000000e+00 0.000000e+00
 0.000000e+00 9.791186e-01 2.088141e-02 0.000000e+00 0.000000e+00 0.000000e+00 0.000000e+00 0.000000e+00
 0.000000e+00 0.000000e+00 9.295799e-01 7.042012e-02 0.000000e+00 0.000000e+00 0.000000e+00 0.000000e+00
 0.000000e+00 0.000000e+00 0.000000e+00 9.485597e-01 5.144022e-02 0.000000e+00 0.000000e+00 0.000000e+00
 0.000000e+00 0.000000e+00 0.000000e+00 0.000000e+00 9.637545e-01 3.624550e-02 0.000000e+00 0.000000e+00
 0.000000e+00 0.000000e+00 0.000000e+00 0.000000e+00 0.000000e+00 9.584251e-01 4.157491e-02 0.000000e+00
 0.000000e+00 0.000000e+00 0.000000e+00 0.000000e+00 0.000000e+00 0.000000e+00 9.590938e-01 4.090621e-02
 0.000000e+00 0.000000e+00 0.000000e+00 0.000000e+00 0.000000e+00 0.000000e+00 0.000000e+00 0.000000e+00
<ENDHMM>
