~o
<STREAMINFO> 1 1
<VECSIZE> 1<NULLD><USER><DIAGC>
~h "a"
<BEGINHMM>
<NUMSTATES> 8
<STATE> 2
<MEAN> 1
 3.346553e+00
<VARIANCE> 1
 4.574908e+00
<GCONST> 3.358464e+00
<STATE> 3
<MEAN> 1
 9.490682e+00
<VARIANCE> 1
 2.948978e+00
<GCONST> 2.919336e+00
<STATE> 4
<MEAN> 1
 1.961838e+00
<VARIANCE> 1
 4.094660e+00
<GCONST> 3.247561e+00
<STATE> 5
<MEAN> 1
 5.161600e+00
<VARIANCE> 1
 1.453954e+00
<GCONST> 2.212164e+00
<STATE> 6
<MEAN> 1
 1.911349e+00
<VARIANCE> 1
 8.391556e-01
<GCONST> 1.662518e+00
<STATE> 7
<MEAN> 1
 2.067802e-03
<VARIANCE> 1
 1.000000e-02
<GCONST> -2.767293e+00
<TRANSP> 8
 0.000000e+00 1.000000e+00 0.000000e+00 0.000000e+00 0.000000e+00 0.000000e+00 0.000000e+00 0.000000e+00
 0.000000e+00 9.081386e-01 9.186145e-02 0.000000e+00 0.000000e+00 0.000000e+00 0.000000e+00 0.000000e+00
 0.000000e+00 0.000000e+00 9.845796e-01 1.542047e-02 0.000000e+00 0.000000e+00 0.000000e+00 0.000000e+00
 0.000000e+00 0.000000e+00 0.000000e+00 8.315755e-01 1.684245e-01 0.000000e+00 0.000000e+00 0.000000e+00
 0.000000e+00 0.000000e+00 0.000000e+00 0.000000e+00 9.735076e-01 2.649233e-02 0.000000e+00 0.000000e+00
 0.000000e+00 0.000000e+00 0.000000e+00 0.000000e+00 0.000000e+00 9.496748e-01 5.032523e-02 0.000000e+00
 0.000000e+00 0.000000e+00 0.000000e+00 0.000000e+00 0.000000e+00 0.000000e+00 9.919232e-01 8.076834e-03
 0.000000e+00 0.000000e+00 0.000000e+00 0.000000e+00 0.000000e+00 0.000000e+00 0.000000e+00 0.000000e+00
<ENDHMM>
~h "e"
<BEGINHMM>
<NUMSTATES> 8
<STATE> 2
<MEAN> 1
 -1.175231e-03
<VARIANCE> 1
 1.000000e-02
<GCONST> -2.767293e+00
<STATE> 3
<MEAN> 1
 -8.124527e-01
<VARIANCE> 1
 2.198943e-01
<GCONST> 3.232687e-01
<STATE> 4
<MEAN> 1
 -2.607478e+00
<VARIANCE> 1
 7.216630e-01
<GCONST> 1.511680e+00
<STATE> 5
<MEAN> 1
 -6.631101e+00
<VARIANCE> 1
 6.198185e+00
<GCONST> 3.662134e+00
<STATE> 6
<MEAN> 1
 -5.957681e+00
<VARIANCE> 1
 7.015129e-01
<GCONST> 1.483361e+00
<STATE> 7
<MEAN> 1
 -8.959979e+00
<VARIANCE> 1
 1.393336e+00
<GCONST> 2.169578e+00
<TRANSP> 8
 0.000000e+00 1.000000e+00 0.000000e+00 0.000000e+00 0.000000e+00 0.000000e+00 0.000000e+00 0.000000e+00
 0.000000e+00 9.921775e-01 7.822452e-03 0.000000e+00 0.000000e+00 0.000000e+00 0.000000e+00 0.000000e+00
 0.000000e+00 0.000000e+00 9.463520e-01 5.364794e-02 0.000000e+00 0.000000e+00 0.000000e+00 0.000000e+00
 0.000000e+00 0.000000e+00 0.000000e+00 9.460168e-01 5.398321e-02 0.000000e+00 0.000000e+00 0.000000e+00
 0.000000e+00 0.000000e+00 0.000000e+00 0.000000e+00 8.958839e-01 1.041161e-01 0.000000e+00 0.000000e+00
 0.000000e+00 0.000000e+00 0.000000e+00 0.000000e+00 0.000000e+00 9.600495e-01 3.995058e-02 0.000000e+00
 0.000000e+00 0.000000e+00 0.000000e+00 0.000000e+00 0.000000e+00 0.000000e+00 9.631569e-01 3.684310e-02
 0.000000e+00 0.000000e+00 0.000000e+00 0.000000e+00 0.000000e+00 0.000000e+00 0.000000e+00 0.000000e+00
<ENDHMM>
~h "i"
<BEGINHMM>
<NUMSTATES> 8
<STATE> 2
<MEAN> 1
 -9.983360e+00
<VARIANCE> 1
 8.030560e-01
<GCONST> 1.618546e+00
<STATE> 3
<MEAN> 1
 -6.809042e+00
<VARIANCE> 1
 3.322832e+00
<GCONST> 3.038695e+00
<STATE> 4
<MEAN> 1
 -2.559523e+00
<VARIANCE> 1
 7.086420e-01
<GCONST> 1.493472e+00
<STATE> 5
<MEAN> 1
 -1.974878e+00
<VARIANCE> 1
 5.434934e-01
<GCONST> 1.228139e+00
<STATE> 6
<MEAN> 1
 -1.221574e+00
<VARIANCE> 1
 5.238332e-01
<GCONST> 1.191295e+00
<STATE> 7
<MEAN> 1
 -3.845867e-02
<VARIANCE> 1
 1.000000e-02
<GCONST> -2.767293e+00
<TRANSP> 8
 0.000000e+00 1.000000e+00 0.000000e+00 0.000000e+00 0.000000e+00 0.000000e+00 0.000000e+00 0.000000e+00
 0.000000e+00 9.900633e-01 9.936707e-03 0.000000e+00 0.000000e+00 0.000000e+00 0.000000e+00 0.000000e+00
 0.000000e+00 0.000000e+00 9.618367e-01 3.816331e-02 0.000000e+00 0.000000e+00 0.000000e+00 0.000000e+00
 0.000000e+00 0.000000e+00 0.000000e+00 2.848011e-01 7.151989e-01 0.000000e+00 0.000000e+00 0.000000e+00
 0.000000e+00 0.000000e+00 0.000000e+00 0.000000e+00 0.000000e+00 1.000000e+00 0.000000e+00 0.000000e+00
 0.000000e+00 0.000000e+00 0.000000e+00 0.000000e+00 0.000000e+00 7.769355e-01 2.230644e-01 0.000000e+00
 0.000000e+00 0.000000e+00 0.000000e+00 0.000000e+00 0.000000e+00 0.000000e+00 8.563871e-01 1.436129e-01
 0.000000e+00 0.000000e+00 0.000000e+00 0.000000e+00 0.000000e+00 0.000000e+00 0.000000e+00 0.000000e+00
<ENDHMM>
~h "m"
<BEGINHMM>
<NUMSTATES> 8
<STATE> 2
<MEAN> 1
 1.123195e-03
<VARIANCE> 1
 1.000000e-02
<GCONST> -2.767293e+00
<STATE> 3
<MEAN> 1
 1.103494e+00
<VARIANCE> 1
 2.677993e-01
<GCONST> 5.203595e-01
<STATE> 4
<MEAN> 1
 9.327117e-01
<VARIANCE> 1
 1.397387e+00
<GCONST> 2.172481e+00
<STATE> 5
<MEAN> 1
 2.734844e+00
<VARIANCE> 1
 4.937379e-01
<GCONST> 1.132127e+00
<STATE> 6
<MEAN> 1
 4.810699e+00
<VARIANCE> 1
 9.014491e-01
<GCONST> 1.734125e+00
<STATE> 7
<MEAN> 1
 7.353544e+00
<VARIANCE> 1
 2.097136e+00
<GCONST> 2.578450e+00
<TRANSP> 8
 0.000000e+00 1.000000e+00 0.000000e+00 0.000000e+00 0.000000e+00 0.000000e+00 0.000000e+00 0.000000e+00
 0.000000e+00 9.961331e-01 3.866877e-03 0.000000e+00 0.000000e+00 0.000000e+00 0.000000e+00 0.000000e+00
 0.000000e+00 0.000000e+00 9.545835e-01 4.541653e-02 0.000000e+00 0.000000e+00 0.000000e+00 0.000000e+00
 0.000000e+00 0.000000e+00 0.000000e+00 8.345015e-01 1.654985e-01 0.000000e+00 0.000000e+00 0.000000e+00
 0.000000e+00 0.000000e+00 0.000000e+00 0.000000e+00 9.353709e-01 6.462906e-02 0.000000e+00 0.000000e+00
 0.000000e+00 0.000000e+00 0.000000e+00 0.000000e+00 0.000000e+00 9.494565e-01 5.054358e-02 0.000000e+00
 0.000000e+00 0.000000e+00 0.000000e+00 0.000000e+00 0.000000e+00 0.000000e+00 8.977442e-01 1.022558e-01
 0.000000e+00 0.000000e+00 0.000000e+00 0.000000e+00 0.000000e+00 0.000000e+00 0.000000e+00 0.000000e+00
<ENDHMM>
~h "sil"
<BEGINHMM>
<NUMSTATES> 8
<STATE> 2
<MEAN> 1
 1.104945e+01
<VARIANCE> 1
 1.187294e+01
<GCONST> 4.312139e+00
<STATE> 3
<MEAN> 1
 1.090382e+01
<VARIANCE> 1
 4.841732e-01
<GCONST> 1.112564e+00
<STATE> 4
<MEAN> 1
 9.592218e+00
<VARIANCE> 1
 7.590774e-01
<GCONST> 1.562226e+00
<STATE> 5
<MEAN> 1
 7.665546e+00
<VARIANCE> 1
 1.192254e+00
<GCONST> 2.013723e+00
<STATE> 6
<MEAN> 1
 9.754690e+00
<VARIANCE> 1
 4.954278e+00
<GCONST> 3.438128e+00
<STATE> 7
<MEAN> 1
 4.945053e+00
<VARIANCE> 1
 3.668605e+00
<GCONST> 3.137689e+00
<TRANSP> 8
 0.000000e+00 1.000000e+00 0.000000e+00 0.000000e+00 0.000000e+00 0.000000e+00 0.000000e+00 0.000000e+00
 0.000000e+00 9.683926e-01 3.160747e-02 0.000000e+00 0.000000e+00 0.000000e+00 0.000000e+00 0.000000e+00
 0.000000e+00 0.000000e+00 9.706662e-01 2.933377e-02 0.000000e+00 0.000000e+00 0.000000e+00 0.000000e+00
 0.000000e+00 0.000000e+00 0.000000e+00 9.576827e-01 4.231727e-02 0.000000e+00 0.000000e+00 0.000000e+00
 0.000000e+00 0.000000e+00 0.000000e+00 0.000000e+00 9.420826e-01 5.791742e-02 0.000000e+00 0.000000e+00
 0.000000e+00 0.000000e+00 0.000000e+00 0.000000e+00 0.000000e+00 8.880759e-01 1.119241e-01 0.000000e+00
 0.000000e+00 0.000000e+00 0.000000e+00 0.000000e+00 0.000000e+00 0.000000e+00 9.375631e-01 6.243696e-02
 0.000000e+00 0.000000e+00 0.000000e+00 0.000000e+00 0.000000e+00 0.000000e+00 0.000000e+00 0.000000e+00
<ENDHMM>
