~o
<STREAMINFO> 1 1
<VECSIZE> 1<NULLD><USER><DIAGC>
~h "a"
<BEGINHMM>
<NUMSTATES> 8
<STATE> 2
<MEAN> 1
 3.365984e+00
<VARIANCE> 1
 3.842621e+00
<GCONST> 3.184031e+00
<STATE> 3
<MEAN> 1
 1.034822e+01
<VARIANCE> 1
 2.363986e+00
<GCONST> 2.698226e+00
<STATE> 4
<MEAN> 1
 7.041907e+00
<VARIANCE> 1
 1.136317e+00
<GCONST> 1.965670e+00
<STATE> 5
<MEAN> 1
 4.406446e+00
<VARIANCE> 1
 8.574180e-01
<GCONST> 1.684047e+00
<STATE> 6
<MEAN> 1
 1.690841e+00
<VARIANCE> 1
 8.841559e-01
<GCONST> 1.714755e+00
<STATE> 7
<MEAN> 1
 1.896991e-03
<VARIANCE> 1
 1.000000e-02
<GCONST> -2.767293e+00
<TRANSP> 8
 0.000000e+00 1.000000e+00 0.000000e+00 0.000000e+00 0.000000e+00 0.000000e+00 0.000000e+00 0.000000e+00
 0.000000e+00 9.370638e-01 6.293619e-02 0.000000e+00 0.000000e+00 0.000000e+00 0.000000e+00 0.000000e+00
 0.000000e+00 0.000000e+00 9.758775e-01 2.412250e-02 0.000000e+00 0.000000e+00 0.000000e+00 0.000000e+00
 0.000000e+00 0.000000e+00 0.000000e+00 9.619437e-01 3.805632e-02 0.000000e+00 0.000000e+00 0.000000e+00
 0.000000e+00 0.000000e+00 0.000000e+00 0.000000e+00 9.593051e-01 4.069487e-02 0.000000e+00 0.000000e+00
 0.000000e+00 0.000000e+00 0.000000e+00 0.000000e+00 0.000000e+00 9.504486e-01 4.955137e-02 0.000000e+00
 0.000000e+00 0.000000e+00 0.000000e+00 0.000000e+00 0.000000e+00 0.000000e+00 9.919680e-01 8.032001e-03
 0.000000e+00 0.000000e+00 0.000000e+00 0.000000e+00 0.000000e+00 0.000000e+00 0.000000e+00 0.000000e+00
<ENDHMM>
~h "e"
<BEGINHMM>
<NUMSTATES> 8
<STATE> 2
<MEAN> 1
 -1.420339e-03
<VARIANCE> 1
 1.000000e-02
<GCONST> -2.767293e+00
<STATE> 3
<MEAN> 1
 -7.781578e-01
<VARIANCE> 1
 1.363664e-01
<GCONST> -1.545330e-01
<STATE> 4
<MEAN> 1
 -2.219505e+00
<VARIANCE> 1
 6.494104e-01
<GCONST> 1.406187e+00
<STATE> 5
<MEAN> 1
 -4.391253e+00
<VARIANCE> 1
 4.769876e-01
<GCONST> 1.097612e+00
<STATE> 6
<MEAN> 1
 -6.222537e+00
<VARIANCE> 1
 4.702408e-01
<GCONST> 1.083367e+00
<STATE> 7
<MEAN> 1
 -8.650480e+00
<VARIANCE> 1
 5.996189e-01
<GCONST> 1.326416e+00
<TRANSP> 8
 0.000000e+00 1.000000e+00 0.000000e+00 0.000000e+00 0.000000e+00 0.000000e+00 0.000000e+00 0.000000e+00
 0.000000e+00 9.921426e-01 7.857477e-03 0.000000e+00 0.000000e+00 0.000000e+00 0.000000e+00 0.000000e+00
 0.000000e+00 0.000000e+00 9.408369e-01 5.916311e-02 0.000000e+00 0.000000e+00 0.000000e+00 0.000000e+00
 0.000000e+00 0.000000e+00 0.000000e+00 9.397898e-01 6.021013e-02 0.000000e+00 0.000000e+00 0.000000e+00
 0.000000e+00 0.000000e+00 0.000000e+00 0.000000e+00 9.092972e-01 9.070277e-02 0.000000e+00 0.000000e+00
 0.000000e+00 0.000000e+00 0.000000e+00 0.000000e+00 0.000000e+00 9.438387e-01 5.616129e-02 0.000000e+00
 0.000000e+00 0.000000e+00 0.000000e+00 0.000000e+00 0.000000e+00 0.000000e+00 9.527233e-01 4.727678e-02
 0.000000e+00 0.000000e+00 0.000000e+00 0.000000e+00 0.000000e+00 0.000000e+00 0.000000e+00 0.000000e+00
<ENDHMM>
~h "i"
<BEGINHMM>
<NUMSTATES> 8
<STATE> 2
<MEAN> 1
 -1.042341e+01
<VARIANCE> 1
 2.827460e-01
<GCONST> 5.746706e-01
<STATE> 3
<MEAN> 1
 -8.623545e+00
<VARIANCE> 1
 1.804949e+00
<GCONST> 2.428409e+00
<STATE> 4
<MEAN> 1
 -5.448612e+00
<VARIANCE> 1
 3.855917e+00
<GCONST> 3.187486e+00
<STATE> 5
<MEAN> 1
 -2.104454e+00
<VARIANCE> 1
 5.471823e-02
<GCONST> -1.067681e+00
<STATE> 6
<MEAN> 1
 -1.113018e+00
<VARIANCE> 1
 1.479261e-01
<GCONST> -7.316530e-02
<STATE> 7
<MEAN> 1
 -3.579620e-01
<VARIANCE> 1
 1.612728e-02
<GCONST> -2.289366e+00
<TRANSP> 8
 0.000000e+00 1.000000e+00 0.000000e+00 0.000000e+00 0.000000e+00 0.000000e+00 0.000000e+00 0.000000e+00
 0.000000e+00 9.859124e-01 1.408759e-02 0.000000e+00 0.000000e+00 0.000000e+00 0.000000e+00 0.000000e+00
 0.000000e+00 0.000000e+00 9.822078e-01 1.779218e-02 0.000000e+00 0.000000e+00 0.000000e+00 0.000000e+00
 0.000000e+00 0.000000e+00 0.000000e+00 9.399137e-01 6.008629e-02 0.000000e+00 0.000000e+00 0.000000e+00
 0.000000e+00 0.000000e+00 0.000000e+00 0.000000e+00 0.000000e+00 1.000000e+00 0.000000e+00 0.000000e+00
 0.000000e+00 0.000000e+00 0.000000e+00 0.000000e+00 0.000000e+00 6.987113e-01 3.012887e-01 0.000000e+00
 0.000000e+00 0.000000e+00 0.000000e+00 0.000000e+00 0.000000e+00 0.000000e+00 2.651343e-01 7.348657e-01
 0.000000e+00 0.000000e+00 0.000000e+00 0.000000e+00 0.000000e+00 0.000000e+00 0.000000e+00 0.000000e+00
<ENDHMM>
~h "m"
<BEGINHMM>
<NUMSTATES> 8
<STATE> 2
<MEAN> 1
 7.655444e-04
<VARIANCE> 1
 1.000000e-02
<GCONST> -2.767293e+00
<STATE> 3
<MEAN> 1
 8.904218e-01
<VARIANCE> 1
 5.063909e-02
<GCONST> -1.145154e+00
<STATE> 4
<MEAN> 1
 1.397290e+00
<VARIANCE> 1
 8.121188e-01
<GCONST> 1.629768e+00
<STATE> 5
<MEAN> 1
 3.256166e+00
<VARIANCE> 1
 5.947446e-01
<GCONST> 1.318254e+00
<STATE> 6
<MEAN> 1
 5.348244e+00
<VARIANCE> 1
 4.594933e-01
<GCONST> 1.060246e+00
<STATE> 7
<MEAN> 1
 8.103170e+00
<VARIANCE> 1
 1.161731e+00
<GCONST> 1.987788e+00
<TRANSP> 8
 0.000000e+00 1.000000e+00 0.000000e+00 0.000000e+00 0.000000e+00 0.000000e+00 0.000000e+00 0.000000e+00
 0.000000e+00 9.962289e-01 3.771155e-03 0.000000e+00 0.000000e+00 0.000000e+00 0.000000e+00 0.000000e+00
 0.000000e+00 0.000000e+00 9.224182e-01 7.758183e-02 0.000000e+00 0.000000e+00 0.000000e+00 0.000000e+00
 0.000000e+00 0.000000e+00 0.000000e+00 9.491222e-01 5.087786e-02 0.000000e+00 0.000000e+00 0.000000e+00
 0.000000e+00 0.000000e+00 0.000000e+00 0.000000e+00 9.384984e-01 6.150161e-02 0.000000e+00 0.000000e+00
 0.000000e+00 0.000000e+00 0.000000e+00 0.000000e+00 0.000000e+00 9.321887e-01 6.781130e-02 0.000000e+00
 0.000000e+00 0.000000e+00 0.000000e+00 0.000000e+00 0.000000e+00 0.000000e+00 9.459044e-01 5.409563e-02
 0.000000e+00 0.000000e+00 0.000000e+00 0.000000e+00 0.000000e+00 0.000000e+00 0.000000e+00 0.000000e+00
<ENDHMM>
~h "sil"
<BEGINHMM>
<NUMSTATES> 8
<STATE> 2
<MEAN> 1
 1.267938e+01
<VARIANCE> 1
 8.593431e+00
<GCONST> 3.988875e+00
<STATE> 3
<MEAN> 1
 1.069253e+01
<VARIANCE> 1
 6.622863e-01
<GCONST> 1.425820e+00
<STATE> 4
<MEAN> 1
 8.805549e+00
<VARIANCE> 1
 9.149305e-01
<GCONST> 1.748970e+00
<STATE> 5
<MEAN> 1
 7.297621e+00
<VARIANCE> 1
 1.469052e+00
<GCONST> 2.222494e+00
<STATE> 6
<MEAN> 1
 2.891243e+00
<VARIANCE> 1
 3.023095e+00
<GCONST> 2.944158e+00
<STATE> 7
<MEAN> 1
 6.256810e+00
<VARIANCE> 1
 1.099611e+00
<GCONST> 1.932833e+00
<TRANSP> 8
 0.000000e+00 1.000000e+00 0.000000e+00 0.000000e+00 0.000000e+00 0.000000e+00 0.000000e+00 0.000000e+00
 0.000000e+00 9.446226e-01 5.537733e-02 0.000000e+00 0.000000e+00 0.000000e+00 0.000000e+00 0.000000e+00
 0.000000e+00 0.000000e+00 9.829046e-01 1.709548e-02 0.000000e+00 0.000000e+00 0.000000e+00 0.000000e+00
 0.000000e+00 0.000000e+00 0.000000e+00 9.559031e-01 4.409683e-02 0.000000e+00 0.000000e+00 0.000000e+00
 0.000000e+00 0.000000e+00 0.000000e+00 0.000000e+00 8.953767e-01 1.046233e-01 0.000000e+00 0.000000e+00
 0.000000e+00 0.000000e+00 0.000000e+00 0.000000e+00 0.000000e+00 9.044834e-01 9.551658e-02 0.000000e+00
 0.000000e+00 0.000000e+00 0.000000e+00 0.000000e+00 0.000000e+00 0.000000e+00 9.400240e-01 5.997598e-02
 0.000000e+00 0.000000e+00 0.000000e+00 0.000000e+00 0.000000e+00 0.000000e+00 0.000000e+00 0.000000e+00
<ENDHMM>
