~o
<STREAMINFO> 1 3
<VECSIZE> 3<NULLD><USER><DIAGC>
~h "a"
<BEGINHMM>
<NUMSTATES> 8
<STATE> 2
<NUMMIXES> 2
<MIXTURE> 1 6.032797e-01
<MEAN> 3
 3.828126e+00 3.737463e+00 1.929657e+00
<VARIANCE> 3
 8.790378e+00 5.710610e+00 1.003432e+01
<GCONST> 1.173563e+01
<MIXTURE> 2 3.967200e-01
<MEAN> 3
 2.188163e-01 -5.463560e+01 -1.000000e+02
<VARIANCE> 3
 5.210658e-01 2.498862e+03 1.000000e-02
<GCONST> 8.080173e+00
<STATE> 3
<NUMMIXES> 2
<MIXTURE> 1 9.927924e-03
<MEAN> 3
 3.151552e+00 2.975563e+00 -2.138218e+01
<VARIANCE> 3
 8.672540e+00 8.953522e+00 1.841057e+03
<GCONST> 1.738394e+01
<MIXTURE> 2 9.900710e-01
<MEAN> 3
 -5.897000e-04 -1.000000e+02 -1.000000e+02
<VARIANCE> 3
 1.000000e-02 1.000000e-02 1.000000e-02
<GCONST> -8.301880e+00
<STATE> 4
<NUMMIXES> 2
<MIXTURE> 1 9.914292e-01
<MEAN> 3
 5.244903e+00 5.764178e+00 4.445299e+00
<VARIANCE> 3
 9.704721e+00 6.531300e+00 8.261703e+00
<GCONST> 1.177448e+01
<MIXTURE> 2 8.570796e-03
<MEAN> 3
 1.774038e-01 -5.459815e+01 -1.000000e+02
<VARIANCE> 3
 4.710744e-02 2.496591e+03 1.000000e-02
<GCONST> 5.675818e+00
<STATE> 5
<NUMMIXES> 2
<MIXTURE> 1 9.737153e-01
<MEAN> 3
 1.711185e+00 1.179506e-01 -5.754774e-01
<VARIANCE> 3
 5.651482e+00 3.558316e-01 4.043607e+01
<GCONST> 9.911974e+00
<MIXTURE> 2 2.628453e-02
<MEAN> 3
 8.840149e-02 -5.246886e+01 -1.000000e+02
<VARIANCE> 3
 1.405264e-02 2.520064e+03 1.000000e-02
<GCONST> 4.475556e+00
<STATE> 6
<NUMMIXES> 2
<MIXTURE> 1 9.901811e-01
<MEAN> 3
 4.692202e+00 9.183484e-01 1.285274e-03
<VARIANCE> 3
 9.267037e+00 3.078109e+00 1.000000e-02
<GCONST> 4.259240e+00
<MIXTURE> 2 9.818359e-03
<MEAN> 3
 3.515972e-02 -4.979721e+01 -1.000000e+02
<VARIANCE> 3
 1.000000e-02 2.522337e+03 1.000000e-02
<GCONST> 4.136231e+00
<STATE> 7
<NUMMIXES> 2
<MIXTURE> 1 9.558767e-02
<MEAN> 3
 2.064046e-02 -6.904522e+00 7.976753e-02
<VARIANCE> 3
 1.000000e-02 1.340703e+01 1.327470e-01
<GCONST> 1.484930e+00
<MIXTURE> 2 9.043931e-01
<MEAN> 3
 -7.426428e-04 -1.807846e+00 -1.000000e+02
<VARIANCE> 3
 1.000000e-02 4.825315e+01 1.000000e-02
<GCONST> 1.797519e-01
<TRANSP> 8
 0.000000e+00 1.000000e+00 0.000000e+00 0.000000e+00 0.000000e+00 0.000000e+00 0.000000e+00 0.000000e+00
 0.000000e+00 3.516523e-08 1.000000e+00 0.000000e+00 0.000000e+00 0.000000e+00 0.000000e+00 0.000000e+00
 0.000000e+00 0.000000e+00 9.873368e-01 1.266317e-02 0.000000e+00 0.000000e+00 0.000000e+00 0.000000e+00
 0.000000e+00 0.000000e+00 0.000000e+00 9.784224e-01 2.157762e-02 0.000000e+00 0.000000e+00 0.000000e+00
 0.000000e+00 0.000000e+00 0.000000e+00 0.000000e+00 9.363034e-01 6.369653e-02 0.000000e+00 0.000000e+00
 0.000000e+00 0.000000e+00 0.000000e+00 0.000000e+00 0.000000e+00 9.774292e-01 2.257080e-02 0.000000e+00
 0.000000e+00 0.000000e+00 0.000000e+00 0.000000e+00 0.000000e+00 0.000000e+00 9.834246e-01 1.657540e-02
 0.000000e+00 0.000000e+00 0.000000e+00 0.000000e+00 0.000000e+00 0.000000e+00 0.000000e+00 0.000000e+00
<ENDHMM>
~h "e"
<BEGINHMM>
<NUMSTATES> 8
<STATE> 2
<NUMMIXES> 2
<MIXTURE> 1 9.935742e-01
<MEAN> 3
 5.384549e-04 -9.410563e-04 -2.307992e-03
<VARIANCE> 3
 1.000000e-02 1.000000e-02 1.000000e-02
<GCONST> -8.301880e+00
<MIXTURE> 2 6.426354e-03
<MEAN> 3
 -1.346623e-01 -5.174825e+01 -1.000000e+02
<VARIANCE> 3
 2.487957e-02 2.272464e+03 1.000000e-02
<GCONST> 4.943373e+00
<STATE> 3
<NUMMIXES> 2
<MIXTURE> 1 9.919493e-01
<MEAN> 3
 -1.787514e-03 -2.977504e+00 -5.514196e+00
<VARIANCE> 3
 1.000000e-02 1.474880e+01 1.772102e+01
<GCONST> 6.474375e+00
<MIXTURE> 2 8.051275e-03
<MEAN> 3
 -2.379471e-01 -5.154966e+01 -1.000000e+02
<VARIANCE> 3
 6.043299e-02 2.272686e+03 1.000000e-02
<GCONST> 5.830958e+00
<STATE> 4
<NUMMIXES> 2
<MIXTURE> 1 9.771288e-01
<MEAN> 3
 -5.616494e+00 -3.131001e+00 -5.353322e-01
<VARIANCE> 3
 1.385382e+01 1.223182e+01 2.051597e+00
<GCONST> 1.136485e+01
<MIXTURE> 2 2.287194e-02
<MEAN> 3
 -3.759805e-01 -5.039309e+01 -1.000000e+02
<VARIANCE> 3
 1.420843e-01 2.272159e+03 1.000000e-02
<GCONST> 6.685612e+00
<STATE> 5
<NUMMIXES> 2
<MIXTURE> 1 9.654010e-01
<MEAN> 3
 -2.617751e+00 -7.819214e+00 -8.468811e+00
<VARIANCE> 3
 4.147542e+00 8.698832e+00 4.818849e+00
<GCONST> 1.067187e+01
<MIXTURE> 2 3.460006e-02
<MEAN> 3
 -5.556564e-01 -4.885403e+01 -1.000000e+02
<VARIANCE> 3
 3.385815e-01 2.269732e+03 1.000000e-02
<GCONST> 7.552888e+00
<STATE> 6
<NUMMIXES> 2
<MIXTURE> 1 3.153659e-02
<MEAN> 3
 -7.263453e+00 -2.756962e+00 -2.008737e-02
<VARIANCE> 3
 9.426258e+00 1.671706e+01 4.135523e+01
<GCONST> 1.429576e+01
<MIXTURE> 2 9.684616e-01
<MEAN> 3
 -7.538563e+00 -4.889971e+00 -1.000000e+02
<VARIANCE> 3
 9.994834e+00 5.922514e+01 1.000000e-02
<GCONST> 7.291875e+00
<STATE> 7
<NUMMIXES> 2
<MIXTURE> 1 9.862625e-01
<MEAN> 3
 -9.306386e+00 -9.250373e+00 -8.037583e+00
<VARIANCE> 3
 2.989524e+00 2.633572e+00 6.795330e+00
<GCONST> 9.493322e+00
<MIXTURE> 2 1.373691e-02
<MEAN> 3
 -2.095502e+00 -4.931571e+01 -1.000000e+02
<VARIANCE> 3
 5.010919e+00 2.392214e+03 1.000000e-02
<GCONST> 1.030006e+01
<TRANSP> 8
 0.000000e+00 1.000000e+00 0.000000e+00 0.000000e+00 0.000000e+00 0.000000e+00 0.000000e+00 0.000000e+00
 0.000000e+00 9.854302e-01 1.456972e-02 0.000000e+00 0.000000e+00 0.000000e+00 0.000000e+00 0.000000e+00
 0.000000e+00 0.000000e+00 9.818212e-01 1.817883e-02 0.000000e+00 0.000000e+00 0.000000e+00 0.000000e+00
 0.000000e+00 0.000000e+00 0.000000e+00 9.496061e-01 5.039402e-02 0.000000e+00 0.000000e+00 0.000000e+00
 0.000000e+00 0.000000e+00 0.000000e+00 0.000000e+00 9.262363e-01 7.376365e-02 0.000000e+00 0.000000e+00
 0.000000e+00 0.000000e+00 0.000000e+00 0.000000e+00 0.000000e+00 9.804743e-01 1.952571e-02 0.000000e+00
 0.000000e+00 0.000000e+00 0.000000e+00 0.000000e+00 0.000000e+00 0.000000e+00 9.695917e-01 3.040832e-02
 0.000000e+00 0.000000e+00 0.000000e+00 0.000000e+00 0.000000e+00 0.000000e+00 0.000000e+00 0.000000e+00
<ENDHMM>
~h "i"
<BEGINHMM>
<NUMSTATES> 8
<STATE> 2
<NUMMIXES> 2
<MIXTURE> 1 9.742689e-01
<MEAN> 3
 -1.893551e+00 -3.815437e+00 -8.310030e+00
<VARIANCE> 3
 1.241851e+01 1.848131e+01 8.493057e+00
<GCONST> 1.308883e+01
<MIXTURE> 2 2.573108e-02
<MEAN> 3
 -1.675882e+00 -4.922540e+01 -1.000000e+02
<VARIANCE> 3
 3.269866e+00 2.394228e+03 1.000000e-02
<GCONST> 9.874026e+00
<STATE> 3
<NUMMIXES> 2
<MIXTURE> 1 9.830886e-01
<MEAN> 3
 -7.966131e+00 -8.163712e+00 -5.189239e-03
<VARIANCE> 3
 9.158604e+00 7.422257e+00 1.000000e-02
<GCONST> 5.127638e+00
<MIXTURE> 2 1.691180e-02
<MEAN> 3
 -1.270747e+00 -4.923751e+01 -1.000000e+02
<VARIANCE> 3
 2.006364e+00 2.396836e+03 1.000000e-02
<GCONST> 9.386690e+00
<STATE> 4
<NUMMIXES> 2
<MIXTURE> 1 9.818207e-01
<MEAN> 3
 -7.791951e+00 -2.892731e-03 7.894405e-03
<VARIANCE> 3
 8.791678e+00 1.000000e-02 1.000000e-02
<GCONST> -1.522903e+00
<MIXTURE> 2 1.818011e-02
<MEAN> 3
 -9.489353e-01 -4.721720e+01 -1.000000e+02
<VARIANCE> 3
 1.183846e+00 2.396060e+03 1.000000e-02
<GCONST> 8.858811e+00
<STATE> 5
<NUMMIXES> 2
<MIXTURE> 1 9.931427e-01
<MEAN> 3
 -2.603439e-03 9.309236e-04 1.269255e-03
<VARIANCE> 3
 1.000000e-02 1.000000e-02 1.000000e-02
<GCONST> -8.301880e+00
<MIXTURE> 2 6.855958e-03
<MEAN> 3
 -6.175255e-01 -4.849499e+01 -1.000000e+02
<VARIANCE> 3
 7.140455e-01 2.401331e+03 1.000000e-02
<GCONST> 8.355431e+00
<STATE> 6
<NUMMIXES> 2
<MIXTURE> 1 9.392122e-01
<MEAN> 3
 -6.480217e+00 3.490430e-01 1.431863e+00
<VARIANCE> 3
 1.627738e+01 7.344111e-01 4.369205e+00
<GCONST> 9.469302e+00
<MIXTURE> 2 6.078781e-02
<MEAN> 3
 -3.852275e-01 -4.721005e+01 -1.000000e+02
<VARIANCE> 3
 4.354742e-01 2.399455e+03 1.000000e-02
<GCONST> 7.860138e+00
<STATE> 7
<NUMMIXES> 2
<MIXTURE> 1 9.573650e-01
<MEAN> 3
 4.826378e-04 2.322950e+00 5.130542e-01
<VARIANCE> 3
 1.000000e-02 3.669707e+00 1.444097e+00
<GCONST> 2.576057e+00
<MIXTURE> 2 4.263505e-02
<MEAN> 3
 -1.687389e-01 -4.813622e+01 -1.000000e+02
<VARIANCE> 3
 2.543260e-01 2.404031e+03 1.000000e-02
<GCONST> 7.324225e+00
<TRANSP> 8
 0.000000e+00 1.000000e+00 0.000000e+00 0.000000e+00 0.000000e+00 0.000000e+00 0.000000e+00 0.000000e+00
 0.000000e+00 9.431213e-01 5.687873e-02 0.000000e+00 0.000000e+00 0.000000e+00 0.000000e+00 0.000000e+00
 0.000000e+00 0.000000e+00 9.625854e-01 3.741452e-02 0.000000e+00 0.000000e+00 0.000000e+00 0.000000e+00
 0.000000e+00 0.000000e+00 0.000000e+00 9.614112e-01 3.858877e-02 0.000000e+00 0.000000e+00 0.000000e+00
 0.000000e+00 0.000000e+00 0.000000e+00 0.000000e+00 9.850461e-01 1.495394e-02 0.000000e+00 0.000000e+00
 0.000000e+00 0.000000e+00 0.000000e+00 0.000000e+00 0.000000e+00 8.708994e-01 1.291006e-01 0.000000e+00
 0.000000e+00 0.000000e+00 0.000000e+00 0.000000e+00 0.000000e+00 0.000000e+00 9.076346e-01 9.236539e-02
 0.000000e+00 0.000000e+00 0.000000e+00 0.000000e+00 0.000000e+00 0.000000e+00 0.000000e+00 0.000000e+00
<ENDHMM>
~h "m"
<BEGINHMM>
<NUMSTATES> 8
<STATE> 2
<NUMMIXES> 2
<MIXTURE> 1 2.573369e-02
<MEAN> 3
 -8.585989e-03 4.912012e+00 1.577968e+02
<VARIANCE> 3
 8.218914e-02 1.462869e+01 5.034835e+04
<GCONST> 1.652460e+01
<MIXTURE> 2 9.742677e-01
<MEAN> 3
 1.171452e-03 -3.029604e-01 -1.000000e+02
<VARIANCE> 3
 1.000000e-02 4.445734e+01 1.000000e-02
<GCONST> 9.782076e-02
<STATE> 3
<NUMMIXES> 2
<MIXTURE> 1 9.739921e-01
<MEAN> 3
 4.273459e-03 1.024300e-02 3.269836e+00
<VARIANCE> 3
 1.000000e-02 1.000000e-02 9.228782e+00
<GCONST> -1.474382e+00
<MIXTURE> 2 2.600548e-02
<MEAN> 3
 2.869218e-01 -4.154863e+01 -1.000000e+02
<VARIANCE> 3
 1.504570e-02 2.521369e+03 1.000000e-02
<GCONST> 4.544355e+00
<STATE> 4
<NUMMIXES> 2
<MIXTURE> 1 9.838947e-01
<MEAN> 3
 3.474059e+00 3.128337e+00 5.219085e-02
<VARIANCE> 3
 1.159611e+01 1.019312e+01 1.684122e-01
<GCONST> 8.504674e+00
<MIXTURE> 2 1.610356e-02
<MEAN> 3
 4.645426e-01 -4.161522e+01 -1.000000e+02
<VARIANCE> 3
 2.995793e-02 2.521156e+03 1.000000e-02
<GCONST> 5.232972e+00
<STATE> 5
<NUMMIXES> 2
<MIXTURE> 1 9.787779e-01
<MEAN> 3
 5.123428e-01 4.329404e+00 3.922073e+00
<VARIANCE> 3
 8.664664e-01 7.910314e+00 1.042828e+01
<GCONST> 9.782988e+00
<MIXTURE> 2 2.121896e-02
<MEAN> 3
 6.718563e-01 -4.136861e+01 -1.000000e+02
<VARIANCE> 3
 6.485651e-02 2.517130e+03 1.000000e-02
<GCONST> 6.003758e+00
<STATE> 6
<NUMMIXES> 2
<MIXTURE> 1 6.531247e-02
<MEAN> 3
 4.884140e+00 6.761375e+00 2.326866e+02
<VARIANCE> 3
 8.565789e+00 6.756145e+00 7.492471e+04
<GCONST> 2.079610e+01
<MIXTURE> 2 9.346845e-01
<MEAN> 3
 4.226078e+00 1.011334e+00 -1.000000e+02
<VARIANCE> 3
 8.333618e+00 5.213545e+01 1.000000e-02
<GCONST> 6.982604e+00
<STATE> 7
<NUMMIXES> 2
<MIXTURE> 1 2.510197e-02
<MEAN> 3
 6.384156e+00 3.106510e+02 2.193926e+02
<VARIANCE> 3
 8.781308e+00 7.139262e+04 2.100723e+04
<GCONST> 2.881483e+01
<MIXTURE> 2 9.748960e-01
<MEAN> 3
 -1.809119e+00 -1.000000e+02 -1.000000e+02
<VARIANCE> 3
 2.350041e+01 1.000000e-02 1.000000e-02
<GCONST> -5.396910e-01
<TRANSP> 8
 0.000000e+00 1.000000e+00 0.000000e+00 0.000000e+00 0.000000e+00 0.000000e+00 0.000000e+00 0.000000e+00
 0.000000e+00 9.830327e-01 1.696727e-02 0.000000e+00 0.000000e+00 0.000000e+00 0.000000e+00 0.000000e+00
 0.000000e+00 0.000000e+00 9.492683e-01 5.073165e-02 0.000000e+00 0.000000e+00 0.000000e+00 0.000000e+00
 0.000000e+00 0.000000e+00 0.000000e+00 9.685440e-01 3.145602e-02 0.000000e+00 0.000000e+00 0.000000e+00
 0.000000e+00 0.000000e+00 0.000000e+00 0.000000e+00 9.587934e-01 4.120654e-02 0.000000e+00 0.000000e+00
 0.000000e+00 0.000000e+00 0.000000e+00 0.000000e+00 0.000000e+00 9.810257e-01 1.897428e-02 0.000000e+00
 0.000000e+00 0.000000e+00 0.000000e+00 0.000000e+00 0.000000e+00 0.000000e+00 9.925020e-01 7.497984e-03
 0.000000e+00 0.000000e+00 0.000000e+00 0.000000e+00 0.000000e+00 0.000000e+00 0.000000e+00 0.000000e+00
<ENDHMM>
~h "sil"
<BEGINHMM>
<NUMSTATES> 8
<STATE> 2
<NUMMIXES> 2
<MIXTURE> 1 9.158462e-01
<MEAN> 3
 9.388777e+00 -7.791298e-05 1.907830e-03
<VARIANCE> 3
 5.004490e+00 1.000000e-02 1.000000e-02
<GCONST> -2.086374e+00
<MIXTURE> 2 8.415350e-02
<MEAN> 3
 7.481550e+00 -1.746438e+01 -1.669005e+01
<VARIANCE> 3
 7.135061e+00 9.845873e+02 1.001199e+03
<GCONST> 2.127983e+01
<STATE> 3
<NUMMIXES> 2
<MIXTURE> 1 9.210954e-01
<MEAN> 3
 9.739255e+00 2.119740e+00 1.264037e+00
<VARIANCE> 3
 2.959732e+00 2.636688e+00 1.587082e+00
<GCONST> 8.030150e+00
<MIXTURE> 2 7.890492e-02
<MEAN> 3
 3.999910e+00 -1.000000e+02 -1.000000e+02
<VARIANCE> 3
 3.735409e+00 1.000000e-02 1.000000e-02
<GCONST> -2.378852e+00
<STATE> 4
<NUMMIXES> 2
<MIXTURE> 1 8.174236e-02
<MEAN> 3
 7.308469e+00 -2.350779e+01 -2.099997e+01
<VARIANCE> 3
 1.286799e+01 1.982218e+03 2.124499e+03
<GCONST> 2.332164e+01
<MIXTURE> 2 9.182580e-01
<MEAN> 3
 7.735159e+00 5.328151e-03 3.785394e+00
<VARIANCE> 3
 1.483874e+01 1.000000e-02 9.870247e+00
<GCONST> 5.895227e+00
<STATE> 5
<NUMMIXES> 2
<MIXTURE> 1 3.332207e-02
<MEAN> 3
 5.304172e+00 -6.384774e+01 -6.285260e+01
<VARIANCE> 3
 9.552480e+00 2.341160e+03 2.474258e+03
<GCONST> 2.334253e+01
<MIXTURE> 2 9.666784e-01
<MEAN> 3
 6.560346e+00 4.879645e+00 2.059112e-03
<VARIANCE> 3
 6.250099e+00 7.328601e+00 1.000000e-02
<GCONST> 4.732843e+00
<STATE> 6
<NUMMIXES> 2
<MIXTURE> 1 4.323836e-02
<MEAN> 3
 4.096295e+00 -1.000000e+02 -1.000000e+02
<VARIANCE> 3
 3.808780e+00 1.000000e-02 1.000000e-02
<GCONST> -2.359400e+00
<MIXTURE> 2 9.567616e-01
<MEAN> 3
 6.145549e+00 1.464148e+00 4.147504e+00
<VARIANCE> 3
 5.855172e+00 1.318692e+00 6.954169e+00
<GCONST> 9.496939e+00
<STATE> 7
<NUMMIXES> 2
<MIXTURE> 1 9.528928e-02
<MEAN> 3
 4.980204e+00 -5.344810e+01 -5.354620e+01
<VARIANCE> 3
 7.136329e+00 2.656031e+03 2.647332e+03
<GCONST> 2.324472e+01
<MIXTURE> 2 9.047098e-01
<MEAN> 3
 5.611231e+00 1.897656e-03 -7.690073e+00
<VARIANCE> 3
 5.404146e+00 1.000000e-02 1.030754e+01
<GCONST> 4.928503e+00
<TRANSP> 8
 0.000000e+00 1.000000e+00 0.000000e+00 0.000000e+00 0.000000e+00 0.000000e+00 0.000000e+00 0.000000e+00
 0.000000e+00 9.791019e-01 2.089813e-02 0.000000e+00 0.000000e+00 0.000000e+00 0.000000e+00 0.000000e+00
 0.000000e+00 0.000000e+00 8.831993e-01 1.168006e-01 0.000000e+00 0.000000e+00 0.000000e+00 0.000000e+00
 0.000000e+00 0.000000e+00 0.000000e+00 9.586517e-01 4.134833e-02 0.000000e+00 0.000000e+00 0.000000e+00
 0.000000e+00 0.000000e+00 0.000000e+00 0.000000e+00 9.572310e-01 4.276904e-02 0.000000e+00 0.000000e+00
 0.000000e+00 0.000000e+00 0.000000e+00 0.000000e+00 0.000000e+00 9.258034e-01 7.419662e-02 0.000000e+00
 0.000000e+00 0.000000e+00 0.000000e+00 0.000000e+00 0.000000e+00 0.000000e+00 8.950515e-01 1.049485e-01
 0.000000e+00 0.000000e+00 0.000000e+00 0.000000e+00 0.000000e+00 0.000000e+00 0.000000e+00 0.000000e+00
<ENDHMM>
