~o
<STREAMINFO> 1 3
<VECSIZE> 3<NULLD><USER><DIAGC>
~h "a"
<BEGINHMM>
<NUMSTATES> 8
<STATE> 2
<NUMMIXES> 2
<MIXTURE> 1 9.771705e-01
<MEAN> 3
 5.783917e+00 4.250159e+00 4.539730e+00
<VARIANCE> 3
 9.360270e+00 7.911962e+00 6.747145e+00
<GCONST> 1.172760e+01
<MIXTURE> 2 2.282749e-02
<MEAN> 3
 3.657196e+00 -1.492906e+00 -1.000000e+02
<VARIANCE> 3
 1.298668e+01 9.995817e+00 1.000000e-02
<GCONST> 5.774551e+00
<STATE> 3
<NUMMIXES> 2
<MIXTURE> 1 9.865233e-01
<MEAN> 3
 3.678348e+00 4.515333e+00 3.023369e-03
<VARIANCE> 3
 9.752224e+00 8.543011e+00 1.000000e-02
<GCONST> 5.331070e+00
<MIXTURE> 2 1.347740e-02
<MEAN> 3
 4.138925e-01 -1.638114e+00 -1.000000e+02
<VARIANCE> 3
 2.142782e-01 7.534065e+00 1.000000e-02
<GCONST> 1.387416e+00
<STATE> 4
<NUMMIXES> 2
<MIXTURE> 1 9.897350e-01
<MEAN> 3
 4.542501e+00 2.722076e-03 2.992635e-04
<VARIANCE> 3
 8.513719e+00 1.000000e-02 1.000000e-02
<GCONST> -1.555030e+00
<MIXTURE> 2 1.026579e-02
<MEAN> 3
 2.435008e-01 -1.522137e+00 -1.000000e+02
<VARIANCE> 3
 8.123695e-02 6.362624e+00 1.000000e-02
<GCONST> 2.485170e-01
<STATE> 5
<NUMMIXES> 2
<MIXTURE> 1 9.581816e-01
<MEAN> 3
 1.319007e+00 -3.904387e+00 1.371260e-01
<VARIANCE> 3
 5.531122e+00 3.218048e+01 3.224027e+00
<GCONST> 1.186601e+01
<MIXTURE> 2 4.181837e-02
<MEAN> 3
 2.144489e-01 -1.389248e+00 -1.000000e+02
<VARIANCE> 3
 8.316709e-02 6.908243e+00 1.000000e-02
<GCONST> 3.542728e-01
<STATE> 6
<NUMMIXES> 2
<MIXTURE> 1 7.861987e-01
<MEAN> 3
 2.064750e-03 -4.554616e-04 -2.592811e-03
<VARIANCE> 3
 1.000000e-02 1.000000e-02 1.000000e-02
<GCONST> -8.301880e+00
<MIXTURE> 2 2.137799e-01
<MEAN> 3
 1.022717e-03 -6.834489e+00 -1.000000e+02
<VARIANCE> 3
 1.000000e-02 1.112997e+01 1.000000e-02
<GCONST> -1.287068e+00
<STATE> 7
<NUMMIXES> 2
<MIXTURE> 1 9.461232e-01
<MEAN> 3
 1.078560e-03 -2.347153e-01 -6.326127e-01
<VARIANCE> 3
 1.000000e-02 1.850697e-01 2.647707e-01
<GCONST> -2.107453e+00
<MIXTURE> 2 5.387675e-02
<MEAN> 3
 -5.369879e-02 -2.753444e+00 -1.000000e+02
<VARIANCE> 3
 1.377834e-02 2.035979e+01 1.000000e-02
<GCONST> -3.626347e-01
<TRANSP> 8
 0.000000e+00 1.000000e+00 0.000000e+00 0.000000e+00 0.000000e+00 0.000000e+00 0.000000e+00 0.000000e+00
 0.000000e+00 9.713198e-01 2.868020e-02 0.000000e+00 0.000000e+00 0.000000e+00 0.000000e+00 0.000000e+00
 0.000000e+00 0.000000e+00 9.683847e-01 3.161531e-02 0.000000e+00 0.000000e+00 0.000000e+00 0.000000e+00
 0.000000e+00 0.000000e+00 0.000000e+00 9.748752e-01 2.512481e-02 0.000000e+00 0.000000e+00 0.000000e+00
 0.000000e+00 0.000000e+00 0.000000e+00 0.000000e+00 9.135028e-01 8.649714e-02 0.000000e+00 0.000000e+00
 0.000000e+00 0.000000e+00 0.000000e+00 0.000000e+00 0.000000e+00 9.861528e-01 1.384724e-02 0.000000e+00
 0.000000e+00 0.000000e+00 0.000000e+00 0.000000e+00 0.000000e+00 0.000000e+00 8.872075e-01 1.127925e-01
 0.000000e+00 0.000000e+00 0.000000e+00 0.000000e+00 0.000000e+00 0.000000e+00 0.000000e+00 0.000000e+00
<ENDHMM>
~h "e"
<BEGINHMM>
<NUMSTATES> 8
<STATE> 2
<NUMMIXES> 2
<MIXTURE> 1 9.851347e-01
<MEAN> 3
 1.145194e-05 -4.566985e-03 -6.066580e+00
<VARIANCE> 3
 1.000000e-02 1.000000e-02 1.691601e+01
<GCONST> -8.684485e-01
<MIXTURE> 2 1.486506e-02
<MEAN> 3
 -1.629205e-01 -2.953484e+00 -1.000000e+02
<VARIANCE> 3
 3.292305e-02 1.937507e+01 1.000000e-02
<GCONST> 4.588661e-01
<STATE> 3
<NUMMIXES> 2
<MIXTURE> 1 1.695331e-01
<MEAN> 3
 -5.131763e-01 -1.542128e-01 -4.838601e+00
<VARIANCE> 3
 2.146238e-01 6.223407e-02 1.826056e+01
<GCONST> 4.102654e+00
<MIXTURE> 2 8.304647e-01
<MEAN> 3
 -1.381411e+00 -3.455851e+00 -1.000000e+02
<VARIANCE> 3
 8.758979e-01 1.626435e+01 1.000000e-02
<GCONST> 3.564931e+00
<STATE> 4
<NUMMIXES> 2
<MIXTURE> 1 9.851960e-01
<MEAN> 3
 -4.076388e-03 -5.884337e+00 -7.720486e+00
<VARIANCE> 3
 1.000000e-02 1.288748e+01 8.497574e+00
<GCONST> 5.604498e+00
<MIXTURE> 2 1.480385e-02
<MEAN> 3
 -1.992991e+00 -2.794233e+00 -1.000000e+02
<VARIANCE> 3
 3.402255e+00 1.671352e+01 1.000000e-02
<GCONST> 4.949118e+00
<STATE> 5
<NUMMIXES> 2
<MIXTURE> 1 1.264676e-01
<MEAN> 3
 -2.966198e+00 -2.023378e+00 -1.103525e+00
<VARIANCE> 3
 3.582213e+00 5.353004e+00 4.486265e+00
<GCONST> 9.968290e+00
<MIXTURE> 2 8.734978e-01
<MEAN> 3
 -8.584380e+00 -4.285978e+00 -1.000000e+02
<VARIANCE> 3
 4.272442e+00 1.986885e+01 1.000000e-02
<GCONST> 5.349800e+00
<STATE> 6
<NUMMIXES> 2
<MIXTURE> 1 9.436681e-01
<MEAN> 3
 -2.145563e+00 -8.072656e+00 -7.988283e+00
<VARIANCE> 3
 2.138770e+00 5.955625e+00 7.625197e+00
<GCONST> 1.008966e+01
<MIXTURE> 2 5.633231e-02
<MEAN> 3
 -2.533931e+00 -6.067171e-01 -1.000000e+02
<VARIANCE> 3
 5.215284e+00 8.811177e+00 1.000000e-02
<GCONST> 4.736075e+00
<STATE> 7
<NUMMIXES> 2
<MIXTURE> 1 9.875440e-01
<MEAN> 3
 -8.953794e+00 -8.313931e+00 -7.959408e+00
<VARIANCE> 3
 4.438107e+00 7.630961e+00 8.279221e+00
<GCONST> 1.114982e+01
<MIXTURE> 2 1.245710e-02
<MEAN> 3
 -1.858084e+00 -6.491086e-01 -1.000000e+02
<VARIANCE> 3
 3.470460e+00 8.218231e+00 1.000000e-02
<GCONST> 4.259103e+00
<TRANSP> 8
 0.000000e+00 1.000000e+00 0.000000e+00 0.000000e+00 0.000000e+00 0.000000e+00 0.000000e+00 0.000000e+00
 0.000000e+00 9.662334e-01 3.376661e-02 0.000000e+00 0.000000e+00 0.000000e+00 0.000000e+00 0.000000e+00
 0.000000e+00 0.000000e+00 8.867848e-01 1.132152e-01 0.000000e+00 0.000000e+00 0.000000e+00 0.000000e+00
 0.000000e+00 0.000000e+00 0.000000e+00 9.673933e-01 3.260664e-02 0.000000e+00 0.000000e+00 0.000000e+00
 0.000000e+00 0.000000e+00 0.000000e+00 0.000000e+00 9.792389e-01 2.076112e-02 0.000000e+00 0.000000e+00
 0.000000e+00 0.000000e+00 0.000000e+00 0.000000e+00 0.000000e+00 8.896916e-01 1.103084e-01 0.000000e+00
 0.000000e+00 0.000000e+00 0.000000e+00 0.000000e+00 0.000000e+00 0.000000e+00 9.723238e-01 2.767623e-02
 0.000000e+00 0.000000e+00 0.000000e+00 0.000000e+00 0.000000e+00 0.000000e+00 0.000000e+00 0.000000e+00
<ENDHMM>
~h "i"
<BEGINHMM>
<NUMSTATES> 8
<STATE> 2
<NUMMIXES> 2
<MIXTURE> 1 8.376244e-01
<MEAN> 3
 -3.434887e-01 -3.841115e+00 -6.635863e+00
<VARIANCE> 3
 5.402067e+00 1.932009e+01 1.785925e+01
<GCONST> 1.304408e+01
<MIXTURE> 2 1.623798e-01
<MEAN> 3
 -6.877267e-01 -4.835480e+00 -1.000000e+02
<VARIANCE> 3
 1.345492e+00 3.060138e+01 1.000000e-02
<GCONST> 4.626266e+00
<STATE> 3
<NUMMIXES> 2
<MIXTURE> 1 9.882502e-01
<MEAN> 3
 -6.135581e+00 -8.311543e+00 -3.023730e-03
<VARIANCE> 3
 1.711955e+01 6.700360e+00 1.000000e-02
<GCONST> 5.650844e+00
<MIXTURE> 2 1.175194e-02
<MEAN> 3
 -8.956046e-01 -2.945886e-01 -1.000000e+02
<VARIANCE> 3
 1.129907e+00 2.592148e+00 1.000000e-02
<GCONST> 1.983083e+00
<STATE> 4
<NUMMIXES> 2
<MIXTURE> 1 8.837848e-01
<MEAN> 3
 -5.674488e+00 -2.198086e-03 2.620652e+00
<VARIANCE> 3
 1.702233e+01 2.374181e-02 8.450299e+00
<GCONST> 6.741842e+00
<MIXTURE> 2 1.162138e-01
<MEAN> 3
 -3.826714e+00 3.624955e-01 -1.000000e+02
<VARIANCE> 3
 1.387035e+01 1.670923e+00 1.000000e-02
<GCONST> 4.051591e+00
<STATE> 5
<NUMMIXES> 2
<MIXTURE> 1 9.868252e-01
<MEAN> 3
 -8.202675e+00 -1.459637e-03 9.752183e-04
<VARIANCE> 3
 6.797818e+00 1.000000e-02 1.000000e-02
<GCONST> -1.780107e+00
<MIXTURE> 2 1.317513e-02
<MEAN> 3
 -3.636990e-01 -9.527795e-02 -1.000000e+02
<VARIANCE> 3
 1.927968e-01 1.253108e+00 1.000000e-02
<GCONST> -5.120311e-01
<STATE> 6
<NUMMIXES> 2
<MIXTURE> 1 9.043286e-01
<MEAN> 3
 -2.873935e+00 2.354529e+00 -1.352978e+00
<VARIANCE> 3
 1.652264e+01 7.466076e+00 1.441300e+01
<GCONST> 1.299686e+01
<MIXTURE> 2 9.567235e-02
<MEAN> 3
 -3.663782e-01 4.931978e-02 -1.000000e+02
<VARIANCE> 3
 1.496393e-01 1.025183e+00 1.000000e-02
<GCONST> -9.661951e-01
<STATE> 7
<NUMMIXES> 2
<MIXTURE> 1 4.170049e-01
<MEAN> 3
 -2.101067e-03 7.727283e-04 1.654267e-03
<VARIANCE> 3
 1.000000e-02 1.000000e-02 1.000000e-02
<GCONST> -8.301880e+00
<MIXTURE> 2 5.829358e-01
<MEAN> 3
 -3.610205e-04 -7.466577e-03 -1.000000e+02
<VARIANCE> 3
 1.000000e-02 3.189183e-02 1.000000e-02
<GCONST> -7.142115e+00
<TRANSP> 8
 0.000000e+00 1.000000e+00 0.000000e+00 0.000000e+00 0.000000e+00 0.000000e+00 0.000000e+00 0.000000e+00
 0.000000e+00 8.819696e-01 1.180303e-01 0.000000e+00 0.000000e+00 0.000000e+00 0.000000e+00 0.000000e+00
 0.000000e+00 0.000000e+00 9.738076e-01 2.619234e-02 0.000000e+00 0.000000e+00 0.000000e+00 0.000000e+00
 0.000000e+00 0.000000e+00 0.000000e+00 8.905278e-01 1.094722e-01 0.000000e+00 0.000000e+00 0.000000e+00
 0.000000e+00 0.000000e+00 0.000000e+00 0.000000e+00 9.718795e-01 2.812053e-02 0.000000e+00 0.000000e+00
 0.000000e+00 0.000000e+00 0.000000e+00 0.000000e+00 0.000000e+00 8.758906e-01 1.241094e-01 0.000000e+00
 0.000000e+00 0.000000e+00 0.000000e+00 0.000000e+00 0.000000e+00 0.000000e+00 9.931507e-01 6.849382e-03
 0.000000e+00 0.000000e+00 0.000000e+00 0.000000e+00 0.000000e+00 0.000000e+00 0.000000e+00 0.000000e+00
<ENDHMM>
~h "m"
<BEGINHMM>
<NUMSTATES> 8
<STATE> 2
<NUMMIXES> 2
<MIXTURE> 1 9.750482e-01
<MEAN> 3
 5.004385e-04 5.908212e-03 2.717452e+00
<VARIANCE> 3
 1.000000e-02 1.000000e-02 9.987765e+00
<GCONST> -1.395348e+00
<MIXTURE> 2 2.495025e-02
<MEAN> 3
 1.450784e-02 -1.257184e-01 -1.000000e+02
<VARIANCE> 3
 1.000000e-02 8.965694e-01 1.000000e-02
<GCONST> -3.805889e+00
<STATE> 3
<NUMMIXES> 2
<MIXTURE> 1 9.818668e-01
<MEAN> 3
 3.312113e-03 2.420306e+00 2.227983e+00
<VARIANCE> 3
 1.000000e-02 3.156348e+00 8.975307e+00
<GCONST> 4.252354e+00
<MIXTURE> 2 1.813873e-02
<MEAN> 3
 4.431516e-02 -1.473199e-01 -1.000000e+02
<VARIANCE> 3
 1.000000e-02 1.333707e+00 1.000000e-02
<GCONST> -3.408747e+00
<STATE> 4
<NUMMIXES> 2
<MIXTURE> 1 4.736061e-01
<MEAN> 3
 2.413301e+00 2.450151e-01 -2.415397e+00
<VARIANCE> 3
 3.280867e+00 4.169046e-01 2.604014e+01
<GCONST> 9.086480e+00
<MIXTURE> 2 5.263871e-01
<MEAN> 3
 6.941304e-03 3.920224e+00 -1.000000e+02
<VARIANCE> 3
 1.000000e-02 1.208674e+01 1.000000e-02
<GCONST> -1.204600e+00
<STATE> 5
<NUMMIXES> 2
<MIXTURE> 1 9.468682e-01
<MEAN> 3
 2.006259e+00 4.344201e+00 2.826445e+00
<VARIANCE> 3
 1.901918e+00 4.987005e+00 7.200058e+00
<GCONST> 9.737418e+00
<MIXTURE> 2 5.313153e-02
<MEAN> 3
 2.715832e-01 4.285395e-01 -1.000000e+02
<VARIANCE> 3
 6.455736e-02 5.660047e+00 1.000000e-02
<GCONST> -9.830809e-02
<STATE> 6
<NUMMIXES> 2
<MIXTURE> 1 8.558765e-03
<MEAN> 3
 1.764504e+00 2.768598e+00 7.152269e-01
<VARIANCE> 3
 4.082519e+00 6.217710e+00 1.865647e+00
<GCONST> 9.371356e+00
<MIXTURE> 2 9.914457e-01
<MEAN> 3
 3.728206e+00 1.396889e+00 -1.000000e+02
<VARIANCE> 3
 7.128404e+00 7.108613e+00 1.000000e-02
<GCONST> 4.833856e+00
<STATE> 7
<NUMMIXES> 2
<MIXTURE> 1 3.906723e-01
<MEAN> 3
 1.855661e+00 2.879087e+00 7.043493e-01
<VARIANCE> 3
 4.375055e+00 6.668715e+00 1.743950e+00
<GCONST> 9.443131e+00
<MIXTURE> 2 6.093286e-01
<MEAN> 3
 1.725506e+00 6.463470e-01 -1.000000e+02
<VARIANCE> 3
 6.466264e+00 1.038785e+01 1.000000e-02
<GCONST> 5.115697e+00
<TRANSP> 8
 0.000000e+00 1.000000e+00 0.000000e+00 0.000000e+00 0.000000e+00 0.000000e+00 0.000000e+00 0.000000e+00
 0.000000e+00 9.531277e-01 4.687227e-02 0.000000e+00 0.000000e+00 0.000000e+00 0.000000e+00 0.000000e+00
 0.000000e+00 0.000000e+00 9.626487e-01 3.735126e-02 0.000000e+00 0.000000e+00 0.000000e+00 0.000000e+00
 0.000000e+00 0.000000e+00 0.000000e+00 9.470735e-01 5.292654e-02 0.000000e+00 0.000000e+00 0.000000e+00
 0.000000e+00 0.000000e+00 0.000000e+00 0.000000e+00 9.194499e-01 8.055004e-02 0.000000e+00 0.000000e+00
 0.000000e+00 0.000000e+00 0.000000e+00 0.000000e+00 0.000000e+00 9.783331e-01 2.166684e-02 0.000000e+00
 0.000000e+00 0.000000e+00 0.000000e+00 0.000000e+00 0.000000e+00 0.000000e+00 5.183363e-03 9.948166e-01
 0.000000e+00 0.000000e+00 0.000000e+00 0.000000e+00 0.000000e+00 0.000000e+00 0.000000e+00 0.000000e+00
<ENDHMM>
~h "sil"
<BEGINHMM>
<NUMSTATES> 8
<STATE> 2
<NUMMIXES> 2
<MIXTURE> 1 9.281758e-01
<MEAN> 3
 9.393207e+00 3.188413e+00 1.104435e+00
<VARIANCE> 3
 6.824360e+00 6.355529e+00 3.242433e+00
<GCONST> 1.045978e+01
<MIXTURE> 2 7.182476e-02
<MEAN> 3
 4.949224e+00 -1.345314e+00 -5.491800e+01
<VARIANCE> 3
 1.012497e+01 4.387757e+01 2.340990e+03
<GCONST> 1.936837e+01
<STATE> 3
<NUMMIXES> 2
<MIXTURE> 1 3.763005e-02
<MEAN> 3
 4.843034e+00 3.390993e+00 -6.903636e+01
<VARIANCE> 3
 1.420173e+01 5.436504e+00 2.167497e+03
<GCONST> 1.754146e+01
<MIXTURE> 2 9.623696e-01
<MEAN> 3
 9.250700e+00 -4.031072e-04 3.913035e-03
<VARIANCE> 3
 3.165348e+00 1.000000e-02 1.000000e-02
<GCONST> -2.544446e+00
<STATE> 4
<NUMMIXES> 2
<MIXTURE> 1 2.268945e-02
<MEAN> 3
 4.249205e+00 4.107237e+00 -8.663983e+01
<VARIANCE> 3
 1.464305e+01 4.159811e+00 1.157373e+03
<GCONST> 1.667698e+01
<MIXTURE> 2 9.773104e-01
<MEAN> 3
 8.429501e+00 2.423531e-03 3.266643e+00
<VARIANCE> 3
 7.542501e+00 1.000000e-02 7.804152e+00
<GCONST> 4.983671e+00
<STATE> 5
<NUMMIXES> 2
<MIXTURE> 1 6.418416e-02
<MEAN> 3
 4.119307e+00 3.608130e+00 -8.837599e+01
<VARIANCE> 3
 1.455978e+01 6.621046e+01 1.050284e+03
<GCONST> 1.934155e+01
<MIXTURE> 2 9.358160e-01
<MEAN> 3
 6.134738e+00 9.713579e-03 -7.227744e+00
<VARIANCE> 3
 7.818704e+00 1.000000e-02 1.448571e+01
<GCONST> 5.638143e+00
<STATE> 6
<NUMMIXES> 2
<MIXTURE> 1 9.981181e-01
<MEAN> 3
 -1.017408e+00 -1.000000e+02 -1.000000e+02
<VARIANCE> 3
 1.539721e+01 1.000000e-02 1.000000e-02
<GCONST> -9.625225e-01
<MIXTURE> 2 1.881936e-03
<MEAN> 3
 8.626461e+00 1.231542e+00 2.205644e+00
<VARIANCE> 3
 5.941081e+00 2.544276e+00 3.549038e+00
<GCONST> 9.496045e+00
<STATE> 7
<NUMMIXES> 2
<MIXTURE> 1 9.389713e-01
<MEAN> 3
 8.646425e+00 4.446956e+00 2.857885e-03
<VARIANCE> 3
 1.149790e+01 1.010068e+01 1.000000e-02
<GCONST> 5.663228e+00
<MIXTURE> 2 6.102875e-02
<MEAN> 3
 5.266719e+00 -6.364660e+01 -6.267593e+01
<VARIANCE> 3
 9.100479e+00 2.357299e+03 2.485260e+03
<GCONST> 2.330536e+01
<TRANSP> 8
 0.000000e+00 1.000000e+00 0.000000e+00 0.000000e+00 0.000000e+00 0.000000e+00 0.000000e+00 0.000000e+00
 0.000000e+00 9.232893e-01 7.671069e-02 0.000000e+00 0.000000e+00 0.000000e+00 0.000000e+00 0.000000e+00
 0.000000e+00 0.000000e+00 9.479045e-01 5.209548e-02 0.000000e+00 0.000000e+00 0.000000e+00 0.000000e+00
 0.000000e+00 0.000000e+00 0.000000e+00 9.606943e-01 3.930576e-02 0.000000e+00 0.000000e+00 0.000000e+00
 0.000000e+00 0.000000e+00 0.000000e+00 0.000000e+00 8.862594e-01 1.137406e-01 0.000000e+00 0.000000e+00
 0.000000e+00 0.000000e+00 0.000000e+00 0.000000e+00 0.000000e+00 9.979999e-01 2.000113e-03 0.000000e+00
 0.000000e+00 0.000000e+00 0.000000e+00 0.000000e+00 0.000000e+00 0.000000e+00 9.217933e-01 7.820665e-02
 0.000000e+00 0.000000e+00 0.000000e+00 0.000000e+00 0.000000e+00 0.000000e+00 0.000000e+00 0.000000e+00
<ENDHMM>
