~o
<STREAMINFO> 1 1
<VECSIZE> 1<NULLD><USER><DIAGC>
~h "a"
<BEGINHMM>
<NUMSTATES> 8
<STATE> 2
<MEAN> 1
 3.157450e+00
<VARIANCE> 1
 3.154837e+00
<GCONST> 2.986814e+00
<STATE> 3
<MEAN> 1
 9.661269e+00
<VARIANCE> 1
 3.033825e+00
<GCONST> 2.947701e+00
<STATE> 4
<MEAN> 1
 3.907676e+00
<VARIANCE> 1
 3.789123e+00
<GCONST> 3.170012e+00
<STATE> 5
<MEAN> 1
 5.214379e+00
<VARIANCE> 1
 1.257717e+00
<GCONST> 2.067175e+00
<STATE> 6
<MEAN> 1
 1.763535e+00
<VARIANCE> 1
 9.408149e-01
<GCONST> 1.776868e+00
<STATE> 7
<MEAN> 1
 1.990059e-03
<VARIANCE> 1
 1.000000e-02
<GCONST> -2.767293e+00
<TRANSP> 8
 0.000000e+00 1.000000e+00 0.000000e+00 0.000000e+00 0.000000e+00 0.000000e+00 0.000000e+00 0.000000e+00
 0.000000e+00 9.443514e-01 5.564858e-02 0.000000e+00 0.000000e+00 0.000000e+00 0.000000e+00 0.000000e+00
 0.000000e+00 0.000000e+00 9.825346e-01 1.746535e-02 0.000000e+00 0.000000e+00 0.000000e+00 0.000000e+00
 0.000000e+00 0.000000e+00 0.000000e+00 7.781517e-01 2.218483e-01 0.000000e+00 0.000000e+00 0.000000e+00
 0.000000e+00 0.000000e+00 0.000000e+00 0.000000e+00 9.681785e-01 3.182153e-02 0.000000e+00 0.000000e+00
 0.000000e+00 0.000000e+00 0.000000e+00 0.000000e+00 0.000000e+00 9.523343e-01 4.766570e-02 0.000000e+00
 0.000000e+00 0.000000e+00 0.000000e+00 0.000000e+00 0.000000e+00 0.000000e+00 9.919260e-01 8.074096e-03
 0.000000e+00 0.000000e+00 0.000000e+00 0.000000e+00 0.000000e+00 0.000000e+00 0.000000e+00 0.000000e+00
<ENDHMM>
~h "e"
<BEGINHMM>
<NUMSTATES> 8
<STATE> 2
<MEAN> 1
 -1.409989e-03
<VARIANCE> 1
 1.000000e-02
<GCONST> -2.767293e+00
<STATE> 3
<MEAN> 1
 -7.930819e-01
<VARIANCE> 1
 1.437664e-01
<GCONST> -1.016883e-01
<STATE> 4
<MEAN> 1
 -2.462782e+00
<VARIANCE> 1
 7.881268e-01
<GCONST> 1.599781e+00
<STATE> 5
<MEAN> 1
 -4.977882e+00
<VARIANCE> 1
 3.238172e+00
<GCONST> 3.012886e+00
<STATE> 6
<MEAN> 1
 -5.913416e+00
<VARIANCE> 1
 4.600751e-01
<GCONST> 1.061512e+00
<STATE> 7
<MEAN> 1
 -8.691352e+00
<VARIANCE> 1
 9.176243e-01
<GCONST> 1.751910e+00
<TRANSP> 8
 0.000000e+00 1.000000e+00 0.000000e+00 0.000000e+00 0.000000e+00 0.000000e+00 0.000000e+00 0.000000e+00
 0.000000e+00 9.921846e-01 7.815294e-03 0.000000e+00 0.000000e+00 0.000000e+00 0.000000e+00 0.000000e+00
 0.000000e+00 0.000000e+00 9.422978e-01 5.770220e-02 0.000000e+00 0.000000e+00 0.000000e+00 0.000000e+00
 0.000000e+00 0.000000e+00 0.000000e+00 9.467195e-01 5.328054e-02 0.000000e+00 0.000000e+00 0.000000e+00
 0.000000e+00 0.000000e+00 0.000000e+00 0.000000e+00 8.692920e-01 1.307080e-01 0.000000e+00 0.000000e+00
 0.000000e+00 0.000000e+00 0.000000e+00 0.000000e+00 0.000000e+00 9.480951e-01 5.190494e-02 0.000000e+00
 0.000000e+00 0.000000e+00 0.000000e+00 0.000000e+00 0.000000e+00 0.000000e+00 9.675281e-01 3.247188e-02
 0.000000e+00 0.000000e+00 0.000000e+00 0.000000e+00 0.000000e+00 0.000000e+00 0.000000e+00 0.000000e+00
<ENDHMM>
~h "i"
<BEGINHMM>
<NUMSTATES> 8
<STATE> 2
<MEAN> 1
 -1.023104e+01
<VARIANCE> 1
 5.379142e-01
<GCONST> 1.217821e+00
<STATE> 3
<MEAN> 1
 -7.558033e+00
<VARIANCE> 1
 2.803621e+00
<GCONST> 2.868789e+00
<STATE> 4
<MEAN> 1
 -3.403319e+00
<VARIANCE> 1
 6.224615e-01
<GCONST> 1.363804e+00
<STATE> 5
<MEAN> 1
 -2.091264e+00
<VARIANCE> 1
 6.482992e-02
<GCONST> -8.981111e-01
<STATE> 6
<MEAN> 1
 -9.561970e-01
<VARIANCE> 1
 2.099434e-01
<GCONST> 2.769598e-01
<STATE> 7
<MEAN> 1
 -6.809618e-02
<VARIANCE> 1
 1.000000e-02
<GCONST> -2.767293e+00
<TRANSP> 8
 0.000000e+00 1.000000e+00 0.000000e+00 0.000000e+00 0.000000e+00 0.000000e+00 0.000000e+00 0.000000e+00
 0.000000e+00 9.886186e-01 1.138139e-02 0.000000e+00 0.000000e+00 0.000000e+00 0.000000e+00 0.000000e+00
 0.000000e+00 0.000000e+00 9.760553e-01 2.394461e-02 0.000000e+00 0.000000e+00 0.000000e+00 0.000000e+00
 0.000000e+00 0.000000e+00 0.000000e+00 7.429854e-01 2.570146e-01 0.000000e+00 0.000000e+00 0.000000e+00
 0.000000e+00 0.000000e+00 0.000000e+00 0.000000e+00 0.000000e+00 1.000000e+00 0.000000e+00 0.000000e+00
 0.000000e+00 0.000000e+00 0.000000e+00 0.000000e+00 0.000000e+00 7.667056e-01 2.332945e-01 0.000000e+00
 0.000000e+00 0.000000e+00 0.000000e+00 0.000000e+00 0.000000e+00 0.000000e+00 6.777838e-01 3.222162e-01
 0.000000e+00 0.000000e+00 0.000000e+00 0.000000e+00 0.000000e+00 0.000000e+00 0.000000e+00 0.000000e+00
<ENDHMM>
~h "m"
<BEGINHMM>
<NUMSTATES> 8
<STATE> 2
<MEAN> 1
 9.052263e-04
<VARIANCE> 1
 1.000000e-02
<GCONST> -2.767293e+00
<STATE> 3
<MEAN> 1
 9.138941e-01
<VARIANCE> 1
 8.240373e-02
<GCONST> -6.582475e-01
<STATE> 4
<MEAN> 1
 1.302363e+00
<VARIANCE> 1
 9.687130e-01
<GCONST> 1.806090e+00
<STATE> 5
<MEAN> 1
 2.814525e+00
<VARIANCE> 1
 4.653380e-01
<GCONST> 1.072886e+00
<STATE> 6
<MEAN> 1
 4.961652e+00
<VARIANCE> 1
 6.423891e-01
<GCONST> 1.395316e+00
<STATE> 7
<MEAN> 1
 7.595092e+00
<VARIANCE> 1
 1.205314e+00
<GCONST> 2.024617e+00
<TRANSP> 8
 0.000000e+00 1.000000e+00 0.000000e+00 0.000000e+00 0.000000e+00 0.000000e+00 0.000000e+00 0.000000e+00
 0.000000e+00 9.961855e-01 3.814521e-03 0.000000e+00 0.000000e+00 0.000000e+00 0.000000e+00 0.000000e+00
 0.000000e+00 0.000000e+00 9.311408e-01 6.885920e-02 0.000000e+00 0.000000e+00 0.000000e+00 0.000000e+00
 0.000000e+00 0.000000e+00 0.000000e+00 9.370839e-01 6.291614e-02 0.000000e+00 0.000000e+00 0.000000e+00
 0.000000e+00 0.000000e+00 0.000000e+00 0.000000e+00 9.297118e-01 7.028826e-02 0.000000e+00 0.000000e+00
 0.000000e+00 0.000000e+00 0.000000e+00 0.000000e+00 0.000000e+00 9.458352e-01 5.416482e-02 0.000000e+00
 0.000000e+00 0.000000e+00 0.000000e+00 0.000000e+00 0.000000e+00 0.000000e+00 9.482342e-01 5.176577e-02
 0.000000e+00 0.000000e+00 0.000000e+00 0.000000e+00 0.000000e+00 0.000000e+00 0.000000e+00 0.000000e+00
<ENDHMM>
~h "sil"
<BEGINHMM>
<NUMSTATES> 8
<STATE> 2
<MEAN> 1
 1.210705e+01
<VARIANCE> 1
 1.272465e+01
<GCONST> 4.381418e+00
<STATE> 3
<MEAN> 1
 1.083099e+01
<VARIANCE> 1
 6.076012e-01
<GCONST> 1.339640e+00
<STATE> 4
<MEAN> 1
 9.329447e+00
<VARIANCE> 1
 7.451946e-01
<GCONST> 1.543767e+00
<STATE> 5
<MEAN> 1
 7.528235e+00
<VARIANCE> 1
 1.134125e+00
<GCONST> 1.963739e+00
<STATE> 6
<MEAN> 1
 8.562276e+00
<VARIANCE> 1
 6.721815e+00
<GCONST> 3.743235e+00
<STATE> 7
<MEAN> 1
 5.444202e+00
<VARIANCE> 1
 2.141809e+00
<GCONST> 2.599528e+00
<TRANSP> 8
 0.000000e+00 1.000000e+00 0.000000e+00 0.000000e+00 0.000000e+00 0.000000e+00 0.000000e+00 0.000000e+00
 0.000000e+00 9.494231e-01 5.057684e-02 0.000000e+00 0.000000e+00 0.000000e+00 0.000000e+00 0.000000e+00
 0.000000e+00 0.000000e+00 9.801434e-01 1.985655e-02 0.000000e+00 0.000000e+00 0.000000e+00 0.000000e+00
 0.000000e+00 0.000000e+00 0.000000e+00 9.602034e-01 3.979659e-02 0.000000e+00 0.000000e+00 0.000000e+00
 0.000000e+00 0.000000e+00 0.000000e+00 0.000000e+00 9.335855e-01 6.641456e-02 0.000000e+00 0.000000e+00
 0.000000e+00 0.000000e+00 0.000000e+00 0.000000e+00 0.000000e+00 7.311828e-01 2.688172e-01 0.000000e+00
 0.000000e+00 0.000000e+00 0.000000e+00 0.000000e+00 0.000000e+00 0.000000e+00 9.229765e-01 7.702348e-02
 0.000000e+00 0.000000e+00 0.000000e+00 0.000000e+00 0.000000e+00 0.000000e+00 0.000000e+00 0.000000e+00
<ENDHMM>
