~o
<STREAMINFO> 1 3
<VECSIZE> 3<NULLD><USER><DIAGC>
~h "a"
<BEGINHMM>
<NUMSTATES> 8
<STATE> 2
<NUMMIXES> 2
<MIXTURE> 1 6.033311e-01
<MEAN> 3
 4.021368e+00 3.366614e+00 2.028860e+00
<VARIANCE> 3
 1.053051e+01 4.833322e+00 9.600572e+00
<GCONST> 1.170527e+01
<MIXTURE> 2 3.966684e-01
<MEAN> 3
 3.615569e-01 -5.457053e+01 -1.000000e+02
<VARIANCE> 3
 8.180509e-01 2.502155e+03 1.000000e-02
<GCONST> 8.532538e+00
<STATE> 3
<NUMMIXES> 2
<MIXTURE> 1 9.953867e-03
<MEAN> 3
 3.350034e+00 2.682237e+00 -2.128098e+01
<VARIANCE> 3
 9.934879e+00 7.656238e+00 1.840996e+03
<GCONST> 1.736327e+01
<MIXTURE> 2 9.900485e-01
<MEAN> 3
 -6.003551e-04 -1.000000e+02 -1.000000e+02
<VARIANCE> 3
 1.000000e-02 1.000000e-02 1.000000e-02
<GCONST> -8.301880e+00
<STATE> 4
<NUMMIXES> 2
<MIXTURE> 1 9.910393e-01
<MEAN> 3
 5.509852e+00 5.803359e+00 4.404198e+00
<VARIANCE> 3
 1.006338e+01 6.361778e+00 8.485929e+00
<GCONST> 1.181125e+01
<MIXTURE> 2 8.960512e-03
<MEAN> 3
 2.922628e-01 -5.397849e+01 -1.000000e+02
<VARIANCE> 3
 1.254012e-01 2.512549e+03 1.000000e-02
<GCONST> 6.661277e+00
<STATE> 5
<NUMMIXES> 2
<MIXTURE> 1 9.738951e-01
<MEAN> 3
 1.685795e+00 1.081532e-01 -6.549538e-01
<VARIANCE> 3
 5.574475e+00 3.280574e-01 3.966967e+01
<GCONST> 9.797850e+00
<MIXTURE> 2 2.610469e-02
<MEAN> 3
 1.706422e-01 -5.178640e+01 -1.000000e+02
<VARIANCE> 3
 4.692079e-02 2.532247e+03 1.000000e-02
<GCONST> 5.686029e+00
<STATE> 6
<NUMMIXES> 2
<MIXTURE> 1 9.901021e-01
<MEAN> 3
 4.700326e+00 8.859444e-01 1.259754e-03
<VARIANCE> 3
 9.306727e+00 2.977618e+00 1.000000e-02
<GCONST> 4.230322e+00
<MIXTURE> 2 9.898456e-03
<MEAN> 3
 8.206815e-02 -4.976178e+01 -1.000000e+02
<VARIANCE> 3
 1.399259e-02 2.523794e+03 1.000000e-02
<GCONST> 4.472753e+00
<STATE> 7
<NUMMIXES> 2
<MIXTURE> 1 8.047499e-02
<MEAN> 3
 2.989397e-02 -6.757839e+00 9.598974e-02
<VARIANCE> 3
 1.388371e-02 1.331182e+01 1.580924e-01
<GCONST> 1.980669e+00
<MIXTURE> 2 9.195231e-01
<MEAN> 3
 -6.879836e-04 -1.806410e+00 -1.000000e+02
<VARIANCE> 3
 1.000000e-02 4.812173e+01 1.000000e-02
<GCONST> 1.770248e-01
<TRANSP> 8
 0.000000e+00 1.000000e+00 0.000000e+00 0.000000e+00 0.000000e+00 0.000000e+00 0.000000e+00 0.000000e+00
 0.000000e+00 8.365971e-04 9.991634e-01 0.000000e+00 0.000000e+00 0.000000e+00 0.000000e+00 0.000000e+00
 0.000000e+00 0.000000e+00 9.873283e-01 1.267172e-02 0.000000e+00 0.000000e+00 0.000000e+00 0.000000e+00
 0.000000e+00 0.000000e+00 0.000000e+00 9.776549e-01 2.234511e-02 0.000000e+00 0.000000e+00 0.000000e+00
 0.000000e+00 0.000000e+00 0.000000e+00 0.000000e+00 9.374519e-01 6.254812e-02 0.000000e+00 0.000000e+00
 0.000000e+00 0.000000e+00 0.000000e+00 0.000000e+00 0.000000e+00 9.772539e-01 2.274613e-02 0.000000e+00
 0.000000e+00 0.000000e+00 0.000000e+00 0.000000e+00 0.000000e+00 0.000000e+00 9.832194e-01 1.678057e-02
 0.000000e+00 0.000000e+00 0.000000e+00 0.000000e+00 0.000000e+00 0.000000e+00 0.000000e+00 0.000000e+00
<ENDHMM>
~h "e"
<BEGINHMM>
<NUMSTATES> 8
<STATE> 2
<NUMMIXES> 2
<MIXTURE> 1 9.935789e-01
<MEAN> 3
 8.827485e-04 -9.454526e-04 -2.311533e-03
<VARIANCE> 3
 1.000000e-02 1.000000e-02 1.000000e-02
<GCONST> -8.301880e+00
<MIXTURE> 2 6.421515e-03
<MEAN> 3
 -1.658961e-01 -5.162954e+01 -1.000000e+02
<VARIANCE> 3
 3.182225e-02 2.272416e+03 1.000000e-02
<GCONST> 5.189470e+00
<STATE> 3
<NUMMIXES> 2
<MIXTURE> 1 9.919476e-01
<MEAN> 3
 -1.890813e-03 -3.103621e+00 -5.585954e+00
<VARIANCE> 3
 1.000000e-02 1.524725e+01 1.603303e+01
<GCONST> 6.407511e+00
<MIXTURE> 2 8.051964e-03
<MEAN> 3
 -2.795357e-01 -5.137204e+01 -1.000000e+02
<VARIANCE> 3
 8.087617e-02 2.272620e+03 1.000000e-02
<GCONST> 6.122313e+00
<STATE> 4
<NUMMIXES> 2
<MIXTURE> 1 9.768358e-01
<MEAN> 3
 -5.562468e+00 -2.642387e+00 -4.783711e-01
<VARIANCE> 3
 1.398366e+01 1.012727e+01 2.104625e+00
<GCONST> 1.121089e+01
<MIXTURE> 2 2.316480e-02
<MEAN> 3
 -4.290457e-01 -4.994478e+01 -1.000000e+02
<VARIANCE> 3
 1.874750e-01 2.270930e+03 1.000000e-02
<GCONST> 6.962296e+00
<STATE> 5
<NUMMIXES> 2
<MIXTURE> 1 9.684101e-01
<MEAN> 3
 -2.946136e+00 -7.979285e+00 -8.474913e+00
<VARIANCE> 3
 4.892038e+00 8.260738e+00 4.972433e+00
<GCONST> 1.081666e+01
<MIXTURE> 2 3.159052e-02
<MEAN> 3
 -6.055362e-01 -4.867434e+01 -1.000000e+02
<VARIANCE> 3
 4.304479e-01 2.272645e+03 1.000000e-02
<GCONST> 7.794232e+00
<STATE> 6
<NUMMIXES> 2
<MIXTURE> 1 3.172692e-02
<MEAN> 3
 -7.157502e+00 -2.786964e+00 6.755871e-02
<VARIANCE> 3
 1.002312e+01 1.680989e+01 4.076854e+01
<GCONST> 1.434840e+01
<MIXTURE> 2 9.682723e-01
<MEAN> 3
 -7.546999e+00 -4.888313e+00 -1.000000e+02
<VARIANCE> 3
 9.957882e+00 5.928875e+01 1.000000e-02
<GCONST> 7.289245e+00
<STATE> 7
<NUMMIXES> 2
<MIXTURE> 1 9.856572e-01
<MEAN> 3
 -9.490550e+00 -9.271178e+00 -7.751034e+00
<VARIANCE> 3
 2.379014e+00 2.583767e+00 8.184278e+00
<GCONST> 9.431781e+00
<MIXTURE> 2 1.434351e-02
<MEAN> 3
 -2.089149e+00 -4.872061e+01 -1.000000e+02
<VARIANCE> 3
 5.093776e+00 2.392887e+03 1.000000e-02
<GCONST> 1.031674e+01
<TRANSP> 8
 0.000000e+00 1.000000e+00 0.000000e+00 0.000000e+00 0.000000e+00 0.000000e+00 0.000000e+00 0.000000e+00
 0.000000e+00 9.854776e-01 1.452241e-02 0.000000e+00 0.000000e+00 0.000000e+00 0.000000e+00 0.000000e+00
 0.000000e+00 0.000000e+00 9.818876e-01 1.811244e-02 0.000000e+00 0.000000e+00 0.000000e+00 0.000000e+00
 0.000000e+00 0.000000e+00 0.000000e+00 9.494541e-01 5.054592e-02 0.000000e+00 0.000000e+00 0.000000e+00
 0.000000e+00 0.000000e+00 0.000000e+00 0.000000e+00 9.328594e-01 6.714062e-02 0.000000e+00 0.000000e+00
 0.000000e+00 0.000000e+00 0.000000e+00 0.000000e+00 0.000000e+00 9.804519e-01 1.954810e-02 0.000000e+00
 0.000000e+00 0.000000e+00 0.000000e+00 0.000000e+00 0.000000e+00 0.000000e+00 9.686282e-01 3.137177e-02
 0.000000e+00 0.000000e+00 0.000000e+00 0.000000e+00 0.000000e+00 0.000000e+00 0.000000e+00 0.000000e+00
<ENDHMM>
~h "i"
<BEGINHMM>
<NUMSTATES> 8
<STATE> 2
<NUMMIXES> 2
<MIXTURE> 1 9.748021e-01
<MEAN> 3
 -2.076872e+00 -4.007647e+00 -8.403676e+00
<VARIANCE> 3
 1.306628e+01 1.875918e+01 7.984946e+00
<GCONST> 1.309291e+01
<MIXTURE> 2 2.519928e-02
<MEAN> 3
 -1.671233e+00 -4.863439e+01 -1.000000e+02
<VARIANCE> 3
 3.283376e+00 2.394871e+03 1.000000e-02
<GCONST> 9.878418e+00
<STATE> 3
<NUMMIXES> 2
<MIXTURE> 1 9.828552e-01
<MEAN> 3
 -7.973428e+00 -8.164929e+00 -5.048206e-03
<VARIANCE> 3
 9.117709e+00 7.399224e+00 1.000000e-02
<GCONST> 5.120055e+00
<MIXTURE> 2 1.714801e-02
<MEAN> 3
 -1.266004e+00 -4.863659e+01 -1.000000e+02
<VARIANCE> 3
 1.960401e+00 2.397573e+03 1.000000e-02
<GCONST> 9.363822e+00
<STATE> 4
<NUMMIXES> 2
<MIXTURE> 1 9.816405e-01
<MEAN> 3
 -7.796345e+00 -3.421910e-03 7.992020e-03
<VARIANCE> 3
 8.765933e+00 1.000000e-02 1.000000e-02
<GCONST> -1.525836e+00
<MIXTURE> 2 1.835805e-02
<MEAN> 3
 -9.393007e-01 -4.676722e+01 -1.000000e+02
<VARIANCE> 3
 1.096930e+00 2.395046e+03 1.000000e-02
<GCONST> 8.782134e+00
<STATE> 5
<NUMMIXES> 2
<MIXTURE> 1 9.930568e-01
<MEAN> 3
 -2.293244e-03 5.480170e-04 1.444562e-03
<VARIANCE> 3
 1.000000e-02 1.000000e-02 1.000000e-02
<GCONST> -8.301880e+00
<MIXTURE> 2 6.943110e-03
<MEAN> 3
 -6.067662e-01 -4.789609e+01 -1.000000e+02
<VARIANCE> 3
 5.918013e-01 2.401181e+03 1.000000e-02
<GCONST> 8.167592e+00
<STATE> 6
<NUMMIXES> 2
<MIXTURE> 1 9.505399e-01
<MEAN> 3
 -2.659142e+00 1.454864e+00 1.200767e+00
<VARIANCE> 3
 1.682723e+01 3.561124e+00 3.559555e+00
<GCONST> 1.087634e+01
<MIXTURE> 2 4.946214e-02
<MEAN> 3
 -3.828981e-01 -4.626318e+01 -1.000000e+02
<VARIANCE> 3
 3.210441e-01 2.395696e+03 1.000000e-02
<GCONST> 7.553714e+00
<STATE> 7
<NUMMIXES> 2
<MIXTURE> 1 5.835299e-01
<MEAN> 3
 -1.851722e-02 3.779367e-01 2.372824e+00
<VARIANCE> 3
 1.394547e-01 7.595612e-01 8.414332e+01
<GCONST> 7.701123e+00
<MIXTURE> 2 4.164696e-01
<MEAN> 3
 -1.204424e-01 -4.806661e+01 -1.000000e+02
<VARIANCE> 3
 3.441851e-02 2.399385e+03 1.000000e-02
<GCONST> 5.322268e+00
<TRANSP> 8
 0.000000e+00 1.000000e+00 0.000000e+00 0.000000e+00 0.000000e+00 0.000000e+00 0.000000e+00 0.000000e+00
 0.000000e+00 9.449579e-01 5.504212e-02 0.000000e+00 0.000000e+00 0.000000e+00 0.000000e+00 0.000000e+00
 0.000000e+00 0.000000e+00 9.625201e-01 3.747987e-02 0.000000e+00 0.000000e+00 0.000000e+00 0.000000e+00
 0.000000e+00 0.000000e+00 0.000000e+00 9.613984e-01 3.860160e-02 0.000000e+00 0.000000e+00 0.000000e+00
 0.000000e+00 0.000000e+00 0.000000e+00 0.000000e+00 9.850406e-01 1.495944e-02 0.000000e+00 0.000000e+00
 0.000000e+00 0.000000e+00 0.000000e+00 0.000000e+00 0.000000e+00 8.970478e-01 1.029522e-01 0.000000e+00
 0.000000e+00 0.000000e+00 0.000000e+00 0.000000e+00 0.000000e+00 0.000000e+00 9.980614e-02 9.001939e-01
 0.000000e+00 0.000000e+00 0.000000e+00 0.000000e+00 0.000000e+00 0.000000e+00 0.000000e+00 0.000000e+00
<ENDHMM>
~h "m"
<BEGINHMM>
<NUMSTATES> 8
<STATE> 2
<NUMMIXES> 2
<MIXTURE> 1 2.185856e-02
<MEAN> 3
 2.957553e-03 4.760005e+00 1.065999e+02
<VARIANCE> 3
 5.457401e-02 1.630529e+01 1.439843e+04
<GCONST> 1.497180e+01
<MIXTURE> 2 9.781383e-01
<MEAN> 3
 8.386557e-04 -3.539703e-01 -1.000000e+02
<VARIANCE> 3
 1.000000e-02 4.463380e+01 1.000000e-02
<GCONST> 1.017818e-01
<STATE> 3
<NUMMIXES> 2
<MIXTURE> 1 9.762682e-01
<MEAN> 3
 3.407166e-03 9.145649e-03 3.428133e+00
<VARIANCE> 3
 1.000000e-02 1.000000e-02 9.388567e+00
<GCONST> -1.457217e+00
<MIXTURE> 2 2.373155e-02
<MEAN> 3
 2.526420e-01 -4.295786e+01 -1.000000e+02
<VARIANCE> 3
 1.103479e-02 2.527316e+03 1.000000e-02
<GCONST> 4.236672e+00
<STATE> 4
<NUMMIXES> 2
<MIXTURE> 1 9.872829e-01
<MEAN> 3
 2.481589e+00 3.065942e+00 8.340929e-02
<VARIANCE> 3
 1.682763e+01 9.131107e+00 1.754940e-01
<GCONST> 8.808190e+00
<MIXTURE> 2 1.271605e-02
<MEAN> 3
 4.230139e-01 -4.288548e+01 -1.000000e+02
<VARIANCE> 3
 2.564677e-02 2.526240e+03 1.000000e-02
<GCONST> 5.079610e+00
<STATE> 5
<NUMMIXES> 2
<MIXTURE> 1 9.814152e-01
<MEAN> 3
 8.825743e-01 4.357208e+00 4.137866e+00
<VARIANCE> 3
 2.114809e+00 8.117890e+00 9.341379e+00
<GCONST> 1.059112e+01
<MIXTURE> 2 1.858472e-02
<MEAN> 3
 6.260562e-01 -4.261328e+01 -1.000000e+02
<VARIANCE> 3
 6.223553e-02 2.523432e+03 1.000000e-02
<GCONST> 5.965007e+00
<STATE> 6
<NUMMIXES> 2
<MIXTURE> 1 5.289561e-02
<MEAN> 3
 4.436321e+00 6.721715e+00 3.242013e+02
<VARIANCE> 3
 9.991771e+00 6.979831e+00 8.418509e+04
<GCONST> 2.109919e+01
<MIXTURE> 2 9.471077e-01
<MEAN> 3
 4.183417e+00 1.059305e+00 -1.000000e+02
<VARIANCE> 3
 8.446236e+00 5.186869e+01 1.000000e-02
<GCONST> 6.990897e+00
<STATE> 7
<NUMMIXES> 2
<MIXTURE> 1 2.507005e-02
<MEAN> 3
 6.422932e+00 3.106186e+02 2.197954e+02
<VARIANCE> 3
 8.594584e+00 7.141070e+04 2.084384e+04
<GCONST> 2.878578e+01
<MIXTURE> 2 9.749279e-01
<MEAN> 3
 -1.802664e+00 -1.000000e+02 -1.000000e+02
<VARIANCE> 3
 2.350868e+01 1.000000e-02 1.000000e-02
<GCONST> -5.393391e-01
<TRANSP> 8
 0.000000e+00 1.000000e+00 0.000000e+00 0.000000e+00 0.000000e+00 0.000000e+00 0.000000e+00 0.000000e+00
 0.000000e+00 9.827784e-01 1.722155e-02 0.000000e+00 0.000000e+00 0.000000e+00 0.000000e+00 0.000000e+00
 0.000000e+00 0.000000e+00 9.523246e-01 4.767533e-02 0.000000e+00 0.000000e+00 0.000000e+00 0.000000e+00
 0.000000e+00 0.000000e+00 0.000000e+00 9.744969e-01 2.550308e-02 0.000000e+00 0.000000e+00 0.000000e+00
 0.000000e+00 0.000000e+00 0.000000e+00 0.000000e+00 9.629531e-01 3.704692e-02 0.000000e+00 0.000000e+00
 0.000000e+00 0.000000e+00 0.000000e+00 0.000000e+00 0.000000e+00 9.809473e-01 1.905276e-02 0.000000e+00
 0.000000e+00 0.000000e+00 0.000000e+00 0.000000e+00 0.000000e+00 0.000000e+00 9.925116e-01 7.488471e-03
 0.000000e+00 0.000000e+00 0.000000e+00 0.000000e+00 0.000000e+00 0.000000e+00 0.000000e+00 0.000000e+00
<ENDHMM>
~h "sil"
<BEGINHMM>
<NUMSTATES> 8
<STATE> 2
<NUMMIXES> 2
<MIXTURE> 1 9.146380e-01
<MEAN> 3
 9.383362e+00 -2.233496e-04 1.737733e-03
<VARIANCE> 3
 5.034706e+00 1.000000e-02 1.000000e-02
<GCONST> -2.080354e+00
<MIXTURE> 2 8.536183e-02
<MEAN> 3
 7.495145e+00 -1.710398e+01 -1.645866e+01
<VARIANCE> 3
 7.022279e+00 9.787769e+02 9.900399e+02
<GCONST> 2.124677e+01
<STATE> 3
<NUMMIXES> 2
<MIXTURE> 1 7.049417e-01
<MEAN> 3
 9.909489e+00 1.569553e+00 -1.526370e-03
<VARIANCE> 3
 3.342278e+00 3.075405e+00 8.277391e-01
<GCONST> 7.654663e+00
<MIXTURE> 2 2.950583e-01
<MEAN> 3
 3.936707e+00 -8.952689e+01 -8.957943e+01
<VARIANCE> 3
 4.370029e+00 9.508541e+02 9.411647e+02
<GCONST> 2.069288e+01
<STATE> 4
<NUMMIXES> 2
<MIXTURE> 1 8.600431e-02
<MEAN> 3
 7.486340e+00 -2.149242e+01 -1.911901e+01
<VARIANCE> 3
 1.220124e+01 1.865325e+03 1.990361e+03
<GCONST> 2.314243e+01
<MIXTURE> 2 9.139971e-01
<MEAN> 3
 7.874105e+00 5.612311e-03 3.682973e+00
<VARIANCE> 3
 1.394061e+01 1.000000e-02 9.822870e+00
<GCONST> 5.827981e+00
<STATE> 5
<NUMMIXES> 2
<MIXTURE> 1 3.211629e-02
<MEAN> 3
 5.284479e+00 -6.463714e+01 -6.378818e+01
<VARIANCE> 3
 9.239562e+00 2.309770e+03 2.425384e+03
<GCONST> 2.327577e+01
<MIXTURE> 2 9.678840e-01
<MEAN> 3
 6.747814e+00 4.785236e+00 2.203401e-03
<VARIANCE> 3
 7.261281e+00 7.385976e+00 1.000000e-02
<GCONST> 4.890600e+00
<STATE> 6
<NUMMIXES> 2
<MIXTURE> 1 3.944761e-02
<MEAN> 3
 4.520156e+00 -8.142339e+01 -8.264601e+01
<VARIANCE> 3
 5.505480e+00 1.613545e+03 1.408334e+03
<GCONST> 2.185573e+01
<MIXTURE> 2 9.605516e-01
<MEAN> 3
 6.464510e+00 1.390131e+00 3.707201e+00
<VARIANCE> 3
 6.446645e+00 9.802489e-01 6.388900e+00
<GCONST> 9.211804e+00
<STATE> 7
<NUMMIXES> 2
<MIXTURE> 1 9.529173e-02
<MEAN> 3
 5.136742e+00 -5.400254e+01 -5.390968e+01
<VARIANCE> 3
 8.600881e+00 2.623643e+03 2.637091e+03
<GCONST> 2.341525e+01
<MIXTURE> 2 9.047076e-01
<MEAN> 3
 5.631979e+00 1.801710e-03 -7.705101e+00
<VARIANCE> 3
 5.296318e+00 1.000000e-02 1.031081e+01
<GCONST> 4.908666e+00
<TRANSP> 8
 0.000000e+00 1.000000e+00 0.000000e+00 0.000000e+00 0.000000e+00 0.000000e+00 0.000000e+00 0.000000e+00
 0.000000e+00 9.791142e-01 2.088578e-02 0.000000e+00 0.000000e+00 0.000000e+00 0.000000e+00 0.000000e+00
 0.000000e+00 0.000000e+00 4.708974e-01 5.291026e-01 0.000000e+00 0.000000e+00 0.000000e+00 0.000000e+00
 0.000000e+00 0.000000e+00 0.000000e+00 9.600593e-01 3.994067e-02 0.000000e+00 0.000000e+00 0.000000e+00
 0.000000e+00 0.000000e+00 0.000000e+00 0.000000e+00 9.583278e-01 4.167213e-02 0.000000e+00 0.000000e+00
 0.000000e+00 0.000000e+00 0.000000e+00 0.000000e+00 0.000000e+00 9.350002e-01 6.499982e-02 0.000000e+00
 0.000000e+00 0.000000e+00 0.000000e+00 0.000000e+00 0.000000e+00 0.000000e+00 8.944939e-01 1.055061e-01
 0.000000e+00 0.000000e+00 0.000000e+00 0.000000e+00 0.000000e+00 0.000000e+00 0.000000e+00 0.000000e+00
<ENDHMM>
