~o
<STREAMINFO> 1 3
<VECSIZE> 3<NULLD><USER><DIAGC>
~h "a"
<BEGINHMM>
<NUMSTATES> 8
<STATE> 2
<NUMMIXES> 2
<MIXTURE> 1 9.780946e-01
<MEAN> 3
 5.716636e+00 4.424222e+00 4.639607e+00
<VARIANCE> 3
 9.197041e+00 7.737190e+00 6.898403e+00
<GCONST> 1.170984e+01
<MIXTURE> 2 2.190569e-02
<MEAN> 3
 3.783745e+00 -2.805098e+01 -1.000000e+02
<VARIANCE> 3
 1.099313e+01 2.015693e+03 1.000000e-02
<GCONST> 1.091445e+01
<STATE> 3
<NUMMIXES> 2
<MIXTURE> 1 9.858214e-01
<MEAN> 3
 3.428392e+00 4.544221e+00 2.883562e-03
<VARIANCE> 3
 8.601828e+00 8.773369e+00 1.000000e-02
<GCONST> 5.232157e+00
<MIXTURE> 2 1.417654e-02
<MEAN> 3
 8.194889e-01 -4.914478e+01 -1.000000e+02
<VARIANCE> 3
 4.619464e-02 2.477719e+03 1.000000e-02
<GCONST> 5.648664e+00
<STATE> 4
<NUMMIXES> 2
<MIXTURE> 1 9.896356e-01
<MEAN> 3
 4.510639e+00 2.651289e-03 2.333550e-04
<VARIANCE> 3
 8.527912e+00 1.000000e-02 1.000000e-02
<GCONST> -1.553365e+00
<MIXTURE> 2 1.036332e-02
<MEAN> 3
 5.176505e-01 -4.955595e+01 -1.000000e+02
<VARIANCE> 3
 1.654785e-02 2.477942e+03 1.000000e-02
<GCONST> 4.622146e+00
<STATE> 5
<NUMMIXES> 2
<MIXTURE> 1 9.489903e-01
<MEAN> 3
 1.530520e+00 -3.285495e+00 -8.071328e-02
<VARIANCE> 3
 6.105367e+00 3.315117e+01 2.842844e+00
<GCONST> 1.186868e+01
<MIXTURE> 2 5.101132e-02
<MEAN> 3
 3.420182e-01 -4.328094e+01 -1.000000e+02
<VARIANCE> 3
 4.285957e-02 2.439488e+03 1.000000e-02
<GCONST> 5.558178e+00
<STATE> 6
<NUMMIXES> 2
<MIXTURE> 1 3.331255e-01
<MEAN> 3
 1.794108e-03 -8.492970e-04 -3.033784e-03
<VARIANCE> 3
 1.000000e-02 1.000000e-02 1.000000e-02
<GCONST> -8.301880e+00
<MIXTURE> 2 6.668289e-01
<MEAN> 3
 5.050574e-04 -5.084489e+01 -1.000000e+02
<VARIANCE> 3
 1.000000e-02 2.410421e+03 1.000000e-02
<GCONST> 4.090848e+00
<STATE> 7
<NUMMIXES> 2
<MIXTURE> 1 9.504485e-01
<MEAN> 3
 1.184827e-03 -2.896004e-01 -6.357161e-01
<VARIANCE> 3
 1.000000e-02 2.539954e-01 2.979232e-01
<GCONST> -1.672898e+00
<MIXTURE> 2 4.955094e-02
<MEAN> 3
 -6.936457e-02 -5.172322e+01 -1.000000e+02
<VARIANCE> 3
 1.000000e-02 2.236609e+03 1.000000e-02
<GCONST> 4.016007e+00
<TRANSP> 8
 0.000000e+00 1.000000e+00 0.000000e+00 0.000000e+00 0.000000e+00 0.000000e+00 0.000000e+00 0.000000e+00
 0.000000e+00 9.695274e-01 3.047265e-02 0.000000e+00 0.000000e+00 0.000000e+00 0.000000e+00 0.000000e+00
 0.000000e+00 0.000000e+00 9.660605e-01 3.393948e-02 0.000000e+00 0.000000e+00 0.000000e+00 0.000000e+00
 0.000000e+00 0.000000e+00 0.000000e+00 9.750559e-01 2.494417e-02 0.000000e+00 0.000000e+00 0.000000e+00
 0.000000e+00 0.000000e+00 0.000000e+00 0.000000e+00 9.005256e-01 9.947437e-02 0.000000e+00 0.000000e+00
 0.000000e+00 0.000000e+00 0.000000e+00 0.000000e+00 0.000000e+00 9.940645e-01 5.935530e-03 0.000000e+00
 0.000000e+00 0.000000e+00 0.000000e+00 0.000000e+00 0.000000e+00 0.000000e+00 8.911198e-01 1.088803e-01
 0.000000e+00 0.000000e+00 0.000000e+00 0.000000e+00 0.000000e+00 0.000000e+00 0.000000e+00 0.000000e+00
<ENDHMM>
~h "e"
<BEGINHMM>
<NUMSTATES> 8
<STATE> 2
<NUMMIXES> 2
<MIXTURE> 1 9.824487e-01
<MEAN> 3
 9.242185e-05 -4.394493e-02 -6.299737e+00
<VARIANCE> 3
 1.000000e-02 3.322883e-02 1.564505e+01
<GCONST> 2.542782e-01
<MIXTURE> 2 1.754978e-02
<MEAN> 3
 -1.590957e-01 -4.241049e+01 -1.000000e+02
<VARIANCE> 3
 1.149470e-02 2.203096e+03 1.000000e-02
<GCONST> 4.140211e+00
<STATE> 3
<NUMMIXES> 2
<MIXTURE> 1 9.169173e-02
<MEAN> 3
 -4.377530e-01 -4.826677e-01 -6.095611e+00
<VARIANCE> 3
 2.121422e-01 3.134168e-01 1.861252e+01
<GCONST> 5.726747e+00
<MIXTURE> 2 9.083049e-01
<MEAN> 3
 -1.058782e+00 -5.015329e+01 -1.000000e+02
<VARIANCE> 3
 3.821953e-01 2.353369e+03 1.000000e-02
<GCONST> 7.710240e+00
<STATE> 4
<NUMMIXES> 2
<MIXTURE> 1 9.866505e-01
<MEAN> 3
 -4.149554e-03 -6.686400e+00 -6.002331e+00
<VARIANCE> 3
 1.000000e-02 1.144396e+01 1.801591e+01
<GCONST> 6.237178e+00
<MIXTURE> 2 1.334949e-02
<MEAN> 3
 -2.322896e+00 -5.117150e+01 -1.000000e+02
<VARIANCE> 3
 4.062222e-02 2.256733e+03 1.000000e-02
<GCONST> 5.426695e+00
<STATE> 5
<NUMMIXES> 2
<MIXTURE> 1 1.240928e-01
<MEAN> 3
 -2.668510e+00 -2.028380e+00 -1.051603e+00
<VARIANCE> 3
 2.941808e+00 5.897290e+00 4.015875e+00
<GCONST> 9.757403e+00
<MIXTURE> 2 8.758686e-01
<MEAN> 3
 -8.438751e+00 -4.824269e+00 -1.000000e+02
<VARIANCE> 3
 4.843001e+00 6.533949e+01 1.000000e-02
<GCONST> 6.665592e+00
<STATE> 6
<NUMMIXES> 2
<MIXTURE> 1 9.985179e-02
<MEAN> 3
 -1.803092e+00 -8.152271e+00 -8.168715e+00
<VARIANCE> 3
 1.194760e+00 6.578830e+00 9.122499e+00
<GCONST> 9.786178e+00
<MIXTURE> 2 9.001462e-01
<MEAN> 3
 -8.112114e+00 -9.943935e+01 -1.000000e+02
<VARIANCE> 3
 4.776759e+00 5.500176e+01 1.000000e-02
<GCONST> 6.479589e+00
<STATE> 7
<NUMMIXES> 2
<MIXTURE> 1 9.880340e-01
<MEAN> 3
 -8.777845e+00 -8.257991e+00 -7.924207e+00
<VARIANCE> 3
 5.043703e+00 7.834303e+00 8.354097e+00
<GCONST> 1.131304e+01
<MIXTURE> 2 1.196745e-02
<MEAN> 3
 -4.232169e+00 -4.938670e+01 -1.000000e+02
<VARIANCE> 3
 6.964312e-01 2.433184e+03 1.000000e-02
<GCONST> 8.343631e+00
<TRANSP> 8
 0.000000e+00 1.000000e+00 0.000000e+00 0.000000e+00 0.000000e+00 0.000000e+00 0.000000e+00 0.000000e+00
 0.000000e+00 9.679792e-01 3.202081e-02 0.000000e+00 0.000000e+00 0.000000e+00 0.000000e+00 0.000000e+00
 0.000000e+00 0.000000e+00 9.251846e-01 7.481544e-02 0.000000e+00 0.000000e+00 0.000000e+00 0.000000e+00
 0.000000e+00 0.000000e+00 0.000000e+00 9.724475e-01 2.755250e-02 0.000000e+00 0.000000e+00 0.000000e+00
 0.000000e+00 0.000000e+00 0.000000e+00 0.000000e+00 9.797563e-01 2.024370e-02 0.000000e+00 0.000000e+00
 0.000000e+00 0.000000e+00 0.000000e+00 0.000000e+00 0.000000e+00 9.775568e-01 2.244323e-02 0.000000e+00
 0.000000e+00 0.000000e+00 0.000000e+00 0.000000e+00 0.000000e+00 0.000000e+00 9.734243e-01 2.657565e-02
 0.000000e+00 0.000000e+00 0.000000e+00 0.000000e+00 0.000000e+00 0.000000e+00 0.000000e+00 0.000000e+00
<ENDHMM>
~h "i"
<BEGINHMM>
<NUMSTATES> 8
<STATE> 2
<NUMMIXES> 2
<MIXTURE> 1 9.523503e-01
<MEAN> 3
 -8.155334e-01 -5.039013e+00 -6.988487e+00
<VARIANCE> 3
 5.221593e+00 1.891779e+01 1.470568e+01
<GCONST> 1.279477e+01
<MIXTURE> 2 4.765054e-02
<MEAN> 3
 -3.362810e+00 -4.806700e+01 -1.000000e+02
<VARIANCE> 3
 3.042344e-01 2.423286e+03 1.000000e-02
<GCONST> 7.511384e+00
<STATE> 3
<NUMMIXES> 2
<MIXTURE> 1 9.850646e-01
<MEAN> 3
 -7.318832e+00 -8.273610e+00 -3.332414e-03
<VARIANCE> 3
 1.183419e+01 6.952061e+00 1.000000e-02
<GCONST> 5.318492e+00
<MIXTURE> 2 1.493632e-02
<MEAN> 3
 -2.545866e+00 -4.980938e+01 -1.000000e+02
<VARIANCE> 3
 1.292725e-01 2.435648e+03 1.000000e-02
<GCONST> 6.660596e+00
<STATE> 4
<NUMMIXES> 2
<MIXTURE> 1 8.439246e-01
<MEAN> 3
 -5.165427e+00 -1.415147e-02 2.415813e+00
<VARIANCE> 3
 2.047671e+01 1.547956e-02 7.503727e+00
<GCONST> 6.380084e+00
<MIXTURE> 2 1.560719e-01
<MEAN> 3
 -4.084177e+00 -2.377682e+01 -1.000000e+02
<VARIANCE> 3
 1.027730e+01 1.816485e+03 1.000000e-02
<GCONST> 1.074306e+01
<STATE> 5
<NUMMIXES> 2
<MIXTURE> 1 9.860563e-01
<MEAN> 3
 -7.969462e+00 -1.432551e-03 6.748060e-04
<VARIANCE> 3
 8.196265e+00 1.000000e-02 1.000000e-02
<GCONST> -1.593030e+00
<MIXTURE> 2 1.394297e-02
<MEAN> 3
 -1.109054e+00 -5.028667e+01 -1.000000e+02
<VARIANCE> 3
 4.515888e-02 2.451676e+03 1.000000e-02
<GCONST> 5.615420e+00
<STATE> 6
<NUMMIXES> 2
<MIXTURE> 1 8.895836e-01
<MEAN> 3
 -3.958364e+00 1.422274e+00 8.952442e-01
<VARIANCE> 3
 1.764197e+01 3.878485e+00 1.232461e+01
<GCONST> 1.225095e+01
<MIXTURE> 2 1.104230e-01
<MEAN> 3
 -6.694652e-01 -4.537700e+01 -1.000000e+02
<VARIANCE> 3
 5.759584e-02 2.444899e+03 1.000000e-02
<GCONST> 5.855915e+00
<STATE> 7
<NUMMIXES> 2
<MIXTURE> 1 5.215886e-01
<MEAN> 3
 -1.852484e-03 1.175937e-03 2.040880e-03
<VARIANCE> 3
 1.000000e-02 1.000000e-02 1.000000e-02
<GCONST> -8.301880e+00
<MIXTURE> 2 4.783445e-01
<MEAN> 3
 -1.728509e-03 -1.527110e-01 -1.000000e+02
<VARIANCE> 3
 1.000000e-02 4.169204e+01 1.000000e-02
<GCONST> 3.360081e-02
<TRANSP> 8
 0.000000e+00 1.000000e+00 0.000000e+00 0.000000e+00 0.000000e+00 0.000000e+00 0.000000e+00 0.000000e+00
 0.000000e+00 9.025572e-01 9.744286e-02 0.000000e+00 0.000000e+00 0.000000e+00 0.000000e+00 0.000000e+00
 0.000000e+00 0.000000e+00 9.688972e-01 3.110276e-02 0.000000e+00 0.000000e+00 0.000000e+00 0.000000e+00
 0.000000e+00 0.000000e+00 0.000000e+00 8.672915e-01 1.327085e-01 0.000000e+00 0.000000e+00 0.000000e+00
 0.000000e+00 0.000000e+00 0.000000e+00 0.000000e+00 9.729042e-01 2.709578e-02 0.000000e+00 0.000000e+00
 0.000000e+00 0.000000e+00 0.000000e+00 0.000000e+00 0.000000e+00 8.876066e-01 1.123934e-01 0.000000e+00
 0.000000e+00 0.000000e+00 0.000000e+00 0.000000e+00 0.000000e+00 0.000000e+00 9.914611e-01 8.538887e-03
 0.000000e+00 0.000000e+00 0.000000e+00 0.000000e+00 0.000000e+00 0.000000e+00 0.000000e+00 0.000000e+00
<ENDHMM>
~h "m"
<BEGINHMM>
<NUMSTATES> 8
<STATE> 2
<NUMMIXES> 2
<MIXTURE> 1 1.832478e-01
<MEAN> 3
 7.102772e-04 6.214240e-03 2.894058e+00
<VARIANCE> 3
 1.000000e-02 1.000000e-02 9.103312e+00
<GCONST> -1.488071e+00
<MIXTURE> 2 8.166814e-01
<MEAN> 3
 6.578871e-04 -9.974112e+01 -1.000000e+02
<VARIANCE> 3
 1.000000e-02 2.594114e+01 1.000000e-02
<GCONST> -4.408789e-01
<STATE> 3
<NUMMIXES> 2
<MIXTURE> 1 9.831169e-01
<MEAN> 3
 2.944166e-03 2.519632e+00 2.064394e+00
<VARIANCE> 3
 1.000000e-02 3.987525e+00 9.408740e+00
<GCONST> 4.533271e+00
<MIXTURE> 2 1.688057e-02
<MEAN> 3
 2.770060e-01 -5.318828e+01 -1.000000e+02
<VARIANCE> 3
 1.000000e-02 2.514844e+03 1.000000e-02
<GCONST> 4.133257e+00
<STATE> 4
<NUMMIXES> 2
<MIXTURE> 1 9.509444e-01
<MEAN> 3
 2.225636e+00 2.285719e-01 -2.905194e+00
<VARIANCE> 3
 3.513134e+00 3.771684e-01 2.791213e+01
<GCONST> 9.124138e+00
<MIXTURE> 2 4.905701e-02
<MEAN> 3
 4.480179e-01 -5.068217e+01 -1.000000e+02
<VARIANCE> 3
 1.730195e-02 2.545807e+03 1.000000e-02
<GCONST> 4.693728e+00
<STATE> 5
<NUMMIXES> 2
<MIXTURE> 1 9.576170e-01
<MEAN> 3
 2.009577e+00 4.355805e+00 2.828965e+00
<VARIANCE> 3
 1.923639e+00 5.003628e+00 7.151566e+00
<GCONST> 9.745344e+00
<MIXTURE> 2 4.238188e-02
<MEAN> 3
 6.495425e-01 -4.955263e+01 -1.000000e+02
<VARIANCE> 3
 5.222691e-02 2.549590e+03 1.000000e-02
<GCONST> 5.799991e+00
<STATE> 6
<NUMMIXES> 2
<MIXTURE> 1 7.675082e-03
<MEAN> 3
 1.875735e+00 2.815205e+00 8.434488e-01
<VARIANCE> 3
 4.445498e+00 6.447618e+00 2.649613e+00
<GCONST> 9.843648e+00
<MIXTURE> 2 9.923252e-01
<MEAN> 3
 3.474046e+00 1.265215e+00 -1.000000e+02
<VARIANCE> 3
 7.570088e+00 6.012077e+01 1.000000e-02
<GCONST> 7.029021e+00
<STATE> 7
<NUMMIXES> 2
<MIXTURE> 1 1.519886e-02
<MEAN> 3
 2.031445e+00 2.977080e+00 8.714837e-01
<VARIANCE> 3
 4.930974e+00 7.057678e+00 2.625805e+00
<GCONST> 1.002867e+01
<MIXTURE> 2 9.847994e-01
<MEAN> 3
 4.277835e+00 -9.923568e+01 -1.000000e+02
<VARIANCE> 3
 9.122588e+00 7.550175e+01 1.000000e-02
<GCONST> 7.443370e+00
<TRANSP> 8
 0.000000e+00 1.000000e+00 0.000000e+00 0.000000e+00 0.000000e+00 0.000000e+00 0.000000e+00 0.000000e+00
 0.000000e+00 9.903206e-01 9.679492e-03 0.000000e+00 0.000000e+00 0.000000e+00 0.000000e+00 0.000000e+00
 0.000000e+00 0.000000e+00 9.642138e-01 3.578620e-02 0.000000e+00 0.000000e+00 0.000000e+00 0.000000e+00
 0.000000e+00 0.000000e+00 0.000000e+00 9.040286e-01 9.597140e-02 0.000000e+00 0.000000e+00 0.000000e+00
 0.000000e+00 0.000000e+00 0.000000e+00 0.000000e+00 9.194190e-01 8.058099e-02 0.000000e+00 0.000000e+00
 0.000000e+00 0.000000e+00 0.000000e+00 0.000000e+00 0.000000e+00 9.803080e-01 1.969200e-02 0.000000e+00
 0.000000e+00 0.000000e+00 0.000000e+00 0.000000e+00 0.000000e+00 0.000000e+00 9.613325e-01 3.866752e-02
 0.000000e+00 0.000000e+00 0.000000e+00 0.000000e+00 0.000000e+00 0.000000e+00 0.000000e+00 0.000000e+00
<ENDHMM>
~h "sil"
<BEGINHMM>
<NUMSTATES> 8
<STATE> 2
<NUMMIXES> 2
<MIXTURE> 1 9.226269e-01
<MEAN> 3
 9.450839e+00 3.336012e+00 1.099604e+00
<VARIANCE> 3
 7.459224e+00 7.289244e+00 3.453479e+00
<GCONST> 1.074886e+01
<MIXTURE> 2 7.737266e-02
<MEAN> 3
 5.069052e+00 -6.005133e+01 -5.799560e+01
<VARIANCE> 3
 5.945104e+00 2.073146e+03 2.296808e+03
<GCONST> 2.267230e+01
<STATE> 3
<NUMMIXES> 2
<MIXTURE> 1 3.646384e-02
<MEAN> 3
 5.092593e+00 -7.072775e+01 -7.094576e+01
<VARIANCE> 3
 8.687428e+00 2.132992e+03 2.108108e+03
<GCONST> 2.299434e+01
<MIXTURE> 2 9.635363e-01
<MEAN> 3
 9.253792e+00 -9.451443e-05 3.872447e-03
<VARIANCE> 3
 3.178353e+00 1.000000e-02 1.000000e-02
<GCONST> -2.540346e+00
<STATE> 4
<NUMMIXES> 2
<MIXTURE> 1 2.225271e-02
<MEAN> 3
 4.799278e+00 -8.443427e+01 -8.506400e+01
<VARIANCE> 3
 8.043883e+00 1.385582e+03 1.277439e+03
<GCONST> 2.198503e+01
<MIXTURE> 2 9.777476e-01
<MEAN> 3
 8.273014e+00 3.114304e-03 3.009944e+00
<VARIANCE> 3
 8.690431e+00 1.000000e-02 8.890559e+00
<GCONST> 5.255673e+00
<STATE> 5
<NUMMIXES> 2
<MIXTURE> 1 1.252478e-01
<MEAN> 3
 6.102539e+00 -5.237469e+01 -5.194435e+01
<VARIANCE> 3
 1.167252e+01 2.550531e+03 2.600017e+03
<GCONST> 2.367820e+01
<MIXTURE> 2 8.747523e-01
<MEAN> 3
 6.285060e+00 1.292303e-03 -8.763140e+00
<VARIANCE> 3
 5.734318e+00 1.000000e-02 4.507601e+00
<GCONST> 4.160695e+00
<STATE> 6
<NUMMIXES> 2
<MIXTURE> 1 9.126739e-02
<MEAN> 3
 4.982254e+00 -8.228326e+01 -8.291609e+01
<VARIANCE> 3
 8.290243e+00 1.552486e+03 1.443802e+03
<GCONST> 2.225136e+01
<MIXTURE> 2 9.087324e-01
<MEAN> 3
 7.678044e+00 1.064714e+00 2.751053e+00
<VARIANCE> 3
 8.725620e+00 3.335477e-01 1.987440e+00
<GCONST> 7.268773e+00
<STATE> 7
<NUMMIXES> 2
<MIXTURE> 1 9.575526e-01
<MEAN> 3
 8.105479e+00 4.261985e+00 2.732342e-03
<VARIANCE> 3
 1.282721e+01 8.448948e+00 1.000000e-02
<GCONST> 5.594071e+00
<MIXTURE> 2 4.244820e-02
<MEAN> 3
 4.872684e+00 -6.218111e+01 -6.168071e+01
<VARIANCE> 3
 7.370328e+00 2.429646e+03 2.496033e+03
<GCONST> 2.312905e+01
<TRANSP> 8
 0.000000e+00 1.000000e+00 0.000000e+00 0.000000e+00 0.000000e+00 0.000000e+00 0.000000e+00 0.000000e+00
 0.000000e+00 9.126571e-01 8.734296e-02 0.000000e+00 0.000000e+00 0.000000e+00 0.000000e+00 0.000000e+00
 0.000000e+00 0.000000e+00 9.479797e-01 5.202030e-02 0.000000e+00 0.000000e+00 0.000000e+00 0.000000e+00
 0.000000e+00 0.000000e+00 0.000000e+00 9.621171e-01 3.788287e-02 0.000000e+00 0.000000e+00 0.000000e+00
 0.000000e+00 0.000000e+00 0.000000e+00 0.000000e+00 8.674413e-01 1.325587e-01 0.000000e+00 0.000000e+00
 0.000000e+00 0.000000e+00 0.000000e+00 0.000000e+00 0.000000e+00 8.481525e-01 1.518475e-01 0.000000e+00
 0.000000e+00 0.000000e+00 0.000000e+00 0.000000e+00 0.000000e+00 0.000000e+00 9.465655e-01 5.343441e-02
 0.000000e+00 0.000000e+00 0.000000e+00 0.000000e+00 0.000000e+00 0.000000e+00 0.000000e+00 0.000000e+00
<ENDHMM>
